genomestart  30
trait 1 0.2775651715169364 0.0 0.9803094690668154 0.7160542295213038 0.0 0.0 0.0 0.7069531750113396 
trait 2 0.13443430009175789 0.0 0.0 0.0 0.0 0.0 0.0 0.0 
node 1 1 1 1
node 2 1 1 1
node 3 1 1 1
node 4 2 1 1
node 5 1 1 1
node 6 1 1 1
node 7 1 1 1
node 8 1 1 1
node 9 1 1 1
node 10 1 1 1
node 11 1 1 1
node 12 1 1 1
node 13 1 1 1
node 14 1 1 1
node 15 1 1 1
node 16 1 1 1
node 17 1 1 1
node 18 1 1 1
node 19 1 1 1
node 20 1 1 1
node 21 1 1 1
node 22 1 1 1
node 23 1 1 1
node 24 1 1 1
node 25 1 1 1
node 26 1 1 1
node 27 1 1 1
node 28 1 1 1
node 29 1 1 1
node 30 1 1 3
node 31 1 0 2
node 32 1 0 2
node 33 1 0 2
node 34 1 0 2
node 35 1 0 2
node 36 1 0 2
node 91 1 0 0
gene  1 30 31 -6.735385448299305 0 1.0 -6.735385448299305 1
gene  1 30 32 3.678733630497084 0 1.0 3.678733630497084 1
gene  1 30 33 -3.8379839506239763 0 1.0 -3.8379839506239763 1
gene  1 30 34 -1.6645716829176629 0 1.0 -1.6645716829176629 1
gene  1 30 35 -0.5189904110578565 0 1.0 -0.5189904110578565 1
gene  1 30 36 0.3238676455584042 0 1.0 0.3238676455584042 1
gene  1 12 31 4.513788520684491 0 77.0 4.513788520684491 1
gene  1 12 32 -2.1737258582299166 0 78.0 -2.1737258582299166 1
gene  2 12 33 2.403743392989309 0 79.0 2.403743392989309 1
gene  1 12 34 2.318451781342134 0 80.0 2.318451781342134 1
gene  1 12 35 1.3626890468307222 0 81.0 1.3626890468307222 1
gene  1 12 36 -8.876419896969947 0 82.0 -8.876419896969947 1
gene  1 21 31 -6.784496041050964 0 107.0 -6.784496041050964 1
gene  1 21 32 1.5518230813915168 0 108.0 1.5518230813915168 1
gene  1 21 33 -1.7662012740845436 0 109.0 -1.7662012740845436 1
gene  1 21 34 4.585471756916366 0 110.0 4.585471756916366 1
gene  1 21 35 -0.9738628546725261 0 111.0 -0.9738628546725261 1
gene  2 21 36 0.46539459790926907 0 112.0 0.46539459790926907 1
gene  1 11 31 -4.340593018513391 0 189.0 -4.340593018513391 1
gene  1 11 32 -4.736446119548842 0 190.0 -4.736446119548842 1
gene  2 11 33 -2.838999402282569 0 191.0 -2.838999402282569 1
gene  1 11 34 0.4436711066182425 0 192.0 0.4436711066182425 1
gene  1 11 35 -0.9684365847161158 0 193.0 -0.9684365847161158 1
gene  2 11 36 1.6387738475339428 0 194.0 1.6387738475339428 0
gene  1 14 31 -2.9692888791024954 0 352.0 -2.9692888791024954 1
gene  1 14 32 -3.262543984386933 0 353.0 -3.262543984386933 1
gene  2 14 33 -3.778489731599256 0 354.0 -3.778489731599256 1
gene  1 14 34 18.065915727376826 0 355.0 18.065915727376826 1
gene  2 14 35 -1.6784255718213816 0 356.0 -1.6784255718213816 1
gene  1 14 36 4.003066198603396 0 357.0 4.003066198603396 1
gene  2 22 31 -8.436103291761352 0 384.0 -8.436103291761352 1
gene  2 22 32 -0.7438837774790047 0 385.0 -0.7438837774790047 1
gene  1 22 33 -7.062539358541642 0 386.0 -7.062539358541642 1
gene  1 22 34 8.521877310195688 0 387.0 8.521877310195688 1
gene  1 22 35 -2.915926303714688 0 388.0 -2.915926303714688 1
gene  2 22 36 -0.9498176950881352 0 389.0 -0.9498176950881352 1
gene  2 10 33 -2.187336529054136 0 435.0 -2.187336529054136 1
gene  1 26 34 -9.920234111577972 0 491.0 -9.920234111577972 1
gene  2 11 91 -0.18526698561177612 0 496.0 -0.18526698561177612 1
gene  2 91 36 1.5543773286697204 0 497.0 1.5543773286697204 1
gene  1 29 31 3.1114772407777833 0 550.0 3.1114772407777833 1
gene  2 29 32 -6.961286850919734 0 551.0 -6.961286850919734 1
gene  1 29 33 -3.5864673872707344 0 552.0 -3.5864673872707344 1
gene  2 29 34 -2.9302268528263387 0 553.0 -2.9302268528263387 1
gene  1 29 35 4.8376016529169785 0 554.0 4.8376016529169785 1
gene  2 29 36 -0.17205416328541 0 555.0 -0.17205416328541 1
gene  1 18 34 -9.560608643175986 0 578.0 -9.560608643175986 1
genomeend 30
