genomestart  70
trait 1 0.1 0.0 0.0 0.0 0.0 0.0 0.5629433661767306 0.11622900968760397 
trait 2 0.9719345134017255 0.0 0.8281083589173882 0.0 0.736746431791878 0.0 0.0 0.4618622942518795 
node 1 1 1 1
node 2 1 1 1
node 3 2 1 1
node 4 1 1 1
node 5 1 1 1
node 6 1 1 1
node 7 1 1 1
node 8 1 1 1
node 9 1 1 1
node 10 2 1 1
node 11 1 1 1
node 12 1 1 1
node 13 1 1 1
node 14 1 1 1
node 15 2 1 1
node 16 1 1 1
node 17 1 1 3
node 18 1 0 2
node 19 1 0 2
node 20 2 0 2
node 21 1 0 2
node 22 1 0 2
node 23 1 0 2
node 32 1 0 0
node 67 1 0 0
node 95 1 0 0
node 296 1 0 0
gene  1 17 18 -3.7680530787247566 0 1.0 -3.7680530787247566 1
gene  1 17 19 4.257377444898687 0 1.0 4.257377444898687 1
gene  1 17 20 -14.407879650884096 0 1.0 -14.407879650884096 1
gene  1 17 21 4.448383636541955 0 1.0 4.448383636541955 1
gene  1 17 22 0.5082631226264658 0 1.0 0.5082631226264658 1
gene  1 17 23 -1.9260643437258185 0 1.0 -1.9260643437258185 1
gene  1 8 18 -3.4679747682052833 0 53.0 -3.4679747682052833 1
gene  1 8 19 4.215308523431049 0 54.0 4.215308523431049 1
gene  1 8 20 -1.6109590682005472 0 55.0 -1.6109590682005472 1
gene  2 8 21 2.4770774950968786 0 56.0 2.4770774950968786 1
gene  1 8 22 2.3187486307516214 0 57.0 2.3187486307516214 0
gene  2 8 23 -0.4783712491507328 0 58.0 -0.4783712491507328 1
gene  2 9 21 9.695373750232042 0 72.0 9.695373750232042 1
gene  1 8 32 1.0290473476669857 0 102.0 1.0290473476669857 1
gene  1 32 19 0.853497526672804 0 103.0 0.853497526672804 1
gene  1 10 18 -0.13517192574494385 0 227.0 -0.13517192574494385 1
gene  2 10 19 1.7180527575279443 0 228.0 1.7180527575279443 1
gene  2 10 20 -1.812868497717504 0 229.0 -1.812868497717504 1
gene  2 10 21 -9.984351885465218 0 230.0 -9.984351885465218 1
gene  2 10 22 3.69978854704798 0 231.0 3.69978854704798 1
gene  1 10 23 -0.9199833425320508 0 232.0 -0.9199833425320508 1
gene  2 1 18 0.7407673634613174 0 282.0 0.7407673634613174 1
gene  1 1 19 0.7346210274292444 0 283.0 0.7346210274292444 1
gene  2 1 20 -1.6056105297944483 0 284.0 -1.6056105297944483 1
gene  2 1 21 1.1075543944088362 0 285.0 1.1075543944088362 1
gene  2 1 22 -0.6593604516795124 0 286.0 -0.6593604516795124 1
gene  1 1 23 -7.605480666012348 0 287.0 -7.605480666012348 1
gene  1 7 18 8.869469609138207 0 344.0 8.869469609138207 1
gene  2 7 19 -1.9978365900120205 0 345.0 -1.9978365900120205 1
gene  2 7 20 -2.1858840803415287 0 346.0 -2.1858840803415287 1
gene  1 7 21 -12.258615433475768 0 347.0 -12.258615433475768 1
gene  1 7 22 -0.013252807966134816 0 348.0 -0.013252807966134816 1
gene  2 7 23 4.470718427933675 0 349.0 4.470718427933675 1
gene  2 13 32 9.092503904706183 0 368.0 9.092503904706183 1
gene  1 8 67 0.20310226544527787 0 428.0 0.20310226544527787 1
gene  1 67 22 4.305718013978784 0 429.0 4.305718013978784 1
gene  2 7 95 2.9394337716100454 0 648.0 2.9394337716100454 1
gene  2 95 20 0.10089216479744867 0 649.0 0.10089216479744867 1
gene  1 22 23 1.2934625966391455 0 1033.0 1.2934625966391455 1
gene  2 18 21 21.484892736482983 0 1104.0 21.484892736482983 1
gene  2 5 18 7.382462775781788 0 1187.0 7.382462775781788 1
gene  1 5 19 3.1216717119310164 0 1188.0 3.1216717119310164 1
gene  2 5 20 9.173962473687467 0 1189.0 9.173962473687467 1
gene  2 5 21 -5.269526083574814 0 1190.0 -5.269526083574814 1
gene  2 5 22 -3.371101957379333 0 1191.0 -3.371101957379333 1
gene  1 5 23 -7.160826767359703 0 1192.0 -7.160826767359703 1
gene  2 23 20 -2.3198013053957593 0 1296.0 -2.3198013053957593 1
gene  2 6 18 -0.3178749911795553 0 1309.0 -0.3178749911795553 1
gene  2 6 19 1.383258891809898 0 1310.0 1.383258891809898 1
gene  1 6 20 -1.105673430612577 0 1311.0 -1.105673430612577 1
gene  2 6 21 -5.569576931914133 0 1312.0 -5.569576931914133 1
gene  2 6 22 0.9755627208991724 0 1313.0 0.9755627208991724 1
gene  2 6 23 4.047938881918097 0 1314.0 4.047938881918097 1
gene  1 14 95 -4.375599566750466 0 1716.0 -4.375599566750466 1
gene  2 9 18 8.702133676796798 0 1848.0 8.702133676796798 1
gene  2 9 19 -4.146424592528419 0 1849.0 -4.146424592528419 1
gene  2 9 20 -1.1309217362032722 0 1850.0 -1.1309217362032722 1
gene  2 9 22 -1.275164101209921 0 1851.0 -1.275164101209921 1
gene  1 9 23 2.4748765911474924 0 1852.0 2.4748765911474924 0
gene  1 3 18 0.7729979420109747 0 1930.0 0.7729979420109747 1
gene  1 3 19 -5.708593619417044 0 1931.0 -5.708593619417044 1
gene  1 3 20 6.6092627215609685 0 1932.0 6.6092627215609685 1
gene  2 3 21 -10.008402826064959 0 1933.0 -10.008402826064959 1
gene  2 3 22 1.6200833922992088 0 1934.0 1.6200833922992088 1
gene  1 3 23 2.090718215261812 0 1935.0 2.090718215261812 1
gene  1 2 18 -0.8988683609129071 0 1983.0 -0.8988683609129071 1
gene  1 2 19 0.9094840665465513 0 1984.0 0.9094840665465513 1
gene  2 2 20 -7.0292046733914475 0 1985.0 -7.0292046733914475 1
gene  1 2 21 6.091414429537524 0 1986.0 6.091414429537524 1
gene  2 2 22 -3.1941171278758884 0 1987.0 -3.1941171278758884 1
gene  2 2 23 3.537108350160145 0 1988.0 3.537108350160145 1
gene  2 17 67 -9.53440973663883 0 2015.0 -9.53440973663883 1
gene  2 12 18 0.43215246872846624 0 2048.0 0.43215246872846624 1
gene  2 12 19 -3.7300480811205032 0 2049.0 -3.7300480811205032 1
gene  2 12 20 0.6295934612582674 0 2050.0 0.6295934612582674 1
gene  2 12 21 -1.871219123279947 0 2051.0 -1.871219123279947 1
gene  1 12 22 -5.995250337848983 0 2052.0 -5.995250337848983 1
gene  1 12 23 -1.198416766103147 0 2053.0 -1.198416766103147 1
gene  2 12 95 -4.104489394181955 0 2316.0 -4.104489394181955 1
gene  1 4 18 9.227773997727919 0 2350.0 9.227773997727919 1
gene  1 4 19 -0.73669514377942 0 2351.0 -0.73669514377942 1
gene  2 4 20 5.899374078349858 0 2352.0 5.899374078349858 1
gene  1 4 21 1.0585444121065097 0 2353.0 1.0585444121065097 1
gene  2 4 22 -10.292300232439938 0 2354.0 -10.292300232439938 1
gene  2 4 23 3.598414872513537 0 2355.0 3.598414872513537 1
gene  2 14 19 -1.693726993014253 0 2390.0 -1.693726993014253 1
gene  1 9 296 -0.5775823370390154 0 2414.0 -0.5775823370390154 1
gene  1 296 23 12.817343355241455 0 2415.0 12.817343355241455 1
genomeend 70
