genomestart  103
trait 1 1.0250857033585747 0.27707961942569176 0.15809469960011385 0.0 0.2514374830677016 0.0 0.0 0.053624658311804546 
trait 2 2.354324471299045 0.9611927763669152 0.659708618295936 0.0 0.0 0.0 0.5038344613940436 0.008554446590025244 
node 1 2 1 1
node 2 2 1 1
node 3 1 1 1
node 4 1 1 1
node 5 1 1 1
node 6 1 1 1
node 7 1 1 1
node 8 1 1 1
node 9 1 1 1
node 10 2 1 1
node 11 2 1 1
node 12 1 1 1
node 13 1 1 1
node 14 1 1 1
node 15 1 1 1
node 16 1 1 1
node 17 2 1 3
node 18 1 0 2
node 19 1 0 2
node 20 1 0 2
node 21 1 0 2
node 22 2 0 2
node 23 1 0 2
node 112 1 0 0
node 208 2 0 0
node 244 1 0 0
node 271 1 0 0
node 411 1 0 0
node 429 1 0 0
node 484 1 0 0
node 488 1 0 0
node 648 1 0 0
node 707 1 0 0
node 809 1 0 0
node 910 1 0 0
node 921 1 0 0
node 1059 1 0 0
node 1185 1 0 0
node 1205 1 0 0
node 1241 1 0 0
gene  1 17 18 -9.127343680086314 0 1.0 -9.127343680086314 1
gene  1 17 19 18.366682719232678 0 1.0 18.366682719232678 1
gene  1 17 20 -17.79920984159756 0 1.0 -17.79920984159756 1
gene  1 17 21 6.030019169128673 0 1.0 6.030019169128673 1
gene  1 17 22 1.2287288549866477 0 1.0 1.2287288549866477 1
gene  1 17 23 14.877170258215129 0 1.0 14.877170258215129 1
gene  1 7 18 -3.7503250878342955 0 17.0 -3.7503250878342955 1
gene  2 7 19 -3.6876539471810874 0 18.0 -3.6876539471810874 1
gene  2 7 20 -1.81204608172952 0 19.0 -1.81204608172952 1
gene  2 7 21 1.8704348358051766 0 20.0 1.8704348358051766 1
gene  1 7 22 9.750346922883644 0 21.0 9.750346922883644 1
gene  1 7 23 -6.410934288262132 0 22.0 -6.410934288262132 1
gene  1 15 18 -12.472567597370858 0 88.0 -12.472567597370858 1
gene  2 15 19 -1.59252201476298 0 89.0 -1.59252201476298 1
gene  2 15 20 -1.6671409270738349 0 90.0 -1.6671409270738349 0
gene  2 15 21 -2.9542364896040203 0 91.0 -2.9542364896040203 1
gene  2 15 22 1.5626199378184646 0 92.0 1.5626199378184646 1
gene  1 15 23 -1.8106950872769405 0 93.0 -1.8106950872769405 1
gene  2 5 18 7.888809101516968 0 323.0 7.888809101516968 1
gene  1 5 19 -0.5145556956929529 0 324.0 -0.5145556956929529 1
gene  1 5 20 2.610584228928534 0 325.0 2.610584228928534 1
gene  1 5 21 4.665515357484932 0 326.0 4.665515357484932 1
gene  1 5 22 0.5919833129793938 0 327.0 0.5919833129793938 1
gene  2 5 23 1.042660053187206 0 328.0 1.042660053187206 1
gene  2 18 21 -31.59490916118301 0 544.0 -31.59490916118301 1
gene  1 15 112 0.26916525074144615 0 712.0 0.26916525074144615 1
gene  1 112 21 2.7725887595031917 0 713.0 2.7725887595031917 1
gene  2 14 18 27.12183308696453 0 1046.0 27.12183308696453 1
gene  1 14 19 4.925817648304711 0 1047.0 4.925817648304711 1
gene  1 14 20 -0.8371934945660343 0 1048.0 -0.8371934945660343 1
gene  1 14 21 3.830078236913146 0 1049.0 3.830078236913146 1
gene  1 14 22 -5.059524842614737 0 1050.0 -5.059524842614737 1
gene  1 14 23 -2.618334821135319 0 1051.0 -2.618334821135319 1
gene  2 1 20 1.274662345646635 0 1201.0 1.274662345646635 1
gene  1 15 208 -6.878755304260234 0 1556.0 -6.878755304260234 1
gene  1 208 18 -1.7492636266910173 0 1557.0 -1.7492636266910173 1
gene  2 112 19 0.9977066390627514 0 1703.0 0.9977066390627514 1
gene  1 4 21 5.438039821530872 0 1772.0 5.438039821530872 1
gene  2 5 244 2.6575743186089844 0 1822.0 2.6575743186089844 1
gene  2 244 18 -0.1342175341391102 0 1823.0 -0.1342175341391102 1
gene  1 15 271 2.6838029692867726 0 2042.0 2.6838029692867726 1
gene  1 271 208 2.843416468277569 0 2043.0 2.843416468277569 1
gene  2 244 208 0.8050684397938687 0 2091.0 0.8050684397938687 1
gene  2 244 22 -2.542874043432857 0 2331.0 -2.542874043432857 1
gene  2 20 21 12.218443628864632 0 2428.0 12.218443628864632 1
gene  1 3 22 5.129964286479071 0 2501.0 5.129964286479071 1
gene  1 6 271 -1.7584078843988284 0 2549.0 -1.7584078843988284 1
gene  1 20 22 -2.658202765608708 0 2652.0 -2.658202765608708 1
gene  1 2 20 6.947392333961357 0 2716.0 6.947392333961357 1
gene  1 112 22 1.3648523563587065 0 2785.0 1.3648523563587065 1
gene  1 3 18 2.0698587291450528 0 2978.0 2.0698587291450528 1
gene  1 3 19 -3.113798805765675 0 2979.0 -3.113798805765675 1
gene  1 3 20 -2.576365329496923 0 2980.0 -2.576365329496923 1
gene  2 3 21 -1.7100853193146217 0 2981.0 -1.7100853193146217 1
gene  1 3 23 -10.340744513936512 0 2982.0 -10.340744513936512 1
gene  1 13 18 -31.31153930214141 0 3030.0 -31.31153930214141 1
gene  1 13 19 1.683790463893692 0 3031.0 1.683790463893692 1
gene  1 13 20 -19.557461632144186 0 3032.0 -19.557461632144186 1
gene  1 13 21 0.5990778126107169 0 3033.0 0.5990778126107169 1
gene  1 13 22 -0.41137486188777517 0 3034.0 -0.41137486188777517 1
gene  2 13 23 1.804335251296433 0 3023.0 1.804335251296433 1
gene  1 3 411 -1.046972307721834 0 3178.0 -1.046972307721834 1
gene  1 411 20 1.1879371571934858 0 3179.0 1.1879371571934858 1
gene  1 2 23 2.7101121688618437 0 3224.0 2.7101121688618437 1
gene  2 20 112 -0.5419250528903589 0 3249.0 -0.5419250528903589 1
gene  1 3 429 1.075776227809883 0 3288.0 1.075776227809883 1
gene  1 429 19 -0.734487829845183 0 3289.0 -0.734487829845183 1
gene  2 244 484 0.8614973031639769 0 3768.0 0.8614973031639769 1
gene  2 484 22 4.529086247417415 0 3769.0 4.529086247417415 1
gene  2 15 488 0.4690538812722431 0 3810.0 0.4690538812722431 1
gene  2 488 22 3.106568161293273 0 3811.0 3.106568161293273 1
gene  1 12 18 2.025360606700799 0 3812.0 2.025360606700799 1
gene  1 12 19 -1.8677025216217444 0 3813.0 -1.8677025216217444 1
gene  1 12 20 2.3104580360987814 0 3814.0 2.3104580360987814 1
gene  1 12 21 7.081725985580194 0 3815.0 7.081725985580194 1
gene  1 12 22 0.08742048219869183 0 3816.0 0.08742048219869183 1
gene  2 12 23 5.589211016720299 0 3817.0 5.589211016720299 1
gene  1 1 18 1.8157000555173726 0 4064.0 1.8157000555173726 1
gene  1 1 19 -0.8289527660314275 0 4065.0 -0.8289527660314275 1
gene  2 1 21 5.733529869301773 0 4066.0 5.733529869301773 1
gene  2 1 22 -1.1732208078980402 0 4067.0 -1.1732208078980402 1
gene  2 1 23 1.4981130274414511 0 4068.0 1.4981130274414511 1
gene  1 4 20 4.687417710281554 0 4193.0 4.687417710281554 1
gene  1 10 18 0.7459049199049849 0 4365.0 0.7459049199049849 1
gene  2 10 19 -2.4339423579064667 0 4366.0 -2.4339423579064667 1
gene  2 10 20 -8.855537697527895 0 4367.0 -8.855537697527895 1
gene  1 10 21 -0.5435294194549203 0 4368.0 -0.5435294194549203 1
gene  2 10 22 0.2735335243284986 0 4369.0 0.2735335243284986 1
gene  2 10 23 0.9080863234029909 0 4370.0 0.9080863234029909 1
gene  1 8 18 4.360576286591956 0 4406.0 4.360576286591956 1
gene  1 8 19 -1.2377899741255929 0 4407.0 -1.2377899741255929 1
gene  1 8 20 3.9797283838187116 0 4408.0 3.9797283838187116 1
gene  1 8 21 2.0203213228104238 0 4409.0 2.0203213228104238 1
gene  1 8 22 -1.2245259172670433 0 4410.0 -1.2245259172670433 1
gene  2 8 23 4.9899642334619 0 4411.0 4.9899642334619 1
gene  2 4 18 0.9779630312042641 0 4485.0 0.9779630312042641 1
gene  2 4 19 2.0987669251618906 0 4486.0 2.0987669251618906 1
gene  1 4 22 -5.202937866773927 0 4487.0 -5.202937866773927 1
gene  1 4 23 -12.235785413680485 0 4488.0 -12.235785413680485 1
gene  2 13 208 1.868510133368816 0 4719.0 1.868510133368816 1
gene  1 271 429 6.504467464649882 0 4762.0 6.504467464649882 1
gene  1 2 18 -5.264580024593898 0 4882.0 -5.264580024593898 1
gene  2 2 19 -2.172187452269009 0 4883.0 -2.172187452269009 1
gene  2 2 21 -5.640284511891933 0 4884.0 -5.640284511891933 1
gene  2 2 22 -18.570579112510067 0 4885.0 -18.570579112510067 1
gene  2 9 18 -8.854481153311065 0 4961.0 -8.854481153311065 1
gene  1 9 19 1.9901718330478224 0 4962.0 1.9901718330478224 0
gene  2 9 20 -1.6011573803239851 0 4963.0 -1.6011573803239851 1
gene  2 9 21 0.5653714151911142 0 4964.0 0.5653714151911142 1
gene  1 9 22 0.5193590921310852 0 4965.0 0.5193590921310852 1
gene  2 9 23 -4.941040936690076 0 4966.0 -4.941040936690076 1
gene  2 14 411 -4.420785312064024 0 5105.0 -4.420785312064024 1
gene  1 15 648 -9.048136795781364 0 5195.0 -9.048136795781364 1
gene  1 648 208 3.0332582002360993 0 5196.0 3.0332582002360993 1
gene  2 648 20 4.661703416108828 0 5299.0 4.661703416108828 1
gene  1 10 244 -3.7406673239245825 0 5510.0 -3.7406673239245825 1
gene  2 244 707 1.5479756809089542 0 5636.0 1.5479756809089542 0
gene  2 707 484 -1.2131941000448796 0 5637.0 -1.2131941000448796 1
gene  2 11 18 0.6899494879335131 0 5891.0 0.6899494879335131 1
gene  1 11 19 -2.3216300889204424 0 5892.0 -2.3216300889204424 1
gene  1 11 20 3.310522157293992 0 5893.0 3.310522157293992 1
gene  2 11 21 -2.779730715372301 0 5894.0 -2.779730715372301 1
gene  1 11 22 1.3192621050418936 0 5895.0 1.3192621050418936 1
gene  2 11 23 -7.0098044692131785 0 5896.0 -7.0098044692131785 1
gene  1 4 271 1.038466989607772 0 5969.0 1.038466989607772 1
gene  1 6 18 0.2669331455352555 0 6161.0 0.2669331455352555 1
gene  2 6 19 -6.773789409035761 0 6162.0 -6.773789409035761 1
gene  1 6 20 -4.859490795559095 0 6163.0 -4.859490795559095 1
gene  2 6 21 5.857021743645571 0 6164.0 5.857021743645571 1
gene  1 6 22 0.5568189765616272 0 6165.0 0.5568189765616272 1
gene  2 6 23 -0.3368926378860022 0 6166.0 -0.3368926378860022 1
gene  2 21 429 -0.7320159826851269 0 6172.0 -0.7320159826851269 1
gene  1 484 411 4.519620617816145 0 6243.0 4.519620617816145 1
gene  1 648 707 -3.3354381333832306 0 6333.0 -3.3354381333832306 1
gene  1 14 488 -1.482363949433779 0 6647.0 -1.482363949433779 1
gene  1 9 707 -2.8957897128690435 0 6682.0 -2.8957897128690435 1
gene  1 429 809 2.7174634120033843 0 6709.0 2.7174634120033843 1
gene  1 809 19 4.070724586255421 0 6710.0 4.070724586255421 1
gene  1 411 18 0.2285011482158072 0 6838.0 0.2285011482158072 1
gene  2 16 18 -2.502771048212628 0 6839.0 -2.502771048212628 1
gene  2 16 19 0.6851867457372269 0 6840.0 0.6851867457372269 1
gene  1 16 20 -4.5367933717557465 0 6841.0 -4.5367933717557465 1
gene  1 16 21 -3.655592723838757 0 6842.0 -3.655592723838757 1
gene  2 16 22 -0.264243041855456 0 6843.0 -0.264243041855456 1
gene  2 16 23 -1.3956621508388867 0 6844.0 -1.3956621508388867 1
gene  1 15 910 -1.6555702979254567 0 7369.0 -1.6555702979254567 1
gene  1 910 648 -1.738597147447105 0 7370.0 -1.738597147447105 1
gene  2 22 271 -0.7230648111673987 0 7497.0 -0.7230648111673987 1
gene  1 208 19 1.683286365342736 0 7629.0 1.683286365342736 1
gene  2 3 484 -2.0416443668421387 0 7662.0 -2.0416443668421387 1
gene  1 8 921 3.052602349253503 0 7666.0 3.052602349253503 1
gene  1 921 20 -0.539568814324221 0 7667.0 -0.539568814324221 1
gene  1 23 19 5.727781174561451 0 7861.0 5.727781174561451 1
gene  2 16 484 1.88486304230276 0 7888.0 1.88486304230276 1
gene  1 5 411 3.174407064458209 0 7911.0 3.174407064458209 1
gene  2 14 707 1.1039663144768725 0 8242.0 1.1039663144768725 1
gene  2 9 1059 -0.15214470232673027 0 8317.0 -0.15214470232673027 1
gene  2 1059 20 -2.903528455057406 0 8318.0 -2.903528455057406 1
gene  2 14 648 -0.35552793453066145 0 8476.0 -0.35552793453066145 0
gene  1 411 19 7.291371204311321 0 8797.0 7.291371204311321 1
gene  2 15 1185 -1.7415234391018897 0 8909.0 -1.7415234391018897 1
gene  2 1185 20 2.2267568703109752 0 8910.0 2.2267568703109752 1
gene  2 244 411 -5.527015439138846 0 8924.0 -5.527015439138846 1
gene  2 244 1205 1.8704114052405685 0 8984.0 1.3704114052405685 1
gene  2 1205 707 1.6397632755806977 0 8985.0 1.2174467750720073 1
gene  2 7 112 5.120685210033306 0 9066.0 5.120685210033306 1
gene  2 14 1241 1.0 0 9130.0 0.0 1
gene  2 1241 648 -0.35552793453066145 0 9131.0 0.0 1
gene  2 112 429 -4.662125375732939 0 9165.0 -4.662125375732939 1
genomeend 103
