 genomestart  1
 trait 1 0.1 0 0 0 0 0 0 0
 trait 2 0.2 0 0 0 0 0 0 0
 trait 3 0.3 0 0 0 0 0 0 0
 node 1 0 1 3
 node 2 0 1 1
 node 3 0 1 1
 node 4 0 1 1
 node 5 0 1 1
 node 6 0 1 1
 node 7 0 1 1
 node 8 0 1 1
 node 9 0 1 1
 node 10 0 1 1
 node 11 0 1 1
 node 12 0 1 1
 node 13 0 1 1
 node 14 0 1 1
 node 15 0 0 2
 node 16 0 0 2
 node 17 0 0 2
 node 18 0 0 2
 node 19 0 0 2
 node 20 0 0 2
 gene 1 1 15 0.0 0 1 0 1
 gene 1 2 15 0.0 0 1 0 1
 gene 1 3 15 0.0 0 1 0 1
 gene 1 4 15 0.0 0 1 0 1
 gene 1 5 15 0.0 0 1 0 1
 gene 1 6 15 0.0 0 1 0 1
 gene 1 7 15 0.0 0 1 0 1
 gene 1 8 15 0.0 0 1 0 1
 gene 1 9 15 0.0 0 1 0 1
 gene 1 10 15 0.0 0 1 0 1
 gene 1 11 15 0.0 0 1 0 1
 gene 1 12 15 0.0 0 1 0 1
 gene 1 13 15 0.0 0 1 0 1
 gene 1 14 15 0.0 0 1 0 1
 gene 1 1 16 0.0 0 1 0 1
 gene 1 2 16 0.0 0 1 0 1
 gene 1 3 16 0.0 0 1 0 1
 gene 1 4 16 0.0 0 1 0 1
 gene 1 5 16 0.0 0 1 0 1
 gene 1 6 16 0.0 0 1 0 1
 gene 1 7 16 0.0 0 1 0 1
 gene 1 8 16 0.0 0 1 0 1
 gene 1 9 16 0.0 0 1 0 1
 gene 1 10 16 0.0 0 1 0 1
 gene 1 11 16 0.0 0 1 0 1
 gene 1 12 16 0.0 0 1 0 1
 gene 1 13 16 0.0 0 1 0 1
 gene 1 14 16 0.0 0 1 0 1
 gene 1 1 17 0.0 0 1 0 1
 gene 1 2 17 0.0 0 1 0 1
 gene 1 3 17 0.0 0 1 0 1
 gene 1 4 17 0.0 0 1 0 1
 gene 1 5 17 0.0 0 1 0 1
 gene 1 6 17 0.0 0 1 0 1
 gene 1 7 17 0.0 0 1 0 1
 gene 1 8 17 0.0 0 1 0 1
 gene 1 9 17 0.0 0 1 0 1
 gene 1 10 17 0.0 0 1 0 1
 gene 1 11 17 0.0 0 1 0 1
 gene 1 12 17 0.0 0 1 0 1
 gene 1 13 17 0.0 0 1 0 1
 gene 1 14 17 0.0 0 1 0 1
 gene 1 1 18 0.0 0 1 0 1
 gene 1 2 18 0.0 0 1 0 1
 gene 1 3 18 0.0 0 1 0 1
 gene 1 4 18 0.0 0 1 0 1
 gene 1 5 18 0.0 0 1 0 1
 gene 1 6 18 0.0 0 1 0 1
 gene 1 7 18 0.0 0 1 0 1
 gene 1 8 18 0.0 0 1 0 1
 gene 1 9 18 0.0 0 1 0 1
 gene 1 10 18 0.0 0 1 0 1
 gene 1 11 18 0.0 0 1 0 1
 gene 1 12 18 0.0 0 1 0 1
 gene 1 13 18 0.0 0 1 0 1
 gene 1 14 18 0.0 0 1 0 1
 gene 1 1 19 0.0 0 1 0 1
 gene 1 2 19 0.0 0 1 0 1
 gene 1 3 19 0.0 0 1 0 1
 gene 1 4 19 0.0 0 1 0 1
 gene 1 5 19 0.0 0 1 0 1
 gene 1 6 19 0.0 0 1 0 1
 gene 1 7 19 0.0 0 1 0 1
 gene 1 8 19 0.0 0 1 0 1
 gene 1 9 19 0.0 0 1 0 1
 gene 1 10 19 0.0 0 1 0 1
 gene 1 11 19 0.0 0 1 0 1
 gene 1 12 19 0.0 0 1 0 1
 gene 1 13 19 0.0 0 1 0 1
 gene 1 14 19 0.0 0 1 0 1
 gene 1 1 20 0.0 0 1 0 1
 gene 1 2 20 0.0 0 1 0 1
 gene 1 3 20 0.0 0 1 0 1
 gene 1 4 20 0.0 0 1 0 1
 gene 1 5 20 0.0 0 1 0 1
 gene 1 6 20 0.0 0 1 0 1
 gene 1 7 20 0.0 0 1 0 1
 gene 1 8 20 0.0 0 1 0 1
 gene 1 9 20 0.0 0 1 0 1
 gene 1 10 20 0.0 0 1 0 1
 gene 1 11 20 0.0 0 1 0 1
 gene 1 12 20 0.0 0 1 0 1
 gene 1 13 20 0.0 0 1 0 1
 gene 1 14 20 0.0 0 1 0 1
 genomeend 1
