genomestart 1 
trait 1 0.1 0 0 0 0 0 0 0 
trait 2 0.1 0 0 0 0 0 0 0 
node 1 0 1 3 
node 2 0 1 1 
node 3 0 1 1 
node 4 0 1 1 
node 5 0 1 1 
node 6 0 1 1 
node 7 0 1 1 
node 8 0 1 1 
node 9 0 1 1 
node 10 0 1 1 
node 11 0 1 1 
node 12 0 1 1 
node 13 0 1 1 
node 14 0 1 1 
node 15 0 1 1 
node 16 0 1 1 
node 17 0 1 1 
node 18 0 1 1 
node 19 0 1 1 
node 20 0 1 1 
node 21 0 1 1 
node 22 0 1 1 
node 23 0 1 1 
node 24 0 1 1 
node 25 0 1 1 
node 26 0 1 1 
node 27 0 1 1 
node 28 0 1 1 
node 29 0 1 1 
node 30 0 1 1 
node 31 0 0 2 
node 32 0 0 2 
node 33 0 0 2 
node 34 0 0 2 
node 35 0 0 2 
node 36 0 0 2 
gene 1 1 31 0 0 1 0 1 
gene 2 2 31 0 0 2 0 1 
gene 3 3 31 0 0 3 0 1 
gene 4 4 31 0 0 4 0 1 
gene 5 5 31 0 0 5 0 1 
gene 6 6 31 0 0 6 0 1 
gene 7 7 31 0 0 7 0 1 
gene 8 8 31 0 0 8 0 1 
gene 9 9 31 0 0 9 0 1 
gene 10 10 31 0 0 10 0 1 
gene 11 11 31 0 0 11 0 1 
gene 12 12 31 0 0 12 0 1 
gene 13 13 31 0 0 13 0 1 
gene 14 14 31 0 0 14 0 1 
gene 15 15 31 0 0 15 0 1 
gene 16 16 31 0 0 16 0 1 
gene 17 17 31 0 0 17 0 1 
gene 18 18 31 0 0 18 0 1 
gene 19 19 31 0 0 19 0 1 
gene 20 20 31 0 0 20 0 1 
gene 21 21 31 0 0 21 0 1 
gene 22 22 31 0 0 22 0 1 
gene 23 23 31 0 0 23 0 1 
gene 24 24 31 0 0 24 0 1 
gene 25 25 31 0 0 25 0 1 
gene 26 26 31 0 0 26 0 1 
gene 27 27 31 0 0 27 0 1 
gene 28 28 31 0 0 28 0 1 
gene 29 29 31 0 0 29 0 1 
gene 30 30 31 0 0 30 0 1 
gene 31 1 32 0 0 31 0 1 
gene 32 2 32 0 0 32 0 1 
gene 33 3 32 0 0 33 0 1 
gene 34 4 32 0 0 34 0 1 
gene 35 5 32 0 0 35 0 1 
gene 36 6 32 0 0 36 0 1 
gene 37 7 32 0 0 37 0 1 
gene 38 8 32 0 0 38 0 1 
gene 39 9 32 0 0 39 0 1 
gene 40 10 32 0 0 40 0 1 
gene 41 11 32 0 0 41 0 1 
gene 42 12 32 0 0 42 0 1 
gene 43 13 32 0 0 43 0 1 
gene 44 14 32 0 0 44 0 1 
gene 45 15 32 0 0 45 0 1 
gene 46 16 32 0 0 46 0 1 
gene 47 17 32 0 0 47 0 1 
gene 48 18 32 0 0 48 0 1 
gene 49 19 32 0 0 49 0 1 
gene 50 20 32 0 0 50 0 1 
gene 51 21 32 0 0 51 0 1 
gene 52 22 32 0 0 52 0 1 
gene 53 23 32 0 0 53 0 1 
gene 54 24 32 0 0 54 0 1 
gene 55 25 32 0 0 55 0 1 
gene 56 26 32 0 0 56 0 1 
gene 57 27 32 0 0 57 0 1 
gene 58 28 32 0 0 58 0 1 
gene 59 29 32 0 0 59 0 1 
gene 60 30 32 0 0 60 0 1 
gene 61 1 33 0 0 61 0 1 
gene 62 2 33 0 0 62 0 1 
gene 63 3 33 0 0 63 0 1 
gene 64 4 33 0 0 64 0 1 
gene 65 5 33 0 0 65 0 1 
gene 66 6 33 0 0 66 0 1 
gene 67 7 33 0 0 67 0 1 
gene 68 8 33 0 0 68 0 1 
gene 69 9 33 0 0 69 0 1 
gene 70 10 33 0 0 70 0 1 
gene 71 11 33 0 0 71 0 1 
gene 72 12 33 0 0 72 0 1 
gene 73 13 33 0 0 73 0 1 
gene 74 14 33 0 0 74 0 1 
gene 75 15 33 0 0 75 0 1 
gene 76 16 33 0 0 76 0 1 
gene 77 17 33 0 0 77 0 1 
gene 78 18 33 0 0 78 0 1 
gene 79 19 33 0 0 79 0 1 
gene 80 20 33 0 0 80 0 1 
gene 81 21 33 0 0 81 0 1 
gene 82 22 33 0 0 82 0 1 
gene 83 23 33 0 0 83 0 1 
gene 84 24 33 0 0 84 0 1 
gene 85 25 33 0 0 85 0 1 
gene 86 26 33 0 0 86 0 1 
gene 87 27 33 0 0 87 0 1 
gene 88 28 33 0 0 88 0 1 
gene 89 29 33 0 0 89 0 1 
gene 90 30 33 0 0 90 0 1 
gene 91 1 34 0 0 91 0 1 
gene 92 2 34 0 0 92 0 1 
gene 93 3 34 0 0 93 0 1 
gene 94 4 34 0 0 94 0 1 
gene 95 5 34 0 0 95 0 1 
gene 96 6 34 0 0 96 0 1 
gene 97 7 34 0 0 97 0 1 
gene 98 8 34 0 0 98 0 1 
gene 99 9 34 0 0 99 0 1 
gene 100 10 34 0 0 100 0 1 
gene 101 11 34 0 0 101 0 1 
gene 102 12 34 0 0 102 0 1 
gene 103 13 34 0 0 103 0 1 
gene 104 14 34 0 0 104 0 1 
gene 105 15 34 0 0 105 0 1 
gene 106 16 34 0 0 106 0 1 
gene 107 17 34 0 0 107 0 1 
gene 108 18 34 0 0 108 0 1 
gene 109 19 34 0 0 109 0 1 
gene 110 20 34 0 0 110 0 1 
gene 111 21 34 0 0 111 0 1 
gene 112 22 34 0 0 112 0 1 
gene 113 23 34 0 0 113 0 1 
gene 114 24 34 0 0 114 0 1 
gene 115 25 34 0 0 115 0 1 
gene 116 26 34 0 0 116 0 1 
gene 117 27 34 0 0 117 0 1 
gene 118 28 34 0 0 118 0 1 
gene 119 29 34 0 0 119 0 1 
gene 120 30 34 0 0 120 0 1 
gene 121 1 35 0 0 121 0 1 
gene 122 2 35 0 0 122 0 1 
gene 123 3 35 0 0 123 0 1 
gene 124 4 35 0 0 124 0 1 
gene 125 5 35 0 0 125 0 1 
gene 126 6 35 0 0 126 0 1 
gene 127 7 35 0 0 127 0 1 
gene 128 8 35 0 0 128 0 1 
gene 129 9 35 0 0 129 0 1 
gene 130 10 35 0 0 130 0 1 
gene 131 11 35 0 0 131 0 1 
gene 132 12 35 0 0 132 0 1 
gene 133 13 35 0 0 133 0 1 
gene 134 14 35 0 0 134 0 1 
gene 135 15 35 0 0 135 0 1 
gene 136 16 35 0 0 136 0 1 
gene 137 17 35 0 0 137 0 1 
gene 138 18 35 0 0 138 0 1 
gene 139 19 35 0 0 139 0 1 
gene 140 20 35 0 0 140 0 1 
gene 141 21 35 0 0 141 0 1 
gene 142 22 35 0 0 142 0 1 
gene 143 23 35 0 0 143 0 1 
gene 144 24 35 0 0 144 0 1 
gene 145 25 35 0 0 145 0 1 
gene 146 26 35 0 0 146 0 1 
gene 147 27 35 0 0 147 0 1 
gene 148 28 35 0 0 148 0 1 
gene 149 29 35 0 0 149 0 1 
gene 150 30 35 0 0 150 0 1 
gene 151 1 36 0 0 151 0 1 
gene 152 2 36 0 0 152 0 1 
gene 153 3 36 0 0 153 0 1 
gene 154 4 36 0 0 154 0 1 
gene 155 5 36 0 0 155 0 1 
gene 156 6 36 0 0 156 0 1 
gene 157 7 36 0 0 157 0 1 
gene 158 8 36 0 0 158 0 1 
gene 159 9 36 0 0 159 0 1 
gene 160 10 36 0 0 160 0 1 
gene 161 11 36 0 0 161 0 1 
gene 162 12 36 0 0 162 0 1 
gene 163 13 36 0 0 163 0 1 
gene 164 14 36 0 0 164 0 1 
gene 165 15 36 0 0 165 0 1 
gene 166 16 36 0 0 166 0 1 
gene 167 17 36 0 0 167 0 1 
gene 168 18 36 0 0 168 0 1 
gene 169 19 36 0 0 169 0 1 
gene 170 20 36 0 0 170 0 1 
gene 171 21 36 0 0 171 0 1 
gene 172 22 36 0 0 172 0 1 
gene 173 23 36 0 0 173 0 1 
gene 174 24 36 0 0 174 0 1 
gene 175 25 36 0 0 175 0 1 
gene 176 26 36 0 0 176 0 1 
gene 177 27 36 0 0 177 0 1 
gene 178 28 36 0 0 178 0 1 
gene 179 29 36 0 0 179 0 1 
gene 180 30 36 0 0 180 0 1 
genomeend 1
