genomestart  29
trait 1 0.1 0.3277553814739833 0.0 0.0 1.6385133952415312 0.0 0.0 0.0 
trait 2 0.1 0.6218963137422588 0.0 0.36966353713714883 0.0 0.9771411170168868 0.013768057596979025 0.06237334835092159 
node 1 1 1 1
node 2 1 1 1
node 3 1 1 1
node 4 1 1 1
node 5 1 1 1
node 6 1 1 1
node 7 1 1 1
node 8 1 1 1
node 9 1 1 1
node 10 1 1 1
node 11 1 1 1
node 12 1 1 1
node 13 1 1 1
node 14 1 1 1
node 15 1 1 1
node 16 1 1 1
node 17 1 1 3
node 18 1 0 2
node 19 1 0 2
node 20 1 0 2
node 21 1 0 2
node 22 1 0 2
node 23 1 0 2
node 29 1 0 0
node 46 1 0 0
node 62 1 0 0
node 107 1 0 0
node 141 1 0 0
node 237 1 0 0
node 245 1 0 0
gene  1 17 18 -8.329523207502039 0 1.0 -8.329523207502039 1
gene  1 17 19 14.426886284998158 0 1.0 14.426886284998158 1
gene  1 17 20 0.4621248034095099 0 1.0 0.4621248034095099 1
gene  1 17 21 0.5121256164190908 0 1.0 0.5121256164190908 1
gene  1 17 22 5.266810507289392 0 1.0 5.266810507289392 1
gene  1 17 23 -5.170881862727958 0 1.0 -5.170881862727958 1
gene  2 6 18 -1.7505651021886428 0 3.0 -1.7505651021886428 1
gene  1 6 19 3.9300906023788906 0 4.0 3.9300906023788906 1
gene  2 6 20 -6.462055050109603 0 5.0 -6.462055050109603 1
gene  1 6 21 6.845470975950512 0 6.0 6.845470975950512 1
gene  2 6 22 -2.5529978373970446 0 7.0 -2.5529978373970446 1
gene  1 6 23 -1.632988958938683 0 8.0 -1.632988958938683 1
gene  1 6 29 -1.5466455947164832 0 104.0 -1.5466455947164832 1
gene  1 29 19 -4.69270992146303 0 105.0 -4.69270992146303 1
gene  2 6 46 5.231984964625725 0 240.0 5.231984964625725 1
gene  2 46 18 1.17288601104916 0 241.0 1.17288601104916 1
gene  2 14 18 -0.46434457814360813 0 264.0 -0.46434457814360813 1
gene  2 14 19 -2.3374870453455765 0 265.0 -2.3374870453455765 1
gene  1 14 20 -14.563816715596479 0 266.0 -14.563816715596479 1
gene  2 14 21 -9.007185270644671 0 267.0 -9.007185270644671 1
gene  2 14 22 -0.7666046052801416 0 268.0 -0.7666046052801416 1
gene  1 14 23 -8.235037428580911 0 269.0 -8.235037428580911 1
gene  1 6 62 -1.8443024564375805 0 368.0 -1.8443024564375805 1
gene  1 62 21 5.0114487880991065 0 369.0 5.0114487880991065 1
gene  1 5 19 2.119841987150126 0 392.0 2.119841987150126 1
gene  1 4 19 -7.705421907270941 0 452.0 -7.705421907270941 1
gene  1 13 18 0.14547903543372348 0 469.0 0.14547903543372348 1
gene  2 13 19 7.716315084948621 0 470.0 7.716315084948621 1
gene  2 13 20 -17.146470291073943 0 457.0 -17.146470291073943 1
gene  1 13 21 8.852345875205389 0 471.0 8.852345875205389 1
gene  1 13 22 0.24918804844082265 0 472.0 0.24918804844082265 1
gene  1 13 23 1.4596701019784168 0 473.0 1.4596701019784168 1
gene  1 22 62 -1.5348292970152932 0 485.0 -1.5348292970152932 1
gene  2 11 46 -1.3538192630459691 0 588.0 -1.3538192630459691 1
gene  1 13 107 -2.2233783040967343 0 635.0 -2.2233783040967343 1
gene  1 107 21 -2.0026434926693124 0 636.0 -2.0026434926693124 1
gene  1 5 22 -2.9309545731468694 0 654.0 -2.9309545731468694 1
gene  1 4 18 2.3013823023461466 0 729.0 2.3013823023461466 1
gene  2 4 20 -5.107780319822153 0 730.0 -5.107780319822153 0
gene  2 4 21 2.221697843124262 0 731.0 2.221697843124262 1
gene  2 4 22 6.075170698886893 0 732.0 6.075170698886893 1
gene  1 4 23 2.359999055787336 0 733.0 2.359999055787336 1
gene  1 14 46 1.1338632536576427 0 802.0 1.1338632536576427 1
gene  1 5 18 0.38533045534071786 0 820.0 0.38533045534071786 1
gene  1 5 20 3.2623831946877835 0 821.0 3.2623831946877835 1
gene  2 5 21 -3.85233455722172 0 822.0 -3.85233455722172 1
gene  1 5 23 2.04001227861332 0 823.0 2.04001227861332 1
gene  1 6 141 6.534197572497177 0 930.0 6.534197572497177 1
gene  1 141 19 -4.216655761703188 0 931.0 -4.216655761703188 1
gene  1 107 46 2.987462816771886 0 961.0 2.987462816771886 1
gene  2 4 237 0.15710401139844687 0 1997.0 0.15710401139844687 1
gene  2 237 20 1.9631080560314804 0 1998.0 1.9631080560314804 1
gene  2 9 23 8.696781834008876 0 2055.0 8.696781834008876 1
gene  1 13 245 4.925139527330124 0 2096.0 4.925139527330124 1
gene  1 245 22 -0.3867843486704141 0 2097.0 -0.3867843486704141 1
genomeend 29
