genomestart  7
trait 1 1.7923897398498059 0.0 0.0 0.867929244132038 0.0 0.5019795712226919 1.4173054385051524 0.0 
trait 2 0.1 0.5224430904334412 0.5760324223567468 0.8687920489271115 0.3895877248240701 0.0 1.7753189869222243 0.0 
node 1 1 1 1
node 2 1 1 1
node 3 1 1 1
node 4 1 1 1
node 5 1 1 1
node 6 1 1 1
node 7 1 1 1
node 8 1 1 1
node 9 1 1 1
node 10 1 1 1
node 11 1 1 1
node 12 1 1 1
node 13 1 1 1
node 14 1 1 1
node 15 2 1 1
node 16 1 1 1
node 17 1 1 3
node 18 1 0 2
node 19 1 0 2
node 20 1 0 2
node 21 1 0 2
node 22 1 0 2
node 23 1 0 2
node 89 1 0 0
node 109 1 0 0
node 148 1 0 0
node 156 1 0 0
node 159 1 0 0
node 222 1 0 0
gene  1 17 18 -3.8534198485996045 0 1.0 -3.8534198485996045 1
gene  1 17 19 9.173329981600798 0 1.0 9.173329981600798 1
gene  1 17 20 -11.417601580961538 0 1.0 -11.417601580961538 1
gene  1 17 21 6.147943892104555 0 1.0 6.147943892104555 1
gene  1 17 22 6.276811044482292 0 1.0 6.276811044482292 1
gene  1 17 23 0.8718853181562518 0 1.0 0.8718853181562518 1
gene  2 6 18 -7.280974521378177 0 6.0 -7.280974521378177 1
gene  2 6 19 8.701943133168644 0 7.0 8.701943133168644 1
gene  1 6 20 -5.523254683785089 0 8.0 -5.523254683785089 1
gene  1 6 21 3.3537690461464513 0 9.0 3.3537690461464513 1
gene  2 6 22 -5.411603708981295 0 10.0 -5.411603708981295 1
gene  1 6 23 -2.873509103341184 0 11.0 -2.873509103341184 1
gene  1 7 18 12.63142070321709 0 26.0 12.63142070321709 1
gene  2 7 19 2.3298985626745874 0 27.0 2.3298985626745874 1
gene  2 7 20 -8.42058134769809 0 28.0 -8.42058134769809 1
gene  2 7 21 4.775231339884553 0 29.0 4.775231339884553 1
gene  2 7 22 -1.572321021327141 0 30.0 -1.572321021327141 1
gene  1 7 23 -7.422700066854738 0 31.0 -7.422700066854738 1
gene  2 5 18 -4.230508270862423 0 106.0 -4.230508270862423 1
gene  1 5 19 9.971539968929507 0 107.0 9.971539968929507 1
gene  2 5 20 -11.25598714836149 0 108.0 -11.25598714836149 0
gene  2 5 21 -4.914641239448898 0 109.0 -4.914641239448898 1
gene  1 5 22 -2.259124652131274 0 110.0 -2.259124652131274 1
gene  1 5 23 -5.185493825403563 0 111.0 -5.185493825403563 1
gene  2 11 18 -9.08938489778059 0 179.0 -9.08938489778059 1
gene  2 11 19 -5.112411481440654 0 180.0 -5.112411481440654 1
gene  2 11 20 -0.060405086812419295 0 181.0 -0.060405086812419295 1
gene  1 11 21 -12.121960355872522 0 176.0 -12.121960355872522 1
gene  2 11 22 3.4395799492469505 0 182.0 3.4395799492469505 1
gene  1 11 23 -6.607069725621284 0 183.0 -6.607069725621284 1
gene  2 18 22 1.0227911288627207 0 492.0 1.0227911288627207 1
gene  2 5 89 1.7433914154728998 0 538.0 1.7433914154728998 1
gene  2 89 20 0.29694169244473567 0 539.0 0.29694169244473567 1
gene  1 2 18 0.34907384998609636 0 634.0 0.34907384998609636 1
gene  1 2 19 -0.12495465355377444 0 635.0 -0.12495465355377444 1
gene  2 2 20 -10.769968201200227 0 636.0 -10.769968201200227 1
gene  2 2 21 -2.315182455388052 0 637.0 -2.315182455388052 1
gene  2 2 22 -1.5272768459926551 0 638.0 -1.5272768459926551 1
gene  2 2 23 2.1690355533479373 0 639.0 2.1690355533479373 1
gene  1 16 22 9.092333394264713 0 671.0 9.092333394264713 1
gene  1 6 109 9.592291711601018 0 678.0 9.592291711601018 1
gene  1 109 23 -3.68522688546723 0 679.0 -3.68522688546723 1
gene  2 1 18 -4.681621253275781 0 837.0 -4.681621253275781 1
gene  1 1 19 1.7825399653342848 0 838.0 1.7825399653342848 1
gene  1 1 20 5.6782168406312 0 839.0 5.6782168406312 1
gene  2 1 21 -7.071835181618133 0 840.0 -7.071835181618133 1
gene  2 1 22 2.5819340193861793 0 841.0 2.5819340193861793 1
gene  2 1 23 6.026467301581821 0 842.0 6.026467301581821 0
gene  1 3 18 3.3780962205010114 0 947.0 3.3780962205010114 1
gene  2 3 19 1.1845601833567487 0 948.0 1.1845601833567487 1
gene  1 3 20 4.001842892910117 0 949.0 4.001842892910117 1
gene  1 3 21 2.3188497675300077 0 950.0 2.3188497675300077 1
gene  1 3 22 -1.192150328604034 0 951.0 -1.192150328604034 1
gene  1 3 23 -3.161044517589408 0 952.0 -3.161044517589408 1
gene  2 23 19 -2.009933529281626 0 988.0 -2.009933529281626 0
gene  1 9 18 -2.289627503899336 0 1054.0 -2.289627503899336 1
gene  2 9 19 8.004889843355015 0 1055.0 8.004889843355015 1
gene  2 9 20 1.8938083802061056 0 1056.0 1.8938083802061056 1
gene  1 9 21 0.1724807059665313 0 1057.0 0.1724807059665313 1
gene  2 9 22 9.268260675044502 0 1058.0 9.268260675044502 1
gene  1 9 23 5.602771099750543 0 1059.0 5.602771099750543 1
gene  1 15 19 3.326931770549362 0 1113.0 3.326931770549362 1
gene  1 20 23 -14.430522976861315 0 1164.0 -14.430522976861315 1
gene  2 23 148 4.240415848043803 0 1413.0 4.240415848043803 1
gene  2 148 19 -1.6323630806694338 0 1414.0 -1.6323630806694338 1
gene  2 17 109 -2.0429598251433747 0 1456.0 -2.0429598251433747 1
gene  2 5 156 -0.910822640174397 0 1485.0 -0.910822640174397 1
gene  2 156 20 0.8258229047520427 0 1486.0 0.8258229047520427 1
gene  2 1 159 -1.384935603674765 0 1522.0 -1.384935603674765 1
gene  2 159 23 -5.248862206738182 0 1523.0 -5.248862206738182 1
gene  2 18 19 -0.9193382201201905 0 1544.0 -0.9193382201201905 1
gene  1 15 18 -0.2749672470597846 0 1936.0 -0.2749672470597846 1
gene  1 15 20 3.0777477216584623 0 1937.0 3.0777477216584623 1
gene  2 15 21 1.2600677687499953 0 1938.0 1.2600677687499953 1
gene  2 15 22 -3.8318895725224644 0 1939.0 -3.8318895725224644 1
gene  2 15 23 4.0858943521362265 0 1940.0 4.0858943521362265 1
gene  1 2 222 -2.0552510404167714 0 2121.0 -2.0552510404167714 1
gene  1 222 19 -1.1374165717380635 0 2122.0 -1.1374165717380635 1
gene  1 8 19 0.15620763401399917 0 2140.0 0.15620763401399917 1
gene  2 8 18 1.8705318550632648 0 2293.0 1.8705318550632648 1
gene  2 8 20 -1.954849503952774 0 2294.0 -1.954849503952774 1
gene  2 8 21 -1.244540728830711 0 2295.0 -1.244540728830711 1
gene  1 8 22 -1.2941778030228417 0 2296.0 -1.2941778030228417 1
gene  1 8 23 1.6870752091583863 0 2297.0 1.6870752091583863 1
gene  2 4 18 3.4347471160814522 0 2421.0 3.4347471160814522 1
gene  2 4 19 -2.4851991690018616 0 2422.0 -2.4851991690018616 1
gene  1 4 20 -0.7679430590601177 0 2423.0 -0.7679430590601177 1
gene  1 4 21 0.33957809687673896 0 2400.0 0.33957809687673896 1
gene  2 4 22 -2.970638087478415 0 2424.0 -2.970638087478415 1
gene  1 4 23 3.7272686126229972 0 2425.0 3.7272686126229972 1
gene  2 12 18 6.117884240379048 0 2656.0 6.117884240379048 1
gene  2 12 19 -0.3687310837957867 0 2657.0 -0.3687310837957867 1
gene  2 12 20 -2.4376811009028025 0 2658.0 -2.4376811009028025 1
gene  1 12 21 -2.3642985202821807 0 2659.0 -2.3642985202821807 1
gene  2 12 22 5.300808836064627 0 2660.0 5.300808836064627 1
gene  2 12 23 0.2872690612351796 0 2661.0 0.2872690612351796 1
gene  1 10 18 -0.3031671901483271 0 2743.0 -0.3031671901483271 1
gene  1 10 19 2.0750304201384937 0 2744.0 2.0750304201384937 1
gene  2 10 20 6.056665060346626 0 2745.0 6.056665060346626 1
gene  1 10 21 2.1706929057976283 0 2746.0 2.1706929057976283 1
gene  2 10 22 9.091166096611566 0 2747.0 9.091166096611566 1
gene  2 10 23 -4.805179303481761 0 2748.0 -4.805179303481761 1
gene  1 5 148 -10.41295682729252 0 3010.0 -10.41295682729252 1
genomeend 7
