genomestart  0
trait 1 1.0505013029457406 1.0123566919149585 0.0 0.0 0.0 1.3666866203106953 1.1176568176438257 1.5725954558980972 
trait 2 0.9303056476616703 0.624502536141463 0.0 1.175361223571938 0.0 0.0 0.0 1.6284223959029862 
node 1 2 1 1
node 2 1 1 1
node 3 1 1 1
node 4 1 1 1
node 5 1 1 1
node 6 1 1 1
node 7 1 1 1
node 8 1 1 1
node 9 1 1 1
node 10 1 1 1
node 11 1 1 1
node 12 1 1 1
node 13 1 1 1
node 14 2 1 1
node 15 1 1 1
node 16 2 1 1
node 17 1 1 3
node 18 1 0 2
node 19 1 0 2
node 20 1 0 2
node 21 1 0 2
node 22 1 0 2
node 23 1 0 2
node 24 1 0 0
node 39 1 0 0
gene  2 17 18 -0.9622006977641018 0 1.0 -0.9622006977641018 1
gene  1 17 19 5.9769014175863635 0 1.0 5.9769014175863635 1
gene  1 17 20 -1.762935687616309 0 1.0 -1.762935687616309 1
gene  2 17 21 -1.377062408284987 0 1.0 -1.377062408284987 1
gene  1 17 22 1.208896222580818 0 1.0 1.208896222580818 1
gene  1 17 23 2.88865550565138 0 1.0 2.88865550565138 1
gene  2 12 22 0.23307632703038345 0 7.0 0.23307632703038345 1
gene  2 20 22 4.2757084899605236 0 9.0 4.2757084899605236 1
gene  2 5 22 -1.1895661824147779 0 11.0 -1.1895661824147779 1
gene  2 20 24 -5.207388419326401 0 12.0 -5.207388419326401 1
gene  2 24 22 -7.152720119623186 0 13.0 -7.152720119623186 1
gene  2 1 23 1.7434667464628646 0 14.0 1.7434667464628646 1
gene  2 19 20 -1.5928203607251155 0 43.0 -1.5928203607251155 1
gene  1 2 18 0.03283959613093185 0 69.0 0.03283959613093185 1
gene  1 2 19 -10.147915261991507 0 70.0 -10.147915261991507 1
gene  2 2 20 -1.852188290327704 0 71.0 -1.852188290327704 1
gene  2 2 21 1.178488425867262 0 72.0 1.178488425867262 1
gene  2 2 22 16.19801164011335 0 73.0 16.19801164011335 1
gene  1 2 23 -2.030927636857578 0 74.0 -2.030927636857578 1
gene  2 7 18 -1.9844317360220276 0 89.0 -1.9844317360220276 1
gene  1 7 19 1.9362234280734283 0 90.0 1.9362234280734283 1
gene  2 7 20 -4.0570214109237 0 91.0 -4.0570214109237 1
gene  2 7 21 0.22244862073988791 0 92.0 0.22244862073988791 1
gene  1 7 22 1.0202437107742919 0 93.0 1.0202437107742919 1
gene  1 7 23 1.2279254301922347 0 94.0 1.2279254301922347 1
gene  2 8 19 -0.519716841640919 0 111.0 -0.519716841640919 1
gene  2 2 39 -3.9890557301131753 0 113.0 -3.9890557301131753 1
gene  2 39 21 -4.0557598701614275 0 114.0 -4.0557598701614275 1
gene  1 10 18 0.8710488379699741 0 126.0 0.8710488379699741 1
gene  1 10 19 1.1484902793120344 0 127.0 1.1484902793120344 1
gene  2 10 20 1.7763860850323112 0 128.0 1.7763860850323112 1
gene  2 10 21 -2.2685084128271757 0 129.0 -2.2685084128271757 1
gene  2 10 22 -0.5870484823485218 0 130.0 -0.5870484823485218 1
gene  1 10 23 -10.016930623187822 0 131.0 -10.016930623187822 1
gene  2 16 24 0.9543215349141623 0 142.0 0.9543215349141623 1
gene  2 13 18 -4.203653775117004 0 144.0 -4.203653775117004 1
gene  1 13 19 -4.036796159510667 0 145.0 -4.036796159510667 1
gene  2 13 20 1.5549058404064002 0 146.0 1.5549058404064002 1
gene  1 13 21 3.491648623314119 0 147.0 3.491648623314119 1
gene  2 13 22 3.2199818950763683 0 148.0 3.2199818950763683 1
gene  1 13 23 5.833580569308769 0 149.0 5.833580569308769 1
gene  1 12 18 -5.22712058962474 0 160.0 -5.22712058962474 1
gene  1 12 19 -2.455313063361551 0 161.0 -2.455313063361551 1
gene  1 12 20 -2.393785011523736 0 162.0 -2.393785011523736 1
gene  2 12 21 -3.2816242722746507 0 163.0 -3.2816242722746507 1
gene  1 12 23 5.330307858890846 0 164.0 5.330307858890846 1
gene  2 18 39 -1.4227203430804523 0 172.0 -1.4227203430804523 1
genomeend 0
genomestart  1
trait 1 1.0505013029457406 1.0123566919149585 0.0 0.0 0.0 1.3666866203106953 1.1176568176438257 1.5725954558980972 
trait 2 0.9303056476616703 0.624502536141463 0.0 1.175361223571938 0.0 0.0 0.0 1.6284223959029862 
node 1 2 1 1
node 2 1 1 1
node 3 1 1 1
node 4 1 1 1
node 5 1 1 1
node 6 1 1 1
node 7 1 1 1
node 8 1 1 1
node 9 1 1 1
node 10 1 1 1
node 11 1 1 1
node 12 1 1 1
node 13 1 1 1
node 14 2 1 1
node 15 1 1 1
node 16 2 1 1
node 17 1 1 3
node 18 1 0 2
node 19 1 0 2
node 20 1 0 2
node 21 1 0 2
node 22 1 0 2
node 23 1 0 2
node 24 1 0 0
node 39 1 0 0
gene  2 17 18 2.61436594536159 0 1.0 2.61436594536159 1
gene  1 17 19 4.990112193334385 0 1.0 4.990112193334385 1
gene  1 17 20 -3.5298110518625556 0 1.0 -3.5298110518625556 1
gene  2 17 21 2.219705476704031 0 1.0 2.219705476704031 1
gene  1 17 22 2.238061264483149 0 1.0 2.238061264483149 1
gene  1 17 23 3.7544745873973593 0 1.0 3.7544745873973593 1
gene  2 12 22 1.7120988962999373 0 7.0 1.7120988962999373 1
gene  2 20 22 1.2289526361383323 0 9.0 1.2289526361383323 1
gene  2 5 22 -2.481943808558861 0 11.0 -2.481943808558861 1
gene  2 20 24 -9.068752969238762 0 12.0 -9.068752969238762 1
gene  2 24 22 -8.570956546498577 0 13.0 -8.570956546498577 1
gene  2 1 23 1.03313470807472 0 14.0 1.03313470807472 1
gene  2 19 20 -2.3024754910312857 0 43.0 -2.3024754910312857 1
gene  1 2 18 2.103148664464385 0 69.0 2.103148664464385 1
gene  1 2 19 -12.393722121297431 0 70.0 -12.393722121297431 1
gene  2 2 20 0.1778652089095606 0 71.0 0.1778652089095606 1
gene  2 2 21 -2.1394535260071654 0 72.0 -2.1394535260071654 1
gene  2 2 22 16.22199154570384 0 73.0 16.22199154570384 1
gene  1 2 23 -2.4541401485270673 0 74.0 -2.4541401485270673 1
gene  2 7 18 -6.32915385359467 0 89.0 -6.32915385359467 1
gene  1 7 19 -0.2302393093349585 0 90.0 -0.2302393093349585 1
gene  2 7 20 -2.3689153822396913 0 91.0 -2.3689153822396913 1
gene  2 7 21 9.066814521418557 0 92.0 9.066814521418557 1
gene  1 7 22 -1.66068958502869 0 93.0 -1.66068958502869 1
gene  1 7 23 0.6540336377232563 0 94.0 0.6540336377232563 1
gene  2 8 19 0.30175965267376026 0 111.0 0.30175965267376026 1
gene  2 2 39 -2.4797471637967985 0 113.0 -2.4797471637967985 1
gene  2 39 21 -7.4454012661813325 0 114.0 -7.4454012661813325 1
gene  1 10 18 3.770454595949517 0 126.0 3.770454595949517 1
gene  1 10 19 -0.2537224939230811 0 127.0 -0.2537224939230811 1
gene  2 10 20 3.343204704178345 0 128.0 3.343204704178345 1
gene  2 10 21 0.7744856531551483 0 129.0 0.7744856531551483 1
gene  2 10 22 1.5538521157957423 0 130.0 1.5538521157957423 1
gene  1 10 23 -8.76187858760425 0 131.0 -8.76187858760425 1
gene  2 16 24 -1.346807656669849 0 142.0 -1.346807656669849 1
gene  2 13 18 -4.727063001896937 0 144.0 -4.727063001896937 1
gene  1 13 19 -1.4933819454872996 0 145.0 -1.4933819454872996 1
gene  2 13 20 2.245015263613519 0 146.0 2.245015263613519 1
gene  1 13 21 -1.9234044206541798 0 147.0 -1.9234044206541798 1
gene  2 13 22 2.0808052535552326 0 148.0 2.0808052535552326 1
gene  1 13 23 5.886178248586929 0 149.0 5.886178248586929 1
gene  1 12 18 -5.232562899068478 0 160.0 -5.232562899068478 1
gene  1 12 19 -0.04053916525944512 0 161.0 -0.04053916525944512 1
gene  1 12 20 -2.074656274158504 0 162.0 -2.074656274158504 1
gene  2 12 21 -1.1857468193189087 0 163.0 -1.1857468193189087 1
gene  1 12 23 3.889660469370703 0 164.0 3.889660469370703 1
gene  2 18 39 1.140318318636382 0 172.0 1.140318318636382 1
genomeend 1
genomestart  2
trait 1 1.0505013029457406 1.0123566919149585 0.0 0.0 0.0 1.3666866203106953 1.1176568176438257 1.5725954558980972 
trait 2 0.6061243287075485 0.0 0.0 1.175361223571938 0.0 0.0 0.3661964706780365 0.0 
node 1 1 1 1
node 2 1 1 1
node 3 1 1 1
node 4 1 1 1
node 5 1 1 1
node 6 1 1 1
node 7 1 1 1
node 8 1 1 1
node 9 1 1 1
node 10 1 1 1
node 11 1 1 1
node 12 1 1 1
node 13 1 1 1
node 14 2 1 1
node 15 1 1 1
node 16 1 1 1
node 17 1 1 3
node 18 1 0 2
node 19 1 0 2
node 20 1 0 2
node 21 1 0 2
node 22 1 0 2
node 23 1 0 2
node 24 1 0 0
node 39 1 0 0
node 44 1 0 0
node 50 1 0 0
gene  2 17 18 -19.26261092801105 0 1.0 -19.26261092801105 1
gene  1 17 19 14.040091248253788 0 1.0 14.040091248253788 1
gene  1 17 20 1.0435082033049077 0 1.0 1.0435082033049077 1
gene  2 17 21 -1.3710488560559717 0 1.0 -1.3710488560559717 1
gene  1 17 22 5.921098844241285 0 1.0 5.921098844241285 1
gene  1 17 23 5.220608954609391 0 1.0 5.220608954609391 1
gene  2 12 22 -0.7045758216268975 0 7.0 -0.7045758216268975 1
gene  2 20 22 3.048415424912547 0 9.0 3.048415424912547 1
gene  2 5 22 1.3952255467831347 0 11.0 1.3952255467831347 1
gene  2 20 24 -6.636338808812441 0 12.0 -6.636338808812441 1
gene  2 24 22 2.5406991208012526 0 13.0 2.5406991208012526 1
gene  2 1 23 3.190934100977608 0 14.0 3.190934100977608 1
gene  2 19 20 2.0702016056580774 0 43.0 2.0702016056580774 1
gene  1 2 18 0.7954324948652618 0 69.0 0.7954324948652618 1
gene  1 2 19 -1.9965817762995548 0 70.0 -1.9965817762995548 1
gene  2 2 20 -0.9144930375757515 0 71.0 -0.9144930375757515 1
gene  2 2 21 5.109648767216359 0 72.0 5.109648767216359 1
gene  2 2 22 -0.26433909228680763 0 73.0 -0.26433909228680763 1
gene  1 2 23 1.620845615673586 0 74.0 1.620845615673586 1
gene  2 7 18 -1.289066034907542 0 89.0 -1.289066034907542 1
gene  1 7 19 8.105128552924942 0 90.0 8.105128552924942 1
gene  2 7 20 -5.87509113319717 0 91.0 -5.87509113319717 1
gene  2 7 21 1.6336581905459417 0 92.0 1.6336581905459417 1
gene  1 7 22 0.19946630063917614 0 93.0 0.19946630063917614 1
gene  1 7 23 -2.0454829664202565 0 94.0 -2.0454829664202565 1
gene  2 8 19 -4.262540751657466 0 111.0 -4.262540751657466 0
gene  2 2 39 2.515770832071812 0 113.0 2.515770832071812 1
gene  1 39 21 0.47990686908946134 0 114.0 0.47990686908946134 1
gene  1 10 18 5.039900588078275 0 126.0 5.039900588078275 1
gene  1 10 19 -0.14491588826345891 0 127.0 -0.14491588826345891 1
gene  2 10 20 1.8144494762885799 0 128.0 1.8144494762885799 1
gene  2 10 21 4.280752429467483 0 129.0 4.280752429467483 1
gene  2 10 22 -3.4297808278725257 0 130.0 -3.4297808278725257 1
gene  1 10 23 2.7217136164497644 0 131.0 2.7217136164497644 1
gene  2 16 24 -9.129521905456578 0 142.0 -9.129521905456578 1
gene  2 13 18 0.7161703018658989 0 144.0 0.7161703018658989 1
gene  1 13 19 1.2855366002661448 0 145.0 1.2855366002661448 1
gene  2 13 20 -0.46943530870026756 0 146.0 -0.46943530870026756 1
gene  1 13 21 -10.638448102300499 0 147.0 -10.638448102300499 1
gene  2 13 22 -1.1056322204925026 0 148.0 -1.1056322204925026 1
gene  1 13 23 3.855071713642038 0 149.0 3.855071713642038 1
gene  1 12 18 -6.160713960300164 0 160.0 -6.160713960300164 1
gene  1 12 19 -1.3566125401171518 0 161.0 -1.3566125401171518 1
gene  1 12 20 -0.5548013472650613 0 162.0 -0.5548013472650613 1
gene  2 12 21 -6.933522151324618 0 163.0 -6.933522151324618 1
gene  1 12 23 1.7475538016542067 0 164.0 1.7475538016542067 1
gene  2 18 39 3.3132107260721666 0 172.0 3.3132107260721666 1
gene  2 11 18 0.32990316886635224 0 183.0 0.32990316886635224 1
gene  1 11 19 -1.4275096769585651 0 184.0 -1.4275096769585651 1
gene  2 11 20 -0.6644151125922533 0 185.0 -0.6644151125922533 1
gene  1 11 21 0.4619681960661761 0 186.0 0.4619681960661761 1
gene  1 11 22 1.4891310512355238 0 187.0 1.4891310512355238 1
gene  2 11 23 2.253353091953908 0 188.0 2.253353091953908 1
gene  1 12 44 0.37804856317122004 0 195.0 0.37804856317122004 1
gene  1 44 18 1.2875960496698835 0 196.0 1.2875960496698835 1
gene  1 18 19 1.3317103157914465 0 198.0 1.3317103157914465 1
gene  2 44 23 1.68833509263385 0 214.0 1.68833509263385 1
gene  2 21 19 -1.1108059565145818 0 215.0 -1.1108059565145818 1
gene  2 8 50 1.0 0 220.0 0.0 1
gene  2 50 19 -4.262540751657466 0 221.0 0.0 1
genomeend 2
genomestart  3
trait 1 1.0505013029457406 1.0123566919149585 0.0 0.0 0.0 1.3666866203106953 1.1176568176438257 1.5725954558980972 
trait 2 0.6061243287075485 0.0 0.0 1.175361223571938 0.0 0.0 0.3661964706780365 0.0 
node 1 1 1 1
node 2 1 1 1
node 3 1 1 1
node 4 1 1 1
node 5 1 1 1
node 6 1 1 1
node 7 1 1 1
node 8 1 1 1
node 9 1 1 1
node 10 1 1 1
node 11 1 1 1
node 12 1 1 1
node 13 1 1 1
node 14 2 1 1
node 15 1 1 1
node 16 1 1 1
node 17 1 1 3
node 18 1 0 2
node 19 1 0 2
node 20 1 0 2
node 21 1 0 2
node 22 1 0 2
node 23 1 0 2
node 24 1 0 0
node 39 1 0 0
node 44 1 0 0
gene  2 17 18 -19.26261092801105 0 1.0 -19.26261092801105 1
gene  1 17 19 14.040091248253788 0 1.0 14.040091248253788 1
gene  1 17 20 1.0435082033049077 0 1.0 1.0435082033049077 1
gene  2 17 21 -1.3710488560559717 0 1.0 -1.3710488560559717 1
gene  1 17 22 5.921098844241285 0 1.0 5.921098844241285 1
gene  1 17 23 5.220608954609391 0 1.0 5.220608954609391 1
gene  2 12 22 -0.7045758216268975 0 7.0 -0.7045758216268975 1
gene  2 20 22 3.048415424912547 0 9.0 3.048415424912547 1
gene  2 5 22 1.3952255467831347 0 11.0 1.3952255467831347 1
gene  2 20 24 -6.636338808812441 0 12.0 -6.636338808812441 1
gene  2 24 22 2.5406991208012526 0 13.0 2.5406991208012526 1
gene  2 1 23 3.190934100977608 0 14.0 3.190934100977608 1
gene  2 19 20 2.0702016056580774 0 43.0 2.0702016056580774 1
gene  1 2 18 0.7954324948652618 0 69.0 0.7954324948652618 1
gene  1 2 19 -1.9965817762995548 0 70.0 -1.9965817762995548 1
gene  2 2 20 -0.9144930375757515 0 71.0 -0.9144930375757515 1
gene  2 2 21 5.109648767216359 0 72.0 5.109648767216359 1
gene  2 2 22 -0.26433909228680763 0 73.0 -0.26433909228680763 1
gene  1 2 23 1.620845615673586 0 74.0 1.620845615673586 1
gene  2 7 18 -1.289066034907542 0 89.0 -1.289066034907542 1
gene  1 7 19 8.105128552924942 0 90.0 8.105128552924942 1
gene  2 7 20 -5.87509113319717 0 91.0 -5.87509113319717 1
gene  2 7 21 1.6336581905459417 0 92.0 1.6336581905459417 1
gene  1 7 22 0.19946630063917614 0 93.0 0.19946630063917614 1
gene  1 7 23 -2.0454829664202565 0 94.0 -2.0454829664202565 1
gene  2 8 19 -4.262540751657466 0 111.0 -4.262540751657466 1
gene  2 2 39 2.515770832071812 0 113.0 2.515770832071812 1
gene  1 39 21 0.47990686908946134 0 114.0 0.47990686908946134 1
gene  1 10 18 5.039900588078275 0 126.0 5.039900588078275 1
gene  2 10 19 -0.14491588826345891 0 127.0 -0.14491588826345891 1
gene  2 10 20 1.8144494762885799 0 128.0 1.8144494762885799 1
gene  2 10 21 4.280752429467483 0 129.0 4.280752429467483 1
gene  2 10 22 -3.4297808278725257 0 130.0 -3.4297808278725257 1
gene  1 10 23 2.7217136164497644 0 131.0 2.7217136164497644 1
gene  2 16 24 -9.129521905456578 0 142.0 -9.129521905456578 1
gene  2 13 18 0.7161703018658989 0 144.0 0.7161703018658989 1
gene  1 13 19 1.2855366002661448 0 145.0 1.2855366002661448 1
gene  2 13 20 -0.46943530870026756 0 146.0 -0.46943530870026756 1
gene  1 13 21 -10.638448102300499 0 147.0 -10.638448102300499 1
gene  2 13 22 -1.1056322204925026 0 148.0 -1.1056322204925026 1
gene  1 13 23 3.855071713642038 0 149.0 3.855071713642038 1
gene  1 12 18 -6.160713960300164 0 160.0 -6.160713960300164 1
gene  1 12 19 -1.3566125401171518 0 161.0 -1.3566125401171518 1
gene  1 12 20 -0.5548013472650613 0 162.0 -0.5548013472650613 1
gene  2 12 21 -6.933522151324618 0 163.0 -6.933522151324618 1
gene  1 12 23 1.7475538016542067 0 164.0 1.7475538016542067 1
gene  2 18 39 3.3132107260721666 0 172.0 3.3132107260721666 1
gene  2 11 18 0.32990316886635224 0 183.0 0.32990316886635224 1
gene  1 11 19 -1.4275096769585651 0 184.0 -1.4275096769585651 1
gene  2 11 20 -0.6644151125922533 0 185.0 -0.6644151125922533 1
gene  1 11 21 0.4619681960661761 0 186.0 0.4619681960661761 1
gene  1 11 22 1.4891310512355238 0 187.0 1.4891310512355238 1
gene  2 11 23 2.253353091953908 0 188.0 2.253353091953908 1
gene  1 12 44 0.37804856317122004 0 195.0 0.37804856317122004 1
gene  1 44 18 1.2875960496698835 0 196.0 1.2875960496698835 1
gene  1 18 19 1.3317103157914465 0 198.0 1.3317103157914465 1
gene  2 44 23 1.68833509263385 0 214.0 1.68833509263385 1
gene  2 21 19 -1.1108059565145818 0 215.0 -1.1108059565145818 1
genomeend 3
genomestart  4
trait 1 1.0505013029457406 1.0123566919149585 0.0 0.0 0.0 1.3666866203106953 1.1176568176438257 1.5725954558980972 
trait 2 0.6061243287075485 0.0 0.0 1.175361223571938 0.0 0.0 0.3661964706780365 0.0 
node 1 1 1 1
node 2 1 1 1
node 3 1 1 1
node 4 1 1 1
node 5 1 1 1
node 6 1 1 1
node 7 1 1 1
node 8 1 1 1
node 9 1 1 1
node 10 1 1 1
node 11 1 1 1
node 12 1 1 1
node 13 1 1 1
node 14 2 1 1
node 15 1 1 1
node 16 1 1 1
node 17 1 1 3
node 18 1 0 2
node 19 1 0 2
node 20 1 0 2
node 21 1 0 2
node 22 1 0 2
node 23 1 0 2
node 24 1 0 0
node 39 1 0 0
node 44 1 0 0
gene  2 17 18 -0.348912117598128 0 1.0 -0.348912117598128 1
gene  1 17 19 -0.8850994220982125 0 1.0 -0.8850994220982125 1
gene  1 17 20 3.1550402641135413 0 1.0 3.1550402641135413 1
gene  2 17 21 0.06999907304193065 0 1.0 0.06999907304193065 1
gene  1 17 22 7.271047079728349 0 1.0 7.271047079728349 1
gene  1 17 23 1.8656978075342414 0 1.0 1.8656978075342414 1
gene  2 12 22 0.832861911131984 0 7.0 0.832861911131984 1
gene  2 20 22 5.2922591853017655 0 9.0 5.2922591853017655 1
gene  2 5 22 0.59021596958844 0 11.0 0.59021596958844 1
gene  2 20 24 -4.768439524559621 0 12.0 -4.768439524559621 1
gene  2 24 22 5.006247084847008 0 13.0 5.006247084847008 1
gene  2 1 23 0.3781336284109582 0 14.0 0.3781336284109582 1
gene  2 19 20 2.0702016056580774 0 43.0 2.0702016056580774 1
gene  1 2 18 0.5691385982962751 0 69.0 0.5691385982962751 1
gene  1 2 19 -1.1619927680495143 0 70.0 -1.1619927680495143 1
gene  2 2 20 0.7077811117888916 0 71.0 0.7077811117888916 1
gene  2 2 21 3.0257553664153325 0 72.0 3.0257553664153325 1
gene  2 2 22 0.6049938928969674 0 73.0 0.6049938928969674 1
gene  1 2 23 4.117001001738356 0 74.0 4.117001001738356 1
gene  2 7 18 -3.7832736295122054 0 89.0 -3.7832736295122054 1
gene  1 7 19 6.882239736607724 0 90.0 6.882239736607724 1
gene  2 7 20 -4.621725668757031 0 91.0 -4.621725668757031 1
gene  2 7 21 -1.9628495625671658 0 92.0 -1.9628495625671658 1
gene  1 7 22 2.548099590992197 0 93.0 2.548099590992197 1
gene  1 7 23 0.16871829938947036 0 94.0 0.16871829938947036 1
gene  2 8 19 -4.699801406743115 0 111.0 -4.699801406743115 1
gene  2 2 39 2.515770832071812 0 113.0 2.515770832071812 1
gene  1 39 21 2.3257666443228002 0 114.0 2.3257666443228002 1
gene  1 10 18 3.308498447210969 0 126.0 3.308498447210969 1
gene  1 10 19 -2.3502004619014896 0 127.0 -2.3502004619014896 1
gene  2 10 20 1.9799902232584488 0 128.0 1.9799902232584488 1
gene  2 10 21 6.502383024682734 0 129.0 6.502383024682734 1
gene  2 10 22 -1.2788341564176162 0 130.0 -1.2788341564176162 1
gene  1 10 23 1.6647889231168813 0 131.0 1.6647889231168813 1
gene  2 16 24 -8.529567648864733 0 142.0 -8.529567648864733 1
gene  2 13 18 0.7161703018658989 0 144.0 0.7161703018658989 1
gene  1 13 19 1.2855366002661448 0 145.0 1.2855366002661448 1
gene  2 13 20 0.09700235576903471 0 146.0 0.09700235576903471 1
gene  1 13 21 -10.645702010743253 0 147.0 -10.645702010743253 1
gene  2 13 22 -1.1056322204925026 0 148.0 -1.1056322204925026 1
gene  1 13 23 5.952519618047656 0 149.0 5.952519618047656 1
gene  1 12 18 -7.174375555390728 0 160.0 -7.174375555390728 1
gene  1 12 19 -3.4152603088709688 0 161.0 -3.4152603088709688 1
gene  1 12 20 1.408870033217495 0 162.0 1.408870033217495 1
gene  2 12 21 -6.933522151324618 0 163.0 -6.933522151324618 1
gene  1 12 23 0.05994039704402354 0 164.0 0.05994039704402354 1
gene  2 18 39 2.778969089760701 0 172.0 2.778969089760701 1
gene  2 11 18 0.5967453714485296 0 183.0 0.5967453714485296 1
gene  1 11 19 -0.5992729387491782 0 184.0 -0.5992729387491782 1
gene  2 11 20 -0.6644151125922533 0 185.0 -0.6644151125922533 1
gene  1 11 21 -1.0958957656309891 0 186.0 -1.0958957656309891 1
gene  1 11 22 2.875648894037315 0 187.0 2.875648894037315 1
gene  2 11 23 1.5025571986757185 0 188.0 1.5025571986757185 1
gene  1 12 44 2.309594887099406 0 195.0 2.309594887099406 1
gene  1 44 18 -0.25825788720490434 0 196.0 -0.25825788720490434 1
gene  1 18 19 1.3355926176129582 0 198.0 1.3355926176129582 1
gene  2 44 23 4.040844700739386 0 214.0 4.040844700739386 1
gene  2 21 19 -0.254410958971522 0 215.0 -0.254410958971522 1
genomeend 4
genomestart  5
trait 1 1.0505013029457406 1.0123566919149585 0.0 0.0 0.0 1.3666866203106953 1.1176568176438257 1.5725954558980972 
trait 2 0.6061243287075485 0.0 0.0 1.175361223571938 0.0 0.0 0.3661964706780365 0.0 
node 1 1 1 1
node 2 1 1 1
node 3 1 1 1
node 4 1 1 1
node 5 1 1 1
node 6 1 1 1
node 7 1 1 1
node 8 1 1 1
node 9 1 1 1
node 10 1 1 1
node 11 1 1 1
node 12 1 1 1
node 13 1 1 1
node 14 2 1 1
node 15 1 1 1
node 16 1 1 1
node 17 1 1 3
node 18 1 0 2
node 19 1 0 2
node 20 1 0 2
node 21 1 0 2
node 22 1 0 2
node 23 1 0 2
node 24 1 0 0
node 39 1 0 0
node 44 1 0 0
gene  2 17 18 -19.26261092801105 0 1.0 -19.26261092801105 1
gene  1 17 19 14.040091248253788 0 1.0 14.040091248253788 1
gene  1 17 20 1.0435082033049077 0 1.0 1.0435082033049077 1
gene  2 17 21 -1.3710488560559717 0 1.0 -1.3710488560559717 1
gene  1 17 22 5.921098844241285 0 1.0 5.921098844241285 1
gene  1 17 23 5.220608954609391 0 1.0 5.220608954609391 1
gene  2 12 22 -0.7045758216268975 0 7.0 -0.7045758216268975 1
gene  2 20 22 3.048415424912547 0 9.0 3.048415424912547 1
gene  2 5 22 1.3952255467831347 0 11.0 1.3952255467831347 1
gene  2 20 24 -6.636338808812441 0 12.0 -6.636338808812441 1
gene  2 24 22 2.5406991208012526 0 13.0 2.5406991208012526 1
gene  2 1 23 3.190934100977608 0 14.0 3.190934100977608 1
gene  2 19 20 2.0702016056580774 0 43.0 2.0702016056580774 1
gene  1 2 18 0.7954324948652618 0 69.0 0.7954324948652618 1
gene  1 2 19 -1.9965817762995548 0 70.0 -1.9965817762995548 1
gene  2 2 20 -0.9144930375757515 0 71.0 -0.9144930375757515 1
gene  2 2 21 5.109648767216359 0 72.0 5.109648767216359 1
gene  2 2 22 -0.26433909228680763 0 73.0 -0.26433909228680763 1
gene  1 2 23 1.620845615673586 0 74.0 1.620845615673586 1
gene  2 7 18 -1.289066034907542 0 89.0 -1.289066034907542 1
gene  1 7 19 8.105128552924942 0 90.0 8.105128552924942 1
gene  2 7 20 -5.87509113319717 0 91.0 -5.87509113319717 1
gene  2 7 21 1.6336581905459417 0 92.0 1.6336581905459417 1
gene  1 7 22 0.19946630063917614 0 93.0 0.19946630063917614 1
gene  1 7 23 -2.0454829664202565 0 94.0 -2.0454829664202565 1
gene  2 8 19 -4.262540751657466 0 111.0 -4.262540751657466 1
gene  2 2 39 2.515770832071812 0 113.0 2.515770832071812 1
gene  1 39 21 0.47990686908946134 0 114.0 0.47990686908946134 1
gene  1 10 18 5.039900588078275 0 126.0 5.039900588078275 1
gene  1 10 19 -0.14491588826345891 0 127.0 -0.14491588826345891 1
gene  2 10 20 1.8144494762885799 0 128.0 1.8144494762885799 1
gene  2 10 21 4.280752429467483 0 129.0 4.280752429467483 1
gene  2 10 22 -3.4297808278725257 0 130.0 -3.4297808278725257 1
gene  1 10 23 2.7217136164497644 0 131.0 2.7217136164497644 1
gene  2 16 24 -9.129521905456578 0 142.0 -9.129521905456578 1
gene  2 13 18 0.7161703018658989 0 144.0 0.7161703018658989 1
gene  1 13 19 1.2855366002661448 0 145.0 1.2855366002661448 1
gene  2 13 20 -0.46943530870026756 0 146.0 -0.46943530870026756 1
gene  1 13 21 -10.638448102300499 0 147.0 -10.638448102300499 1
gene  2 13 22 -1.1056322204925026 0 148.0 -1.1056322204925026 1
gene  1 13 23 3.855071713642038 0 149.0 3.855071713642038 1
gene  1 12 18 -6.160713960300164 0 160.0 -6.160713960300164 1
gene  1 12 19 -1.3566125401171518 0 161.0 -1.3566125401171518 1
gene  1 12 20 -0.5548013472650613 0 162.0 -0.5548013472650613 1
gene  2 12 21 -6.933522151324618 0 163.0 -6.933522151324618 1
gene  1 12 23 1.7475538016542067 0 164.0 1.7475538016542067 1
gene  2 18 39 3.3132107260721666 0 172.0 3.3132107260721666 1
gene  2 11 18 0.32990316886635224 0 183.0 0.32990316886635224 1
gene  1 11 19 -1.4275096769585651 0 184.0 -1.4275096769585651 1
gene  2 11 20 -0.6644151125922533 0 185.0 -0.6644151125922533 1
gene  1 11 21 0.4619681960661761 0 186.0 0.4619681960661761 1
gene  1 11 22 1.4891310512355238 0 187.0 1.4891310512355238 1
gene  2 11 23 2.253353091953908 0 188.0 2.253353091953908 1
gene  1 12 44 0.37804856317122004 0 195.0 0.37804856317122004 1
gene  1 44 18 1.2875960496698835 0 196.0 1.2875960496698835 1
gene  1 18 19 1.3317103157914465 0 198.0 1.3317103157914465 1
gene  2 44 23 1.68833509263385 0 214.0 1.68833509263385 1
gene  2 21 19 -1.1108059565145818 0 215.0 -1.1108059565145818 1
genomeend 5
genomestart  6
trait 1 1.2034024885652608 1.0123566919149585 0.9610592705504883 0.0 0.0 1.3666866203106953 1.8296891215262376 1.5725954558980972 
trait 2 0.6061243287075485 0.0 0.0 1.175361223571938 0.0 0.0 0.3661964706780365 0.0 
node 1 1 1 1
node 2 1 1 1
node 3 1 1 1
node 4 1 1 1
node 5 1 1 1
node 6 1 1 1
node 7 1 1 1
node 8 1 1 1
node 9 1 1 1
node 10 1 1 1
node 11 1 1 1
node 12 1 1 1
node 13 1 1 1
node 14 2 1 1
node 15 1 1 1
node 16 2 1 1
node 17 1 1 3
node 18 1 0 2
node 19 1 0 2
node 20 1 0 2
node 21 1 0 2
node 22 1 0 2
node 23 1 0 2
node 24 1 0 0
node 39 1 0 0
gene  2 17 18 -7.775671416749318 0 1.0 -7.775671416749318 1
gene  1 17 19 1.6144433725952347 0 1.0 1.6144433725952347 1
gene  2 17 20 -3.251770352399264 0 1.0 -3.251770352399264 1
gene  2 17 21 -1.4640899036406336 0 1.0 -1.4640899036406336 1
gene  1 17 22 -4.62512064198064 0 1.0 -4.62512064198064 1
gene  1 17 23 -0.009696257840277056 0 1.0 -0.009696257840277056 1
gene  2 12 22 3.0690585442510474 0 7.0 3.0690585442510474 1
gene  2 20 22 9.331332833163708 0 9.0 9.331332833163708 1
gene  2 5 22 3.8723164819605334 0 11.0 3.8723164819605334 1
gene  2 20 24 -3.8638221192296784 0 12.0 -3.8638221192296784 1
gene  2 24 22 -9.350178775075767 0 13.0 -9.350178775075767 1
gene  2 1 23 -0.020370841359417025 0 14.0 -0.020370841359417025 1
gene  2 19 20 -4.935429535386613 0 43.0 -4.935429535386613 1
gene  1 2 18 1.8798814856474422 0 69.0 1.8798814856474422 1
gene  1 2 19 3.31986093425506 0 70.0 3.31986093425506 1
gene  2 2 20 1.8928928282346305 0 71.0 1.8928928282346305 1
gene  2 2 21 -0.004884840943867985 0 72.0 -0.004884840943867985 0
gene  2 2 22 -0.7048571622056157 0 73.0 -0.7048571622056157 1
gene  1 2 23 -4.278643120023247 0 74.0 -4.278643120023247 1
gene  2 7 18 8.788425935182415 0 89.0 8.788425935182415 1
gene  1 7 19 9.092332743237918 0 90.0 9.092332743237918 1
gene  2 7 20 17.998081025679404 0 91.0 17.998081025679404 1
gene  2 7 21 5.656498605063727 0 92.0 5.656498605063727 1
gene  1 7 22 1.788284475698968 0 93.0 1.788284475698968 1
gene  1 7 23 -7.539069352436702 0 94.0 -7.539069352436702 1
gene  2 8 19 -0.6558169167922884 0 111.0 -0.6558169167922884 1
gene  2 2 39 2.5705589909411484 0 113.0 2.5705589909411484 1
gene  2 39 21 -1.900640704716734 0 114.0 -1.900640704716734 1
gene  1 10 18 2.857371069859255 0 126.0 2.857371069859255 1
gene  1 10 19 5.132752034530272 0 127.0 5.132752034530272 1
gene  2 10 20 0.2583432543913162 0 128.0 0.2583432543913162 1
gene  2 10 21 -1.8722726287353941 0 129.0 -1.8722726287353941 1
gene  2 10 22 -2.865028452332636 0 130.0 -2.865028452332636 1
gene  1 10 23 1.7378557854568184 0 131.0 1.7378557854568184 1
gene  2 16 24 -1.0809653863118385 0 142.0 -1.0809653863118385 1
gene  2 13 18 -2.316388784235083 0 144.0 -2.316388784235083 1
gene  1 13 19 0.025705615933364623 0 145.0 0.025705615933364623 1
gene  2 13 20 1.8839534122736703 0 146.0 1.8839534122736703 1
gene  1 13 21 -2.6937317711070308 0 147.0 -2.6937317711070308 1
gene  2 13 22 -0.23000633006873805 0 148.0 -0.23000633006873805 1
gene  1 13 23 2.1944435526886297 0 149.0 2.1944435526886297 1
gene  1 12 18 -4.41341118400822 0 160.0 -4.41341118400822 1
gene  1 12 19 0.8122725751001645 0 161.0 0.8122725751001645 1
gene  1 12 20 -3.658400205827083 0 162.0 -3.658400205827083 1
gene  2 12 21 0.3986537920691671 0 163.0 0.3986537920691671 1
gene  1 12 23 2.0499397151429886 0 164.0 2.0499397151429886 1
gene  2 18 39 0.6664721231582103 0 172.0 0.6664721231582103 1
gene  2 16 18 0.8297571969305562 0 189.0 0.8297571969305562 1
gene  2 16 19 0.8440165911870584 0 190.0 0.8440165911870584 1
gene  1 16 20 1.1896446653794275 0 191.0 1.1896446653794275 1
gene  1 16 21 -2.5120386122194707 0 192.0 -2.5120386122194707 1
gene  1 16 22 3.9146832479289255 0 193.0 3.9146832479289255 1
gene  2 16 23 -6.909826921760631 0 194.0 -6.909826921760631 1
gene  2 18 23 -1.414350397973041 0 201.0 -1.414350397973041 1
gene  2 11 18 1.5160964712114322 0 222.0 1.5160964712114322 1
genomeend 6
genomestart  7
trait 1 1.0505013029457406 1.0123566919149585 0.0 0.0 0.0 1.3666866203106953 1.1176568176438257 1.5725954558980972 
trait 2 0.9303056476616703 0.624502536141463 0.0 1.175361223571938 0.0 0.0 0.0 1.6284223959029862 
node 1 1 1 1
node 2 1 1 1
node 3 1 1 1
node 4 1 1 1
node 5 1 1 1
node 6 1 1 1
node 7 1 1 1
node 8 1 1 1
node 9 2 1 1
node 10 1 1 1
node 11 1 1 1
node 12 1 1 1
node 13 1 1 1
node 14 2 1 1
node 15 1 1 1
node 16 2 1 1
node 17 1 1 3
node 18 1 0 2
node 19 1 0 2
node 20 1 0 2
node 21 1 0 2
node 22 1 0 2
node 23 1 0 2
node 24 1 0 0
node 39 1 0 0
gene  2 17 18 -16.890846552035633 0 1.0 -16.890846552035633 1
gene  1 17 19 10.295461076746644 0 1.0 10.295461076746644 1
gene  1 17 20 4.290759921266391 0 1.0 4.290759921266391 1
gene  2 17 21 4.751365850818294 0 1.0 4.751365850818294 1
gene  1 17 22 7.633584668202183 0 1.0 7.633584668202183 1
gene  1 17 23 -8.163748720265428 0 1.0 -8.163748720265428 1
gene  2 12 22 5.9252220116855305 0 7.0 5.9252220116855305 1
gene  2 20 22 -0.6322399374111883 0 9.0 -0.6322399374111883 1
gene  2 5 22 -1.4310083394585515 0 11.0 -1.4310083394585515 1
gene  2 20 24 -1.8889837829472034 0 12.0 -1.8889837829472034 1
gene  2 24 22 -2.7487152359717983 0 13.0 -2.7487152359717983 1
gene  2 1 23 0.5002005311110811 0 14.0 0.5002005311110811 1
gene  2 19 20 4.379752690569074 0 43.0 4.379752690569074 1
gene  1 2 18 -3.174976773396333 0 69.0 -3.174976773396333 1
gene  1 2 19 1.1660126640521273 0 70.0 1.1660126640521273 1
gene  2 2 20 0.49709821723275116 0 71.0 0.49709821723275116 1
gene  1 2 21 1.0380773962078327 0 72.0 1.0380773962078327 1
gene  2 2 22 3.704688291023654 0 73.0 3.704688291023654 1
gene  1 2 23 -3.747954678623694 0 74.0 -3.747954678623694 1
gene  2 7 18 -0.7001703952244065 0 89.0 -0.7001703952244065 1
gene  1 7 19 2.5068110001674215 0 90.0 2.5068110001674215 1
gene  2 7 20 2.5162346145498384 0 91.0 2.5162346145498384 1
gene  2 7 21 5.936467173444972 0 92.0 5.936467173444972 1
gene  1 7 22 -8.04202307057361 0 93.0 -8.04202307057361 1
gene  1 7 23 -5.122556276522922 0 94.0 -5.122556276522922 1
gene  2 8 19 1.8462298709200677 0 111.0 1.8462298709200677 1
gene  2 2 39 8.79406571883307 0 113.0 8.79406571883307 1
gene  2 39 21 10.339938590826101 0 114.0 10.339938590826101 1
gene  1 10 18 -2.918281081637222 0 126.0 -2.918281081637222 1
gene  1 10 19 1.7062431840274912 0 127.0 1.7062431840274912 1
gene  2 10 20 7.212278657294833 0 128.0 7.212278657294833 1
gene  2 10 21 1.6444306826459716 0 129.0 1.6444306826459716 1
gene  2 10 22 1.4801863359158989 0 130.0 1.4801863359158989 1
gene  1 10 23 -1.196380452626393 0 131.0 -1.196380452626393 1
gene  2 16 24 1.3822421155999378 0 142.0 1.3822421155999378 1
gene  2 13 18 0.55329907821304 0 144.0 0.55329907821304 1
gene  1 13 19 0.8942342885877244 0 145.0 0.8942342885877244 1
gene  2 13 20 -0.28875132963508326 0 146.0 -0.28875132963508326 1
gene  1 13 21 3.928092325040536 0 147.0 3.928092325040536 1
gene  2 13 22 -2.1416481957513183 0 148.0 -2.1416481957513183 1
gene  1 13 23 -2.035639655860592 0 149.0 -2.035639655860592 1
gene  1 12 18 3.432944527381969 0 160.0 3.432944527381969 1
gene  1 12 19 -2.0523156796614943 0 161.0 -2.0523156796614943 1
gene  1 12 20 1.178511448474167 0 162.0 1.178511448474167 1
gene  2 12 21 -7.908057939792546 0 163.0 -7.908057939792546 1
gene  1 12 23 2.181977984128519 0 164.0 2.181977984128519 1
gene  2 18 39 2.77320067427189 0 172.0 2.77320067427189 1
gene  2 1 18 -5.747247171659442 0 209.0 -5.747247171659442 1
gene  2 1 19 -4.818937835259621 0 210.0 -4.818937835259621 1
gene  1 1 20 0.878528275189932 0 211.0 0.878528275189932 1
gene  2 1 21 3.6616579053559977 0 212.0 3.6616579053559977 1
gene  2 1 22 1.556314273952994 0 213.0 1.556314273952994 1
genomeend 7
genomestart  8
trait 1 1.0505013029457406 1.0123566919149585 0.0 0.0 0.0 1.3666866203106953 1.1176568176438257 1.5725954558980972 
trait 2 0.9303056476616703 0.624502536141463 0.0 1.175361223571938 0.0 0.0 0.0 1.6284223959029862 
node 1 1 1 1
node 2 1 1 1
node 3 1 1 1
node 4 1 1 1
node 5 1 1 1
node 6 1 1 1
node 7 1 1 1
node 8 1 1 1
node 9 2 1 1
node 10 1 1 1
node 11 1 1 1
node 12 1 1 1
node 13 1 1 1
node 14 2 1 1
node 15 1 1 1
node 16 2 1 1
node 17 1 1 3
node 18 1 0 2
node 19 1 0 2
node 20 1 0 2
node 21 1 0 2
node 22 1 0 2
node 23 1 0 2
node 24 1 0 0
node 39 1 0 0
gene  2 17 18 -12.186780210475895 0 1.0 -12.186780210475895 1
gene  1 17 19 11.175110837524004 0 1.0 11.175110837524004 1
gene  1 17 20 4.405322607873079 0 1.0 4.405322607873079 1
gene  2 17 21 4.027914375705773 0 1.0 4.027914375705773 1
gene  1 17 22 7.19809200782021 0 1.0 7.19809200782021 1
gene  1 17 23 -3.960724019634362 0 1.0 -3.960724019634362 1
gene  2 12 22 4.8076613462841555 0 7.0 4.8076613462841555 1
gene  2 20 22 1.4510196474326897 0 9.0 1.4510196474326897 1
gene  2 5 22 -4.160728792870961 0 11.0 -4.160728792870961 1
gene  2 20 24 0.03236613149941281 0 12.0 0.03236613149941281 1
gene  2 24 22 0.077716152569826 0 13.0 0.077716152569826 1
gene  2 1 23 3.882913855838195 0 14.0 3.882913855838195 1
gene  2 19 20 4.2422205361602785 0 43.0 4.2422205361602785 1
gene  1 2 18 -3.1360142297704616 0 69.0 -3.1360142297704616 1
gene  1 2 19 -0.8459418933054597 0 70.0 -0.8459418933054597 1
gene  2 2 20 0.7595917726731101 0 71.0 0.7595917726731101 1
gene  1 2 21 2.837403431817622 0 72.0 2.837403431817622 1
gene  2 2 22 1.6249267005972654 0 73.0 1.6249267005972654 1
gene  1 2 23 -3.2089182431392125 0 74.0 -3.2089182431392125 1
gene  2 7 18 -2.9694119266226124 0 89.0 -2.9694119266226124 1
gene  1 7 19 0.5710582381770791 0 90.0 0.5710582381770791 1
gene  2 7 20 2.2443970291986526 0 91.0 2.2443970291986526 1
gene  2 7 21 5.837595423798967 0 92.0 5.837595423798967 1
gene  1 7 22 -3.4813198904808544 0 93.0 -3.4813198904808544 1
gene  1 7 23 -5.783258288521398 0 94.0 -5.783258288521398 1
gene  2 8 19 -3.151636575101187 0 111.0 -3.151636575101187 1
gene  2 2 39 6.776875112877805 0 113.0 6.776875112877805 1
gene  2 39 21 13.867847315897155 0 114.0 13.867847315897155 1
gene  1 10 18 -2.287388379967613 0 126.0 -2.287388379967613 1
gene  1 10 19 1.1699402060718134 0 127.0 1.1699402060718134 1
gene  2 10 20 4.479954059927262 0 128.0 4.479954059927262 1
gene  2 10 21 -2.3689586113185177 0 129.0 -2.3689586113185177 1
gene  2 10 22 0.2502436101862333 0 130.0 0.2502436101862333 1
gene  1 10 23 -2.319795754038714 0 131.0 -2.319795754038714 1
gene  2 16 24 -1.0302526597401285 0 142.0 -1.0302526597401285 1
gene  2 13 18 -3.371726681702653 0 144.0 -3.371726681702653 1
gene  1 13 19 -2.212633169666642 0 145.0 -2.212633169666642 1
gene  2 13 20 -0.1553978081238543 0 146.0 -0.1553978081238543 1
gene  1 13 21 5.767145237408951 0 147.0 5.767145237408951 1
gene  2 13 22 -9.221367505013548 0 148.0 -9.221367505013548 1
gene  1 13 23 -5.299147306817388 0 149.0 -5.299147306817388 1
gene  1 12 18 2.231172440282513 0 160.0 2.231172440282513 1
gene  1 12 19 -1.8106255006993346 0 161.0 -1.8106255006993346 1
gene  1 12 20 1.3011394284909341 0 162.0 1.3011394284909341 1
gene  2 12 21 -2.117766811289135 0 163.0 -2.117766811289135 1
gene  1 12 23 0.1385197866813026 0 164.0 0.1385197866813026 1
gene  2 18 39 4.759670084049912 0 172.0 4.759670084049912 1
gene  2 1 18 -6.319829539977934 0 209.0 -6.319829539977934 1
gene  2 1 19 -3.1894030677111065 0 210.0 -3.1894030677111065 1
gene  1 1 20 -11.316443013556759 0 211.0 -11.316443013556759 1
gene  2 1 21 3.875648879010755 0 212.0 3.875648879010755 1
gene  2 1 22 -0.5994963570759324 0 213.0 -0.5994963570759324 1
genomeend 8
genomestart  9
trait 1 1.0505013029457406 1.0123566919149585 0.0 0.0 0.0 1.3666866203106953 1.1176568176438257 1.5725954558980972 
trait 2 0.49869260085868106 1.0824790913642053 0.0 1.2249351731688491 0.0 0.0 0.0 0.8939604934443447 
node 1 1 1 1
node 2 1 1 1
node 3 1 1 1
node 4 1 1 1
node 5 1 1 1
node 6 1 1 1
node 7 1 1 1
node 8 1 1 1
node 9 2 1 1
node 10 1 1 1
node 11 1 1 1
node 12 1 1 1
node 13 1 1 1
node 14 2 1 1
node 15 1 1 1
node 16 2 1 1
node 17 1 1 3
node 18 1 0 2
node 19 1 0 2
node 20 1 0 2
node 21 1 0 2
node 22 1 0 2
node 23 1 0 2
node 24 1 0 0
node 39 1 0 0
gene  2 17 18 -14.252456427254588 0 1.0 -14.252456427254588 1
gene  1 17 19 13.084800802026223 0 1.0 13.084800802026223 1
gene  1 17 20 3.9000610144119556 0 1.0 3.9000610144119556 1
gene  2 17 21 5.348681676373686 0 1.0 5.348681676373686 1
gene  1 17 22 5.0563229943255745 0 1.0 5.0563229943255745 1
gene  1 17 23 -6.708874773186026 0 1.0 -6.708874773186026 1
gene  2 12 22 5.830405507982724 0 7.0 5.830405507982724 1
gene  2 20 22 -0.315774829819663 0 9.0 -0.315774829819663 1
gene  2 5 22 -2.078257626726391 0 11.0 -2.078257626726391 1
gene  2 20 24 -1.440037717539503 0 12.0 -1.440037717539503 1
gene  2 24 22 0.7450092246750462 0 13.0 0.7450092246750462 1
gene  2 1 23 2.7568595484622844 0 14.0 2.7568595484622844 1
gene  2 19 20 0.07380863562194834 0 43.0 0.07380863562194834 1
gene  1 2 18 0.12636453690967275 0 69.0 0.12636453690967275 1
gene  1 2 19 -0.4584894597496464 0 70.0 -0.4584894597496464 1
gene  2 2 20 0.01822073022052262 0 71.0 0.01822073022052262 1
gene  1 2 21 5.330151300268617 0 72.0 5.330151300268617 1
gene  2 2 22 5.236762081627394 0 73.0 5.236762081627394 1
gene  1 2 23 -0.2689635476830248 0 74.0 -0.2689635476830248 1
gene  2 7 18 -0.40153158557946256 0 89.0 -0.40153158557946256 1
gene  1 7 19 -1.0918019085880546 0 90.0 -1.0918019085880546 1
gene  2 7 20 0.9225795870178113 0 91.0 0.9225795870178113 1
gene  2 7 21 7.801280417424569 0 92.0 7.801280417424569 1
gene  1 7 22 -5.837783710001845 0 93.0 -5.837783710001845 1
gene  1 7 23 -4.447556387569877 0 94.0 -4.447556387569877 1
gene  2 8 19 -0.03686510417148714 0 111.0 -0.03686510417148714 1
gene  2 2 39 9.250578181589308 0 113.0 9.250578181589308 1
gene  2 39 21 0.993922461211022 0 114.0 0.993922461211022 1
gene  1 10 18 -4.237130168572004 0 126.0 -4.237130168572004 1
gene  1 10 19 3.157642964413584 0 127.0 3.157642964413584 1
gene  2 10 20 3.798956922149738 0 128.0 3.798956922149738 1
gene  2 10 21 -2.7192205632829216 0 129.0 -2.7192205632829216 1
gene  2 10 22 -2.0621082161904654 0 130.0 -2.0621082161904654 1
gene  1 10 23 0.5690462997377121 0 131.0 0.5690462997377121 1
gene  2 16 24 -1.5235350381007735 0 142.0 -1.5235350381007735 1
gene  2 13 18 -0.35368107251832326 0 144.0 -0.35368107251832326 1
gene  1 13 19 2.088357061436559 0 145.0 2.088357061436559 1
gene  2 13 20 -3.7658565786642466 0 146.0 -3.7658565786642466 1
gene  1 13 21 2.1158590808700755 0 147.0 2.1158590808700755 1
gene  2 13 22 -4.922864662082247 0 148.0 -4.922864662082247 1
gene  1 13 23 -7.184485288216139 0 149.0 -7.184485288216139 1
gene  1 12 18 0.18700801013057178 0 160.0 0.18700801013057178 1
gene  1 12 19 -0.9930881876105823 0 161.0 -0.9930881876105823 1
gene  1 12 20 -0.1480492971162286 0 162.0 -0.1480492971162286 1
gene  2 12 21 -8.975507013697367 0 163.0 -8.975507013697367 1
gene  1 12 23 -0.2766931406953088 0 164.0 -0.2766931406953088 1
gene  2 18 39 5.997718894182164 0 172.0 5.997718894182164 1
gene  2 1 18 -5.747247171659442 0 209.0 -5.747247171659442 1
gene  2 1 19 -1.7510562307733788 0 210.0 -1.7510562307733788 1
gene  1 1 20 -10.200896819649799 0 211.0 -10.200896819649799 1
gene  2 1 21 1.9767548701264666 0 212.0 1.9767548701264666 1
gene  2 1 22 -0.7921185125574866 0 213.0 -0.7921185125574866 1
genomeend 9
