genomestart  0
trait 1 1.5887721431354194 0.0017648730070946028 0.0 0.2739410575563288 0.525837929442292 0.0 0.5989153198084932 0.0 
trait 2 0.895226544352977 0.9578985916436479 0.0 0.3983226829980911 0.0 0.7029225050889247 0.7641431102695673 0.0 
node 1 1 1 1
node 2 1 1 1
node 3 1 1 1
node 4 1 1 1
node 5 1 1 1
node 6 1 1 1
node 7 1 1 1
node 8 1 1 1
node 9 1 1 1
node 10 1 1 1
node 11 1 1 1
node 12 1 1 1
node 13 1 1 1
node 14 1 1 1
node 15 2 1 1
node 16 1 1 1
node 17 1 1 3
node 18 1 0 2
node 19 1 0 2
node 20 1 0 2
node 21 1 0 2
node 22 1 0 2
node 23 1 0 2
node 24 1 0 0
node 28 1 0 0
node 80 1 0 0
node 226 1 0 0
gene  1 17 18 -8.702202520419107 0 1.0 -8.702202520419107 1
gene  1 17 19 6.4953732793922345 0 1.0 6.4953732793922345 1
gene  1 17 20 -12.812657137023399 0 1.0 -12.812657137023399 1
gene  1 17 21 -10.961638579134323 0 1.0 -10.961638579134323 1
gene  1 17 22 2.2632584337687915 0 1.0 2.2632584337687915 1
gene  1 17 23 3.9036778776530716 0 1.0 3.9036778776530716 1
gene  2 9 18 -1.8240693990634222 0 3.0 -1.8240693990634222 1
gene  1 9 19 -7.449089192968295 0 4.0 -7.449089192968295 1
gene  1 9 20 -10.39856530289615 0 5.0 -10.39856530289615 1
gene  2 9 21 -0.772362227697081 0 6.0 -0.772362227697081 1
gene  1 9 22 -1.1402635289970053 0 7.0 -1.1402635289970053 0
gene  1 9 23 -2.23184346206831 0 8.0 -2.23184346206831 1
gene  2 9 24 5.9260196396947356 0 21.0 5.9260196396947356 1
gene  2 24 18 -2.2327826555315498 0 22.0 -2.2327826555315498 1
gene  2 15 22 -1.7853009800151087 0 35.0 -1.7853009800151087 1
gene  2 9 28 -0.6020022869202335 0 56.0 -0.6020022869202335 1
gene  2 28 24 5.375749199946296 0 57.0 5.375749199946296 1
gene  1 1 21 -0.8092946353044548 0 304.0 -0.8092946353044548 1
gene  1 4 22 -1.0416229907328851 0 335.0 -1.0416229907328851 1
gene  1 17 28 -6.808991440268686 0 352.0 -6.808991440268686 1
gene  1 9 80 3.070153525148666 0 515.0 3.070153525148666 1
gene  1 80 22 -18.702580539900424 0 516.0 -18.702580539900424 1
gene  1 7 18 1.146705284221253 0 539.0 1.146705284221253 0
gene  1 7 19 -0.41950125105962166 0 540.0 -0.41950125105962166 1
gene  1 7 20 3.323436121779862 0 541.0 3.323436121779862 1
gene  1 7 21 18.049259104412673 0 542.0 18.049259104412673 1
gene  1 7 22 1.9176940951916648 0 543.0 1.9176940951916648 1
gene  2 7 23 -3.1455918456701024 0 544.0 -3.1455918456701024 1
gene  1 3 28 -8.07150105868573 0 602.0 -8.07150105868573 1
gene  1 2 18 1.520135938013863 0 656.0 1.520135938013863 1
gene  2 2 19 -0.2742734896550447 0 657.0 -0.2742734896550447 1
gene  1 2 20 0.10829760883319023 0 658.0 0.10829760883319023 1
gene  2 2 21 3.929267406604245 0 659.0 3.929267406604245 1
gene  1 2 22 1.6661048724722634 0 660.0 1.6661048724722634 1
gene  2 2 23 -1.5165204022126415 0 661.0 -1.5165204022126415 1
gene  2 80 19 5.616011318985526 0 831.0 5.616011318985526 1
gene  1 6 18 2.276321784408117 0 1175.0 2.276321784408117 1
gene  2 6 19 0.7523658055387885 0 1176.0 0.7523658055387885 1
gene  2 6 20 -5.859427146168011 0 1177.0 -5.859427146168011 1
gene  1 6 21 -5.9941586960636695 0 1178.0 -5.9941586960636695 1
gene  1 6 22 6.392069616181917 0 1179.0 6.392069616181917 1
gene  1 6 23 -3.7730798314573937 0 1180.0 -3.7730798314573937 1
gene  1 4 18 4.625402028680453 0 1343.0 4.625402028680453 1
gene  1 4 19 -2.041819209135962 0 1344.0 -2.041819209135962 1
gene  1 4 20 11.70230683464491 0 1345.0 11.70230683464491 1
gene  2 4 21 -2.3309416285040814 0 1346.0 -2.3309416285040814 1
gene  1 4 23 -0.4606385966411697 0 1347.0 -0.4606385966411697 1
gene  1 11 20 -1.3478649332316823 0 1403.0 -1.3478649332316823 1
gene  1 3 80 -1.9394377216501828 0 1592.0 -1.9394377216501828 1
gene  1 5 24 2.4484212247811312 0 1738.0 2.4484212247811312 1
gene  1 7 226 0.281394103253898 0 1837.0 0.281394103253898 1
gene  1 226 18 0.3189196142099715 0 1838.0 0.3189196142099715 1
gene  2 5 19 2.4344483009869675 0 1883.0 2.4344483009869675 1
gene  1 15 28 -0.8858242418314397 0 2002.0 -0.8858242418314397 1
genomeend 0
genomestart  1
trait 1 1.5887721431354194 0.0017648730070946028 0.0 0.2739410575563288 0.525837929442292 0.0 0.5989153198084932 0.0 
trait 2 0.895226544352977 0.9578985916436479 0.0 0.3983226829980911 0.0 0.7029225050889247 0.7641431102695673 0.0 
node 1 1 1 1
node 2 1 1 1
node 3 1 1 1
node 4 1 1 1
node 5 1 1 1
node 6 1 1 1
node 7 1 1 1
node 8 1 1 1
node 9 1 1 1
node 10 1 1 1
node 11 1 1 1
node 12 1 1 1
node 13 1 1 1
node 14 1 1 1
node 15 2 1 1
node 16 1 1 1
node 17 1 1 3
node 18 1 0 2
node 19 1 0 2
node 20 1 0 2
node 21 1 0 2
node 22 1 0 2
node 23 1 0 2
node 24 1 0 0
node 28 1 0 0
node 80 1 0 0
node 226 1 0 0
gene  1 17 18 -7.171243473687968 0 1.0 -7.171243473687968 1
gene  1 17 19 -1.7896887234074539 0 1.0 -1.7896887234074539 1
gene  1 17 20 -19.2681006675831 0 1.0 -19.2681006675831 1
gene  1 17 21 2.4956181629356973 0 1.0 2.4956181629356973 1
gene  1 17 22 0.9333394031794888 0 1.0 0.9333394031794888 1
gene  1 17 23 2.127096101590266 0 1.0 2.127096101590266 1
gene  2 9 18 -5.78770429388583 0 3.0 -5.78770429388583 1
gene  1 9 19 -5.339863731936664 0 4.0 -5.339863731936664 1
gene  1 9 20 -2.8526070575498625 0 5.0 -2.8526070575498625 1
gene  2 9 21 -2.1219634551524944 0 6.0 -2.1219634551524944 1
gene  1 9 22 -5.444771086895157 0 7.0 -5.444771086895157 0
gene  1 9 23 -0.16903767654040225 0 8.0 -0.16903767654040225 1
gene  2 9 24 -1.015393066432288 0 21.0 -1.015393066432288 1
gene  2 24 18 -3.1441710563479863 0 22.0 -3.1441710563479863 1
gene  2 15 22 -1.3539624473051672 0 35.0 -1.3539624473051672 1
gene  2 9 28 -6.58428806548844 0 56.0 -6.58428806548844 1
gene  2 28 24 7.041242379275371 0 57.0 7.041242379275371 1
gene  1 1 21 -5.744880333667015 0 304.0 -5.744880333667015 1
gene  1 4 22 3.857754477883205 0 335.0 3.857754477883205 1
gene  1 17 28 -6.734286115763207 0 352.0 -6.734286115763207 1
gene  1 9 80 4.884242662941862 0 515.0 4.884242662941862 1
gene  1 80 22 -25.154376407700358 0 516.0 -25.154376407700358 1
gene  1 7 18 0.8689654345917407 0 539.0 0.8689654345917407 0
gene  1 7 19 -3.549122057517587 0 540.0 -3.549122057517587 1
gene  1 7 20 2.9200717320442093 0 541.0 2.9200717320442093 1
gene  1 7 21 20.117329506485394 0 542.0 20.117329506485394 1
gene  1 7 22 6.0558851303984085 0 543.0 6.0558851303984085 1
gene  2 7 23 -4.505615951593593 0 544.0 -4.505615951593593 1
gene  1 3 28 -1.9448662741262455 0 602.0 -1.9448662741262455 1
gene  1 2 18 -0.4658802965568942 0 656.0 -0.4658802965568942 1
gene  2 2 19 3.6611392528851523 0 657.0 3.6611392528851523 1
gene  1 2 20 -3.6263958814884956 0 658.0 -3.6263958814884956 1
gene  2 2 21 -1.305656248324446 0 659.0 -1.305656248324446 1
gene  1 2 22 1.9975978619421744 0 660.0 1.9975978619421744 1
gene  2 2 23 -6.325843317615345 0 661.0 -6.325843317615345 1
gene  2 80 19 1.714339593920853 0 831.0 1.714339593920853 1
gene  1 6 18 3.3581354210263727 0 1175.0 3.3581354210263727 1
gene  2 6 19 0.4431588287981536 0 1176.0 0.4431588287981536 1
gene  2 6 20 -10.418485209631434 0 1177.0 -10.418485209631434 1
gene  1 6 21 -4.532274657839385 0 1178.0 -4.532274657839385 1
gene  1 6 22 3.9713685824356597 0 1179.0 3.9713685824356597 1
gene  1 6 23 -4.310093288681011 0 1180.0 -4.310093288681011 1
gene  1 4 18 3.066345256795853 0 1343.0 3.066345256795853 1
gene  1 4 19 -2.9953851043220348 0 1344.0 -2.9953851043220348 1
gene  1 4 20 14.445885282112691 0 1345.0 14.445885282112691 1
gene  2 4 21 -0.19294422365919356 0 1346.0 -0.19294422365919356 1
gene  1 4 23 0.5359231437989687 0 1347.0 0.5359231437989687 1
gene  1 11 20 0.28102129120540664 0 1403.0 0.28102129120540664 1
gene  1 3 80 -1.2792135463616676 0 1592.0 -1.2792135463616676 1
gene  1 5 24 -1.2614899417603023 0 1738.0 -1.2614899417603023 1
gene  1 7 226 -0.3285402285233684 0 1837.0 -0.3285402285233684 1
gene  1 226 18 2.2453118864013963 0 1838.0 2.2453118864013963 1
gene  2 5 19 1.721990461241949 0 1883.0 1.721990461241949 1
gene  1 15 28 0.3130612581786879 0 2002.0 0.3130612581786879 1
genomeend 1
genomestart  2
trait 1 1.5887721431354194 0.0017648730070946028 0.0 0.2739410575563288 0.525837929442292 0.0 0.5989153198084932 0.0 
trait 2 0.895226544352977 0.9578985916436479 0.0 0.3983226829980911 0.0 0.7029225050889247 0.7641431102695673 0.0 
node 1 1 1 1
node 2 1 1 1
node 3 1 1 1
node 4 1 1 1
node 5 1 1 1
node 6 1 1 1
node 7 1 1 1
node 8 1 1 1
node 9 1 1 1
node 10 1 1 1
node 11 1 1 1
node 12 1 1 1
node 13 1 1 1
node 14 1 1 1
node 15 2 1 1
node 16 1 1 1
node 17 1 1 3
node 18 1 0 2
node 19 1 0 2
node 20 1 0 2
node 21 1 0 2
node 22 1 0 2
node 23 1 0 2
node 24 1 0 0
node 28 1 0 0
node 80 1 0 0
node 226 1 0 0
gene  1 17 18 -9.501657985390143 0 1.0 -9.501657985390143 1
gene  1 17 19 7.5974172477185276 0 1.0 7.5974172477185276 1
gene  1 17 20 -19.713754385523842 0 1.0 -19.713754385523842 1
gene  1 17 21 -13.125291054722936 0 1.0 -13.125291054722936 1
gene  1 17 22 0.6432278584401054 0 1.0 0.6432278584401054 1
gene  1 17 23 2.471962241385902 0 1.0 2.471962241385902 1
gene  2 9 18 -4.190700701872753 0 3.0 -4.190700701872753 1
gene  1 9 19 -9.116020824819547 0 4.0 -9.116020824819547 1
gene  1 9 20 -3.287391872107437 0 5.0 -3.287391872107437 1
gene  2 9 21 -0.28788687941477403 0 6.0 -0.28788687941477403 1
gene  1 9 22 -3.767292805681203 0 7.0 -3.767292805681203 0
gene  1 9 23 3.2144017887407568 0 8.0 3.2144017887407568 1
gene  2 9 24 -1.095598528816712 0 21.0 -1.095598528816712 1
gene  2 24 18 -2.7837093095695247 0 22.0 -2.7837093095695247 1
gene  2 15 22 1.0515627811859842 0 35.0 1.0515627811859842 1
gene  2 9 28 -9.52568064512587 0 56.0 -9.52568064512587 1
gene  2 28 24 6.211892929437752 0 57.0 6.211892929437752 1
gene  1 1 21 -6.3630861122179905 0 304.0 -6.3630861122179905 1
gene  1 4 22 1.0735097522697263 0 335.0 1.0735097522697263 1
gene  1 17 28 -5.12564296332644 0 352.0 -5.12564296332644 1
gene  1 9 80 5.508806177653005 0 515.0 5.508806177653005 1
gene  1 80 22 -24.37108811200067 0 516.0 -24.37108811200067 1
gene  1 7 18 2.0231788546539047 0 539.0 2.0231788546539047 0
gene  1 7 19 0.2469506026304522 0 540.0 0.2469506026304522 1
gene  1 7 20 3.875203343026496 0 541.0 3.875203343026496 1
gene  1 7 21 21.508384169174775 0 542.0 21.508384169174775 1
gene  1 7 22 4.36237156665837 0 543.0 4.36237156665837 1
gene  2 7 23 -1.526633553664702 0 544.0 -1.526633553664702 1
gene  1 3 28 -5.899578144509702 0 602.0 -5.899578144509702 1
gene  1 2 18 -3.436816268509421 0 656.0 -3.436816268509421 1
gene  2 2 19 1.080383551094961 0 657.0 1.080383551094961 1
gene  1 2 20 -4.198065285644207 0 658.0 -4.198065285644207 1
gene  2 2 21 1.809684442419381 0 659.0 1.809684442419381 1
gene  1 2 22 -2.46339426936668 0 660.0 -2.46339426936668 1
gene  2 2 23 -4.946559721423582 0 661.0 -4.946559721423582 1
gene  2 80 19 4.010215748298651 0 831.0 4.010215748298651 1
gene  1 6 18 7.375067044798021 0 1175.0 7.375067044798021 1
gene  2 6 19 -0.8205354387048125 0 1176.0 -0.8205354387048125 1
gene  2 6 20 -9.975746467104104 0 1177.0 -9.975746467104104 1
gene  1 6 21 -2.999126968462778 0 1178.0 -2.999126968462778 1
gene  1 6 22 2.5010726457203214 0 1179.0 2.5010726457203214 1
gene  1 6 23 0.036440202945748235 0 1180.0 0.036440202945748235 1
gene  1 4 18 6.512904592824009 0 1343.0 6.512904592824009 1
gene  1 4 19 -4.6210260712843105 0 1344.0 -4.6210260712843105 1
gene  1 4 20 13.153207059319225 0 1345.0 13.153207059319225 1
gene  2 4 21 -0.7139292669004125 0 1346.0 -0.7139292669004125 1
gene  1 4 23 -1.1337561862692067 0 1347.0 -1.1337561862692067 1
gene  1 11 20 1.3609626015049703 0 1403.0 1.3609626015049703 1
gene  1 3 80 -2.950058210670687 0 1592.0 -2.950058210670687 1
gene  1 5 24 1.0359112722153756 0 1738.0 1.0359112722153756 1
gene  1 7 226 2.3905066187580806 0 1837.0 2.3905066187580806 1
gene  1 226 18 0.7995576235859281 0 1838.0 0.7995576235859281 1
gene  2 5 19 0.40953949158779973 0 1883.0 0.40953949158779973 1
gene  1 15 28 0.7880959688694589 0 2002.0 0.7880959688694589 1
genomeend 2
genomestart  3
trait 1 1.5887721431354194 0.0017648730070946028 0.0 0.2739410575563288 0.525837929442292 0.0 0.5989153198084932 0.0 
trait 2 0.895226544352977 0.9578985916436479 0.0 0.3983226829980911 0.0 0.7029225050889247 0.7641431102695673 0.0 
node 1 1 1 1
node 2 1 1 1
node 3 1 1 1
node 4 1 1 1
node 5 1 1 1
node 6 1 1 1
node 7 1 1 1
node 8 1 1 1
node 9 1 1 1
node 10 1 1 1
node 11 1 1 1
node 12 1 1 1
node 13 1 1 1
node 14 1 1 1
node 15 2 1 1
node 16 1 1 1
node 17 1 1 3
node 18 1 0 2
node 19 1 0 2
node 20 1 0 2
node 21 1 0 2
node 22 1 0 2
node 23 1 0 2
node 24 1 0 0
node 28 1 0 0
node 80 1 0 0
node 226 1 0 0
gene  1 17 18 -9.2420907945777 0 1.0 -9.2420907945777 1
gene  1 17 19 10.272915352245942 0 1.0 10.272915352245942 1
gene  1 17 20 -18.17182321596858 0 1.0 -18.17182321596858 1
gene  1 17 21 -15.014099764264612 0 1.0 -15.014099764264612 1
gene  1 17 22 -0.28939362495558735 0 1.0 -0.28939362495558735 1
gene  1 17 23 3.2801411647508014 0 1.0 3.2801411647508014 1
gene  2 9 18 -3.327347174265358 0 3.0 -3.327347174265358 1
gene  1 9 19 -5.427001871009795 0 4.0 -5.427001871009795 1
gene  1 9 20 -5.891202677312145 0 5.0 -5.891202677312145 1
gene  2 9 21 -1.6684295369517002 0 6.0 -1.6684295369517002 1
gene  1 9 22 -3.593679274205174 0 7.0 -3.593679274205174 0
gene  1 9 23 3.6356401469659447 0 8.0 3.6356401469659447 1
gene  2 9 24 1.461545361255531 0 21.0 1.461545361255531 1
gene  2 24 18 -6.23398294272221 0 22.0 -6.23398294272221 1
gene  2 15 22 0.43055910108077183 0 35.0 0.43055910108077183 1
gene  2 9 28 -7.478882447890969 0 56.0 -7.478882447890969 1
gene  2 28 24 6.490299963997176 0 57.0 6.490299963997176 1
gene  1 1 21 -4.44555660960872 0 304.0 -4.44555660960872 1
gene  1 4 22 3.8985609353420454 0 335.0 3.8985609353420454 1
gene  1 17 28 -7.2163667971963825 0 352.0 -7.2163667971963825 1
gene  1 9 80 2.742677985113853 0 515.0 2.742677985113853 1
gene  1 80 22 -22.631455604625007 0 516.0 -22.631455604625007 1
gene  1 7 18 -1.7708812674125871 0 539.0 -1.7708812674125871 0
gene  1 7 19 -2.085706419116778 0 540.0 -2.085706419116778 1
gene  1 7 20 4.666293547808683 0 541.0 4.666293547808683 1
gene  1 7 21 18.761985688127854 0 542.0 18.761985688127854 1
gene  1 7 22 5.8548028295350925 0 543.0 5.8548028295350925 1
gene  2 7 23 -5.418167049212521 0 544.0 -5.418167049212521 1
gene  1 3 28 -2.953356994584216 0 602.0 -2.953356994584216 1
gene  1 2 18 -0.7483502342419266 0 656.0 -0.7483502342419266 1
gene  2 2 19 2.940248464936756 0 657.0 2.940248464936756 1
gene  1 2 20 -4.267323397400495 0 658.0 -4.267323397400495 1
gene  2 2 21 -0.4729502718282057 0 659.0 -0.4729502718282057 1
gene  1 2 22 2.0176151958847517 0 660.0 2.0176151958847517 1
gene  2 2 23 -5.893765526322144 0 661.0 -5.893765526322144 1
gene  2 80 19 4.419585308330397 0 831.0 4.419585308330397 1
gene  1 6 18 4.0591547541306205 0 1175.0 4.0591547541306205 1
gene  2 6 19 -3.1063386102118575 0 1176.0 -3.1063386102118575 1
gene  2 6 20 -7.771185080471177 0 1177.0 -7.771185080471177 1
gene  1 6 21 -5.34251993765632 0 1178.0 -5.34251993765632 1
gene  1 6 22 1.0522866735720071 0 1179.0 1.0522866735720071 1
gene  1 6 23 -1.1957644202177402 0 1180.0 -1.1957644202177402 1
gene  1 4 18 7.6680830224578465 0 1343.0 7.6680830224578465 1
gene  1 4 19 -5.993059199713064 0 1344.0 -5.993059199713064 1
gene  1 4 20 11.587889123584537 0 1345.0 11.587889123584537 1
gene  2 4 21 -0.41348215743950867 0 1346.0 -0.41348215743950867 1
gene  1 4 23 0.9724951128165849 0 1347.0 0.9724951128165849 1
gene  1 11 20 0.20988917871405693 0 1403.0 0.20988917871405693 1
gene  1 3 80 -2.1333990932020783 0 1592.0 -2.1333990932020783 1
gene  1 5 24 0.29843381500259586 0 1738.0 0.29843381500259586 1
gene  1 7 226 0.7359624362094639 0 1837.0 0.7359624362094639 1
gene  1 226 18 2.593713902436409 0 1838.0 2.593713902436409 1
gene  2 5 19 1.6521203023930155 0 1883.0 1.6521203023930155 1
gene  1 15 28 -0.5295224591778356 0 2002.0 -0.5295224591778356 1
genomeend 3
genomestart  4
trait 1 1.5887721431354194 0.0017648730070946028 0.0 0.2739410575563288 0.525837929442292 0.0 0.5989153198084932 0.0 
trait 2 0.895226544352977 0.9578985916436479 0.0 0.3983226829980911 0.0 0.7029225050889247 0.7641431102695673 0.0 
node 1 1 1 1
node 2 1 1 1
node 3 1 1 1
node 4 1 1 1
node 5 1 1 1
node 6 1 1 1
node 7 1 1 1
node 8 1 1 1
node 9 1 1 1
node 10 1 1 1
node 11 1 1 1
node 12 1 1 1
node 13 1 1 1
node 14 1 1 1
node 15 2 1 1
node 16 1 1 1
node 17 1 1 3
node 18 1 0 2
node 19 1 0 2
node 20 1 0 2
node 21 1 0 2
node 22 1 0 2
node 23 1 0 2
node 24 1 0 0
node 28 1 0 0
node 80 1 0 0
node 226 1 0 0
gene  1 17 18 -9.121128283524987 0 1.0 -9.121128283524987 1
gene  1 17 19 7.78105422653619 0 1.0 7.78105422653619 1
gene  1 17 20 -18.95916589991199 0 1.0 -18.95916589991199 1
gene  1 17 21 -13.971871714638478 0 1.0 -13.971871714638478 1
gene  1 17 22 0.04773193783504959 0 1.0 0.04773193783504959 1
gene  1 17 23 2.801267898069872 0 1.0 2.801267898069872 1
gene  2 9 18 -5.322491324240412 0 3.0 -5.322491324240412 1
gene  1 9 19 -7.437715722146031 0 4.0 -7.437715722146031 1
gene  1 9 20 -5.109624403670744 0 5.0 -5.109624403670744 1
gene  2 9 21 -0.06225307839049399 0 6.0 -0.06225307839049399 1
gene  1 9 22 -4.7443600086867335 0 7.0 -4.7443600086867335 0
gene  1 9 23 1.4085301896554523 0 8.0 1.4085301896554523 1
gene  2 9 24 1.28899701608003 0 21.0 1.28899701608003 1
gene  2 24 18 -5.275612366500912 0 22.0 -5.275612366500912 1
gene  2 15 22 0.13139328307480458 0 35.0 0.13139328307480458 1
gene  2 9 28 -7.997705261835963 0 56.0 -7.997705261835963 1
gene  2 28 24 7.041242379275371 0 57.0 7.041242379275371 1
gene  1 1 21 -6.255895421512608 0 304.0 -6.255895421512608 1
gene  1 4 22 2.9717521383453165 0 335.0 2.9717521383453165 1
gene  1 17 28 -5.116061773644164 0 352.0 -5.116061773644164 1
gene  1 9 80 4.884242662941862 0 515.0 4.884242662941862 1
gene  1 80 22 -22.88531795541831 0 516.0 -22.88531795541831 1
gene  1 7 18 0.02787593757623874 0 539.0 0.02787593757623874 0
gene  1 7 19 -1.1857084754283502 0 540.0 -1.1857084754283502 1
gene  1 7 20 2.9200717320442093 0 541.0 2.9200717320442093 1
gene  1 7 21 20.117329506485394 0 542.0 20.117329506485394 1
gene  1 7 22 5.449584282779885 0 543.0 5.449584282779885 1
gene  2 7 23 -3.3806297139455026 0 544.0 -3.3806297139455026 1
gene  1 3 28 -3.994285213086099 0 602.0 -3.994285213086099 1
gene  1 2 18 -1.2510933955334935 0 656.0 -1.2510933955334935 1
gene  2 2 19 2.844144725913843 0 657.0 2.844144725913843 1
gene  1 2 20 -3.9418252919867394 0 658.0 -3.9418252919867394 1
gene  2 2 21 1.1556518751104068 0 659.0 1.1556518751104068 1
gene  1 2 22 -0.16704691335987132 0 660.0 -0.16704691335987132 1
gene  2 2 23 -3.9152408454672787 0 661.0 -3.9152408454672787 1
gene  2 80 19 2.8055609765018352 0 831.0 2.8055609765018352 1
gene  1 6 18 5.47375381497462 0 1175.0 5.47375381497462 1
gene  2 6 19 -2.9789992531557683 0 1176.0 -2.9789992531557683 1
gene  2 6 20 -7.976924584108369 0 1177.0 -7.976924584108369 1
gene  1 6 21 -4.948834631471996 0 1178.0 -4.948834631471996 1
gene  1 6 22 3.1631092482320384 0 1179.0 3.1631092482320384 1
gene  1 6 23 -1.9951214030159046 0 1180.0 -1.9951214030159046 1
gene  1 4 18 5.3762944849201 0 1343.0 5.3762944849201 1
gene  1 4 19 -5.340676450122996 0 1344.0 -5.340676450122996 1
gene  1 4 20 13.153207059319225 0 1345.0 13.153207059319225 1
gene  2 4 21 -0.41348215743950867 0 1346.0 -0.41348215743950867 1
gene  1 4 23 0.9724951128165849 0 1347.0 0.9724951128165849 1
gene  1 11 20 0.20988917871405693 0 1403.0 0.20988917871405693 1
gene  1 3 80 -2.950058210670687 0 1592.0 -2.950058210670687 1
gene  1 5 24 1.0359112722153756 0 1738.0 1.0359112722153756 1
gene  1 7 226 -0.29210007143474037 0 1837.0 -0.29210007143474037 1
gene  1 226 18 2.2453118864013963 0 1838.0 2.2453118864013963 1
gene  2 5 19 0.7152710699385147 0 1883.0 0.7152710699385147 1
gene  1 15 28 0.7880959688694589 0 2002.0 0.7880959688694589 1
genomeend 4
genomestart  5
trait 1 1.5887721431354194 0.0017648730070946028 0.0 0.2739410575563288 0.525837929442292 0.0 0.5989153198084932 0.0 
trait 2 0.895226544352977 0.9578985916436479 0.0 0.3983226829980911 0.0 0.7029225050889247 0.7641431102695673 0.0 
node 1 1 1 1
node 2 1 1 1
node 3 1 1 1
node 4 1 1 1
node 5 1 1 1
node 6 1 1 1
node 7 1 1 1
node 8 1 1 1
node 9 1 1 1
node 10 1 1 1
node 11 1 1 1
node 12 1 1 1
node 13 1 1 1
node 14 1 1 1
node 15 2 1 1
node 16 1 1 1
node 17 1 1 3
node 18 1 0 2
node 19 1 0 2
node 20 1 0 2
node 21 1 0 2
node 22 1 0 2
node 23 1 0 2
node 24 1 0 0
node 28 1 0 0
node 80 1 0 0
node 226 1 0 0
gene  1 17 18 -10.678434713141536 0 1.0 -10.678434713141536 1
gene  1 17 19 8.152579846454085 0 1.0 8.152579846454085 1
gene  1 17 20 -14.570762292609867 0 1.0 -14.570762292609867 1
gene  1 17 21 -12.077489102530695 0 1.0 -12.077489102530695 1
gene  1 17 22 3.344405704562404 0 1.0 3.344405704562404 1
gene  1 17 23 5.410822645338838 0 1.0 5.410822645338838 1
gene  2 9 18 -0.691564940381787 0 3.0 -0.691564940381787 1
gene  1 9 19 -8.595214234435698 0 4.0 -8.595214234435698 1
gene  1 9 20 -11.46547612782295 0 5.0 -11.46547612782295 1
gene  2 9 21 -1.0711386051162608 0 6.0 -1.0711386051162608 1
gene  1 9 22 -1.595069536777261 0 7.0 -1.595069536777261 0
gene  1 9 23 -3.9736371610429515 0 8.0 -3.9736371610429515 1
gene  2 9 24 5.148681479471952 0 21.0 5.148681479471952 1
gene  2 24 18 0.23771317214493992 0 22.0 0.23771317214493992 1
gene  2 15 22 0.543307026459215 0 35.0 0.543307026459215 1
gene  2 9 28 1.0433910863099096 0 56.0 1.0433910863099096 1
gene  2 28 24 7.4539369624548355 0 57.0 7.4539369624548355 1
gene  1 1 21 -0.3387968623106816 0 304.0 -0.3387968623106816 1
gene  1 4 22 -1.9698616316810393 0 335.0 -1.9698616316810393 1
gene  1 17 28 -7.990445473838384 0 352.0 -7.990445473838384 1
gene  1 9 80 5.246469085200177 0 515.0 5.246469085200177 1
gene  1 80 22 -17.567792439570315 0 516.0 -17.567792439570315 1
gene  1 7 18 -0.7882783158324804 0 539.0 -0.7882783158324804 0
gene  1 7 19 -0.3495451922808957 0 540.0 -0.3495451922808957 1
gene  1 7 20 1.8347691284209322 0 541.0 1.8347691284209322 1
gene  1 7 21 17.643989235531844 0 542.0 17.643989235531844 1
gene  1 7 22 1.2812709044884858 0 543.0 1.2812709044884858 1
gene  2 7 23 -3.431113151587657 0 544.0 -3.431113151587657 1
gene  1 3 28 -6.2231191309465625 0 602.0 -6.2231191309465625 1
gene  1 2 18 3.4583376888770134 0 656.0 3.4583376888770134 1
gene  2 2 19 0.41539480523165495 0 657.0 0.41539480523165495 1
gene  1 2 20 -1.0029117326846135 0 658.0 -1.0029117326846135 1
gene  2 2 21 4.938460841822474 0 659.0 4.938460841822474 1
gene  1 2 22 2.120116614022421 0 660.0 2.120116614022421 1
gene  2 2 23 -1.8499852507079477 0 661.0 -1.8499852507079477 1
gene  2 80 19 3.630505543025227 0 831.0 3.630505543025227 1
gene  1 6 18 4.7032501716241875 0 1175.0 4.7032501716241875 1
gene  2 6 19 0.9901571788350709 0 1176.0 0.9901571788350709 1
gene  2 6 20 -4.7574966128061975 0 1177.0 -4.7574966128061975 1
gene  1 6 21 -6.57958842739568 0 1178.0 -6.57958842739568 1
gene  1 6 22 4.721600075880716 0 1179.0 4.721600075880716 1
gene  1 6 23 -6.224916162013004 0 1180.0 -6.224916162013004 1
gene  1 4 18 5.024671629008823 0 1343.0 5.024671629008823 1
gene  1 4 19 -1.0632908152786564 0 1344.0 -1.0632908152786564 1
gene  1 4 20 11.70230683464491 0 1345.0 11.70230683464491 1
gene  2 4 21 0.4922612585325514 0 1346.0 0.4922612585325514 1
gene  1 4 23 0.35633132103240206 0 1347.0 0.35633132103240206 1
gene  1 11 20 1.5606500301516537 0 1403.0 1.5606500301516537 1
gene  1 3 80 -1.465093589964469 0 1592.0 -1.465093589964469 1
gene  1 5 24 2.894441041764035 0 1738.0 2.894441041764035 1
gene  1 7 226 -1.4720260018872975 0 1837.0 -1.4720260018872975 1
gene  1 226 18 0.3189196142099715 0 1838.0 0.3189196142099715 1
gene  2 5 19 0.332074176002643 0 1883.0 0.332074176002643 1
gene  1 15 28 -0.8858242418314397 0 2002.0 -0.8858242418314397 1
genomeend 5
genomestart  6
trait 1 1.5887721431354194 0.0017648730070946028 0.0 0.2739410575563288 0.525837929442292 0.0 0.5989153198084932 0.0 
trait 2 0.895226544352977 0.9578985916436479 0.0 0.3983226829980911 0.0 0.7029225050889247 0.7641431102695673 0.0 
node 1 1 1 1
node 2 1 1 1
node 3 1 1 1
node 4 1 1 1
node 5 1 1 1
node 6 1 1 1
node 7 1 1 1
node 8 1 1 1
node 9 1 1 1
node 10 1 1 1
node 11 1 1 1
node 12 1 1 1
node 13 1 1 1
node 14 1 1 1
node 15 2 1 1
node 16 1 1 1
node 17 1 1 3
node 18 1 0 2
node 19 1 0 2
node 20 1 0 2
node 21 1 0 2
node 22 1 0 2
node 23 1 0 2
node 24 1 0 0
node 28 1 0 0
node 80 1 0 0
node 226 1 0 0
gene  1 17 18 -9.758857965999578 0 1.0 -9.758857965999578 1
gene  1 17 19 1.561863299566466 0 1.0 1.561863299566466 1
gene  1 17 20 -12.812657137023399 0 1.0 -12.812657137023399 1
gene  1 17 21 -10.22379781113113 0 1.0 -10.22379781113113 1
gene  1 17 22 1.69825341347581 0 1.0 1.69825341347581 1
gene  1 17 23 3.9036778776530716 0 1.0 3.9036778776530716 1
gene  2 9 18 -2.4809510461803743 0 3.0 -2.4809510461803743 1
gene  1 9 19 -6.504229804731209 0 4.0 -6.504229804731209 1
gene  1 9 20 -8.185930653055692 0 5.0 -8.185930653055692 1
gene  2 9 21 -0.7263612966444066 0 6.0 -0.7263612966444066 1
gene  1 9 22 1.2516562792823298 0 7.0 1.2516562792823298 0
gene  1 9 23 -3.0279946051365583 0 8.0 -3.0279946051365583 1
gene  2 9 24 6.915072223110477 0 21.0 6.915072223110477 1
gene  2 24 18 -0.5056256904478312 0 22.0 -0.5056256904478312 1
gene  2 15 22 -1.2936063239896798 0 35.0 -1.2936063239896798 1
gene  2 9 28 0.8627340339696856 0 56.0 0.8627340339696856 1
gene  2 28 24 5.25853033898038 0 57.0 5.25853033898038 1
gene  1 1 21 -1.3092099329471771 0 304.0 -1.3092099329471771 1
gene  1 4 22 -1.0416229907328851 0 335.0 -1.0416229907328851 1
gene  1 17 28 -8.989333450814133 0 352.0 -8.989333450814133 1
gene  1 9 80 3.070153525148666 0 515.0 3.070153525148666 1
gene  1 80 22 -18.91956107618302 0 516.0 -18.91956107618302 1
gene  1 7 18 1.4986363363722188 0 539.0 1.4986363363722188 0
gene  1 7 19 -0.41950125105962166 0 540.0 -0.41950125105962166 1
gene  1 7 20 0.6979314910577474 0 541.0 0.6979314910577474 1
gene  1 7 21 17.805694619499803 0 542.0 17.805694619499803 1
gene  1 7 22 3.9951261390754076 0 543.0 3.9951261390754076 1
gene  2 7 23 -3.1455918456701024 0 544.0 -3.1455918456701024 1
gene  1 3 28 -8.842484898499778 0 602.0 -8.842484898499778 1
gene  1 2 18 2.2540242756425384 0 656.0 2.2540242756425384 1
gene  2 2 19 1.7541982573400212 0 657.0 1.7541982573400212 1
gene  1 2 20 -1.3975368479973524 0 658.0 -1.3975368479973524 1
gene  2 2 21 -0.7538404940572276 0 659.0 -0.7538404940572276 1
gene  1 2 22 -0.13404638545971692 0 660.0 -0.13404638545971692 1
gene  2 2 23 0.655115288180179 0 661.0 0.655115288180179 1
gene  2 80 19 0.5024119952063164 0 831.0 0.5024119952063164 1
gene  1 6 18 3.946727308415082 0 1175.0 3.946727308415082 1
gene  2 6 19 0.36193888743189373 0 1176.0 0.36193888743189373 1
gene  2 6 20 -7.680187950802618 0 1177.0 -7.680187950802618 1
gene  1 6 21 -5.8617992478717 0 1178.0 -5.8617992478717 1
gene  1 6 22 -1.054084698034465 0 1179.0 -1.054084698034465 1
gene  1 6 23 -4.624922148186945 0 1180.0 -4.624922148186945 1
gene  1 4 18 2.4434828981188628 0 1343.0 2.4434828981188628 1
gene  1 4 19 1.9076955336857606 0 1344.0 1.9076955336857606 1
gene  1 4 20 -1.8721218861861932 0 1345.0 -1.8721218861861932 1
gene  2 4 21 -0.8035171798469707 0 1346.0 -0.8035171798469707 1
gene  1 4 23 -0.4810299502817583 0 1347.0 -0.4810299502817583 1
gene  1 11 20 -1.3478649332316823 0 1403.0 -1.3478649332316823 1
gene  1 3 80 0.7465602142840391 0 1592.0 0.7465602142840391 1
gene  1 5 24 0.8525642959376865 0 1738.0 0.8525642959376865 1
gene  1 7 226 2.5917683025538714 0 1837.0 2.5917683025538714 1
gene  1 226 18 -0.5281762339436171 0 1838.0 -0.5281762339436171 1
gene  2 5 19 2.4344483009869675 0 1883.0 2.4344483009869675 1
gene  1 15 28 -0.8858242418314397 0 2002.0 -0.8858242418314397 1
genomeend 6
genomestart  7
trait 1 0.0 0.1571516358336006 0.8115266434238371 0.0 0.0 0.0 0.986762254909483 0.432068744097859 
trait 2 1.5176994816338305 0.9447886303982153 0.0 0.8319440723012025 0.0929944652337551 0.19604209333522782 0.3277917754181744 1.3492551223135396 
node 1 1 1 1
node 2 1 1 1
node 3 1 1 1
node 4 1 1 1
node 5 1 1 1
node 6 1 1 1
node 7 2 1 1
node 8 1 1 1
node 9 1 1 1
node 10 1 1 1
node 11 1 1 1
node 12 1 1 1
node 13 1 1 1
node 14 1 1 1
node 15 1 1 1
node 16 1 1 1
node 17 1 1 3
node 18 2 0 2
node 19 1 0 2
node 20 1 0 2
node 21 1 0 2
node 22 1 0 2
node 23 1 0 2
node 24 1 0 0
node 28 2 0 0
node 33 2 0 0
node 149 1 0 0
node 267 1 0 0
gene  1 17 18 -1.8559398529111584 0 1.0 -1.8559398529111584 1
gene  1 17 19 4.268466836709676 0 1.0 4.268466836709676 1
gene  1 17 20 -2.474185982681827 0 1.0 -2.474185982681827 1
gene  1 17 21 -8.769294632137242 0 1.0 -8.769294632137242 1
gene  1 17 22 -2.5722844832460696 0 1.0 -2.5722844832460696 1
gene  1 17 23 -1.7718103785402115 0 1.0 -1.7718103785402115 1
gene  2 9 18 -0.21413805660769475 0 3.0 -0.21413805660769475 1
gene  1 9 19 -6.366126562955866 0 4.0 -6.366126562955866 1
gene  1 9 20 0.9551970177513619 0 5.0 0.9551970177513619 1
gene  2 9 21 11.148511074981242 0 6.0 11.148511074981242 1
gene  1 9 22 0.3642209638661695 0 7.0 0.3642209638661695 1
gene  1 9 23 3.056843258409759 0 8.0 3.056843258409759 1
gene  2 9 24 -5.30557854991674 0 21.0 -5.30557854991674 1
gene  2 24 18 -1.6537168738664718 0 22.0 -1.6537168738664718 1
gene  2 15 22 0.6283771090013275 0 35.0 0.6283771090013275 1
gene  2 9 28 -2.461326294458108 0 56.0 -2.461326294458108 1
gene  2 28 24 0.15144503042981627 0 57.0 0.15144503042981627 1
gene  2 9 33 1.1607635736302875 0 120.0 1.1607635736302875 1
gene  2 33 28 -0.8275297497483332 0 121.0 -0.8275297497483332 1
gene  1 10 18 -5.053636511657171 0 142.0 -5.053636511657171 1
gene  2 10 19 -4.042310037392497 0 143.0 -4.042310037392497 1
gene  1 10 20 13.205010764816212 0 144.0 13.205010764816212 1
gene  2 10 21 -4.676712646556913 0 145.0 -4.676712646556913 1
gene  1 10 22 1.6492836368880808 0 146.0 1.6492836368880808 1
gene  2 10 23 -10.462619376553848 0 147.0 -10.462619376553848 1
gene  2 8 18 -0.8168027111320613 0 1012.0 -0.8168027111320613 1
gene  2 8 19 0.5315340617629508 0 1013.0 0.5315340617629508 1
gene  1 8 20 -0.8104222999031765 0 1014.0 -0.8104222999031765 1
gene  1 8 21 0.47398564408123756 0 1015.0 0.47398564408123756 1
gene  2 8 22 -2.3212960967714062 0 1016.0 -2.3212960967714062 1
gene  2 8 23 1.7095402293303181 0 1017.0 1.7095402293303181 1
gene  2 9 149 -2.251412367317307 0 1050.0 -2.251412367317307 1
gene  2 149 24 2.550358898823081 0 1051.0 2.550358898823081 1
gene  1 22 24 -0.09672793347726816 0 1112.0 -0.09672793347726816 0
gene  1 20 149 1.0557233474502228 0 1332.0 1.0557233474502228 1
gene  2 1 18 -5.029654985582068 0 1378.0 -5.029654985582068 1
gene  1 1 19 -0.6499021998395853 0 1379.0 -0.6499021998395853 1
gene  1 1 20 -1.468274630038868 0 1380.0 -1.468274630038868 1
gene  2 1 21 3.354023439701073 0 1381.0 3.354023439701073 1
gene  2 1 22 5.349107248570235 0 1382.0 5.349107248570235 1
gene  1 1 23 1.4067460686380606 0 1383.0 1.4067460686380606 1
gene  1 16 149 -1.8234412692264343 0 1459.0 -1.8234412692264343 1
gene  1 13 18 -1.367257497950067 0 1527.0 -1.367257497950067 1
gene  2 149 23 1.1275702296744137 0 1645.0 1.1275702296744137 1
gene  2 21 18 -0.5292705926701222 0 1699.0 -0.5292705926701222 1
gene  1 22 20 -6.653451761784151 0 1940.0 -6.653451761784151 1
gene  1 22 267 1.1415739480823013 0 2125.0 1.1415739480823013 1
gene  1 267 24 2.5052745896861124 0 2126.0 2.5052745896861124 1
gene  2 267 33 -5.544242971289942 0 2153.0 -5.544242971289942 1
genomeend 7
genomestart  8
trait 1 0.0 0.1571516358336006 0.8115266434238371 0.0 0.0 0.0 0.986762254909483 0.432068744097859 
trait 2 1.5176994816338305 0.9447886303982153 0.0 0.8319440723012025 0.0929944652337551 0.19604209333522782 0.3277917754181744 1.3492551223135396 
node 1 1 1 1
node 2 1 1 1
node 3 1 1 1
node 4 1 1 1
node 5 1 1 1
node 6 1 1 1
node 7 2 1 1
node 8 1 1 1
node 9 1 1 1
node 10 1 1 1
node 11 1 1 1
node 12 1 1 1
node 13 1 1 1
node 14 1 1 1
node 15 1 1 1
node 16 1 1 1
node 17 1 1 3
node 18 2 0 2
node 19 1 0 2
node 20 1 0 2
node 21 1 0 2
node 22 1 0 2
node 23 1 0 2
node 24 1 0 0
node 28 2 0 0
node 33 2 0 0
node 149 1 0 0
node 267 1 0 0
gene  1 17 18 -1.8559398529111584 0 1.0 -1.8559398529111584 1
gene  1 17 19 4.268466836709676 0 1.0 4.268466836709676 1
gene  1 17 20 -2.474185982681827 0 1.0 -2.474185982681827 1
gene  1 17 21 -8.769294632137242 0 1.0 -8.769294632137242 1
gene  1 17 22 -2.5722844832460696 0 1.0 -2.5722844832460696 1
gene  1 17 23 -1.7718103785402115 0 1.0 -1.7718103785402115 1
gene  2 9 18 -0.21413805660769475 0 3.0 -0.21413805660769475 1
gene  1 9 19 -6.366126562955866 0 4.0 -6.366126562955866 1
gene  1 9 20 0.9551970177513619 0 5.0 0.9551970177513619 1
gene  2 9 21 11.148511074981242 0 6.0 11.148511074981242 1
gene  1 9 22 0.3642209638661695 0 7.0 0.3642209638661695 1
gene  1 9 23 3.056843258409759 0 8.0 3.056843258409759 1
gene  2 9 24 -5.30557854991674 0 21.0 -5.30557854991674 1
gene  2 24 18 -1.6537168738664718 0 22.0 -1.6537168738664718 1
gene  2 15 22 0.6283771090013275 0 35.0 0.6283771090013275 1
gene  2 9 28 -2.461326294458108 0 56.0 -2.461326294458108 1
gene  2 28 24 0.15144503042981627 0 57.0 0.15144503042981627 1
gene  2 9 33 1.1607635736302875 0 120.0 1.1607635736302875 1
gene  2 33 28 -0.8275297497483332 0 121.0 -0.8275297497483332 1
gene  1 10 18 -5.053636511657171 0 142.0 -5.053636511657171 1
gene  2 10 19 -4.042310037392497 0 143.0 -4.042310037392497 1
gene  1 10 20 13.205010764816212 0 144.0 13.205010764816212 1
gene  2 10 21 -4.676712646556913 0 145.0 -4.676712646556913 1
gene  1 10 22 1.6492836368880808 0 146.0 1.6492836368880808 1
gene  2 10 23 -10.462619376553848 0 147.0 -10.462619376553848 1
gene  2 8 18 -0.8168027111320613 0 1012.0 -0.8168027111320613 1
gene  2 8 19 0.5315340617629508 0 1013.0 0.5315340617629508 1
gene  1 8 20 -0.8104222999031765 0 1014.0 -0.8104222999031765 1
gene  1 8 21 0.47398564408123756 0 1015.0 0.47398564408123756 1
gene  2 8 22 -2.3212960967714062 0 1016.0 -2.3212960967714062 1
gene  2 8 23 1.7095402293303181 0 1017.0 1.7095402293303181 1
gene  2 9 149 -2.251412367317307 0 1050.0 -2.251412367317307 1
gene  2 149 24 2.550358898823081 0 1051.0 2.550358898823081 1
gene  1 22 24 -0.09672793347726816 0 1112.0 -0.09672793347726816 0
gene  1 20 149 1.0557233474502228 0 1332.0 1.0557233474502228 1
gene  2 1 18 -5.029654985582068 0 1378.0 -5.029654985582068 1
gene  1 1 19 -0.6499021998395853 0 1379.0 -0.6499021998395853 1
gene  1 1 20 -1.468274630038868 0 1380.0 -1.468274630038868 1
gene  2 1 21 3.354023439701073 0 1381.0 3.354023439701073 1
gene  2 1 22 5.349107248570235 0 1382.0 5.349107248570235 1
gene  1 1 23 1.4067460686380606 0 1383.0 1.4067460686380606 1
gene  1 16 149 -1.8234412692264343 0 1459.0 -1.8234412692264343 1
gene  1 13 18 -1.367257497950067 0 1527.0 -1.367257497950067 1
gene  2 149 23 1.1275702296744137 0 1645.0 1.1275702296744137 1
gene  2 21 18 -0.5292705926701222 0 1699.0 -0.5292705926701222 1
gene  1 22 20 -6.653451761784151 0 1940.0 -6.653451761784151 1
gene  1 22 267 1.1415739480823013 0 2125.0 1.1415739480823013 1
gene  1 267 24 2.5052745896861124 0 2126.0 2.5052745896861124 1
gene  2 267 33 -5.544242971289942 0 2153.0 -5.544242971289942 1
genomeend 8
genomestart  9
trait 1 0.0 0.1571516358336006 0.8115266434238371 0.0 0.0 0.0 0.986762254909483 0.432068744097859 
trait 2 1.5176994816338305 0.9447886303982153 0.0 0.8319440723012025 0.0929944652337551 0.19604209333522782 0.3277917754181744 1.3492551223135396 
node 1 1 1 1
node 2 1 1 1
node 3 1 1 1
node 4 1 1 1
node 5 1 1 1
node 6 1 1 1
node 7 2 1 1
node 8 1 1 1
node 9 1 1 1
node 10 1 1 1
node 11 1 1 1
node 12 1 1 1
node 13 1 1 1
node 14 1 1 1
node 15 1 1 1
node 16 1 1 1
node 17 1 1 3
node 18 2 0 2
node 19 1 0 2
node 20 1 0 2
node 21 1 0 2
node 22 1 0 2
node 23 1 0 2
node 24 1 0 0
node 28 2 0 0
node 33 2 0 0
node 149 1 0 0
node 267 1 0 0
gene  1 17 18 -1.9179208622493296 0 1.0 -1.9179208622493296 1
gene  1 17 19 6.738033681246328 0 1.0 6.738033681246328 1
gene  1 17 20 -1.405470459995529 0 1.0 -1.405470459995529 1
gene  1 17 21 -7.985436574225022 0 1.0 -7.985436574225022 1
gene  1 17 22 -0.1015557671696663 0 1.0 -0.1015557671696663 1
gene  1 17 23 -0.16888605162121295 0 1.0 -0.16888605162121295 1
gene  2 9 18 0.17469035764669877 0 3.0 0.17469035764669877 1
gene  1 9 19 -6.249747765417641 0 4.0 -6.249747765417641 1
gene  1 9 20 1.4860143310835379 0 5.0 1.4860143310835379 1
gene  2 9 21 11.42934976743927 0 6.0 11.42934976743927 1
gene  1 9 22 2.5704377561035154 0 7.0 2.5704377561035154 1
gene  1 9 23 4.723568307269975 0 8.0 4.723568307269975 1
gene  2 9 24 -7.78026247195709 0 21.0 -7.78026247195709 1
gene  2 24 18 -2.9199872693504862 0 22.0 -2.9199872693504862 1
gene  2 15 22 0.44994831777934075 0 35.0 0.44994831777934075 1
gene  2 9 28 -2.3745278915208003 0 56.0 -2.3745278915208003 1
gene  2 28 24 0.2776117894425376 0 57.0 0.2776117894425376 1
gene  2 9 33 2.389960375415591 0 120.0 2.389960375415591 1
gene  2 33 28 1.0583852523116568 0 121.0 1.0583852523116568 1
gene  1 10 18 -2.716783402634597 0 142.0 -2.716783402634597 1
gene  2 10 19 -3.993915748046941 0 143.0 -3.993915748046941 1
gene  1 10 20 13.768275476913368 0 144.0 13.768275476913368 1
gene  2 10 21 -3.2004808337532316 0 145.0 -3.2004808337532316 1
gene  1 10 22 2.3677862580744895 0 146.0 2.3677862580744895 1
gene  2 10 23 -11.431923193600923 0 147.0 -11.431923193600923 1
gene  2 8 18 0.32197619208239536 0 1012.0 0.32197619208239536 1
gene  2 8 19 2.8038874294056346 0 1013.0 2.8038874294056346 1
gene  1 8 20 0.9125223888279916 0 1014.0 0.9125223888279916 1
gene  1 8 21 0.42977222047578084 0 1015.0 0.42977222047578084 1
gene  2 8 22 -2.6800472394277666 0 1016.0 -2.6800472394277666 1
gene  2 8 23 -0.7156679021487136 0 1017.0 -0.7156679021487136 1
gene  2 9 149 -4.071030569126066 0 1050.0 -4.071030569126066 1
gene  2 149 24 0.3847075864319547 0 1051.0 0.3847075864319547 1
gene  1 22 24 0.19767646310575915 0 1112.0 0.19767646310575915 0
gene  1 20 149 1.1984343049994772 0 1332.0 1.1984343049994772 1
gene  2 1 18 -6.244992921355399 0 1378.0 -6.244992921355399 1
gene  1 1 19 -3.049927767824651 0 1379.0 -3.049927767824651 1
gene  1 1 20 -3.8427711144910592 0 1380.0 -3.8427711144910592 1
gene  2 1 21 2.4562398699218964 0 1381.0 2.4562398699218964 1
gene  2 1 22 4.357206301538875 0 1382.0 4.357206301538875 1
gene  1 1 23 3.2573876158998143 0 1383.0 3.2573876158998143 1
gene  1 16 149 -1.8234412692264343 0 1459.0 -1.8234412692264343 1
gene  1 13 18 -1.1789329652010916 0 1527.0 -1.1789329652010916 1
gene  2 149 23 1.1275702296744137 0 1645.0 1.1275702296744137 1
gene  2 21 18 -1.9161579502827581 0 1699.0 -1.9161579502827581 1
gene  1 22 20 -6.653451761784151 0 1940.0 -6.653451761784151 1
gene  1 22 267 -0.6133281759109841 0 2125.0 -0.6133281759109841 1
gene  1 267 24 2.6999424354884614 0 2126.0 2.6999424354884614 1
gene  2 267 33 -5.544242971289942 0 2153.0 -5.544242971289942 1
genomeend 9
genomestart  10
trait 1 0.1 0.1571516358336006 0.48866108960795795 0.0 0.0 0.0 1.269647348760695 0.8443758357079344 
trait 2 0.7811431995087211 1.8175699101883427 0.0 0.33259215230478767 0.5011532106972969 1.0863303387721626 0.8563563094686308 1.190385861979643 
node 1 1 1 1
node 2 1 1 1
node 3 1 1 1
node 4 1 1 1
node 5 1 1 1
node 6 1 1 1
node 7 1 1 1
node 8 1 1 1
node 9 1 1 1
node 10 1 1 1
node 11 1 1 1
node 12 1 1 1
node 13 1 1 1
node 14 2 1 1
node 15 1 1 1
node 16 1 1 1
node 17 1 1 3
node 18 1 0 2
node 19 1 0 2
node 20 1 0 2
node 21 1 0 2
node 22 1 0 2
node 23 1 0 2
node 24 1 0 0
node 28 1 0 0
node 33 1 0 0
node 149 1 0 0
node 228 1 0 0
gene  1 17 18 -3.18731637613769 0 1.0 -3.18731637613769 1
gene  1 17 19 0.622923967097514 0 1.0 0.622923967097514 1
gene  1 17 20 -10.032524619687315 0 1.0 -10.032524619687315 1
gene  2 17 21 -4.031631778518545 0 1.0 -4.031631778518545 1
gene  1 17 22 -4.951894622124371 0 1.0 -4.951894622124371 1
gene  1 17 23 0.5365453269078821 0 1.0 0.5365453269078821 1
gene  2 9 18 -5.797702473824283 0 3.0 -5.797702473824283 1
gene  1 9 19 0.8687459395835153 0 4.0 0.8687459395835153 1
gene  1 9 20 -3.0525709677998516 0 5.0 -3.0525709677998516 1
gene  2 9 21 20.641373596417438 0 6.0 20.641373596417438 1
gene  1 9 22 1.0258388030488002 0 7.0 1.0258388030488002 1
gene  1 9 23 3.646090255269582 0 8.0 3.646090255269582 1
gene  2 9 24 -1.6915543051664557 0 21.0 -1.6915543051664557 1
gene  2 24 18 -1.8530815934759948 0 22.0 -1.8530815934759948 1
gene  2 15 22 -1.560211224918967 0 35.0 -1.560211224918967 1
gene  2 9 28 1.8893619671949646 0 56.0 1.8893619671949646 1
gene  2 28 24 -4.686720618658507 0 57.0 -4.686720618658507 1
gene  1 9 33 -0.4483406310677246 0 120.0 -0.4483406310677246 1
gene  2 33 28 -2.3695296513391564 0 121.0 -2.3695296513391564 1
gene  1 10 18 8.864922090531893 0 142.0 8.864922090531893 1
gene  2 10 19 -1.0408476156072726 0 143.0 -1.0408476156072726 1
gene  1 10 20 11.735095247467262 0 144.0 11.735095247467262 1
gene  2 10 21 -2.412494207533058 0 145.0 -2.412494207533058 1
gene  1 10 22 -0.20223084463221164 0 146.0 -0.20223084463221164 1
gene  1 10 23 -1.6757566924818956 0 147.0 -1.6757566924818956 1
gene  1 8 18 -0.7522835732159844 0 1012.0 -0.7522835732159844 1
gene  2 8 19 -1.899296697875552 0 1013.0 -1.899296697875552 1
gene  1 8 20 -2.428892294867978 0 1014.0 -2.428892294867978 1
gene  1 8 21 -1.9830484033710238 0 1015.0 -1.9830484033710238 1
gene  2 8 22 -2.273230950980349 0 1016.0 -2.273230950980349 1
gene  2 8 23 2.964375149697955 0 1017.0 2.964375149697955 1
gene  2 9 149 -1.0609157007848284 0 1050.0 -1.0609157007848284 1
gene  2 149 24 1.2526463578917877 0 1051.0 1.2526463578917877 1
gene  1 22 24 -1.68178481125498 0 1112.0 -1.68178481125498 1
gene  1 20 149 -1.1048667262324128 0 1332.0 -1.1048667262324128 1
gene  2 4 18 2.508790478033137 0 1384.0 2.508790478033137 1
gene  1 4 19 -2.176127642201945 0 1385.0 -2.176127642201945 1
gene  1 4 20 1.1613142241321088 0 1386.0 1.1613142241321088 1
gene  2 4 21 -1.2844164843677963 0 1387.0 -1.2844164843677963 1
gene  2 4 22 -8.678761383119532 0 1388.0 -8.678761383119532 1
gene  1 4 23 -0.8667103840910075 0 1389.0 -0.8667103840910075 1
gene  2 5 18 -0.17542121187915427 0 1546.0 -0.17542121187915427 1
gene  1 28 19 -9.958598071727797 0 1646.0 -9.958598071727797 1
gene  2 12 28 2.326639623304631 0 1670.0 2.326639623304631 1
gene  1 10 228 3.366530164209798 0 1851.0 3.366530164209798 1
gene  1 228 22 -0.7043591254850867 0 1852.0 -0.7043591254850867 1
gene  2 4 149 -3.4638450063801187 0 1919.0 -3.4638450063801187 1
gene  1 10 28 -3.0151573413993074 0 2091.0 -3.0151573413993074 1
genomeend 10
genomestart  11
trait 1 0.1 0.1571516358336006 0.48866108960795795 0.0 0.0 0.0 1.269647348760695 0.8443758357079344 
trait 2 0.7811431995087211 1.8175699101883427 0.0 0.33259215230478767 0.5011532106972969 1.0863303387721626 0.8563563094686308 1.190385861979643 
node 1 1 1 1
node 2 1 1 1
node 3 1 1 1
node 4 1 1 1
node 5 1 1 1
node 6 1 1 1
node 7 1 1 1
node 8 1 1 1
node 9 1 1 1
node 10 1 1 1
node 11 1 1 1
node 12 1 1 1
node 13 1 1 1
node 14 2 1 1
node 15 1 1 1
node 16 1 1 1
node 17 1 1 3
node 18 1 0 2
node 19 1 0 2
node 20 1 0 2
node 21 1 0 2
node 22 1 0 2
node 23 1 0 2
node 24 1 0 0
node 28 1 0 0
node 33 1 0 0
node 149 1 0 0
node 228 1 0 0
gene  1 17 18 -3.674312996650839 0 1.0 -3.674312996650839 1
gene  1 17 19 12.831374748774314 0 1.0 12.831374748774314 1
gene  1 17 20 -14.773762647753824 0 1.0 -14.773762647753824 1
gene  2 17 21 -2.4972620835330246 0 1.0 -2.4972620835330246 1
gene  1 17 22 -1.749014433261022 0 1.0 -1.749014433261022 1
gene  1 17 23 -1.004145062477238 0 1.0 -1.004145062477238 1
gene  2 9 18 -3.8918551509921477 0 3.0 -3.8918551509921477 1
gene  1 9 19 3.677343657373636 0 4.0 3.677343657373636 1
gene  1 9 20 -3.816221232459137 0 5.0 -3.816221232459137 1
gene  2 9 21 20.46113330550076 0 6.0 20.46113330550076 1
gene  1 9 22 2.619461841820563 0 7.0 2.619461841820563 1
gene  1 9 23 2.0305132229510656 0 8.0 2.0305132229510656 1
gene  2 9 24 -9.212321779687526 0 21.0 -9.212321779687526 1
gene  2 24 18 -1.2954147111588312 0 22.0 -1.2954147111588312 1
gene  2 15 22 -1.1244785535579955 0 35.0 -1.1244785535579955 1
gene  2 9 28 -1.1564480282023395 0 56.0 -1.1564480282023395 1
gene  2 28 24 -1.9906816403845036 0 57.0 -1.9906816403845036 1
gene  1 9 33 3.218312000099948 0 120.0 3.218312000099948 1
gene  2 33 28 -4.60022125487045 0 121.0 -4.60022125487045 1
gene  1 10 18 9.29560778939466 0 142.0 9.29560778939466 1
gene  2 10 19 -1.168899692261515 0 143.0 -1.168899692261515 1
gene  1 10 20 10.285676857786692 0 144.0 10.285676857786692 1
gene  2 10 21 -4.4394764967082185 0 145.0 -4.4394764967082185 1
gene  1 10 22 -3.3881285807735764 0 146.0 -3.3881285807735764 0
gene  1 10 23 0.5697958018573186 0 147.0 0.5697958018573186 1
gene  1 8 18 -0.32091109657241657 0 1012.0 -0.32091109657241657 1
gene  2 8 19 1.970526926418366 0 1013.0 1.970526926418366 1
gene  1 8 20 -2.432016882985433 0 1014.0 -2.432016882985433 1
gene  1 8 21 -2.9336475555672266 0 1015.0 -2.9336475555672266 1
gene  2 8 22 3.788446069625329 0 1016.0 3.788446069625329 1
gene  2 8 23 3.1137909947939466 0 1017.0 3.1137909947939466 1
gene  2 9 149 -4.624791020908287 0 1050.0 -4.624791020908287 1
gene  2 149 24 2.7026085853871593 0 1051.0 2.7026085853871593 1
gene  1 22 24 -3.269494277879947 0 1112.0 -3.269494277879947 1
gene  1 20 149 -3.3473378742756403 0 1332.0 -3.3473378742756403 1
gene  2 4 18 -1.7540390086154796 0 1384.0 -1.7540390086154796 1
gene  1 4 19 -1.659746808459918 0 1385.0 -1.659746808459918 1
gene  1 4 20 0.8793075096395493 0 1386.0 0.8793075096395493 1
gene  2 4 21 0.99401792163641 0 1387.0 0.99401792163641 1
gene  2 4 22 -0.3661361433503186 0 1388.0 -0.3661361433503186 1
gene  1 4 23 -0.0807210312697797 0 1389.0 -0.0807210312697797 1
gene  2 5 18 4.0897389213535105 0 1546.0 4.0897389213535105 1
gene  1 28 19 -5.205012784099659 0 1646.0 -5.205012784099659 1
gene  2 12 28 0.17534421448926968 0 1670.0 0.17534421448926968 1
gene  1 10 228 -2.7785645515173343 0 1851.0 -2.7785645515173343 1
gene  1 228 22 -2.136103268041618 0 1852.0 -2.136103268041618 1
gene  2 4 149 -0.33407731366115273 0 1919.0 -0.33407731366115273 1
gene  1 10 28 6.953016504794416 0 2091.0 6.953016504794416 1
genomeend 11
genomestart  12
trait 1 0.1 0.1571516358336006 0.48866108960795795 0.0 0.0 0.0 1.269647348760695 0.8443758357079344 
trait 2 0.7811431995087211 1.8175699101883427 0.0 0.33259215230478767 0.5011532106972969 1.0863303387721626 0.8563563094686308 1.190385861979643 
node 1 1 1 1
node 2 1 1 1
node 3 1 1 1
node 4 1 1 1
node 5 1 1 1
node 6 1 1 1
node 7 1 1 1
node 8 1 1 1
node 9 1 1 1
node 10 1 1 1
node 11 1 1 1
node 12 1 1 1
node 13 1 1 1
node 14 2 1 1
node 15 1 1 1
node 16 1 1 1
node 17 1 1 3
node 18 1 0 2
node 19 1 0 2
node 20 1 0 2
node 21 1 0 2
node 22 1 0 2
node 23 1 0 2
node 24 1 0 0
node 28 1 0 0
node 33 1 0 0
node 149 1 0 0
node 228 1 0 0
gene  1 17 18 -4.424676406870463 0 1.0 -4.424676406870463 1
gene  1 17 19 14.085409499158104 0 1.0 14.085409499158104 1
gene  1 17 20 -11.326754515669517 0 1.0 -11.326754515669517 1
gene  2 17 21 -2.8592978050365208 0 1.0 -2.8592978050365208 1
gene  1 17 22 -3.590722165556439 0 1.0 -3.590722165556439 1
gene  1 17 23 5.8697458480018625 0 1.0 5.8697458480018625 1
gene  2 9 18 -5.316225694331583 0 3.0 -5.316225694331583 1
gene  1 9 19 1.085008082346851 0 4.0 1.085008082346851 1
gene  1 9 20 -1.6000141580329998 0 5.0 -1.6000141580329998 1
gene  2 9 21 18.554482286893073 0 6.0 18.554482286893073 1
gene  1 9 22 -0.24188174427169962 0 7.0 -0.24188174427169962 1
gene  1 9 23 3.077943351098196 0 8.0 3.077943351098196 1
gene  2 9 24 -8.90440734516021 0 21.0 -8.90440734516021 1
gene  2 24 18 -4.618902506476349 0 22.0 -4.618902506476349 1
gene  2 15 22 5.570933574267789 0 35.0 5.570933574267789 1
gene  2 9 28 -0.5863207998730782 0 56.0 -0.5863207998730782 1
gene  2 28 24 -3.2626247697503175 0 57.0 -3.2626247697503175 1
gene  1 9 33 0.187567716216277 0 120.0 0.187567716216277 1
gene  2 33 28 -1.1706468946549233 0 121.0 -1.1706468946549233 1
gene  1 10 18 7.726841547545814 0 142.0 7.726841547545814 1
gene  2 10 19 -3.979444320035821 0 143.0 -3.979444320035821 1
gene  1 10 20 10.063432871754536 0 144.0 10.063432871754536 1
gene  2 10 21 -2.412494207533058 0 145.0 -2.412494207533058 1
gene  1 10 22 -0.20223084463221164 0 146.0 -0.20223084463221164 1
gene  1 10 23 -1.2158071064034162 0 147.0 -1.2158071064034162 1
gene  1 8 18 -0.4268968394575867 0 1012.0 -0.4268968394575867 1
gene  2 8 19 -1.899296697875552 0 1013.0 -1.899296697875552 1
gene  1 8 20 -2.050099083232001 0 1014.0 -2.050099083232001 1
gene  1 8 21 0.35082175220440215 0 1015.0 0.35082175220440215 1
gene  2 8 22 2.4313968372478003 0 1016.0 2.4313968372478003 1
gene  2 8 23 2.7423315544172033 0 1017.0 2.7423315544172033 1
gene  2 9 149 -0.602711566846299 0 1050.0 -0.602711566846299 1
gene  2 149 24 0.7735213387852107 0 1051.0 0.7735213387852107 1
gene  1 22 24 -3.7501331040436647 0 1112.0 -3.7501331040436647 1
gene  1 20 149 -3.203084854062576 0 1332.0 -3.203084854062576 1
gene  2 4 18 0.6636505581115064 0 1384.0 0.6636505581115064 1
gene  1 4 19 2.1653242205817564 0 1385.0 2.1653242205817564 1
gene  1 4 20 1.1613142241321088 0 1386.0 1.1613142241321088 1
gene  2 4 21 1.1176137846352834 0 1387.0 1.1176137846352834 1
gene  2 4 22 -6.313287466393115 0 1388.0 -6.313287466393115 1
gene  1 4 23 -0.8667103840910075 0 1389.0 -0.8667103840910075 1
gene  2 5 18 0.7215354828227416 0 1546.0 0.7215354828227416 1
gene  1 28 19 -8.388051007119923 0 1646.0 -8.388051007119923 1
gene  2 12 28 1.9018409562138536 0 1670.0 1.9018409562138536 1
gene  1 10 228 1.471760724105609 0 1851.0 1.471760724105609 1
gene  1 228 22 -1.8036149053330484 0 1852.0 -1.8036149053330484 1
gene  2 4 149 -2.663460325242539 0 1919.0 -2.663460325242539 1
gene  1 10 28 -2.40943874375761 0 2091.0 -2.40943874375761 1
genomeend 12
genomestart  13
trait 1 0.1 0.1571516358336006 0.48866108960795795 0.0 0.0 0.0 1.269647348760695 0.8443758357079344 
trait 2 0.7811431995087211 1.8175699101883427 0.0 0.33259215230478767 0.5011532106972969 1.0863303387721626 0.8563563094686308 1.190385861979643 
node 1 1 1 1
node 2 1 1 1
node 3 1 1 1
node 4 1 1 1
node 5 1 1 1
node 6 1 1 1
node 7 1 1 1
node 8 1 1 1
node 9 1 1 1
node 10 1 1 1
node 11 1 1 1
node 12 1 1 1
node 13 1 1 1
node 14 2 1 1
node 15 1 1 1
node 16 1 1 1
node 17 1 1 3
node 18 1 0 2
node 19 1 0 2
node 20 1 0 2
node 21 1 0 2
node 22 1 0 2
node 23 1 0 2
node 24 1 0 0
node 28 1 0 0
node 33 1 0 0
node 149 1 0 0
node 228 1 0 0
gene  1 17 18 -4.699453286672038 0 1.0 -4.699453286672038 1
gene  2 17 19 13.084289967033257 0 1.0 13.084289967033257 1
gene  1 17 20 -12.573831901770658 0 1.0 -12.573831901770658 1
gene  2 17 21 -3.5806470074734937 0 1.0 -3.5806470074734937 1
gene  1 17 22 -0.8141509068292583 0 1.0 -0.8141509068292583 1
gene  1 17 23 -0.12056748383564242 0 1.0 -0.12056748383564242 1
gene  2 9 18 -5.742152333148703 0 3.0 -5.742152333148703 1
gene  1 9 19 2.2213208824217685 0 4.0 2.2213208824217685 1
gene  1 9 20 -2.3874015115742595 0 5.0 -2.3874015115742595 1
gene  2 9 21 18.13826235104189 0 6.0 18.13826235104189 1
gene  1 9 22 0.42092175624196715 0 7.0 0.42092175624196715 1
gene  1 9 23 0.6807061872686573 0 8.0 0.6807061872686573 1
gene  2 9 24 -9.242281275981059 0 21.0 -9.242281275981059 1
gene  2 24 18 -2.9271589224856402 0 22.0 -2.9271589224856402 1
gene  2 15 22 0.7817543366951565 0 35.0 0.7817543366951565 1
gene  2 9 28 -0.18541932176245796 0 56.0 -0.18541932176245796 1
gene  2 28 24 -3.9286989112398665 0 57.0 -3.9286989112398665 1
gene  1 9 33 3.6716362432457497 0 120.0 3.6716362432457497 1
gene  2 33 28 -4.070083150609927 0 121.0 -4.070083150609927 1
gene  1 10 18 8.413545756938287 0 142.0 8.413545756938287 1
gene  2 10 19 -2.5892055864606567 0 143.0 -2.5892055864606567 1
gene  1 10 20 10.057537586275036 0 144.0 10.057537586275036 1
gene  2 10 21 -4.327915307600454 0 145.0 -4.327915307600454 1
gene  1 10 22 -2.299743497673408 0 146.0 -2.299743497673408 0
gene  1 10 23 -0.4439274978639976 0 147.0 -0.4439274978639976 1
gene  1 8 18 0.5225265904024912 0 1012.0 0.5225265904024912 1
gene  2 8 19 1.4444273466102067 0 1013.0 1.4444273466102067 1
gene  1 8 20 -0.18131444470965263 0 1014.0 -0.18131444470965263 1
gene  1 8 21 -1.2230748812630958 0 1015.0 -1.2230748812630958 1
gene  2 8 22 2.2069598918576734 0 1016.0 2.2069598918576734 1
gene  2 8 23 2.569089659808693 0 1017.0 2.569089659808693 1
gene  2 9 149 -2.1296350972730287 0 1050.0 -2.1296350972730287 1
gene  2 149 24 2.187722513360881 0 1051.0 2.187722513360881 1
gene  1 22 24 -2.2119793704182564 0 1112.0 -2.2119793704182564 1
gene  1 20 149 -3.2596117593708147 0 1332.0 -3.2596117593708147 1
gene  2 4 18 -0.6712593352445755 0 1384.0 -0.6712593352445755 1
gene  1 4 19 0.33343564029506423 0 1385.0 0.33343564029506423 1
gene  1 4 20 -0.25183343893478205 0 1386.0 -0.25183343893478205 1
gene  2 4 21 2.773195104312867 0 1387.0 2.773195104312867 1
gene  2 4 22 0.3796330703908876 0 1388.0 0.3796330703908876 1
gene  1 4 23 1.4664388836452864 0 1389.0 1.4664388836452864 1
gene  2 5 18 4.075469542530093 0 1546.0 4.075469542530093 1
gene  1 28 19 -7.181341523399334 0 1646.0 -7.181341523399334 1
gene  2 12 28 0.17534421448926968 0 1670.0 0.17534421448926968 1
gene  1 10 228 -1.6809972056993894 0 1851.0 -1.6809972056993894 1
gene  1 228 22 -2.136103268041618 0 1852.0 -2.136103268041618 1
gene  2 4 149 -3.999393360819589 0 1919.0 -3.999393360819589 1
gene  1 10 28 8.749720224435935 0 2091.0 8.749720224435935 1
genomeend 13
genomestart  14
trait 1 0.1 0.1571516358336006 0.48866108960795795 0.0 0.0 0.0 1.269647348760695 0.8443758357079344 
trait 2 0.7811431995087211 1.8175699101883427 0.0 0.33259215230478767 0.5011532106972969 1.0863303387721626 0.8563563094686308 1.190385861979643 
node 1 1 1 1
node 2 1 1 1
node 3 1 1 1
node 4 1 1 1
node 5 1 1 1
node 6 1 1 1
node 7 1 1 1
node 8 1 1 1
node 9 1 1 1
node 10 1 1 1
node 11 1 1 1
node 12 1 1 1
node 13 1 1 1
node 14 2 1 1
node 15 1 1 1
node 16 1 1 1
node 17 1 1 3
node 18 1 0 2
node 19 1 0 2
node 20 1 0 2
node 21 1 0 2
node 22 1 0 2
node 23 1 0 2
node 24 1 0 0
node 28 1 0 0
node 33 1 0 0
node 149 1 0 0
node 228 1 0 0
gene  1 17 18 -5.5055669501151225 0 1.0 -5.5055669501151225 1
gene  1 17 19 12.084864998831803 0 1.0 12.084864998831803 1
gene  1 17 20 -0.1515674968559083 0 1.0 -0.1515674968559083 1
gene  2 17 21 -2.492892592409029 0 1.0 -2.492892592409029 1
gene  1 17 22 0.0819378058602227 0 1.0 0.0819378058602227 1
gene  2 17 23 -0.20862966456418608 0 1.0 -0.20862966456418608 1
gene  2 9 18 -6.559509664881227 0 3.0 -6.559509664881227 1
gene  1 9 19 0.6403550894839269 0 4.0 0.6403550894839269 1
gene  1 9 20 -2.7179543633830154 0 5.0 -2.7179543633830154 1
gene  2 9 21 16.003214769589455 0 6.0 16.003214769589455 1
gene  1 9 22 -0.09027372075173945 0 7.0 -0.09027372075173945 1
gene  1 9 23 -0.11931675577025375 0 8.0 -0.11931675577025375 1
gene  2 9 24 -9.519412331715744 0 21.0 -9.519412331715744 1
gene  2 24 18 -1.256303505837201 0 22.0 -1.256303505837201 1
gene  2 15 22 1.3369139760180928 0 35.0 1.3369139760180928 1
gene  2 9 28 -0.18541932176245796 0 56.0 -0.18541932176245796 1
gene  2 28 24 -3.9286989112398665 0 57.0 -3.9286989112398665 1
gene  1 9 33 2.8773944341527793 0 120.0 2.8773944341527793 1
gene  2 33 28 -5.676156479845662 0 121.0 -5.676156479845662 1
gene  1 10 18 8.498489019258916 0 142.0 8.498489019258916 1
gene  2 10 19 1.6157985132363861 0 143.0 1.6157985132363861 1
gene  1 10 20 7.708043351622581 0 144.0 7.708043351622581 1
gene  2 10 21 -3.924056697297336 0 145.0 -3.924056697297336 1
gene  1 10 22 -2.9159078369186133 0 146.0 -2.9159078369186133 0
gene  1 10 23 -0.4439274978639976 0 147.0 -0.4439274978639976 1
gene  1 8 18 1.2051937840217946 0 1012.0 1.2051937840217946 1
gene  2 8 19 0.09480333557949328 0 1013.0 0.09480333557949328 1
gene  1 8 20 -2.3950954880226467 0 1014.0 -2.3950954880226467 1
gene  1 8 21 -0.8046289798988846 0 1015.0 -0.8046289798988846 1
gene  2 8 22 2.2069598918576734 0 1016.0 2.2069598918576734 1
gene  2 8 23 1.2306543564620231 0 1017.0 1.2306543564620231 1
gene  2 9 149 -3.4879635336560826 0 1050.0 -3.4879635336560826 1
gene  2 149 24 0.27737992410354173 0 1051.0 0.27737992410354173 1
gene  1 22 24 -0.597247051335621 0 1112.0 -0.597247051335621 1
gene  1 20 149 -3.2596117593708147 0 1332.0 -3.2596117593708147 1
gene  2 4 18 0.7711735368993908 0 1384.0 0.7711735368993908 1
gene  1 4 19 1.320941115460742 0 1385.0 1.320941115460742 1
gene  1 4 20 2.0075364554484256 0 1386.0 2.0075364554484256 1
gene  2 4 21 4.045576193375139 0 1387.0 4.045576193375139 1
gene  2 4 22 2.278922570558438 0 1388.0 2.278922570558438 1
gene  1 4 23 3.0660996821114797 0 1389.0 3.0660996821114797 1
gene  2 5 18 5.470778356050395 0 1546.0 5.470778356050395 1
gene  1 28 19 -8.20941756454583 0 1646.0 -8.20941756454583 1
gene  2 12 28 2.2247337979462953 0 1670.0 2.2247337979462953 1
gene  1 10 228 -2.320977787631879 0 1851.0 -2.320977787631879 1
gene  1 228 22 -1.5630458730093875 0 1852.0 -1.5630458730093875 1
gene  2 4 149 -2.078290768495382 0 1919.0 -2.078290768495382 1
gene  1 10 28 10.55514388659051 0 2091.0 10.55514388659051 1
genomeend 14
genomestart  15
trait 1 0.5724848303049482 0.12945301820427202 0.1910646637643092 0.13066639176434802 0.8642080743348599 0.0 0.0 0.0 
trait 2 0.08971723266397824 0.6395653268181517 0.2304642481089879 0.6485100088982535 0.0 0.0 1.1300160679599753 0.0 
node 1 1 1 1
node 2 1 1 1
node 3 1 1 1
node 4 1 1 1
node 5 1 1 1
node 6 1 1 1
node 7 1 1 1
node 8 1 1 1
node 9 1 1 1
node 10 1 1 1
node 11 1 1 1
node 12 1 1 1
node 13 1 1 1
node 14 1 1 1
node 15 1 1 1
node 16 1 1 1
node 17 1 1 3
node 18 1 0 2
node 19 1 0 2
node 20 1 0 2
node 21 1 0 2
node 22 1 0 2
node 23 1 0 2
node 24 1 0 0
node 28 1 0 0
node 80 1 0 0
node 171 2 0 0
node 212 1 0 0
node 271 1 0 0
gene  1 17 18 -7.793613312075263 0 1.0 -7.793613312075263 1
gene  1 17 19 4.173358960660286 0 1.0 4.173358960660286 1
gene  1 17 20 -1.8994746225469747 0 1.0 -1.8994746225469747 1
gene  1 17 21 -0.32402472854847464 0 1.0 -0.32402472854847464 1
gene  1 17 22 -3.3521011233997147 0 1.0 -3.3521011233997147 1
gene  1 17 23 -0.44302757478030963 0 1.0 -0.44302757478030963 1
gene  2 9 18 -0.34898136026056203 0 3.0 -0.34898136026056203 1
gene  1 9 19 -2.277753454212529 0 4.0 -2.277753454212529 1
gene  1 9 20 -2.912859818470341 0 5.0 -2.912859818470341 1
gene  2 9 21 -2.574201764708309 0 6.0 -2.574201764708309 1
gene  1 9 22 -1.040507029183997 0 7.0 -1.040507029183997 1
gene  1 9 23 -0.1225891494201693 0 8.0 -0.1225891494201693 1
gene  2 9 24 -0.3651543659969172 0 21.0 -0.3651543659969172 1
gene  2 24 18 -1.5266488758472234 0 22.0 -1.5266488758472234 1
gene  2 15 22 -0.5365752059629507 0 35.0 -0.5365752059629507 1
gene  2 9 28 -5.541282757860884 0 56.0 -5.541282757860884 1
gene  2 28 24 -4.818804466600895 0 57.0 -4.818804466600895 1
gene  1 1 21 -4.625949685028704 0 304.0 -4.625949685028704 1
gene  1 4 22 4.622735599483889 0 335.0 4.622735599483889 1
gene  1 17 28 2.4922339868267933 0 352.0 2.4922339868267933 1
gene  1 9 80 -1.5316669807631054 0 515.0 -1.5316669807631054 1
gene  1 80 22 -4.638078491494928 0 516.0 -4.638078491494928 1
gene  1 7 18 -0.07940645830224513 0 539.0 -0.07940645830224513 1
gene  1 7 19 -0.74877235816038 0 540.0 -0.74877235816038 1
gene  1 7 20 4.8263558583264805 0 541.0 4.8263558583264805 1
gene  1 7 21 4.909425749131659 0 542.0 4.909425749131659 1
gene  1 7 22 -1.095226029753102 0 543.0 -1.095226029753102 1
gene  2 7 23 0.555193376457499 0 544.0 0.555193376457499 1
gene  1 3 28 -0.07307439795437992 0 602.0 -0.07307439795437992 1
gene  1 2 18 1.03384531506702 0 656.0 1.03384531506702 1
gene  2 2 19 -1.5596288084120697 0 657.0 -1.5596288084120697 1
gene  1 2 20 -1.1526266713494777 0 658.0 -1.1526266713494777 1
gene  2 2 21 1.8576942346074259 0 659.0 1.8576942346074259 1
gene  1 2 22 1.7280506781435538 0 660.0 1.7280506781435538 1
gene  2 2 23 -6.143407874003534 0 661.0 -6.143407874003534 1
gene  2 80 19 0.10154292361482287 0 831.0 0.10154292361482287 1
gene  1 23 22 1.6748496891455287 0 1073.0 1.6748496891455287 1
gene  1 3 18 0.37648697060456593 0 1089.0 0.37648697060456593 1
gene  1 3 19 -4.4985726174423215 0 1090.0 -4.4985726174423215 1
gene  2 3 20 3.366581407262962 0 1091.0 3.366581407262962 0
gene  1 3 21 0.36851831307665406 0 1092.0 0.36851831307665406 1
gene  2 3 22 0.3106521074140477 0 1093.0 0.3106521074140477 1
gene  2 3 23 -2.2883302936153167 0 1094.0 -2.2883302936153167 1
gene  1 13 18 -3.116292521100941 0 1158.0 -3.116292521100941 1
gene  1 9 171 5.754946601295963 0 1272.0 5.754946601295963 1
gene  1 171 20 1.4738178033672171 0 1273.0 1.4738178033672171 1
gene  2 11 23 4.420741106153422 0 1341.0 4.420741106153422 1
gene  1 18 23 0.520678596933916 0 1376.0 0.520678596933916 1
gene  2 19 24 -4.986189424452492 0 1400.0 -4.986189424452492 0
gene  1 10 28 -0.921340366006876 0 1422.0 -0.921340366006876 1
gene  2 15 28 -4.223743844116005 0 1530.0 -4.223743844116005 1
gene  1 1 18 -3.9864402624689146 0 1582.0 -3.9864402624689146 1
gene  2 1 19 1.7788798857721617 0 1583.0 1.7788798857721617 1
gene  2 1 20 2.424980101739388 0 1584.0 2.424980101739388 1
gene  2 1 22 0.0926344456024526 0 1585.0 0.0926344456024526 1
gene  2 1 23 -1.3455726665031125 0 1586.0 -1.3455726665031125 1
gene  2 3 212 0.14551644762161892 0 1654.0 0.14551644762161892 1
gene  2 212 20 -0.053674994222568106 0 1655.0 -0.053674994222568106 1
gene  1 11 22 -0.31096562761695895 0 1897.0 -0.31096562761695895 1
gene  2 21 80 -4.154639189757668 0 1930.0 -4.154639189757668 1
gene  2 10 23 7.441554271426274 0 2048.0 7.441554271426274 1
gene  2 19 271 1.7787172905905533 0 2169.0 1.7787172905905533 1
gene  2 271 24 -5.8783923670084555 0 2170.0 -5.8783923670084555 1
genomeend 15
genomestart  16
trait 1 0.1 0.0 0.0 0.0 1.5348153654946382 0.9914333334925148 0.11088509027828353 0.42778037113159706 
trait 2 0.08971723266397824 0.6395653268181517 0.2304642481089879 0.8970787011831967 0.0 0.0 0.13798754022312143 0.7009645148820621 
node 1 1 1 1
node 2 1 1 1
node 3 1 1 1
node 4 1 1 1
node 5 1 1 1
node 6 1 1 1
node 7 1 1 1
node 8 1 1 1
node 9 1 1 1
node 10 1 1 1
node 11 1 1 1
node 12 1 1 1
node 13 1 1 1
node 14 1 1 1
node 15 1 1 1
node 16 1 1 1
node 17 1 1 3
node 18 1 0 2
node 19 1 0 2
node 20 1 0 2
node 21 1 0 2
node 22 1 0 2
node 23 1 0 2
node 24 1 0 0
node 28 1 0 0
node 80 1 0 0
node 171 1 0 0
node 215 1 0 0
gene  1 17 18 -3.148450894775311 0 1.0 -3.148450894775311 1
gene  1 17 19 0.47196906111228554 0 1.0 0.47196906111228554 1
gene  1 17 20 -16.168534813427843 0 1.0 -16.168534813427843 1
gene  1 17 21 -6.2351843263314075 0 1.0 -6.2351843263314075 1
gene  1 17 22 -6.388946822074193 0 1.0 -6.388946822074193 1
gene  1 17 23 3.402996910240078 0 1.0 3.402996910240078 1
gene  2 9 18 -4.858414170412544 0 3.0 -4.858414170412544 1
gene  1 9 19 -0.5923565155971582 0 4.0 -0.5923565155971582 1
gene  1 9 20 0.40588550555187464 0 5.0 0.40588550555187464 1
gene  2 9 21 2.0673143740403033 0 6.0 2.0673143740403033 1
gene  1 9 22 -4.422007300140402 0 7.0 -4.422007300140402 1
gene  1 9 23 -0.759989789837846 0 8.0 -0.759989789837846 1
gene  2 9 24 7.792200228178411 0 21.0 7.792200228178411 1
gene  2 24 18 -14.226807215499381 0 22.0 -14.226807215499381 1
gene  2 15 22 -5.253940323299661 0 35.0 -5.253940323299661 1
gene  2 9 28 9.006764929972366 0 56.0 9.006764929972366 1
gene  2 28 24 -5.699468186088745 0 57.0 -5.699468186088745 1
gene  1 1 21 10.373701242713157 0 304.0 10.373701242713157 1
gene  1 4 22 -16.31564585410224 0 335.0 -16.31564585410224 1
gene  1 17 28 13.856045162739143 0 352.0 13.856045162739143 1
gene  1 9 80 -3.4900082662736787 0 515.0 -3.4900082662736787 1
gene  1 80 22 7.924280782264377 0 516.0 7.924280782264377 1
gene  1 7 18 -6.663619623942948 0 539.0 -6.663619623942948 1
gene  1 7 19 -0.9141385585699411 0 540.0 -0.9141385585699411 1
gene  1 7 20 -4.247784152638503 0 541.0 -4.247784152638503 1
gene  1 7 21 6.669474404697916 0 542.0 6.669474404697916 1
gene  1 7 22 -10.89621090315234 0 543.0 -10.89621090315234 1
gene  2 7 23 7.169376056661295 0 544.0 7.169376056661295 1
gene  1 3 28 -2.3780982466334453 0 602.0 -2.3780982466334453 1
gene  1 2 18 1.8785711904869715 0 656.0 1.8785711904869715 1
gene  2 2 19 7.913292766456224 0 657.0 7.913292766456224 1
gene  1 2 20 -1.25082622909779 0 658.0 -1.25082622909779 0
gene  2 2 21 -0.22650833862137265 0 659.0 -0.22650833862137265 1
gene  1 2 22 5.107749411825353 0 660.0 5.107749411825353 1
gene  2 2 23 -7.295009792837164 0 661.0 -7.295009792837164 1
gene  2 80 19 -4.345867410021391 0 831.0 -4.345867410021391 1
gene  1 23 22 5.534644127693616 0 1073.0 5.534644127693616 1
gene  1 3 18 3.164875045429868 0 1089.0 3.164875045429868 1
gene  1 3 19 -1.5364085552070934 0 1090.0 -1.5364085552070934 1
gene  2 3 20 4.91773766593336 0 1091.0 4.91773766593336 1
gene  1 3 21 14.854050836888423 0 1092.0 14.854050836888423 1
gene  2 3 22 -16.13813342506972 0 1093.0 -16.13813342506972 1
gene  2 3 23 -0.8371814596211689 0 1094.0 -0.8371814596211689 1
gene  1 13 18 -6.611864406559366 0 1158.0 -6.611864406559366 1
gene  1 9 171 9.785749231674288 0 1272.0 9.785749231674288 1
gene  1 171 20 -3.3687035874217113 0 1273.0 -3.3687035874217113 1
gene  2 11 23 -2.6670677035826302 0 1341.0 -2.6670677035826302 1
gene  1 18 23 4.534820636236779 0 1376.0 4.534820636236779 1
gene  2 19 24 1.8704278303829045 0 1400.0 1.8704278303829045 1
gene  1 10 28 -2.428487021905709 0 1422.0 -2.428487021905709 1
gene  2 1 24 -0.3805838562656658 0 1529.0 -0.3805838562656658 1
gene  2 10 18 1.1246195749066006 0 1626.0 1.1246195749066006 1
gene  1 10 19 3.8491457597532834 0 1627.0 3.8491457597532834 1
gene  1 10 20 1.534991144054884 0 1628.0 1.534991144054884 1
gene  1 10 21 4.668189507838509 0 1629.0 4.668189507838509 1
gene  1 10 22 -1.499132527399275 0 1630.0 -1.499132527399275 1
gene  1 10 23 4.026720427892504 0 1631.0 4.026720427892504 1
gene  1 2 215 -3.056504115525284 0 1702.0 -3.056504115525284 1
gene  1 215 20 3.9382352474773987 0 1703.0 3.9382352474773987 1
gene  1 171 80 -0.04474656986063863 0 1934.0 -0.04474656986063863 1
gene  2 215 21 -3.4578251969529488 0 2052.0 -3.4578251969529488 1
genomeend 16
genomestart  17
trait 1 0.1 0.0 0.0 0.0 1.5348153654946382 0.9914333334925148 0.11088509027828353 0.42778037113159706 
trait 2 0.08971723266397824 0.6395653268181517 0.2304642481089879 0.8970787011831967 0.0 0.0 0.13798754022312143 0.7009645148820621 
node 1 1 1 1
node 2 1 1 1
node 3 1 1 1
node 4 1 1 1
node 5 1 1 1
node 6 1 1 1
node 7 1 1 1
node 8 1 1 1
node 9 1 1 1
node 10 1 1 1
node 11 1 1 1
node 12 1 1 1
node 13 1 1 1
node 14 1 1 1
node 15 1 1 1
node 16 1 1 1
node 17 1 1 3
node 18 1 0 2
node 19 1 0 2
node 20 1 0 2
node 21 1 0 2
node 22 1 0 2
node 23 1 0 2
node 24 1 0 0
node 28 1 0 0
node 80 1 0 0
node 171 1 0 0
node 215 1 0 0
gene  1 17 18 -5.238600618747562 0 1.0 -5.238600618747562 1
gene  1 17 19 2.86669960394288 0 1.0 2.86669960394288 1
gene  1 17 20 -15.635251812106631 0 1.0 -15.635251812106631 1
gene  1 17 21 -4.060393496051496 0 1.0 -4.060393496051496 1
gene  1 17 22 -3.1681075573726036 0 1.0 -3.1681075573726036 1
gene  1 17 23 4.454055514950523 0 1.0 4.454055514950523 1
gene  2 9 18 -7.309234506064371 0 3.0 -7.309234506064371 1
gene  1 9 19 -0.4064272267206466 0 4.0 -0.4064272267206466 1
gene  1 9 20 3.1611976344669803 0 5.0 3.1611976344669803 1
gene  2 9 21 3.249307230001467 0 6.0 3.249307230001467 1
gene  1 9 22 -5.202552868210957 0 7.0 -5.202552868210957 1
gene  1 9 23 -2.431151805007408 0 8.0 -2.431151805007408 1
gene  2 9 24 6.782527409567573 0 21.0 6.782527409567573 1
gene  2 24 18 -15.663009936735321 0 22.0 -15.663009936735321 1
gene  2 15 22 -7.7435909326665815 0 35.0 -7.7435909326665815 1
gene  2 9 28 6.921414708654773 0 56.0 6.921414708654773 1
gene  2 28 24 -4.3458052188373255 0 57.0 -4.3458052188373255 1
gene  1 1 21 13.056355992740842 0 304.0 13.056355992740842 1
gene  1 4 22 -11.125762399828751 0 335.0 -11.125762399828751 1
gene  1 17 28 8.78079341910985 0 352.0 8.78079341910985 1
gene  1 9 80 -5.063015317383334 0 515.0 -5.063015317383334 1
gene  1 80 22 13.450669902414223 0 516.0 13.450669902414223 1
gene  1 7 18 -7.681713843443312 0 539.0 -7.681713843443312 1
gene  1 7 19 -0.24896509572698555 0 540.0 -0.24896509572698555 1
gene  1 7 20 -2.7647077277541188 0 541.0 -2.7647077277541188 1
gene  1 7 21 1.252044769806921 0 542.0 1.252044769806921 1
gene  1 7 22 -12.64662975084952 0 543.0 -12.64662975084952 1
gene  2 7 23 6.152084837170458 0 544.0 6.152084837170458 1
gene  1 3 28 -4.473061176006556 0 602.0 -4.473061176006556 1
gene  1 2 18 3.873344704813844 0 656.0 3.873344704813844 1
gene  2 2 19 3.501098262455833 0 657.0 3.501098262455833 1
gene  1 2 20 -1.3492258008530285 0 658.0 -1.3492258008530285 0
gene  2 2 21 1.354367995038661 0 659.0 1.354367995038661 1
gene  1 2 22 3.12429044436983 0 660.0 3.12429044436983 1
gene  2 2 23 -0.9924027973785541 0 661.0 -0.9924027973785541 1
gene  2 80 19 1.6961730663488936 0 831.0 1.6961730663488936 1
gene  1 23 22 2.632915940848654 0 1073.0 2.632915940848654 1
gene  1 3 18 5.6749254802343465 0 1089.0 5.6749254802343465 1
gene  1 3 19 0.5601988953015457 0 1090.0 0.5601988953015457 1
gene  2 3 20 1.6166032773230175 0 1091.0 1.6166032773230175 1
gene  1 3 21 11.11315754276507 0 1092.0 11.11315754276507 1
gene  2 3 22 -12.125412387313204 0 1093.0 -12.125412387313204 1
gene  2 3 23 -3.1137611971938153 0 1094.0 -3.1137611971938153 1
gene  1 13 18 -3.412859574329501 0 1158.0 -3.412859574329501 1
gene  1 9 171 10.06859497779692 0 1272.0 10.06859497779692 1
gene  1 171 20 -4.773333614041007 0 1273.0 -4.773333614041007 1
gene  2 11 23 -4.889014289078492 0 1341.0 -4.889014289078492 1
gene  1 18 23 9.963443912146532 0 1376.0 9.963443912146532 1
gene  2 19 24 -0.8775892717847538 0 1400.0 -0.8775892717847538 1
gene  1 10 28 -1.3032837094688012 0 1422.0 -1.3032837094688012 1
gene  2 1 24 2.9825165748445714 0 1529.0 2.9825165748445714 1
gene  2 10 18 3.3923881856785645 0 1626.0 3.3923881856785645 1
gene  1 10 19 3.8491457597532834 0 1627.0 3.8491457597532834 1
gene  1 10 20 -1.2723723005444119 0 1628.0 -1.2723723005444119 1
gene  1 10 21 2.2481823068343156 0 1629.0 2.2481823068343156 1
gene  1 10 22 -1.3117852860346566 0 1630.0 -1.3117852860346566 1
gene  1 10 23 0.9091774870538996 0 1631.0 0.9091774870538996 1
gene  1 2 215 -2.550729211415992 0 1702.0 -2.550729211415992 1
gene  1 215 20 1.7892264609195832 0 1703.0 1.7892264609195832 1
gene  1 171 80 -0.3058530740577985 0 1934.0 -0.3058530740577985 1
gene  2 215 21 2.188936615209754 0 2052.0 2.188936615209754 1
genomeend 17
genomestart  18
trait 1 0.1 0.0 0.0 0.0 1.5348153654946382 0.9914333334925148 0.11088509027828353 0.42778037113159706 
trait 2 0.08971723266397824 1.3608943327447571 0.5223805762117402 0.8970787011831967 0.0 0.615118949474977 0.13798754022312143 0.10412555376139954 
node 1 1 1 1
node 2 1 1 1
node 3 1 1 1
node 4 1 1 1
node 5 1 1 1
node 6 1 1 1
node 7 1 1 1
node 8 1 1 1
node 9 1 1 1
node 10 1 1 1
node 11 1 1 1
node 12 1 1 1
node 13 1 1 1
node 14 1 1 1
node 15 1 1 1
node 16 1 1 1
node 17 1 1 3
node 18 1 0 2
node 19 1 0 2
node 20 1 0 2
node 21 1 0 2
node 22 1 0 2
node 23 1 0 2
node 24 1 0 0
node 28 1 0 0
node 80 1 0 0
node 171 1 0 0
node 215 1 0 0
gene  1 17 18 -1.145421430363017 0 1.0 -1.145421430363017 1
gene  1 17 19 0.6043440434293608 0 1.0 0.6043440434293608 1
gene  1 17 20 -18.453321635669585 0 1.0 -18.453321635669585 1
gene  1 17 21 -7.495825371708853 0 1.0 -7.495825371708853 1
gene  1 17 22 -3.2632135331574905 0 1.0 -3.2632135331574905 1
gene  1 17 23 1.0497056157110167 0 1.0 1.0497056157110167 1
gene  2 9 18 -7.693909899264129 0 3.0 -7.693909899264129 1
gene  1 9 19 0.7180751896130402 0 4.0 0.7180751896130402 1
gene  1 9 20 1.7785702034025093 0 5.0 1.7785702034025093 1
gene  2 9 21 1.2729042460714628 0 6.0 1.2729042460714628 1
gene  1 9 22 -3.6117272541708694 0 7.0 -3.6117272541708694 1
gene  1 9 23 0.35567681289823305 0 8.0 0.35567681289823305 1
gene  2 9 24 7.187475491477333 0 21.0 7.187475491477333 1
gene  2 24 18 -13.120250859839341 0 22.0 -13.120250859839341 1
gene  2 15 22 -6.230443701207818 0 35.0 -6.230443701207818 1
gene  2 9 28 9.194053052611816 0 56.0 9.194053052611816 1
gene  2 28 24 -7.3254583391090335 0 57.0 -7.3254583391090335 1
gene  1 1 21 11.089045631575374 0 304.0 11.089045631575374 1
gene  1 4 22 -16.77146223142725 0 335.0 -16.77146223142725 1
gene  1 17 28 12.420020605603808 0 352.0 12.420020605603808 1
gene  1 9 80 -3.159641728933749 0 515.0 -3.159641728933749 1
gene  1 80 22 12.36554359746304 0 516.0 12.36554359746304 1
gene  1 7 18 -6.995018179786975 0 539.0 -6.995018179786975 1
gene  1 7 19 -2.7342151034446536 0 540.0 -2.7342151034446536 1
gene  1 7 20 -1.1313890714629902 0 541.0 -1.1313890714629902 1
gene  1 7 21 4.836833103246509 0 542.0 4.836833103246509 1
gene  1 7 22 -11.3559375489594 0 543.0 -11.3559375489594 1
gene  2 7 23 4.997225684577262 0 544.0 4.997225684577262 1
gene  1 3 28 -2.9085873650188576 0 602.0 -2.9085873650188576 1
gene  1 2 18 1.933255018821572 0 656.0 1.933255018821572 1
gene  2 2 19 7.277395975678706 0 657.0 7.277395975678706 1
gene  1 2 20 -3.766245655117034 0 658.0 -3.766245655117034 0
gene  2 2 21 0.8421293102078037 0 659.0 0.8421293102078037 1
gene  1 2 22 5.277423729363924 0 660.0 5.277423729363924 1
gene  2 2 23 -6.726318053372724 0 661.0 -6.726318053372724 1
gene  2 80 19 -0.27553947268246914 0 831.0 -0.27553947268246914 1
gene  1 23 22 5.112225810209864 0 1073.0 5.112225810209864 1
gene  1 3 18 1.4057139909495877 0 1089.0 1.4057139909495877 1
gene  1 3 19 -2.9418863940831335 0 1090.0 -2.9418863940831335 1
gene  2 3 20 4.031818174197566 0 1091.0 4.031818174197566 1
gene  1 3 21 14.101613014904729 0 1092.0 14.101613014904729 1
gene  2 3 22 -13.5377560537917 0 1093.0 -13.5377560537917 1
gene  2 3 23 -4.31153540359856 0 1094.0 -4.31153540359856 1
gene  1 13 18 -5.112082911353937 0 1158.0 -5.112082911353937 1
gene  1 9 171 11.832320543154127 0 1272.0 11.832320543154127 1
gene  1 171 20 -3.5336939333282524 0 1273.0 -3.5336939333282524 1
gene  2 11 23 -1.9208571726953498 0 1341.0 -1.9208571726953498 1
gene  1 18 23 7.278606920987153 0 1376.0 7.278606920987153 1
gene  2 19 24 0.41998945931867304 0 1400.0 0.41998945931867304 1
gene  1 10 28 -0.10740291774846966 0 1422.0 -0.10740291774846966 1
gene  2 1 24 -1.3069667942151004 0 1529.0 -1.3069667942151004 1
gene  2 10 18 -1.2300001655177346 0 1626.0 -1.2300001655177346 1
gene  1 10 19 3.8491457597532834 0 1627.0 3.8491457597532834 1
gene  1 10 20 0.8927081104367518 0 1628.0 0.8927081104367518 1
gene  1 10 21 3.0983301245753307 0 1629.0 3.0983301245753307 1
gene  1 10 22 -1.9556526155203116 0 1630.0 -1.9556526155203116 1
gene  1 10 23 4.011331407749898 0 1631.0 4.011331407749898 1
gene  1 2 215 -3.1241501521756208 0 1702.0 -3.1241501521756208 1
gene  1 215 20 -1.6110871877098716 0 1703.0 -1.6110871877098716 1
gene  1 171 80 0.8037396555764189 0 1934.0 0.8037396555764189 1
gene  2 215 21 -3.5913186057261512 0 2052.0 -3.5913186057261512 1
genomeend 18
genomestart  19
trait 1 0.1 0.0 0.0 0.0 1.5348153654946382 0.9914333334925148 0.11088509027828353 0.42778037113159706 
trait 2 0.08971723266397824 0.6395653268181517 0.2304642481089879 0.8970787011831967 0.0 0.0 0.13798754022312143 0.7009645148820621 
node 1 1 1 1
node 2 1 1 1
node 3 1 1 1
node 4 1 1 1
node 5 1 1 1
node 6 1 1 1
node 7 1 1 1
node 8 1 1 1
node 9 1 1 1
node 10 1 1 1
node 11 1 1 1
node 12 1 1 1
node 13 1 1 1
node 14 1 1 1
node 15 1 1 1
node 16 1 1 1
node 17 1 1 3
node 18 1 0 2
node 19 1 0 2
node 20 1 0 2
node 21 1 0 2
node 22 1 0 2
node 23 1 0 2
node 24 1 0 0
node 28 1 0 0
node 80 1 0 0
node 171 1 0 0
node 215 1 0 0
gene  1 17 18 0.38048952053617413 0 1.0 0.38048952053617413 1
gene  1 17 19 2.1371802850300003 0 1.0 2.1371802850300003 1
gene  1 17 20 -17.980344707623622 0 1.0 -17.980344707623622 1
gene  1 17 21 -4.263239262226322 0 1.0 -4.263239262226322 1
gene  1 17 22 -1.9630407584369287 0 1.0 -1.9630407584369287 1
gene  1 17 23 0.16208609100406246 0 1.0 0.16208609100406246 1
gene  2 9 18 -8.556716957912634 0 3.0 -8.556716957912634 1
gene  1 9 19 -1.38327233734298 0 4.0 -1.38327233734298 1
gene  1 9 20 1.3730501028580555 0 5.0 1.3730501028580555 1
gene  2 9 21 2.8041185909873323 0 6.0 2.8041185909873323 1
gene  1 9 22 -4.445544254419962 0 7.0 -4.445544254419962 1
gene  1 9 23 2.4812222334449276 0 8.0 2.4812222334449276 1
gene  2 9 24 1.1601459989432181 0 21.0 1.1601459989432181 1
gene  2 24 18 -16.023638062485535 0 22.0 -16.023638062485535 1
gene  2 15 22 -7.110142531782464 0 35.0 -7.110142531782464 1
gene  2 9 28 8.239606353995322 0 56.0 8.239606353995322 1
gene  2 28 24 -2.390611975797199 0 57.0 -2.390611975797199 1
gene  1 1 21 8.523535464525322 0 304.0 8.523535464525322 1
gene  1 4 22 -12.097870606052119 0 335.0 -12.097870606052119 1
gene  1 17 28 1.381311993182531 0 352.0 1.381311993182531 1
gene  1 9 80 -3.7742819681149666 0 515.0 -3.7742819681149666 1
gene  1 80 22 13.615111009651304 0 516.0 13.615111009651304 1
gene  1 7 18 -10.684436102960419 0 539.0 -10.684436102960419 1
gene  1 7 19 -2.058886232182366 0 540.0 -2.058886232182366 1
gene  1 7 20 -3.381430708178404 0 541.0 -3.381430708178404 1
gene  1 7 21 3.6187124230575476 0 542.0 3.6187124230575476 1
gene  1 7 22 -11.00860964392694 0 543.0 -11.00860964392694 1
gene  2 7 23 0.5777009842692984 0 544.0 0.5777009842692984 1
gene  1 3 28 1.7893083811597026 0 602.0 1.7893083811597026 1
gene  1 2 18 2.5403235544964047 0 656.0 2.5403235544964047 1
gene  2 2 19 2.272295256921499 0 657.0 2.272295256921499 1
gene  1 2 20 1.7978134506633028 0 658.0 1.7978134506633028 0
gene  2 2 21 -0.8070356200813622 0 659.0 -0.8070356200813622 1
gene  1 2 22 1.4336851375643462 0 660.0 1.4336851375643462 1
gene  2 2 23 -3.292854101393852 0 661.0 -3.292854101393852 1
gene  2 80 19 -1.4526602892861538 0 831.0 -1.4526602892861538 1
gene  1 23 22 2.849983460442761 0 1073.0 2.849983460442761 1
gene  1 3 18 4.710339837411167 0 1089.0 4.710339837411167 1
gene  1 3 19 -2.0441168791765296 0 1090.0 -2.0441168791765296 1
gene  2 3 20 2.9234902074053024 0 1091.0 2.9234902074053024 1
gene  1 3 21 13.479578337338124 0 1092.0 13.479578337338124 1
gene  2 3 22 -13.145938186799295 0 1093.0 -13.145938186799295 1
gene  2 3 23 -3.3942160703650814 0 1094.0 -3.3942160703650814 1
gene  1 13 18 -4.853149014520657 0 1158.0 -4.853149014520657 1
gene  1 9 171 6.755105000817201 0 1272.0 6.755105000817201 1
gene  1 171 20 -1.7385085663952102 0 1273.0 -1.7385085663952102 1
gene  2 11 23 -2.3434237309429258 0 1341.0 -2.3434237309429258 1
gene  1 18 23 8.592635804537887 0 1376.0 8.592635804537887 1
gene  2 19 24 2.309026000047908 0 1400.0 2.309026000047908 1
gene  1 10 28 -3.405560328233576 0 1422.0 -3.405560328233576 1
gene  2 1 24 3.467531866710119 0 1529.0 3.467531866710119 1
gene  2 10 18 0.026718666145959524 0 1626.0 0.026718666145959524 1
gene  1 10 19 2.343480533091142 0 1627.0 2.343480533091142 1
gene  1 10 20 1.978792383312249 0 1628.0 1.978792383312249 1
gene  1 10 21 3.323030064392945 0 1629.0 3.323030064392945 1
gene  1 10 22 -1.617434574158885 0 1630.0 -1.617434574158885 1
gene  1 10 23 1.730282575884396 0 1631.0 1.730282575884396 1
gene  1 2 215 -2.4046937275456615 0 1702.0 -2.4046937275456615 1
gene  1 215 20 0.8781762499924932 0 1703.0 0.8781762499924932 1
gene  1 171 80 -1.1662379490438886 0 1934.0 -1.1662379490438886 1
gene  2 215 21 -3.160748425252983 0 2052.0 -3.160748425252983 1
genomeend 19
genomestart  20
trait 1 0.1 0.0 0.0 0.0 1.5348153654946382 0.9914333334925148 0.11088509027828353 0.42778037113159706 
trait 2 0.08971723266397824 0.6395653268181517 0.2304642481089879 0.8970787011831967 0.0 0.0 0.13798754022312143 0.7009645148820621 
node 1 1 1 1
node 2 1 1 1
node 3 1 1 1
node 4 1 1 1
node 5 1 1 1
node 6 1 1 1
node 7 1 1 1
node 8 1 1 1
node 9 1 1 1
node 10 1 1 1
node 11 1 1 1
node 12 1 1 1
node 13 1 1 1
node 14 1 1 1
node 15 1 1 1
node 16 1 1 1
node 17 1 1 3
node 18 1 0 2
node 19 1 0 2
node 20 1 0 2
node 21 1 0 2
node 22 1 0 2
node 23 1 0 2
node 24 1 0 0
node 28 1 0 0
node 80 1 0 0
node 171 1 0 0
node 215 1 0 0
gene  1 17 18 -1.8812532251519358 0 1.0 -1.8812532251519358 1
gene  1 17 19 0.9530702515783651 0 1.0 0.9530702515783651 1
gene  1 17 20 -16.872519612117305 0 1.0 -16.872519612117305 1
gene  1 17 21 -5.388043864287939 0 1.0 -5.388043864287939 1
gene  1 17 22 -0.9484946087374815 0 1.0 -0.9484946087374815 1
gene  1 17 23 -0.07855318500869668 0 1.0 -0.07855318500869668 1
gene  2 9 18 -8.109515898812424 0 3.0 -8.109515898812424 1
gene  1 9 19 -3.5738412976575398 0 4.0 -3.5738412976575398 1
gene  1 9 20 3.9892670911090833 0 5.0 3.9892670911090833 1
gene  2 9 21 5.277943160299953 0 6.0 5.277943160299953 1
gene  1 9 22 -3.6688306557372994 0 7.0 -3.6688306557372994 1
gene  1 9 23 -2.9391242992362887 0 8.0 -2.9391242992362887 1
gene  2 9 24 9.986108596796853 0 21.0 9.986108596796853 1
gene  2 24 18 -16.318732177980294 0 22.0 -16.318732177980294 1
gene  2 15 22 -7.094647670381796 0 35.0 -7.094647670381796 1
gene  2 9 28 6.204182843615984 0 56.0 6.204182843615984 1
gene  2 28 24 -2.478461151853021 0 57.0 -2.478461151853021 1
gene  1 1 21 13.07989482751221 0 304.0 13.07989482751221 1
gene  1 4 22 -10.997905522627697 0 335.0 -10.997905522627697 1
gene  1 17 28 10.455739086635266 0 352.0 10.455739086635266 1
gene  1 9 80 -3.0362485228335085 0 515.0 -3.0362485228335085 1
gene  1 80 22 13.112161393482538 0 516.0 13.112161393482538 1
gene  1 7 18 -8.228315673839184 0 539.0 -8.228315673839184 1
gene  1 7 19 -3.9298051551852518 0 540.0 -3.9298051551852518 1
gene  1 7 20 -0.38037012777665535 0 541.0 -0.38037012777665535 1
gene  1 7 21 3.150360926362383 0 542.0 3.150360926362383 1
gene  1 7 22 -13.767782065027278 0 543.0 -13.767782065027278 1
gene  2 7 23 6.209529129619131 0 544.0 6.209529129619131 1
gene  1 3 28 -2.3942785194302942 0 602.0 -2.3942785194302942 1
gene  1 2 18 2.6215067111121564 0 656.0 2.6215067111121564 1
gene  2 2 19 4.481623440419771 0 657.0 4.481623440419771 1
gene  1 2 20 2.06027214288208 0 658.0 2.06027214288208 0
gene  2 2 21 3.1624599221265837 0 659.0 3.1624599221265837 1
gene  1 2 22 4.793978146693253 0 660.0 4.793978146693253 1
gene  2 2 23 -1.936365141170664 0 661.0 -1.936365141170664 1
gene  2 80 19 0.2633142002713609 0 831.0 0.2633142002713609 1
gene  1 23 22 0.9898961105696324 0 1073.0 0.9898961105696324 1
gene  1 3 18 1.2358720668894811 0 1089.0 1.2358720668894811 1
gene  1 3 19 2.156936353431421 0 1090.0 2.156936353431421 1
gene  2 3 20 2.264910099556794 0 1091.0 2.264910099556794 1
gene  1 3 21 10.747347254392874 0 1092.0 10.747347254392874 1
gene  2 3 22 -13.633622660715789 0 1093.0 -13.633622660715789 1
gene  2 3 23 -1.7575546612202182 0 1094.0 -1.7575546612202182 1
gene  1 13 18 -3.50724407710194 0 1158.0 -3.50724407710194 1
gene  1 9 171 9.590880184338403 0 1272.0 9.590880184338403 1
gene  1 171 20 -3.8770326648706144 0 1273.0 -3.8770326648706144 1
gene  2 11 23 -1.8995440263892904 0 1341.0 -1.8995440263892904 1
gene  1 18 23 6.242250103766952 0 1376.0 6.242250103766952 1
gene  2 19 24 2.972408942284519 0 1400.0 2.972408942284519 1
gene  1 10 28 -1.9613362232787703 0 1422.0 -1.9613362232787703 1
gene  2 1 24 3.6608305585454914 0 1529.0 3.6608305585454914 1
gene  2 10 18 1.7163848176046534 0 1626.0 1.7163848176046534 1
gene  1 10 19 2.4631178743512745 0 1627.0 2.4631178743512745 1
gene  1 10 20 -0.8834708473802851 0 1628.0 -0.8834708473802851 1
gene  1 10 21 5.220349603146318 0 1629.0 5.220349603146318 1
gene  1 10 22 2.3065194957091713 0 1630.0 2.3065194957091713 1
gene  1 10 23 4.026720427892504 0 1631.0 4.026720427892504 1
gene  1 2 215 0.4180143855283794 0 1702.0 0.4180143855283794 1
gene  1 215 20 2.9375708488285883 0 1703.0 2.9375708488285883 1
gene  1 171 80 -0.37977663866255007 0 1934.0 -0.37977663866255007 1
gene  2 215 21 -1.7487163954618379 0 2052.0 -1.7487163954618379 1
genomeend 20
genomestart  21
trait 1 0.11462593807162944 0.7538708613864405 0.0 0.6326556246432742 0.9046483372999072 0.0 0.8980931385929003 0.21530510115925106 
trait 2 0.05 0.0 0.12188339835402295 0.3983226829980911 0.0 0.0 0.0 0.3371359787770474 
node 1 1 1 1
node 2 1 1 1
node 3 1 1 1
node 4 1 1 1
node 5 1 1 1
node 6 1 1 1
node 7 1 1 1
node 8 1 1 1
node 9 1 1 1
node 10 1 1 1
node 11 1 1 1
node 12 1 1 1
node 13 1 1 1
node 14 1 1 1
node 15 1 1 1
node 16 1 1 1
node 17 1 1 3
node 18 1 0 2
node 19 1 0 2
node 20 1 0 2
node 21 1 0 2
node 22 1 0 2
node 23 2 0 2
node 24 1 0 0
node 28 1 0 0
node 80 1 0 0
gene  1 17 18 1.3230085723329374 0 1.0 1.3230085723329374 1
gene  1 17 19 8.234756845756205 0 1.0 8.234756845756205 1
gene  1 17 20 -1.9012326610811883 0 1.0 -1.9012326610811883 1
gene  1 17 21 -10.827838438522335 0 1.0 -10.827838438522335 1
gene  1 17 22 -1.0988242118529468 0 1.0 -1.0988242118529468 1
gene  1 17 23 -1.7517067466046274 0 1.0 -1.7517067466046274 1
gene  2 9 18 -0.8041242269127258 0 3.0 -0.8041242269127258 1
gene  1 9 19 4.385274736008269 0 4.0 4.385274736008269 1
gene  1 9 20 -1.876278685996573 0 5.0 -1.876278685996573 1
gene  2 9 21 -2.431454012034249 0 6.0 -2.431454012034249 1
gene  1 9 22 8.956096716966359 0 7.0 8.956096716966359 1
gene  1 9 23 -3.391172100064347 0 8.0 -3.391172100064347 1
gene  2 9 24 4.32717865315082 0 21.0 4.32717865315082 1
gene  1 24 18 -2.7852289672380106 0 22.0 -2.7852289672380106 1
gene  2 15 22 1.4110063624436635 0 35.0 1.4110063624436635 1
gene  2 9 28 -3.699530905927365 0 56.0 -3.699530905927365 1
gene  2 28 24 0.608578748065105 0 57.0 0.608578748065105 1
gene  1 1 21 -0.7743867923729388 0 304.0 -0.7743867923729388 1
gene  1 4 22 -1.0259458169071811 0 335.0 -1.0259458169071811 1
gene  1 17 28 3.227420433295082 0 352.0 3.227420433295082 1
gene  1 9 80 -1.090434041817094 0 515.0 -1.090434041817094 1
gene  1 80 22 -0.9982420434027125 0 516.0 -0.9982420434027125 1
gene  1 7 18 -7.1860916599696445 0 539.0 -7.1860916599696445 1
gene  1 7 19 -5.860905625839933 0 540.0 -5.860905625839933 1
gene  1 7 20 -2.1395273162400232 0 541.0 -2.1395273162400232 1
gene  1 7 21 3.0496945791148593 0 542.0 3.0496945791148593 1
gene  1 7 22 3.837548425736526 0 543.0 3.837548425736526 1
gene  2 7 23 0.17630136560577947 0 544.0 0.17630136560577947 1
gene  1 3 28 2.3749733328777745 0 602.0 2.3749733328777745 1
gene  1 2 18 3.1001447720956805 0 656.0 3.1001447720956805 1
gene  2 2 19 1.0929807350595542 0 657.0 1.0929807350595542 1
gene  1 2 20 -0.5858867338843559 0 658.0 -0.5858867338843559 1
gene  2 2 21 0.49875864887728927 0 659.0 0.49875864887728927 1
gene  1 2 22 1.8383758507451038 0 660.0 1.8383758507451038 1
gene  2 2 23 2.029655232088871 0 661.0 2.029655232088871 1
gene  2 80 19 -1.0000246395786547 0 831.0 -1.0000246395786547 1
gene  1 6 18 1.4468944585356232 0 1175.0 1.4468944585356232 1
gene  2 6 19 4.068483364049301 0 1176.0 4.068483364049301 1
gene  2 6 20 2.1734440600153073 0 1177.0 2.1734440600153073 1
gene  2 6 21 -0.23352775391618008 0 1178.0 -0.23352775391618008 1
gene  1 6 22 9.892531757952588 0 1179.0 9.892531757952588 1
gene  1 6 23 1.9308299055604863 0 1180.0 1.9308299055604863 1
gene  1 4 18 -1.1780381321671616 0 1343.0 -1.1780381321671616 1
gene  1 4 19 -2.408193552781738 0 1344.0 -2.408193552781738 1
gene  1 4 20 1.4686209610547534 0 1345.0 1.4686209610547534 1
gene  2 4 21 4.061774633390828 0 1346.0 4.061774633390828 1
gene  1 4 23 0.8376847360946422 0 1347.0 0.8376847360946422 1
gene  1 11 20 4.013752610734632 0 1403.0 4.013752610734632 1
gene  1 3 80 -3.0126716704248833 0 1592.0 -3.0126716704248833 1
gene  1 1 18 -9.836246788731405 0 1636.0 -9.836246788731405 1
gene  2 1 19 -1.7987206636138806 0 1637.0 -1.7987206636138806 1
gene  1 1 20 -4.3377568716828065 0 1638.0 -4.3377568716828065 1
gene  1 1 22 -3.317008001867644 0 1639.0 -3.317008001867644 1
gene  2 1 23 -1.682330786442703 0 1640.0 -1.682330786442703 1
gene  2 12 28 -1.5043580827889136 0 1840.0 -1.5043580827889136 1
genomeend 21
genomestart  22
trait 1 0.1 0.0 0.0 0.0 0.0 0.0 0.0 0.0 
trait 2 0.08971723266397824 0.6395653268181517 0.2304642481089879 0.8970787011831967 0.0 0.0 0.13798754022312143 0.7009645148820621 
node 1 1 1 1
node 2 1 1 1
node 3 1 1 1
node 4 1 1 1
node 5 1 1 1
node 6 1 1 1
node 7 1 1 1
node 8 1 1 1
node 9 1 1 1
node 10 1 1 1
node 11 1 1 1
node 12 1 1 1
node 13 2 1 1
node 14 1 1 1
node 15 1 1 1
node 16 1 1 1
node 17 1 1 3
node 18 1 0 2
node 19 1 0 2
node 20 1 0 2
node 21 1 0 2
node 22 1 0 2
node 23 1 0 2
node 24 1 0 0
node 28 1 0 0
node 80 1 0 0
node 171 1 0 0
node 202 1 0 0
gene  1 17 18 -7.796867462404026 0 1.0 -7.796867462404026 1
gene  1 17 19 -2.399821910098068 0 1.0 -2.399821910098068 1
gene  1 17 20 -19.53842280099507 0 1.0 -19.53842280099507 1
gene  1 17 21 -4.383707622517959 0 1.0 -4.383707622517959 1
gene  1 17 22 9.55410821543105 0 1.0 9.55410821543105 1
gene  1 17 23 1.8634537951175398 0 1.0 1.8634537951175398 1
gene  2 9 18 1.021101914522268 0 3.0 1.021101914522268 1
gene  1 9 19 -3.5855960445886472 0 4.0 -3.5855960445886472 1
gene  1 9 20 -10.884470485779149 0 5.0 -10.884470485779149 1
gene  2 9 21 -2.3126817569155507 0 6.0 -2.3126817569155507 1
gene  1 9 22 -0.6980233738786834 0 7.0 -0.6980233738786834 1
gene  1 9 23 0.35914887658057393 0 8.0 0.35914887658057393 1
gene  2 9 24 3.5576737513978567 0 21.0 3.5576737513978567 1
gene  2 24 18 1.8343549646595558 0 22.0 1.8343549646595558 1
gene  2 15 22 2.4338750962027884 0 35.0 2.4338750962027884 1
gene  2 9 28 1.2515112401929365 0 56.0 1.2515112401929365 1
gene  2 28 24 -5.259371539130024 0 57.0 -5.259371539130024 1
gene  1 1 21 8.739184295153787 0 304.0 8.739184295153787 1
gene  1 4 22 -0.26409840059499756 0 335.0 -0.26409840059499756 1
gene  1 17 28 1.3479606943600924 0 352.0 1.3479606943600924 1
gene  1 9 80 1.6315206276803864 0 515.0 1.6315206276803864 1
gene  1 80 22 -3.7933657097906 0 516.0 -3.7933657097906 1
gene  1 7 18 -4.472248850852823 0 539.0 -4.472248850852823 1
gene  1 7 19 12.151538312600811 0 540.0 12.151538312600811 1
gene  1 7 20 1.706961149687022 0 541.0 1.706961149687022 1
gene  1 7 21 11.911923158907515 0 542.0 11.911923158907515 1
gene  1 7 22 -0.318622267854059 0 543.0 -0.318622267854059 1
gene  2 7 23 2.9880028444781983 0 544.0 2.9880028444781983 1
gene  1 3 28 2.3328048044657783 0 602.0 2.3328048044657783 1
gene  1 2 18 -6.156046010416642 0 656.0 -6.156046010416642 1
gene  2 2 19 11.268905066112273 0 657.0 11.268905066112273 1
gene  1 2 20 6.672058291903099 0 658.0 6.672058291903099 1
gene  2 2 21 2.575421646493644 0 659.0 2.575421646493644 1
gene  1 2 22 10.027827116809725 0 660.0 10.027827116809725 1
gene  2 2 23 0.341830764449534 0 661.0 0.341830764449534 1
gene  2 80 19 13.753612991437144 0 831.0 13.753612991437144 1
gene  1 23 22 5.388584059171877 0 1073.0 5.388584059171877 0
gene  1 3 18 2.581271070557845 0 1089.0 2.581271070557845 1
gene  1 3 19 0.1300940374060891 0 1090.0 0.1300940374060891 1
gene  2 3 20 -8.685144725378322 0 1091.0 -8.685144725378322 1
gene  1 3 21 13.19057769091349 0 1092.0 13.19057769091349 1
gene  2 3 22 -14.109463729140915 0 1093.0 -14.109463729140915 1
gene  2 3 23 -3.273522408314541 0 1094.0 -3.273522408314541 1
gene  1 13 18 -11.746237839430062 0 1158.0 -11.746237839430062 1
gene  1 9 171 2.8914629711175777 0 1272.0 2.8914629711175777 1
gene  1 171 20 -6.9963567960728845 0 1273.0 -6.9963567960728845 1
gene  2 11 23 1.4799044785755386 0 1341.0 1.4799044785755386 1
gene  1 18 23 3.3500920607186737 0 1376.0 3.3500920607186737 1
gene  2 19 24 -3.7494550028960165 0 1400.0 -3.7494550028960165 1
gene  1 10 28 1.7399918676527344 0 1422.0 1.7399918676527344 1
gene  2 15 28 1.4818125490657592 0 1530.0 1.4818125490657592 1
gene  1 23 202 -1.3141131120061966 0 1548.0 -1.3141131120061966 1
gene  1 202 22 1.324723306904865 0 1549.0 1.324723306904865 1
gene  2 4 18 -0.07121880129126429 0 1720.0 -0.07121880129126429 1
gene  1 4 19 -6.309327597893726 0 1721.0 -6.309327597893726 1
gene  2 4 20 -0.7676619028940839 0 1722.0 -0.7676619028940839 1
gene  2 4 21 -2.557069894390494 0 1723.0 -2.557069894390494 1
gene  1 4 23 -2.2543410426646697 0 1724.0 -2.2543410426646697 1
gene  1 14 23 3.3753723899264383 0 1873.0 3.3753723899264383 1
gene  1 28 19 -0.6229283641487913 0 2110.0 -0.6229283641487913 1
genomeend 22
genomestart  23
trait 1 0.1 0.0 0.0 0.0 0.0 0.0 0.0 0.0 
trait 2 0.08971723266397824 0.6395653268181517 0.2304642481089879 0.8970787011831967 0.0 0.0 0.13798754022312143 0.7009645148820621 
node 1 1 1 1
node 2 1 1 1
node 3 1 1 1
node 4 1 1 1
node 5 1 1 1
node 6 1 1 1
node 7 1 1 1
node 8 1 1 1
node 9 1 1 1
node 10 1 1 1
node 11 1 1 1
node 12 1 1 1
node 13 2 1 1
node 14 1 1 1
node 15 1 1 1
node 16 1 1 1
node 17 1 1 3
node 18 1 0 2
node 19 1 0 2
node 20 1 0 2
node 21 1 0 2
node 22 1 0 2
node 23 1 0 2
node 24 1 0 0
node 28 1 0 0
node 80 1 0 0
node 171 1 0 0
node 202 1 0 0
gene  1 17 18 -9.607222127637106 0 1.0 -9.607222127637106 1
gene  1 17 19 -0.08554942819085598 0 1.0 -0.08554942819085598 1
gene  1 17 20 -16.484927243401767 0 1.0 -16.484927243401767 1
gene  1 17 21 -5.530459030348469 0 1.0 -5.530459030348469 1
gene  1 17 22 9.827880148425807 0 1.0 9.827880148425807 1
gene  1 17 23 -0.5160285121311785 0 1.0 -0.5160285121311785 1
gene  2 9 18 -9.636871949206876 0 3.0 -9.636871949206876 1
gene  1 9 19 -2.8167528405722635 0 4.0 -2.8167528405722635 1
gene  1 9 20 -9.441323068899598 0 5.0 -9.441323068899598 1
gene  2 9 21 -2.0933098910047327 0 6.0 -2.0933098910047327 1
gene  1 9 22 6.428634052339323 0 7.0 6.428634052339323 1
gene  1 9 23 3.9651103513021293 0 8.0 3.9651103513021293 1
gene  2 9 24 2.5983747452481394 0 21.0 2.5983747452481394 1
gene  2 24 18 -11.632840519546917 0 22.0 -11.632840519546917 1
gene  2 15 22 0.26686224431115324 0 35.0 0.26686224431115324 1
gene  2 9 28 2.204365065117802 0 56.0 2.204365065117802 1
gene  2 28 24 -7.272952572253285 0 57.0 -7.272952572253285 1
gene  1 1 21 9.401313815650354 0 304.0 9.401313815650354 1
gene  1 4 22 4.065861841036083 0 335.0 4.065861841036083 1
gene  1 17 28 -0.26738430008358616 0 352.0 -0.26738430008358616 1
gene  1 9 80 3.8362135127922503 0 515.0 3.8362135127922503 1
gene  1 80 22 -2.787581343641755 0 516.0 -2.787581343641755 1
gene  1 7 18 -6.930375238097975 0 539.0 -6.930375238097975 1
gene  1 7 19 12.427022914966672 0 540.0 12.427022914966672 1
gene  1 7 20 3.4431915137287996 0 541.0 3.4431915137287996 1
gene  1 7 21 11.685581488386916 0 542.0 11.685581488386916 1
gene  1 7 22 -10.396096840283903 0 543.0 -10.396096840283903 1
gene  2 7 23 2.18469895312379 0 544.0 2.18469895312379 1
gene  1 3 28 4.056766203583415 0 602.0 4.056766203583415 1
gene  1 2 18 -6.110771333020485 0 656.0 -6.110771333020485 1
gene  2 2 19 10.272639509002301 0 657.0 10.272639509002301 1
gene  1 2 20 4.275393702308919 0 658.0 4.275393702308919 1
gene  2 2 21 2.5172962185255496 0 659.0 2.5172962185255496 1
gene  1 2 22 10.212851622369923 0 660.0 10.212851622369923 1
gene  2 2 23 0.3665624795116533 0 661.0 0.3665624795116533 1
gene  2 80 19 10.653378299833244 0 831.0 10.653378299833244 1
gene  1 23 22 3.535543433724551 0 1073.0 3.535543433724551 0
gene  1 3 18 -0.07789873410449338 0 1089.0 -0.07789873410449338 1
gene  1 3 19 2.5140376465983154 0 1090.0 2.5140376465983154 1
gene  2 3 20 -6.115318658574955 0 1091.0 -6.115318658574955 1
gene  1 3 21 13.49894214147385 0 1092.0 13.49894214147385 1
gene  2 3 22 -11.54535361068544 0 1093.0 -11.54535361068544 1
gene  2 3 23 -1.980793848961576 0 1094.0 -1.980793848961576 1
gene  1 13 18 -15.878464932103693 0 1158.0 -15.878464932103693 1
gene  1 9 171 4.682818369793069 0 1272.0 4.682818369793069 1
gene  1 171 20 -5.737945190722403 0 1273.0 -5.737945190722403 1
gene  2 11 23 -2.57768059786641 0 1341.0 -2.57768059786641 1
gene  1 18 23 4.885433118448181 0 1376.0 4.885433118448181 1
gene  2 19 24 -2.04883172451068 0 1400.0 -2.04883172451068 1
gene  1 10 28 0.6916971551784377 0 1422.0 0.6916971551784377 1
gene  2 15 28 0.31830175139172556 0 1530.0 0.31830175139172556 1
gene  1 23 202 0.7622779419571 0 1548.0 0.7622779419571 1
gene  1 202 22 -1.006804534664529 0 1549.0 -1.006804534664529 1
gene  2 4 18 -4.418351194848573 0 1720.0 -4.418351194848573 1
gene  1 4 19 -4.080417530784497 0 1721.0 -4.080417530784497 1
gene  2 4 20 0.5324314583904943 0 1722.0 0.5324314583904943 1
gene  2 4 21 1.3805317692201138 0 1723.0 1.3805317692201138 1
gene  1 4 23 -2.705577038739071 0 1724.0 -2.705577038739071 1
gene  1 14 23 0.6795959583751632 0 1873.0 0.6795959583751632 1
gene  1 28 19 -0.8268373080944207 0 2110.0 -0.8268373080944207 1
genomeend 23
genomestart  24
trait 1 0.1 0.0 0.0 0.0 0.0 0.0 0.0 0.0 
trait 2 0.08971723266397824 0.6395653268181517 0.2304642481089879 0.8970787011831967 0.0 0.0 0.13798754022312143 0.7009645148820621 
node 1 1 1 1
node 2 1 1 1
node 3 1 1 1
node 4 1 1 1
node 5 1 1 1
node 6 1 1 1
node 7 1 1 1
node 8 1 1 1
node 9 1 1 1
node 10 1 1 1
node 11 1 1 1
node 12 1 1 1
node 13 2 1 1
node 14 1 1 1
node 15 1 1 1
node 16 1 1 1
node 17 1 1 3
node 18 1 0 2
node 19 1 0 2
node 20 1 0 2
node 21 1 0 2
node 22 1 0 2
node 23 1 0 2
node 24 1 0 0
node 28 1 0 0
node 80 1 0 0
node 171 1 0 0
node 202 1 0 0
gene  1 17 18 -9.641762365486205 0 1.0 -9.641762365486205 1
gene  1 17 19 -4.030848120352157 0 1.0 -4.030848120352157 1
gene  1 17 20 -16.273450945006722 0 1.0 -16.273450945006722 1
gene  1 17 21 -6.090588049094127 0 1.0 -6.090588049094127 1
gene  1 17 22 11.886517380462125 0 1.0 11.886517380462125 1
gene  1 17 23 1.0047788449548007 0 1.0 1.0047788449548007 1
gene  2 9 18 -9.782073712627612 0 3.0 -9.782073712627612 1
gene  1 9 19 -3.443864412768977 0 4.0 -3.443864412768977 1
gene  1 9 20 -11.16507326527396 0 5.0 -11.16507326527396 1
gene  2 9 21 -2.659163564995986 0 6.0 -2.659163564995986 1
gene  1 9 22 6.613624628472706 0 7.0 6.613624628472706 1
gene  1 9 23 7.979536156292153 0 8.0 7.979536156292153 1
gene  2 9 24 5.367702908412893 0 21.0 5.367702908412893 1
gene  2 24 18 -12.021384458868859 0 22.0 -12.021384458868859 1
gene  2 15 22 3.3561511185449904 0 35.0 3.3561511185449904 1
gene  2 9 28 3.2533854178524897 0 56.0 3.2533854178524897 1
gene  2 28 24 -5.5620686128648025 0 57.0 -5.5620686128648025 1
gene  1 1 21 6.681265178542887 0 304.0 6.681265178542887 1
gene  1 4 22 5.925704947625757 0 335.0 5.925704947625757 1
gene  1 17 28 0.5414575682557152 0 352.0 0.5414575682557152 1
gene  1 9 80 0.573713171171802 0 515.0 0.573713171171802 1
gene  1 80 22 -5.680248214328731 0 516.0 -5.680248214328731 1
gene  1 7 18 -7.829591135266132 0 539.0 -7.829591135266132 1
gene  1 7 19 14.298161958015344 0 540.0 14.298161958015344 1
gene  1 7 20 4.435128310923544 0 541.0 4.435128310923544 1
gene  1 7 21 12.53360817480501 0 542.0 12.53360817480501 1
gene  1 7 22 -10.701453268493067 0 543.0 -10.701453268493067 1
gene  2 7 23 3.6145785139990902 0 544.0 3.6145785139990902 1
gene  1 3 28 1.047193700746479 0 602.0 1.047193700746479 1
gene  1 2 18 -4.044392702902938 0 656.0 -4.044392702902938 1
gene  2 2 19 11.016420619884036 0 657.0 11.016420619884036 1
gene  1 2 20 7.547683841123758 0 658.0 7.547683841123758 1
gene  2 2 21 3.1190277666366004 0 659.0 3.1190277666366004 1
gene  1 2 22 8.737728212488406 0 660.0 8.737728212488406 1
gene  2 2 23 -2.1399344396979374 0 661.0 -2.1399344396979374 1
gene  2 80 19 12.635772824301567 0 831.0 12.635772824301567 1
gene  1 23 22 6.017568240273378 0 1073.0 6.017568240273378 0
gene  1 3 18 -0.13327129356040407 0 1089.0 -0.13327129356040407 1
gene  1 3 19 1.6323191379884496 0 1090.0 1.6323191379884496 1
gene  2 3 20 -8.006073411015455 0 1091.0 -8.006073411015455 1
gene  1 3 21 14.259259044217831 0 1092.0 14.259259044217831 1
gene  2 3 22 -13.932384402074355 0 1093.0 -13.932384402074355 1
gene  2 3 23 -0.24715044756592341 0 1094.0 -0.24715044756592341 1
gene  1 13 18 -12.24963936821212 0 1158.0 -12.24963936821212 1
gene  1 9 171 5.27395681510934 0 1272.0 5.27395681510934 1
gene  1 171 20 -3.976642746516382 0 1273.0 -3.976642746516382 1
gene  2 11 23 -1.846869151933417 0 1341.0 -1.846869151933417 1
gene  1 18 23 5.1741121423999346 0 1376.0 5.1741121423999346 1
gene  2 19 24 -0.8818880429859814 0 1400.0 -0.8818880429859814 1
gene  1 10 28 -0.061917610500778375 0 1422.0 -0.061917610500778375 1
gene  2 15 28 -1.2722063362463352 0 1530.0 -1.2722063362463352 1
gene  1 23 202 0.8189343761470926 0 1548.0 0.8189343761470926 1
gene  1 202 22 1.324723306904865 0 1549.0 1.324723306904865 1
gene  2 4 18 -4.418351194848573 0 1720.0 -4.418351194848573 1
gene  1 4 19 0.538901030841466 0 1721.0 0.538901030841466 1
