genomestart  0
trait 1 0.09830487535921437 0.0 0.13815469124306032 0.13165999646808663 0.010988491035646239 0.0 0.0 0.0082833896082774 
trait 2 0.0 0.5435774442022321 0.0 0.6862319277477456 0.0 0.0 0.0 0.04392184902735541 
node 1 2 1 1
node 2 1 1 1
node 3 1 1 1
node 4 1 1 1
node 5 1 1 1
node 6 1 1 1
node 7 1 1 1
node 8 1 1 1
node 9 1 1 1
node 10 1 1 1
node 11 1 1 1
node 12 1 1 1
node 13 1 1 1
node 14 1 1 1
node 15 1 1 1
node 16 1 1 1
node 17 1 1 3
node 18 1 0 2
node 19 1 0 2
node 20 1 0 2
node 21 1 0 2
node 22 1 0 2
node 23 1 0 2
node 32 1 0 0
node 98 1 0 0
gene  1 17 18 -2.261032462541822 0 1.0 -2.261032462541822 1
gene  1 17 19 12.117119193224632 0 1.0 12.117119193224632 1
gene  1 17 20 -0.6814127107072858 0 1.0 -0.6814127107072858 1
gene  1 17 21 -5.1823967250232865 0 1.0 -5.1823967250232865 1
gene  1 17 22 -4.964229751243956 0 1.0 -4.964229751243956 1
gene  2 17 23 3.025518660050473 0 1.0 3.025518660050473 1
gene  2 5 18 0.630752938828592 0 6.0 0.630752938828592 1
gene  1 5 19 2.8077079339941777 0 7.0 2.8077079339941777 1
gene  1 5 20 2.2460967229701394 0 8.0 2.2460967229701394 1
gene  2 5 21 13.647212547942996 0 9.0 13.647212547942996 1
gene  2 5 22 -2.7721727084617793 0 10.0 -2.7721727084617793 1
gene  1 5 23 2.9601552077062987 0 11.0 2.9601552077062987 1
gene  2 5 32 0.2970488967759226 0 115.0 0.2970488967759226 1
gene  2 32 18 -0.1753759192212856 0 116.0 -0.1753759192212856 1
gene  1 13 22 -1.2403180826539693 0 131.0 -1.2403180826539693 1
gene  1 2 18 -13.677426817544358 0 172.0 -13.677426817544358 1
gene  1 2 19 0.12919550046731398 0 161.0 0.12919550046731398 1
gene  1 2 20 7.336392307172842 0 173.0 7.336392307172842 1
gene  1 2 21 -8.72979347881535 0 174.0 -8.72979347881535 1
gene  1 2 22 -2.920145941864423 0 175.0 -2.920145941864423 1
gene  2 2 23 -4.593701371568043 0 176.0 -4.593701371568043 1
gene  2 7 18 -0.18552773082204788 0 366.0 -0.18552773082204788 1
gene  2 7 19 -4.6339712887426945 0 354.0 -4.6339712887426945 1
gene  2 7 20 -1.7319470225741935 0 349.0 -1.7319470225741935 1
gene  1 7 21 10.050470664946847 0 367.0 10.050470664946847 1
gene  1 7 22 -0.9308277314554614 0 368.0 -0.9308277314554614 1
gene  2 7 23 -11.157492689641598 0 369.0 -11.157492689641598 1
gene  1 2 98 6.541756391794782 0 683.0 6.541756391794782 1
gene  1 98 19 0.6144338746993625 0 684.0 0.6144338746993625 1
gene  2 15 98 -0.1594453456196132 0 797.0 -0.1594453456196132 1
gene  1 3 18 1.4101482529853646 0 1005.0 1.4101482529853646 1
gene  2 3 19 2.332095740640396 0 1006.0 2.332095740640396 1
gene  2 3 20 -2.119334204301153 0 1007.0 -2.119334204301153 1
gene  1 3 21 -3.5299493572883227 0 1008.0 -3.5299493572883227 1
gene  2 3 22 1.3459355512166418 0 1009.0 1.3459355512166418 1
gene  1 3 23 -8.902561188054685 0 1010.0 -8.902561188054685 1
gene  2 15 32 1.0395825790529243 0 2553.0 1.0395825790529243 1
gene  1 13 20 4.623176314532999 0 2734.0 4.623176314532999 1
genomeend 0
genomestart  1
trait 1 0.09830487535921437 0.0 0.13815469124306032 0.13165999646808663 0.010988491035646239 0.0 0.0 0.0082833896082774 
trait 2 0.0 0.5435774442022321 0.0 0.6862319277477456 0.0 0.0 0.0 0.04392184902735541 
node 1 2 1 1
node 2 1 1 1
node 3 1 1 1
node 4 1 1 1
node 5 1 1 1
node 6 1 1 1
node 7 1 1 1
node 8 1 1 1
node 9 1 1 1
node 10 1 1 1
node 11 1 1 1
node 12 1 1 1
node 13 1 1 1
node 14 1 1 1
node 15 1 1 1
node 16 1 1 1
node 17 1 1 3
node 18 1 0 2
node 19 1 0 2
node 20 1 0 2
node 21 1 0 2
node 22 1 0 2
node 23 1 0 2
node 32 1 0 0
node 98 1 0 0
gene  1 17 18 -1.4781380366016816 0 1.0 -1.4781380366016816 1
gene  1 17 19 8.057659798625549 0 1.0 8.057659798625549 1
gene  1 17 20 -3.075549075840006 0 1.0 -3.075549075840006 1
gene  1 17 21 -5.133962776404763 0 1.0 -5.133962776404763 1
gene  1 17 22 -4.912244161017583 0 1.0 -4.912244161017583 1
gene  2 17 23 1.6600873158841265 0 1.0 1.6600873158841265 1
gene  2 5 18 0.6233601896106586 0 6.0 0.6233601896106586 1
gene  1 5 19 -1.469519582486748 0 7.0 -1.469519582486748 1
gene  1 5 20 3.1103711574823443 0 8.0 3.1103711574823443 1
gene  2 5 21 11.42866674802652 0 9.0 11.42866674802652 1
gene  2 5 22 -2.4685581800726712 0 10.0 -2.4685581800726712 1
gene  1 5 23 5.009952836752663 0 11.0 5.009952836752663 1
gene  2 5 32 -1.4405191694228114 0 115.0 -1.4405191694228114 1
gene  2 32 18 -3.39724745391522 0 116.0 -3.39724745391522 1
gene  1 13 22 -1.8327525333271169 0 131.0 -1.8327525333271169 1
gene  1 2 18 -13.975370120873691 0 172.0 -13.975370120873691 1
gene  1 2 19 -1.5092080958028893 0 161.0 -1.5092080958028893 1
gene  1 2 20 7.152033449686115 0 173.0 7.152033449686115 1
gene  1 2 21 -9.188028937406964 0 174.0 -9.188028937406964 1
gene  1 2 22 -6.768778653278037 0 175.0 -6.768778653278037 1
gene  2 2 23 -0.026432282408320518 0 176.0 -0.026432282408320518 1
gene  2 7 18 -0.616370011687547 0 366.0 -0.616370011687547 1
gene  2 7 19 0.08848429533687785 0 354.0 0.08848429533687785 1
gene  2 7 20 -3.2635554723016256 0 349.0 -3.2635554723016256 1
gene  1 7 21 8.72515073618462 0 367.0 8.72515073618462 1
gene  1 7 22 -2.5978523506003275 0 368.0 -2.5978523506003275 1
gene  2 7 23 -9.921912155525073 0 369.0 -9.921912155525073 1
gene  1 2 98 9.440498256559785 0 683.0 9.440498256559785 1
gene  1 98 19 -2.213437064376353 0 684.0 -2.213437064376353 1
gene  2 15 98 0.40735190833558477 0 797.0 0.40735190833558477 1
gene  1 3 18 -2.662092080309947 0 1005.0 -2.662092080309947 1
gene  2 3 19 2.416258506204536 0 1006.0 2.416258506204536 1
gene  2 3 20 -2.3032655995672338 0 1007.0 -2.3032655995672338 1
gene  1 3 21 -4.190022952326496 0 1008.0 -4.190022952326496 1
gene  2 3 22 0.038451238380502184 0 1009.0 0.038451238380502184 1
gene  1 3 23 -6.993515016064563 0 1010.0 -6.993515016064563 1
gene  2 15 32 2.13508959375979 0 2553.0 2.13508959375979 1
gene  1 13 20 2.686461287983095 0 2734.0 2.686461287983095 1
genomeend 1
genomestart  2
trait 1 0.0 0.0 0.0 0.9340497917534825 0.7671090126092577 0.0 0.10006744618145813 0.0 
trait 2 0.1 0.0 0.8309365169181524 0.08921075280210866 0.0 0.7614440107356902 1.0692906947587137 0.0 
node 1 1 1 1
node 2 1 1 1
node 3 1 1 1
node 4 1 1 1
node 5 1 1 1
node 6 1 1 1
node 7 1 1 1
node 8 1 1 1
node 9 1 1 1
node 10 1 1 1
node 11 1 1 1
node 12 1 1 1
node 13 1 1 1
node 14 1 1 1
node 15 2 1 1
node 16 1 1 1
node 17 1 1 3
node 18 1 0 2
node 19 1 0 2
node 20 1 0 2
node 21 2 0 2
node 22 1 0 2
node 23 1 0 2
node 193 1 0 0
node 202 1 0 0
gene  1 17 18 -10.490934362301537 0 1.0 -10.490934362301537 1
gene  1 17 19 0.4570643390765663 0 1.0 0.4570643390765663 1
gene  1 17 20 -1.5134780785993933 0 1.0 -1.5134780785993933 1
gene  1 17 21 2.185353195257929 0 1.0 2.185353195257929 1
gene  1 17 22 -0.8299950307999484 0 1.0 -0.8299950307999484 1
gene  1 17 23 2.3124746338230855 0 1.0 2.3124746338230855 1
gene  2 5 18 -2.093338521636573 0 6.0 -2.093338521636573 1
gene  1 5 19 -0.41162770469063686 0 7.0 -0.41162770469063686 1
gene  1 5 20 -13.407147335291974 0 8.0 -13.407147335291974 1
gene  2 5 21 11.416443672579483 0 9.0 11.416443672579483 1
gene  2 5 22 1.980915429872323 0 10.0 1.980915429872323 1
gene  1 5 23 3.1660499143625684 0 11.0 3.1660499143625684 0
gene  2 1 18 -0.9709717209016451 0 46.0 -0.9709717209016451 1
gene  2 1 19 2.8612065511650773 0 47.0 2.8612065511650773 1
gene  2 1 20 3.059111508464614 0 45.0 3.059111508464614 1
gene  2 1 21 3.7999442241863353 0 48.0 3.7999442241863353 1
gene  2 1 22 1.0069718804195136 0 49.0 1.0069718804195136 1
gene  1 1 23 3.8007906031107366 0 50.0 3.8007906031107366 1
gene  1 14 18 0.10691601722340571 0 85.0 0.10691601722340571 1
gene  2 14 19 1.3226256504111327 0 86.0 1.3226256504111327 1
gene  2 14 20 0.1797826801928597 0 87.0 0.1797826801928597 1
gene  2 14 21 -2.0051859750955625 0 63.0 -2.0051859750955625 1
gene  2 14 22 0.0731931774973349 0 88.0 0.0731931774973349 1
gene  2 14 23 5.5503504525360015 0 89.0 5.5503504525360015 1
gene  2 6 19 -4.11790171827443 0 168.0 -4.11790171827443 1
gene  2 2 18 -4.205264052665578 0 200.0 -4.205264052665578 1
gene  2 2 19 -0.6996908724886064 0 201.0 -0.6996908724886064 1
gene  2 2 20 4.8208646779676085 0 202.0 4.8208646779676085 1
gene  1 2 21 0.29020827221371626 0 203.0 0.29020827221371626 1
gene  2 2 22 3.2075504731810787 0 204.0 3.2075504731810787 0
gene  2 2 23 -1.7122615142867414 0 205.0 -1.7122615142867414 1
gene  1 7 18 1.1536917604617893 0 322.0 1.1536917604617893 1
gene  1 7 19 12.370618988611527 0 296.0 12.370618988611527 1
gene  2 7 20 4.733249256853906 0 323.0 4.733249256853906 1
gene  2 7 21 -0.3283513916922156 0 324.0 -0.3283513916922156 1
gene  2 7 22 -4.882543113935271 0 325.0 -4.882543113935271 1
gene  2 7 23 4.3286754588926115 0 326.0 4.3286754588926115 1
gene  2 8 18 -5.986458368916893 0 609.0 -5.986458368916893 1
gene  1 15 22 7.485169412294913 0 652.0 7.485169412294913 1
gene  2 9 22 4.810881132473915 0 682.0 4.810881132473915 1
gene  1 23 19 6.4279335901869405 0 725.0 6.4279335901869405 1
gene  2 22 20 2.5482512231997942 0 773.0 2.5482512231997942 1
gene  1 18 22 -3.304125533443302 0 1363.0 -3.304125533443302 0
gene  1 5 193 -2.701478412151091 0 1391.0 -2.701478412151091 1
gene  1 193 23 1.7443476502079638 0 1392.0 1.7443476502079638 1
gene  1 18 202 1.9123569767349948 0 1462.0 1.9123569767349948 1
gene  1 202 22 3.376785443563698 0 1463.0 3.376785443563698 1
gene  2 23 202 -3.268480500264342 0 1512.0 -3.268480500264342 1
gene  1 16 18 -10.667962028516692 0 1801.0 -10.667962028516692 1
gene  2 12 18 0.838786521633087 0 2022.0 0.838786521633087 1
gene  2 193 18 4.531872299995201 0 2297.0 4.531872299995201 1
gene  2 22 21 -0.3824068846182085 0 2413.0 -0.3824068846182085 1
genomeend 2
genomestart  3
trait 1 0.0 0.0 0.0 0.9340497917534825 0.7671090126092577 0.0 0.10006744618145813 0.0 
trait 2 0.1 0.0 0.8309365169181524 0.08921075280210866 0.0 0.7614440107356902 1.0692906947587137 0.0 
node 1 1 1 1
node 2 1 1 1
node 3 1 1 1
node 4 1 1 1
node 5 1 1 1
node 6 1 1 1
node 7 1 1 1
node 8 1 1 1
node 9 1 1 1
node 10 1 1 1
node 11 1 1 1
node 12 1 1 1
node 13 1 1 1
node 14 1 1 1
node 15 2 1 1
node 16 1 1 1
node 17 1 1 3
node 18 1 0 2
node 19 1 0 2
node 20 1 0 2
node 21 2 0 2
node 22 1 0 2
node 23 1 0 2
node 193 1 0 0
node 202 1 0 0
gene  1 17 18 -6.732948771253607 0 1.0 -6.732948771253607 1
gene  1 17 19 -2.590531954532721 0 1.0 -2.590531954532721 1
gene  1 17 20 -0.6694558313544186 0 1.0 -0.6694558313544186 1
gene  1 17 21 -0.1968909126546079 0 1.0 -0.1968909126546079 1
gene  1 17 22 -1.396288322714161 0 1.0 -1.396288322714161 1
gene  1 17 23 3.9644216061493847 0 1.0 3.9644216061493847 1
gene  2 5 18 1.6270640610536584 0 6.0 1.6270640610536584 1
gene  1 5 19 -0.4285079941586336 0 7.0 -0.4285079941586336 1
gene  1 5 20 -9.438557716929177 0 8.0 -9.438557716929177 1
gene  2 5 21 11.956985341713763 0 9.0 11.956985341713763 1
gene  2 5 22 -0.1290892446757015 0 10.0 -0.1290892446757015 1
gene  1 5 23 1.2638241837991742 0 11.0 1.2638241837991742 0
gene  2 1 18 -0.8031247807318973 0 46.0 -0.8031247807318973 1
gene  2 1 19 0.30961777883183417 0 47.0 0.30961777883183417 1
gene  2 1 20 3.139069117046227 0 45.0 3.139069117046227 1
gene  2 1 21 0.6004277345021505 0 48.0 0.6004277345021505 1
gene  2 1 22 -2.493212634798956 0 49.0 -2.493212634798956 1
gene  1 1 23 -2.0784238179283547 0 50.0 -2.0784238179283547 1
gene  1 14 18 -2.208348542509123 0 85.0 -2.208348542509123 1
gene  2 14 19 -0.2505436298739294 0 86.0 -0.2505436298739294 1
gene  2 14 20 -1.9002101282136101 0 87.0 -1.9002101282136101 1
gene  2 14 21 -1.7678678808822101 0 63.0 -1.7678678808822101 1
gene  2 14 22 2.365354774975454 0 88.0 2.365354774975454 1
gene  2 14 23 2.61133344579319 0 89.0 2.61133344579319 1
gene  2 6 19 -1.8916640898018322 0 168.0 -1.8916640898018322 1
gene  2 2 18 1.7825109296308228 0 200.0 1.7825109296308228 1
gene  2 2 19 0.400687194799558 0 201.0 0.400687194799558 1
gene  2 2 20 2.755386591277511 0 202.0 2.755386591277511 1
gene  1 2 21 4.795441348587158 0 203.0 4.795441348587158 1
gene  2 2 22 4.9543185260938 0 204.0 4.9543185260938 0
gene  2 2 23 -3.1658018840422315 0 205.0 -3.1658018840422315 1
gene  1 7 18 -0.3053202527360275 0 322.0 -0.3053202527360275 1
gene  1 7 19 0.49958427218550483 0 296.0 0.49958427218550483 1
gene  2 7 20 1.9676602264039846 0 323.0 1.9676602264039846 1
gene  2 7 21 3.1602926207069775 0 324.0 3.1602926207069775 1
gene  2 7 22 -0.5795342988789209 0 325.0 -0.5795342988789209 1
gene  2 7 23 1.6520628589119577 0 326.0 1.6520628589119577 1
gene  2 8 18 -10.350885537583965 0 609.0 -10.350885537583965 1
gene  1 15 22 7.464665190779643 0 652.0 7.464665190779643 1
gene  2 9 22 2.4420633861329875 0 682.0 2.4420633861329875 1
gene  1 23 19 5.8282578486219 0 725.0 5.8282578486219 1
gene  2 22 20 3.6303150649977773 0 773.0 3.6303150649977773 1
gene  1 18 22 1.2977263129942893 0 1363.0 1.2977263129942893 0
gene  1 5 193 -1.5838808270947344 0 1391.0 -1.5838808270947344 1
gene  1 193 23 1.57614592094972 0 1392.0 1.57614592094972 1
gene  1 18 202 1.1692019760617978 0 1462.0 1.1692019760617978 1
gene  1 202 22 2.6846433098183233 0 1463.0 2.6846433098183233 1
gene  2 23 202 -3.268480500264342 0 1512.0 -3.268480500264342 1
gene  1 16 18 -8.595198086893927 0 1801.0 -8.595198086893927 1
gene  2 12 18 -1.3223914333124076 0 2022.0 -1.3223914333124076 1
gene  2 193 18 3.2223492850488378 0 2297.0 3.2223492850488378 1
gene  2 22 21 -0.17264494558611232 0 2413.0 -0.17264494558611232 1
genomeend 3
genomestart  4
trait 1 0.0 0.0 0.0 0.9340497917534825 0.7671090126092577 0.0 0.10006744618145813 0.0 
trait 2 0.1 0.0 0.8309365169181524 0.08921075280210866 0.0 0.7614440107356902 1.0692906947587137 0.0 
node 1 1 1 1
node 2 1 1 1
node 3 1 1 1
node 4 1 1 1
node 5 1 1 1
node 6 1 1 1
node 7 1 1 1
node 8 1 1 1
node 9 1 1 1
node 10 1 1 1
node 11 1 1 1
node 12 1 1 1
node 13 1 1 1
node 14 1 1 1
node 15 2 1 1
node 16 1 1 1
node 17 1 1 3
node 18 1 0 2
node 19 1 0 2
node 20 1 0 2
node 21 2 0 2
node 22 1 0 2
node 23 1 0 2
node 193 1 0 0
node 202 1 0 0
gene  1 17 18 1.5880693168127964 0 1.0 1.5880693168127964 1
gene  1 17 19 -0.03137253507384741 0 1.0 -0.03137253507384741 1
gene  1 17 20 2.022960900981357 0 1.0 2.022960900981357 1
gene  1 17 21 -0.29566849778706666 0 1.0 -0.29566849778706666 1
gene  1 17 22 -3.6231621324825807 0 1.0 -3.6231621324825807 1
gene  1 17 23 3.3873292230330305 0 1.0 3.3873292230330305 1
gene  2 5 18 1.7675145686468383 0 6.0 1.7675145686468383 1
gene  1 5 19 -0.8744130511722789 0 7.0 -0.8744130511722789 1
gene  1 5 20 -11.584436934719166 0 8.0 -11.584436934719166 1
gene  2 5 21 11.29974984211092 0 9.0 11.29974984211092 1
gene  2 5 22 1.0946554657912018 0 10.0 1.0946554657912018 1
gene  1 5 23 1.2128262188598713 0 11.0 1.2128262188598713 0
gene  2 1 18 -2.2783952485567753 0 46.0 -2.2783952485567753 1
gene  2 1 19 2.6691254740873713 0 47.0 2.6691254740873713 1
gene  2 1 20 3.8510867311432273 0 45.0 3.8510867311432273 1
gene  2 1 21 6.254453881734562 0 48.0 6.254453881734562 1
gene  2 1 22 4.495059781867798 0 49.0 4.495059781867798 1
gene  1 1 23 -0.17171315281358135 0 50.0 -0.17171315281358135 1
gene  1 14 18 2.190801548618654 0 85.0 2.190801548618654 1
gene  2 14 19 2.1816862655165266 0 86.0 2.1816862655165266 1
gene  2 14 20 -2.1907047058953157 0 87.0 -2.1907047058953157 1
gene  2 14 21 -0.26998350999424714 0 63.0 -0.26998350999424714 1
gene  2 14 22 0.18062784875799798 0 88.0 0.18062784875799798 1
gene  2 14 23 2.2353698948376017 0 89.0 2.2353698948376017 1
gene  2 6 19 -1.3731803060029477 0 168.0 -1.3731803060029477 1
gene  2 2 18 -6.12690614306703 0 200.0 -6.12690614306703 1
gene  2 2 19 0.38119316347006604 0 201.0 0.38119316347006604 1
gene  2 2 20 3.7606150650745325 0 202.0 3.7606150650745325 1
gene  1 2 21 0.3426114044614921 0 203.0 0.3426114044614921 1
gene  2 2 22 3.7407469367466537 0 204.0 3.7407469367466537 0
gene  2 2 23 0.3721854965925847 0 205.0 0.3721854965925847 1
gene  1 7 18 0.7180828038501558 0 322.0 0.7180828038501558 1
gene  1 7 19 9.871923597057922 0 296.0 9.871923597057922 1
gene  2 7 20 2.6196532558371306 0 323.0 2.6196532558371306 1
gene  2 7 21 2.444568577052684 0 324.0 2.444568577052684 1
gene  2 7 22 -2.9825790058330637 0 325.0 -2.9825790058330637 1
gene  2 7 23 1.6861295415673718 0 326.0 1.6861295415673718 1
gene  2 8 18 -7.986538196016708 0 609.0 -7.986538196016708 1
gene  1 15 22 5.9442607780898715 0 652.0 5.9442607780898715 1
gene  2 9 22 1.435054691695726 0 682.0 1.435054691695726 1
gene  1 23 19 5.5208832022600305 0 725.0 5.5208832022600305 1
gene  2 22 20 2.2719660619778876 0 773.0 2.2719660619778876 1
gene  1 18 22 -3.304125533443302 0 1363.0 -3.304125533443302 0
gene  1 5 193 -0.43970547067380905 0 1391.0 -0.43970547067380905 1
gene  1 193 23 2.9180985236196433 0 1392.0 2.9180985236196433 1
gene  1 18 202 2.9873809588084033 0 1462.0 2.9873809588084033 1
gene  1 202 22 0.20407045578065802 0 1463.0 0.20407045578065802 1
gene  2 23 202 -1.9073640125388993 0 1512.0 -1.9073640125388993 1
gene  1 16 18 -7.32675138510621 0 1801.0 -7.32675138510621 1
gene  2 12 18 0.19948610559079039 0 2022.0 0.19948610559079039 1
gene  2 193 18 4.870801018708423 0 2297.0 4.870801018708423 1
gene  2 22 21 2.119956548688995 0 2413.0 2.119956548688995 1
genomeend 4
genomestart  5
trait 1 0.0 0.0 0.0 0.9340497917534825 0.7671090126092577 0.0 0.10006744618145813 0.0 
trait 2 0.1 0.0 0.8309365169181524 0.08921075280210866 0.0 0.7614440107356902 1.0692906947587137 0.0 
node 1 1 1 1
node 2 1 1 1
node 3 1 1 1
node 4 1 1 1
node 5 1 1 1
node 6 1 1 1
node 7 1 1 1
node 8 1 1 1
node 9 1 1 1
node 10 1 1 1
node 11 1 1 1
node 12 1 1 1
node 13 1 1 1
node 14 1 1 1
node 15 2 1 1
node 16 1 1 1
node 17 1 1 3
node 18 1 0 2
node 19 1 0 2
node 20 1 0 2
node 21 2 0 2
node 22 1 0 2
node 23 1 0 2
node 193 1 0 0
node 202 1 0 0
gene  1 17 18 -9.060461728828436 0 1.0 -9.060461728828436 1
gene  1 17 19 -1.6484631763898374 0 1.0 -1.6484631763898374 1
gene  1 17 20 -2.0676478135775267 0 1.0 -2.0676478135775267 1
gene  1 17 21 -0.1968909126546079 0 1.0 -0.1968909126546079 1
gene  1 17 22 -1.396288322714161 0 1.0 -1.396288322714161 1
gene  1 17 23 3.9644216061493847 0 1.0 3.9644216061493847 1
gene  2 5 18 0.34151783282103454 0 6.0 0.34151783282103454 1
gene  1 5 19 -0.44922409535720986 0 7.0 -0.44922409535720986 1
gene  1 5 20 -11.345312597489107 0 8.0 -11.345312597489107 1
gene  2 5 21 12.207331044124484 0 9.0 12.207331044124484 1
gene  2 5 22 1.0946554657912018 0 10.0 1.0946554657912018 1
gene  1 5 23 1.6927967266041004 0 11.0 1.6927967266041004 0
gene  2 1 18 -3.1029687454093926 0 46.0 -3.1029687454093926 1
gene  2 1 19 0.8712065826314352 0 47.0 0.8712065826314352 1
gene  2 1 20 3.139069117046227 0 45.0 3.139069117046227 1
gene  2 1 21 5.413152863589348 0 48.0 5.413152863589348 1
gene  2 1 22 2.594840940127547 0 49.0 2.594840940127547 1
gene  1 1 23 2.148824505890449 0 50.0 2.148824505890449 1
gene  1 14 18 0.1417422872069063 0 85.0 0.1417422872069063 1
gene  2 14 19 1.0057397323593804 0 86.0 1.0057397323593804 1
gene  2 14 20 -0.6964480738245853 0 87.0 -0.6964480738245853 1
gene  2 14 21 -2.965077877163095 0 63.0 -2.965077877163095 1
gene  2 14 22 2.374857464413659 0 88.0 2.374857464413659 1
gene  2 14 23 3.2046318966097176 0 89.0 3.2046318966097176 1
gene  2 6 19 -1.8916640898018322 0 168.0 -1.8916640898018322 1
gene  2 2 18 -3.942050506293202 0 200.0 -3.942050506293202 1
gene  2 2 19 0.38119316347006604 0 201.0 0.38119316347006604 1
gene  2 2 20 3.7606150650745325 0 202.0 3.7606150650745325 1
gene  1 2 21 2.502695557200211 0 203.0 2.502695557200211 1
gene  2 2 22 4.136964377908512 0 204.0 4.136964377908512 0
gene  2 2 23 -0.9237879948987462 0 205.0 -0.9237879948987462 1
gene  1 7 18 1.4818777435137354 0 322.0 1.4818777435137354 1
gene  1 7 19 10.907028242937427 0 296.0 10.907028242937427 1
gene  2 7 20 3.26797245418337 0 323.0 3.26797245418337 1
gene  2 7 21 2.168254191262697 0 324.0 2.168254191262697 1
gene  2 7 22 -2.9825790058330637 0 325.0 -2.9825790058330637 1
gene  2 7 23 2.976643227446576 0 326.0 2.976643227446576 1
gene  2 8 18 -7.986538196016708 0 609.0 -7.986538196016708 1
gene  1 15 22 7.464665190779643 0 652.0 7.464665190779643 1
gene  2 9 22 2.4420633861329875 0 682.0 2.4420633861329875 1
gene  1 23 19 5.8282578486219 0 725.0 5.8282578486219 1
gene  2 22 20 1.2253204302013823 0 773.0 1.2253204302013823 1
gene  1 18 22 -3.304125533443302 0 1363.0 -3.304125533443302 0
gene  1 5 193 -0.43970547067380905 0 1391.0 -0.43970547067380905 1
gene  1 193 23 1.7443476502079638 0 1392.0 1.7443476502079638 1
gene  1 18 202 3.459165995266802 0 1462.0 3.459165995266802 1
gene  1 202 22 3.376785443563698 0 1463.0 3.376785443563698 1
gene  2 23 202 -3.268480500264342 0 1512.0 -3.268480500264342 1
gene  1 16 18 -8.595198086893927 0 1801.0 -8.595198086893927 1
gene  2 12 18 0.838786521633087 0 2022.0 0.838786521633087 1
gene  2 193 18 3.2223492850488378 0 2297.0 3.2223492850488378 1
gene  2 22 21 0.6269189074699488 0 2413.0 0.6269189074699488 1
genomeend 5
genomestart  6
trait 1 0.1 0.0 0.0 0.0 0.0 0.0 0.0 0.0 
trait 2 0.0 0.0 0.6050305774372563 0.34704842022604143 0.24898442996391412 0.4601747021887066 0.09185985089650572 0.11173830765152637 
node 1 1 1 1
node 2 1 1 1
node 3 1 1 1
node 4 1 1 1
node 5 1 1 1
node 6 1 1 1
node 7 1 1 1
node 8 1 1 1
node 9 1 1 1
node 10 1 1 1
node 11 1 1 1
node 12 1 1 1
node 13 1 1 1
node 14 1 1 1
node 15 1 1 1
node 16 1 1 1
node 17 1 1 3
node 18 1 0 2
node 19 1 0 2
node 20 1 0 2
node 21 2 0 2
node 22 1 0 2
node 23 1 0 2
node 262 1 0 0
node 385 1 0 0
gene  1 17 18 -3.3986899321354227 0 1.0 -3.3986899321354227 1
gene  1 17 19 1.7597938309248464 0 1.0 1.7597938309248464 1
gene  1 17 20 1.6287050682241397 0 1.0 1.6287050682241397 1
gene  1 17 21 -1.8332551750300368 0 1.0 -1.8332551750300368 1
gene  1 17 22 -7.295383350286427 0 1.0 -7.295383350286427 1
gene  1 17 23 -3.602939348128378 0 1.0 -3.602939348128378 1
gene  2 5 18 -5.820363720239496 0 6.0 -5.820363720239496 1
gene  1 5 19 1.0839133421440112 0 7.0 1.0839133421440112 1
gene  1 5 20 -2.211709340742428 0 8.0 -2.211709340742428 1
gene  2 5 21 -1.46620699891001 0 9.0 -1.46620699891001 1
gene  2 5 22 -1.806662250939268 0 10.0 -1.806662250939268 1
gene  1 5 23 -5.0066879465943686 0 11.0 -5.0066879465943686 1
gene  2 1 18 1.2175854948487803 0 46.0 1.2175854948487803 1
gene  2 1 19 -1.8607968869605434 0 47.0 -1.8607968869605434 1
gene  2 1 20 7.3010559756986995 0 45.0 7.3010559756986995 1
gene  2 1 21 3.6396783074084045 0 48.0 3.6396783074084045 1
gene  2 1 22 10.472534008623644 0 49.0 10.472534008623644 1
gene  1 1 23 1.3153359598924064 0 50.0 1.3153359598924064 1
gene  1 14 18 -3.0997176539237814 0 85.0 -3.0997176539237814 1
gene  2 14 19 7.85922666780171 0 86.0 7.85922666780171 1
gene  2 14 20 3.3115520872604813 0 87.0 3.3115520872604813 1
gene  2 14 21 -1.7909409948369615 0 63.0 -1.7909409948369615 1
gene  2 14 22 -1.2426075205929425 0 88.0 -1.2426075205929425 1
gene  2 14 23 -3.313736960190801 0 89.0 -3.313736960190801 1
gene  2 6 19 1.9014178828792692 0 168.0 1.9014178828792692 1
gene  2 2 18 -0.9177642499838083 0 200.0 -0.9177642499838083 1
gene  2 2 19 -1.1314362161807963 0 201.0 -1.1314362161807963 1
gene  2 2 20 -0.25741992177251216 0 202.0 -0.25741992177251216 1
gene  1 2 21 10.050631221212143 0 203.0 10.050631221212143 1
gene  2 2 22 1.1358975454541644 0 204.0 1.1358975454541644 1
gene  2 2 23 3.267581042235793 0 205.0 3.267581042235793 1
gene  1 7 18 -1.8263509962170308 0 322.0 -1.8263509962170308 1
gene  1 7 19 0.43544208786815686 0 296.0 0.43544208786815686 1
gene  2 7 20 0.6090644104930135 0 323.0 0.6090644104930135 1
gene  2 7 21 4.9498578764540895 0 324.0 4.9498578764540895 1
gene  2 7 22 -0.981171041517091 0 325.0 -0.981171041517091 1
gene  2 7 23 1.1521563299950444 0 326.0 1.1521563299950444 1
gene  2 3 18 -2.916815234425057 0 1228.0 -2.916815234425057 1
gene  1 3 19 -0.6201593101373306 0 1229.0 -0.6201593101373306 1
gene  2 3 20 -2.9602051423911413 0 1230.0 -2.9602051423911413 1
gene  1 3 21 4.169306516678708 0 1231.0 4.169306516678708 1
gene  2 3 22 3.1971393261429277 0 1232.0 3.1971393261429277 1
gene  2 3 23 8.237496863841141 0 1233.0 8.237496863841141 1
gene  2 15 18 -0.00847454115245172 0 1409.0 -0.00847454115245172 1
gene  1 15 19 5.445796087191999 0 1410.0 5.445796087191999 1
gene  1 15 20 -8.155484710296074 0 1411.0 -8.155484710296074 1
gene  1 15 21 -0.6289829286113647 0 1412.0 -0.6289829286113647 1
gene  2 15 22 2.1500834018099666 0 1413.0 2.1500834018099666 1
gene  1 15 23 2.3670235216103443 0 1414.0 2.3670235216103443 1
gene  1 12 19 10.02090025457864 0 1447.0 10.02090025457864 1
gene  1 15 262 0.10085838740569275 0 2019.0 0.10085838740569275 1
gene  1 262 19 1.1511928104849045 0 2020.0 1.1511928104849045 1
gene  1 262 20 -6.236902898920772 0 2842.0 -6.236902898920772 1
gene  2 2 385 1.0 0 2893.0 1.0 1
gene  2 385 19 -8.006613330146934 0 2894.0 -8.006613330146934 1
genomeend 6
genomestart  7
trait 1 0.1 0.0 0.0 0.0 0.0 0.0 0.0 0.0 
trait 2 0.0 0.0 0.6050305774372563 0.34704842022604143 0.24898442996391412 0.4601747021887066 0.09185985089650572 0.11173830765152637 
node 1 1 1 1
node 2 1 1 1
node 3 1 1 1
node 4 1 1 1
node 5 1 1 1
node 6 1 1 1
node 7 1 1 1
node 8 1 1 1
node 9 1 1 1
node 10 1 1 1
node 11 1 1 1
node 12 1 1 1
node 13 1 1 1
node 14 1 1 1
node 15 1 1 1
node 16 1 1 1
node 17 1 1 3
node 18 1 0 2
node 19 1 0 2
node 20 1 0 2
node 21 2 0 2
node 22 1 0 2
node 23 1 0 2
node 262 1 0 0
node 385 1 0 0
gene  1 17 18 -3.414836650877498 0 1.0 -3.414836650877498 1
gene  1 17 19 1.8610402923956322 0 1.0 1.8610402923956322 1
gene  1 17 20 1.194484825452308 0 1.0 1.194484825452308 1
gene  1 17 21 -3.8445550639898105 0 1.0 -3.8445550639898105 1
gene  1 17 22 -8.06292381004196 0 1.0 -8.06292381004196 1
gene  1 17 23 -4.732073522098895 0 1.0 -4.732073522098895 1
gene  2 5 18 -3.7983693636143654 0 6.0 -3.7983693636143654 1
gene  1 5 19 -1.1805302726060138 0 7.0 -1.1805302726060138 1
gene  1 5 20 -0.7387053646796593 0 8.0 -0.7387053646796593 1
gene  2 5 21 -3.1277666008104603 0 9.0 -3.1277666008104603 1
gene  2 5 22 -2.5970744483835744 0 10.0 -2.5970744483835744 1
gene  1 5 23 -3.8933988628841876 0 11.0 -3.8933988628841876 1
gene  2 1 18 2.3162028659198346 0 46.0 2.3162028659198346 1
gene  2 1 19 -0.6210858807428967 0 47.0 -0.6210858807428967 1
gene  2 1 20 9.136545898757955 0 45.0 9.136545898757955 1
gene  2 1 21 4.092611298658328 0 48.0 4.092611298658328 1
gene  2 1 22 11.933954105328915 0 49.0 11.933954105328915 1
gene  1 1 23 3.1378299035826958 0 50.0 3.1378299035826958 1
gene  1 14 18 -5.503213394097163 0 85.0 -5.503213394097163 1
gene  2 14 19 6.9722680920967965 0 86.0 6.9722680920967965 1
gene  2 14 20 2.1671732725127892 0 87.0 2.1671732725127892 1
gene  2 14 21 -3.3829988724359765 0 63.0 -3.3829988724359765 1
gene  2 14 22 -1.5200460196603838 0 88.0 -1.5200460196603838 1
gene  2 14 23 -2.2622007254343686 0 89.0 -2.2622007254343686 1
gene  2 6 19 4.315058028054927 0 168.0 4.315058028054927 1
gene  2 2 18 -2.8917442137066782 0 200.0 -2.8917442137066782 1
gene  2 2 19 0.9560272591911718 0 201.0 0.9560272591911718 1
gene  2 2 20 -2.116951590478116 0 202.0 -2.116951590478116 1
gene  1 2 21 8.700622301652354 0 203.0 8.700622301652354 1
gene  2 2 22 2.3694874924800358 0 204.0 2.3694874924800358 1
gene  2 2 23 2.1951256025348953 0 205.0 2.1951256025348953 1
gene  1 7 18 -2.2815612904069287 0 322.0 -2.2815612904069287 1
gene  1 7 19 -0.7560077896471356 0 296.0 -0.7560077896471356 1
gene  2 7 20 -0.6098276338245777 0 323.0 -0.6098276338245777 1
gene  2 7 21 3.036511348060101 0 324.0 3.036511348060101 1
gene  2 7 22 -0.9839728665851705 0 325.0 -0.9839728665851705 1
gene  2 7 23 1.6574369849529447 0 326.0 1.6574369849529447 1
gene  2 3 18 -0.5694647945656217 0 1228.0 -0.5694647945656217 1
gene  1 3 19 -0.015075521594784758 0 1229.0 -0.015075521594784758 1
gene  2 3 20 -0.6087035114495905 0 1230.0 -0.6087035114495905 1
gene  1 3 21 2.7039599376983765 0 1231.0 2.7039599376983765 1
gene  2 3 22 4.339366398223801 0 1232.0 4.339366398223801 1
gene  2 3 23 9.365284480653177 0 1233.0 9.365284480653177 1
gene  2 15 18 1.4612016033391373 0 1409.0 1.4612016033391373 1
gene  1 15 19 5.742842444591639 0 1410.0 5.742842444591639 1
gene  1 15 20 -8.16859405651285 0 1411.0 -8.16859405651285 1
gene  1 15 21 0.9590520855069812 0 1412.0 0.9590520855069812 1
gene  2 15 22 0.11211569817411698 0 1413.0 0.11211569817411698 1
gene  1 15 23 1.007977062843954 0 1414.0 1.007977062843954 1
gene  1 12 19 10.02090025457864 0 1447.0 10.02090025457864 1
gene  1 15 262 -0.013815621074376006 0 2019.0 -0.013815621074376006 1
gene  1 262 19 -0.43709713026215513 0 2020.0 -0.43709713026215513 1
gene  1 262 20 -5.477327058192961 0 2842.0 -5.477327058192961 1
gene  2 2 385 0.180575835968664 0 2893.0 0.180575835968664 1
gene  2 385 19 -7.44464489466459 0 2894.0 -7.44464489466459 1
genomeend 7
genomestart  8
trait 1 0.1 0.0 0.0 0.0 0.0 0.0 0.0 0.0 
trait 2 0.0 0.0 0.6050305774372563 0.34704842022604143 0.24898442996391412 0.4601747021887066 0.09185985089650572 0.11173830765152637 
node 1 1 1 1
node 2 1 1 1
node 3 1 1 1
node 4 1 1 1
node 5 1 1 1
node 6 1 1 1
node 7 1 1 1
node 8 1 1 1
node 9 1 1 1
node 10 1 1 1
node 11 1 1 1
node 12 1 1 1
node 13 1 1 1
node 14 1 1 1
node 15 1 1 1
node 16 1 1 1
node 17 1 1 3
node 18 1 0 2
node 19 1 0 2
node 20 1 0 2
node 21 2 0 2
node 22 1 0 2
node 23 1 0 2
node 262 1 0 0
node 385 1 0 0
gene  1 17 18 -5.683266621205753 0 1.0 -5.683266621205753 1
gene  1 17 19 0.8599160416070658 0 1.0 0.8599160416070658 1
gene  1 17 20 4.11222449309261 0 1.0 4.11222449309261 1
gene  1 17 21 -2.0829440269554507 0 1.0 -2.0829440269554507 1
gene  1 17 22 -8.487434474769403 0 1.0 -8.487434474769403 1
gene  1 17 23 -4.515732726745288 0 1.0 -4.515732726745288 1
gene  2 5 18 -6.072547935681546 0 6.0 -6.072547935681546 1
gene  1 5 19 3.5069510532730765 0 7.0 3.5069510532730765 1
gene  1 5 20 -3.4755407992879426 0 8.0 -3.4755407992879426 1
gene  2 5 21 0.36412531881117727 0 9.0 0.36412531881117727 1
gene  2 5 22 -2.686014416869246 0 10.0 -2.686014416869246 1
gene  1 5 23 -2.8810978939482443 0 11.0 -2.8810978939482443 1
gene  2 1 18 1.6800547360408944 0 46.0 1.6800547360408944 1
gene  2 1 19 -1.991017896785481 0 47.0 -1.991017896785481 1
gene  2 1 20 9.157077623557452 0 45.0 9.157077623557452 1
gene  2 1 21 5.626160594236398 0 48.0 5.626160594236398 1
gene  2 1 22 9.584730903663814 0 49.0 9.584730903663814 1
gene  1 1 23 -1.0358621065070974 0 50.0 -1.0358621065070974 1
gene  1 14 18 -1.463397554688691 0 85.0 -1.463397554688691 1
gene  2 14 19 6.067977350368242 0 86.0 6.067977350368242 1
gene  2 14 20 2.1864808565040645 0 87.0 2.1864808565040645 1
gene  2 14 21 -1.4538998511407533 0 63.0 -1.4538998511407533 1
gene  2 14 22 -2.5763952627807294 0 88.0 -2.5763952627807294 1
gene  2 14 23 -1.480268402113777 0 89.0 -1.480268402113777 1
gene  2 6 19 1.1232329492192288 0 168.0 1.1232329492192288 1
gene  2 2 18 1.3628545076184468 0 200.0 1.3628545076184468 1
gene  2 2 19 0.12473729371441511 0 201.0 0.12473729371441511 1
gene  2 2 20 -1.6197370455861337 0 202.0 -1.6197370455861337 1
gene  1 2 21 9.619188733506379 0 203.0 9.619188733506379 1
gene  2 2 22 3.326052286188933 0 204.0 3.326052286188933 1
gene  2 2 23 2.763005511134157 0 205.0 2.763005511134157 1
gene  1 7 18 -3.5857307867533423 0 322.0 -3.5857307867533423 1
gene  1 7 19 -1.94027210929888 0 296.0 -1.94027210929888 1
gene  2 7 20 -0.4376944932651067 0 323.0 -0.4376944932651067 1
gene  2 7 21 5.087481712485804 0 324.0 5.087481712485804 1
gene  2 7 22 0.29884284407712414 0 325.0 0.29884284407712414 1
gene  2 7 23 1.8603059119902348 0 326.0 1.8603059119902348 1
gene  2 3 18 -1.6885195660483145 0 1228.0 -1.6885195660483145 1
gene  1 3 19 -2.8812350400165156 0 1229.0 -2.8812350400165156 1
gene  2 3 20 -5.226101603357213 0 1230.0 -5.226101603357213 1
gene  1 3 21 5.930118584291453 0 1231.0 5.930118584291453 1
gene  2 3 22 3.7772986449494934 0 1232.0 3.7772986449494934 1
gene  2 3 23 10.661837712573398 0 1233.0 10.661837712573398 1
gene  2 15 18 -2.442831937782868 0 1409.0 -2.442831937782868 1
gene  1 15 19 5.045959572426293 0 1410.0 5.045959572426293 1
gene  1 15 20 -10.052265617743092 0 1411.0 -10.052265617743092 1
gene  1 15 21 -0.6984771450440735 0 1412.0 -0.6984771450440735 1
gene  2 15 22 0.27582615969567437 0 1413.0 0.27582615969567437 1
gene  1 15 23 2.3670235216103443 0 1414.0 2.3670235216103443 1
gene  1 12 19 9.369823994258496 0 1447.0 9.369823994258496 1
gene  1 15 262 0.18794881526081958 0 2019.0 0.18794881526081958 1
gene  1 262 19 1.1511928104849045 0 2020.0 1.1511928104849045 1
gene  1 262 20 -4.484687763703759 0 2842.0 -4.484687763703759 1
gene  2 2 385 1.9453917560401905 0 2893.0 1.9453917560401905 1
gene  2 385 19 -1.8326352464211815 0 2894.0 -1.8326352464211815 1
genomeend 8
genomestart  9
trait 1 0.1 0.0 0.0 0.0 0.0 0.0 0.0 0.0 
trait 2 0.0 0.0 0.6050305774372563 0.34704842022604143 0.24898442996391412 0.4601747021887066 0.09185985089650572 0.11173830765152637 
node 1 1 1 1
node 2 1 1 1
node 3 1 1 1
node 4 1 1 1
node 5 1 1 1
node 6 1 1 1
node 7 1 1 1
node 8 1 1 1
node 9 1 1 1
node 10 1 1 1
node 11 1 1 1
node 12 1 1 1
node 13 1 1 1
node 14 1 1 1
node 15 1 1 1
node 16 1 1 1
node 17 1 1 3
node 18 1 0 2
node 19 1 0 2
node 20 1 0 2
node 21 2 0 2
node 22 1 0 2
node 23 1 0 2
node 262 1 0 0
node 385 1 0 0
gene  1 17 18 1.8474539785270134 0 1.0 1.8474539785270134 1
gene  1 17 19 -0.5464710378105031 0 1.0 -0.5464710378105031 1
gene  1 17 20 2.9788559226729374 0 1.0 2.9788559226729374 1
gene  1 17 21 -1.8332551750300368 0 1.0 -1.8332551750300368 1
gene  1 17 22 0.029816580102242918 0 1.0 0.029816580102242918 1
gene  1 17 23 -2.432936504077739 0 1.0 -2.432936504077739 1
gene  2 5 18 -8.318393291140882 0 6.0 -8.318393291140882 1
gene  1 5 19 0.10435249829988236 0 7.0 0.10435249829988236 1
gene  1 5 20 -3.8671467625261124 0 8.0 -3.8671467625261124 1
gene  2 5 21 0.7838491214480632 0 9.0 0.7838491214480632 1
gene  2 5 22 -1.9708772070478848 0 10.0 -1.9708772070478848 1
gene  1 5 23 -1.5169408826004362 0 11.0 -1.5169408826004362 1
gene  2 1 18 1.2175854948487803 0 46.0 1.2175854948487803 1
gene  2 1 19 -3.443682951399463 0 47.0 -3.443682951399463 1
gene  2 1 20 7.3010559756986995 0 45.0 7.3010559756986995 1
gene  2 1 21 4.884695306370721 0 48.0 4.884695306370721 1
gene  2 1 22 12.933055681911291 0 49.0 12.933055681911291 1
gene  1 1 23 0.5320505739461057 0 50.0 0.5320505739461057 1
gene  1 14 18 -3.9307317763269687 0 85.0 -3.9307317763269687 1
gene  2 14 19 2.4986770698288394 0 86.0 2.4986770698288394 1
gene  2 14 20 2.128688769568397 0 87.0 2.128688769568397 1
gene  2 14 21 -0.2115008695004248 0 63.0 -0.2115008695004248 1
gene  2 14 22 -2.759194450453669 0 88.0 -2.759194450453669 1
gene  2 14 23 -0.9065438993010373 0 89.0 -0.9065438993010373 1
gene  2 6 19 1.7866872282669986 0 168.0 1.7866872282669986 1
gene  2 2 18 -2.6049108460679364 0 200.0 -2.6049108460679364 1
gene  2 2 19 -0.12483558779645826 0 201.0 -0.12483558779645826 1
gene  2 2 20 -0.9168645878414329 0 202.0 -0.9168645878414329 1
gene  1 2 21 9.612788291668563 0 203.0 9.612788291668563 1
gene  2 2 22 -1.0301295683576912 0 204.0 -1.0301295683576912 1
gene  2 2 23 2.618432575472565 0 205.0 2.618432575472565 1
gene  1 7 18 0.4830413058045133 0 322.0 0.4830413058045133 1
gene  1 7 19 0.9081109831077485 0 296.0 0.9081109831077485 1
gene  2 7 20 2.1861314576964554 0 323.0 2.1861314576964554 1
gene  2 7 21 6.295181594829186 0 324.0 6.295181594829186 1
gene  2 7 22 -0.7764157263043823 0 325.0 -0.7764157263043823 1
gene  2 7 23 0.7556406750926403 0 326.0 0.7556406750926403 1
gene  2 3 18 -2.8139854994628086 0 1228.0 -2.8139854994628086 1
gene  1 3 19 1.3940358386600238 0 1229.0 1.3940358386600238 1
gene  2 3 20 -3.232884385380604 0 1230.0 -3.232884385380604 1
gene  1 3 21 5.738688541778943 0 1231.0 5.738688541778943 1
gene  2 3 22 2.4579908355763496 0 1232.0 2.4579908355763496 1
gene  2 3 23 0.7109167081776566 0 1233.0 0.7109167081776566 1
gene  2 15 18 0.5700540800561621 0 1409.0 0.5700540800561621 1
gene  1 15 19 3.3615071029782664 0 1410.0 3.3615071029782664 1
gene  1 15 20 0.38737209800472433 0 1411.0 0.38737209800472433 1
gene  1 15 21 0.72165917668039 0 1412.0 0.72165917668039 1
gene  2 15 22 2.1500834018099666 0 1413.0 2.1500834018099666 1
gene  1 15 23 3.4516975780793215 0 1414.0 3.4516975780793215 1
gene  1 12 19 11.266660235930118 0 1447.0 11.266660235930118 1
gene  1 15 262 -0.9467745130485321 0 2019.0 -0.9467745130485321 1
gene  1 262 19 2.023389878574349 0 2020.0 2.023389878574349 1
gene  1 262 20 -6.525069315212221 0 2842.0 -6.525069315212221 1
gene  2 2 385 0.426896876441736 0 2893.0 0.426896876441736 1
gene  2 385 19 -5.560381727883041 0 2894.0 -5.560381727883041 1
genomeend 9
genomestart  10
trait 1 0.1 0.0 0.0 0.0 0.0 0.0 0.0 0.0 
trait 2 0.0 0.0 0.6050305774372563 0.34704842022604143 0.24898442996391412 0.4601747021887066 0.09185985089650572 0.11173830765152637 
node 1 1 1 1
node 2 1 1 1
node 3 1 1 1
node 4 1 1 1
node 5 1 1 1
node 6 1 1 1
node 7 1 1 1
node 8 1 1 1
node 9 1 1 1
node 10 1 1 1
node 11 1 1 1
node 12 1 1 1
node 13 1 1 1
node 14 1 1 1
node 15 1 1 1
node 16 1 1 1
node 17 1 1 3
node 18 1 0 2
node 19 1 0 2
node 20 1 0 2
node 21 2 0 2
node 22 1 0 2
node 23 1 0 2
node 262 1 0 0
node 385 1 0 0
gene  1 17 18 -4.566723900509569 0 1.0 -4.566723900509569 1
gene  1 17 19 2.445001855169609 0 1.0 2.445001855169609 1
gene  1 17 20 1.1193739035572423 0 1.0 1.1193739035572423 1
gene  1 17 21 -3.0152839389037247 0 1.0 -3.0152839389037247 1
gene  1 17 22 -9.544805585971849 0 1.0 -9.544805585971849 1
gene  1 17 23 -1.3274234468948802 0 1.0 -1.3274234468948802 1
gene  2 5 18 -3.915012912405587 0 6.0 -3.915012912405587 1
gene  1 5 19 3.0079002227660254 0 7.0 3.0079002227660254 1
gene  1 5 20 -1.3397729663441005 0 8.0 -1.3397729663441005 1
gene  2 5 21 -1.4734642373953062 0 9.0 -1.4734642373953062 1
gene  2 5 22 -3.5144554739310383 0 10.0 -3.5144554739310383 1
gene  1 5 23 -6.336746194406214 0 11.0 -6.336746194406214 1
gene  2 1 18 -0.6112008891298295 0 46.0 -0.6112008891298295 1
gene  2 1 19 -3.3721977703518347 0 47.0 -3.3721977703518347 1
gene  2 1 20 8.462395773011941 0 45.0 8.462395773011941 1
gene  2 1 21 4.564882695251533 0 48.0 4.564882695251533 1
gene  2 1 22 10.641133857332374 0 49.0 10.641133857332374 1
gene  1 1 23 -0.8032942781323309 0 50.0 -0.8032942781323309 1
gene  1 14 18 -5.32609461008301 0 85.0 -5.32609461008301 1
gene  2 14 19 5.902088418089132 0 86.0 5.902088418089132 1
gene  2 14 20 1.9259658507666186 0 87.0 1.9259658507666186 1
gene  2 14 21 -0.476436415306809 0 63.0 -0.476436415306809 1
gene  2 14 22 -0.9341316992692201 0 88.0 -0.9341316992692201 1
gene  2 14 23 -3.856017081632824 0 89.0 -3.856017081632824 1
gene  2 6 19 3.046064244033298 0 168.0 3.046064244033298 1
gene  2 2 18 -1.5298899470681584 0 200.0 -1.5298899470681584 1
gene  2 2 19 -3.6302102529776685 0 201.0 -3.6302102529776685 1
gene  2 2 20 -0.6628913147013955 0 202.0 -0.6628913147013955 1
gene  1 2 21 12.208934652568283 0 203.0 12.208934652568283 1
gene  2 2 22 -1.272272939620335 0 204.0 -1.272272939620335 1
gene  2 2 23 2.9947003381127715 0 205.0 2.9947003381127715 1
gene  1 7 18 -3.924166173564263 0 322.0 -3.924166173564263 1
gene  1 7 19 1.5775383456061147 0 296.0 1.5775383456061147 1
gene  2 7 20 -0.23756838108189704 0 323.0 -0.23756838108189704 1
gene  2 7 21 4.38818107757795 0 324.0 4.38818107757795 1
gene  2 7 22 0.41630972938717037 0 325.0 0.41630972938717037 1
gene  2 7 23 2.1130611366899856 0 326.0 2.1130611366899856 1
gene  2 3 18 -3.1030689832661706 0 1228.0 -3.1030689832661706 1
gene  1 3 19 -2.9231258125811617 0 1229.0 -2.9231258125811617 1
gene  2 3 20 -2.5719773266123265 0 1230.0 -2.5719773266123265 1
gene  1 3 21 5.882639529850564 0 1231.0 5.882639529850564 1
gene  2 3 22 4.0883180188924335 0 1232.0 4.0883180188924335 1
gene  2 3 23 8.160305987393384 0 1233.0 8.160305987393384 1
gene  2 15 18 -2.1974889595024276 0 1409.0 -2.1974889595024276 1
gene  1 15 19 5.389857118651298 0 1410.0 5.389857118651298 1
gene  1 15 20 -8.155484710296074 0 1411.0 -8.155484710296074 1
gene  1 15 21 -0.5009948693678365 0 1412.0 -0.5009948693678365 1
gene  2 15 22 0.04805169596899317 0 1413.0 0.04805169596899317 1
gene  1 15 23 2.3670235216103443 0 1414.0 2.3670235216103443 1
gene  1 12 19 11.209167245443034 0 1447.0 11.209167245443034 1
gene  1 15 262 -0.968894558693236 0 2019.0 -0.968894558693236 1
gene  1 262 19 1.9835236030837213 0 2020.0 1.9835236030837213 1
gene  1 262 20 -5.897943003317355 0 2842.0 -5.897943003317355 1
gene  2 2 385 2.959907083748077 0 2893.0 2.959907083748077 1
gene  2 385 19 -8.006613330146934 0 2894.0 -8.006613330146934 1
genomeend 10
genomestart  11
trait 1 0.09830487535921437 0.0 0.13815469124306032 0.13165999646808663 0.010988491035646239 0.0 0.0 0.0082833896082774 
trait 2 0.05 0.039364189025085164 0.5858629319963384 0.0 0.0 0.0 0.0 0.0 
node 1 2 1 1
node 2 1 1 1
node 3 1 1 1
node 4 1 1 1
node 5 1 1 1
node 6 1 1 1
node 7 1 1 1
node 8 1 1 1
node 9 1 1 1
node 10 1 1 1
node 11 1 1 1
node 12 1 1 1
node 13 1 1 1
node 14 1 1 1
node 15 1 1 1
node 16 1 1 1
node 17 1 1 3
node 18 1 0 2
node 19 1 0 2
node 20 1 0 2
node 21 1 0 2
node 22 1 0 2
node 23 1 0 2
node 32 1 0 0
node 91 1 0 0
gene  1 17 18 -1.1454556632599027 0 1.0 -1.1454556632599027 1
gene  1 17 19 0.06500377408135227 0 1.0 0.06500377408135227 1
gene  1 17 20 -3.54582062458476 0 1.0 -3.54582062458476 1
gene  1 17 21 -3.1976490784391056 0 1.0 -3.1976490784391056 1
gene  1 17 22 -0.16809214420518548 0 1.0 -0.16809214420518548 1
gene  2 17 23 0.5875486867173476 0 1.0 0.5875486867173476 1
gene  2 5 18 3.442244902723652 0 6.0 3.442244902723652 1
gene  1 5 19 8.909291973703331 0 7.0 8.909291973703331 1
gene  1 5 20 -1.6569137927966393 0 8.0 -1.6569137927966393 1
gene  2 5 21 -1.550226410217941 0 9.0 -1.550226410217941 1
gene  2 5 22 -7.143545999106473 0 10.0 -7.143545999106473 1
gene  1 5 23 2.081096717395213 0 11.0 2.081096717395213 1
gene  2 5 32 -4.583261055490555 0 115.0 -4.583261055490555 1
gene  2 32 18 -0.7038060073951444 0 116.0 -0.7038060073951444 0
gene  1 13 22 0.8799594533403482 0 131.0 0.8799594533403482 1
gene  1 2 18 3.8805349522673636 0 172.0 3.8805349522673636 1
gene  1 2 19 -1.359638154629161 0 161.0 -1.359638154629161 1
gene  1 2 20 -1.4077942340297025 0 173.0 -1.4077942340297025 1
gene  1 2 21 -1.8757545317660016 0 174.0 -1.8757545317660016 1
gene  1 2 22 -2.3998515721990303 0 175.0 -2.3998515721990303 1
gene  2 2 23 -0.5219631792016031 0 176.0 -0.5219631792016031 1
gene  2 7 18 -2.2859771741473 0 366.0 -2.2859771741473 1
gene  2 7 19 -0.8885454643735493 0 354.0 -0.8885454643735493 1
gene  2 7 20 -1.9428217541191646 0 349.0 -1.9428217541191646 1
gene  1 7 21 10.620130043013475 0 367.0 10.620130043013475 1
gene  1 7 22 0.5977458830876279 0 368.0 0.5977458830876279 1
gene  2 7 23 1.7962223057661921 0 369.0 1.7962223057661921 1
gene  2 13 32 3.4096942422536656 0 528.0 3.4096942422536656 1
gene  2 11 22 -0.14403303416348368 0 574.0 -0.14403303416348368 1
gene  2 32 91 1.676921550382172 0 611.0 1.676921550382172 1
gene  2 91 18 4.586955516117984 0 612.0 4.586955516117984 1
gene  1 15 18 -2.411918933989035 0 1747.0 -2.411918933989035 1
gene  1 15 19 -4.3591925900748 0 1748.0 -4.3591925900748 1
gene  1 15 20 -0.17015232113270995 0 1749.0 -0.17015232113270995 1
gene  1 15 21 -4.374378151446478 0 1750.0 -4.374378151446478 1
gene  1 15 22 2.450399899167025 0 1751.0 2.450399899167025 1
gene  2 15 23 -1.8287702863428181 0 1752.0 -1.8287702863428181 1
genomeend 11
genomestart  12
trait 1 0.1 0.3844631846871838 0.13143482326866657 0.0 0.0 0.0 0.0 0.0 
trait 2 0.1 0.3254626813152547 0.8309365169181524 0.08921075280210866 0.0 0.7614440107356902 0.8970328002726838 0.0 
node 1 1 1 1
node 2 1 1 1
node 3 1 1 1
node 4 1 1 1
node 5 1 1 1
node 6 1 1 1
node 7 1 1 1
node 8 1 1 1
node 9 1 1 1
node 10 1 1 1
node 11 1 1 1
node 12 1 1 1
node 13 1 1 1
node 14 1 1 1
node 15 1 1 1
node 16 1 1 1
node 17 1 1 3
node 18 1 0 2
node 19 1 0 2
node 20 1 0 2
node 21 2 0 2
node 22 1 0 2
node 23 1 0 2
node 193 1 0 0
node 338 1 0 0
gene  1 17 18 -2.0268089728833534 0 1.0 -2.0268089728833534 1
gene  1 17 19 4.3213539389792235 0 1.0 4.3213539389792235 1
gene  1 17 20 0.8459743330315261 0 1.0 0.8459743330315261 1
gene  1 17 21 1.8675316721138842 0 1.0 1.8675316721138842 1
gene  1 17 22 -4.2861504533789 0 1.0 -4.2861504533789 1
gene  1 17 23 4.209795090969182 0 1.0 4.209795090969182 1
gene  2 5 18 -9.1441278034415 0 6.0 -9.1441278034415 1
gene  1 5 19 -6.962103398980439 0 7.0 -6.962103398980439 1
gene  1 5 20 -0.3739288178581195 0 8.0 -0.3739288178581195 1
gene  2 5 21 -2.9845549046121644 0 9.0 -2.9845549046121644 1
gene  2 5 22 1.6077494380738027 0 10.0 1.6077494380738027 1
gene  1 5 23 -2.237040385354511 0 11.0 -2.237040385354511 1
gene  2 1 18 -3.989855335689162 0 46.0 -3.989855335689162 1
gene  2 1 19 2.1990234561662656 0 47.0 2.1990234561662656 1
gene  2 1 20 0.19097793295498766 0 45.0 0.19097793295498766 1
gene  2 1 21 0.5416402582053284 0 48.0 0.5416402582053284 1
gene  1 1 22 3.5344824148954346 0 49.0 3.5344824148954346 1
gene  1 1 23 -7.352737761416387 0 50.0 -7.352737761416387 1
gene  1 14 18 -7.0635108463205345 0 85.0 -7.0635108463205345 1
gene  2 14 19 4.777264174726094 0 86.0 4.777264174726094 1
gene  2 14 20 -2.8149550911992454 0 87.0 -2.8149550911992454 1
gene  2 14 21 -6.121814429449049 0 63.0 -6.121814429449049 1
gene  2 14 22 -2.417548448942101 0 88.0 -2.417548448942101 1
gene  1 14 23 4.259747322607288 0 89.0 4.259747322607288 1
gene  2 6 19 3.4461438425045516 0 168.0 3.4461438425045516 1
gene  2 2 18 -2.8816519201109685 0 200.0 -2.8816519201109685 1
gene  2 2 19 4.925719848503744 0 201.0 4.925719848503744 1
gene  2 2 20 -2.5554736812288517 0 202.0 -2.5554736812288517 1
gene  1 2 21 -0.512047228208758 0 203.0 -0.512047228208758 1
gene  2 2 22 4.720392548922286 0 204.0 4.720392548922286 1
gene  2 2 23 3.5182316512292173 0 205.0 3.5182316512292173 1
gene  1 7 18 0.1350965911800298 0 322.0 0.1350965911800298 1
gene  1 7 19 10.626477125559171 0 296.0 10.626477125559171 1
gene  2 7 20 -11.200546615450852 0 323.0 -11.200546615450852 1
gene  2 7 21 -0.3759930565017382 0 324.0 -0.3759930565017382 1
gene  2 7 22 -0.2685390881229299 0 325.0 -0.2685390881229299 1
gene  2 7 23 -2.75326350260948 0 326.0 -2.75326350260948 1
gene  2 8 18 2.0142114306804038 0 609.0 2.0142114306804038 1
gene  1 15 22 10.329999047249498 0 652.0 10.329999047249498 1
gene  2 9 22 2.779261548892525 0 682.0 2.779261548892525 1
gene  1 23 19 5.35263815414791 0 725.0 5.35263815414791 1
gene  2 22 20 2.525123055921558 0 773.0 2.525123055921558 1
gene  1 18 22 -4.889323825968236 0 1363.0 -4.889323825968236 1
gene  1 5 193 2.6890613998536526 0 1391.0 2.6890613998536526 1
gene  1 193 23 0.4206632502913743 0 1392.0 0.4206632502913743 1
gene  2 4 18 0.8601651951196561 0 1457.0 0.8601651951196561 1
gene  2 4 19 3.710054978839496 0 1458.0 3.710054978839496 1
gene  1 4 20 -0.9625372503573787 0 1448.0 -0.9625372503573787 1
gene  1 4 21 0.6605402446572566 0 1459.0 0.6605402446572566 1
gene  2 4 22 -2.805840657078057 0 1460.0 -2.805840657078057 1
gene  2 4 23 0.11305357608473843 0 1461.0 0.11305357608473843 1
gene  1 15 18 -2.0457909278238238 0 1889.0 -2.0457909278238238 1
gene  2 15 19 2.359219963239078 0 1890.0 2.359219963239078 1
gene  1 15 20 -2.8226745362645187 0 1891.0 -2.8226745362645187 1
gene  1 15 21 0.969954003937683 0 1892.0 0.969954003937683 1
gene  1 15 23 1.8784194898440656 0 1893.0 1.8784194898440656 1
gene  2 2 338 0.9495799539591971 0 2532.0 0.9495799539591971 1
gene  2 338 19 2.8063135983594187 0 2533.0 2.8063135983594187 1
genomeend 12
genomestart  13
trait 1 0.1 0.3844631846871838 0.13143482326866657 0.0 0.0 0.0 0.0 0.0 
trait 2 0.1 0.3254626813152547 0.8309365169181524 0.08921075280210866 0.0 0.7614440107356902 0.8970328002726838 0.0 
node 1 1 1 1
node 2 1 1 1
node 3 1 1 1
node 4 1 1 1
node 5 1 1 1
node 6 1 1 1
node 7 1 1 1
node 8 1 1 1
node 9 1 1 1
node 10 1 1 1
node 11 1 1 1
node 12 1 1 1
node 13 1 1 1
node 14 1 1 1
node 15 1 1 1
node 16 1 1 1
node 17 1 1 3
node 18 1 0 2
node 19 1 0 2
node 20 1 0 2
node 21 2 0 2
node 22 1 0 2
node 23 1 0 2
node 193 1 0 0
node 338 1 0 0
gene  1 17 18 -0.44766560464356564 0 1.0 -0.44766560464356564 1
gene  1 17 19 1.8419264212721629 0 1.0 1.8419264212721629 1
gene  1 17 20 0.5897717640747931 0 1.0 0.5897717640747931 1
gene  1 17 21 1.6730259507821963 0 1.0 1.6730259507821963 1
gene  1 17 22 -5.801408793873732 0 1.0 -5.801408793873732 1
gene  1 17 23 4.809836389532534 0 1.0 4.809836389532534 1
gene  2 5 18 -7.386929661739993 0 6.0 -7.386929661739993 1
gene  1 5 19 -6.902065106761956 0 7.0 -6.902065106761956 1
gene  1 5 20 -1.5613909373980954 0 8.0 -1.5613909373980954 1
gene  2 5 21 -2.8628352421079235 0 9.0 -2.8628352421079235 1
gene  2 5 22 -0.4333299030966806 0 10.0 -0.4333299030966806 1
gene  1 5 23 -2.9027242919902 0 11.0 -2.9027242919902 1
gene  2 1 18 -4.856378296870645 0 46.0 -4.856378296870645 1
gene  2 1 19 -0.020218860510643366 0 47.0 -0.020218860510643366 1
gene  2 1 20 1.5233925869037663 0 45.0 1.5233925869037663 1
gene  2 1 21 -1.06554075667586 0 48.0 -1.06554075667586 1
gene  1 1 22 3.718284934852945 0 49.0 3.718284934852945 1
gene  1 1 23 -5.435787438838576 0 50.0 -5.435787438838576 1
gene  1 14 18 -5.581145040216015 0 85.0 -5.581145040216015 1
gene  2 14 19 2.4028397649188595 0 86.0 2.4028397649188595 1
gene  2 14 20 -2.61535324323974 0 87.0 -2.61535324323974 1
gene  2 14 21 -4.481518421704117 0 63.0 -4.481518421704117 1
gene  2 14 22 -0.8117175251512923 0 88.0 -0.8117175251512923 1
gene  1 14 23 2.947577778031941 0 89.0 2.947577778031941 1
gene  2 6 19 3.341594905762334 0 168.0 3.341594905762334 1
gene  2 2 18 -5.372425923917987 0 200.0 -5.372425923917987 1
gene  2 2 19 4.416064602368845 0 201.0 4.416064602368845 1
gene  2 2 20 -3.253864849481653 0 202.0 -3.253864849481653 1
gene  1 2 21 0.6412985463595913 0 203.0 0.6412985463595913 1
gene  2 2 22 3.7797120788162495 0 204.0 3.7797120788162495 1
gene  2 2 23 1.4451013588780914 0 205.0 1.4451013588780914 1
gene  1 7 18 0.6748555397183551 0 322.0 0.6748555397183551 1
gene  1 7 19 8.839273575215095 0 296.0 8.839273575215095 1
gene  2 7 20 -10.715188349574026 0 323.0 -10.715188349574026 1
gene  2 7 21 1.9778247147853971 0 324.0 1.9778247147853971 1
gene  2 7 22 -2.1651329807849216 0 325.0 -2.1651329807849216 1
gene  2 7 23 -2.3934236435498706 0 326.0 -2.3934236435498706 1
gene  2 8 18 2.192731581683804 0 609.0 2.192731581683804 1
gene  1 15 22 10.562479130900293 0 652.0 10.562479130900293 1
gene  2 9 22 0.8955079531325959 0 682.0 0.8955079531325959 1
gene  1 23 19 3.023445689132016 0 725.0 3.023445689132016 1
gene  2 22 20 3.7470561763124395 0 773.0 3.7470561763124395 1
gene  1 18 22 -5.200064481470234 0 1363.0 -5.200064481470234 1
gene  1 5 193 1.7140171637328674 0 1391.0 1.7140171637328674 1
gene  1 193 23 -1.2967599429121732 0 1392.0 -1.2967599429121732 1
gene  2 4 18 0.07899662903187732 0 1457.0 0.07899662903187732 1
gene  2 4 19 2.3161498103599976 0 1458.0 2.3161498103599976 1
gene  1 4 20 -0.9625372503573787 0 1448.0 -0.9625372503573787 1
gene  1 4 21 1.092241867465256 0 1459.0 1.092241867465256 1
gene  2 4 22 -1.3792958989323831 0 1460.0 -1.3792958989323831 1
gene  2 4 23 -5.314054528868441 0 1461.0 -5.314054528868441 1
gene  1 15 18 -6.44445106804007 0 1889.0 -6.44445106804007 1
gene  2 15 19 -0.8963294095157165 0 1890.0 -0.8963294095157165 1
gene  1 15 20 -2.8226745362645187 0 1891.0 -2.8226745362645187 1
gene  1 15 21 2.071399141966271 0 1892.0 2.071399141966271 1
gene  1 15 23 1.2685315362394873 0 1893.0 1.2685315362394873 1
gene  2 2 338 0.9495799539591971 0 2532.0 0.9495799539591971 1
gene  2 338 19 2.8063135983594187 0 2533.0 2.8063135983594187 1
genomeend 13
genomestart  14
trait 1 0.1 0.3844631846871838 0.13143482326866657 0.0 0.0 0.0 0.0 0.0 
trait 2 0.1 0.3254626813152547 0.8309365169181524 0.08921075280210866 0.0 0.7614440107356902 0.8970328002726838 0.0 
node 1 1 1 1
node 2 1 1 1
node 3 1 1 1
node 4 1 1 1
node 5 1 1 1
node 6 1 1 1
node 7 1 1 1
node 8 1 1 1
node 9 1 1 1
node 10 1 1 1
node 11 1 1 1
node 12 1 1 1
node 13 1 1 1
node 14 1 1 1
node 15 1 1 1
node 16 1 1 1
node 17 1 1 3
node 18 1 0 2
node 19 1 0 2
node 20 1 0 2
node 21 2 0 2
node 22 1 0 2
node 23 1 0 2
node 193 1 0 0
node 338 1 0 0
gene  1 17 18 -0.44766560464356564 0 1.0 -0.44766560464356564 1
gene  1 17 19 1.8419264212721629 0 1.0 1.8419264212721629 1
gene  1 17 20 0.5897717640747931 0 1.0 0.5897717640747931 1
gene  1 17 21 1.6730259507821963 0 1.0 1.6730259507821963 1
gene  1 17 22 -5.801408793873732 0 1.0 -5.801408793873732 1
gene  1 17 23 4.809836389532534 0 1.0 4.809836389532534 1
gene  2 5 18 -7.386929661739993 0 6.0 -7.386929661739993 1
gene  1 5 19 -6.902065106761956 0 7.0 -6.902065106761956 1
gene  1 5 20 -1.5613909373980954 0 8.0 -1.5613909373980954 1
gene  2 5 21 -2.8628352421079235 0 9.0 -2.8628352421079235 1
gene  2 5 22 -0.4333299030966806 0 10.0 -0.4333299030966806 1
gene  1 5 23 -2.9027242919902 0 11.0 -2.9027242919902 1
gene  2 1 18 -4.856378296870645 0 46.0 -4.856378296870645 1
gene  2 1 19 -0.020218860510643366 0 47.0 -0.020218860510643366 1
gene  2 1 20 1.5233925869037663 0 45.0 1.5233925869037663 1
gene  2 1 21 -1.06554075667586 0 48.0 -1.06554075667586 1
gene  1 1 22 3.718284934852945 0 49.0 3.718284934852945 1
gene  1 1 23 -5.435787438838576 0 50.0 -5.435787438838576 1
gene  1 14 18 -5.581145040216015 0 85.0 -5.581145040216015 1
gene  2 14 19 2.4028397649188595 0 86.0 2.4028397649188595 1
gene  2 14 20 -2.61535324323974 0 87.0 -2.61535324323974 1
gene  2 14 21 -4.481518421704117 0 63.0 -4.481518421704117 1
gene  2 14 22 -0.8117175251512923 0 88.0 -0.8117175251512923 1
gene  1 14 23 2.947577778031941 0 89.0 2.947577778031941 1
gene  2 6 19 3.341594905762334 0 168.0 3.341594905762334 1
gene  2 2 18 -5.372425923917987 0 200.0 -5.372425923917987 1
gene  2 2 19 4.416064602368845 0 201.0 4.416064602368845 1
gene  2 2 20 -3.253864849481653 0 202.0 -3.253864849481653 1
gene  1 2 21 0.6412985463595913 0 203.0 0.6412985463595913 1
gene  2 2 22 3.7797120788162495 0 204.0 3.7797120788162495 1
gene  2 2 23 1.4451013588780914 0 205.0 1.4451013588780914 1
gene  1 7 18 0.6748555397183551 0 322.0 0.6748555397183551 1
gene  1 7 19 8.839273575215095 0 296.0 8.839273575215095 1
gene  2 7 20 -10.715188349574026 0 323.0 -10.715188349574026 1
gene  2 7 21 1.9778247147853971 0 324.0 1.9778247147853971 1
gene  2 7 22 -2.1651329807849216 0 325.0 -2.1651329807849216 1
gene  2 7 23 -2.3934236435498706 0 326.0 -2.3934236435498706 1
gene  2 8 18 2.192731581683804 0 609.0 2.192731581683804 1
gene  1 15 22 10.562479130900293 0 652.0 10.562479130900293 1
gene  2 9 22 0.8955079531325959 0 682.0 0.8955079531325959 1
gene  1 23 19 3.023445689132016 0 725.0 3.023445689132016 1
gene  2 22 20 3.7470561763124395 0 773.0 3.7470561763124395 1
gene  1 18 22 -5.200064481470234 0 1363.0 -5.200064481470234 1
gene  1 5 193 1.7140171637328674 0 1391.0 1.7140171637328674 1
gene  1 193 23 -1.2967599429121732 0 1392.0 -1.2967599429121732 1
gene  2 4 18 0.07899662903187732 0 1457.0 0.07899662903187732 1
gene  2 4 19 2.3161498103599976 0 1458.0 2.3161498103599976 1
gene  1 4 20 -0.9625372503573787 0 1448.0 -0.9625372503573787 1
gene  1 4 21 1.092241867465256 0 1459.0 1.092241867465256 1
gene  2 4 22 -1.3792958989323831 0 1460.0 -1.3792958989323831 1
gene  2 4 23 -5.314054528868441 0 1461.0 -5.314054528868441 1
gene  1 15 18 -6.44445106804007 0 1889.0 -6.44445106804007 1
gene  2 15 19 -0.8963294095157165 0 1890.0 -0.8963294095157165 1
gene  1 15 20 -2.8226745362645187 0 1891.0 -2.8226745362645187 1
gene  1 15 21 2.071399141966271 0 1892.0 2.071399141966271 1
gene  1 15 23 1.2685315362394873 0 1893.0 1.2685315362394873 1
gene  2 2 338 0.9495799539591971 0 2532.0 0.9495799539591971 1
gene  2 338 19 2.8063135983594187 0 2533.0 2.8063135983594187 1
genomeend 14
genomestart  15
trait 1 0.1 0.3844631846871838 0.13143482326866657 0.0 0.0 0.0 0.0 0.0 
trait 2 0.1 0.3254626813152547 0.8309365169181524 0.08921075280210866 0.0 0.7614440107356902 0.8970328002726838 0.0 
node 1 1 1 1
node 2 1 1 1
node 3 1 1 1
node 4 1 1 1
node 5 1 1 1
node 6 1 1 1
node 7 1 1 1
node 8 1 1 1
node 9 1 1 1
node 10 1 1 1
node 11 1 1 1
node 12 1 1 1
node 13 1 1 1
node 14 1 1 1
node 15 1 1 1
node 16 1 1 1
node 17 1 1 3
node 18 1 0 2
node 19 1 0 2
node 20 1 0 2
node 21 2 0 2
node 22 1 0 2
node 23 1 0 2
node 193 1 0 0
node 338 1 0 0
gene  1 17 18 -0.44766560464356564 0 1.0 -0.44766560464356564 1
gene  1 17 19 0.9581314647744691 0 1.0 0.9581314647744691 1
gene  1 17 20 0.5668068587732404 0 1.0 0.5668068587732404 1
gene  1 17 21 -0.5885000569653707 0 1.0 -0.5885000569653707 1
gene  1 17 22 0.7508225355228215 0 1.0 0.7508225355228215 1
gene  1 17 23 3.6298596322439804 0 1.0 3.6298596322439804 1
gene  2 5 18 -6.878659963930901 0 6.0 -6.878659963930901 1
gene  1 5 19 -6.384383035697494 0 7.0 -6.384383035697494 1
gene  1 5 20 1.6546846587703115 0 8.0 1.6546846587703115 1
gene  2 5 21 -2.8628352421079235 0 9.0 -2.8628352421079235 1
gene  2 5 22 -2.585809425941518 0 10.0 -2.585809425941518 1
gene  1 5 23 2.076099775213001 0 11.0 2.076099775213001 1
gene  2 1 18 -6.668405395724504 0 46.0 -6.668405395724504 1
gene  2 1 19 0.5659524722750998 0 47.0 0.5659524722750998 1
gene  2 1 20 -0.5416647084157216 0 45.0 -0.5416647084157216 1
gene  2 1 21 -1.06554075667586 0 48.0 -1.06554075667586 1
gene  1 1 22 3.8340321263196473 0 49.0 3.8340321263196473 1
gene  1 1 23 2.056174141102691 0 50.0 2.056174141102691 1
gene  1 14 18 -8.034549952522838 0 85.0 -8.034549952522838 1
gene  2 14 19 3.0153414735726107 0 86.0 3.0153414735726107 1
gene  2 14 20 -2.7709130842797247 0 87.0 -2.7709130842797247 1
gene  2 14 21 -3.6074409584405256 0 63.0 -3.6074409584405256 1
gene  2 14 22 -1.6365850074647579 0 88.0 -1.6365850074647579 1
gene  1 14 23 2.641676217032543 0 89.0 2.641676217032543 1
gene  2 6 19 3.341594905762334 0 168.0 3.341594905762334 1
gene  2 2 18 -3.0540814903163778 0 200.0 -3.0540814903163778 1
gene  2 2 19 4.416064602368845 0 201.0 4.416064602368845 1
gene  2 2 20 -1.6100488035851177 0 202.0 -1.6100488035851177 1
gene  1 2 21 3.1242302214291624 0 203.0 3.1242302214291624 1
gene  2 2 22 3.7782777756496913 0 204.0 3.7782777756496913 1
gene  2 2 23 3.881041431288528 0 205.0 3.881041431288528 1
gene  1 7 18 0.14175350973034462 0 322.0 0.14175350973034462 1
gene  1 7 19 8.134030476896307 0 296.0 8.134030476896307 1
gene  2 7 20 -10.748815084963047 0 323.0 -10.748815084963047 1
gene  2 7 21 2.2577438795111755 0 324.0 2.2577438795111755 1
gene  2 7 22 -3.9753463633046877 0 325.0 -3.9753463633046877 1
gene  2 7 23 -0.9033901174743817 0 326.0 -0.9033901174743817 1
gene  2 8 18 4.129235759464662 0 609.0 4.129235759464662 1
gene  1 15 22 12.060292464803403 0 652.0 12.060292464803403 1
gene  2 9 22 2.0860328650511333 0 682.0 2.0860328650511333 1
gene  2 23 19 4.0163544447207045 0 725.0 4.0163544447207045 1
gene  2 22 20 5.040131373304694 0 773.0 5.040131373304694 1
gene  1 18 22 -5.2316762577787 0 1363.0 -5.2316762577787 1
gene  1 5 193 1.498111053144554 0 1391.0 1.498111053144554 1
gene  1 193 23 -3.4558519057945327 0 1392.0 -3.4558519057945327 1
gene  2 4 18 -1.4272157233407294 0 1457.0 -1.4272157233407294 1
gene  2 4 19 2.3161498103599976 0 1458.0 2.3161498103599976 1
gene  1 4 20 -0.35319199994200245 0 1448.0 -0.35319199994200245 1
gene  1 4 21 2.3166246259632066 0 1459.0 2.3166246259632066 1
gene  2 4 22 -2.133104982954796 0 1460.0 -2.133104982954796 1
gene  2 4 23 1.9714505826003828 0 1461.0 1.9714505826003828 1
gene  1 15 18 -8.036583712086344 0 1889.0 -8.036583712086344 1
gene  2 15 19 -0.8257427333812897 0 1890.0 -0.8257427333812897 1
gene  1 15 20 -1.3373374432205651 0 1891.0 -1.3373374432205651 1
gene  1 15 21 0.9162309348697237 0 1892.0 0.9162309348697237 1
gene  1 15 23 2.7184694348715386 0 1893.0 2.7184694348715386 1
gene  2 2 338 -1.3520108578828343 0 2532.0 -1.3520108578828343 1
gene  2 338 19 2.570705410981506 0 2533.0 2.570705410981506 1
genomeend 15
genomestart  16
trait 1 0.6315079546972572 0.5785564194251405 0.0 0.736926690721277 0.0 0.0 0.0 0.22357914015983948 
trait 2 0.1 0.0 0.8309365169181524 0.08921075280210866 0.0 0.7614440107356902 0.8970328002726838 0.0 
node 1 1 1 1
node 2 1 1 1
node 3 1 1 1
node 4 1 1 1
node 5 1 1 1
node 6 1 1 1
node 7 1 1 1
node 8 1 1 1
node 9 1 1 1
node 10 1 1 1
node 11 1 1 1
node 12 1 1 1
node 13 1 1 1
node 14 1 1 1
node 15 1 1 1
node 16 1 1 1
node 17 1 1 3
node 18 1 0 2
node 19 1 0 2
node 20 1 0 2
node 21 2 0 2
node 22 1 0 2
node 23 1 0 2
node 324 1 0 0
gene  1 17 18 -1.0237146330874904 0 1.0 -1.0237146330874904 1
gene  1 17 19 5.503513583751519 0 1.0 5.503513583751519 1
gene  1 17 20 -10.271947696956996 0 1.0 -10.271947696956996 1
gene  1 17 21 -4.122347413160579 0 1.0 -4.122347413160579 1
gene  1 17 22 -11.757035299591923 0 1.0 -11.757035299591923 1
gene  1 17 23 0.3642042240186061 0 1.0 0.3642042240186061 1
gene  2 5 18 4.718604549692879 0 6.0 4.718604549692879 1
gene  1 5 19 3.047032139643964 0 7.0 3.047032139643964 1
gene  1 5 20 -0.9484694350000065 0 8.0 -0.9484694350000065 1
gene  2 5 21 -0.9809501176948854 0 9.0 -0.9809501176948854 1
gene  2 5 22 -3.2612544219920423 0 10.0 -3.2612544219920423 1
gene  1 5 23 2.33581420619865 0 11.0 2.33581420619865 1
gene  2 1 18 -1.7254920518680859 0 46.0 -1.7254920518680859 1
gene  2 1 19 5.425996136111381 0 47.0 5.425996136111381 1
gene  2 1 20 1.4561870696231058 0 45.0 1.4561870696231058 1
gene  2 1 21 2.4050611576032734 0 48.0 2.4050611576032734 1
gene  2 1 22 -1.0997895082872493 0 49.0 -1.0997895082872493 1
gene  1 1 23 -7.393704145132358 0 50.0 -7.393704145132358 1
gene  1 14 18 -3.8060225244979424 0 85.0 -3.8060225244979424 1
gene  2 14 19 2.0542410423701227 0 86.0 2.0542410423701227 1
gene  2 14 20 5.9557737688450425 0 87.0 5.9557737688450425 1
gene  2 14 21 -9.281275069532622 0 63.0 -9.281275069532622 1
gene  2 14 22 -1.2069810314558365 0 88.0 -1.2069810314558365 1
gene  2 14 23 -10.767644042186781 0 89.0 -10.767644042186781 1
gene  2 6 19 6.807932004799041 0 168.0 6.807932004799041 1
gene  2 2 18 -0.6276772346843897 0 200.0 -0.6276772346843897 1
gene  2 2 19 -12.344649839060184 0 201.0 -12.344649839060184 1
gene  2 2 20 2.392997383200684 0 202.0 2.392997383200684 1
gene  1 2 21 2.414095629163067 0 203.0 2.414095629163067 1
gene  2 2 22 0.08751048080182539 0 204.0 0.08751048080182539 0
gene  2 2 23 -1.9462427100495625 0 205.0 -1.9462427100495625 1
gene  1 7 18 1.4869435770005026 0 322.0 1.4869435770005026 1
gene  1 7 19 -2.215832278418066 0 296.0 -2.215832278418066 1
gene  2 7 20 2.057236480250918 0 323.0 2.057236480250918 1
gene  2 7 21 8.874657740868088 0 324.0 8.874657740868088 1
gene  2 7 22 10.498562683954159 0 325.0 10.498562683954159 1
gene  2 7 23 3.2919021811857094 0 326.0 3.2919021811857094 1
gene  2 8 18 -8.292712667114365 0 609.0 -8.292712667114365 1
gene  1 15 22 13.433117976043864 0 652.0 13.433117976043864 1
gene  2 9 22 0.7210202072397911 0 682.0 0.7210202072397911 1
gene  1 23 19 -1.4066996393704172 0 725.0 -1.4066996393704172 1
gene  2 22 20 -0.2404859033793802 0 773.0 -0.2404859033793802 1
gene  1 15 19 -4.667219507389354 0 1748.0 -4.667219507389354 0
gene  2 18 19 1.2692250966960819 0 1884.0 1.2692250966960819 1
gene  2 15 18 -1.7097739347343852 0 1923.0 -1.7097739347343852 1
gene  2 15 20 -2.016939676236244 0 1924.0 -2.016939676236244 1
gene  2 15 21 5.5629635256541565 0 1925.0 5.5629635256541565 1
gene  2 15 23 -0.16764286854370303 0 1926.0 -0.16764286854370303 1
gene  1 15 324 1.0909020795518642 0 2451.0 1.0909020795518642 1
gene  1 324 19 -2.883609092263467 0 2452.0 -2.883609092263467 1
gene  2 324 21 5.065878881982487 0 2959.0 5.065878881982487 1
genomeend 16
genomestart  17
trait 1 0.6315079546972572 0.5785564194251405 0.0 0.0 0.0 0.0 0.0 0.0 
trait 2 0.1 0.0 0.8309365169181524 0.08921075280210866 0.0 0.7614440107356902 0.8970328002726838 0.0 
node 1 1 1 1
node 2 1 1 1
node 3 1 1 1
node 4 1 1 1
node 5 1 1 1
node 6 1 1 1
node 7 1 1 1
node 8 1 1 1
node 9 1 1 1
node 10 1 1 1
node 11 1 1 1
node 12 1 1 1
node 13 1 1 1
node 14 1 1 1
node 15 1 1 1
node 16 1 1 1
node 17 1 1 3
node 18 1 0 2
node 19 1 0 2
node 20 1 0 2
node 21 2 0 2
node 22 1 0 2
node 23 1 0 2
node 324 1 0 0
gene  1 17 18 2.053174524823193 0 1.0 2.053174524823193 1
gene  1 17 19 6.8537778520035495 0 1.0 6.8537778520035495 1
gene  1 17 20 -10.212593008300907 0 1.0 -10.212593008300907 1
gene  1 17 21 -3.6118003049337055 0 1.0 -3.6118003049337055 1
gene  1 17 22 -13.374613121470894 0 1.0 -13.374613121470894 1
gene  1 17 23 -3.274633277589527 0 1.0 -3.274633277589527 1
gene  2 5 18 2.943287596202942 0 6.0 2.943287596202942 1
gene  1 5 19 1.7329642235571683 0 7.0 1.7329642235571683 1
gene  1 5 20 -0.46414223043519565 0 8.0 -0.46414223043519565 1
gene  2 5 21 1.1670712710898488 0 9.0 1.1670712710898488 1
gene  2 5 22 -5.253954629195904 0 10.0 -5.253954629195904 1
gene  1 5 23 3.5594884669171205 0 11.0 3.5594884669171205 1
gene  2 1 18 -0.33903685632524705 0 46.0 -0.33903685632524705 1
gene  2 1 19 5.267500011288041 0 47.0 5.267500011288041 1
gene  2 1 20 2.242528218300194 0 45.0 2.242528218300194 1
gene  2 1 21 1.8287636184858704 0 48.0 1.8287636184858704 1
gene  2 1 22 -2.0072446999634805 0 49.0 -2.0072446999634805 1
gene  1 1 23 -8.60849368746269 0 50.0 -8.60849368746269 1
gene  1 14 18 -4.59705302905556 0 85.0 -4.59705302905556 1
gene  2 14 19 2.0438157729374447 0 86.0 2.0438157729374447 1
gene  2 14 20 8.850829363079292 0 87.0 8.850829363079292 1
gene  2 14 21 -9.183353432586365 0 63.0 -9.183353432586365 1
gene  2 14 22 -2.589082508796572 0 88.0 -2.589082508796572 1
gene  2 14 23 -11.232964522118273 0 89.0 -11.232964522118273 1
gene  2 6 19 8.349068952350784 0 168.0 8.349068952350784 1
gene  2 2 18 -2.4323015552633303 0 200.0 -2.4323015552633303 1
gene  2 2 19 -11.407989604143 0 201.0 -11.407989604143 1
gene  2 2 20 1.008638950230854 0 202.0 1.008638950230854 1
gene  1 2 21 1.1614257270050379 0 203.0 1.1614257270050379 1
gene  2 2 22 1.7773733868607806 0 204.0 1.7773733868607806 1
gene  2 2 23 0.1943389214600002 0 205.0 0.1943389214600002 1
gene  1 7 18 -0.7481722197135966 0 322.0 -0.7481722197135966 1
gene  1 7 19 -4.507414226790608 0 296.0 -4.507414226790608 1
gene  2 7 20 3.928480100587708 0 323.0 3.928480100587708 1
gene  2 7 21 11.226423198955823 0 324.0 11.226423198955823 1
gene  2 7 22 9.574473566362478 0 325.0 9.574473566362478 1
gene  2 7 23 -0.03556533694829356 0 326.0 -0.03556533694829356 1
gene  2 8 18 -10.458993870443212 0 609.0 -10.458993870443212 1
gene  1 15 22 14.291824036818939 0 652.0 14.291824036818939 1
gene  2 9 22 0.4008796680445902 0 682.0 0.4008796680445902 1
gene  1 23 19 -4.200702816096777 0 725.0 -4.200702816096777 1
gene  2 22 20 1.548004702482001 0 773.0 1.548004702482001 1
gene  1 15 19 -4.336687349258953 0 1748.0 -4.336687349258953 0
gene  2 18 19 1.3789754384210464 0 1884.0 1.3789754384210464 1
gene  2 15 18 -0.8113906810663982 0 1923.0 -0.8113906810663982 1
gene  2 15 20 -1.4774391396830528 0 1924.0 -1.4774391396830528 1
gene  2 15 21 8.203756790266794 0 1925.0 8.203756790266794 1
gene  2 15 23 2.0437376537478995 0 1926.0 2.0437376537478995 1
gene  1 15 324 -0.20965138270132022 0 2451.0 -0.20965138270132022 1
gene  1 324 19 -4.456040229438174 0 2452.0 -4.456040229438174 1
genomeend 17
genomestart  18
trait 1 0.6315079546972572 0.5785564194251405 0.0 0.0 0.0 0.0 0.0 0.0 
trait 2 0.1 0.0 0.8309365169181524 0.08921075280210866 0.0 0.7614440107356902 0.8970328002726838 0.0 
node 1 1 1 1
node 2 1 1 1
node 3 1 1 1
node 4 1 1 1
node 5 1 1 1
node 6 1 1 1
node 7 1 1 1
node 8 1 1 1
node 9 1 1 1
node 10 1 1 1
node 11 1 1 1
node 12 1 1 1
node 13 1 1 1
node 14 1 1 1
node 15 1 1 1
node 16 1 1 1
node 17 1 1 3
node 18 1 0 2
node 19 1 0 2
node 20 1 0 2
node 21 2 0 2
node 22 1 0 2
node 23 1 0 2
node 324 1 0 0
gene  1 17 18 0.7146764672042338 0 1.0 0.7146764672042338 1
gene  1 17 19 1.5721772616206846 0 1.0 1.5721772616206846 1
gene  1 17 20 -14.72830902269635 0 1.0 -14.72830902269635 1
gene  1 17 21 -1.7785917009332888 0 1.0 -1.7785917009332888 1
gene  1 17 22 1.7880247780282 0 1.0 1.7880247780282 1
gene  1 17 23 1.1980543132289885 0 1.0 1.1980543132289885 1
gene  2 5 18 2.76964852179508 0 6.0 2.76964852179508 1
gene  1 5 19 5.119225917062865 0 7.0 5.119225917062865 1
gene  1 5 20 -1.3409973314417623 0 8.0 -1.3409973314417623 1
gene  2 5 21 -0.23622807480146557 0 9.0 -0.23622807480146557 1
gene  2 5 22 -1.1871265091591656 0 10.0 -1.1871265091591656 1
gene  1 5 23 2.7468891624346004 0 11.0 2.7468891624346004 1
gene  2 1 18 -2.25212382388823 0 46.0 -2.25212382388823 1
gene  2 1 19 2.230777100766908 0 47.0 2.230777100766908 1
gene  2 1 20 1.2086784105388446 0 45.0 1.2086784105388446 1
gene  2 1 21 1.048921720306063 0 48.0 1.048921720306063 1
gene  2 1 22 -0.5558184481379413 0 49.0 -0.5558184481379413 1
gene  1 1 23 0.6900454629472452 0 50.0 0.6900454629472452 1
gene  1 14 18 -6.733938682604359 0 85.0 -6.733938682604359 1
gene  2 14 19 1.828671608503336 0 86.0 1.828671608503336 1
gene  2 14 20 1.4986663315229987 0 87.0 1.4986663315229987 1
gene  2 14 21 -10.800915700722227 0 63.0 -10.800915700722227 1
gene  2 14 22 -2.991494371267785 0 88.0 -2.991494371267785 1
gene  2 14 23 -11.031297756170632 0 89.0 -11.031297756170632 1
gene  2 6 19 6.623663891063891 0 168.0 6.623663891063891 1
gene  2 2 18 -1.5099017934635834 0 200.0 -1.5099017934635834 1
gene  2 2 19 -0.6146618250037696 0 201.0 -0.6146618250037696 1
gene  2 2 20 -1.998890545222298 0 202.0 -1.998890545222298 1
gene  1 2 21 -2.472765676269896 0 203.0 -2.472765676269896 1
gene  2 2 22 2.7831763112368897 0 204.0 2.7831763112368897 0
gene  2 2 23 -1.2097762923176287 0 205.0 -1.2097762923176287 1
gene  1 7 18 1.339148816242992 0 322.0 1.339148816242992 1
gene  1 7 19 -2.5832653367394927 0 296.0 -2.5832653367394927 1
gene  2 7 20 1.0900469911476791 0 323.0 1.0900469911476791 1
gene  2 7 21 11.765511419676704 0 324.0 11.765511419676704 1
gene  2 7 22 11.678791964451761 0 325.0 11.678791964451761 1
gene  2 7 23 1.3077053058977335 0 326.0 1.3077053058977335 1
gene  2 8 18 -7.618196998677367 0 609.0 -7.618196998677367 1
gene  1 15 22 10.136693141743553 0 652.0 10.136693141743553 1
gene  2 9 22 0.15533343914490194 0 682.0 0.15533343914490194 1
gene  1 23 19 -1.0000974408580927 0 725.0 -1.0000974408580927 1
gene  2 22 20 0.32270258329495594 0 773.0 0.32270258329495594 1
gene  1 15 19 -5.093793453222097 0 1748.0 -5.093793453222097 0
gene  2 18 19 4.279051903315456 0 1884.0 4.279051903315456 1
gene  2 15 18 -2.640883039500807 0 1923.0 -2.640883039500807 1
gene  2 15 20 -2.620803233026317 0 1924.0 -2.620803233026317 1
gene  2 15 21 7.07297708156289 0 1925.0 7.07297708156289 1
gene  2 15 23 0.41120621254251954 0 1926.0 0.41120621254251954 1
gene  1 15 324 -0.20965138270132022 0 2451.0 -0.20965138270132022 1
gene  1 324 19 -0.9345698924323875 0 2452.0 -0.9345698924323875 1
genomeend 18
genomestart  19
trait 1 0.6315079546972572 0.5785564194251405 0.0 0.3684633453606385 0.0 0.0 0.0 0.11178957007991974 
trait 2 0.1 0.0 0.8309365169181524 0.08921075280210866 0.0 0.7614440107356902 0.8970328002726838 0.0 
node 1 1 1 1
node 2 1 1 1
node 3 1 1 1
node 4 1 1 1
node 5 1 1 1
node 6 1 1 1
node 7 1 1 1
node 8 1 1 1
node 9 1 1 1
node 10 1 1 1
node 11 1 1 1
node 12 1 1 1
node 13 1 1 1
node 14 1 1 1
node 15 1 1 1
node 16 1 1 1
node 17 1 1 3
node 18 1 0 2
node 19 1 0 2
node 20 1 0 2
node 21 2 0 2
node 22 1 0 2
node 23 1 0 2
node 324 1 0 0
gene  1 17 18 -2.93310984582336 0 1.0 -2.93310984582336 1
gene  1 17 19 4.859069881111902 0 1.0 4.859069881111902 1
gene  1 17 20 -13.6412243168872 0 1.0 -13.6412243168872 1
gene  1 17 21 -1.3202384460986205 0 1.0 -1.3202384460986205 1
gene  1 17 22 -11.610135464574645 0 1.0 -11.610135464574645 1
gene  1 17 23 0.6224510915750983 0 1.0 0.6224510915750983 1
gene  2 5 18 2.2469955023610293 0 6.0 2.2469955023610293 1
gene  1 5 19 4.131779959159072 0 7.0 4.131779959159072 1
gene  1 5 20 -0.5700575032775398 0 8.0 -0.5700575032775398 1
gene  2 5 21 -1.070080422800505 0 9.0 -1.070080422800505 1
gene  2 5 22 -2.5062322733896707 0 10.0 -2.5062322733896707 1
gene  1 5 23 0.6856629414315418 0 11.0 0.6856629414315418 1
gene  2 1 18 -1.43726737122799 0 46.0 -1.43726737122799 1
gene  2 1 19 4.358448379998445 0 47.0 4.358448379998445 1
gene  2 1 20 1.047707603953552 0 45.0 1.047707603953552 1
gene  2 1 21 1.2053161676296216 0 48.0 1.2053161676296216 1
gene  2 1 22 -3.353908319116975 0 49.0 -3.353908319116975 1
gene  1 1 23 -9.902701613664536 0 50.0 -9.902701613664536 1
gene  1 14 18 -3.1381648556316915 0 85.0 -3.1381648556316915 1
gene  2 14 19 -0.9805979783536283 0 86.0 -0.9805979783536283 1
gene  2 14 20 6.815114505019121 0 87.0 6.815114505019121 1
gene  2 14 21 -9.118904981935612 0 63.0 -9.118904981935612 1
gene  2 14 22 -3.1274888845248743 0 88.0 -3.1274888845248743 1
gene  2 14 23 -10.318682611673411 0 89.0 -10.318682611673411 1
gene  2 6 19 9.080585628705093 0 168.0 9.080585628705093 1
gene  2 2 18 -0.9598343654106625 0 200.0 -0.9598343654106625 1
gene  2 2 19 -14.77618823375376 0 201.0 -14.77618823375376 1
gene  2 2 20 3.838818791091317 0 202.0 3.838818791091317 1
gene  1 2 21 0.5176643469306734 0 203.0 0.5176643469306734 1
gene  2 2 22 1.2096955822135278 0 204.0 1.2096955822135278 1
gene  2 2 23 0.4334217263915312 0 205.0 0.4334217263915312 1
gene  1 7 18 2.7296406580168053 0 322.0 2.7296406580168053 1
gene  1 7 19 -3.0239263095726723 0 296.0 -3.0239263095726723 1
gene  2 7 20 2.7908326675570194 0 323.0 2.7908326675570194 1
gene  2 7 21 11.617565256697866 0 324.0 11.617565256697866 1
gene  2 7 22 8.688997469790207 0 325.0 8.688997469790207 1
gene  2 7 23 4.464566606445569 0 326.0 4.464566606445569 1
gene  2 8 18 -8.034619388298461 0 609.0 -8.034619388298461 1
gene  1 15 22 11.208088978761225 0 652.0 11.208088978761225 1
gene  2 9 22 -1.5554744106012899 0 682.0 -1.5554744106012899 1
gene  1 23 19 -0.1369189817298182 0 725.0 -0.1369189817298182 1
gene  2 22 20 -0.3447401145126704 0 773.0 -0.3447401145126704 1
gene  1 15 19 -0.6846579338110084 0 1748.0 -0.6846579338110084 0
gene  2 18 19 0.2588536963575343 0 1884.0 0.2588536963575343 1
gene  2 15 18 1.0355628426938326 0 1923.0 1.0355628426938326 1
gene  2 15 20 -1.3785499394076757 0 1924.0 -1.3785499394076757 1
gene  2 15 21 5.04220156439648 0 1925.0 5.04220156439648 1
gene  2 15 23 2.5860271058751216 0 1926.0 2.5860271058751216 1
gene  1 15 324 0.440625348425272 0 2451.0 0.440625348425272 1
gene  1 324 19 -0.805541392675031 0 2452.0 -0.805541392675031 1
genomeend 19
genomestart  20
trait 1 0.03677791473700942 0.0 0.0 0.028410273354140148 0.0 0.0 0.3333281169922853 0.0 
trait 2 0.8156804441277457 0.0 0.0 0.7653284558241966 0.0 0.7585199583982197 0.3286716353638074 0.0 
node 1 1 1 1
node 2 1 1 1
node 3 1 1 1
node 4 1 1 1
node 5 1 1 1
node 6 1 1 1
node 7 1 1 1
node 8 1 1 1
node 9 1 1 1
node 10 1 1 1
node 11 1 1 1
node 12 1 1 1
node 13 1 1 1
node 14 1 1 1
node 15 1 1 1
node 16 1 1 1
node 17 1 1 3
node 18 1 0 2
node 19 1 0 2
node 20 1 0 2
node 21 2 0 2
node 22 1 0 2
node 23 1 0 2
node 215 1 0 0
node 256 1 0 0
node 343 1 0 0
gene  1 17 18 -6.81342585315663 0 1.0 -6.81342585315663 1
gene  1 17 19 4.307091354120793 0 1.0 4.307091354120793 1
gene  1 17 20 -6.523709458409815 0 1.0 -6.523709458409815 1
gene  1 17 21 0.6077743438003149 0 1.0 0.6077743438003149 1
gene  1 17 22 -7.017156453507893 0 1.0 -7.017156453507893 1
gene  1 17 23 5.746053551285458 0 1.0 5.746053551285458 1
gene  2 5 18 0.05290128052086951 0 6.0 0.05290128052086951 1
gene  1 5 19 0.012809471278820539 0 7.0 0.012809471278820539 1
gene  1 5 20 2.3679523850039934 0 8.0 2.3679523850039934 1
gene  2 5 21 -2.3044725159107027 0 9.0 -2.3044725159107027 1
gene  1 5 22 9.704839199528045 0 10.0 9.704839199528045 1
gene  1 5 23 -4.7768241666772955 0 11.0 -4.7768241666772955 1
gene  2 1 18 0.38035678041118115 0 46.0 0.38035678041118115 1
gene  2 1 19 0.10437259144976374 0 47.0 0.10437259144976374 1
gene  2 1 20 3.6338662092948475 0 45.0 3.6338662092948475 1
gene  2 1 21 -2.9100228105264216 0 48.0 -2.9100228105264216 1
gene  2 1 22 -3.9820404275058134 0 49.0 -3.9820404275058134 1
gene  1 1 23 -3.0699515531764514 0 50.0 -3.0699515531764514 1
gene  1 14 18 5.894835972823111 0 85.0 5.894835972823111 1
gene  2 14 19 5.146522909270223 0 86.0 5.146522909270223 1
gene  2 14 20 -3.1831538553916037 0 87.0 -3.1831538553916037 1
gene  2 14 21 -5.193624937117799 0 63.0 -5.193624937117799 1
gene  2 14 22 2.1443513978577253 0 88.0 2.1443513978577253 1
gene  2 14 23 -7.579586430540491 0 89.0 -7.579586430540491 1
gene  2 6 19 -0.22679824742152604 0 168.0 -0.22679824742152604 1
gene  2 2 18 -6.683273367756615 0 200.0 -6.683273367756615 1
gene  2 2 19 -1.1097427476585189 0 201.0 -1.1097427476585189 1
gene  2 2 20 1.95662128549065 0 202.0 1.95662128549065 1
gene  1 2 21 8.705944809097884 0 203.0 8.705944809097884 1
gene  2 2 22 4.319475576189935 0 204.0 4.319475576189935 0
gene  2 2 23 2.6460288828260348 0 205.0 2.6460288828260348 1
gene  1 7 18 -5.493915083319564 0 322.0 -5.493915083319564 1
gene  1 7 19 -0.49422556969983855 0 296.0 -0.49422556969983855 1
gene  2 7 20 1.5348243873935188 0 323.0 1.5348243873935188 1
gene  2 7 21 8.014337598897225 0 324.0 8.014337598897225 1
gene  2 7 22 0.6547894861815406 0 325.0 0.6547894861815406 1
gene  2 7 23 5.717394933296324 0 326.0 5.717394933296324 1
gene  2 3 18 1.9018185349237748 0 1228.0 1.9018185349237748 1
gene  1 3 19 0.03469152672369269 0 1229.0 0.03469152672369269 1
gene  2 3 20 -3.995851325029043 0 1230.0 -3.995851325029043 1
gene  1 3 21 1.4386420755126554 0 1231.0 1.4386420755126554 1
gene  2 3 22 2.834106417285925 0 1232.0 2.834106417285925 1
gene  2 3 23 -0.14065721465569125 0 1233.0 -0.14065721465569125 1
gene  2 15 18 -2.8230584509454477 0 1409.0 -2.8230584509454477 1
gene  1 15 19 -0.9899128236183611 0 1410.0 -0.9899128236183611 1
gene  1 15 20 -0.4803866384711837 0 1411.0 -0.4803866384711837 1
gene  1 15 21 -6.920494919792293 0 1412.0 -6.920494919792293 1
gene  2 15 22 11.868433411796659 0 1413.0 11.868433411796659 1
gene  1 15 23 -6.029775341722553 0 1414.0 -6.029775341722553 1
gene  1 12 19 19.705248305569413 0 1447.0 19.705248305569413 1
gene  1 20 22 0.40196698356677885 0 1564.0 0.40196698356677885 1
gene  2 6 215 -7.027193460119193 0 1598.0 -7.027193460119193 1
gene  2 215 19 3.0148316912277098 0 1599.0 3.0148316912277098 1
gene  1 7 215 5.080872345867352 0 1692.0 5.080872345867352 1
gene  2 10 18 2.477103695911237 0 1836.0 2.477103695911237 1
gene  1 10 19 1.8456164131561852 0 1837.0 1.8456164131561852 1
gene  2 10 20 1.150345750969273 0 1838.0 1.150345750969273 1
gene  1 10 21 -2.925259997183379 0 1839.0 -2.925259997183379 1
gene  2 10 22 0.6910281085293692 0 1840.0 0.6910281085293692 1
gene  1 10 23 -1.9916722183646676 0 1841.0 -1.9916722183646676 1
gene  2 3 215 1.1312862920409326 0 1910.0 1.1312862920409326 1
gene  1 12 256 -1.4675036992640498 0 1964.0 -1.4675036992640498 1
gene  1 256 19 9.780609851614955 0 1965.0 9.780609851614955 1
gene  2 2 343 -0.7624110491951547 0 2558.0 -0.7624110491951547 1
gene  2 343 22 6.746750781057538 0 2559.0 6.746750781057538 1
genomeend 20
genomestart  21
trait 1 0.03677791473700942 0.0 0.0 0.028410273354140148 0.0 0.0 0.3333281169922853 0.0 
trait 2 0.8156804441277457 0.0 0.0 0.7653284558241966 0.0 0.7585199583982197 0.3286716353638074 0.0 
node 1 1 1 1
node 2 1 1 1
node 3 1 1 1
node 4 1 1 1
node 5 1 1 1
node 6 1 1 1
node 7 1 1 1
node 8 1 1 1
node 9 1 1 1
node 10 1 1 1
node 11 1 1 1
node 12 1 1 1
node 13 1 1 1
node 14 1 1 1
node 15 1 1 1
node 16 1 1 1
node 17 1 1 3
node 18 1 0 2
node 19 1 0 2
node 20 1 0 2
node 21 2 0 2
node 22 1 0 2
node 23 1 0 2
node 215 1 0 0
node 256 1 0 0
node 343 1 0 0
gene  1 17 18 -2.9887130715621377 0 1.0 -2.9887130715621377 1
gene  1 17 19 4.434802157454113 0 1.0 4.434802157454113 1
gene  1 17 20 -3.2879533529998803 0 1.0 -3.2879533529998803 1
gene  1 17 21 0.35030821915852917 0 1.0 0.35030821915852917 1
gene  1 17 22 -7.591518714180408 0 1.0 -7.591518714180408 1
gene  1 17 23 3.8356261427180565 0 1.0 3.8356261427180565 1
gene  2 5 18 -1.2349733645935241 0 6.0 -1.2349733645935241 1
gene  1 5 19 4.069535746659433 0 7.0 4.069535746659433 1
gene  1 5 20 2.2601003965042006 0 8.0 2.2601003965042006 1
gene  2 5 21 -1.9953409636345107 0 9.0 -1.9953409636345107 1
gene  1 5 22 11.271332749870256 0 10.0 11.271332749870256 1
gene  1 5 23 -6.540748607257706 0 11.0 -6.540748607257706 1
gene  2 1 18 -2.6955962836471823 0 46.0 -2.6955962836471823 1
gene  2 1 19 1.9237770998123989 0 47.0 1.9237770998123989 1
gene  2 1 20 3.105575595990627 0 45.0 3.105575595990627 1
gene  2 1 21 -3.2095974809179166 0 48.0 -3.2095974809179166 1
gene  2 1 22 -2.2998511987347445 0 49.0 -2.2998511987347445 1
gene  1 1 23 -3.4688407950613835 0 50.0 -3.4688407950613835 1
gene  1 14 18 5.668323804918155 0 85.0 5.668323804918155 1
gene  2 14 19 7.228652354372694 0 86.0 7.228652354372694 1
gene  2 14 20 -6.246194445858972 0 87.0 -6.246194445858972 1
gene  2 14 21 -6.180616442298719 0 63.0 -6.180616442298719 1
gene  2 14 22 3.2309642141287966 0 88.0 3.2309642141287966 1
gene  2 14 23 -9.055174657430612 0 89.0 -9.055174657430612 1
gene  2 6 19 2.656513114868973 0 168.0 2.656513114868973 1
gene  2 2 18 -2.382282849216463 0 200.0 -2.382282849216463 1
gene  2 2 19 2.710024641660991 0 201.0 2.710024641660991 1
gene  2 2 20 2.189317050507842 0 202.0 2.189317050507842 1
gene  1 2 21 8.378694600420745 0 203.0 8.378694600420745 1
gene  2 2 22 5.093726993755807 0 204.0 5.093726993755807 0
gene  2 2 23 1.9429636365019074 0 205.0 1.9429636365019074 1
gene  1 7 18 -8.245815138250187 0 322.0 -8.245815138250187 1
gene  1 7 19 2.047119779018294 0 296.0 2.047119779018294 1
gene  2 7 20 3.9780737644579904 0 323.0 3.9780737644579904 1
gene  2 7 21 5.7413354218688575 0 324.0 5.7413354218688575 1
gene  2 7 22 0.24035994885568207 0 325.0 0.24035994885568207 1
gene  2 7 23 9.609250339418484 0 326.0 9.609250339418484 1
gene  2 3 18 -0.06085193957136914 0 1228.0 -0.06085193957136914 1
gene  1 3 19 -3.7089806650460146 0 1229.0 -3.7089806650460146 1
gene  2 3 20 -5.09030354886884 0 1230.0 -5.09030354886884 1
gene  1 3 21 4.643551859364553 0 1231.0 4.643551859364553 1
gene  2 3 22 0.42069537534735346 0 1232.0 0.42069537534735346 1
gene  2 3 23 -0.9099879019202255 0 1233.0 -0.9099879019202255 1
gene  2 15 18 -1.807233556186285 0 1409.0 -1.807233556186285 1
gene  1 15 19 -0.42836889998657646 0 1410.0 -0.42836889998657646 1
gene  1 15 20 -2.37331932025591 0 1411.0 -2.37331932025591 1
gene  1 15 21 -8.04731894896278 0 1412.0 -8.04731894896278 1
gene  2 15 22 14.575601621811616 0 1413.0 14.575601621811616 1
gene  1 15 23 -7.472934047990442 0 1414.0 -7.472934047990442 1
gene  1 12 19 20.46059039142742 0 1447.0 20.46059039142742 1
gene  1 20 22 3.621734450921511 0 1564.0 3.621734450921511 1
gene  2 6 215 -7.031429815329038 0 1598.0 -7.031429815329038 1
gene  2 215 19 0.9144971335604029 0 1599.0 0.9144971335604029 1
gene  1 7 215 0.5185741820107737 0 1692.0 0.5185741820107737 1
gene  2 10 18 3.937979158859833 0 1836.0 3.937979158859833 1
gene  1 10 19 -1.7902334646213043 0 1837.0 -1.7902334646213043 1
gene  2 10 20 -0.44631914606328843 0 1838.0 -0.44631914606328843 1
gene  1 10 21 -2.452714496537025 0 1839.0 -2.452714496537025 1
gene  2 10 22 -3.0085364413839573 0 1840.0 -3.0085364413839573 1
gene  1 10 23 -1.6824273758212602 0 1841.0 -1.6824273758212602 1
gene  2 3 215 2.043633502629019 0 1910.0 2.043633502629019 1
gene  1 12 256 -4.007388871138258 0 1964.0 -4.007388871138258 1
gene  1 256 19 13.721938756263064 0 1965.0 13.721938756263064 1
gene  2 2 343 0.16324282970284792 0 2558.0 0.16324282970284792 1
gene  2 343 22 6.4552880018889764 0 2559.0 6.4552880018889764 1
genomeend 21
genomestart  22
trait 1 0.03677791473700942 0.0 0.0 0.028410273354140148 0.0 0.0 0.3333281169922853 0.0 
trait 2 0.8156804441277457 0.0 0.0 0.7653284558241966 0.0 0.7585199583982197 0.3286716353638074 0.0 
node 1 1 1 1
node 2 1 1 1
node 3 1 1 1
node 4 1 1 1
node 5 1 1 1
node 6 1 1 1
node 7 1 1 1
node 8 1 1 1
node 9 1 1 1
node 10 1 1 1
node 11 1 1 1
node 12 1 1 1
node 13 1 1 1
node 14 1 1 1
node 15 1 1 1
node 16 1 1 1
node 17 1 1 3
node 18 1 0 2
node 19 1 0 2
node 20 1 0 2
node 21 2 0 2
node 22 1 0 2
node 23 1 0 2
node 215 1 0 0
node 256 1 0 0
node 343 1 0 0
gene  1 17 18 -4.5516868911098465 0 1.0 -4.5516868911098465 1
gene  1 17 19 5.663733934935568 0 1.0 5.663733934935568 1
gene  1 17 20 -5.72461305986333 0 1.0 -5.72461305986333 1
gene  1 17 21 -0.2721737892081424 0 1.0 -0.2721737892081424 1
gene  1 17 22 -7.8105556957661895 0 1.0 -7.8105556957661895 1
gene  1 17 23 6.534352027960738 0 1.0 6.534352027960738 1
gene  2 5 18 1.3703300100220464 0 6.0 1.3703300100220464 1
gene  1 5 19 -0.28824304636181597 0 7.0 -0.28824304636181597 1
gene  1 5 20 3.6362711593960366 0 8.0 3.6362711593960366 1
gene  2 5 21 -3.524230962874752 0 9.0 -3.524230962874752 1
gene  1 5 22 10.889137039076953 0 10.0 10.889137039076953 1
gene  1 5 23 -5.039780144520602 0 11.0 -5.039780144520602 1
gene  2 1 18 -0.7215330258019637 0 46.0 -0.7215330258019637 1
gene  2 1 19 4.695189822502061 0 47.0 4.695189822502061 1
gene  2 1 20 5.449083787649817 0 45.0 5.449083787649817 1
gene  2 1 21 -3.584600720251121 0 48.0 -3.584600720251121 1
gene  2 1 22 -2.884727822404427 0 49.0 -2.884727822404427 1
gene  1 1 23 -5.599068984085207 0 50.0 -5.599068984085207 1
gene  1 14 18 4.658229907168934 0 85.0 4.658229907168934 1
gene  2 14 19 9.105346098773477 0 86.0 9.105346098773477 1
gene  2 14 20 -2.767004357878993 0 87.0 -2.767004357878993 1
gene  2 14 21 -4.823483053558786 0 63.0 -4.823483053558786 1
gene  2 14 22 4.667473534587101 0 88.0 4.667473534587101 1
gene  2 14 23 -6.346740716067261 0 89.0 -6.346740716067261 1
gene  2 6 19 3.282215819435044 0 168.0 3.282215819435044 1
gene  2 2 18 -3.1701397253020547 0 200.0 -3.1701397253020547 1
gene  2 2 19 -1.1267105586633321 0 201.0 -1.1267105586633321 1
gene  2 2 20 -0.44296234635015486 0 202.0 -0.44296234635015486 1
gene  1 2 21 7.962315350823876 0 203.0 7.962315350823876 1
gene  2 2 22 3.3012098267386243 0 204.0 3.3012098267386243 0
gene  2 2 23 3.6277110113363995 0 205.0 3.6277110113363995 1
gene  1 7 18 -6.8214716073255195 0 322.0 -6.8214716073255195 1
gene  1 7 19 1.5914159521956042 0 296.0 1.5914159521956042 1
gene  2 7 20 0.2614337472749244 0 323.0 0.2614337472749244 1
gene  2 7 21 8.590932398272798 0 324.0 8.590932398272798 1
gene  2 7 22 1.3411126408058804 0 325.0 1.3411126408058804 1
gene  2 7 23 9.442398380284208 0 326.0 9.442398380284208 1
gene  2 3 18 0.3029319781730291 0 1228.0 0.3029319781730291 1
gene  1 3 19 -3.428030243888582 0 1229.0 -3.428030243888582 1
gene  2 3 20 -3.1238621216384437 0 1230.0 -3.1238621216384437 1
gene  1 3 21 3.276744366619214 0 1231.0 3.276744366619214 1
gene  2 3 22 4.01681005655014 0 1232.0 4.01681005655014 1
gene  2 3 23 2.302539462938734 0 1233.0 2.302539462938734 1
gene  2 15 18 0.4974024386030518 0 1409.0 0.4974024386030518 1
gene  1 15 19 0.5108567287058774 0 1410.0 0.5108567287058774 1
gene  1 15 20 2.38658128109586 0 1411.0 2.38658128109586 1
gene  1 15 21 -8.982834454284504 0 1412.0 -8.982834454284504 1
gene  2 15 22 12.155570695397541 0 1413.0 12.155570695397541 1
gene  1 15 23 -2.6765805039841903 0 1414.0 -2.6765805039841903 1
gene  1 12 19 16.18038667174272 0 1447.0 16.18038667174272 1
gene  1 20 22 0.913632017075678 0 1564.0 0.913632017075678 1
gene  2 6 215 -8.684657028592216 0 1598.0 -8.684657028592216 1
gene  2 215 19 0.34129100397282963 0 1599.0 0.34129100397282963 1
gene  1 7 215 1.3181202573970574 0 1692.0 1.3181202573970574 1
gene  2 10 18 2.667656375284066 0 1836.0 2.667656375284066 1
gene  1 10 19 3.7370002835689946 0 1837.0 3.7370002835689946 1
gene  2 10 20 -1.321950982711387 0 1838.0 -1.321950982711387 1
gene  1 10 21 -2.874547148476532 0 1839.0 -2.874547148476532 1
gene  2 10 22 -0.8346505944020255 0 1840.0 -0.8346505944020255 1
gene  1 10 23 0.2530473551544901 0 1841.0 0.2530473551544901 1
gene  2 3 215 2.043633502629019 0 1910.0 2.043633502629019 1
gene  1 12 256 0.2086812787622765 0 1964.0 0.2086812787622765 1
gene  1 256 19 11.454984514397013 0 1965.0 11.454984514397013 1
gene  2 2 343 2.4198348281845856 0 2558.0 2.4198348281845856 1
gene  2 343 22 0.5627239235747781 0 2559.0 0.5627239235747781 1
genomeend 22
genomestart  23
trait 1 0.03677791473700942 0.0 0.0 0.028410273354140148 0.0 0.0 0.3333281169922853 0.0 
trait 2 0.8156804441277457 0.0 0.0 0.7653284558241966 0.0 0.7585199583982197 0.3286716353638074 0.0 
node 1 1 1 1
node 2 1 1 1
node 3 1 1 1
node 4 1 1 1
node 5 1 1 1
node 6 1 1 1
node 7 1 1 1
node 8 1 1 1
node 9 1 1 1
node 10 1 1 1
node 11 1 1 1
node 12 1 1 1
node 13 1 1 1
node 14 1 1 1
node 15 1 1 1
node 16 1 1 1
node 17 1 1 3
node 18 1 0 2
node 19 1 0 2
node 20 1 0 2
node 21 2 0 2
node 22 1 0 2
node 23 1 0 2
node 215 1 0 0
node 256 1 0 0
node 343 1 0 0
gene  1 17 18 -3.2209520869717085 0 1.0 -3.2209520869717085 1
gene  1 17 19 3.217528872906026 0 1.0 3.217528872906026 1
gene  1 17 20 -4.9260765014739905 0 1.0 -4.9260765014739905 1
gene  1 17 21 0.9694134942664934 0 1.0 0.9694134942664934 1
gene  1 17 22 -9.125062346238709 0 1.0 -9.125062346238709 1
gene  1 17 23 3.0898617464195803 0 1.0 3.0898617464195803 1
gene  2 5 18 0.46625365842319105 0 6.0 0.46625365842319105 1
gene  1 5 19 3.1931985011638004 0 7.0 3.1931985011638004 1
gene  1 5 20 0.27383783096342773 0 8.0 0.27383783096342773 1
gene  2 5 21 -1.7559347194695938 0 9.0 -1.7559347194695938 1
gene  1 5 22 7.902878671880025 0 10.0 7.902878671880025 1
gene  1 5 23 -5.014648172703658 0 11.0 -5.014648172703658 1
gene  2 1 18 -2.119072067423573 0 46.0 -2.119072067423573 1
gene  2 1 19 2.5184274544363143 0 47.0 2.5184274544363143 1
gene  2 1 20 5.835245985797311 0 45.0 5.835245985797311 1
gene  2 1 21 -3.1539828203448472 0 48.0 -3.1539828203448472 1
gene  2 1 22 -5.259253404759078 0 49.0 -5.259253404759078 1
gene  1 1 23 -1.7276418565818186 0 50.0 -1.7276418565818186 1
gene  1 14 18 5.567577375364257 0 85.0 5.567577375364257 1
gene  2 14 19 8.687401500167105 0 86.0 8.687401500167105 1
gene  2 14 20 -5.846913815086195 0 87.0 -5.846913815086195 1
gene  2 14 21 -3.1621319874452336 0 63.0 -3.1621319874452336 1
gene  2 14 22 2.13389370914389 0 88.0 2.13389370914389 1
gene  2 14 23 -7.494443175395849 0 89.0 -7.494443175395849 1
gene  2 6 19 1.5124445647786757 0 168.0 1.5124445647786757 1
gene  2 2 18 -2.300368625834561 0 200.0 -2.300368625834561 1
gene  2 2 19 -0.7103777607688104 0 201.0 -0.7103777607688104 1
gene  2 2 20 -0.9728166166497914 0 202.0 -0.9728166166497914 1
gene  1 2 21 9.58565208067652 0 203.0 9.58565208067652 1
gene  2 2 22 5.877036290369587 0 204.0 5.877036290369587 0
gene  2 2 23 2.960848847906802 0 205.0 2.960848847906802 1
gene  1 7 18 -4.432715958573983 0 322.0 -4.432715958573983 1
gene  1 7 19 1.2505094104914265 0 296.0 1.2505094104914265 1
gene  2 7 20 4.416974553845401 0 323.0 4.416974553845401 1
gene  2 7 21 7.486660832783499 0 324.0 7.486660832783499 1
gene  2 7 22 -1.5036916734139083 0 325.0 -1.5036916734139083 1
gene  2 7 23 8.88894710159522 0 326.0 8.88894710159522 1
gene  2 3 18 0.25223871013287535 0 1228.0 0.25223871013287535 1
gene  1 3 19 -4.214665938001229 0 1229.0 -4.214665938001229 1
gene  2 3 20 -4.229435749510147 0 1230.0 -4.229435749510147 1
gene  1 3 21 5.023977844817706 0 1231.0 5.023977844817706 1
gene  2 3 22 3.549655107769649 0 1232.0 3.549655107769649 1
gene  2 3 23 -1.4614056054014828 0 1233.0 -1.4614056054014828 1
gene  2 15 18 -1.2187482814746493 0 1409.0 -1.2187482814746493 1
gene  1 15 19 -0.6827850626320702 0 1410.0 -0.6827850626320702 1
gene  1 15 20 -1.7469855576417583 0 1411.0 -1.7469855576417583 1
gene  1 15 21 -9.772781062026468 0 1412.0 -9.772781062026468 1
gene  2 15 22 13.680561483106011 0 1413.0 13.680561483106011 1
gene  1 15 23 -5.844431814054577 0 1414.0 -5.844431814054577 1
gene  1 12 19 19.345464442994604 0 1447.0 19.345464442994604 1
gene  1 20 22 3.550438265426151 0 1564.0 3.550438265426151 1
gene  2 6 215 -7.3873065352070455 0 1598.0 -7.3873065352070455 1
gene  2 215 19 1.1304113268611433 0 1599.0 1.1304113268611433 1
gene  1 7 215 2.196639342379163 0 1692.0 2.196639342379163 1
gene  2 10 18 0.9755626230737657 0 1836.0 0.9755626230737657 1
gene  1 10 19 3.9052041365775456 0 1837.0 3.9052041365775456 1
gene  2 10 20 -2.3790762520168593 0 1838.0 -2.3790762520168593 1
gene  1 10 21 -2.5053378150677004 0 1839.0 -2.5053378150677004 1
gene  2 10 22 -0.8346505944020255 0 1840.0 -0.8346505944020255 1
gene  1 10 23 0.378974599258037 0 1841.0 0.378974599258037 1
gene  2 3 215 3.124602176537445 0 1910.0 3.124602176537445 1
gene  1 12 256 -0.41507472331449047 0 1964.0 -0.41507472331449047 1
gene  1 256 19 -2.05939187632235 0 1965.0 -2.05939187632235 1
gene  2 2 343 -1.8638110522324784 0 2558.0 -1.8638110522324784 1
gene  2 343 22 8.122198306288961 0 2559.0 8.122198306288961 1
genomeend 23
genomestart  24
trait 1 0.03677791473700942 0.0 0.0 0.028410273354140148 0.0 0.0 0.3333281169922853 0.0 
trait 2 0.8156804441277457 0.0 0.0 0.7653284558241966 0.0 0.7585199583982197 0.3286716353638074 0.0 
node 1 1 1 1
node 2 1 1 1
node 3 1 1 1
node 4 1 1 1
node 5 1 1 1
node 6 1 1 1
node 7 1 1 1
node 8 1 1 1
node 9 1 1 1
node 10 1 1 1
node 11 1 1 1
node 12 1 1 1
node 13 1 1 1
node 14 1 1 1
node 15 1 1 1
node 16 1 1 1
node 17 1 1 3
node 18 1 0 2
node 19 1 0 2
node 20 1 0 2
node 21 2 0 2
node 22 1 0 2
node 23 1 0 2
node 215 1 0 0
node 256 1 0 0
node 343 1 0 0
gene  1 17 18 -6.81342585315663 0 1.0 -6.81342585315663 1
gene  1 17 19 4.307091354120793 0 1.0 4.307091354120793 1
gene  1 17 20 -6.523709458409815 0 1.0 -6.523709458409815 1
gene  1 17 21 0.6077743438003149 0 1.0 0.6077743438003149 1
gene  1 17 22 -7.017156453507893 0 1.0 -7.017156453507893 1
gene  1 17 23 5.746053551285458 0 1.0 5.746053551285458 1
gene  2 5 18 0.05290128052086951 0 6.0 0.05290128052086951 1
gene  1 5 19 0.012809471278820539 0 7.0 0.012809471278820539 1
gene  1 5 20 2.3679523850039934 0 8.0 2.3679523850039934 1
gene  2 5 21 -2.3044725159107027 0 9.0 -2.3044725159107027 1
gene  1 5 22 9.704839199528045 0 10.0 9.704839199528045 1
gene  1 5 23 -4.7768241666772955 0 11.0 -4.7768241666772955 1
gene  2 1 18 0.38035678041118115 0 46.0 0.38035678041118115 1
gene  2 1 19 0.10437259144976374 0 47.0 0.10437259144976374 1
gene  2 1 20 3.6338662092948475 0 45.0 3.6338662092948475 1
gene  2 1 21 -2.9100228105264216 0 48.0 -2.9100228105264216 1
gene  2 1 22 -3.9820404275058134 0 49.0 -3.9820404275058134 1
gene  1 1 23 -3.0699515531764514 0 50.0 -3.0699515531764514 1
gene  1 14 18 5.894835972823111 0 85.0 5.894835972823111 1
gene  2 14 19 5.146522909270223 0 86.0 5.146522909270223 1
gene  2 14 20 -3.1831538553916037 0 87.0 -3.1831538553916037 1
gene  2 14 21 -5.193624937117799 0 63.0 -5.193624937117799 1
gene  2 14 22 2.1443513978577253 0 88.0 2.1443513978577253 1
gene  2 14 23 -7.579586430540491 0 89.0 -7.579586430540491 1
gene  2 6 19 -0.22679824742152604 0 168.0 -0.22679824742152604 1
gene  2 2 18 -6.683273367756615 0 200.0 -6.683273367756615 1
gene  2 2 19 -1.1097427476585189 0 201.0 -1.1097427476585189 1
gene  2 2 20 1.95662128549065 0 202.0 1.95662128549065 1
gene  1 2 21 8.705944809097884 0 203.0 8.705944809097884 1
gene  2 2 22 4.319475576189935 0 204.0 4.319475576189935 0
gene  2 2 23 2.6460288828260348 0 205.0 2.6460288828260348 1
gene  1 7 18 -5.493915083319564 0 322.0 -5.493915083319564 1
gene  1 7 19 -0.49422556969983855 0 296.0 -0.49422556969983855 1
gene  2 7 20 1.5348243873935188 0 323.0 1.5348243873935188 1
gene  2 7 21 8.014337598897225 0 324.0 8.014337598897225 1
gene  2 7 22 0.6547894861815406 0 325.0 0.6547894861815406 1
gene  2 7 23 5.717394933296324 0 326.0 5.717394933296324 1
gene  2 3 18 1.9018185349237748 0 1228.0 1.9018185349237748 1
gene  1 3 19 0.03469152672369269 0 1229.0 0.03469152672369269 1
gene  2 3 20 -3.995851325029043 0 1230.0 -3.995851325029043 1
gene  1 3 21 1.4386420755126554 0 1231.0 1.4386420755126554 1
gene  2 3 22 2.834106417285925 0 1232.0 2.834106417285925 1
gene  2 3 23 -0.14065721465569125 0 1233.0 -0.14065721465569125 1
gene  2 15 18 -2.8230584509454477 0 1409.0 -2.8230584509454477 1
gene  1 15 19 -0.9899128236183611 0 1410.0 -0.9899128236183611 1
gene  1 15 20 -0.4803866384711837 0 1411.0 -0.4803866384711837 1
gene  1 15 21 -6.920494919792293 0 1412.0 -6.920494919792293 1
gene  2 15 22 11.868433411796659 0 1413.0 11.868433411796659 1
gene  1 15 23 -6.029775341722553 0 1414.0 -6.029775341722553 1
gene  1 12 19 19.705248305569413 0 1447.0 19.705248305569413 1
gene  1 20 22 0.40196698356677885 0 1564.0 0.40196698356677885 1
gene  2 6 215 -7.027193460119193 0 1598.0 -7.027193460119193 1
gene  2 215 19 3.0148316912277098 0 1599.0 3.0148316912277098 1
gene  1 7 215 5.080872345867352 0 1692.0 5.080872345867352 1
gene  2 10 18 2.477103695911237 0 1836.0 2.477103695911237 1
gene  1 10 19 1.8456164131561852 0 1837.0 1.8456164131561852 1
gene  2 10 20 1.150345750969273 0 1838.0 1.150345750969273 1
gene  1 10 21 -2.925259997183379 0 1839.0 -2.925259997183379 1
gene  2 10 22 0.6910281085293692 0 1840.0 0.6910281085293692 1
gene  1 10 23 -1.9916722183646676 0 1841.0 -1.9916722183646676 1
gene  2 3 215 1.1312862920409326 0 1910.0 1.1312862920409326 1
gene  1 12 256 -1.4675036992640498 0 1964.0 -1.4675036992640498 1
gene  1 256 19 9.780609851614955 0 1965.0 9.780609851614955 1
gene  2 2 343 -0.7624110491951547 0 2558.0 -0.7624110491951547 1
gene  2 343 22 6.746750781057538 0 2559.0 6.746750781057538 1
genomeend 24
genomestart  25
trait 1 0.03677791473700942 0.0 0.0 0.028410273354140148 0.0 0.0 0.3333281169922853 0.0 
trait 2 0.8156804441277457 0.0 0.0 0.7653284558241966 0.0 0.7585199583982197 0.3286716353638074 0.0 
node 1 1 1 1
node 2 1 1 1
node 3 1 1 1
node 4 1 1 1
node 5 1 1 1
node 6 1 1 1
node 7 1 1 1
node 8 1 1 1
node 9 1 1 1
node 10 1 1 1
node 11 1 1 1
node 12 1 1 1
node 13 1 1 1
node 14 1 1 1
node 15 1 1 1
node 16 1 1 1
node 17 1 1 3
node 18 1 0 2
node 19 1 0 2
node 20 1 0 2
node 21 2 0 2
node 22 1 0 2
node 23 1 0 2
node 215 1 0 0
node 256 1 0 0
node 343 1 0 0
gene  1 17 18 -5.8272822805932645 0 1.0 -5.8272822805932645 1
gene  1 17 19 2.5613518255936434 0 1.0 2.5613518255936434 1
gene  1 17 20 -4.94418267899315 0 1.0 -4.94418267899315 1
gene  1 17 21 2.8893977017655086 0 1.0 2.8893977017655086 1
