genomestart  0
trait 1 0.2775651715169364 0.0 0.9803094690668154 0.7160542295213038 0.0 0.0 0.0 0.7069531750113396 
trait 2 0.0 0.0 0.3195074345452035 0.0 0.0 0.0 0.0 0.0 
node 1 1 1 1
node 2 1 1 1
node 3 1 1 1
node 4 2 1 1
node 5 1 1 1
node 6 1 1 1
node 7 1 1 1
node 8 1 1 1
node 9 1 1 1
node 10 1 1 1
node 11 1 1 1
node 12 1 1 1
node 13 1 1 1
node 14 1 1 1
node 15 1 1 1
node 16 1 1 1
node 17 1 1 1
node 18 1 1 1
node 19 1 1 1
node 20 1 1 1
node 21 1 1 1
node 22 1 1 1
node 23 1 1 1
node 24 1 1 1
node 25 1 1 1
node 26 1 1 1
node 27 1 1 1
node 28 1 1 1
node 29 1 1 1
node 30 1 1 3
node 31 1 0 2
node 32 1 0 2
node 33 1 0 2
node 34 1 0 2
node 35 1 0 2
node 36 1 0 2
gene  1 30 31 -3.168468300590167 0 1.0 -3.168468300590167 1
gene  1 30 32 7.535471175616919 0 1.0 7.535471175616919 1
gene  1 30 33 -3.5802969873238166 0 1.0 -3.5802969873238166 1
gene  1 30 34 -2.0322899413230258 0 1.0 -2.0322899413230258 1
gene  1 30 35 -4.249661909197005 0 1.0 -4.249661909197005 1
gene  1 30 36 3.749274776887633 0 1.0 3.749274776887633 1
gene  1 12 31 -5.935540407677835 0 77.0 -5.935540407677835 1
gene  1 12 32 -8.34581356370652 0 78.0 -8.34581356370652 1
gene  2 12 33 -2.7711773141768896 0 79.0 -2.7711773141768896 1
gene  1 12 34 1.5765236954364363 0 80.0 1.5765236954364363 1
gene  1 12 35 -1.030772775945667 0 81.0 -1.030772775945667 1
gene  1 12 36 -8.563024362136249 0 82.0 -8.563024362136249 1
gene  1 21 31 -10.119177291306887 0 107.0 -10.119177291306887 1
gene  1 21 32 0.4101349753848075 0 108.0 0.4101349753848075 1
gene  1 21 33 -6.444718153788353 0 109.0 -6.444718153788353 1
gene  1 21 34 1.6672345494999241 0 110.0 1.6672345494999241 1
gene  1 21 35 -6.087944241034452 0 111.0 -6.087944241034452 1
gene  2 21 36 1.946758707814158 0 112.0 1.946758707814158 1
gene  1 11 31 -0.4332707626261313 0 189.0 -0.4332707626261313 1
gene  1 11 32 -6.110589287223689 0 190.0 -6.110589287223689 1
gene  2 11 33 -0.28436749245741577 0 191.0 -0.28436749245741577 1
gene  1 11 34 -3.8307025084362554 0 192.0 -3.8307025084362554 1
gene  1 11 35 -2.836866395185025 0 193.0 -2.836866395185025 1
gene  2 11 36 4.2809339991631425 0 194.0 4.2809339991631425 1
gene  1 14 31 -2.5487662149481407 0 352.0 -2.5487662149481407 1
gene  1 14 32 -2.390976825315138 0 353.0 -2.390976825315138 1
gene  2 14 33 -2.274215855515429 0 354.0 -2.274215855515429 1
gene  1 14 34 19.829961671545327 0 355.0 19.829961671545327 1
gene  2 14 35 0.16887966257494647 0 356.0 0.16887966257494647 1
gene  1 14 36 9.148018614394024 0 357.0 9.148018614394024 1
gene  2 22 31 1.0697839355509413 0 384.0 1.0697839355509413 1
gene  2 22 32 2.3818438699820557 0 385.0 2.3818438699820557 1
gene  1 22 33 -0.6649284269627276 0 386.0 -0.6649284269627276 1
gene  1 22 34 8.25224986773155 0 387.0 8.25224986773155 1
gene  1 22 35 0.6194542222299835 0 388.0 0.6194542222299835 1
gene  2 22 36 -2.4810657307523183 0 389.0 -2.4810657307523183 1
gene  2 10 33 -1.9377568808858072 0 435.0 -1.9377568808858072 1
genomeend 0
genomestart  1
trait 1 0.2775651715169364 0.0 0.9803094690668154 0.7160542295213038 0.0 0.0 0.0 0.7069531750113396 
trait 2 0.13443430009175789 0.0 0.0 0.0 0.0 0.0 0.0 0.0 
node 1 1 1 1
node 2 1 1 1
node 3 1 1 1
node 4 2 1 1
node 5 1 1 1
node 6 1 1 1
node 7 1 1 1
node 8 1 1 1
node 9 1 1 1
node 10 1 1 1
node 11 1 1 1
node 12 1 1 1
node 13 1 1 1
node 14 1 1 1
node 15 1 1 1
node 16 1 1 1
node 17 1 1 1
node 18 1 1 1
node 19 1 1 1
node 20 1 1 1
node 21 1 1 1
node 22 1 1 1
node 23 1 1 1
node 24 1 1 1
node 25 1 1 1
node 26 1 1 1
node 27 1 1 1
node 28 1 1 1
node 29 1 1 1
node 30 1 1 3
node 31 1 0 2
node 32 1 0 2
node 33 1 0 2
node 34 1 0 2
node 35 1 0 2
node 36 1 0 2
gene  1 30 31 -3.1391166069094547 0 1.0 -3.1391166069094547 1
gene  1 30 32 6.211902154511053 0 1.0 6.211902154511053 1
gene  1 30 33 -0.22462044196593395 0 1.0 -0.22462044196593395 1
gene  1 30 34 -2.6333950280313756 0 1.0 -2.6333950280313756 1
gene  1 30 35 -2.6095229695520272 0 1.0 -2.6095229695520272 1
gene  1 30 36 6.463913086863737 0 1.0 6.463913086863737 1
gene  1 12 31 -1.080763019363983 0 77.0 -1.080763019363983 1
gene  1 12 32 -7.437987411170386 0 78.0 -7.437987411170386 1
gene  2 12 33 2.4791088685288134 0 79.0 2.4791088685288134 1
gene  1 12 34 2.41356405354997 0 80.0 2.41356405354997 1
gene  1 12 35 2.4055679478650305 0 81.0 2.4055679478650305 1
gene  1 12 36 -12.791820233831569 0 82.0 -12.791820233831569 1
gene  1 21 31 -8.409014579474107 0 107.0 -8.409014579474107 1
gene  1 21 32 -1.2769323042884206 0 108.0 -1.2769323042884206 1
gene  1 21 33 -2.1426316720990854 0 109.0 -2.1426316720990854 1
gene  1 21 34 1.2212868992736527 0 110.0 1.2212868992736527 1
gene  1 21 35 -2.119029583811349 0 111.0 -2.119029583811349 1
gene  2 21 36 -0.7108254232201627 0 112.0 -0.7108254232201627 1
gene  1 11 31 -2.078253632816605 0 189.0 -2.078253632816605 1
gene  1 11 32 -3.0681646894283245 0 190.0 -3.0681646894283245 1
gene  2 11 33 0.7465609964872182 0 191.0 0.7465609964872182 1
gene  1 11 34 0.10247594464270549 0 192.0 0.10247594464270549 1
gene  1 11 35 -1.1278644896828796 0 193.0 -1.1278644896828796 1
gene  2 11 36 2.2281412418518602 0 194.0 2.2281412418518602 1
gene  1 14 31 -3.94717053272279 0 352.0 -3.94717053272279 1
gene  1 14 32 -0.608157326361238 0 353.0 -0.608157326361238 1
gene  2 14 33 -2.381597945432346 0 354.0 -2.381597945432346 1
gene  1 14 34 19.390338426071033 0 355.0 19.390338426071033 1
gene  2 14 35 0.7150059285606918 0 356.0 0.7150059285606918 1
gene  1 14 36 6.76736409050894 0 357.0 6.76736409050894 1
gene  2 22 31 -8.278653058777362 0 384.0 -8.278653058777362 1
gene  2 22 32 0.6482844748603003 0 385.0 0.6482844748603003 1
gene  1 22 33 0.7206006290958478 0 386.0 0.7206006290958478 1
gene  1 22 34 8.232556779843813 0 387.0 8.232556779843813 1
gene  1 22 35 -1.6387654093511754 0 388.0 -1.6387654093511754 1
gene  2 22 36 -2.5177788969285344 0 389.0 -2.5177788969285344 1
gene  2 10 33 -2.5590435294186133 0 435.0 -2.5590435294186133 1
genomeend 1
genomestart  2
trait 1 0.2775651715169364 0.0 0.9803094690668154 0.7160542295213038 0.0 0.0 0.0 0.7069531750113396 
trait 2 0.13443430009175789 0.0 0.0 0.0 0.0 0.0 0.0 0.0 
node 1 1 1 1
node 2 1 1 1
node 3 1 1 1
node 4 2 1 1
node 5 1 1 1
node 6 1 1 1
node 7 1 1 1
node 8 1 1 1
node 9 1 1 1
node 10 1 1 1
node 11 1 1 1
node 12 1 1 1
node 13 1 1 1
node 14 1 1 1
node 15 1 1 1
node 16 1 1 1
node 17 1 1 1
node 18 1 1 1
node 19 1 1 1
node 20 1 1 1
node 21 1 1 1
node 22 1 1 1
node 23 1 1 1
node 24 1 1 1
node 25 1 1 1
node 26 1 1 1
node 27 1 1 1
node 28 1 1 1
node 29 1 1 1
node 30 1 1 3
node 31 1 0 2
node 32 1 0 2
node 33 1 0 2
node 34 1 0 2
node 35 1 0 2
node 36 1 0 2
gene  1 30 31 -3.097645554793731 0 1.0 -3.097645554793731 1
gene  1 30 32 8.14329754395581 0 1.0 8.14329754395581 1
gene  1 30 33 -3.7554628616629357 0 1.0 -3.7554628616629357 1
gene  1 30 34 -2.122198973123565 0 1.0 -2.122198973123565 1
gene  1 30 35 -1.960596907244516 0 1.0 -1.960596907244516 1
gene  1 30 36 7.221805399795559 0 1.0 7.221805399795559 1
gene  1 12 31 -3.717668065963638 0 77.0 -3.717668065963638 1
gene  1 12 32 -6.212673167095847 0 78.0 -6.212673167095847 1
gene  2 12 33 -0.2623135315730605 0 79.0 -0.2623135315730605 1
gene  1 12 34 3.535329404601068 0 80.0 3.535329404601068 1
gene  1 12 35 -1.1688361403904661 0 81.0 -1.1688361403904661 1
gene  1 12 36 0.9206471528904575 0 82.0 0.9206471528904575 1
gene  1 21 31 -2.4801301551115555 0 107.0 -2.4801301551115555 1
gene  1 21 32 -1.9264313635824282 0 108.0 -1.9264313635824282 1
gene  1 21 33 0.04062681276745722 0 109.0 0.04062681276745722 1
gene  1 21 34 2.026831618343458 0 110.0 2.026831618343458 1
gene  1 21 35 -2.1005929054374075 0 111.0 -2.1005929054374075 1
gene  2 21 36 -0.24033044466261488 0 112.0 -0.24033044466261488 1
gene  1 11 31 -0.17406050911456628 0 189.0 -0.17406050911456628 1
gene  1 11 32 -2.981061667315722 0 190.0 -2.981061667315722 1
gene  2 11 33 -0.9818736017373982 0 191.0 -0.9818736017373982 1
gene  1 11 34 -0.19748979548511114 0 192.0 -0.19748979548511114 1
gene  1 11 35 -4.6342292223165105 0 193.0 -4.6342292223165105 1
gene  2 11 36 3.352773650528591 0 194.0 3.352773650528591 1
gene  1 14 31 -4.171992724822371 0 352.0 -4.171992724822371 1
gene  1 14 32 1.317246977706157 0 353.0 1.317246977706157 1
gene  2 14 33 1.706847767020903 0 354.0 1.706847767020903 1
gene  1 14 34 1.949375827986743 0 355.0 1.949375827986743 1
gene  2 14 35 1.70965166042835 0 356.0 1.70965166042835 1
gene  1 14 36 8.524854437087768 0 357.0 8.524854437087768 1
gene  2 22 31 -9.551255671177604 0 384.0 -9.551255671177604 1
gene  2 22 32 2.8112970738814926 0 385.0 2.8112970738814926 1
gene  1 22 33 0.45921613457838983 0 386.0 0.45921613457838983 1
gene  1 22 34 7.206137855466963 0 387.0 7.206137855466963 1
gene  1 22 35 1.3358789923134595 0 388.0 1.3358789923134595 1
gene  2 22 36 -4.403059842651211 0 389.0 -4.403059842651211 1
gene  2 10 33 -0.3659977252077482 0 435.0 -0.3659977252077482 1
genomeend 2
genomestart  3
trait 1 0.2775651715169364 0.0 0.9803094690668154 0.7160542295213038 0.0 0.0 0.0 0.7069531750113396 
trait 2 0.13443430009175789 0.0 0.0 0.0 0.0 0.0 0.0 0.0 
node 1 1 1 1
node 2 1 1 1
node 3 1 1 1
node 4 2 1 1
node 5 1 1 1
node 6 1 1 1
node 7 1 1 1
node 8 1 1 1
node 9 1 1 1
node 10 1 1 1
node 11 1 1 1
node 12 1 1 1
node 13 1 1 1
node 14 1 1 1
node 15 1 1 1
node 16 1 1 1
node 17 1 1 1
node 18 1 1 1
node 19 1 1 1
node 20 1 1 1
node 21 1 1 1
node 22 1 1 1
node 23 1 1 1
node 24 1 1 1
node 25 1 1 1
node 26 1 1 1
node 27 1 1 1
node 28 1 1 1
node 29 1 1 1
node 30 1 1 3
node 31 1 0 2
node 32 1 0 2
node 33 1 0 2
node 34 1 0 2
node 35 1 0 2
node 36 1 0 2
gene  1 30 31 -2.759886622606301 0 1.0 -2.759886622606301 1
gene  1 30 32 5.158761839566415 0 1.0 5.158761839566415 1
gene  1 30 33 -0.9430749713586277 0 1.0 -0.9430749713586277 1
gene  1 30 34 0.03350348984732854 0 1.0 0.03350348984732854 1
gene  1 30 35 -3.764968630371653 0 1.0 -3.764968630371653 1
gene  1 30 36 6.538057202855429 0 1.0 6.538057202855429 1
gene  1 12 31 -1.6655162841550897 0 77.0 -1.6655162841550897 1
gene  1 12 32 -9.211375672086358 0 78.0 -9.211375672086358 1
gene  2 12 33 -1.9596643133390566 0 79.0 -1.9596643133390566 1
gene  1 12 34 3.0464504199530102 0 80.0 3.0464504199530102 1
gene  1 12 35 1.3350493976590205 0 81.0 1.3350493976590205 1
gene  1 12 36 -8.033082744890905 0 82.0 -8.033082744890905 1
gene  1 21 31 -6.2342492961800335 0 107.0 -6.2342492961800335 1
gene  1 21 32 -0.8900401138344372 0 108.0 -0.8900401138344372 1
gene  1 21 33 -5.098271947476084 0 109.0 -5.098271947476084 1
gene  1 21 34 4.007788494780043 0 110.0 4.007788494780043 1
gene  1 21 35 -4.833921630969892 0 111.0 -4.833921630969892 1
gene  2 21 36 -0.21638618221034367 0 112.0 -0.21638618221034367 1
gene  1 11 31 -1.0352895666257071 0 189.0 -1.0352895666257071 1
gene  1 11 32 -3.2539793603769978 0 190.0 -3.2539793603769978 1
gene  2 11 33 -3.362485880146329 0 191.0 -3.362485880146329 1
gene  1 11 34 -3.378727527993159 0 192.0 -3.378727527993159 1
gene  1 11 35 -2.6813499629615105 0 193.0 -2.6813499629615105 1
gene  2 11 36 3.288033698454812 0 194.0 3.288033698454812 1
gene  1 14 31 -1.355393094631788 0 352.0 -1.355393094631788 1
gene  1 14 32 -1.9826662493526714 0 353.0 -1.9826662493526714 1
gene  2 14 33 -3.1170738212971214 0 354.0 -3.1170738212971214 1
gene  1 14 34 19.273557649312252 0 355.0 19.273557649312252 1
gene  2 14 35 -0.3217986713282736 0 356.0 -0.3217986713282736 1
gene  1 14 36 9.825801827179497 0 357.0 9.825801827179497 1
gene  2 22 31 -9.429422104900842 0 384.0 -9.429422104900842 1
gene  2 22 32 1.2265629417232313 0 385.0 1.2265629417232313 1
gene  1 22 33 -1.8911051845058904 0 386.0 -1.8911051845058904 1
gene  1 22 34 8.578632352881293 0 387.0 8.578632352881293 1
gene  1 22 35 -1.7357212327609628 0 388.0 -1.7357212327609628 1
gene  2 22 36 -0.4222706371076361 0 389.0 -0.4222706371076361 1
gene  2 10 33 0.2393375444096959 0 435.0 0.2393375444096959 1
genomeend 3
genomestart  4
trait 1 0.2775651715169364 0.37667886504686954 0.9030847096865968 0.7160542295213038 0.0 0.0 0.0 0.42609409923566866 
trait 2 0.13443430009175789 0.300799354438374 1.4450165569557343 0.6422694728249357 1.1142451899175638 0.0 0.6843338880121604 0.8887360909749912 
node 1 1 1 1
node 2 1 1 1
node 3 1 1 1
node 4 1 1 1
node 5 1 1 1
node 6 1 1 1
node 7 1 1 1
node 8 1 1 1
node 9 1 1 1
node 10 1 1 1
node 11 1 1 1
node 12 1 1 1
node 13 1 1 1
node 14 1 1 1
node 15 1 1 1
node 16 1 1 1
node 17 1 1 1
node 18 1 1 1
node 19 1 1 1
node 20 1 1 1
node 21 1 1 1
node 22 1 1 1
node 23 1 1 1
node 24 1 1 1
node 25 1 1 1
node 26 1 1 1
node 27 1 1 1
node 28 1 1 1
node 29 1 1 1
node 30 1 1 3
node 31 1 0 2
node 32 1 0 2
node 33 1 0 2
node 34 1 0 2
node 35 1 0 2
node 36 1 0 2
node 79 1 0 0
node 89 1 0 0
gene  1 30 31 -2.425450197105787 0 1.0 -2.425450197105787 1
gene  1 30 32 3.7842151524338012 0 1.0 3.7842151524338012 1
gene  1 30 33 -1.2073314295379 0 1.0 -1.2073314295379 1
gene  1 30 34 -3.766047525689957 0 1.0 -3.766047525689957 1
gene  1 30 35 0.9366507524762506 0 1.0 0.9366507524762506 1
gene  1 30 36 1.1499531064534907 0 1.0 1.1499531064534907 1
gene  1 12 31 -0.16473063334602323 0 77.0 -0.16473063334602323 1
gene  1 12 32 -1.0382337338119867 0 78.0 -1.0382337338119867 1
gene  2 12 33 0.5508910880011635 0 79.0 0.5508910880011635 1
gene  1 12 34 3.398128475139158 0 80.0 3.398128475139158 1
gene  1 12 35 2.383110684853785 0 81.0 2.383110684853785 1
gene  1 12 36 -5.690666854939653 0 82.0 -5.690666854939653 1
gene  1 21 31 -4.349083610013492 0 107.0 -4.349083610013492 1
gene  1 21 32 -1.3335017635720119 0 108.0 -1.3335017635720119 1
gene  1 21 33 -10.688338510220161 0 109.0 -10.688338510220161 1
gene  2 21 34 1.5670553322243492 0 110.0 1.5670553322243492 1
gene  1 21 35 -1.3040401351926456 0 111.0 -1.3040401351926456 1
gene  2 21 36 3.983444502545525 0 112.0 3.983444502545525 1
gene  1 11 31 -3.860864761902118 0 189.0 -3.860864761902118 1
gene  1 11 32 -2.2912622791091906 0 190.0 -2.2912622791091906 0
gene  2 11 33 0.8924235672660391 0 191.0 0.8924235672660391 1
gene  1 11 34 -1.264352415767005 0 192.0 -1.264352415767005 1
gene  1 11 35 2.561097785323505 0 193.0 2.561097785323505 1
gene  2 11 36 -4.71820327269522 0 194.0 -4.71820327269522 1
gene  1 14 31 -10.76120855392489 0 352.0 -10.76120855392489 1
gene  1 14 32 -7.015187821906151 0 353.0 -7.015187821906151 1
gene  2 14 33 -3.044153255590059 0 354.0 -3.044153255590059 1
gene  1 14 34 6.125889748314261 0 355.0 6.125889748314261 1
gene  2 14 35 3.339108187997317 0 356.0 3.339108187997317 1
gene  1 14 36 -4.146998438776159 0 357.0 -4.146998438776159 1
gene  2 3 31 -6.664804709658485 0 371.0 -6.664804709658485 1
gene  1 3 32 -1.9403692995424477 0 372.0 -1.9403692995424477 1
gene  1 3 33 3.2510576461000644 0 373.0 3.2510576461000644 1
gene  2 3 34 1.1102568827608033 0 374.0 1.1102568827608033 1
gene  1 3 35 4.168724805929645 0 375.0 4.168724805929645 1
gene  2 3 36 -2.1259015388894804 0 376.0 -2.1259015388894804 1
gene  1 11 79 -0.968900873858366 0 418.0 -0.968900873858366 1
gene  1 79 32 -2.845341097970243 0 419.0 -2.845341097970243 1
gene  2 34 31 1.2231176655113196 0 430.0 1.2231176655113196 1
gene  1 21 89 1.935378418470044 0 489.0 1.935378418470044 1
gene  1 89 32 -1.155713586226556 0 490.0 -1.155713586226556 1
gene  2 6 79 -5.1706160776687256 0 498.0 -5.1706160776687256 1
genomeend 4
genomestart  5
trait 1 0.2775651715169364 0.0 0.9803094690668154 0.7160542295213038 0.0 0.0 0.0 0.7069531750113396 
trait 2 0.13443430009175789 0.300799354438374 1.4450165569557343 0.6422694728249357 1.1142451899175638 0.0 0.6843338880121604 0.8887360909749912 
node 1 1 1 1
node 2 1 1 1
node 3 1 1 1
node 4 1 1 1
node 5 1 1 1
node 6 1 1 1
node 7 1 1 1
node 8 1 1 1
node 9 1 1 1
node 10 1 1 1
node 11 1 1 1
node 12 1 1 1
node 13 1 1 1
node 14 1 1 1
node 15 1 1 1
node 16 1 1 1
node 17 1 1 1
node 18 1 1 1
node 19 1 1 1
node 20 1 1 1
node 21 1 1 1
node 22 1 1 1
node 23 1 1 1
node 24 1 1 1
node 25 1 1 1
node 26 1 1 1
node 27 1 1 1
node 28 1 1 1
node 29 1 1 1
node 30 1 1 3
node 31 1 0 2
node 32 1 0 2
node 33 1 0 2
node 34 1 0 2
node 35 1 0 2
node 36 1 0 2
node 79 1 0 0
node 89 1 0 0
gene  1 30 31 -5.846036156892488 0 1.0 -5.846036156892488 1
gene  1 30 32 0.6860814002387814 0 1.0 0.6860814002387814 1
gene  1 30 33 -0.4539704501387065 0 1.0 -0.4539704501387065 1
gene  1 30 34 -3.8007629791725592 0 1.0 -3.8007629791725592 1
gene  1 30 35 -3.6760139546409407 0 1.0 -3.6760139546409407 1
gene  1 30 36 -0.4437337712322784 0 1.0 -0.4437337712322784 1
gene  1 12 31 -1.7831828355877655 0 77.0 -1.7831828355877655 1
gene  1 12 32 0.8697794355109216 0 78.0 0.8697794355109216 1
gene  2 12 33 2.8960605491991513 0 79.0 2.8960605491991513 1
gene  1 12 34 2.4276473926943614 0 80.0 2.4276473926943614 1
gene  1 12 35 0.7693079561231897 0 81.0 0.7693079561231897 1
gene  1 12 36 1.1620745045881606 0 82.0 1.1620745045881606 1
gene  1 21 31 -3.9343038412734446 0 107.0 -3.9343038412734446 1
gene  1 21 32 -1.5678709671889377 0 108.0 -1.5678709671889377 1
gene  1 21 33 -10.527208399415201 0 109.0 -10.527208399415201 1
gene  2 21 34 -1.7357827747384422 0 110.0 -1.7357827747384422 1
gene  1 21 35 -0.36576711844167614 0 111.0 -0.36576711844167614 1
gene  2 21 36 -2.405261309959363 0 112.0 -2.405261309959363 1
gene  1 11 31 -5.242430069707158 0 189.0 -5.242430069707158 1
gene  1 11 32 -1.1358615182720702 0 190.0 -1.1358615182720702 0
gene  2 11 33 -0.4059949234891922 0 191.0 -0.4059949234891922 1
gene  1 11 34 -0.5506792020142524 0 192.0 -0.5506792020142524 1
gene  1 11 35 -0.14780212259333725 0 193.0 -0.14780212259333725 1
gene  2 11 36 -2.4075075804616466 0 194.0 -2.4075075804616466 1
gene  1 14 31 -12.097096008068238 0 352.0 -12.097096008068238 1
gene  1 14 32 -8.292076472746237 0 353.0 -8.292076472746237 1
gene  2 14 33 -4.460677502107235 0 354.0 -4.460677502107235 1
gene  1 14 34 7.240818983361622 0 355.0 7.240818983361622 1
gene  2 14 35 -1.5527456308068175 0 356.0 -1.5527456308068175 1
gene  1 14 36 -3.053023639639975 0 357.0 -3.053023639639975 1
gene  2 3 31 2.260005055719242 0 371.0 2.260005055719242 1
gene  1 3 32 -2.4689729356842607 0 372.0 -2.4689729356842607 1
gene  1 3 33 3.9022006545375727 0 373.0 3.9022006545375727 1
gene  2 3 34 -1.3965615855271276 0 374.0 -1.3965615855271276 1
gene  1 3 35 0.2740428599553085 0 375.0 0.2740428599553085 1
gene  2 3 36 0.30806749541337797 0 376.0 0.30806749541337797 1
gene  1 11 79 -1.9459722129298054 0 418.0 -1.9459722129298054 1
gene  1 79 32 -2.9943181390993594 0 419.0 -2.9943181390993594 1
gene  2 34 31 -0.7861480938633751 0 430.0 -0.7861480938633751 1
gene  1 21 89 2.667415555724084 0 489.0 2.667415555724084 1
gene  1 89 32 2.486193154900331 0 490.0 2.486193154900331 1
gene  2 6 79 -4.396243043363555 0 498.0 -4.396243043363555 1
genomeend 5
genomestart  6
trait 1 0.2775651715169364 0.0 0.9803094690668154 0.7160542295213038 0.8911971014105776 0.0 0.0 0.7069531750113396 
trait 2 0.13443430009175789 0.0 0.0 0.0 0.0 0.0 0.8445327913946056 0.0 
node 1 1 1 1
node 2 1 1 1
node 3 1 1 1
node 4 1 1 1
node 5 1 1 1
node 6 1 1 1
node 7 1 1 1
node 8 1 1 1
node 9 1 1 1
node 10 1 1 1
node 11 1 1 1
node 12 1 1 1
node 13 1 1 1
node 14 1 1 1
node 15 1 1 1
node 16 1 1 1
node 17 1 1 1
node 18 1 1 1
node 19 1 1 1
node 20 1 1 1
node 21 1 1 1
node 22 1 1 1
node 23 1 1 1
node 24 1 1 1
node 25 1 1 1
node 26 1 1 1
node 27 1 1 1
node 28 1 1 1
node 29 1 1 1
node 30 1 1 3
node 31 1 0 2
node 32 1 0 2
node 33 1 0 2
node 34 1 0 2
node 35 1 0 2
node 36 1 0 2
node 83 1 0 0
node 93 1 0 0
gene  1 30 31 -10.048464120040268 0 1.0 -10.048464120040268 1
gene  1 30 32 2.2297231893605503 0 1.0 2.2297231893605503 1
gene  1 30 33 -9.222533709683631 0 1.0 -9.222533709683631 1
gene  1 30 34 -1.231838334168712 0 1.0 -1.231838334168712 1
gene  1 30 35 2.9821008695599334 0 1.0 2.9821008695599334 1
gene  1 30 36 -0.9468159339882306 0 1.0 -0.9468159339882306 1
gene  1 12 31 2.215774362218932 0 77.0 2.215774362218932 1
gene  1 12 32 -2.796887624752806 0 78.0 -2.796887624752806 1
gene  2 12 33 -7.0141021745182375 0 79.0 -7.0141021745182375 1
gene  1 12 34 9.04352548388955 0 80.0 9.04352548388955 1
gene  1 12 35 6.450986213436003 0 81.0 6.450986213436003 1
gene  1 12 36 -9.925625848091041 0 82.0 -9.925625848091041 1
gene  1 21 31 -1.8176428541911835 0 107.0 -1.8176428541911835 1
gene  1 21 32 3.761616437071064 0 108.0 3.761616437071064 1
gene  1 21 33 -0.9362251459017248 0 109.0 -0.9362251459017248 1
gene  1 21 34 -0.42012687827800255 0 110.0 -0.42012687827800255 0
gene  1 21 35 -3.38391016434834 0 111.0 -3.38391016434834 1
gene  2 21 36 1.9942284844670906 0 112.0 1.9942284844670906 1
gene  1 11 31 -1.927518285926443 0 189.0 -1.927518285926443 1
gene  1 11 32 1.8727086930078949 0 190.0 1.8727086930078949 1
gene  2 11 33 2.822023804916357 0 191.0 2.822023804916357 1
gene  1 11 34 -2.7010799738846862 0 192.0 -2.7010799738846862 1
gene  1 11 35 -2.432147827090317 0 193.0 -2.432147827090317 1
gene  2 11 36 1.2778002720780952 0 194.0 1.2778002720780952 1
gene  1 14 31 4.700737033898096 0 352.0 4.700737033898096 1
gene  1 14 32 -5.2715226575242164 0 353.0 -5.2715226575242164 1
gene  2 14 33 0.9991474442025816 0 354.0 0.9991474442025816 1
gene  1 14 34 2.6327902193218327 0 355.0 2.6327902193218327 1
gene  2 14 35 3.2835902323758033 0 356.0 3.2835902323758033 1
gene  1 14 36 5.161616523900167 0 357.0 5.161616523900167 1
gene  1 9 31 3.248071485489585 0 401.0 3.248071485489585 1
gene  1 9 32 11.660797533460016 0 402.0 11.660797533460016 0
gene  1 9 33 -4.4582701492055925 0 403.0 -4.4582701492055925 1
gene  1 9 34 5.0443231689810055 0 404.0 5.0443231689810055 1
gene  1 9 35 2.2892609990961947 0 405.0 2.2892609990961947 1
gene  2 9 36 -1.752742558961823 0 406.0 -1.752742558961823 1
gene  2 3 31 2.7081506682559464 0 426.0 2.7081506682559464 1
gene  2 22 31 1.7895071144393082 0 439.0 1.7895071144393082 1
gene  1 22 32 1.0432889499639462 0 440.0 1.0432889499639462 1
gene  1 22 33 -8.147775201741855 0 441.0 -8.147775201741855 1
gene  1 22 34 -3.750796822935289 0 442.0 -3.750796822935289 1
gene  2 22 35 0.2632070437057277 0 443.0 0.2632070437057277 1
gene  2 22 36 -3.6844354553856937 0 444.0 -3.6844354553856937 1
gene  1 9 83 -2.119102652605875 0 456.0 -2.119102652605875 1
gene  1 83 32 14.917376095774843 0 457.0 14.917376095774843 1
gene  1 21 93 2.329337534624484 0 504.0 2.329337534624484 1
gene  1 93 34 -1.4198949229051143 0 505.0 -1.4198949229051143 1
gene  1 20 36 4.840633933398289 0 520.0 4.840633933398289 1
gene  2 8 36 -1.9315440558905559 0 535.0 -1.9315440558905559 1
gene  1 32 34 5.945914830431829 0 567.0 5.945914830431829 1
genomeend 6
genomestart  7
trait 1 0.2775651715169364 0.0 0.9803094690668154 0.7160542295213038 0.0 0.0 0.0 0.7069531750113396 
trait 2 0.13443430009175789 0.0 0.0 0.0 0.0 0.0 0.8445327913946056 0.0 
node 1 1 1 1
node 2 1 1 1
node 3 1 1 1
node 4 1 1 1
node 5 1 1 1
node 6 1 1 1
node 7 1 1 1
node 8 1 1 1
node 9 1 1 1
node 10 1 1 1
node 11 1 1 1
node 12 1 1 1
node 13 1 1 1
node 14 1 1 1
node 15 1 1 1
node 16 1 1 1
node 17 1 1 1
node 18 1 1 1
node 19 1 1 1
node 20 1 1 1
node 21 1 1 1
node 22 1 1 1
node 23 1 1 1
node 24 1 1 1
node 25 1 1 1
node 26 1 1 1
node 27 1 1 1
node 28 1 1 1
node 29 1 1 1
node 30 1 1 3
node 31 1 0 2
node 32 1 0 2
node 33 1 0 2
node 34 1 0 2
node 35 1 0 2
node 36 1 0 2
node 83 1 0 0
node 93 1 0 0
gene  1 30 31 -13.74426129992905 0 1.0 -13.74426129992905 1
gene  1 30 32 3.364896307138247 0 1.0 3.364896307138247 1
gene  1 30 33 -5.95768891952053 0 1.0 -5.95768891952053 1
gene  1 30 34 -2.5603006455895247 0 1.0 -2.5603006455895247 1
gene  1 30 35 1.5965583813932813 0 1.0 1.5965583813932813 1
gene  1 30 36 -1.7573766596155318 0 1.0 -1.7573766596155318 1
gene  1 12 31 -2.156425750127867 0 77.0 -2.156425750127867 1
gene  1 12 32 -4.0770648601031745 0 78.0 -4.0770648601031745 1
gene  2 12 33 -6.025809670061712 0 79.0 -6.025809670061712 1
gene  1 12 34 6.770015517667825 0 80.0 6.770015517667825 1
gene  1 12 35 8.422480978345204 0 81.0 8.422480978345204 1
gene  1 12 36 -10.690694417999094 0 82.0 -10.690694417999094 1
gene  1 21 31 -0.6704941461343963 0 107.0 -0.6704941461343963 1
gene  1 21 32 1.1039388688698653 0 108.0 1.1039388688698653 1
gene  1 21 33 -1.766031917719419 0 109.0 -1.766031917719419 1
gene  1 21 34 1.1559322448677403 0 110.0 1.1559322448677403 0
gene  1 21 35 -2.419296498186384 0 111.0 -2.419296498186384 1
gene  2 21 36 2.635673516912432 0 112.0 2.635673516912432 1
gene  1 11 31 -1.557309132278905 0 189.0 -1.557309132278905 1
gene  1 11 32 2.9841074367820357 0 190.0 2.9841074367820357 1
gene  2 11 33 2.6717549604635327 0 191.0 2.6717549604635327 1
gene  1 11 34 0.2448735123409449 0 192.0 0.2448735123409449 1
gene  1 11 35 -3.928788400116241 0 193.0 -3.928788400116241 1
gene  2 11 36 2.7037950442619327 0 194.0 2.7037950442619327 1
gene  1 14 31 -0.622835371756189 0 352.0 -0.622835371756189 1
gene  1 14 32 -8.807096112353545 0 353.0 -8.807096112353545 1
gene  2 14 33 -2.697001396735943 0 354.0 -2.697001396735943 1
gene  1 14 34 7.473016636060729 0 355.0 7.473016636060729 1
gene  2 14 35 7.054115370144492 0 356.0 7.054115370144492 1
gene  1 14 36 2.0820596423309046 0 357.0 2.0820596423309046 1
gene  1 9 31 4.504217460066888 0 401.0 4.504217460066888 1
gene  1 9 32 10.88245644861787 0 402.0 10.88245644861787 0
gene  1 9 33 -3.9227391235553952 0 403.0 -3.9227391235553952 1
gene  1 9 34 4.082720830015456 0 404.0 4.082720830015456 1
gene  1 9 35 1.2095411997409713 0 405.0 1.2095411997409713 1
gene  2 9 36 2.399869793172869 0 406.0 2.399869793172869 1
gene  2 3 31 -1.9493626864904685 0 426.0 -1.9493626864904685 1
gene  2 22 31 -3.73640215603017 0 439.0 -3.73640215603017 1
gene  1 22 32 4.1460563105808745 0 440.0 4.1460563105808745 1
gene  1 22 33 -7.912562531656245 0 441.0 -7.912562531656245 1
gene  1 22 34 -2.8912743219197115 0 442.0 -2.8912743219197115 1
gene  2 22 35 0.29902419174748424 0 443.0 0.29902419174748424 1
gene  2 22 36 -3.052638496456446 0 444.0 -3.052638496456446 1
gene  1 9 83 2.3573754200647534 0 456.0 2.3573754200647534 1
gene  1 83 32 19.38002744960916 0 457.0 19.38002744960916 1
gene  1 21 93 2.329337534624484 0 504.0 2.329337534624484 1
gene  1 93 34 -2.2030800567386564 0 505.0 -2.2030800567386564 1
gene  1 20 36 0.1143411147753734 0 520.0 0.1143411147753734 1
gene  2 8 36 -4.872912676466195 0 535.0 -4.872912676466195 1
gene  1 32 34 -0.5055223690828823 0 567.0 -0.5055223690828823 1
genomeend 7
genomestart  8
trait 1 0.2775651715169364 0.0 0.9803094690668154 0.7160542295213038 0.0 0.0 0.0 0.7069531750113396 
trait 2 0.13443430009175789 0.0 0.0 0.0 0.0 0.0 0.8445327913946056 0.0 
node 1 1 1 1
node 2 1 1 1
node 3 1 1 1
node 4 1 1 1
node 5 1 1 1
node 6 1 1 1
node 7 1 1 1
node 8 1 1 1
node 9 1 1 1
node 10 1 1 1
node 11 1 1 1
node 12 1 1 1
node 13 1 1 1
node 14 1 1 1
node 15 1 1 1
node 16 1 1 1
node 17 1 1 1
node 18 1 1 1
node 19 1 1 1
node 20 1 1 1
node 21 1 1 1
node 22 1 1 1
node 23 1 1 1
node 24 1 1 1
node 25 1 1 1
node 26 1 1 1
node 27 1 1 1
node 28 1 1 1
node 29 1 1 1
node 30 1 1 3
node 31 1 0 2
node 32 1 0 2
node 33 1 0 2
node 34 1 0 2
node 35 1 0 2
node 36 1 0 2
node 83 1 0 0
node 93 1 0 0
gene  1 30 31 -11.507800260667462 0 1.0 -11.507800260667462 1
gene  1 30 32 1.4422755347108178 0 1.0 1.4422755347108178 1
gene  1 30 33 -9.805550123043597 0 1.0 -9.805550123043597 1
gene  1 30 34 -1.9677215715391754 0 1.0 -1.9677215715391754 1
gene  1 30 35 0.05101438422620663 0 1.0 0.05101438422620663 1
gene  1 30 36 -0.17310182901221838 0 1.0 -0.17310182901221838 1
gene  1 12 31 -0.3501977466522097 0 77.0 -0.3501977466522097 1
gene  1 12 32 -3.2551635156726593 0 78.0 -3.2551635156726593 1
gene  2 12 33 -8.383061994955998 0 79.0 -8.383061994955998 1
gene  1 12 34 6.241513457147631 0 80.0 6.241513457147631 1
gene  1 12 35 10.638195955578723 0 81.0 10.638195955578723 1
gene  1 12 36 -14.654179254281894 0 82.0 -14.654179254281894 1
gene  1 21 31 1.5494970902308518 0 107.0 1.5494970902308518 1
gene  1 21 32 -0.5610643773144817 0 108.0 -0.5610643773144817 1
gene  1 21 33 -3.2749732149805126 0 109.0 -3.2749732149805126 1
gene  1 21 34 -1.3613408089078933 0 110.0 -1.3613408089078933 0
gene  1 21 35 -1.818087032350789 0 111.0 -1.818087032350789 1
gene  2 21 36 1.58368777311796 0 112.0 1.58368777311796 1
gene  1 11 31 -4.545352294118002 0 189.0 -4.545352294118002 1
gene  1 11 32 2.704989327650068 0 190.0 2.704989327650068 1
gene  2 11 33 0.44453115553477723 0 191.0 0.44453115553477723 1
gene  1 11 34 -3.7150187852740517 0 192.0 -3.7150187852740517 1
gene  1 11 35 -2.579154051659569 0 193.0 -2.579154051659569 1
gene  2 11 36 0.3323476586249604 0 194.0 0.3323476586249604 1
gene  1 14 31 2.6114765692800255 0 352.0 2.6114765692800255 1
gene  1 14 32 -4.309889729987338 0 353.0 -4.309889729987338 1
gene  2 14 33 0.18106135925315447 0 354.0 0.18106135925315447 1
gene  1 14 34 6.346069040020487 0 355.0 6.346069040020487 1
gene  2 14 35 2.9276808458976435 0 356.0 2.9276808458976435 1
gene  1 14 36 0.43607041544351666 0 357.0 0.43607041544351666 1
gene  1 9 31 2.7852869116905237 0 401.0 2.7852869116905237 1
gene  1 9 32 13.117133193952565 0 402.0 13.117133193952565 0
gene  1 9 33 -4.150296440508399 0 403.0 -4.150296440508399 1
gene  1 9 34 3.786269466280655 0 404.0 3.786269466280655 1
gene  1 9 35 -0.2349276716546207 0 405.0 -0.2349276716546207 1
gene  2 9 36 -2.2424649571385813 0 406.0 -2.2424649571385813 1
gene  2 3 31 -1.425831997089467 0 426.0 -1.425831997089467 1
gene  2 22 31 -2.9317913336940364 0 439.0 -2.9317913336940364 1
gene  1 22 32 1.0541402471765193 0 440.0 1.0541402471765193 1
gene  1 22 33 -8.830036741936423 0 441.0 -8.830036741936423 1
gene  1 22 34 -6.046896109922075 0 442.0 -6.046896109922075 1
gene  2 22 35 -1.5851325570199264 0 443.0 -1.5851325570199264 1
gene  2 22 36 -3.052638496456446 0 444.0 -3.052638496456446 1
gene  1 9 83 -0.2068776727736037 0 456.0 -0.2068776727736037 1
gene  1 83 32 -1.635401674522467 0 457.0 -1.635401674522467 1
gene  1 21 93 1.5445927029213418 0 504.0 1.5445927029213418 1
gene  1 93 34 -2.2030800567386564 0 505.0 -2.2030800567386564 1
gene  1 20 36 -0.1707997019632465 0 520.0 -0.1707997019632465 1
gene  2 8 36 -2.425901042723372 0 535.0 -2.425901042723372 1
gene  1 32 34 0.45975630880265417 0 567.0 0.45975630880265417 1
genomeend 8
genomestart  9
trait 1 0.2775651715169364 0.0 0.9803094690668154 0.7160542295213038 0.0 0.0 0.0 0.7069531750113396 
trait 2 0.13443430009175789 0.0 0.0 0.0 0.0 0.0 0.8445327913946056 0.0 
node 1 1 1 1
node 2 1 1 1
node 3 1 1 1
node 4 1 1 1
node 5 1 1 1
node 6 1 1 1
node 7 1 1 1
node 8 1 1 1
node 9 1 1 1
node 10 1 1 1
node 11 1 1 1
node 12 1 1 1
node 13 1 1 1
node 14 1 1 1
node 15 1 1 1
node 16 1 1 1
node 17 1 1 1
node 18 1 1 1
node 19 1 1 1
node 20 1 1 1
node 21 2 1 1
node 22 1 1 1
node 23 1 1 1
node 24 1 1 1
node 25 1 1 1
node 26 1 1 1
node 27 1 1 1
node 28 1 1 1
node 29 1 1 1
node 30 1 1 3
node 31 1 0 2
node 32 1 0 2
node 33 1 0 2
node 34 1 0 2
node 35 1 0 2
node 36 1 0 2
node 83 1 0 0
node 93 1 0 0
gene  1 30 31 -11.769590009305933 0 1.0 -11.769590009305933 1
gene  1 30 32 1.0185194891890959 0 1.0 1.0185194891890959 1
gene  1 30 33 -9.140863500004222 0 1.0 -9.140863500004222 1
gene  1 30 34 -0.828434395869986 0 1.0 -0.828434395869986 1
gene  1 30 35 -0.6163105598827721 0 1.0 -0.6163105598827721 1
gene  1 30 36 2.6029947769174453 0 1.0 2.6029947769174453 1
gene  1 12 31 0.9857581979911694 0 77.0 0.9857581979911694 1
gene  1 12 32 -0.44324009484443017 0 78.0 -0.44324009484443017 1
gene  2 12 33 -3.6017187398824113 0 79.0 -3.6017187398824113 1
gene  1 12 34 -0.4472448152716946 0 80.0 -0.4472448152716946 1
gene  1 12 35 9.13510576787862 0 81.0 9.13510576787862 1
gene  1 12 36 0.42615386287169793 0 82.0 0.42615386287169793 1
gene  1 21 31 -0.19415337456800685 0 107.0 -0.19415337456800685 1
gene  1 21 32 -0.07803486273016036 0 108.0 -0.07803486273016036 1
gene  1 21 33 -0.09699310040128539 0 109.0 -0.09699310040128539 1
gene  1 21 34 0.17593628677924272 0 110.0 0.17593628677924272 0
gene  1 21 35 -1.5506861102503104 0 111.0 -1.5506861102503104 1
gene  2 21 36 -0.7940199865750577 0 112.0 -0.7940199865750577 1
gene  1 11 31 -3.5867669770758654 0 189.0 -3.5867669770758654 1
gene  1 11 32 -0.2849410659136447 0 190.0 -0.2849410659136447 1
gene  2 11 33 3.247344106715536 0 191.0 3.247344106715536 1
gene  1 11 34 -1.688501426639745 0 192.0 -1.688501426639745 1
gene  1 11 35 -3.208211610335019 0 193.0 -3.208211610335019 1
gene  2 11 36 -1.5311286214909052 0 194.0 -1.5311286214909052 1
gene  1 14 31 0.03447755477776676 0 352.0 0.03447755477776676 1
gene  1 14 32 -5.710618816911882 0 353.0 -5.710618816911882 1
gene  2 14 33 0.8495106132955887 0 354.0 0.8495106132955887 1
gene  1 14 34 2.093576665474228 0 355.0 2.093576665474228 1
gene  2 14 35 4.05788574358388 0 356.0 4.05788574358388 1
gene  1 14 36 4.19510924433234 0 357.0 4.19510924433234 1
gene  1 9 31 -1.5581820719015833 0 401.0 -1.5581820719015833 1
gene  1 9 32 -0.6675873815028516 0 402.0 -0.6675873815028516 0
gene  1 9 33 -4.157307931161481 0 403.0 -4.157307931161481 1
gene  1 9 34 3.971596407839119 0 404.0 3.971596407839119 1
gene  1 9 35 -1.8042728412826905 0 405.0 -1.8042728412826905 1
gene  2 9 36 -0.6698508892720272 0 406.0 -0.6698508892720272 1
gene  2 3 31 0.30106566010698665 0 426.0 0.30106566010698665 1
gene  2 22 31 1.0587985730487453 0 439.0 1.0587985730487453 1
gene  1 22 32 2.326956707118398 0 440.0 2.326956707118398 1
gene  1 22 33 -9.009271928970472 0 441.0 -9.009271928970472 1
gene  1 22 34 -1.714902281831664 0 442.0 -1.714902281831664 1
gene  2 22 35 -2.513063343430323 0 443.0 -2.513063343430323 1
gene  2 22 36 -5.006494288940408 0 444.0 -5.006494288940408 1
gene  1 9 83 -1.8988228173612838 0 456.0 -1.8988228173612838 1
gene  1 83 32 13.461716958351856 0 457.0 13.461716958351856 1
gene  1 21 93 2.329337534624484 0 504.0 2.329337534624484 1
gene  1 93 34 -3.6156484028095397 0 505.0 -3.6156484028095397 1
gene  1 20 36 6.00532149911392 0 520.0 6.00532149911392 1
gene  2 8 36 -4.057794753432626 0 535.0 -4.057794753432626 1
gene  1 32 34 6.538423637523248 0 567.0 6.538423637523248 1
genomeend 9
genomestart  10
trait 1 0.2775651715169364 0.0 0.9803094690668154 0.7160542295213038 0.0 0.0 0.0 0.7069531750113396 
trait 2 0.13443430009175789 0.0 0.0 0.0 0.0 0.0 0.0 0.0 
node 1 1 1 1
node 2 1 1 1
node 3 1 1 1
node 4 1 1 1
node 5 1 1 1
node 6 1 1 1
node 7 1 1 1
node 8 2 1 1
node 9 1 1 1
node 10 1 1 1
node 11 1 1 1
node 12 1 1 1
node 13 1 1 1
node 14 1 1 1
node 15 1 1 1
node 16 1 1 1
node 17 1 1 1
node 18 1 1 1
node 19 1 1 1
node 20 1 1 1
node 21 1 1 1
node 22 1 1 1
node 23 1 1 1
node 24 1 1 1
node 25 1 1 1
node 26 1 1 1
node 27 1 1 1
node 28 1 1 1
node 29 1 1 1
node 30 1 1 3
node 31 1 0 2
node 32 1 0 2
node 33 1 0 2
node 34 1 0 2
node 35 1 0 2
node 36 1 0 2
gene  1 30 31 -3.1115559790211833 0 1.0 -3.1115559790211833 1
gene  1 30 32 3.970122402303844 0 1.0 3.970122402303844 1
gene  1 30 33 -11.855050174192431 0 1.0 -11.855050174192431 1
gene  1 30 34 -3.066830389835242 0 1.0 -3.066830389835242 1
gene  1 30 35 1.8808827432406097 0 1.0 1.8808827432406097 1
gene  1 30 36 -3.3202875771550318 0 1.0 -3.3202875771550318 1
gene  1 12 31 1.3887954556611342 0 77.0 1.3887954556611342 1
gene  1 12 32 -9.275884232240152 0 78.0 -9.275884232240152 1
gene  2 12 33 -1.043769451022256 0 79.0 -1.043769451022256 1
gene  1 12 34 12.784865675049906 0 80.0 12.784865675049906 1
gene  1 12 35 1.2737948756086082 0 81.0 1.2737948756086082 1
gene  1 12 36 -3.924973274629975 0 82.0 -3.924973274629975 1
gene  1 21 31 -17.45684462972033 0 107.0 -17.45684462972033 1
gene  1 21 32 9.381939146106875 0 108.0 9.381939146106875 1
gene  1 21 33 7.046854238891166 0 109.0 7.046854238891166 1
gene  1 21 34 6.504755551679754 0 110.0 6.504755551679754 1
gene  1 21 35 -3.8828894314264684 0 111.0 -3.8828894314264684 1
gene  2 21 36 -1.074685794551597 0 112.0 -1.074685794551597 1
gene  1 11 31 -5.784471013127166 0 189.0 -5.784471013127166 1
gene  1 11 32 3.71809782309405 0 190.0 3.71809782309405 1
gene  2 11 33 -2.262848927970107 0 191.0 -2.262848927970107 1
gene  1 11 34 0.488627348669872 0 192.0 0.488627348669872 1
gene  1 11 35 -1.7092813883772358 0 193.0 -1.7092813883772358 1
gene  2 11 36 -8.900643621175046 0 194.0 -8.900643621175046 1
gene  1 14 31 7.493183634476579 0 352.0 7.493183634476579 1
gene  1 14 32 -4.267548491521579 0 353.0 -4.267548491521579 1
gene  2 14 33 -8.807342422210072 0 354.0 -8.807342422210072 1
gene  1 14 34 17.221659797918452 0 355.0 17.221659797918452 1
gene  1 14 35 -1.5529828360356723 0 356.0 -1.5529828360356723 1
gene  1 14 36 4.300145455586791 0 357.0 4.300145455586791 1
gene  1 9 31 1.1411841798575524 0 401.0 1.1411841798575524 1
gene  1 9 32 10.49076346755987 0 402.0 10.49076346755987 1
gene  1 9 33 5.208447932894767 0 403.0 5.208447932894767 1
gene  1 9 34 -3.548135020162677 0 404.0 -3.548135020162677 1
gene  1 9 35 -6.220144800315987 0 405.0 -6.220144800315987 1
gene  2 9 36 -3.61464835860471 0 406.0 -3.61464835860471 1
gene  2 3 31 -0.09096755624703956 0 426.0 -0.09096755624703956 1
gene  2 17 31 -7.657034185992087 0 445.0 -7.657034185992087 1
gene  1 17 32 -13.393556456307833 0 446.0 -13.393556456307833 1
gene  1 17 33 -3.9685360956830835 0 447.0 -3.9685360956830835 1
gene  1 17 34 1.5864804198678393 0 448.0 1.5864804198678393 1
gene  1 17 35 0.11376918161501243 0 449.0 0.11376918161501243 1
gene  2 17 36 -1.4071051836805455 0 450.0 -1.4071051836805455 1
gene  2 2 31 8.307389639832223 0 467.0 8.307389639832223 1
gene  2 2 32 1.126199616802728 0 468.0 1.126199616802728 1
gene  1 2 33 -0.2280926384532861 0 469.0 -0.2280926384532861 1
gene  2 2 34 0.011431892308620406 0 470.0 0.011431892308620406 1
gene  1 2 35 -4.417280041370798 0 471.0 -4.417280041370798 1
gene  2 2 36 -10.280119925912278 0 472.0 -10.280119925912278 1
gene  2 31 35 6.56995978549898 0 484.0 6.56995978549898 1
gene  1 32 34 5.170741436622668 0 567.0 5.170741436622668 1
genomeend 10
genomestart  11
trait 1 0.2775651715169364 0.0 0.9803094690668154 0.7160542295213038 0.0 0.0 0.0 0.7069531750113396 
trait 2 0.13443430009175789 0.0 0.0 0.0 0.0 0.0 0.0 0.0 
node 1 1 1 1
node 2 1 1 1
node 3 1 1 1
node 4 1 1 1
node 5 1 1 1
node 6 1 1 1
node 7 1 1 1
node 8 2 1 1
node 9 1 1 1
node 10 1 1 1
node 11 1 1 1
node 12 1 1 1
node 13 1 1 1
node 14 1 1 1
node 15 1 1 1
node 16 1 1 1
node 17 1 1 1
node 18 1 1 1
node 19 1 1 1
node 20 1 1 1
node 21 1 1 1
node 22 1 1 1
node 23 1 1 1
node 24 1 1 1
node 25 1 1 1
node 26 1 1 1
node 27 1 1 1
node 28 1 1 1
node 29 1 1 1
node 30 1 1 3
node 31 1 0 2
node 32 1 0 2
node 33 1 0 2
node 34 1 0 2
node 35 1 0 2
node 36 1 0 2
gene  1 30 31 -1.7254108687683205 0 1.0 -1.7254108687683205 1
gene  1 30 32 1.5666690486869332 0 1.0 1.5666690486869332 1
gene  1 30 33 -12.407646570592343 0 1.0 -12.407646570592343 1
gene  1 30 34 -0.6295317486563139 0 1.0 -0.6295317486563139 1
gene  1 30 35 -1.2537616711347699 0 1.0 -1.2537616711347699 1
gene  1 30 36 -1.2526435079137679 0 1.0 -1.2526435079137679 1
gene  1 12 31 3.7206716386424383 0 77.0 3.7206716386424383 1
gene  1 12 32 -8.425845964967696 0 78.0 -8.425845964967696 1
gene  2 12 33 -1.5595709332102876 0 79.0 -1.5595709332102876 1
gene  1 12 34 11.305594595719844 0 80.0 11.305594595719844 1
gene  1 12 35 1.9622496811125323 0 81.0 1.9622496811125323 1
gene  1 12 36 2.368746865764503 0 82.0 2.368746865764503 1
gene  1 21 31 -19.95049460147759 0 107.0 -19.95049460147759 1
gene  1 21 32 -1.6134405039832502 0 108.0 -1.6134405039832502 1
gene  1 21 33 2.2195699447638066 0 109.0 2.2195699447638066 1
gene  1 21 34 -2.238761510737842 0 110.0 -2.238761510737842 1
gene  1 21 35 -3.2636848019350664 0 111.0 -3.2636848019350664 1
gene  2 21 36 -2.7128862117328367 0 112.0 -2.7128862117328367 1
gene  1 11 31 -0.5631301794675259 0 189.0 -0.5631301794675259 1
gene  1 11 32 2.761099227124948 0 190.0 2.761099227124948 1
gene  2 11 33 -4.033084105335881 0 191.0 -4.033084105335881 1
gene  1 11 34 -0.7033547194081788 0 192.0 -0.7033547194081788 1
gene  1 11 35 -0.9074435291662124 0 193.0 -0.9074435291662124 1
gene  2 11 36 1.6094957253911433 0 194.0 1.6094957253911433 1
gene  1 14 31 9.107417381558983 0 352.0 9.107417381558983 1
gene  1 14 32 -5.17598542934621 0 353.0 -5.17598542934621 1
gene  2 14 33 -9.1210496901829 0 354.0 -9.1210496901829 1
gene  1 14 34 16.91019647252213 0 355.0 16.91019647252213 1
gene  1 14 35 -1.5529828360356723 0 356.0 -1.5529828360356723 1
gene  1 14 36 5.500967275260249 0 357.0 5.500967275260249 1
gene  1 9 31 2.1604649736471604 0 401.0 2.1604649736471604 1
gene  1 9 32 10.835051276102105 0 402.0 10.835051276102105 1
gene  1 9 33 3.7163803406669658 0 403.0 3.7163803406669658 1
gene  1 9 34 -3.001445852005332 0 404.0 -3.001445852005332 1
gene  1 9 35 1.8903341812186585 0 405.0 1.8903341812186585 1
gene  2 9 36 -4.678128901936105 0 406.0 -4.678128901936105 1
gene  2 3 31 0.14723122292276414 0 426.0 0.14723122292276414 1
gene  2 17 31 1.1446944760289088 0 445.0 1.1446944760289088 1
gene  1 17 32 -2.4409177885565123 0 446.0 -2.4409177885565123 1
gene  1 17 33 -2.86118614746575 0 447.0 -2.86118614746575 1
gene  1 17 34 0.2911494407462381 0 448.0 0.2911494407462381 1
gene  1 17 35 -0.9905172868515997 0 449.0 -0.9905172868515997 1
gene  2 17 36 -1.3331983974557369 0 450.0 -1.3331983974557369 1
gene  2 2 31 2.036640098695038 0 467.0 2.036640098695038 1
gene  2 2 32 2.4126475012864095 0 468.0 2.4126475012864095 1
gene  1 2 33 1.0312592067348687 0 469.0 1.0312592067348687 1
gene  2 2 34 -0.9901287135418532 0 470.0 -0.9901287135418532 1
gene  1 2 35 -4.417280041370798 0 471.0 -4.417280041370798 1
gene  2 2 36 -8.80482477342525 0 472.0 -8.80482477342525 1
gene  2 31 35 -1.5950100206178415 0 484.0 -1.5950100206178415 1
gene  1 32 34 3.292185202556898 0 567.0 3.292185202556898 1
genomeend 11
genomestart  12
trait 1 0.2775651715169364 0.0 0.9803094690668154 0.7160542295213038 0.0 0.0 0.0 0.7069531750113396 
trait 2 0.13443430009175789 0.0 0.0 0.0 0.0 0.0 0.0 0.0 
node 1 1 1 1
node 2 1 1 1
node 3 1 1 1
node 4 2 1 1
node 5 1 1 1
node 6 1 1 1
node 7 1 1 1
node 8 1 1 1
node 9 1 1 1
node 10 1 1 1
node 11 1 1 1
node 12 1 1 1
node 13 1 1 1
node 14 1 1 1
node 15 1 1 1
node 16 1 1 1
node 17 1 1 1
node 18 1 1 1
node 19 1 1 1
node 20 1 1 1
node 21 1 1 1
node 22 1 1 1
node 23 1 1 1
node 24 1 1 1
node 25 1 1 1
node 26 1 1 1
node 27 1 1 1
node 28 1 1 1
node 29 1 1 1
node 30 1 1 3
node 31 1 0 2
node 32 1 0 2
node 33 1 0 2
node 34 1 0 2
node 35 1 0 2
node 36 1 0 2
gene  1 30 31 -6.909954238765177 0 1.0 -6.909954238765177 1
gene  1 30 32 3.581078262913771 0 1.0 3.581078262913771 1
gene  1 30 33 -3.327464621450719 0 1.0 -3.327464621450719 1
gene  1 30 34 -7.416941115527169 0 1.0 -7.416941115527169 1
gene  1 30 35 1.3310213303317064 0 1.0 1.3310213303317064 1
gene  1 30 36 4.3427218912052075 0 1.0 4.3427218912052075 1
gene  1 12 31 -2.1689601150975832 0 77.0 -2.1689601150975832 1
gene  1 12 32 3.909042391714236 0 78.0 3.909042391714236 1
gene  2 12 33 -3.4126483007897876 0 79.0 -3.4126483007897876 1
gene  1 12 34 -3.0643497358826854 0 80.0 -3.0643497358826854 1
gene  1 12 35 0.448873827224334 0 81.0 0.448873827224334 1
gene  1 12 36 -8.922681393677209 0 82.0 -8.922681393677209 1
gene  1 21 31 4.918382600486986 0 107.0 4.918382600486986 1
gene  1 21 32 -1.4985442980974917 0 108.0 -1.4985442980974917 1
gene  1 21 33 2.6343243163170693 0 109.0 2.6343243163170693 1
gene  1 21 34 1.453161461852623 0 110.0 1.453161461852623 1
gene  1 21 35 -0.13085409295335615 0 111.0 -0.13085409295335615 1
gene  2 21 36 -5.1913736237778005 0 112.0 -5.1913736237778005 1
gene  1 11 31 -7.44874847478019 0 189.0 -7.44874847478019 1
gene  1 11 32 0.34945313608090567 0 190.0 0.34945313608090567 1
gene  2 11 33 -1.4981586538218785 0 191.0 -1.4981586538218785 1
gene  1 11 34 0.8855918153999871 0 192.0 0.8855918153999871 1
gene  1 11 35 2.7272922641130064 0 193.0 2.7272922641130064 1
gene  2 11 36 -0.8602813011233692 0 194.0 -0.8602813011233692 1
gene  1 14 31 -4.428289197106211 0 352.0 -4.428289197106211 1
gene  1 14 32 -6.762590600158586 0 353.0 -6.762590600158586 1
gene  2 14 33 2.3944545795472716 0 354.0 2.3944545795472716 1
gene  1 14 34 16.265097122267605 0 355.0 16.265097122267605 1
gene  2 14 35 -0.4266551056512169 0 356.0 -0.4266551056512169 1
gene  1 14 36 0.2051095676932596 0 357.0 0.2051095676932596 1
gene  2 22 31 -10.667642166204946 0 384.0 -10.667642166204946 1
gene  2 22 32 -0.09104240673619302 0 385.0 -0.09104240673619302 1
gene  1 22 33 -7.8756689369492205 0 386.0 -7.8756689369492205 1
gene  1 22 34 4.851384691210013 0 387.0 4.851384691210013 1
gene  1 22 35 6.940155960266702 0 388.0 6.940155960266702 1
gene  2 22 36 -6.4882452648729405 0 389.0 -6.4882452648729405 1
gene  2 10 33 -2.390287632160047 0 435.0 -2.390287632160047 1
gene  2 24 31 5.411678885868755 0 475.0 5.411678885868755 1
gene  2 24 32 -0.5640331186944492 0 476.0 -0.5640331186944492 1
gene  1 24 33 3.752441802271936 0 477.0 3.752441802271936 1
gene  1 24 34 0.7734976428415319 0 478.0 0.7734976428415319 1
gene  1 24 35 -11.73120903071382 0 479.0 -11.73120903071382 1
gene  2 24 36 2.4948268464017875 0 480.0 2.4948268464017875 1
genomeend 12
genomestart  13
trait 1 0.2775651715169364 0.0 0.9803094690668154 0.7160542295213038 0.0 0.0 0.0 0.7069531750113396 
trait 2 0.13443430009175789 0.0 0.0 0.0 0.0 0.0 0.0 0.0 
node 1 1 1 1
node 2 1 1 1
node 3 1 1 1
node 4 2 1 1
node 5 1 1 1
node 6 1 1 1
node 7 1 1 1
node 8 1 1 1
node 9 1 1 1
node 10 1 1 1
node 11 1 1 1
node 12 1 1 1
node 13 1 1 1
node 14 1 1 1
node 15 1 1 1
node 16 1 1 1
node 17 1 1 1
node 18 1 1 1
node 19 1 1 1
node 20 1 1 1
node 21 1 1 1
node 22 1 1 1
node 23 1 1 1
node 24 1 1 1
node 25 1 1 1
node 26 1 1 1
node 27 1 1 1
node 28 1 1 1
node 29 1 1 1
node 30 1 1 3
node 31 1 0 2
node 32 1 0 2
node 33 1 0 2
node 34 1 0 2
node 35 1 0 2
node 36 1 0 2
gene  1 30 31 -9.035294731763885 0 1.0 -9.035294731763885 1
gene  1 30 32 1.488223795234592 0 1.0 1.488223795234592 1
gene  1 30 33 -4.334844737522784 0 1.0 -4.334844737522784 1
gene  1 30 34 -7.584216604215823 0 1.0 -7.584216604215823 1
gene  1 30 35 2.297073314611581 0 1.0 2.297073314611581 1
gene  1 30 36 3.280812526871903 0 1.0 3.280812526871903 1
gene  1 12 31 -3.295324099875087 0 77.0 -3.295324099875087 1
gene  1 12 32 1.424019352652357 0 78.0 1.424019352652357 1
gene  2 12 33 -2.1491098687370833 0 79.0 -2.1491098687370833 1
gene  1 12 34 -1.775066590047264 0 80.0 -1.775066590047264 1
gene  1 12 35 -0.9981581521640903 0 81.0 -0.9981581521640903 1
gene  1 12 36 -10.060316004027886 0 82.0 -10.060316004027886 1
gene  1 21 31 3.68436080954173 0 107.0 3.68436080954173 1
gene  1 21 32 -2.7794188222224725 0 108.0 -2.7794188222224725 1
gene  1 21 33 2.696814038843457 0 109.0 2.696814038843457 1
gene  1 21 34 0.9134707127212927 0 110.0 0.9134707127212927 1
gene  1 21 35 -1.855663027293686 0 111.0 -1.855663027293686 1
gene  2 21 36 -2.97486983636308 0 112.0 -2.97486983636308 1
gene  1 11 31 -7.102867623618922 0 189.0 -7.102867623618922 1
gene  1 11 32 2.4381931494432667 0 190.0 2.4381931494432667 1
gene  2 11 33 0.39649410295624693 0 191.0 0.39649410295624693 1
gene  1 11 34 -0.11721941117268986 0 192.0 -0.11721941117268986 1
gene  1 11 35 2.152371385501698 0 193.0 2.152371385501698 1
gene  2 11 36 -1.6041898810894066 0 194.0 -1.6041898810894066 1
gene  1 14 31 -3.5990577854765577 0 352.0 -3.5990577854765577 1
gene  1 14 32 -4.265883259185279 0 353.0 -4.265883259185279 1
gene  2 14 33 2.4449641461505722 0 354.0 2.4449641461505722 1
gene  1 14 34 18.754110099411434 0 355.0 18.754110099411434 1
gene  2 14 35 0.6356158519073651 0 356.0 0.6356158519073651 1
gene  1 14 36 0.0944342558723224 0 357.0 0.0944342558723224 1
gene  2 22 31 -11.125362638415158 0 384.0 -11.125362638415158 1
gene  2 22 32 1.781820958529146 0 385.0 1.781820958529146 1
gene  1 22 33 -5.692969888592507 0 386.0 -5.692969888592507 1
gene  1 22 34 6.442687062935449 0 387.0 6.442687062935449 1
gene  1 22 35 4.543483882630145 0 388.0 4.543483882630145 1
gene  2 22 36 -7.113632460338961 0 389.0 -7.113632460338961 1
gene  2 10 33 -0.5314876130316961 0 435.0 -0.5314876130316961 1
gene  2 24 31 6.943152394450084 0 475.0 6.943152394450084 1
gene  2 24 32 1.4303949194070138 0 476.0 1.4303949194070138 1
gene  1 24 33 4.604833314975422 0 477.0 4.604833314975422 1
gene  1 24 34 0.7734976428415319 0 478.0 0.7734976428415319 1
gene  1 24 35 -12.239207364299443 0 479.0 -12.239207364299443 1
gene  2 24 36 1.8805142833420905 0 480.0 1.8805142833420905 1
gene  2 5 36 6.52207470518137 0 583.0 6.52207470518137 1
genomeend 13
genomestart  14
trait 1 0.2775651715169364 0.0 0.9803094690668154 0.7160542295213038 0.0 0.0 0.0 0.7069531750113396 
trait 2 0.13443430009175789 0.0 0.0 0.0 0.0 0.0 0.0 0.0 
node 1 1 1 1
node 2 1 1 1
node 3 1 1 1
node 4 2 1 1
node 5 1 1 1
node 6 1 1 1
node 7 1 1 1
node 8 1 1 1
node 9 1 1 1
node 10 1 1 1
node 11 1 1 1
node 12 1 1 1
node 13 1 1 1
node 14 1 1 1
node 15 1 1 1
node 16 1 1 1
node 17 1 1 1
node 18 1 1 1
node 19 1 1 1
node 20 1 1 1
node 21 1 1 1
node 22 1 1 1
node 23 1 1 1
node 24 1 1 1
node 25 1 1 1
node 26 1 1 1
node 27 1 1 1
node 28 1 1 1
node 29 1 1 1
node 30 1 1 3
node 31 1 0 2
node 32 1 0 2
node 33 1 0 2
node 34 1 0 2
node 35 1 0 2
node 36 1 0 2
gene  1 30 31 -10.084830457328378 0 1.0 -10.084830457328378 1
gene  1 30 32 -0.2082707210159267 0 1.0 -0.2082707210159267 1
gene  1 30 33 -4.141108334981992 0 1.0 -4.141108334981992 1
gene  1 30 34 -7.467363830483422 0 1.0 -7.467363830483422 1
gene  1 30 35 2.6574924216315026 0 1.0 2.6574924216315026 1
gene  1 30 36 0.8060146118637337 0 1.0 0.8060146118637337 1
gene  1 12 31 -3.473314217770287 0 77.0 -3.473314217770287 1
gene  1 12 32 1.5602771658360721 0 78.0 1.5602771658360721 1
gene  2 12 33 -0.4214769475340241 0 79.0 -0.4214769475340241 1
gene  1 12 34 -0.30273140117786035 0 80.0 -0.30273140117786035 1
gene  1 12 35 -2.6680874776789048 0 81.0 -2.6680874776789048 1
gene  1 12 36 -10.75669069326223 0 82.0 -10.75669069326223 1
gene  1 21 31 3.831911136353853 0 107.0 3.831911136353853 1
gene  1 21 32 -1.2608539739741613 0 108.0 -1.2608539739741613 1
gene  1 21 33 2.6402392038817752 0 109.0 2.6402392038817752 1
gene  1 21 34 1.911717332408688 0 110.0 1.911717332408688 1
gene  1 21 35 -0.6543835550270243 0 111.0 -0.6543835550270243 1
gene  2 21 36 -5.238762152020825 0 112.0 -5.238762152020825 1
gene  1 11 31 -7.34599616727775 0 189.0 -7.34599616727775 1
gene  1 11 32 3.5738467324024548 0 190.0 3.5738467324024548 1
gene  2 11 33 1.632856893872462 0 191.0 1.632856893872462 1
gene  1 11 34 -1.5178738212731686 0 192.0 -1.5178738212731686 1
gene  1 11 35 1.0139360979358525 0 193.0 1.0139360979358525 1
gene  2 11 36 -0.7370829092045579 0 194.0 -0.7370829092045579 1
gene  1 14 31 -1.6811335225431212 0 352.0 -1.6811335225431212 1
gene  1 14 32 -2.2633793623678247 0 353.0 -2.2633793623678247 1
gene  2 14 33 4.79929615414474 0 354.0 4.79929615414474 1
gene  1 14 34 19.526385026125052 0 355.0 19.526385026125052 1
gene  2 14 35 -0.5441497065208523 0 356.0 -0.5441497065208523 1
gene  1 14 36 -0.5472409900797848 0 357.0 -0.5472409900797848 1
gene  2 22 31 -11.131279419972518 0 384.0 -11.131279419972518 1
gene  2 22 32 0.8322335555234149 0 385.0 0.8322335555234149 1
gene  1 22 33 -7.027256866458737 0 386.0 -7.027256866458737 1
gene  1 22 34 8.232789566149972 0 387.0 8.232789566149972 1
gene  1 22 35 6.423657536734055 0 388.0 6.423657536734055 1
gene  2 22 36 -7.113632460338961 0 389.0 -7.113632460338961 1
gene  2 10 33 -2.3011639116847213 0 435.0 -2.3011639116847213 1
gene  2 24 31 2.148670253136677 0 475.0 2.148670253136677 1
gene  2 24 32 1.3010500116908197 0 476.0 1.3010500116908197 1
gene  1 24 33 4.604833314975422 0 477.0 4.604833314975422 1
gene  1 24 34 0.7734976428415319 0 478.0 0.7734976428415319 1
gene  1 24 35 -2.312718250925266 0 479.0 -2.312718250925266 1
gene  2 24 36 1.8805142833420905 0 480.0 1.8805142833420905 1
genomeend 14
genomestart  15
trait 1 0.2775651715169364 0.0 0.9803094690668154 0.7160542295213038 0.0 0.0 0.0 0.7069531750113396 
trait 2 0.13443430009175789 0.0 0.0 0.0 0.0 0.0 0.0 0.0 
node 1 1 1 1
node 2 1 1 1
node 3 1 1 1
node 4 2 1 1
node 5 1 1 1
node 6 1 1 1
node 7 1 1 1
node 8 1 1 1
node 9 1 1 1
node 10 1 1 1
node 11 1 1 1
node 12 1 1 1
node 13 1 1 1
node 14 1 1 1
node 15 1 1 1
node 16 1 1 1
node 17 1 1 1
node 18 1 1 1
node 19 1 1 1
node 20 1 1 1
node 21 1 1 1
node 22 1 1 1
node 23 1 1 1
node 24 1 1 1
node 25 1 1 1
node 26 1 1 1
node 27 1 1 1
node 28 1 1 1
node 29 1 1 1
node 30 1 1 3
node 31 1 0 2
node 32 1 0 2
node 33 1 0 2
node 34 1 0 2
node 35 1 0 2
node 36 1 0 2
gene  1 30 31 -11.459276808508594 0 1.0 -11.459276808508594 1
gene  1 30 32 2.7480393739253 0 1.0 2.7480393739253 1
gene  1 30 33 -2.1243383179265285 0 1.0 -2.1243383179265285 1
gene  1 30 34 -5.3002901795549935 0 1.0 -5.3002901795549935 1
gene  1 30 35 4.096737710828812 0 1.0 4.096737710828812 1
gene  1 30 36 4.095850723227184 0 1.0 4.095850723227184 1
gene  1 12 31 -3.116370424470699 0 77.0 -3.116370424470699 1
gene  1 12 32 -0.4949007443077891 0 78.0 -0.4949007443077891 1
gene  2 12 33 -2.77097614588648 0 79.0 -2.77097614588648 1
gene  1 12 34 -1.493665919130554 0 80.0 -1.493665919130554 1
gene  1 12 35 -3.020948845882167 0 81.0 -3.020948845882167 1
gene  1 12 36 -10.381104159093471 0 82.0 -10.381104159093471 1
gene  1 21 31 3.0397674047420056 0 107.0 3.0397674047420056 1
gene  1 21 32 -4.995287166906605 0 108.0 -4.995287166906605 1
gene  1 21 33 2.822162558375757 0 109.0 2.822162558375757 1
gene  1 21 34 3.219574069369579 0 110.0 3.219574069369579 1
gene  1 21 35 0.5652190165478939 0 111.0 0.5652190165478939 1
gene  2 21 36 -4.191358352082434 0 112.0 -4.191358352082434 1
gene  1 11 31 -5.1016830355193115 0 189.0 -5.1016830355193115 1
gene  1 11 32 3.580743725562377 0 190.0 3.580743725562377 1
gene  2 11 33 0.5105370929181289 0 191.0 0.5105370929181289 1
gene  1 11 34 1.8645352228448164 0 192.0 1.8645352228448164 1
gene  1 11 35 4.449682761216686 0 193.0 4.449682761216686 1
gene  2 11 36 -0.10705702342153378 0 194.0 -0.10705702342153378 1
gene  1 14 31 -3.1671771130500073 0 352.0 -3.1671771130500073 1
gene  1 14 32 -6.041993776884111 0 353.0 -6.041993776884111 1
gene  2 14 33 2.1395819142470613 0 354.0 2.1395819142470613 1
gene  1 14 34 16.919052137793845 0 355.0 16.919052137793845 1
gene  2 14 35 0.49368094352289255 0 356.0 0.49368094352289255 1
gene  1 14 36 1.1488239576197194 0 357.0 1.1488239576197194 1
gene  2 22 31 -9.134097675585567 0 384.0 -9.134097675585567 1
gene  2 22 32 3.9440270881960178 0 385.0 3.9440270881960178 1
gene  1 22 33 -7.371148515120233 0 386.0 -7.371148515120233 1
gene  1 22 34 5.204750686580091 0 387.0 5.204750686580091 1
gene  1 22 35 6.806824134017985 0 388.0 6.806824134017985 1
gene  2 22 36 -5.887875746576947 0 389.0 -5.887875746576947 1
gene  2 10 33 -0.5314876130316961 0 435.0 -0.5314876130316961 1
gene  2 24 31 6.943152394450084 0 475.0 6.943152394450084 1
gene  2 24 32 1.4303949194070138 0 476.0 1.4303949194070138 1
gene  1 24 33 2.3367530318162926 0 477.0 2.3367530318162926 1
gene  1 24 34 0.1883661819432223 0 478.0 0.1883661819432223 1
gene  1 24 35 -0.6855216594086191 0 479.0 -0.6855216594086191 1
gene  2 24 36 2.8432715281662153 0 480.0 2.8432715281662153 1
genomeend 15
genomestart  16
trait 1 0.2775651715169364 0.0 0.9803094690668154 0.7160542295213038 0.0 0.0 0.0 0.7069531750113396 
trait 2 0.13443430009175789 0.0 0.0 0.0 0.0 0.0 0.0 0.0 
node 1 1 1 1
node 2 1 1 1
node 3 1 1 1
node 4 2 1 1
node 5 1 1 1
node 6 1 1 1
node 7 1 1 1
node 8 1 1 1
node 9 1 1 1
node 10 1 1 1
node 11 1 1 1
node 12 1 1 1
node 13 1 1 1
node 14 1 1 1
node 15 1 1 1
node 16 1 1 1
node 17 1 1 1
node 18 1 1 1
node 19 1 1 1
node 20 1 1 1
node 21 1 1 1
node 22 1 1 1
node 23 1 1 1
node 24 1 1 1
node 25 1 1 1
node 26 1 1 1
node 27 1 1 1
node 28 1 1 1
node 29 1 1 1
node 30 1 1 3
node 31 1 0 2
node 32 1 0 2
node 33 1 0 2
node 34 1 0 2
node 35 1 0 2
node 36 1 0 2
gene  1 30 31 -9.005847626027887 0 1.0 -9.005847626027887 1
gene  1 30 32 1.5995624952032825 0 1.0 1.5995624952032825 1
gene  1 30 33 -5.215577627538607 0 1.0 -5.215577627538607 1
gene  1 30 34 -6.571083121001884 0 1.0 -6.571083121001884 1
gene  1 30 35 0.07038238746330538 0 1.0 0.07038238746330538 1
gene  1 30 36 2.3107603566096517 0 1.0 2.3107603566096517 1
gene  1 12 31 -3.2883710070202308 0 77.0 -3.2883710070202308 1
gene  1 12 32 -0.15251332657018302 0 78.0 -0.15251332657018302 1
gene  2 12 33 -4.003927189279403 0 79.0 -4.003927189279403 1
gene  1 12 34 -2.070196390524737 0 80.0 -2.070196390524737 1
gene  1 12 35 -1.836224268302951 0 81.0 -1.836224268302951 1
gene  1 12 36 -7.775214699342268 0 82.0 -7.775214699342268 1
gene  1 21 31 1.6861229601359216 0 107.0 1.6861229601359216 1
gene  1 21 32 -3.6005634702547225 0 108.0 -3.6005634702547225 1
gene  1 21 33 3.5005942011598714 0 109.0 3.5005942011598714 1
gene  1 21 34 2.1662763941705556 0 110.0 2.1662763941705556 1
gene  1 21 35 -3.2321594980590147 0 111.0 -3.2321594980590147 1
gene  2 21 36 -5.400777525186151 0 112.0 -5.400777525186151 1
gene  1 11 31 -4.978876321617274 0 189.0 -4.978876321617274 1
gene  1 11 32 3.0855625731376426 0 190.0 3.0855625731376426 1
gene  2 11 33 1.93887583012817 0 191.0 1.93887583012817 1
gene  1 11 34 2.166532065925825 0 192.0 2.166532065925825 1
gene  1 11 35 0.5538731310007621 0 193.0 0.5538731310007621 1
gene  2 11 36 -2.5095174800488027 0 194.0 -2.5095174800488027 1
gene  1 14 31 -4.146442266934673 0 352.0 -4.146442266934673 1
gene  1 14 32 -6.737610416748444 0 353.0 -6.737610416748444 1
gene  2 14 33 4.312669412917014 0 354.0 4.312669412917014 1
gene  1 14 34 19.59066864357056 0 355.0 19.59066864357056 1
gene  2 14 35 0.0211822917351423 0 356.0 0.0211822917351423 1
gene  1 14 36 -1.6282355322515414 0 357.0 -1.6282355322515414 1
gene  2 22 31 -13.51559872907378 0 384.0 -13.51559872907378 1
gene  2 22 32 1.5297073573582414 0 385.0 1.5297073573582414 1
gene  1 22 33 -5.567747441824946 0 386.0 -5.567747441824946 1
gene  1 22 34 4.803978914709518 0 387.0 4.803978914709518 1
gene  1 22 35 5.563556463978654 0 388.0 5.563556463978654 1
gene  2 22 36 0.8288494057090806 0 389.0 0.8288494057090806 1
gene  2 10 33 -0.5314876130316961 0 435.0 -0.5314876130316961 1
gene  2 24 31 6.943152394450084 0 475.0 6.943152394450084 1
gene  2 24 32 -0.8412631208839887 0 476.0 -0.8412631208839887 1
gene  1 24 33 4.604833314975422 0 477.0 4.604833314975422 1
gene  1 24 34 2.543393114431784 0 478.0 2.543393114431784 1
gene  1 24 35 -14.290522867625363 0 479.0 -14.290522867625363 1
gene  2 24 36 2.3729441338366635 0 480.0 2.3729441338366635 1
genomeend 16
genomestart  17
trait 1 0.2775651715169364 0.0 0.9803094690668154 0.7160542295213038 0.0 0.0 0.0 0.7069531750113396 
trait 2 1.0379266173255417 0.19754622742516437 0.0 0.0 0.012126721397217266 0.7769010478260681 0.0 0.0 
node 1 1 1 1
node 2 1 1 1
node 3 1 1 1
node 4 2 1 1
node 5 1 1 1
node 6 1 1 1
node 7 1 1 1
node 8 1 1 1
node 9 1 1 1
node 10 1 1 1
node 11 1 1 1
node 12 1 1 1
node 13 1 1 1
node 14 1 1 1
node 15 1 1 1
node 16 1 1 1
node 17 1 1 1
node 18 1 1 1
node 19 1 1 1
node 20 1 1 1
node 21 1 1 1
node 22 1 1 1
node 23 1 1 1
node 24 1 1 1
node 25 1 1 1
node 26 1 1 1
node 27 1 1 1
node 28 1 1 1
node 29 1 1 1
node 30 1 1 3
node 31 1 0 2
node 32 1 0 2
node 33 1 0 2
node 34 1 0 2
node 35 1 0 2
node 36 1 0 2
node 91 1 0 0
gene  1 30 31 -3.9908594476664625 0 1.0 -3.9908594476664625 1
gene  1 30 32 7.391165093170082 0 1.0 7.391165093170082 1
gene  1 30 33 -6.3598832724466625 0 1.0 -6.3598832724466625 1
gene  1 30 34 0.30560567753996026 0 1.0 0.30560567753996026 1
gene  1 30 35 0.700599339003147 0 1.0 0.700599339003147 1
gene  1 30 36 3.1581355838397664 0 1.0 3.1581355838397664 1
gene  1 12 31 2.5632276776343903 0 77.0 2.5632276776343903 1
gene  1 12 32 -3.218297173649547 0 78.0 -3.218297173649547 1
gene  2 12 33 -0.700257074754304 0 79.0 -0.700257074754304 1
gene  1 12 34 2.152214258439592 0 80.0 2.152214258439592 1
gene  1 12 35 1.4051135669030763 0 81.0 1.4051135669030763 1
gene  1 12 36 -6.715965015873016 0 82.0 -6.715965015873016 1
gene  1 21 31 -5.555253993124589 0 107.0 -5.555253993124589 1
gene  1 21 32 -2.0196748358371757 0 108.0 -2.0196748358371757 1
gene  1 21 33 0.17026656223786552 0 109.0 0.17026656223786552 1
gene  1 21 34 4.768410002576951 0 110.0 4.768410002576951 1
gene  1 21 35 -2.8794193325992223 0 111.0 -2.8794193325992223 1
gene  2 21 36 0.6106200526375085 0 112.0 0.6106200526375085 1
gene  1 11 31 -5.676861673947496 0 189.0 -5.676861673947496 1
gene  1 11 32 -5.781811341806093 0 190.0 -5.781811341806093 1
gene  2 11 33 -7.188932591195028 0 191.0 -7.188932591195028 1
gene  1 11 34 0.6769526307338851 0 192.0 0.6769526307338851 1
gene  1 11 35 -0.07163675173903394 0 193.0 -0.07163675173903394 1
gene  2 11 36 -0.8982782180220419 0 194.0 -0.8982782180220419 0
gene  1 14 31 -1.8818844684378644 0 352.0 -1.8818844684378644 1
gene  1 14 32 -4.999986472424455 0 353.0 -4.999986472424455 1
gene  2 14 33 -4.70728666880488 0 354.0 -4.70728666880488 1
gene  1 14 34 15.934512275060454 0 355.0 15.934512275060454 1
gene  2 14 35 -0.7621018930340107 0 356.0 -0.7621018930340107 1
gene  1 14 36 0.2648046619767592 0 357.0 0.2648046619767592 1
gene  2 22 31 -8.393525165728093 0 384.0 -8.393525165728093 1
gene  2 22 32 -1.3819713173226829 0 385.0 -1.3819713173226829 1
gene  1 22 33 -4.8896282737393655 0 386.0 -4.8896282737393655 1
gene  1 22 34 10.210134413931545 0 387.0 10.210134413931545 1
gene  1 22 35 -2.0228122965823094 0 388.0 -2.0228122965823094 1
gene  2 22 36 -1.9394015442199015 0 389.0 -1.9394015442199015 1
gene  2 10 33 -2.187336529054136 0 435.0 -2.187336529054136 1
gene  1 26 34 -1.7611632831310498 0 491.0 -1.7611632831310498 1
gene  2 11 91 -0.1526760699771315 0 496.0 -0.1526760699771315 1
gene  2 91 36 3.483313204446926 0 497.0 3.483313204446926 1
gene  2 18 35 0.055548245062387314 0 568.0 0.055548245062387314 1
genomeend 17
genomestart  18
trait 1 0.2775651715169364 0.0 0.9803094690668154 0.7160542295213038 0.0 0.0 0.0 0.7069531750113396 
trait 2 0.13443430009175789 0.0 0.0 0.0 0.0 0.0 0.0 0.0 
node 1 1 1 1
node 2 1 1 1
node 3 1 1 1
node 4 2 1 1
node 5 1 1 1
node 6 1 1 1
node 7 1 1 1
node 8 1 1 1
node 9 1 1 1
node 10 1 1 1
node 11 1 1 1
node 12 1 1 1
node 13 1 1 1
node 14 1 1 1
node 15 1 1 1
node 16 1 1 1
node 17 1 1 1
node 18 1 1 1
node 19 1 1 1
node 20 1 1 1
node 21 1 1 1
node 22 1 1 1
node 23 1 1 1
node 24 1 1 1
node 25 1 1 1
node 26 1 1 1
node 27 1 1 1
node 28 1 1 1
node 29 1 1 1
node 30 1 1 3
node 31 1 0 2
node 32 1 0 2
node 33 1 0 2
node 34 1 0 2
node 35 1 0 2
node 36 1 0 2
node 91 1 0 0
gene  1 30 31 -6.638433133006353 0 1.0 -6.638433133006353 1
gene  1 30 32 3.426962503883442 0 1.0 3.426962503883442 1
gene  1 30 33 -2.685318386816293 0 1.0 -2.685318386816293 1
gene  1 30 34 -3.7918407783479653 0 1.0 -3.7918407783479653 1
gene  1 30 35 0.24857864248215922 0 1.0 0.24857864248215922 1
gene  1 30 36 2.500247003445527 0 1.0 2.500247003445527 1
gene  1 12 31 1.6414001451784848 0 77.0 1.6414001451784848 1
gene  1 12 32 -1.615888243583699 0 78.0 -1.615888243583699 1
gene  2 12 33 0.810727153669335 0 79.0 0.810727153669335 1
gene  1 12 34 2.9679130574608554 0 80.0 2.9679130574608554 1
gene  1 12 35 0.113183388357809 0 81.0 0.113183388357809 1
gene  1 12 36 -9.203912782538813 0 82.0 -9.203912782538813 1
gene  1 21 31 -10.2431505205535 0 107.0 -10.2431505205535 1
gene  1 21 32 -1.0613214271163733 0 108.0 -1.0613214271163733 1
gene  1 21 33 -2.907225569589622 0 109.0 -2.907225569589622 1
gene  1 21 34 4.7473257448695705 0 110.0 4.7473257448695705 1
gene  1 21 35 1.283237053992638 0 111.0 1.283237053992638 1
gene  2 21 36 2.9054967644673164 0 112.0 2.9054967644673164 1
gene  1 11 31 -5.813942291971619 0 189.0 -5.813942291971619 1
gene  1 11 32 -9.022766203040899 0 190.0 -9.022766203040899 1
gene  2 11 33 -7.133528515597466 0 191.0 -7.133528515597466 1
gene  1 11 34 -1.7890016466349885 0 192.0 -1.7890016466349885 1
gene  1 11 35 -2.804792067453575 0 193.0 -2.804792067453575 1
gene  2 11 36 -1.8979696523184217 0 194.0 -1.8979696523184217 0
gene  1 14 31 -5.752759837699755 0 352.0 -5.752759837699755 1
gene  1 14 32 -3.9209150561408945 0 353.0 -3.9209150561408945 1
gene  2 14 33 -6.044874571466521 0 354.0 -6.044874571466521 1
gene  1 14 34 17.222495651995548 0 355.0 17.222495651995548 1
gene  2 14 35 -0.5503399209678757 0 356.0 -0.5503399209678757 1
gene  1 14 36 0.31513935602016785 0 357.0 0.31513935602016785 1
gene  2 22 31 -9.124842394586937 0 384.0 -9.124842394586937 1
gene  2 22 32 -2.7838739561101935 0 385.0 -2.7838739561101935 1
gene  1 22 33 -7.985658892600124 0 386.0 -7.985658892600124 1
gene  1 22 34 9.022332441560103 0 387.0 9.022332441560103 1
gene  1 22 35 -2.915926303714688 0 388.0 -2.915926303714688 1
gene  2 22 36 -2.579995705175322 0 389.0 -2.579995705175322 1
gene  2 10 33 -0.6588475437003392 0 435.0 -0.6588475437003392 1
gene  1 26 34 -0.9236367691771163 0 491.0 -0.9236367691771163 1
gene  2 11 91 -1.2506274739486165 0 496.0 -1.2506274739486165 1
gene  2 91 36 3.483313204446926 0 497.0 3.483313204446926 1
gene  2 18 35 0.9717337367404213 0 568.0 0.9717337367404213 1
genomeend 18
genomestart  19
trait 1 0.2775651715169364 0.0 0.9803094690668154 0.7160542295213038 0.0 0.0 0.0 0.7069531750113396 
trait 2 0.13443430009175789 0.0 0.0 0.0 0.0 0.0 0.0 0.0 
node 1 1 1 1
node 2 1 1 1
node 3 1 1 1
node 4 2 1 1
node 5 1 1 1
node 6 1 1 1
node 7 1 1 1
node 8 1 1 1
node 9 1 1 1
node 10 1 1 1
node 11 1 1 1
node 12 1 1 1
node 13 1 1 1
node 14 1 1 1
node 15 1 1 1
node 16 1 1 1
node 17 1 1 1
node 18 1 1 1
node 19 1 1 1
node 20 1 1 1
node 21 1 1 1
node 22 1 1 1
node 23 1 1 1
node 24 1 1 1
node 25 1 1 1
node 26 1 1 1
node 27 1 1 1
node 28 1 1 1
node 29 1 1 1
node 30 1 1 3
node 31 1 0 2
node 32 1 0 2
node 33 1 0 2
node 34 1 0 2
node 35 1 0 2
node 36 1 0 2
node 91 1 0 0
gene  1 30 31 -8.204293020328794 0 1.0 -8.204293020328794 1
gene  1 30 32 3.809287737194401 0 1.0 3.809287737194401 1
gene  1 30 33 -2.665759144944125 0 1.0 -2.665759144944125 1
gene  1 30 34 -2.152002784822344 0 1.0 -2.152002784822344 1
gene  1 30 35 -0.9457374668414306 0 1.0 -0.9457374668414306 1
gene  1 30 36 1.1712770946276567 0 1.0 1.1712770946276567 1
gene  1 12 31 3.680444374578662 0 77.0 3.680444374578662 1
gene  1 12 32 -6.2582370524050654 0 78.0 -6.2582370524050654 1
gene  2 12 33 2.1990395525074917 0 79.0 2.1990395525074917 1
gene  1 12 34 4.966717111160845 0 80.0 4.966717111160845 1
gene  1 12 35 -0.20392272194189043 0 81.0 -0.20392272194189043 1
gene  1 12 36 -10.40308836548943 0 82.0 -10.40308836548943 1
gene  1 21 31 -4.445245690850133 0 107.0 -4.445245690850133 1
gene  1 21 32 1.2606976726191212 0 108.0 1.2606976726191212 1
gene  1 21 33 0.6694548097992241 0 109.0 0.6694548097992241 1
gene  1 21 34 5.740339710013996 0 110.0 5.740339710013996 1
gene  1 21 35 -4.0048474256032955 0 111.0 -4.0048474256032955 1
gene  2 21 36 3.3650875653357524 0 112.0 3.3650875653357524 1
gene  1 11 31 0.7848147597029624 0 189.0 0.7848147597029624 1
gene  1 11 32 -5.0830828797188055 0 190.0 -5.0830828797188055 1
gene  2 11 33 -3.4044066703358777 0 191.0 -3.4044066703358777 1
gene  1 11 34 3.663184120771062 0 192.0 3.663184120771062 1
gene  1 11 35 -2.642257499321944 0 193.0 -2.642257499321944 1
gene  2 11 36 2.6416727268377604 0 194.0 2.6416727268377604 0
gene  1 14 31 -3.166706414251562 0 352.0 -3.166706414251562 1
gene  1 14 32 -3.2406227146670252 0 353.0 -3.2406227146670252 1
gene  2 14 33 -0.8290261592086906 0 354.0 -0.8290261592086906 1
gene  1 14 34 20.526938694128294 0 355.0 20.526938694128294 1
gene  2 14 35 0.027288724968246025 0 356.0 0.027288724968246025 1
gene  1 14 36 3.70525767826334 0 357.0 3.70525767826334 1
gene  2 22 31 -6.0633361132176775 0 384.0 -6.0633361132176775 1
gene  2 22 32 -1.2479142100819778 0 385.0 -1.2479142100819778 1
gene  1 22 33 -8.294385262326514 0 386.0 -8.294385262326514 1
gene  1 22 34 7.72607879811141 0 387.0 7.72607879811141 1
gene  1 22 35 1.980399411493463 0 388.0 1.980399411493463 1
gene  2 22 36 -0.9218090411728639 0 389.0 -0.9218090411728639 1
gene  2 10 33 1.4971071908931386 0 435.0 1.4971071908931386 1
gene  1 26 34 -1.6370507218914716 0 491.0 -1.6370507218914716 1
gene  2 11 91 0.6395212367405767 0 496.0 0.6395212367405767 1
gene  2 91 36 -3.4376588859746473 0 497.0 -3.4376588859746473 1
gene  2 18 35 0.8616300836200164 0 568.0 0.8616300836200164 1
genomeend 19
genomestart  20
trait 1 0.2775651715169364 0.0 0.9803094690668154 0.9325523051748733 0.0 0.0 0.0 0.7069531750113396 
trait 2 0.13443430009175789 0.0 0.0 0.0 0.0 0.0 0.0 0.0 
node 1 1 1 1
node 2 1 1 1
node 3 1 1 1
node 4 2 1 1
node 5 1 1 1
node 6 1 1 1
node 7 1 1 1
node 8 1 1 1
node 9 1 1 1
node 10 1 1 1
node 11 1 1 1
node 12 1 1 1
node 13 1 1 1
node 14 1 1 1
node 15 1 1 1
node 16 1 1 1
node 17 1 1 1
node 18 1 1 1
node 19 1 1 1
node 20 1 1 1
node 21 1 1 1
node 22 1 1 1
node 23 1 1 1
node 24 1 1 1
node 25 1 1 1
node 26 1 1 1
node 27 1 1 1
node 28 1 1 1
node 29 1 1 1
node 30 1 1 3
node 31 1 0 2
node 32 1 0 2
node 33 1 0 2
node 34 1 0 2
node 35 1 0 2
node 36 1 0 2
node 91 1 0 0
gene  1 30 31 -9.253583065686417 0 1.0 -9.253583065686417 1
gene  1 30 32 -1.4923859526364478 0 1.0 -1.4923859526364478 1
gene  1 30 33 -1.5647999107945465 0 1.0 -1.5647999107945465 1
gene  1 30 34 -3.3647381200874706 0 1.0 -3.3647381200874706 1
gene  1 30 35 -3.743877052696216 0 1.0 -3.743877052696216 1
gene  1 30 36 -0.540916121671525 0 1.0 -0.540916121671525 1
gene  1 12 31 0.12229071401545588 0 77.0 0.12229071401545588 1
gene  1 12 32 -4.886544916978953 0 78.0 -4.886544916978953 1
gene  2 12 33 1.7735051339102714 0 79.0 1.7735051339102714 1
gene  1 12 34 9.528846289659258 0 80.0 9.528846289659258 1
gene  1 12 35 -2.413233359086621 0 81.0 -2.413233359086621 1
gene  1 12 36 -12.750201330741396 0 82.0 -12.750201330741396 1
gene  1 21 31 -6.592380809525509 0 107.0 -6.592380809525509 1
gene  1 21 32 -0.5242729721379726 0 108.0 -0.5242729721379726 1
gene  1 21 33 -2.646422054096872 0 109.0 -2.646422054096872 1
gene  1 21 34 0.8464966843153352 0 110.0 0.8464966843153352 1
gene  1 21 35 -0.273807787557268 0 111.0 -0.273807787557268 1
gene  2 21 36 5.464819178525853 0 112.0 5.464819178525853 1
gene  1 11 31 0.9955035343292982 0 189.0 0.9955035343292982 1
gene  1 11 32 -5.025346628123568 0 190.0 -5.025346628123568 1
gene  2 11 33 -6.087880374210867 0 191.0 -6.087880374210867 1
gene  1 11 34 2.0403204305543223 0 192.0 2.0403204305543223 1
gene  1 11 35 -0.4121914338948318 0 193.0 -0.4121914338948318 1
gene  2 11 36 2.6737518747839095 0 194.0 2.6737518747839095 0
gene  1 14 31 1.698082171719979 0 352.0 1.698082171719979 1
gene  1 14 32 1.6046926049737553 0 353.0 1.6046926049737553 1
gene  2 14 33 -1.085601160855287 0 354.0 -1.085601160855287 1
gene  1 14 34 18.517856448861483 0 355.0 18.517856448861483 1
gene  2 14 35 -5.9202193190128 0 356.0 -5.9202193190128 1
gene  1 14 36 2.967465730105764 0 357.0 2.967465730105764 1
gene  2 22 31 -1.7153367206029353 0 384.0 -1.7153367206029353 1
gene  2 22 32 0.822737317980313 0 385.0 0.822737317980313 1
gene  1 22 33 0.4252379919948096 0 386.0 0.4252379919948096 1
gene  1 22 34 5.771035488991897 0 387.0 5.771035488991897 1
gene  1 22 35 -0.6356988629955542 0 388.0 -0.6356988629955542 1
gene  2 22 36 -0.6552413387286578 0 389.0 -0.6552413387286578 1
gene  2 10 33 2.690049240620514 0 435.0 2.690049240620514 1
gene  1 26 34 -10.353411796940724 0 491.0 -10.353411796940724 1
gene  2 11 91 1.0804376939033085 0 496.0 1.0804376939033085 1
gene  2 91 36 3.0011446250225164 0 497.0 3.0011446250225164 1
gene  1 24 31 1.867114816729635 0 529.0 1.867114816729635 1
gene  1 24 32 1.0580684546463832 0 530.0 1.0580684546463832 1
gene  1 24 33 0.8070071424600924 0 531.0 0.8070071424600924 1
gene  1 24 34 -1.7090203750078836 0 532.0 -1.7090203750078836 1
gene  1 24 35 0.4750355996462825 0 533.0 0.4750355996462825 1
gene  1 24 36 0.8311355880767757 0 534.0 0.8311355880767757 1
genomeend 20
genomestart  21
trait 1 0.2775651715169364 0.0 0.9803094690668154 0.9325523051748733 0.0 0.0 0.0 0.7069531750113396 
trait 2 0.8978094135530144 0.7359629714393702 0.0 0.3630229588156516 0.8060313299293071 0.09146717842967733 0.7752637872267806 0.0 
node 1 1 1 1
node 2 1 1 1
node 3 1 1 1
node 4 2 1 1
node 5 1 1 1
node 6 1 1 1
node 7 1 1 1
node 8 1 1 1
node 9 1 1 1
node 10 1 1 1
node 11 1 1 1
node 12 1 1 1
node 13 1 1 1
node 14 1 1 1
node 15 1 1 1
node 16 1 1 1
node 17 1 1 1
node 18 1 1 1
node 19 1 1 1
node 20 1 1 1
node 21 1 1 1
node 22 1 1 1
node 23 1 1 1
node 24 1 1 1
node 25 1 1 1
node 26 1 1 1
node 27 1 1 1
node 28 1 1 1
node 29 1 1 1
node 30 1 1 3
node 31 1 0 2
node 32 1 0 2
node 33 1 0 2
node 34 1 0 2
node 35 1 0 2
node 36 1 0 2
node 91 1 0 0
gene  1 30 31 -7.364102618233849 0 1.0 -7.364102618233849 1
gene  1 30 32 0.7308805829768428 0 1.0 0.7308805829768428 1
gene  1 30 33 -1.5647999107945465 0 1.0 -1.5647999107945465 1
gene  1 30 34 -3.5842621211973307 0 1.0 -3.5842621211973307 1
gene  1 30 35 -2.320315283568743 0 1.0 -2.320315283568743 1
gene  1 30 36 -4.131653701577906 0 1.0 -4.131653701577906 1
gene  1 12 31 -1.6656480386677188 0 77.0 -1.6656480386677188 1
gene  1 12 32 -3.3394555486954403 0 78.0 -3.3394555486954403 1
gene  2 12 33 2.7902944677480597 0 79.0 2.7902944677480597 1
gene  1 12 34 7.565164150825738 0 80.0 7.565164150825738 1
gene  1 12 35 3.0020035226035793 0 81.0 3.0020035226035793 1
gene  1 12 36 -10.765372460938039 0 82.0 -10.765372460938039 1
gene  1 21 31 -6.184370229961803 0 107.0 -6.184370229961803 1
gene  1 21 32 -0.5242729721379726 0 108.0 -0.5242729721379726 1
gene  1 21 33 -0.7202068563873698 0 109.0 -0.7202068563873698 1
gene  1 21 34 3.3007493029567794 0 110.0 3.3007493029567794 1
gene  1 21 35 -1.6530352116247797 0 111.0 -1.6530352116247797 1
gene  2 21 36 4.274558246675752 0 112.0 4.274558246675752 1
gene  1 11 31 -3.283140730196032 0 189.0 -3.283140730196032 1
gene  1 11 32 -5.025346628123568 0 190.0 -5.025346628123568 1
gene  2 11 33 -4.543483545387613 0 191.0 -4.543483545387613 1
gene  1 11 34 0.16867612409997834 0 192.0 0.16867612409997834 1
gene  1 11 35 0.1465719691258116 0 193.0 0.1465719691258116 1
gene  2 11 36 1.174059592786185 0 194.0 1.174059592786185 0
gene  1 14 31 1.298668784443676 0 352.0 1.298668784443676 1
gene  1 14 32 0.10760973409822405 0 353.0 0.10760973409822405 1
gene  2 14 33 -1.1688122057820616 0 354.0 -1.1688122057820616 1
gene  1 14 34 18.113085781993657 0 355.0 18.113085781993657 1
gene  2 14 35 -4.048579315035817 0 356.0 -4.048579315035817 1
gene  1 14 36 2.5752350166769076 0 357.0 2.5752350166769076 1
gene  2 22 31 -6.483453261084177 0 384.0 -6.483453261084177 1
gene  2 22 32 1.9116224917653968 0 385.0 1.9116224917653968 1
gene  1 22 33 -0.9770130885476308 0 386.0 -0.9770130885476308 1
gene  1 22 34 7.941746465873627 0 387.0 7.941746465873627 1
gene  1 22 35 -2.3358154778804097 0 388.0 -2.3358154778804097 1
gene  2 22 36 -2.982240739725024 0 389.0 -2.982240739725024 1
gene  2 10 33 0.966097384435255 0 435.0 0.966097384435255 1
gene  1 26 34 -9.542404177812841 0 491.0 -9.542404177812841 1
gene  2 11 91 2.3495200448747333 0 496.0 2.3495200448747333 1
gene  2 91 36 1.869555487426799 0 497.0 1.869555487426799 1
gene  1 24 31 -0.33689365162323265 0 529.0 -0.33689365162323265 1
gene  1 24 32 2.9600006290967937 0 530.0 2.9600006290967937 1
gene  1 24 33 2.0797366042057153 0 531.0 2.0797366042057153 1
gene  1 24 34 -1.6837596141057969 0 532.0 -1.6837596141057969 1
gene  1 24 35 -0.4622511529173625 0 533.0 -0.4622511529173625 1
gene  1 24 36 -2.020973885612274 0 534.0 -2.020973885612274 1
genomeend 21
genomestart  22
trait 1 0.2775651715169364 0.0 0.9803094690668154 0.9325523051748733 0.0 0.0 0.0 0.7069531750113396 
trait 2 0.13443430009175789 0.0 0.0 0.0 0.0 0.0 0.0 0.0 
node 1 1 1 1
node 2 1 1 1
node 3 1 1 1
node 4 2 1 1
node 5 1 1 1
node 6 1 1 1
node 7 1 1 1
node 8 1 1 1
node 9 1 1 1
node 10 1 1 1
node 11 1 1 1
node 12 1 1 1
node 13 1 1 1
node 14 1 1 1
node 15 1 1 1
node 16 1 1 1
node 17 1 1 1
node 18 1 1 1
node 19 1 1 1
node 20 1 1 1
node 21 1 1 1
node 22 1 1 1
node 23 1 1 1
node 24 1 1 1
node 25 1 1 1
node 26 1 1 1
node 27 1 1 1
node 28 1 1 1
node 29 1 1 1
node 30 1 1 3
node 31 1 0 2
node 32 1 0 2
node 33 1 0 2
node 34 1 0 2
node 35 1 0 2
node 36 1 0 2
node 91 1 0 0
gene  1 30 31 -7.364102618233849 0 1.0 -7.364102618233849 1
gene  1 30 32 0.7308805829768428 0 1.0 0.7308805829768428 1
gene  1 30 33 -1.5647999107945465 0 1.0 -1.5647999107945465 1
gene  1 30 34 -3.5842621211973307 0 1.0 -3.5842621211973307 1
gene  1 30 35 -2.320315283568743 0 1.0 -2.320315283568743 1
gene  1 30 36 -4.131653701577906 0 1.0 -4.131653701577906 1
gene  1 12 31 -1.6656480386677188 0 77.0 -1.6656480386677188 1
gene  1 12 32 -3.3394555486954403 0 78.0 -3.3394555486954403 1
gene  2 12 33 2.7902944677480597 0 79.0 2.7902944677480597 1
gene  1 12 34 7.565164150825738 0 80.0 7.565164150825738 1
gene  1 12 35 3.0020035226035793 0 81.0 3.0020035226035793 1
gene  1 12 36 -10.765372460938039 0 82.0 -10.765372460938039 1
gene  1 21 31 -6.184370229961803 0 107.0 -6.184370229961803 1
gene  1 21 32 -0.5242729721379726 0 108.0 -0.5242729721379726 1
gene  1 21 33 -0.7202068563873698 0 109.0 -0.7202068563873698 1
gene  1 21 34 3.3007493029567794 0 110.0 3.3007493029567794 1
gene  1 21 35 -1.6530352116247797 0 111.0 -1.6530352116247797 1
gene  2 21 36 4.274558246675752 0 112.0 4.274558246675752 1
gene  1 11 31 -3.283140730196032 0 189.0 -3.283140730196032 1
gene  1 11 32 -5.025346628123568 0 190.0 -5.025346628123568 1
gene  2 11 33 -4.543483545387613 0 191.0 -4.543483545387613 1
gene  1 11 34 0.16867612409997834 0 192.0 0.16867612409997834 1
gene  1 11 35 0.1465719691258116 0 193.0 0.1465719691258116 1
gene  2 11 36 1.174059592786185 0 194.0 1.174059592786185 0
gene  1 14 31 1.298668784443676 0 352.0 1.298668784443676 1
gene  1 14 32 0.10760973409822405 0 353.0 0.10760973409822405 1
gene  2 14 33 -1.1688122057820616 0 354.0 -1.1688122057820616 1
gene  1 14 34 18.113085781993657 0 355.0 18.113085781993657 1
gene  2 14 35 -4.048579315035817 0 356.0 -4.048579315035817 1
gene  1 14 36 2.5752350166769076 0 357.0 2.5752350166769076 1
gene  2 22 31 -6.483453261084177 0 384.0 -6.483453261084177 1
gene  2 22 32 1.9116224917653968 0 385.0 1.9116224917653968 1
gene  1 22 33 -0.9770130885476308 0 386.0 -0.9770130885476308 1
gene  1 22 34 7.941746465873627 0 387.0 7.941746465873627 1
gene  1 22 35 -2.3358154778804097 0 388.0 -2.3358154778804097 1
gene  2 22 36 -2.982240739725024 0 389.0 -2.982240739725024 1
gene  2 10 33 0.966097384435255 0 435.0 0.966097384435255 1
gene  1 26 34 -9.542404177812841 0 491.0 -9.542404177812841 1
gene  2 11 91 2.3495200448747333 0 496.0 2.3495200448747333 1
gene  2 91 36 1.869555487426799 0 497.0 1.869555487426799 1
gene  1 24 31 -0.33689365162323265 0 529.0 -0.33689365162323265 1
gene  1 24 32 2.9600006290967937 0 530.0 2.9600006290967937 1
gene  1 24 33 2.0797366042057153 0 531.0 2.0797366042057153 1
gene  1 24 34 -1.6837596141057969 0 532.0 -1.6837596141057969 1
gene  1 24 35 -0.4622511529173625 0 533.0 -0.4622511529173625 1
gene  1 24 36 -2.020973885612274 0 534.0 -2.020973885612274 1
gene  1 20 91 -4.055096067946592 0 584.0 -4.055096067946592 1
genomeend 22
genomestart  23
trait 1 0.2775651715169364 0.0 0.9803094690668154 0.9325523051748733 0.0 0.0 0.0 0.7069531750113396 
trait 2 0.13443430009175789 0.0 0.0 0.0 0.0 0.0 0.0 0.0 
node 1 1 1 1
node 2 1 1 1
node 3 1 1 1
node 4 2 1 1
node 5 1 1 1
node 6 1 1 1
node 7 1 1 1
node 8 1 1 1
node 9 1 1 1
node 10 1 1 1
node 11 1 1 1
node 12 1 1 1
node 13 1 1 1
node 14 1 1 1
node 15 1 1 1
node 16 1 1 1
node 17 1 1 1
node 18 1 1 1
node 19 1 1 1
node 20 1 1 1
node 21 1 1 1
node 22 1 1 1
node 23 1 1 1
node 24 1 1 1
node 25 1 1 1
node 26 1 1 1
node 27 1 1 1
node 28 1 1 1
node 29 1 1 1
node 30 1 1 3
node 31 1 0 2
node 32 1 0 2
node 33 1 0 2
node 34 1 0 2
node 35 1 0 2
node 36 1 0 2
node 91 1 0 0
gene  1 30 31 -7.7120880525482685 0 1.0 -7.7120880525482685 1
gene  1 30 32 -0.42647562030173036 0 1.0 -0.42647562030173036 1
gene  1 30 33 -1.568279752292197 0 1.0 -1.568279752292197 1
gene  1 30 34 -1.343032120637425 0 1.0 -1.343032120637425 1
gene  1 30 35 -2.0079464140842354 0 1.0 -2.0079464140842354 1
gene  1 30 36 -6.1304185820531325 0 1.0 -6.1304185820531325 1
gene  1 12 31 -3.060066648471482 0 77.0 -3.060066648471482 1
gene  1 12 32 -4.044769464310643 0 78.0 -4.044769464310643 1
gene  2 12 33 2.43207671982335 0 79.0 2.43207671982335 1
gene  1 12 34 9.103953770863985 0 80.0 9.103953770863985 1
gene  1 12 35 2.019121191389199 0 81.0 2.019121191389199 1
gene  1 12 36 -10.489416037927061 0 82.0 -10.489416037927061 1
gene  1 21 31 -5.996619995034685 0 107.0 -5.996619995034685 1
gene  1 21 32 -2.2412424627800824 0 108.0 -2.2412424627800824 1
gene  1 21 33 0.8668862620680893 0 109.0 0.8668862620680893 1
gene  1 21 34 1.8498035859175366 0 110.0 1.8498035859175366 1
gene  1 21 35 -3.895633174392306 0 111.0 -3.895633174392306 1
gene  2 21 36 4.551061606204219 0 112.0 4.551061606204219 1
gene  1 11 31 -3.5131531560233733 0 189.0 -3.5131531560233733 1
gene  1 11 32 -2.625235313499494 0 190.0 -2.625235313499494 1
gene  2 11 33 -6.55916968529234 0 191.0 -6.55916968529234 1
gene  1 11 34 1.056256565261894 0 192.0 1.056256565261894 1
gene  1 11 35 1.110498557678134 0 193.0 1.110498557678134 1
gene  2 11 36 2.751164007099219 0 194.0 2.751164007099219 0
gene  1 14 31 0.4592625151135987 0 352.0 0.4592625151135987 1
gene  1 14 32 2.4625432109026804 0 353.0 2.4625432109026804 1
gene  2 14 33 0.15105952930751143 0 354.0 0.15105952930751143 1
gene  1 14 34 15.814372439779204 0 355.0 15.814372439779204 1
gene  2 14 35 -2.8218983564970994 0 356.0 -2.8218983564970994 1
gene  1 14 36 3.608839709228534 0 357.0 3.608839709228534 1
gene  2 22 31 -5.753180497782237 0 384.0 -5.753180497782237 1
gene  2 22 32 4.204513389436091 0 385.0 4.204513389436091 1
gene  1 22 33 -2.630293743503258 0 386.0 -2.630293743503258 1
gene  1 22 34 8.678544445255795 0 387.0 8.678544445255795 1
gene  1 22 35 -3.538773407188802 0 388.0 -3.538773407188802 1
gene  2 22 36 -5.12470963322461 0 389.0 -5.12470963322461 1
gene  2 10 33 -0.8419247003320434 0 435.0 -0.8419247003320434 1
gene  1 26 34 1.7669871259277299 0 491.0 1.7669871259277299 1
gene  2 11 91 2.3495200448747333 0 496.0 2.3495200448747333 1
gene  2 91 36 1.869555487426799 0 497.0 1.869555487426799 1
gene  1 24 31 0.8078783499445008 0 529.0 0.8078783499445008 1
gene  1 24 32 1.3728781395405698 0 530.0 1.3728781395405698 1
gene  1 24 33 -1.4754534922661657 0 531.0 -1.4754534922661657 1
gene  1 24 34 1.750397418965421 0 532.0 1.750397418965421 1
gene  1 24 35 -0.4622511529173625 0 533.0 -0.4622511529173625 1
gene  1 24 36 -3.62630260779107 0 534.0 -3.62630260779107 1
genomeend 23
genomestart  24
trait 1 0.2775651715169364 0.0 0.9803094690668154 0.9325523051748733 0.0 0.0 0.0 0.7069531750113396 
trait 2 0.13443430009175789 0.0 0.0 0.0 0.0 0.0 0.0 0.0 
node 1 1 1 1
node 2 1 1 1
node 3 1 1 1
node 4 2 1 1
node 5 1 1 1
node 6 1 1 1
node 7 1 1 1
node 8 1 1 1
node 9 1 1 1
node 10 1 1 1
node 11 1 1 1
node 12 1 1 1
node 13 1 1 1
node 14 1 1 1
node 15 1 1 1
node 16 1 1 1
node 17 1 1 1
node 18 1 1 1
node 19 1 1 1
node 20 1 1 1
node 21 1 1 1
node 22 1 1 1
node 23 1 1 1
node 24 1 1 1
node 25 1 1 1
node 26 1 1 1
node 27 1 1 1
node 28 1 1 1
node 29 1 1 1
node 30 1 1 3
node 31 1 0 2
node 32 1 0 2
node 33 1 0 2
node 34 1 0 2
node 35 1 0 2
node 36 1 0 2
node 91 1 0 0
gene  1 30 31 -7.520543121567025 0 1.0 -7.520543121567025 1
gene  1 30 32 2.3360516525610002 0 1.0 2.3360516525610002 1
gene  1 30 33 0.6231656921347064 0 1.0 0.6231656921347064 1
gene  1 30 34 -3.5842621211973307 0 1.0 -3.5842621211973307 1
gene  1 30 35 -0.935540690029228 0 1.0 -0.935540690029228 1
gene  1 30 36 2.2493424765990118 0 1.0 2.2493424765990118 1
gene  1 12 31 -0.11403704698712658 0 77.0 -0.11403704698712658 1
gene  1 12 32 -0.9848860969753486 0 78.0 -0.9848860969753486 1
gene  2 12 33 0.5918173510232578 0 79.0 0.5918173510232578 1
gene  1 12 34 7.550167566582478 0 80.0 7.550167566582478 1
gene  1 12 35 1.0938919202984392 0 81.0 1.0938919202984392 1
gene  1 12 36 -12.724654258464211 0 82.0 -12.724654258464211 1
gene  1 21 31 -1.643305552240536 0 107.0 -1.643305552240536 1
gene  1 21 32 0.44889068238064134 0 108.0 0.44889068238064134 1
gene  1 21 33 0.34593078733137017 0 109.0 0.34593078733137017 1
gene  1 21 34 4.108883495752718 0 110.0 4.108883495752718 1
gene  1 21 35 -2.773045107343873 0 111.0 -2.773045107343873 1
gene  2 21 36 2.3007267689145223 0 112.0 2.3007267689145223 1
gene  1 11 31 -3.283140730196032 0 189.0 -3.283140730196032 1
gene  1 11 32 -3.128999495746852 0 190.0 -3.128999495746852 1
gene  2 11 33 -4.543483545387613 0 191.0 -4.543483545387613 1
gene  1 11 34 0.16867612409997834 0 192.0 0.16867612409997834 1
gene  1 11 35 0.11235549710442494 0 193.0 0.11235549710442494 1
gene  2 11 36 -0.9450644790397031 0 194.0 -0.9450644790397031 0
gene  1 14 31 -0.36813370567681747 0 352.0 -0.36813370567681747 1
gene  1 14 32 -1.4547218928007242 0 353.0 -1.4547218928007242 1
gene  2 14 33 1.2683002741824043 0 354.0 1.2683002741824043 1
gene  1 14 34 -2.0556170744627598 0 355.0 -2.0556170744627598 1
gene  2 14 35 -1.5725392301794294 0 356.0 -1.5725392301794294 1
gene  1 14 36 2.4268405997902627 0 357.0 2.4268405997902627 1
gene  2 22 31 -7.2261843471872975 0 384.0 -7.2261843471872975 1
gene  2 22 32 0.2887420730617776 0 385.0 0.2887420730617776 1
gene  1 22 33 -2.1706555244057317 0 386.0 -2.1706555244057317 1
gene  1 22 34 0.6544897978074032 0 387.0 0.6544897978074032 1
gene  1 22 35 0.15540716231027485 0 388.0 0.15540716231027485 1
gene  2 22 36 -2.2426653625472506 0 389.0 -2.2426653625472506 1
gene  2 10 33 2.961701734629666 0 435.0 2.961701734629666 1
gene  1 26 34 -11.53039247661448 0 491.0 -11.53039247661448 1
gene  2 11 91 0.6502130157977504 0 496.0 0.6502130157977504 1
gene  2 91 36 4.2523057347144055 0 497.0 4.2523057347144055 1
gene  1 24 31 -2.43601516936352 0 529.0 -2.43601516936352 1
gene  1 24 32 1.114526713651662 0 530.0 1.114526713651662 1
gene  1 24 33 2.5823695437218044 0 531.0 2.5823695437218044 1
gene  1 24 34 -0.17270280356861423 0 532.0 -0.17270280356861423 1
gene  1 24 35 0.840016185616957 0 533.0 0.840016185616957 1
gene  1 24 36 -0.621847057136609 0 534.0 -0.621847057136609 1
genomeend 24
genomestart  25
trait 1 0.2775651715169364 0.0 0.9803094690668154 0.7160542295213038 0.0 0.0 0.0 0.7069531750113396 
trait 2 0.13443430009175789 0.0 0.0 0.0 0.0 0.0 0.0 0.0 
node 1 1 1 1
node 2 1 1 1
node 3 1 1 1
node 4 2 1 1
node 5 1 1 1
node 6 1 1 1
node 7 1 1 1
node 8 1 1 1
node 9 1 1 1
node 10 1 1 1
node 11 1 1 1
node 12 1 1 1
node 13 1 1 1
node 14 1 1 1
node 15 1 1 1
node 16 1 1 1
node 17 1 1 1
node 18 1 1 1
node 19 1 1 1
node 20 1 1 1
node 21 1 1 1
node 22 1 1 1
node 23 1 1 1
node 24 1 1 1
node 25 1 1 1
node 26 1 1 1
node 27 1 1 1
node 28 1 1 1
node 29 1 1 1
node 30 1 1 3
node 31 1 0 2
node 32 1 0 2
node 33 1 0 2
node 34 1 0 2
node 35 1 0 2
node 36 1 0 2
node 91 1 0 0
gene  1 30 31 -6.735385448299305 0 1.0 -6.735385448299305 1
gene  1 30 32 3.678733630497084 0 1.0 3.678733630497084 1
gene  1 30 33 -3.8379839506239763 0 1.0 -3.8379839506239763 1
gene  1 30 34 -1.6645716829176629 0 1.0 -1.6645716829176629 1
gene  1 30 35 -0.5189904110578565 0 1.0 -0.5189904110578565 1
gene  1 30 36 0.3238676455584042 0 1.0 0.3238676455584042 1
gene  1 12 31 4.513788520684491 0 77.0 4.513788520684491 1
gene  1 12 32 -2.1737258582299166 0 78.0 -2.1737258582299166 1
gene  2 12 33 2.403743392989309 0 79.0 2.403743392989309 1
gene  1 12 34 2.318451781342134 0 80.0 2.318451781342134 1
gene  1 12 35 1.3626890468307222 0 81.0 1.3626890468307222 1
gene  1 12 36 -8.876419896969947 0 82.0 -8.876419896969947 1
gene  1 21 31 -6.784496041050964 0 107.0 -6.784496041050964 1
gene  1 21 32 1.5518230813915168 0 108.0 1.5518230813915168 1
gene  1 21 33 -1.7662012740845436 0 109.0 -1.7662012740845436 1
gene  1 21 34 4.585471756916366 0 110.0 4.585471756916366 1
gene  1 21 35 -0.9738628546725261 0 111.0 -0.9738628546725261 1
gene  2 21 36 0.46539459790926907 0 112.0 0.46539459790926907 1
gene  1 11 31 -4.340593018513391 0 189.0 -4.340593018513391 1
gene  1 11 32 -4.736446119548842 0 190.0 -4.736446119548842 1
gene  2 11 33 -2.838999402282569 0 191.0 -2.838999402282569 1
gene  1 11 34 0.4436711066182425 0 192.0 0.4436711066182425 1
gene  1 11 35 -0.9684365847161158 0 193.0 -0.9684365847161158 1
gene  2 11 36 1.6387738475339428 0 194.0 1.6387738475339428 0
gene  1 14 31 -2.9692888791024954 0 352.0 -2.9692888791024954 1
gene  1 14 32 -3.262543984386933 0 353.0 -3.262543984386933 1
gene  2 14 33 -3.778489731599256 0 354.0 -3.778489731599256 1
gene  1 14 34 18.065915727376826 0 355.0 18.065915727376826 1
gene  2 14 35 -1.6784255718213816 0 356.0 -1.6784255718213816 1
gene  1 14 36 4.003066198603396 0 357.0 4.003066198603396 1
gene  2 22 31 -8.436103291761352 0 384.0 -8.436103291761352 1
gene  2 22 32 -0.7438837774790047 0 385.0 -0.7438837774790047 1
gene  1 22 33 -7.062539358541642 0 386.0 -7.062539358541642 1
gene  1 22 34 8.521877310195688 0 387.0 8.521877310195688 1
gene  1 22 35 -2.915926303714688 0 388.0 -2.915926303714688 1
gene  2 22 36 -0.9498176950881352 0 389.0 -0.9498176950881352 1
gene  2 10 33 -2.187336529054136 0 435.0 -2.187336529054136 1
gene  1 26 34 -9.920234111577972 0 491.0 -9.920234111577972 1
gene  2 11 91 -0.18526698561177612 0 496.0 -0.18526698561177612 1
gene  2 91 36 1.5543773286697204 0 497.0 1.5543773286697204 1
gene  1 29 31 3.1114772407777833 0 550.0 3.1114772407777833 1
gene  2 29 32 -6.961286850919734 0 551.0 -6.961286850919734 1
gene  1 29 33 -3.5864673872707344 0 552.0 -3.5864673872707344 1
gene  2 29 34 -2.9302268528263387 0 553.0 -2.9302268528263387 1
gene  1 29 35 4.8376016529169785 0 554.0 4.8376016529169785 1
gene  2 29 36 -0.17205416328541 0 555.0 -0.17205416328541 1
gene  1 18 34 -9.560608643175986 0 578.0 -9.560608643175986 1
genomeend 25
genomestart  26
trait 1 0.2775651715169364 0.0 0.9803094690668154 0.7160542295213038 0.0 0.0 0.0 0.7069531750113396 
trait 2 0.13443430009175789 0.0 0.0 0.0 0.0 0.0 0.0 0.0 
node 1 1 1 1
node 2 1 1 1
node 3 1 1 1
node 4 2 1 1
node 5 1 1 1
node 6 1 1 1
node 7 1 1 1
node 8 1 1 1
node 9 1 1 1
node 10 1 1 1
node 11 1 1 1
node 12 1 1 1
node 13 1 1 1
node 14 1 1 1
node 15 1 1 1
node 16 1 1 1
node 17 1 1 1
node 18 1 1 1
node 19 1 1 1
node 20 1 1 1
node 21 1 1 1
node 22 1 1 1
node 23 1 1 1
node 24 1 1 1
node 25 1 1 1
node 26 1 1 1
node 27 1 1 1
node 28 1 1 1
node 29 1 1 1
node 30 1 1 3
node 31 1 0 2
node 32 1 0 2
node 33 1 0 2
node 34 1 0 2
node 35 1 0 2
node 36 1 0 2
node 91 1 0 0
gene  1 30 31 -4.47708875056797 0 1.0 -4.47708875056797 1
gene  1 30 32 2.0105704745612165 0 1.0 2.0105704745612165 1
gene  1 30 33 -4.28981570558872 0 1.0 -4.28981570558872 1
gene  1 30 34 -3.088894190350161 0 1.0 -3.088894190350161 1
gene  1 30 35 1.553034871586257 0 1.0 1.553034871586257 1
gene  1 30 36 1.8342343328921968 0 1.0 1.8342343328921968 1
gene  1 12 31 4.833495682158371 0 77.0 4.833495682158371 1
gene  1 12 32 -0.17200836667688035 0 78.0 -0.17200836667688035 1
gene  2 12 33 0.42457649704972455 0 79.0 0.42457649704972455 1
gene  1 12 34 1.1105458588728703 0 80.0 1.1105458588728703 1
gene  1 12 35 1.3315823114199379 0 81.0 1.3315823114199379 1
gene  1 12 36 -11.151931814748103 0 82.0 -11.151931814748103 1
gene  1 21 31 -5.867923201219993 0 107.0 -5.867923201219993 1
gene  1 21 32 1.2177295375121489 0 108.0 1.2177295375121489 1
gene  1 21 33 -3.943881254122897 0 109.0 -3.943881254122897 1
gene  1 21 34 5.322466026549643 0 110.0 5.322466026549643 1
gene  1 21 35 -0.8635906096191084 0 111.0 -0.8635906096191084 1
gene  2 21 36 2.8030531686624167 0 112.0 2.8030531686624167 1
gene  1 11 31 -5.1195835309642455 0 189.0 -5.1195835309642455 1
gene  1 11 32 -6.593421813141205 0 190.0 -6.593421813141205 1
gene  2 11 33 -1.552283712928175 0 191.0 -1.552283712928175 1
gene  1 11 34 -0.7506906482854613 0 192.0 -0.7506906482854613 1
gene  1 11 35 -0.1966204897712922 0 193.0 -0.1966204897712922 1
gene  2 11 36 2.1686974255047415 0 194.0 2.1686974255047415 1
gene  1 14 31 -3.9100858317619798 0 352.0 -3.9100858317619798 1
gene  1 14 32 -3.2249925932112657 0 353.0 -3.2249925932112657 1
gene  2 14 33 -5.451118990909018 0 354.0 -5.451118990909018 1
gene  1 14 34 20.23342426674604 0 355.0 20.23342426674604 1
gene  2 14 35 -2.277465309309478 0 356.0 -2.277465309309478 1
gene  1 14 36 6.035935074111546 0 357.0 6.035935074111546 1
gene  2 22 31 -9.252709371842375 0 384.0 -9.252709371842375 1
gene  2 22 32 -2.6433733315973673 0 385.0 -2.6433733315973673 1
gene  1 22 33 -7.409513703703023 0 386.0 -7.409513703703023 1
gene  1 22 34 7.415461311215946 0 387.0 7.415461311215946 1
gene  1 22 35 -0.5393128158704026 0 388.0 -0.5393128158704026 1
gene  2 22 36 0.41351419407735057 0 389.0 0.41351419407735057 1
gene  2 10 33 -0.9405137591327406 0 435.0 -0.9405137591327406 1
gene  1 26 34 -8.675329738411953 0 491.0 -8.675329738411953 1
gene  2 11 91 1.524763020355486 0 496.0 1.524763020355486 1
gene  2 91 36 3.052565589281549 0 497.0 3.052565589281549 1
gene  1 29 31 3.1114772407777833 0 550.0 3.1114772407777833 1
gene  2 29 32 -1.8636603440593547 0 551.0 -1.8636603440593547 1
gene  1 29 33 -3.5864673872707344 0 552.0 -3.5864673872707344 1
gene  2 29 34 -3.9510654399396907 0 553.0 -3.9510654399396907 1
gene  1 29 35 6.4230884066985805 0 554.0 6.4230884066985805 1
gene  2 29 36 -0.5199504830452351 0 555.0 -0.5199504830452351 1
gene  1 18 34 1.3034455920681114 0 578.0 1.3034455920681114 1
genomeend 26
genomestart  27
trait 1 0.2775651715169364 0.0 0.9803094690668154 0.7160542295213038 0.0 0.0 0.0 0.7069531750113396 
trait 2 0.13443430009175789 0.0 0.0 0.0 0.0 0.0 0.0 0.0 
node 1 1 1 1
node 2 1 1 1
node 3 1 1 1
node 4 2 1 1
node 5 1 1 1
node 6 1 1 1
node 7 1 1 1
node 8 1 1 1
node 9 1 1 1
node 10 1 1 1
node 11 1 1 1
node 12 1 1 1
node 13 1 1 1
node 14 1 1 1
node 15 1 1 1
node 16 1 1 1
node 17 1 1 1
node 18 1 1 1
node 19 1 1 1
node 20 1 1 1
node 21 1 1 1
node 22 1 1 1
node 23 1 1 1
node 24 1 1 1
node 25 1 1 1
node 26 1 1 1
node 27 1 1 1
node 28 1 1 1
node 29 1 1 1
node 30 1 1 3
node 31 1 0 2
node 32 1 0 2
node 33 1 0 2
node 34 1 0 2
node 35 1 0 2
node 36 1 0 2
node 91 1 0 0
gene  1 30 31 -4.2977489335497445 0 1.0 -4.2977489335497445 1
gene  1 30 32 1.9433935381726875 0 1.0 1.9433935381726875 1
gene  1 30 33 -5.537696319279608 0 1.0 -5.537696319279608 1
gene  1 30 34 -2.099344982438575 0 1.0 -2.099344982438575 1
gene  1 30 35 -2.574593974390111 0 1.0 -2.574593974390111 1
gene  1 30 36 2.315194831236409 0 1.0 2.315194831236409 1
gene  1 12 31 5.050065695432872 0 77.0 5.050065695432872 1
gene  1 12 32 0.056438329083567496 0 78.0 0.056438329083567496 1
gene  2 12 33 0.6122033940288065 0 79.0 0.6122033940288065 1
gene  1 12 34 1.187894119622028 0 80.0 1.187894119622028 1
gene  1 12 35 0.41980030760569287 0 81.0 0.41980030760569287 1
gene  1 12 36 -7.816819496145838 0 82.0 -7.816819496145838 1
gene  1 21 31 -6.906456895842656 0 107.0 -6.906456895842656 1
gene  1 21 32 3.6247063009771776 0 108.0 3.6247063009771776 1
gene  1 21 33 -2.742973331307901 0 109.0 -2.742973331307901 1
gene  1 21 34 2.3031878177548046 0 110.0 2.3031878177548046 1
gene  1 21 35 -0.13683066660108678 0 111.0 -0.13683066660108678 1
gene  2 21 36 1.3416199555390618 0 112.0 1.3416199555390618 1
gene  1 11 31 -2.5852860660820887 0 189.0 -2.5852860660820887 1
gene  1 11 32 -3.854970277799604 0 190.0 -3.854970277799604 1
gene  2 11 33 -5.15196813603508 0 191.0 -5.15196813603508 1
gene  1 11 34 -0.6756305836647621 0 192.0 -0.6756305836647621 1
gene  1 11 35 -2.9306443019661703 0 193.0 -2.9306443019661703 1
gene  2 11 36 2.799036363691438 0 194.0 2.799036363691438 0
gene  1 14 31 -4.584145468818676 0 352.0 -4.584145468818676 1
gene  1 14 32 -2.7832829990782924 0 353.0 -2.7832829990782924 1
gene  2 14 33 -3.2807547714281338 0 354.0 -3.2807547714281338 1
gene  1 14 34 15.908176546096641 0 355.0 15.908176546096641 1
gene  2 14 35 0.6635807274828878 0 356.0 0.6635807274828878 1
gene  1 14 36 5.798074219036993 0 357.0 5.798074219036993 1
gene  2 22 31 -8.284551447969337 0 384.0 -8.284551447969337 1
gene  2 22 32 0.9255429527309961 0 385.0 0.9255429527309961 1
gene  1 22 33 -4.6379127673983565 0 386.0 -4.6379127673983565 1
gene  1 22 34 8.233500094997785 0 387.0 8.233500094997785 1
gene  1 22 35 -5.114410443891607 0 388.0 -5.114410443891607 1
gene  2 22 36 -1.512521198530222 0 389.0 -1.512521198530222 1
gene  2 10 33 -0.9532582301617645 0 435.0 -0.9532582301617645 1
gene  1 26 34 -9.319320295643307 0 491.0 -9.319320295643307 1
gene  2 11 91 1.7277759168398648 0 496.0 1.7277759168398648 1
gene  2 91 36 1.5543773286697204 0 497.0 1.5543773286697204 1
gene  1 29 31 -2.395763075409911 0 550.0 -2.395763075409911 1
gene  2 29 32 1.570716785890035 0 551.0 1.570716785890035 1
gene  1 29 33 -3.844013070059965 0 552.0 -3.844013070059965 1
gene  2 29 34 -2.296259261910021 0 553.0 -2.296259261910021 1
gene  1 29 35 2.0950401266684366 0 554.0 2.0950401266684366 1
gene  2 29 36 1.9809835136577465 0 555.0 1.9809835136577465 1
gene  1 18 34 2.218012926530201 0 578.0 2.218012926530201 1
genomeend 27
genomestart  28
trait 1 0.2775651715169364 0.0 0.9803094690668154 0.7160542295213038 0.0 0.0 0.0 0.7069531750113396 
trait 2 0.13443430009175789 0.0 0.0 0.0 0.0 0.0 0.0 0.0 
node 1 1 1 1
node 2 1 1 1
node 3 1 1 1
node 4 2 1 1
node 5 1 1 1
node 6 1 1 1
node 7 1 1 1
node 8 1 1 1
node 9 1 1 1
node 10 1 1 1
node 11 1 1 1
node 12 1 1 1
node 13 1 1 1
node 14 1 1 1
node 15 1 1 1
node 16 1 1 1
node 17 1 1 1
node 18 1 1 1
node 19 1 1 1
node 20 1 1 1
node 21 1 1 1
node 22 1 1 1
node 23 1 1 1
node 24 1 1 1
node 25 1 1 1
node 26 1 1 1
node 27 1 1 1
node 28 1 1 1
node 29 1 1 1
node 30 1 1 3
node 31 1 0 2
node 32 1 0 2
node 33 1 0 2
node 34 1 0 2
node 35 1 0 2
node 36 1 0 2
node 91 1 0 0
gene  1 30 31 -6.735385448299305 0 1.0 -6.735385448299305 1
gene  1 30 32 2.411554527142406 0 1.0 2.411554527142406 1
gene  1 30 33 -3.2582332007397246 0 1.0 -3.2582332007397246 1
gene  1 30 34 -0.8899250642747119 0 1.0 -0.8899250642747119 1
gene  1 30 35 0.640857860563693 0 1.0 0.640857860563693 1
gene  1 30 36 -0.07141032172442102 0 1.0 -0.07141032172442102 1
gene  1 12 31 4.0046862596131545 0 77.0 4.0046862596131545 1
gene  1 12 32 -2.1306266849319693 0 78.0 -2.1306266849319693 1
gene  2 12 33 0.1676550943280966 0 79.0 0.1676550943280966 1
gene  2 12 34 0.7573812668433784 0 80.0 0.7573812668433784 1
gene  1 12 35 1.0627482120267124 0 81.0 1.0627482120267124 1
gene  1 12 36 -8.999755498655986 0 82.0 -8.999755498655986 1
gene  1 21 31 -5.09167568764151 0 107.0 -5.09167568764151 1
gene  1 21 32 -1.6664522412117546 0 108.0 -1.6664522412117546 1
gene  1 21 33 0.011550587518974753 0 109.0 0.011550587518974753 1
gene  1 21 34 4.585471756916366 0 110.0 4.585471756916366 1
gene  1 21 35 -0.9738628546725261 0 111.0 -0.9738628546725261 1
gene  2 21 36 -0.2874150774320705 0 112.0 -0.2874150774320705 1
gene  1 11 31 -4.637637834697035 0 189.0 -4.637637834697035 1
gene  1 11 32 -3.2232745487923737 0 190.0 -3.2232745487923737 1
gene  2 11 33 -4.779937734879834 0 191.0 -4.779937734879834 1
gene  1 11 34 -1.7406721632771118 0 192.0 -1.7406721632771118 1
gene  1 11 35 -2.5868721250763915 0 193.0 -2.5868721250763915 1
gene  2 11 36 2.834162353947177 0 194.0 2.834162353947177 0
gene  1 14 31 -2.214614128378912 0 352.0 -2.214614128378912 1
gene  1 14 32 -2.8245573467306784 0 353.0 -2.8245573467306784 1
gene  2 14 33 -2.2458750209691685 0 354.0 -2.2458750209691685 1
gene  1 14 34 19.94505183349877 0 355.0 19.94505183349877 1
gene  2 14 35 -0.8380179166333163 0 356.0 -0.8380179166333163 1
gene  1 14 36 3.3468760156773545 0 357.0 3.3468760156773545 1
gene  2 22 31 -8.436103291761352 0 384.0 -8.436103291761352 1
gene  2 22 32 -2.8499457776858823 0 385.0 -2.8499457776858823 1
gene  1 22 33 -7.062539358541642 0 386.0 -7.062539358541642 1
gene  1 22 34 7.532531044899655 0 387.0 7.532531044899655 1
gene  1 22 35 -5.278444765267985 0 388.0 -5.278444765267985 1
gene  2 22 36 -0.9498176950881352 0 389.0 -0.9498176950881352 1
gene  2 10 33 -2.223177572945478 0 435.0 -2.223177572945478 1
gene  1 26 34 -12.092767586860582 0 491.0 -12.092767586860582 1
gene  2 11 91 -0.18526698561177612 0 496.0 -0.18526698561177612 1
gene  2 91 36 3.217318828777579 0 497.0 3.217318828777579 1
gene  1 29 31 0.13191355253893228 0 550.0 0.13191355253893228 1
