genomestart  0
trait 1 1.4743872037270211 1.2126836014930213 0.08286402898762335 1.3648893927070853 1.4737910521141837 0.0 1.0681306205648171 0.3610967866278958 
trait 2 0.0 0.7446882930314705 0.93239005958062 0.2596121535266682 0.0 2.247610144307834 0.6430708744148922 2.260198713935586 
node 1 2 1 1
node 2 1 1 1
node 3 1 1 1
node 4 1 1 1
node 5 1 1 1
node 6 2 1 1
node 7 1 1 1
node 8 1 1 1
node 9 2 1 1
node 10 2 1 1
node 11 1 1 1
node 12 1 1 1
node 13 2 1 1
node 14 1 1 1
node 15 1 1 1
node 16 1 1 1
node 17 2 1 3
node 18 1 0 2
node 19 1 0 2
node 20 2 0 2
node 21 2 0 2
node 22 1 0 2
node 23 1 0 2
node 32 1 0 0
node 36 2 0 0
node 42 1 0 0
node 74 1 0 0
node 85 1 0 0
node 89 1 0 0
node 91 2 0 0
node 95 2 0 0
node 113 1 0 0
node 117 1 0 0
node 120 2 0 0
node 121 1 0 0
node 122 1 0 0
node 124 1 0 0
node 132 1 0 0
node 133 1 0 0
gene  1 17 18 -3.746429546476127 0 1.0 -3.746429546476127 1
gene  1 17 19 6.946115562042671 0 1.0 6.946115562042671 1
gene  1 17 20 -2.933914358278332 0 1.0 -2.933914358278332 1
gene  1 17 21 -1.077463519965077 0 1.0 -1.077463519965077 1
gene  1 17 22 6.444219344047598 0 1.0 6.444219344047598 1
gene  1 17 23 4.611551831078835 0 1.0 4.611551831078835 1
gene  1 11 18 -13.570656836350276 0 3.0 -13.570656836350276 1
gene  1 11 19 11.006584447766064 0 4.0 11.006584447766064 1
gene  2 11 20 2.1929073715537593 0 5.0 2.1929073715537593 1
gene  2 11 21 -0.16974422578283144 0 6.0 -0.16974422578283144 1
gene  1 11 22 -7.46843165294611 0 7.0 -7.46843165294611 1
gene  2 11 23 6.196687270755763 0 8.0 6.196687270755763 1
gene  2 12 18 -21.377711330564875 0 13.0 -21.377711330564875 1
gene  2 12 19 0.6666346838840387 0 14.0 0.6666346838840387 1
gene  1 12 20 -3.7118113509731634 0 15.0 -3.7118113509731634 1
gene  1 12 21 1.9866675598162409 0 16.0 1.9866675598162409 1
gene  1 12 22 3.555957782148303 0 17.0 3.555957782148303 1
gene  2 12 23 2.3077269816416326 0 18.0 2.3077269816416326 1
gene  2 14 18 7.690985183484725 0 57.0 7.690985183484725 1
gene  1 14 19 0.1199474458515315 0 58.0 0.1199474458515315 1
gene  1 14 20 3.058590427473245 0 59.0 3.058590427473245 1
gene  1 14 21 -7.44827590868187 0 60.0 -7.44827590868187 1
gene  2 14 22 -12.20938597694899 0 61.0 -12.20938597694899 0
gene  2 14 23 4.092076637639183 0 62.0 4.092076637639183 1
gene  1 14 32 -0.7603471646706311 0 63.0 -0.7603471646706311 1
gene  1 32 23 7.888350878069238 0 64.0 7.888350878069238 1
gene  2 14 36 21.097179652482957 0 80.0 21.097179652482957 1
gene  2 36 21 -6.558294849999041 0 81.0 -6.558294849999041 1
gene  1 14 42 -1.2336501040150092 0 105.0 -1.2336501040150092 1
gene  1 42 19 3.454133352253937 0 106.0 3.454133352253937 1
gene  1 15 18 -0.8250364017546318 0 138.0 -0.8250364017546318 1
gene  2 8 18 3.5983690841595735 0 145.0 3.5983690841595735 1
gene  2 8 19 3.4990211291040345 0 146.0 3.4990211291040345 1
gene  1 8 20 1.1770439120896736 0 147.0 1.1770439120896736 1
gene  2 8 21 7.7363388068066365 0 148.0 7.7363388068066365 1
gene  2 8 22 0.8307463176605757 0 149.0 0.8307463176605757 1
gene  2 8 23 -2.2056846390290525 0 150.0 -2.2056846390290525 1
gene  2 13 32 5.044866785120719 0 176.0 5.044866785120719 1
gene  1 6 23 -0.46643964785185 0 224.0 -0.46643964785185 1
gene  2 13 18 -5.918590183292544 0 260.0 -5.918590183292544 1
gene  1 13 19 -2.726175231669754 0 261.0 -2.726175231669754 1
gene  1 13 20 0.9263401391830064 0 262.0 0.9263401391830064 1
gene  1 13 21 18.46117062127705 0 263.0 18.46117062127705 1
gene  2 13 22 2.517929312301898 0 264.0 2.517929312301898 1
gene  2 13 23 3.2679549194919844 0 265.0 3.2679549194919844 1
gene  2 3 36 -3.873727060658923 0 292.0 -3.873727060658923 1
gene  1 15 19 6.605642732051803 0 293.0 6.605642732051803 1
gene  1 15 20 -0.09617430375109481 0 294.0 -0.09617430375109481 1
gene  2 15 21 -3.531700359351099 0 295.0 -3.531700359351099 1
gene  1 15 22 2.1382652194928276 0 296.0 2.1382652194928276 1
gene  1 15 23 -8.727144044197992 0 297.0 -8.727144044197992 1
gene  1 3 18 -13.785306709249332 0 322.0 -13.785306709249332 1
gene  1 3 19 -0.9038903602132411 0 323.0 -0.9038903602132411 1
gene  1 3 20 -0.23012990259824817 0 324.0 -0.23012990259824817 1
gene  2 3 21 4.005154874156621 0 325.0 4.005154874156621 1
gene  1 3 22 2.477896455955077 0 326.0 2.477896455955077 1
gene  2 3 23 4.925568484346127 0 327.0 4.925568484346127 1
gene  1 10 18 -3.278911044159581 0 340.0 -3.278911044159581 1
gene  1 10 19 -7.670530766360608 0 341.0 -7.670530766360608 1
gene  2 10 20 4.289369021799462 0 342.0 4.289369021799462 1
gene  2 10 21 3.6351951027390665 0 343.0 3.6351951027390665 1
gene  2 10 22 -7.670430305420965 0 344.0 -7.670430305420965 1
gene  1 10 23 -2.65220532890181 0 345.0 -2.65220532890181 1
gene  2 5 21 -0.15070713738688252 0 351.0 -0.15070713738688252 1
gene  2 32 42 5.834127516936601 0 359.0 5.834127516936601 1
gene  2 7 18 -4.69449209199949 0 373.0 -4.69449209199949 1
gene  1 7 19 -2.195372135918279 0 374.0 -2.195372135918279 1
gene  2 7 20 -18.452961546350497 0 375.0 -18.452961546350497 1
gene  1 7 21 3.103245490356883 0 376.0 3.103245490356883 1
gene  1 7 22 -0.44008794035182097 0 377.0 -0.44008794035182097 1
gene  1 7 23 3.0203997039087094 0 378.0 3.0203997039087094 1
gene  1 11 74 -11.776650286157414 0 382.0 -11.776650286157414 1
gene  1 74 19 -4.920139896262071 0 383.0 -4.920139896262071 1
gene  1 42 20 -2.3958265682817705 0 399.0 -2.3958265682817705 1
gene  1 1 18 -3.8887288966572466 0 403.0 -3.8887288966572466 1
gene  1 1 19 -2.0046156519225447 0 404.0 -2.0046156519225447 1
gene  2 1 20 -8.425546450949494 0 401.0 -8.425546450949494 1
gene  2 1 21 4.136017521523495 0 405.0 4.136017521523495 1
gene  1 1 22 3.5338652127441117 0 406.0 3.5338652127441117 1
gene  1 1 23 0.7739898813249321 0 407.0 0.7739898813249321 1
gene  1 2 18 1.3043761370077531 0 439.0 1.3043761370077531 0
gene  1 2 19 -3.5846785643249888 0 440.0 -3.5846785643249888 1
gene  1 2 20 -5.76718276333705 0 441.0 -5.76718276333705 1
gene  2 2 21 0.5089975930194992 0 442.0 0.5089975930194992 1
gene  1 2 22 2.345159873124338 0 443.0 2.345159873124338 1
gene  1 2 23 5.794174439347986 0 444.0 5.794174439347986 1
gene  2 7 74 3.0114085663082686 0 451.0 3.0114085663082686 1
gene  2 4 18 1.9678680353007731 0 471.0 1.9678680353007731 1
gene  2 4 19 -6.883593082681216 0 472.0 -6.883593082681216 1
gene  1 4 20 -6.230038779347156 0 473.0 -6.230038779347156 1
gene  1 4 21 8.021004800341665 0 474.0 8.021004800341665 1
gene  2 4 22 3.7406209558219734 0 475.0 3.7406209558219734 1
gene  2 4 23 -3.6217443162991065 0 476.0 -3.6217443162991065 1
gene  1 11 85 4.925425404579519 0 513.0 4.925425404579519 1
gene  1 85 19 4.801987669802865 0 514.0 4.801987669802865 1
gene  1 1 42 7.652431880366161 0 517.0 7.652431880366161 1
gene  1 16 42 -3.743944020830985 0 519.0 -3.743944020830985 1
gene  1 2 74 -7.034260895605054 0 521.0 -7.034260895605054 1
gene  1 42 85 -6.679644812880764 0 523.0 -6.679644812880764 1
gene  2 9 22 1.1625414994384689 0 548.0 1.1625414994384689 1
gene  1 13 85 3.4172629055226755 0 555.0 3.4172629055226755 1
gene  2 36 74 -7.253202417276114 0 558.0 -7.253202417276114 1
gene  2 7 89 0.6101106050227831 0 559.0 0.6101106050227831 1
gene  2 89 18 -2.8295211903533724 0 560.0 -2.8295211903533724 1
gene  1 6 91 2.692139498625318 0 567.0 2.692139498625318 1
gene  1 91 23 -1.1780410815852063 0 568.0 -1.1780410815852063 1
gene  1 7 85 2.3683003605424298 0 570.0 2.3683003605424298 1
gene  1 9 18 4.210840293538677 0 578.0 4.210840293538677 1
gene  2 9 19 1.7881163765462285 0 579.0 1.7881163765462285 1
gene  2 9 20 13.169398078004352 0 580.0 13.169398078004352 1
gene  1 9 21 -0.004174362522804231 0 581.0 -0.004174362522804231 1
gene  2 9 23 -6.846442209074128 0 582.0 -6.846442209074128 1
gene  1 10 95 1.1504969074037992 0 597.0 1.1504969074037992 1
gene  1 95 19 -0.8206870460587294 0 598.0 -0.8206870460587294 1
gene  1 13 42 -3.818141411970109 0 603.0 -3.818141411970109 1
gene  1 3 74 -2.7519211275300526 0 624.0 -2.7519211275300526 1
gene  1 5 18 5.539285744972172 0 629.0 5.539285744972172 1
gene  1 5 19 2.623004182452934 0 630.0 2.623004182452934 1
gene  1 5 20 0.9353197485510327 0 631.0 0.9353197485510327 1
gene  2 5 22 4.494276969335126 0 632.0 4.494276969335126 1
gene  2 5 23 6.151464794208368 0 633.0 6.151464794208368 1
gene  2 16 18 0.7284074132836813 0 704.0 0.7284074132836813 1
gene  2 16 19 -2.4010962559044047 0 705.0 -2.4010962559044047 1
gene  1 16 20 -4.520836826551543 0 706.0 -4.520836826551543 1
gene  2 16 21 6.395791868571658 0 707.0 6.395791868571658 1
gene  2 16 22 3.484411167090735 0 708.0 3.484411167090735 1
gene  2 16 23 -8.362509054986779 0 709.0 -8.362509054986779 1
gene  1 13 95 -3.1933884547793316 0 720.0 -3.1933884547793316 1
gene  2 13 36 0.9291753901955829 0 744.0 0.9291753901955829 1
gene  2 6 18 -0.7583879207353055 0 748.0 -0.7583879207353055 1
gene  2 6 19 -0.7483618368237346 0 749.0 -0.7483618368237346 1
gene  2 6 20 3.0966896477672887 0 750.0 3.0966896477672887 1
gene  2 6 21 -6.69862899137142 0 751.0 -6.69862899137142 1
gene  1 6 22 12.459654605695572 0 752.0 12.459654605695572 1
gene  1 23 20 3.148297636095069 0 759.0 3.148297636095069 1
gene  2 19 23 3.3153905658767693 0 773.0 3.3153905658767693 1
gene  1 4 113 0.5726193733127858 0 774.0 0.5726193733127858 1
gene  1 113 20 -0.7569653097206261 0 775.0 -0.7569653097206261 1
gene  1 91 42 0.6398693752628886 0 776.0 0.6398693752628886 1
gene  1 21 20 1.3355425539147001 0 779.0 1.3355425539147001 1
gene  2 7 95 1.4400653551651859 0 782.0 1.4400653551651859 1
gene  1 89 32 0.5356173459664965 0 794.0 0.5356173459664965 1
gene  1 6 117 2.5671257710954625 0 798.0 2.5671257710954625 1
gene  1 117 22 1.1219119418622157 0 799.0 1.1219119418622157 1
gene  1 14 120 -2.4251350870905295 0 810.0 -2.4251350870905295 1
gene  1 120 42 -8.969711574677433 0 811.0 -8.969711574677433 1
gene  1 16 120 2.3700513008632176 0 812.0 2.3700513008632176 1
gene  2 3 91 -0.21619253750283063 0 815.0 -0.21619253750283063 1
gene  1 7 121 -0.3814816854556 0 825.0 -0.3814816854556 1
gene  1 121 23 -3.827903206791051 0 826.0 -3.827903206791051 1
gene  2 18 74 -3.3613062377381424 0 827.0 -3.3613062377381424 1
gene  2 7 122 -5.033162192522907 0 836.0 -5.033162192522907 1
gene  2 122 74 2.3802624563866854 0 837.0 2.3802624563866854 1
gene  2 14 124 4.625366438414053 0 841.0 4.625366438414053 1
gene  2 124 22 -4.105732845122058 0 842.0 -4.105732845122058 1
gene  2 21 19 1.4815193735345102 0 856.0 1.4815193735345102 1
gene  1 15 113 -0.15932251519988533 0 859.0 -0.15932251519988533 1
gene  1 4 95 4.775024685700451 0 861.0 4.775024685700451 1
gene  1 13 122 -0.13667384352775147 0 869.0 -0.13667384352775147 1
gene  2 8 85 -3.5209489000390186 0 874.0 -3.5209489000390186 1
gene  1 117 124 -1.7409654105560686 0 882.0 -1.7409654105560686 1
gene  1 2 132 2.6668521028579106 0 897.0 2.6668521028579106 1
gene  1 132 18 -0.7609967922225463 0 898.0 -0.7609967922225463 1
gene  2 42 18 2.3366388887607896 0 900.0 2.3366388887607896 1
gene  1 117 133 -2.254438854219592 0 903.0 -2.254438854219592 1
gene  1 133 124 0.6864201243727346 0 904.0 0.6864201243727346 1
gene  1 89 91 -3.717919887630802 0 930.0 -3.717919887630802 1
gene  1 91 120 2.2492281167969432 0 935.0 2.2492281167969432 1
gene  2 22 21 -0.6624002927453287 0 949.0 -0.6624002927453287 1
gene  2 21 132 -1.0116088463395403 0 962.0 -1.0116088463395403 1
gene  1 14 113 7.484989173179954 0 970.0 7.484989173179954 1
gene  2 120 85 0.29238175878576605 0 973.0 0.29238175878576605 1
genomeend 0
genomestart  1
trait 1 1.4743872037270211 1.2126836014930213 0.08286402898762335 1.3648893927070853 1.4737910521141837 0.0 1.0681306205648171 0.3610967866278958 
trait 2 0.0 0.7446882930314705 0.93239005958062 0.2596121535266682 0.0 2.247610144307834 0.6430708744148922 2.260198713935586 
node 1 2 1 1
node 2 1 1 1
node 3 1 1 1
node 4 1 1 1
node 5 1 1 1
node 6 2 1 1
node 7 1 1 1
node 8 1 1 1
node 9 2 1 1
node 10 2 1 1
node 11 1 1 1
node 12 1 1 1
node 13 2 1 1
node 14 1 1 1
node 15 1 1 1
node 16 1 1 1
node 17 2 1 3
node 18 1 0 2
node 19 1 0 2
node 20 2 0 2
node 21 2 0 2
node 22 1 0 2
node 23 1 0 2
node 32 1 0 0
node 36 2 0 0
node 42 1 0 0
node 74 1 0 0
node 85 1 0 0
node 89 1 0 0
node 91 2 0 0
node 95 2 0 0
node 113 1 0 0
node 117 1 0 0
node 120 2 0 0
node 121 1 0 0
node 122 1 0 0
node 124 1 0 0
node 132 1 0 0
node 133 1 0 0
gene  1 17 18 -2.6261328615455506 0 1.0 -2.6261328615455506 1
gene  1 17 19 7.011267038303165 0 1.0 7.011267038303165 1
gene  1 17 20 -2.6068951407394407 0 1.0 -2.6068951407394407 1
gene  1 17 21 -3.479027405750959 0 1.0 -3.479027405750959 1
gene  1 17 22 5.48834058768325 0 1.0 5.48834058768325 1
gene  1 17 23 3.8936559817377496 0 1.0 3.8936559817377496 1
gene  1 11 18 -11.453001268659703 0 3.0 -11.453001268659703 1
gene  1 11 19 12.034404631206929 0 4.0 12.034404631206929 1
gene  2 11 20 1.6602334241595826 0 5.0 1.6602334241595826 1
gene  2 11 21 -1.112997949608121 0 6.0 -1.112997949608121 1
gene  1 11 22 -8.434143051598651 0 7.0 -8.434143051598651 1
gene  2 11 23 6.691670294759221 0 8.0 6.691670294759221 1
gene  2 12 18 -20.966244934469202 0 13.0 -20.966244934469202 1
gene  2 12 19 1.2627620740124028 0 14.0 1.2627620740124028 1
gene  1 12 20 -4.9571962981752575 0 15.0 -4.9571962981752575 1
gene  1 12 21 0.9996730524323021 0 16.0 0.9996730524323021 1
gene  1 12 22 3.390728163602357 0 17.0 3.390728163602357 1
gene  2 12 23 2.54383010450312 0 18.0 2.54383010450312 1
gene  2 14 18 6.000500040830236 0 57.0 6.000500040830236 1
gene  1 14 19 -1.5650813466279034 0 58.0 -1.5650813466279034 1
gene  1 14 20 2.893623081233598 0 59.0 2.893623081233598 1
gene  1 14 21 -7.552160376367782 0 60.0 -7.552160376367782 1
gene  2 14 22 -12.047397621355046 0 61.0 -12.047397621355046 0
gene  2 14 23 4.36316016096071 0 62.0 4.36316016096071 1
gene  1 14 32 -0.9250250928765005 0 63.0 -0.9250250928765005 1
gene  1 32 23 8.556391263487972 0 64.0 8.556391263487972 1
gene  2 14 36 22.982156464530608 0 80.0 22.982156464530608 1
gene  2 36 21 -5.537622781054051 0 81.0 -5.537622781054051 1
gene  1 14 42 -1.1796094268486916 0 105.0 -1.1796094268486916 1
gene  1 42 19 5.4647977390544185 0 106.0 5.4647977390544185 1
gene  1 15 18 0.0682782926350215 0 138.0 0.0682782926350215 1
gene  2 8 18 3.6216076249279805 0 145.0 3.6216076249279805 1
gene  2 8 19 3.3620813622013515 0 146.0 3.3620813622013515 1
gene  1 8 20 0.9369436828786968 0 147.0 0.9369436828786968 1
gene  2 8 21 7.976277785189521 0 148.0 7.976277785189521 1
gene  2 8 22 0.6221282066610629 0 149.0 0.6221282066610629 1
gene  2 8 23 -2.6639494750479287 0 150.0 -2.6639494750479287 1
gene  2 13 32 5.001194094245122 0 176.0 5.001194094245122 1
gene  1 6 23 0.6442037873993187 0 224.0 0.6442037873993187 1
gene  2 13 18 -6.624302903402176 0 260.0 -6.624302903402176 1
gene  1 13 19 -3.3097831973091316 0 261.0 -3.3097831973091316 1
gene  1 13 20 1.1789159077228346 0 262.0 1.1789159077228346 1
gene  1 13 21 19.506840387336993 0 263.0 19.506840387336993 1
gene  2 13 22 2.1389435910912282 0 264.0 2.1389435910912282 1
gene  2 13 23 3.4856539659276304 0 265.0 3.4856539659276304 1
gene  2 3 36 -4.79274769710232 0 292.0 -4.79274769710232 1
gene  1 15 19 7.525411004766534 0 293.0 7.525411004766534 1
gene  1 15 20 1.1234031209918582 0 294.0 1.1234031209918582 1
gene  2 15 21 -2.443183950602909 0 295.0 -2.443183950602909 1
gene  1 15 22 1.3468981806638003 0 296.0 1.3468981806638003 1
gene  1 15 23 -10.264931446038794 0 297.0 -10.264931446038794 1
gene  1 3 18 -14.093509330860243 0 322.0 -14.093509330860243 1
gene  1 3 19 -1.7914014023500031 0 323.0 -1.7914014023500031 1
gene  1 3 20 -1.480165870642548 0 324.0 -1.480165870642548 1
gene  2 3 21 4.4841387462401805 0 325.0 4.4841387462401805 1
gene  1 3 22 1.455017727345362 0 326.0 1.455017727345362 1
gene  2 3 23 4.769004205004624 0 327.0 4.769004205004624 1
gene  1 10 18 -3.9454639444329884 0 340.0 -3.9454639444329884 1
gene  1 10 19 -6.575036077010395 0 341.0 -6.575036077010395 1
gene  2 10 20 4.146002183623253 0 342.0 4.146002183623253 1
gene  2 10 21 4.723562296836447 0 343.0 4.723562296836447 1
gene  2 10 22 -6.287508984867503 0 344.0 -6.287508984867503 1
gene  1 10 23 -2.981466046928842 0 345.0 -2.981466046928842 1
gene  2 5 21 1.910138688545239 0 351.0 1.910138688545239 1
gene  2 32 42 5.079978118300264 0 359.0 5.079978118300264 1
gene  2 7 18 -5.379055765672824 0 373.0 -5.379055765672824 1
gene  1 7 19 -2.0773911168946815 0 374.0 -2.0773911168946815 1
gene  2 7 20 -19.554038647733982 0 375.0 -19.554038647733982 1
gene  1 7 21 2.341368415551318 0 376.0 2.341368415551318 1
gene  1 7 22 0.3528097083893027 0 377.0 0.3528097083893027 1
gene  1 7 23 2.6010391286215877 0 378.0 2.6010391286215877 1
gene  1 11 74 -12.43355351715697 0 382.0 -12.43355351715697 1
gene  1 74 19 -4.853636057676493 0 383.0 -4.853636057676493 1
gene  1 42 20 -3.720618912200761 0 399.0 -3.720618912200761 1
gene  1 1 18 -1.868740167057326 0 403.0 -1.868740167057326 1
gene  1 1 19 -2.2109051862017988 0 404.0 -2.2109051862017988 1
gene  2 1 20 -6.299044021689424 0 401.0 -6.299044021689424 1
gene  2 1 21 3.039373401983906 0 405.0 3.039373401983906 1
gene  1 1 22 2.626821348300179 0 406.0 2.626821348300179 1
gene  1 1 23 1.8261434868077795 0 407.0 1.8261434868077795 1
gene  1 2 18 2.4955875572864636 0 439.0 2.4955875572864636 0
gene  1 2 19 -4.817368351432497 0 440.0 -4.817368351432497 1
gene  1 2 20 -4.169537099031446 0 441.0 -4.169537099031446 1
gene  2 2 21 -1.9140865347673315 0 442.0 -1.9140865347673315 1
gene  1 2 22 -0.03927439375221242 0 443.0 -0.03927439375221242 1
gene  1 2 23 4.873481571071209 0 444.0 4.873481571071209 1
gene  2 7 74 2.793253685119592 0 451.0 2.793253685119592 1
gene  2 4 18 1.3627866578454664 0 471.0 1.3627866578454664 1
gene  2 4 19 -6.209940921542004 0 472.0 -6.209940921542004 1
gene  1 4 20 -7.402489774569125 0 473.0 -7.402489774569125 1
gene  1 4 21 10.315652612471371 0 474.0 10.315652612471371 1
gene  2 4 22 2.7536565032933247 0 475.0 2.7536565032933247 1
gene  2 4 23 -3.1274352347264314 0 476.0 -3.1274352347264314 1
gene  1 11 85 5.784287431674684 0 513.0 5.784287431674684 1
gene  1 85 19 2.824073350762098 0 514.0 2.824073350762098 1
gene  1 1 42 8.240527294912138 0 517.0 8.240527294912138 1
gene  1 16 42 -5.925263280238312 0 519.0 -5.925263280238312 1
gene  1 2 74 -6.670089740043015 0 521.0 -6.670089740043015 1
gene  1 42 85 -7.862329498713638 0 523.0 -7.862329498713638 1
gene  2 9 22 1.9102204790995496 0 548.0 1.9102204790995496 1
gene  1 13 85 2.380788554527925 0 555.0 2.380788554527925 1
gene  2 36 74 -8.932489969634902 0 558.0 -8.932489969634902 1
gene  2 7 89 0.3126138280950168 0 559.0 0.3126138280950168 1
gene  2 89 18 -3.979163074441532 0 560.0 -3.979163074441532 1
gene  1 6 91 2.4501978950268373 0 567.0 2.4501978950268373 1
gene  1 91 23 -0.9083885311732534 0 568.0 -0.9083885311732534 1
gene  1 7 85 3.1332236935101356 0 570.0 3.1332236935101356 1
gene  1 9 18 3.613958743331204 0 578.0 3.613958743331204 1
gene  2 9 19 3.000569953127417 0 579.0 3.000569953127417 1
gene  2 9 20 12.380331933298526 0 580.0 12.380331933298526 1
gene  1 9 21 -0.18979827035558308 0 581.0 -0.18979827035558308 1
gene  2 9 23 -6.612047445404217 0 582.0 -6.612047445404217 1
gene  1 10 95 1.621671761774075 0 597.0 1.621671761774075 1
gene  1 95 19 -2.6195953912620604 0 598.0 -2.6195953912620604 1
gene  1 13 42 -2.152730797304332 0 603.0 -2.152730797304332 1
gene  1 3 74 -1.9612245698737842 0 624.0 -1.9612245698737842 1
gene  1 5 18 7.961765604388384 0 629.0 7.961765604388384 1
gene  1 5 19 3.582218546782375 0 630.0 3.582218546782375 1
gene  1 5 20 2.5113409805239773 0 631.0 2.5113409805239773 1
gene  2 5 22 4.959101112693388 0 632.0 4.959101112693388 1
gene  2 5 23 6.490879815068203 0 633.0 6.490879815068203 1
gene  2 16 18 0.3868406757719168 0 704.0 0.3868406757719168 1
gene  2 16 19 -3.155014799959765 0 705.0 -3.155014799959765 1
gene  1 16 20 -6.862864261187978 0 706.0 -6.862864261187978 1
gene  2 16 21 7.544631280322217 0 707.0 7.544631280322217 1
gene  2 16 22 2.295267485351489 0 708.0 2.295267485351489 1
gene  2 16 23 -7.993166203748503 0 709.0 -7.993166203748503 1
gene  1 13 95 -4.605800806824795 0 720.0 -4.605800806824795 1
gene  2 13 36 1.8488020693441283 0 744.0 1.8488020693441283 1
gene  2 6 18 -1.8279071243249825 0 748.0 -1.8279071243249825 1
gene  2 6 19 -0.45902465453452346 0 749.0 -0.45902465453452346 1
gene  2 6 20 2.629205775670457 0 750.0 2.629205775670457 1
gene  2 6 21 -6.766383958699695 0 751.0 -6.766383958699695 1
gene  1 6 22 12.696885629782507 0 752.0 12.696885629782507 1
gene  1 23 20 1.9737429122623031 0 759.0 1.9737429122623031 1
gene  2 19 23 4.01594398842283 0 773.0 4.01594398842283 1
gene  1 4 113 0.4188133163570953 0 774.0 0.4188133163570953 1
gene  1 113 20 0.31479640875246995 0 775.0 0.31479640875246995 1
gene  1 91 42 0.7198758680860047 0 776.0 0.7198758680860047 1
gene  1 21 20 1.3355425539147001 0 779.0 1.3355425539147001 1
gene  2 7 95 1.0916296644392804 0 782.0 1.0916296644392804 1
gene  1 89 32 -0.9148693851504225 0 794.0 -0.9148693851504225 1
gene  1 6 117 3.4860938439937605 0 798.0 3.4860938439937605 1
gene  1 117 22 -0.6868711190403658 0 799.0 -0.6868711190403658 1
gene  1 14 120 -0.30405038008603813 0 810.0 -0.30405038008603813 1
gene  1 120 42 -8.969711574677433 0 811.0 -8.969711574677433 1
gene  1 16 120 2.3700513008632176 0 812.0 2.3700513008632176 1
gene  2 3 91 -0.21619253750283063 0 815.0 -0.21619253750283063 1
gene  1 7 121 -0.3814816854556 0 825.0 -0.3814816854556 1
gene  1 121 23 -3.7888657397050265 0 826.0 -3.7888657397050265 1
gene  2 18 74 -2.782715325299181 0 827.0 -2.782715325299181 1
gene  2 7 122 -5.033162192522907 0 836.0 -5.033162192522907 1
gene  2 122 74 1.510359481011743 0 837.0 1.510359481011743 1
gene  2 14 124 6.90778034578472 0 841.0 6.90778034578472 1
gene  2 124 22 -2.2017890593798373 0 842.0 -2.2017890593798373 1
gene  2 21 19 1.4805025133424325 0 856.0 1.4805025133424325 1
gene  1 15 113 2.0034415869706312 0 859.0 2.0034415869706312 1
gene  1 4 95 4.775024685700451 0 861.0 4.775024685700451 1
gene  1 13 122 1.1056868734548067 0 869.0 1.1056868734548067 1
gene  2 8 85 -3.359280744618112 0 874.0 -3.359280744618112 1
gene  1 117 124 -1.7409654105560686 0 882.0 -1.7409654105560686 1
gene  1 2 132 2.6668521028579106 0 897.0 2.6668521028579106 1
gene  1 132 18 -0.7609967922225463 0 898.0 -0.7609967922225463 1
gene  2 42 18 2.3366388887607896 0 900.0 2.3366388887607896 1
gene  1 117 133 -2.254438854219592 0 903.0 -2.254438854219592 1
gene  1 133 124 1.0203807927850166 0 904.0 1.0203807927850166 1
gene  1 89 91 -3.717919887630802 0 930.0 -3.717919887630802 1
gene  1 91 120 2.289732814573834 0 935.0 2.289732814573834 1
gene  2 22 21 -0.7876775648672014 0 949.0 -0.7876775648672014 1
gene  2 21 132 -1.0116088463395403 0 962.0 -1.0116088463395403 1
gene  1 14 113 7.484989173179954 0 970.0 7.484989173179954 1
gene  2 120 85 0.29238175878576605 0 973.0 0.29238175878576605 1
genomeend 1
genomestart  2
trait 1 1.4743872037270211 1.2126836014930213 0.08286402898762335 1.3648893927070853 1.4737910521141837 0.0 1.0681306205648171 0.3610967866278958 
trait 2 0.0 1.537868583940523 0.93239005958062 0.2596121535266682 0.0 2.247610144307834 0.6430708744148922 2.3649953241783157 
node 1 2 1 1
node 2 1 1 1
node 3 1 1 1
node 4 1 1 1
node 5 1 1 1
node 6 2 1 1
node 7 1 1 1
node 8 1 1 1
node 9 2 1 1
node 10 2 1 1
node 11 1 1 1
node 12 1 1 1
node 13 2 1 1
node 14 1 1 1
node 15 1 1 1
node 16 1 1 1
node 17 2 1 3
node 18 1 0 2
node 19 1 0 2
node 20 2 0 2
node 21 2 0 2
node 22 1 0 2
node 23 1 0 2
node 32 1 0 0
node 36 2 0 0
node 42 1 0 0
node 74 1 0 0
node 85 1 0 0
node 89 1 0 0
node 91 2 0 0
node 95 2 0 0
node 113 1 0 0
node 117 1 0 0
node 120 2 0 0
node 121 1 0 0
node 122 1 0 0
node 124 1 0 0
node 132 1 0 0
node 133 1 0 0
gene  1 17 18 1.8772529983504578 0 1.0 1.8772529983504578 1
gene  1 17 19 8.59129578559861 0 1.0 8.59129578559861 1
gene  1 17 20 -5.055531359898408 0 1.0 -5.055531359898408 1
gene  1 17 21 -2.6719847515721566 0 1.0 -2.6719847515721566 1
gene  1 17 22 5.7072913403414285 0 1.0 5.7072913403414285 1
gene  1 17 23 3.8936559817377496 0 1.0 3.8936559817377496 1
gene  1 11 18 -12.410680449687495 0 3.0 -12.410680449687495 1
gene  1 11 19 9.506833003917551 0 4.0 9.506833003917551 1
gene  2 11 20 -1.2690214416595202 0 5.0 -1.2690214416595202 1
gene  2 11 21 0.4246720286137762 0 6.0 0.4246720286137762 1
gene  1 11 22 2.3600127120724226 0 7.0 2.3600127120724226 1
gene  2 11 23 6.691670294759221 0 8.0 6.691670294759221 1
gene  2 12 18 0.7899551994130558 0 13.0 0.7899551994130558 1
gene  2 12 19 -0.7210037733710133 0 14.0 -0.7210037733710133 1
gene  1 12 20 -2.4728562868893413 0 15.0 -2.4728562868893413 1
gene  1 12 21 1.542823888018877 0 16.0 1.542823888018877 1
gene  1 12 22 0.8987818532417541 0 17.0 0.8987818532417541 1
gene  2 12 23 3.8161877184479858 0 18.0 3.8161877184479858 1
gene  2 14 18 2.108331184313865 0 57.0 2.108331184313865 1
gene  1 14 19 -3.2332149293725907 0 58.0 -3.2332149293725907 1
gene  1 14 20 4.218510527345692 0 59.0 4.218510527345692 1
gene  1 14 21 -8.081521965163956 0 60.0 -8.081521965163956 1
gene  2 14 22 1.7430170389245683 0 61.0 1.7430170389245683 0
gene  2 14 23 4.813422828681545 0 62.0 4.813422828681545 1
gene  1 14 32 2.44907279023444 0 63.0 2.44907279023444 1
gene  1 32 23 -1.7610321607478743 0 64.0 -1.7610321607478743 1
gene  2 14 36 21.491680195847284 0 80.0 21.491680195847284 1
gene  2 36 21 1.0494515964720033 0 81.0 1.0494515964720033 1
gene  1 14 42 -4.56254292613871 0 105.0 -4.56254292613871 1
gene  1 42 19 7.001128861222169 0 106.0 7.001128861222169 1
gene  1 15 18 -0.9667408999639954 0 138.0 -0.9667408999639954 1
gene  2 8 18 -1.1829910897138474 0 145.0 -1.1829910897138474 1
gene  2 8 19 4.989770701909531 0 146.0 4.989770701909531 1
gene  1 8 20 0.18197582546458735 0 147.0 0.18197582546458735 1
gene  2 8 21 8.480171589863444 0 148.0 8.480171589863444 1
gene  2 8 22 -0.7826146322338481 0 149.0 -0.7826146322338481 1
gene  2 8 23 -1.125392824446446 0 150.0 -1.125392824446446 1
gene  2 13 32 6.620269839536389 0 176.0 6.620269839536389 1
gene  1 6 23 1.731594553270454 0 224.0 1.731594553270454 1
gene  2 13 18 -1.6688987799217159 0 260.0 -1.6688987799217159 1
gene  1 13 19 -5.193994805596118 0 261.0 -5.193994805596118 1
gene  1 13 20 0.03584376649650123 0 262.0 0.03584376649650123 1
gene  1 13 21 21.48334805481537 0 263.0 21.48334805481537 1
gene  2 13 22 1.5589497601180535 0 264.0 1.5589497601180535 1
gene  2 13 23 -0.3759444887942742 0 265.0 -0.3759444887942742 1
gene  2 3 36 -2.7148411373321477 0 292.0 -2.7148411373321477 1
gene  1 15 19 7.772856562722847 0 293.0 7.772856562722847 1
gene  1 15 20 -0.15363521082603193 0 294.0 -0.15363521082603193 1
gene  2 15 21 -4.331733661647155 0 295.0 -4.331733661647155 1
gene  1 15 22 2.1197513016834897 0 296.0 2.1197513016834897 1
gene  1 15 23 -10.911479014706263 0 297.0 -10.911479014706263 1
gene  1 3 18 1.3376086423772806 0 322.0 1.3376086423772806 1
gene  1 3 19 -0.4389022674060785 0 323.0 -0.4389022674060785 1
gene  1 3 20 0.19768727559429466 0 324.0 0.19768727559429466 1
gene  2 3 21 -1.8894704701276368 0 325.0 -1.8894704701276368 1
gene  1 3 22 0.18523262879533098 0 326.0 0.18523262879533098 1
gene  2 3 23 -1.1488043893065223 0 327.0 -1.1488043893065223 1
gene  1 10 18 -1.776525828392827 0 340.0 -1.776525828392827 1
gene  1 10 19 -5.724739058579965 0 341.0 -5.724739058579965 1
gene  2 10 20 5.196626352424394 0 342.0 5.196626352424394 1
gene  2 10 21 6.096699067705048 0 343.0 6.096699067705048 1
gene  2 10 22 -5.92941773215232 0 344.0 -5.92941773215232 1
gene  1 10 23 0.7884308174197383 0 345.0 0.7884308174197383 1
gene  2 5 21 -2.124321216787382 0 351.0 -2.124321216787382 1
gene  2 32 42 4.701648620168698 0 359.0 4.701648620168698 1
gene  2 7 18 0.3679843793707935 0 373.0 0.3679843793707935 1
gene  1 7 19 -2.195372135918279 0 374.0 -2.195372135918279 1
gene  2 7 20 -17.811982849419756 0 375.0 -17.811982849419756 1
gene  1 7 21 0.336448864217605 0 376.0 0.336448864217605 1
gene  1 7 22 1.1614508322075636 0 377.0 1.1614508322075636 1
gene  1 7 23 0.8242785875712157 0 378.0 0.8242785875712157 1
gene  1 11 74 -10.251466983040775 0 382.0 -10.251466983040775 1
gene  1 74 19 -2.713853552098284 0 383.0 -2.713853552098284 1
gene  1 42 20 -4.572964076666448 0 399.0 -4.572964076666448 1
gene  1 1 18 -4.670207608435234 0 403.0 -4.670207608435234 1
gene  1 1 19 -3.5368067981683877 0 404.0 -3.5368067981683877 1
gene  2 1 20 -10.879675932396427 0 401.0 -10.879675932396427 1
gene  2 1 21 4.136017521523495 0 405.0 4.136017521523495 1
gene  1 1 22 5.131954101220833 0 406.0 5.131954101220833 1
gene  1 1 23 0.7616664134864584 0 407.0 0.7616664134864584 1
gene  1 2 18 2.4834284702176403 0 439.0 2.4834284702176403 0
gene  1 2 19 2.432663411477303 0 440.0 2.432663411477303 1
gene  1 2 20 -6.3229734695002575 0 441.0 -6.3229734695002575 1
gene  2 2 21 2.228569288185666 0 442.0 2.228569288185666 1
gene  1 2 22 1.3754253665493004 0 443.0 1.3754253665493004 1
gene  1 2 23 7.35982795473176 0 444.0 7.35982795473176 1
gene  2 7 74 3.0114085663082686 0 451.0 3.0114085663082686 1
gene  2 4 18 1.9678680353007731 0 471.0 1.9678680353007731 1
gene  2 4 19 -6.4474411256279165 0 472.0 -6.4474411256279165 1
gene  1 4 20 -8.681450979303108 0 473.0 -8.681450979303108 1
gene  1 4 21 10.384426114659245 0 474.0 10.384426114659245 1
gene  2 4 22 5.542099707051854 0 475.0 5.542099707051854 1
gene  2 4 23 -5.657089464391337 0 476.0 -5.657089464391337 1
gene  1 11 85 4.512610982068679 0 513.0 4.512610982068679 1
gene  1 85 19 0.41304997446884456 0 514.0 0.41304997446884456 1
gene  1 1 42 7.652431880366161 0 517.0 7.652431880366161 1
gene  1 16 42 -5.92652286733955 0 519.0 -5.92652286733955 1
gene  1 2 74 -7.49905984581805 0 521.0 -7.49905984581805 1
gene  1 42 85 -4.958244975548766 0 523.0 -4.958244975548766 1
gene  2 9 22 1.1289734839098087 0 548.0 1.1289734839098087 1
gene  1 13 85 3.4172629055226755 0 555.0 3.4172629055226755 1
gene  2 36 74 0.45597520251324547 0 558.0 0.45597520251324547 1
gene  2 7 89 -0.08996781435846868 0 559.0 -0.08996781435846868 1
gene  2 89 18 -1.318204510663534 0 560.0 -1.318204510663534 1
gene  1 6 91 2.2909686555387205 0 567.0 2.2909686555387205 1
gene  1 91 23 -2.997166792058028 0 568.0 -2.997166792058028 1
gene  1 7 85 4.13228122351821 0 570.0 4.13228122351821 1
gene  1 9 18 6.350566571777772 0 578.0 6.350566571777772 1
gene  2 9 19 1.4509484632146201 0 579.0 1.4509484632146201 1
gene  2 9 20 14.748198135900587 0 580.0 14.748198135900587 1
gene  1 9 21 -0.6799230845109597 0 581.0 -0.6799230845109597 1
gene  2 9 23 -6.8205071272597255 0 582.0 -6.8205071272597255 1
gene  1 10 95 -0.7901401498592526 0 597.0 -0.7901401498592526 1
gene  1 95 19 -2.031647768759189 0 598.0 -2.031647768759189 1
gene  1 13 42 -5.8102795293872855 0 603.0 -5.8102795293872855 1
gene  1 3 74 0.8590402114478057 0 624.0 0.8590402114478057 1
gene  1 5 18 1.8445632483852101 0 629.0 1.8445632483852101 1
gene  1 5 19 4.649687473353628 0 630.0 4.649687473353628 1
gene  1 5 20 -0.4351643562553489 0 631.0 -0.4351643562553489 1
gene  2 5 22 4.494276969335126 0 632.0 4.494276969335126 1
gene  2 5 23 0.4698986000014016 0 633.0 0.4698986000014016 1
gene  2 16 18 0.8678217241514337 0 704.0 0.8678217241514337 1
gene  2 16 19 -0.4676612329994918 0 705.0 -0.4676612329994918 1
gene  1 16 20 -0.5406288125273517 0 706.0 -0.5406288125273517 1
gene  2 16 21 6.007058521057632 0 707.0 6.007058521057632 1
gene  2 16 22 1.9919305856597802 0 708.0 1.9919305856597802 1
gene  2 16 23 -6.971791779331633 0 709.0 -6.971791779331633 1
gene  1 13 95 -3.1933884547793316 0 720.0 -3.1933884547793316 1
gene  2 13 36 -0.20791979731337423 0 744.0 -0.20791979731337423 1
gene  2 6 18 0.9953442429527211 0 748.0 0.9953442429527211 1
gene  2 6 19 -2.094315442470096 0 749.0 -2.094315442470096 1
gene  2 6 20 3.0966896477672887 0 750.0 3.0966896477672887 1
gene  2 6 21 -5.099363166336591 0 751.0 -5.099363166336591 1
gene  1 6 22 1.2997445387347377 0 752.0 1.2997445387347377 1
gene  1 23 20 1.643633766228492 0 759.0 1.643633766228492 1
gene  2 19 23 3.3153905658767693 0 773.0 3.3153905658767693 1
gene  1 4 113 -0.46706432732273595 0 774.0 -0.46706432732273595 1
gene  1 113 20 0.5993344289631636 0 775.0 0.5993344289631636 1
gene  1 91 42 -0.2672228579825602 0 776.0 -0.2672228579825602 1
gene  1 21 20 -0.8456796609106383 0 779.0 -0.8456796609106383 1
gene  2 7 95 1.253049525735265 0 782.0 1.253049525735265 1
gene  1 89 32 -2.1907426912821863 0 794.0 -2.1907426912821863 1
gene  1 6 117 -1.3476768852949619 0 798.0 -1.3476768852949619 1
gene  1 117 22 -1.4495555401235336 0 799.0 -1.4495555401235336 1
gene  1 14 120 -0.09702857188916969 0 810.0 -0.09702857188916969 1
gene  1 120 42 1.418260269364234 0 811.0 1.418260269364234 1
gene  1 16 120 -0.6507989653599 0 812.0 -0.6507989653599 1
gene  2 3 91 0.7649429651200257 0 815.0 0.7649429651200257 1
gene  1 7 121 -2.3065938761464597 0 825.0 -2.3065938761464597 1
gene  1 121 23 -1.5969720787476849 0 826.0 -1.5969720787476849 1
gene  2 18 74 -1.7996667051841237 0 827.0 -1.7996667051841237 1
gene  2 7 122 -3.172823219396797 0 836.0 -3.172823219396797 1
gene  2 122 74 3.120388454889296 0 837.0 3.120388454889296 1
gene  2 14 124 4.625366438414053 0 841.0 4.625366438414053 1
gene  2 124 22 -4.105732845122058 0 842.0 -4.105732845122058 1
gene  2 21 19 3.6514171912276074 0 856.0 3.6514171912276074 1
gene  1 15 113 -0.15932251519988533 0 859.0 -0.15932251519988533 1
gene  1 4 95 6.699100971639609 0 861.0 6.699100971639609 1
gene  1 13 122 -2.254649168367264 0 869.0 -2.254649168367264 1
gene  2 8 85 -3.8396459022996323 0 874.0 -3.8396459022996323 1
gene  1 117 124 -1.5367289783593623 0 882.0 -1.5367289783593623 1
gene  1 2 132 1.1515902825149058 0 897.0 1.1515902825149058 1
gene  1 132 18 -0.12454764229286264 0 898.0 -0.12454764229286264 1
gene  2 42 18 3.8683078157334236 0 900.0 3.8683078157334236 1
gene  1 117 133 -0.0692514495367349 0 903.0 -0.0692514495367349 1
gene  1 133 124 0.6864201243727346 0 904.0 0.6864201243727346 1
gene  1 89 91 -3.973307712856453 0 930.0 -3.973307712856453 1
gene  1 91 120 1.3443385195657989 0 935.0 1.3443385195657989 1
gene  2 22 21 2.45644725472616 0 949.0 2.45644725472616 1
gene  2 21 132 0.44462568331450303 0 962.0 0.44462568331450303 1
gene  1 14 113 7.3102437368060835 0 970.0 7.3102437368060835 1
gene  2 120 85 -0.6639316376014706 0 973.0 -0.6639316376014706 1
genomeend 2
genomestart  3
trait 1 1.4743872037270211 1.2126836014930213 0.08286402898762335 1.3648893927070853 1.4737910521141837 0.0 1.0681306205648171 0.3610967866278958 
trait 2 0.0 0.7446882930314705 0.93239005958062 0.2596121535266682 0.0 2.247610144307834 0.6430708744148922 2.260198713935586 
node 1 2 1 1
node 2 1 1 1
node 3 1 1 1
node 4 1 1 1
node 5 1 1 1
node 6 2 1 1
node 7 1 1 1
node 8 1 1 1
node 9 2 1 1
node 10 2 1 1
node 11 1 1 1
node 12 1 1 1
node 13 2 1 1
node 14 1 1 1
node 15 1 1 1
node 16 1 1 1
node 17 2 1 3
node 18 1 0 2
node 19 1 0 2
node 20 2 0 2
node 21 2 0 2
node 22 1 0 2
node 23 1 0 2
node 32 1 0 0
node 36 2 0 0
node 42 1 0 0
node 74 1 0 0
node 85 1 0 0
node 89 1 0 0
node 91 2 0 0
node 95 2 0 0
node 113 1 0 0
node 117 1 0 0
node 120 2 0 0
node 121 1 0 0
node 122 1 0 0
node 124 1 0 0
node 132 1 0 0
node 133 1 0 0
gene  1 17 18 -2.6261328615455506 0 1.0 -2.6261328615455506 1
gene  1 17 19 7.011267038303165 0 1.0 7.011267038303165 1
gene  1 17 20 -2.8738125943668353 0 1.0 -2.8738125943668353 1
gene  1 17 21 -1.9097642536446302 0 1.0 -1.9097642536446302 1
gene  1 17 22 5.48834058768325 0 1.0 5.48834058768325 1
gene  1 17 23 4.660372226361073 0 1.0 4.660372226361073 1
gene  1 11 18 -12.57695193366085 0 3.0 -12.57695193366085 1
gene  1 11 19 12.034404631206929 0 4.0 12.034404631206929 1
gene  2 11 20 1.7800054315286804 0 5.0 1.7800054315286804 1
gene  2 11 21 -0.45384077092567127 0 6.0 -0.45384077092567127 1
gene  1 11 22 -8.228247290355094 0 7.0 -8.228247290355094 1
gene  2 11 23 5.618812828342082 0 8.0 5.618812828342082 1
gene  2 12 18 -20.966244934469202 0 13.0 -20.966244934469202 1
gene  2 12 19 0.43951953417328493 0 14.0 0.43951953417328493 1
gene  1 12 20 -3.3352586703388294 0 15.0 -3.3352586703388294 1
gene  1 12 21 0.9996730524323021 0 16.0 0.9996730524323021 1
gene  1 12 22 3.105460119458643 0 17.0 3.105460119458643 1
gene  2 12 23 2.314793656261342 0 18.0 2.314793656261342 1
gene  2 14 18 7.383454848139063 0 57.0 7.383454848139063 1
gene  1 14 19 0.28646464567201047 0 58.0 0.28646464567201047 1
gene  1 14 20 2.893623081233598 0 59.0 2.893623081233598 1
gene  1 14 21 -7.552160376367782 0 60.0 -7.552160376367782 1
gene  2 14 22 -12.614391360942129 0 61.0 -12.614391360942129 1
gene  2 14 23 4.36316016096071 0 62.0 4.36316016096071 1
gene  1 14 32 -0.9250250928765005 0 63.0 -0.9250250928765005 1
gene  1 32 23 8.556391263487972 0 64.0 8.556391263487972 1
gene  2 14 36 20.57678094677169 0 80.0 20.57678094677169 1
gene  2 36 21 -5.537622781054051 0 81.0 -5.537622781054051 1
gene  1 14 42 -1.1796094268486916 0 105.0 -1.1796094268486916 1
gene  1 42 19 3.7035761642206317 0 106.0 3.7035761642206317 1
gene  1 15 18 -1.1312964046062255 0 138.0 -1.1312964046062255 1
gene  2 8 18 3.6216076249279805 0 145.0 3.6216076249279805 1
gene  2 8 19 3.926964469540505 0 146.0 3.926964469540505 1
gene  1 8 20 0.9369436828786968 0 147.0 0.9369436828786968 1
gene  2 8 21 7.767568689253927 0 148.0 7.767568689253927 1
gene  2 8 22 0.6221282066610629 0 149.0 0.6221282066610629 1
gene  2 8 23 -1.4856787263988374 0 150.0 -1.4856787263988374 1
gene  2 13 32 4.97479080911267 0 176.0 4.97479080911267 1
gene  1 6 23 0.6442037873993187 0 224.0 0.6442037873993187 1
gene  2 13 18 -6.15481967772813 0 260.0 -6.15481967772813 1
gene  1 13 19 -3.3097831973091316 0 261.0 -3.3097831973091316 1
gene  1 13 20 1.1789159077228346 0 262.0 1.1789159077228346 1
gene  1 13 21 17.632221666346954 0 263.0 17.632221666346954 1
gene  2 13 22 2.1389435910912282 0 264.0 2.1389435910912282 1
gene  2 13 23 2.158965787361198 0 265.0 2.158965787361198 1
gene  2 3 36 -4.79274769710232 0 292.0 -4.79274769710232 1
gene  1 15 19 7.525411004766534 0 293.0 7.525411004766534 1
gene  1 15 20 1.1234031209918582 0 294.0 1.1234031209918582 1
gene  2 15 21 -2.443183950602909 0 295.0 -2.443183950602909 1
gene  1 15 22 1.3468981806638003 0 296.0 1.3468981806638003 1
gene  1 15 23 -9.053368923255317 0 297.0 -9.053368923255317 1
gene  1 3 18 -14.25088163407042 0 322.0 -14.25088163407042 1
gene  1 3 19 -1.7914014023500031 0 323.0 -1.7914014023500031 1
gene  1 3 20 0.8172865748355977 0 324.0 0.8172865748355977 1
gene  2 3 21 4.4841387462401805 0 325.0 4.4841387462401805 1
gene  1 3 22 1.5394545959697141 0 326.0 1.5394545959697141 1
gene  2 3 23 4.769004205004624 0 327.0 4.769004205004624 1
gene  1 10 18 -3.9454639444329884 0 340.0 -3.9454639444329884 1
gene  1 10 19 -6.575036077010395 0 341.0 -6.575036077010395 1
gene  2 10 20 4.511499998079723 0 342.0 4.511499998079723 1
gene  2 10 21 4.723562296836447 0 343.0 4.723562296836447 1
gene  2 10 22 -7.982798565590135 0 344.0 -7.982798565590135 1
gene  1 10 23 -2.981466046928842 0 345.0 -2.981466046928842 1
gene  2 5 21 -0.6979301610081213 0 351.0 -0.6979301610081213 1
gene  2 32 42 5.079978118300264 0 359.0 5.079978118300264 1
gene  2 7 18 -5.379055765672824 0 373.0 -5.379055765672824 1
gene  1 7 19 -2.0773911168946815 0 374.0 -2.0773911168946815 1
gene  2 7 20 -19.554038647733982 0 375.0 -19.554038647733982 1
gene  1 7 21 2.341368415551318 0 376.0 2.341368415551318 1
gene  1 7 22 0.3528097083893027 0 377.0 0.3528097083893027 1
gene  1 7 23 2.6010391286215877 0 378.0 2.6010391286215877 1
gene  1 11 74 -12.43355351715697 0 382.0 -12.43355351715697 1
gene  1 74 19 -4.853636057676493 0 383.0 -4.853636057676493 1
gene  1 42 20 -2.6346340472109517 0 399.0 -2.6346340472109517 1
gene  1 1 18 -4.349584780332422 0 403.0 -4.349584780332422 1
gene  1 1 19 -0.9741280215524175 0 404.0 -0.9741280215524175 1
gene  2 1 20 -9.472043325314495 0 401.0 -9.472043325314495 1
gene  2 1 21 3.039373401983906 0 405.0 3.039373401983906 1
gene  1 1 22 2.626821348300179 0 406.0 2.626821348300179 1
gene  1 1 23 1.8261434868077795 0 407.0 1.8261434868077795 1
gene  1 2 18 0.9280097773703946 0 439.0 0.9280097773703946 1
gene  1 2 19 -4.817368351432497 0 440.0 -4.817368351432497 1
gene  1 2 20 -6.502631669869537 0 441.0 -6.502631669869537 1
gene  2 2 21 0.48919234143660584 0 442.0 0.48919234143660584 1
gene  1 2 22 3.2365525105180053 0 443.0 3.2365525105180053 1
gene  1 2 23 4.873481571071209 0 444.0 4.873481571071209 1
gene  2 7 74 2.793253685119592 0 451.0 2.793253685119592 1
gene  2 4 18 1.5056959186292227 0 471.0 1.5056959186292227 1
gene  2 4 19 -6.209940921542004 0 472.0 -6.209940921542004 1
gene  1 4 20 -7.402489774569125 0 473.0 -7.402489774569125 1
gene  1 4 21 8.265333957639442 0 474.0 8.265333957639442 1
gene  2 4 22 2.7536565032933247 0 475.0 2.7536565032933247 1
gene  2 4 23 -4.283606724451692 0 476.0 -4.283606724451692 1
gene  1 11 85 5.784287431674684 0 513.0 5.784287431674684 1
gene  1 85 19 4.037287707672115 0 514.0 4.037287707672115 1
gene  1 1 42 8.240527294912138 0 517.0 8.240527294912138 1
gene  1 16 42 -4.7406055397792475 0 519.0 -4.7406055397792475 1
gene  1 2 74 -6.670089740043015 0 521.0 -6.670089740043015 1
gene  1 42 85 -6.282436109665417 0 523.0 -6.282436109665417 1
gene  2 9 22 1.9102204790995496 0 548.0 1.9102204790995496 1
gene  1 13 85 2.380788554527925 0 555.0 2.380788554527925 1
gene  2 36 74 -7.778376385037838 0 558.0 -7.778376385037838 1
gene  2 7 89 0.3126138280950168 0 559.0 0.3126138280950168 1
gene  2 89 18 -3.979163074441532 0 560.0 -3.979163074441532 1
gene  1 6 91 2.4501978950268373 0 567.0 2.4501978950268373 1
gene  1 91 23 -0.9083885311732534 0 568.0 -0.9083885311732534 1
gene  1 7 85 3.1332236935101356 0 570.0 3.1332236935101356 1
gene  1 9 18 5.202524614837494 0 578.0 5.202524614837494 1
gene  2 9 19 3.000569953127417 0 579.0 3.000569953127417 1
gene  2 9 20 12.380331933298526 0 580.0 12.380331933298526 1
gene  1 9 21 -0.18979827035558308 0 581.0 -0.18979827035558308 1
gene  2 9 23 -6.612047445404217 0 582.0 -6.612047445404217 1
gene  1 10 95 1.621671761774075 0 597.0 1.621671761774075 1
gene  1 95 19 -2.0403758807050933 0 598.0 -2.0403758807050933 1
gene  1 13 42 -4.8653809626872215 0 603.0 -4.8653809626872215 1
gene  1 3 74 -1.9612245698737842 0 624.0 -1.9612245698737842 1
gene  1 5 18 4.316081728975136 0 629.0 4.316081728975136 1
gene  1 5 19 1.8308401469711717 0 630.0 1.8308401469711717 1
gene  1 5 20 -0.03841715240549726 0 631.0 -0.03841715240549726 1
gene  2 5 22 4.959101112693388 0 632.0 4.959101112693388 1
gene  2 5 23 6.490879815068203 0 633.0 6.490879815068203 1
gene  2 16 18 1.0788740870872673 0 704.0 1.0788740870872673 1
gene  2 16 19 -3.155014799959765 0 705.0 -3.155014799959765 1
gene  1 16 20 -3.7820789643166326 0 706.0 -3.7820789643166326 1
gene  2 16 21 7.034685009165219 0 707.0 7.034685009165219 1
gene  2 16 22 2.295267485351489 0 708.0 2.295267485351489 1
gene  2 16 23 -7.993166203748503 0 709.0 -7.993166203748503 1
gene  1 13 95 -3.384161685296986 0 720.0 -3.384161685296986 1
gene  2 13 36 1.8488020693441283 0 744.0 1.8488020693441283 1
gene  2 6 18 -1.8279071243249825 0 748.0 -1.8279071243249825 1
gene  2 6 19 -0.45902465453452346 0 749.0 -0.45902465453452346 1
gene  2 6 20 2.629205775670457 0 750.0 2.629205775670457 1
gene  2 6 21 -6.766383958699695 0 751.0 -6.766383958699695 1
gene  1 6 22 12.936009564852665 0 752.0 12.936009564852665 1
gene  1 23 20 3.753636163262576 0 759.0 3.753636163262576 1
gene  2 19 23 3.384089309408104 0 773.0 3.384089309408104 1
gene  1 4 113 0.4188133163570953 0 774.0 0.4188133163570953 1
gene  1 113 20 0.31479640875246995 0 775.0 0.31479640875246995 1
gene  1 91 42 0.7198758680860047 0 776.0 0.7198758680860047 1
gene  1 21 20 1.3355425539147001 0 779.0 1.3355425539147001 1
gene  2 7 95 1.0916296644392804 0 782.0 1.0916296644392804 1
gene  1 89 32 0.5356173459664965 0 794.0 0.5356173459664965 1
gene  1 6 117 3.4860938439937605 0 798.0 3.4860938439937605 1
gene  1 117 22 1.1219119418622157 0 799.0 1.1219119418622157 1
gene  1 14 120 -0.30405038008603813 0 810.0 -0.30405038008603813 1
gene  1 120 42 -8.969711574677433 0 811.0 -8.969711574677433 1
gene  1 16 120 2.3700513008632176 0 812.0 2.3700513008632176 1
gene  2 3 91 0.6110646993981375 0 815.0 0.6110646993981375 1
gene  1 7 121 -0.3814816854556 0 825.0 -0.3814816854556 1
gene  1 121 23 -3.7888657397050265 0 826.0 -3.7888657397050265 1
gene  2 18 74 -2.76998089234385 0 827.0 -2.76998089234385 1
gene  2 7 122 -5.033162192522907 0 836.0 -5.033162192522907 1
gene  2 122 74 1.724167803745541 0 837.0 1.724167803745541 1
gene  2 14 124 4.625366438414053 0 841.0 4.625366438414053 1
gene  2 124 22 -2.2017890593798373 0 842.0 -2.2017890593798373 1
gene  2 21 19 1.4805025133424325 0 856.0 1.4805025133424325 1
gene  1 15 113 -0.5827821038058134 0 859.0 -0.5827821038058134 1
gene  1 4 95 4.775024685700451 0 861.0 4.775024685700451 1
gene  1 13 122 0.958669499676322 0 869.0 0.958669499676322 1
gene  2 8 85 -3.359280744618112 0 874.0 -3.359280744618112 1
gene  1 117 124 -1.7409654105560686 0 882.0 -1.7409654105560686 1
gene  1 2 132 2.2093313512975357 0 897.0 2.2093313512975357 1
gene  1 132 18 0.566150453063712 0 898.0 0.566150453063712 1
gene  2 42 18 2.3366388887607896 0 900.0 2.3366388887607896 1
gene  1 117 133 -2.254438854219592 0 903.0 -2.254438854219592 1
gene  1 133 124 1.0203807927850166 0 904.0 1.0203807927850166 1
gene  1 89 91 -3.717919887630802 0 930.0 -3.717919887630802 1
gene  1 91 120 2.289732814573834 0 935.0 2.289732814573834 1
gene  2 22 21 -0.7876775648672014 0 949.0 -0.7876775648672014 1
gene  2 21 132 -1.0116088463395403 0 962.0 -1.0116088463395403 1
gene  1 14 113 7.580897476375216 0 970.0 7.580897476375216 1
gene  2 120 85 0.7015502922029748 0 973.0 0.7015502922029748 1
genomeend 3
genomestart  4
trait 1 1.4743872037270211 1.2126836014930213 0.08286402898762335 1.3648893927070853 1.4737910521141837 0.0 1.0681306205648171 0.3610967866278958 
trait 2 0.0 0.7446882930314705 0.93239005958062 0.2596121535266682 0.0 2.247610144307834 0.6430708744148922 2.260198713935586 
node 1 2 1 1
node 2 1 1 1
node 3 1 1 1
node 4 1 1 1
node 5 1 1 1
node 6 2 1 1
node 7 1 1 1
node 8 1 1 1
node 9 2 1 1
node 10 2 1 1
node 11 1 1 1
node 12 1 1 1
node 13 2 1 1
node 14 1 1 1
node 15 1 1 1
node 16 1 1 1
node 17 2 1 3
node 18 1 0 2
node 19 1 0 2
node 20 2 0 2
node 21 2 0 2
node 22 1 0 2
node 23 1 0 2
node 32 1 0 0
node 36 2 0 0
node 42 1 0 0
node 74 1 0 0
node 85 1 0 0
node 89 1 0 0
node 91 2 0 0
node 95 2 0 0
node 113 1 0 0
node 117 1 0 0
node 120 2 0 0
node 121 1 0 0
node 122 1 0 0
node 124 1 0 0
node 132 1 0 0
node 133 1 0 0
gene  1 17 18 -1.0470668694326934 0 1.0 -1.0470668694326934 1
gene  1 17 19 6.045348695178302 0 1.0 6.045348695178302 1
gene  1 17 20 -0.8216461949362595 0 1.0 -0.8216461949362595 1
gene  1 17 21 -3.985963062784923 0 1.0 -3.985963062784923 1
gene  1 17 22 3.901325754398943 0 1.0 3.901325754398943 1
gene  1 17 23 5.892192741912974 0 1.0 5.892192741912974 1
gene  1 11 18 -13.900339186482896 0 3.0 -13.900339186482896 1
gene  1 11 19 12.400251008063606 0 4.0 12.400251008063606 1
gene  2 11 20 4.423227173715275 0 5.0 4.423227173715275 1
gene  2 11 21 1.9543716162017843 0 6.0 1.9543716162017843 1
gene  1 11 22 -9.550444631565625 0 7.0 -9.550444631565625 1
gene  2 11 23 4.06163036386772 0 8.0 4.06163036386772 1
gene  2 12 18 -22.239489644476624 0 13.0 -22.239489644476624 1
gene  2 12 19 0.9777457903351344 0 14.0 0.9777457903351344 1
gene  1 12 20 -5.0056145057261645 0 15.0 -5.0056145057261645 1
gene  1 12 21 3.730948740532679 0 16.0 3.730948740532679 1
gene  1 12 22 1.4125943212727432 0 17.0 1.4125943212727432 1
gene  2 12 23 -0.17732889902788518 0 18.0 -0.17732889902788518 1
gene  2 14 18 7.986098539639362 0 57.0 7.986098539639362 1
gene  1 14 19 2.5662358370155074 0 58.0 2.5662358370155074 1
gene  1 14 20 2.9503582926120457 0 59.0 2.9503582926120457 1
gene  1 14 21 -6.868879232361945 0 60.0 -6.868879232361945 1
gene  2 14 22 -10.8198614776928 0 61.0 -10.8198614776928 0
gene  2 14 23 2.524014404605059 0 62.0 2.524014404605059 1
gene  1 14 32 -2.438821634748213 0 63.0 -2.438821634748213 1
gene  1 32 23 7.518160251141497 0 64.0 7.518160251141497 1
gene  2 14 36 22.414053960117798 0 80.0 22.414053960117798 1
gene  2 36 21 -5.462027655466524 0 81.0 -5.462027655466524 1
gene  1 14 42 -1.2507400497712955 0 105.0 -1.2507400497712955 1
gene  1 42 19 4.576331875875202 0 106.0 4.576331875875202 1
gene  1 15 18 -3.420744286683128 0 138.0 -3.420744286683128 1
gene  2 8 18 2.9164005730908156 0 145.0 2.9164005730908156 1
gene  2 8 19 5.608123739124831 0 146.0 5.608123739124831 1
gene  1 8 20 2.267896198250533 0 147.0 2.267896198250533 1
gene  2 8 21 6.362578829989015 0 148.0 6.362578829989015 1
gene  2 8 22 -0.0255563430513297 0 149.0 -0.0255563430513297 1
gene  2 8 23 -0.4439538778660781 0 150.0 -0.4439538778660781 1
gene  2 13 32 5.148799040721263 0 176.0 5.148799040721263 1
gene  1 6 23 1.1653355537951602 0 224.0 1.1653355537951602 1
gene  2 13 18 -8.48769105680957 0 260.0 -8.48769105680957 1
gene  1 13 19 -4.964085285002303 0 261.0 -4.964085285002303 1
gene  1 13 20 1.0620859104773595 0 262.0 1.0620859104773595 1
gene  1 13 21 15.681384065851926 0 263.0 15.681384065851926 1
gene  2 13 22 0.5907282055782621 0 264.0 0.5907282055782621 1
gene  2 13 23 2.308320637611731 0 265.0 2.308320637611731 1
gene  2 3 36 -3.9141614907335365 0 292.0 -3.9141614907335365 1
gene  1 15 19 5.060556670283066 0 293.0 5.060556670283066 1
gene  1 15 20 2.1269560611786478 0 294.0 2.1269560611786478 1
gene  2 15 21 -3.0194976045047777 0 295.0 -3.0194976045047777 1
gene  1 15 22 0.05459058157437746 0 296.0 0.05459058157437746 1
gene  1 15 23 -9.094534549516377 0 297.0 -9.094534549516377 1
gene  1 3 18 -13.233738187285963 0 322.0 -13.233738187285963 1
gene  1 3 19 -0.0037464408993765907 0 323.0 -0.0037464408993765907 1
gene  1 3 20 2.2932013192833525 0 324.0 2.2932013192833525 1
gene  2 3 21 3.505590695234016 0 325.0 3.505590695234016 1
gene  1 3 22 3.547211613529864 0 326.0 3.547211613529864 1
gene  2 3 23 3.5447533414087875 0 327.0 3.5447533414087875 1
gene  1 10 18 -2.7983945631764104 0 340.0 -2.7983945631764104 1
gene  1 10 19 -7.739924721223017 0 341.0 -7.739924721223017 1
gene  2 10 20 2.846216759184445 0 342.0 2.846216759184445 1
gene  2 10 21 4.874365139402542 0 343.0 4.874365139402542 1
gene  2 10 22 -5.933664545353887 0 344.0 -5.933664545353887 1
gene  1 10 23 -2.83060811806034 0 345.0 -2.83060811806034 1
gene  2 5 21 -1.0030220956351523 0 351.0 -1.0030220956351523 1
gene  2 32 42 5.742565663191194 0 359.0 5.742565663191194 1
gene  2 7 18 -5.919576656602783 0 373.0 -5.919576656602783 1
gene  1 7 19 -1.468369253700148 0 374.0 -1.468369253700148 1
gene  2 7 20 -18.2242690226381 0 375.0 -18.2242690226381 1
gene  1 7 21 3.876378129893022 0 376.0 3.876378129893022 1
gene  1 7 22 2.2088392021933214 0 377.0 2.2088392021933214 1
gene  1 7 23 1.1766027628359776 0 378.0 1.1766027628359776 1
gene  1 11 74 -12.737414156944244 0 382.0 -12.737414156944244 1
gene  1 74 19 -5.6919923577487745 0 383.0 -5.6919923577487745 1
gene  1 42 20 -3.6699117380326824 0 399.0 -3.6699117380326824 1
gene  1 1 18 -4.351041272555955 0 403.0 -4.351041272555955 1
gene  1 1 19 -0.529775585177094 0 404.0 -0.529775585177094 1
gene  2 1 20 -9.874480254438817 0 401.0 -9.874480254438817 1
gene  2 1 21 2.8028520372458217 0 405.0 2.8028520372458217 1
gene  1 1 22 1.11035560039947 0 406.0 1.11035560039947 1
gene  1 1 23 2.4802772089361245 0 407.0 2.4802772089361245 1
gene  1 2 18 3.2823246470033665 0 439.0 3.2823246470033665 0
gene  1 2 19 -6.539703798979742 0 440.0 -6.539703798979742 1
gene  1 2 20 -4.44000486932016 0 441.0 -4.44000486932016 1
gene  2 2 21 1.7491083582920277 0 442.0 1.7491083582920277 1
gene  1 2 22 1.3106258627609337 0 443.0 1.3106258627609337 1
gene  1 2 23 3.4129346008563433 0 444.0 3.4129346008563433 1
gene  2 7 74 0.6271694518110551 0 451.0 0.6271694518110551 1
gene  2 4 18 -0.38451133182995934 0 471.0 -0.38451133182995934 1
gene  2 4 19 -6.155867084697977 0 472.0 -6.155867084697977 1
gene  1 4 20 -7.90834759910874 0 473.0 -7.90834759910874 1
gene  1 4 21 8.525094448149357 0 474.0 8.525094448149357 1
gene  2 4 22 5.5829184899307105 0 475.0 5.5829184899307105 1
gene  2 4 23 -6.136182996179572 0 476.0 -6.136182996179572 1
gene  1 11 85 5.601498472168334 0 513.0 5.601498472168334 1
gene  1 85 19 5.61861497425417 0 514.0 5.61861497425417 1
gene  1 1 42 6.378790804823389 0 517.0 6.378790804823389 1
gene  1 16 42 -6.131939513175028 0 519.0 -6.131939513175028 1
gene  1 2 74 -7.501130826692599 0 521.0 -7.501130826692599 1
gene  1 42 85 -8.331872339915584 0 523.0 -8.331872339915584 1
gene  2 9 22 0.2864757819854704 0 548.0 0.2864757819854704 1
gene  1 13 85 3.223112312004038 0 555.0 3.223112312004038 1
gene  2 36 74 -7.347386842016014 0 558.0 -7.347386842016014 1
gene  2 7 89 1.5615136938347352 0 559.0 1.5615136938347352 1
gene  2 89 18 -3.7423159733037785 0 560.0 -3.7423159733037785 1
gene  1 6 91 0.8567818981937458 0 567.0 0.8567818981937458 1
gene  1 91 23 -0.4309501902437436 0 568.0 -0.4309501902437436 1
gene  1 7 85 2.6060800038228256 0 570.0 2.6060800038228256 1
gene  1 9 18 5.922385018117236 0 578.0 5.922385018117236 1
gene  2 9 19 2.289014105422728 0 579.0 2.289014105422728 1
gene  2 9 20 12.406015747482666 0 580.0 12.406015747482666 1
gene  1 9 21 -2.1567301245435773 0 581.0 -2.1567301245435773 1
gene  2 9 23 -6.029328318548697 0 582.0 -6.029328318548697 1
gene  1 10 95 -0.5992095628743113 0 597.0 -0.5992095628743113 1
gene  1 95 19 -0.9133839056524836 0 598.0 -0.9133839056524836 1
gene  1 13 42 -5.183135314293269 0 603.0 -5.183135314293269 1
gene  1 3 74 -0.1395868882507565 0 624.0 -0.1395868882507565 1
gene  1 5 18 3.29541980629698 0 629.0 3.29541980629698 1
gene  1 5 19 3.0295721795842576 0 630.0 3.0295721795842576 1
gene  1 5 20 0.12369093428497058 0 631.0 0.12369093428497058 1
gene  2 5 22 5.188297112878086 0 632.0 5.188297112878086 1
gene  2 5 23 5.629580682716718 0 633.0 5.629580682716718 1
gene  2 16 18 2.610817980052195 0 704.0 2.610817980052195 1
gene  2 16 19 -4.563915186926812 0 705.0 -4.563915186926812 1
gene  1 16 20 -4.2515195520466005 0 706.0 -4.2515195520466005 1
gene  2 16 21 7.524005757086721 0 707.0 7.524005757086721 1
gene  2 16 22 1.6082591089773222 0 708.0 1.6082591089773222 1
gene  2 16 23 -9.473074023479846 0 709.0 -9.473074023479846 1
gene  1 13 95 -5.580359171179778 0 720.0 -5.580359171179778 1
gene  2 13 36 -0.4623638099063465 0 744.0 -0.4623638099063465 1
gene  2 6 18 -1.6520889039889812 0 748.0 -1.6520889039889812 1
gene  2 6 19 -0.37144097404943865 0 749.0 -0.37144097404943865 1
gene  2 6 20 3.4610682583431527 0 750.0 3.4610682583431527 1
gene  2 6 21 -7.600131980284703 0 751.0 -7.600131980284703 1
gene  1 6 22 11.088157119173532 0 752.0 11.088157119173532 1
gene  1 23 20 4.546825632662351 0 759.0 4.546825632662351 1
gene  2 19 23 1.185092072853252 0 773.0 1.185092072853252 1
gene  1 4 113 -1.9754660359015475 0 774.0 -1.9754660359015475 1
gene  1 113 20 0.9219932072266759 0 775.0 0.9219932072266759 1
gene  1 91 42 0.6798726216744466 0 776.0 0.6798726216744466 1
gene  1 21 20 3.6818801189508403 0 779.0 3.6818801189508403 1
gene  2 7 95 2.2148703829298633 0 782.0 2.2148703829298633 1
gene  1 89 32 0.5356173459664965 0 794.0 0.5356173459664965 1
gene  1 6 117 3.0266098075446113 0 798.0 3.0266098075446113 1
gene  1 117 22 1.0691465618366334 0 799.0 1.0691465618366334 1
gene  1 14 120 -1.6128797138549313 0 810.0 -1.6128797138549313 1
gene  1 120 42 -8.969711574677433 0 811.0 -8.969711574677433 1
gene  1 16 120 2.3700513008632176 0 812.0 2.3700513008632176 1
gene  2 3 91 2.4923411090272225 0 815.0 2.4923411090272225 1
gene  1 7 121 -2.774224297252985 0 825.0 -2.774224297252985 1
gene  1 121 23 1.5230787976504825 0 826.0 1.5230787976504825 1
gene  2 18 74 -3.065643565040996 0 827.0 -3.065643565040996 1
gene  2 7 122 -1.1560041227387028 0 836.0 -1.1560041227387028 1
gene  2 122 74 3.3364948458546375 0 837.0 3.3364948458546375 1
gene  2 14 124 4.625366438414053 0 841.0 4.625366438414053 1
gene  2 124 22 -1.5940572882822053 0 842.0 -1.5940572882822053 1
gene  2 21 19 2.6085484023098617 0 856.0 2.6085484023098617 1
gene  1 15 113 -0.6468525570931463 0 859.0 -0.6468525570931463 1
gene  1 4 95 3.6584395211454686 0 861.0 3.6584395211454686 1
gene  1 13 122 -1.849197688432858 0 869.0 -1.849197688432858 1
gene  2 8 85 -1.633992724970112 0 874.0 -1.633992724970112 1
gene  1 117 124 -0.45866645058973954 0 882.0 -0.45866645058973954 1
gene  1 2 132 2.4380917270777234 0 897.0 2.4380917270777234 1
gene  1 132 18 0.456141924092322 0 898.0 0.456141924092322 1
gene  2 42 18 -1.9050597466133103 0 900.0 -1.9050597466133103 1
gene  1 117 133 1.2943643591269827 0 903.0 1.2943643591269827 1
gene  1 133 124 2.2804876338190274 0 904.0 2.2804876338190274 1
gene  1 89 91 -2.3937377070248695 0 930.0 -2.3937377070248695 1
gene  1 91 120 -0.0819273592451184 0 935.0 -0.0819273592451184 1
gene  2 22 21 0.8053173950819996 0 949.0 0.8053173950819996 1
gene  2 21 132 -1.0116088463395403 0 962.0 -1.0116088463395403 1
gene  1 14 113 9.676444884254195 0 970.0 9.676444884254195 1
gene  2 120 85 -1.1806035584235977 0 973.0 -1.1806035584235977 1
genomeend 4
genomestart  5
trait 1 1.4743872037270211 1.2126836014930213 0.08286402898762335 1.3648893927070853 1.4737910521141837 0.0 1.0681306205648171 0.3610967866278958 
trait 2 0.0 0.7446882930314705 0.93239005958062 0.2596121535266682 0.0 2.247610144307834 0.6430708744148922 2.260198713935586 
node 1 2 1 1
node 2 1 1 1
node 3 1 1 1
node 4 1 1 1
node 5 1 1 1
node 6 2 1 1
node 7 1 1 1
node 8 1 1 1
node 9 2 1 1
node 10 2 1 1
node 11 1 1 1
node 12 1 1 1
node 13 2 1 1
node 14 1 1 1
node 15 1 1 1
node 16 1 1 1
node 17 2 1 3
node 18 1 0 2
node 19 1 0 2
node 20 2 0 2
node 21 2 0 2
node 22 1 0 2
node 23 1 0 2
node 32 1 0 0
node 36 2 0 0
node 42 1 0 0
node 74 1 0 0
node 85 1 0 0
node 89 1 0 0
node 91 2 0 0
node 95 2 0 0
node 113 1 0 0
node 117 1 0 0
node 120 2 0 0
node 121 1 0 0
node 122 1 0 0
node 124 1 0 0
node 132 1 0 0
node 133 1 0 0
gene  1 17 18 1.7388024864822846 0 1.0 1.7388024864822846 1
gene  1 17 19 8.907064119170485 0 1.0 8.907064119170485 1
gene  1 17 20 1.4513480612320202 0 1.0 1.4513480612320202 1
gene  1 17 21 -1.1379065057695157 0 1.0 -1.1379065057695157 1
gene  1 17 22 8.306577892211639 0 1.0 8.306577892211639 1
gene  1 17 23 2.641252029669724 0 1.0 2.641252029669724 1
gene  1 11 18 -14.030493666512687 0 3.0 -14.030493666512687 1
gene  1 11 19 8.937388731802068 0 4.0 8.937388731802068 1
gene  2 11 20 1.3475236897755607 0 5.0 1.3475236897755607 1
gene  2 11 21 1.3901229044530197 0 6.0 1.3901229044530197 1
gene  1 11 22 -8.466997057915972 0 7.0 -8.466997057915972 1
gene  2 11 23 6.196687270755763 0 8.0 6.196687270755763 1
gene  2 12 18 -21.003596409721286 0 13.0 -21.003596409721286 1
gene  2 12 19 -0.1967863365301431 0 14.0 -0.1967863365301431 1
gene  1 12 20 -2.102247592543137 0 15.0 -2.102247592543137 1
gene  1 12 21 3.453762096418905 0 16.0 3.453762096418905 1
gene  1 12 22 2.554715795156112 0 17.0 2.554715795156112 1
gene  2 12 23 3.860701108473836 0 18.0 3.860701108473836 1
gene  2 14 18 5.750342104294792 0 57.0 5.750342104294792 1
gene  1 14 19 1.0884768439751247 0 58.0 1.0884768439751247 1
gene  1 14 20 2.5874258604350753 0 59.0 2.5874258604350753 1
gene  1 14 21 -6.991583254207414 0 60.0 -6.991583254207414 1
gene  2 14 22 -11.105710570371086 0 61.0 -11.105710570371086 0
gene  2 14 23 4.092076637639183 0 62.0 4.092076637639183 1
gene  1 14 32 1.417167048943912 0 63.0 1.417167048943912 1
gene  1 32 23 -2.4602700090773255 0 64.0 -2.4602700090773255 1
gene  2 14 36 19.083807345353822 0 80.0 19.083807345353822 1
gene  2 36 21 -7.586168109955675 0 81.0 -7.586168109955675 1
gene  1 14 42 -0.6645038355659467 0 105.0 -0.6645038355659467 1
gene  1 42 19 3.420275759374132 0 106.0 3.420275759374132 1
gene  1 15 18 1.2396133415702613 0 138.0 1.2396133415702613 1
gene  2 8 18 3.144122989488476 0 145.0 3.144122989488476 1
gene  2 8 19 3.4990211291040345 0 146.0 3.4990211291040345 1
gene  1 8 20 1.3619361172605606 0 147.0 1.3619361172605606 1
gene  2 8 21 10.214223492634199 0 148.0 10.214223492634199 1
gene  2 8 22 -1.259995585064375 0 149.0 -1.259995585064375 1
gene  2 8 23 -3.666560091854143 0 150.0 -3.666560091854143 1
gene  2 13 32 6.004322568240825 0 176.0 6.004322568240825 1
gene  1 6 23 1.1564297112619053 0 224.0 1.1564297112619053 1
gene  2 13 18 -4.747634291546252 0 260.0 -4.747634291546252 1
gene  1 13 19 -3.132636421732213 0 261.0 -3.132636421732213 1
gene  1 13 20 -0.5059859910585509 0 262.0 -0.5059859910585509 1
gene  1 13 21 18.46117062127705 0 263.0 18.46117062127705 1
gene  2 13 22 3.313542560885587 0 264.0 3.313542560885587 1
gene  2 13 23 0.915687052344679 0 265.0 0.915687052344679 1
gene  2 3 36 -3.873727060658923 0 292.0 -3.873727060658923 1
gene  1 15 19 5.628622269908618 0 293.0 5.628622269908618 1
gene  1 15 20 2.1209569004544155 0 294.0 2.1209569004544155 1
gene  2 15 21 -1.7087327947062314 0 295.0 -1.7087327947062314 1
gene  1 15 22 0.3335237898339458 0 296.0 0.3335237898339458 1
gene  1 15 23 -8.727144044197992 0 297.0 -8.727144044197992 1
gene  1 3 18 1.0936341934664295 0 322.0 1.0936341934664295 1
gene  1 3 19 1.19325260553667 0 323.0 1.19325260553667 1
gene  1 3 20 -0.07810556052199552 0 324.0 -0.07810556052199552 1
gene  2 3 21 1.6618133280944392 0 325.0 1.6618133280944392 1
gene  1 3 22 2.02361390515434 0 326.0 2.02361390515434 1
gene  2 3 23 6.828859905939261 0 327.0 6.828859905939261 1
gene  1 10 18 -2.3331324616299 0 340.0 -2.3331324616299 1
gene  1 10 19 -7.066200312820728 0 341.0 -7.066200312820728 1
gene  2 10 20 1.9653980528646984 0 342.0 1.9653980528646984 1
gene  2 10 21 1.2769405309377255 0 343.0 1.2769405309377255 1
gene  2 10 22 -2.125828120382291 0 344.0 -2.125828120382291 1
gene  1 10 23 -2.65220532890181 0 345.0 -2.65220532890181 1
gene  2 5 21 1.2421668112187996 0 351.0 1.2421668112187996 1
gene  2 32 42 6.945989793037258 0 359.0 6.945989793037258 1
gene  2 7 18 -4.69449209199949 0 373.0 -4.69449209199949 1
gene  1 7 19 -2.195372135918279 0 374.0 -2.195372135918279 1
gene  2 7 20 -0.9737204479161121 0 375.0 -0.9737204479161121 1
gene  1 7 21 3.103245490356883 0 376.0 3.103245490356883 1
gene  1 7 22 0.12886216531304373 0 377.0 0.12886216531304373 1
gene  1 7 23 3.9313932656390738 0 378.0 3.9313932656390738 1
gene  1 11 74 -12.58049572570895 0 382.0 -12.58049572570895 1
gene  1 74 19 -3.644640932720239 0 383.0 -3.644640932720239 1
gene  1 42 20 0.09821691218985018 0 399.0 0.09821691218985018 1
gene  1 1 18 -3.402423206467862 0 403.0 -3.402423206467862 1
gene  1 1 19 0.35442166693835286 0 404.0 0.35442166693835286 1
gene  2 1 20 2.3705544535778014 0 401.0 2.3705544535778014 1
gene  2 1 21 3.7178707165846268 0 405.0 3.7178707165846268 1
gene  1 1 22 3.8818949931941615 0 406.0 3.8818949931941615 1
gene  1 1 23 0.8233336903664128 0 407.0 0.8233336903664128 1
gene  1 2 18 1.0408908230388703 0 439.0 1.0408908230388703 0
gene  1 2 19 -1.1476812939281635 0 440.0 -1.1476812939281635 1
gene  1 2 20 -6.637664393565599 0 441.0 -6.637664393565599 1
gene  2 2 21 -0.17473500656472768 0 442.0 -0.17473500656472768 1
gene  1 2 22 2.49300660833216 0 443.0 2.49300660833216 1
gene  1 2 23 6.904285823715638 0 444.0 6.904285823715638 1
gene  2 7 74 1.8769554069602266 0 451.0 1.8769554069602266 1
gene  2 4 18 2.549214521774391 0 471.0 2.549214521774391 1
gene  2 4 19 -8.16198709608621 0 472.0 -8.16198709608621 1
gene  1 4 20 -2.238075622522023 0 473.0 -2.238075622522023 1
gene  1 4 21 8.186386198646275 0 474.0 8.186386198646275 1
gene  2 4 22 -2.4914813027929497 0 475.0 -2.4914813027929497 1
gene  2 4 23 -2.4924871660651293 0 476.0 -2.4924871660651293 1
gene  1 11 85 4.472066491567841 0 513.0 4.472066491567841 1
gene  1 85 19 4.766856848192771 0 514.0 4.766856848192771 1
gene  1 1 42 -0.6862569246811965 0 517.0 -0.6862569246811965 1
gene  1 16 42 -2.1738102990782187 0 519.0 -2.1738102990782187 1
gene  1 2 74 -0.1595145802918288 0 521.0 -0.1595145802918288 1
gene  1 42 85 -0.47374054585337333 0 523.0 -0.47374054585337333 1
gene  2 9 22 -1.0538693109547532 0 548.0 -1.0538693109547532 1
gene  1 13 85 5.315025778050444 0 555.0 5.315025778050444 1
gene  2 36 74 1.7986155843565368 0 558.0 1.7986155843565368 1
gene  2 7 89 1.3030714790776365 0 559.0 1.3030714790776365 1
gene  2 89 18 -3.0905931795205386 0 560.0 -3.0905931795205386 1
gene  1 6 91 4.822649587790217 0 567.0 4.822649587790217 1
gene  1 91 23 -0.25214079649053445 0 568.0 -0.25214079649053445 1
gene  1 7 85 1.349766746839339 0 570.0 1.349766746839339 1
gene  1 9 18 6.677901409404692 0 578.0 6.677901409404692 1
gene  2 9 19 0.9207094226348567 0 579.0 0.9207094226348567 1
gene  2 9 20 14.275087207881286 0 580.0 14.275087207881286 1
gene  1 9 21 -0.004174362522804231 0 581.0 -0.004174362522804231 1
gene  2 9 23 -4.654079963849087 0 582.0 -4.654079963849087 1
gene  1 10 95 -1.3136423852170362 0 597.0 -1.3136423852170362 1
gene  1 95 19 0.5341550179353316 0 598.0 0.5341550179353316 1
gene  1 13 42 -2.9109571145899933 0 603.0 -2.9109571145899933 1
gene  1 3 74 1.0707436762077065 0 624.0 1.0707436762077065 1
gene  1 5 18 5.539285744972172 0 629.0 5.539285744972172 1
gene  1 5 19 0.44584395465342386 0 630.0 0.44584395465342386 1
gene  1 5 20 -1.0155541923020615 0 631.0 -1.0155541923020615 1
gene  2 5 22 6.267357350671841 0 632.0 6.267357350671841 1
gene  2 5 23 7.872962788522138 0 633.0 7.872962788522138 1
gene  2 16 18 -0.7538249981727272 0 704.0 -0.7538249981727272 1
gene  2 16 19 -2.4010962559044047 0 705.0 -2.4010962559044047 1
gene  1 16 20 -5.512631589656989 0 706.0 -5.512631589656989 1
gene  2 16 21 7.7371472150537075 0 707.0 7.7371472150537075 1
gene  2 16 22 1.529687968066665 0 708.0 1.529687968066665 1
gene  2 16 23 -7.827001294025795 0 709.0 -7.827001294025795 1
gene  1 13 95 -1.034103394720856 0 720.0 -1.034103394720856 1
gene  2 13 36 1.9354562583189496 0 744.0 1.9354562583189496 1
gene  2 6 18 1.3151255338901724 0 748.0 1.3151255338901724 1
gene  2 6 19 2.1418148224541445 0 749.0 2.1418148224541445 1
gene  2 6 20 0.6890817646877561 0 750.0 0.6890817646877561 1
gene  2 6 21 -5.041494231496003 0 751.0 -5.041494231496003 1
gene  1 6 22 12.459654605695572 0 752.0 12.459654605695572 1
gene  1 23 20 3.148297636095069 0 759.0 3.148297636095069 1
gene  2 19 23 0.38743612403343675 0 773.0 0.38743612403343675 1
gene  1 4 113 1.3964536303140673 0 774.0 1.3964536303140673 1
gene  1 113 20 1.703383386850486 0 775.0 1.703383386850486 1
gene  1 91 42 -1.1208439258940988 0 776.0 -1.1208439258940988 1
gene  1 21 20 2.4009304994693363 0 779.0 2.4009304994693363 1
gene  2 7 95 0.6866860698103132 0 782.0 0.6866860698103132 1
gene  1 89 32 -0.6343295920785885 0 794.0 -0.6343295920785885 1
gene  1 6 117 1.3961754684660301 0 798.0 1.3961754684660301 1
gene  1 117 22 1.1219119418622157 0 799.0 1.1219119418622157 1
gene  1 14 120 -1.8177970817625917 0 810.0 -1.8177970817625917 1
gene  1 120 42 -0.01935294845208435 0 811.0 -0.01935294845208435 1
gene  1 16 120 2.768273614473705 0 812.0 2.768273614473705 1
gene  2 3 91 -2.526809468425505 0 815.0 -2.526809468425505 1
gene  1 7 121 0.8590528466517899 0 825.0 0.8590528466517899 1
gene  1 121 23 -2.0042944506248754 0 826.0 -2.0042944506248754 1
gene  2 18 74 -1.1395082577177886 0 827.0 -1.1395082577177886 1
gene  2 7 122 -3.9307816756683454 0 836.0 -3.9307816756683454 1
gene  2 122 74 2.3802624563866854 0 837.0 2.3802624563866854 1
gene  2 14 124 -1.5687824837438584 0 841.0 -1.5687824837438584 1
gene  2 124 22 -3.5567359098777005 0 842.0 -3.5567359098777005 1
gene  2 21 19 2.167377578953908 0 856.0 2.167377578953908 1
gene  1 15 113 1.5747304710293597 0 859.0 1.5747304710293597 1
gene  1 4 95 6.353852504181211 0 861.0 6.353852504181211 1
gene  1 13 122 -1.188194965166507 0 869.0 -1.188194965166507 1
gene  2 8 85 -1.4617781913910917 0 874.0 -1.4617781913910917 1
gene  1 117 124 0.16372991075750476 0 882.0 0.16372991075750476 1
gene  1 2 132 4.503565407216687 0 897.0 4.503565407216687 1
gene  1 132 18 -1.2907881590505195 0 898.0 -1.2907881590505195 1
gene  2 42 18 -1.519870516031182 0 900.0 -1.519870516031182 1
gene  1 117 133 -1.276897264696968 0 903.0 -1.276897264696968 1
gene  1 133 124 -0.6644135161652012 0 904.0 -0.6644135161652012 1
gene  1 89 91 0.379729582891242 0 930.0 0.379729582891242 1
gene  1 91 120 0.12489847873625592 0 935.0 0.12489847873625592 1
gene  2 22 21 1.7167657583032732 0 949.0 1.7167657583032732 1
gene  2 21 132 -0.19201035682292056 0 962.0 -0.19201035682292056 1
gene  1 14 113 7.484989173179954 0 970.0 7.484989173179954 1
gene  2 120 85 -0.4981019651886562 0 973.0 -0.4981019651886562 1
genomeend 5
genomestart  6
trait 1 1.4743872037270211 1.2126836014930213 0.08286402898762335 1.3648893927070853 1.4737910521141837 0.0 1.0681306205648171 0.3610967866278958 
trait 2 0.0 0.7446882930314705 0.93239005958062 0.2596121535266682 0.0 2.247610144307834 0.6430708744148922 2.260198713935586 
node 1 2 1 1
node 2 1 1 1
node 3 1 1 1
node 4 1 1 1
node 5 1 1 1
node 6 2 1 1
node 7 1 1 1
node 8 1 1 1
node 9 2 1 1
node 10 2 1 1
node 11 1 1 1
node 12 1 1 1
node 13 2 1 1
node 14 1 1 1
node 15 1 1 1
node 16 1 1 1
node 17 2 1 3
node 18 1 0 2
node 19 1 0 2
node 20 2 0 2
node 21 2 0 2
node 22 1 0 2
node 23 1 0 2
node 32 1 0 0
node 36 2 0 0
node 42 1 0 0
node 74 1 0 0
node 85 1 0 0
node 89 1 0 0
node 91 2 0 0
node 95 2 0 0
node 113 1 0 0
node 117 1 0 0
node 120 2 0 0
node 121 1 0 0
node 122 1 0 0
node 124 1 0 0
node 132 1 0 0
node 133 1 0 0
gene  1 17 18 -4.984627128497415 0 1.0 -4.984627128497415 1
gene  1 17 19 -2.3502736129599873 0 1.0 -2.3502736129599873 1
gene  1 17 20 -3.284810201616395 0 1.0 -3.284810201616395 1
gene  1 17 21 0.4424460355385096 0 1.0 0.4424460355385096 1
gene  1 17 22 6.303996632907849 0 1.0 6.303996632907849 1
gene  1 17 23 4.611551831078835 0 1.0 4.611551831078835 1
gene  1 11 18 -15.332608197420365 0 3.0 -15.332608197420365 1
gene  1 11 19 9.435448213444852 0 4.0 9.435448213444852 1
gene  2 11 20 4.142168735037324 0 5.0 4.142168735037324 1
gene  2 11 21 -0.16974422578283144 0 6.0 -0.16974422578283144 1
gene  1 11 22 0.8606122428949609 0 7.0 0.8606122428949609 1
gene  2 11 23 5.238398303346915 0 8.0 5.238398303346915 1
gene  2 12 18 -0.438857015346201 0 13.0 -0.438857015346201 1
gene  2 12 19 0.978092834340083 0 14.0 0.978092834340083 1
gene  1 12 20 -1.7149170059752001 0 15.0 -1.7149170059752001 1
gene  1 12 21 -1.4461988333277154 0 16.0 -1.4461988333277154 1
gene  1 12 22 4.962260796436712 0 17.0 4.962260796436712 1
gene  2 12 23 0.9467486740433639 0 18.0 0.9467486740433639 1
gene  2 14 18 7.690985183484725 0 57.0 7.690985183484725 1
gene  1 14 19 -0.06691789591146635 0 58.0 -0.06691789591146635 1
gene  1 14 20 2.9310404758664963 0 59.0 2.9310404758664963 1
gene  1 14 21 -7.44827590868187 0 60.0 -7.44827590868187 1
gene  2 14 22 -10.295932184411736 0 61.0 -10.295932184411736 0
gene  2 14 23 5.475967319397015 0 62.0 5.475967319397015 1
gene  1 14 32 1.5325327995673264 0 63.0 1.5325327995673264 1
gene  1 32 23 8.170463489462344 0 64.0 8.170463489462344 1
gene  2 14 36 1.5843403430775345 0 80.0 1.5843403430775345 1
gene  2 36 21 -8.248727512914725 0 81.0 -8.248727512914725 1
gene  1 14 42 1.9673059930953039 0 105.0 1.9673059930953039 1
gene  1 42 19 1.508833062697473 0 106.0 1.508833062697473 1
gene  1 15 18 0.30498065581433387 0 138.0 0.30498065581433387 1
gene  2 8 18 1.3346582240272955 0 145.0 1.3346582240272955 1
gene  2 8 19 4.688866834283547 0 146.0 4.688866834283547 1
gene  1 8 20 0.6120327720008414 0 147.0 0.6120327720008414 1
gene  2 8 21 2.170913559986402 0 148.0 2.170913559986402 1
gene  2 8 22 -1.4275687338232355 0 149.0 -1.4275687338232355 1
gene  2 8 23 -1.5023494724909716 0 150.0 -1.5023494724909716 1
gene  2 13 32 5.3577514002102875 0 176.0 5.3577514002102875 1
gene  1 6 23 1.5683135987899786 0 224.0 1.5683135987899786 1
gene  2 13 18 -4.327856820973014 0 260.0 -4.327856820973014 1
gene  1 13 19 -4.552862207445458 0 261.0 -4.552862207445458 1
gene  1 13 20 -1.2420820331698585 0 262.0 -1.2420820331698585 1
gene  1 13 21 -1.8747111178347549 0 263.0 -1.8747111178347549 1
gene  2 13 22 4.756498393315535 0 264.0 4.756498393315535 1
gene  2 13 23 4.9357209854295725 0 265.0 4.9357209854295725 1
gene  2 3 36 0.8695379229132463 0 292.0 0.8695379229132463 1
gene  1 15 19 1.3318755308197932 0 293.0 1.3318755308197932 1
gene  1 15 20 0.16011742461408823 0 294.0 0.16011742461408823 1
gene  2 15 21 -5.439158758623192 0 295.0 -5.439158758623192 1
gene  1 15 22 1.7159521436029521 0 296.0 1.7159521436029521 1
gene  1 15 23 -9.452486493000974 0 297.0 -9.452486493000974 1
gene  1 3 18 -12.69642681907733 0 322.0 -12.69642681907733 1
gene  1 3 19 -0.5189333830881049 0 323.0 -0.5189333830881049 1
gene  1 3 20 1.9547957308932606 0 324.0 1.9547957308932606 1
gene  2 3 21 3.8203619458472295 0 325.0 3.8203619458472295 1
gene  1 3 22 4.476989800400598 0 326.0 4.476989800400598 1
gene  2 3 23 -2.1663873052897693 0 327.0 -2.1663873052897693 1
gene  1 10 18 -1.4406124340191906 0 340.0 -1.4406124340191906 1
gene  1 10 19 -7.670530766360608 0 341.0 -7.670530766360608 1
gene  2 10 20 4.462998988358497 0 342.0 4.462998988358497 1
gene  2 10 21 4.886101554174902 0 343.0 4.886101554174902 1
gene  2 10 22 -0.18945261918672074 0 344.0 -0.18945261918672074 1
gene  1 10 23 -0.2059843496855443 0 345.0 -0.2059843496855443 1
gene  2 5 21 0.9254786004000852 0 351.0 0.9254786004000852 1
gene  2 32 42 6.645429651330467 0 359.0 6.645429651330467 1
gene  2 7 18 -4.69449209199949 0 373.0 -4.69449209199949 1
gene  1 7 19 0.7045594430365842 0 374.0 0.7045594430365842 1
gene  2 7 20 -19.57530273630678 0 375.0 -19.57530273630678 1
gene  1 7 21 -0.4850088341172701 0 376.0 -0.4850088341172701 1
gene  1 7 22 -2.1806950314825913 0 377.0 -2.1806950314825913 1
gene  1 7 23 4.65806508697405 0 378.0 4.65806508697405 1
gene  1 11 74 -12.292620529124612 0 382.0 -12.292620529124612 1
gene  1 74 19 2.463400310237402 0 383.0 2.463400310237402 1
gene  1 42 20 -1.2828150045721964 0 399.0 -1.2828150045721964 1
gene  1 1 18 -2.3475823016647794 0 403.0 -2.3475823016647794 1
gene  1 1 19 -1.1835773221429526 0 404.0 -1.1835773221429526 1
gene  2 1 20 -6.988462604322987 0 401.0 -6.988462604322987 1
gene  2 1 21 3.1518392072096937 0 405.0 3.1518392072096937 1
gene  1 1 22 3.5338652127441117 0 406.0 3.5338652127441117 1
gene  1 1 23 2.220810910768349 0 407.0 2.220810910768349 1
gene  1 2 18 3.1622422405221795 0 439.0 3.1622422405221795 0
gene  1 2 19 -4.985037621235859 0 440.0 -4.985037621235859 1
gene  1 2 20 -5.678675979797218 0 441.0 -5.678675979797218 1
gene  2 2 21 -1.7460581006757296 0 442.0 -1.7460581006757296 1
gene  1 2 22 1.797964442233594 0 443.0 1.797964442233594 1
gene  1 2 23 5.048665945734893 0 444.0 5.048665945734893 1
gene  2 7 74 1.1098613304049874 0 451.0 1.1098613304049874 1
gene  2 4 18 3.6067580448158667 0 471.0 3.6067580448158667 1
gene  2 4 19 -7.530681760893531 0 472.0 -7.530681760893531 1
gene  1 4 20 -7.841724328876136 0 473.0 -7.841724328876136 1
gene  1 4 21 9.636970867673334 0 474.0 9.636970867673334 1
gene  2 4 22 2.2812158025146103 0 475.0 2.2812158025146103 1
gene  2 4 23 -1.6777210480207851 0 476.0 -1.6777210480207851 1
gene  1 11 85 7.061435598619528 0 513.0 7.061435598619528 1
gene  1 85 19 2.852812673023965 0 514.0 2.852812673023965 1
gene  1 1 42 6.39246150369664 0 517.0 6.39246150369664 1
gene  1 16 42 -4.287195549976157 0 519.0 -4.287195549976157 1
gene  1 2 74 -6.755560077753118 0 521.0 -6.755560077753118 1
gene  1 42 85 -6.484117568794675 0 523.0 -6.484117568794675 1
gene  2 9 22 3.4235885160105317 0 548.0 3.4235885160105317 1
gene  1 13 85 2.1784831925500168 0 555.0 2.1784831925500168 1
gene  2 36 74 -5.832880354055656 0 558.0 -5.832880354055656 1
gene  2 7 89 2.6336635247610394 0 559.0 2.6336635247610394 1
gene  2 89 18 -0.9415896230295959 0 560.0 -0.9415896230295959 1
gene  1 6 91 1.6819311431701678 0 567.0 1.6819311431701678 1
gene  1 91 23 -0.8096825593680714 0 568.0 -0.8096825593680714 1
gene  1 7 85 0.1594056782221817 0 570.0 0.1594056782221817 1
gene  1 9 18 -2.3162534987573467 0 578.0 -2.3162534987573467 1
gene  2 9 19 1.7881163765462285 0 579.0 1.7881163765462285 1
gene  2 9 20 11.388832457696223 0 580.0 11.388832457696223 1
gene  1 9 21 0.014348296433214947 0 581.0 0.014348296433214947 1
gene  2 9 23 -7.216514854448376 0 582.0 -7.216514854448376 1
gene  1 10 95 -1.1153328052383218 0 597.0 -1.1153328052383218 1
gene  1 95 19 1.5943389171609035 0 598.0 1.5943389171609035 1
gene  1 13 42 -2.3258952807228983 0 603.0 -2.3258952807228983 1
gene  1 3 74 -3.9076467939588535 0 624.0 -3.9076467939588535 1
gene  1 5 18 6.323134044258538 0 629.0 6.323134044258538 1
gene  1 5 19 0.8309551454532924 0 630.0 0.8309551454532924 1
gene  1 5 20 1.8130935046324377 0 631.0 1.8130935046324377 1
gene  2 5 22 5.706303634036484 0 632.0 5.706303634036484 1
gene  2 5 23 4.166064540678554 0 633.0 4.166064540678554 1
gene  2 16 18 0.006998050841077186 0 704.0 0.006998050841077186 1
gene  2 16 19 -2.904408955266109 0 705.0 -2.904408955266109 1
gene  1 16 20 -5.571060398777934 0 706.0 -5.571060398777934 1
gene  2 16 21 6.987228852482112 0 707.0 6.987228852482112 1
gene  2 16 22 5.872555135405697 0 708.0 5.872555135405697 1
gene  2 16 23 -6.545212934578398 0 709.0 -6.545212934578398 1
gene  1 13 95 -5.605147520577674 0 720.0 -5.605147520577674 1
gene  2 13 36 -1.8041648399013888 0 744.0 -1.8041648399013888 1
gene  2 6 18 0.8622572901843595 0 748.0 0.8622572901843595 1
gene  2 6 19 -1.8041177902952819 0 749.0 -1.8041177902952819 1
gene  2 6 20 1.0964975854531134 0 750.0 1.0964975854531134 1
gene  2 6 21 -8.475568547428356 0 751.0 -8.475568547428356 1
gene  1 6 22 12.459654605695572 0 752.0 12.459654605695572 1
gene  1 23 20 -2.258766599217483 0 759.0 -2.258766599217483 1
gene  2 19 23 3.3153905658767693 0 773.0 3.3153905658767693 1
gene  1 4 113 0.5698524411887773 0 774.0 0.5698524411887773 1
gene  1 113 20 0.8922179783003397 0 775.0 0.8922179783003397 1
gene  1 91 42 1.1401279866797647 0 776.0 1.1401279866797647 1
gene  1 21 20 1.8697537537279272 0 779.0 1.8697537537279272 1
gene  2 7 95 3.1098007602338598 0 782.0 3.1098007602338598 1
gene  1 89 32 1.6555155067456866 0 794.0 1.6555155067456866 1
gene  1 6 117 4.62383527308355 0 798.0 4.62383527308355 1
gene  1 117 22 1.1219119418622157 0 799.0 1.1219119418622157 1
gene  1 14 120 -4.548227519364082 0 810.0 -4.548227519364082 1
gene  1 120 42 -10.874601565268094 0 811.0 -10.874601565268094 1
gene  1 16 120 0.2773974107304742 0 812.0 0.2773974107304742 1
gene  2 3 91 0.5568819293328766 0 815.0 0.5568819293328766 1
gene  1 7 121 0.9823548463813964 0 825.0 0.9823548463813964 1
gene  1 121 23 -1.770374354102226 0 826.0 -1.770374354102226 1
gene  2 18 74 -3.589065929485118 0 827.0 -3.589065929485118 1
gene  2 7 122 -7.206872322050169 0 836.0 -7.206872322050169 1
gene  2 122 74 -1.7039254494800278 0 837.0 -1.7039254494800278 1
gene  2 14 124 6.4760086202113385 0 841.0 6.4760086202113385 1
gene  2 124 22 -2.2328068948756465 0 842.0 -2.2328068948756465 1
gene  2 21 19 1.1026255235802447 0 856.0 1.1026255235802447 1
gene  1 15 113 1.726029330071201 0 859.0 1.726029330071201 1
gene  1 4 95 0.6638945693744034 0 861.0 0.6638945693744034 1
gene  1 13 122 -1.968969382861022 0 869.0 -1.968969382861022 1
gene  2 8 85 -4.324901294665608 0 874.0 -4.324901294665608 1
gene  1 117 124 -3.086809490622095 0 882.0 -3.086809490622095 1
gene  1 2 132 3.2988808303355706 0 897.0 3.2988808303355706 1
gene  1 132 18 -1.3513442835356102 0 898.0 -1.3513442835356102 1
gene  2 42 18 1.2747831943903645 0 900.0 1.2747831943903645 1
gene  1 117 133 -1.632169356009669 0 903.0 -1.632169356009669 1
gene  1 133 124 -1.8646230434494162 0 904.0 -1.8646230434494162 1
gene  1 89 91 -5.501758880456027 0 930.0 -5.501758880456027 1
gene  1 91 120 2.1890210676096853 0 935.0 2.1890210676096853 1
gene  2 22 21 1.7505260591839775 0 949.0 1.7505260591839775 1
gene  2 21 132 -1.0116088463395403 0 962.0 -1.0116088463395403 1
gene  1 14 113 7.484989173179954 0 970.0 7.484989173179954 1
gene  2 120 85 0.7610962252676199 0 973.0 0.7610962252676199 1
genomeend 6
genomestart  7
trait 1 1.4743872037270211 1.2126836014930213 0.08286402898762335 1.3648893927070853 1.4737910521141837 0.0 1.0681306205648171 0.3610967866278958 
trait 2 0.0 0.7446882930314705 0.93239005958062 0.2596121535266682 0.0 2.247610144307834 0.6430708744148922 2.260198713935586 
node 1 2 1 1
node 2 1 1 1
node 3 1 1 1
node 4 1 1 1
node 5 1 1 1
node 6 2 1 1
node 7 1 1 1
node 8 1 1 1
node 9 2 1 1
node 10 2 1 1
node 11 1 1 1
node 12 1 1 1
node 13 2 1 1
node 14 1 1 1
node 15 1 1 1
node 16 1 1 1
node 17 2 1 3
node 18 1 0 2
node 19 1 0 2
node 20 2 0 2
node 21 2 0 2
node 22 1 0 2
node 23 1 0 2
node 32 1 0 0
node 36 2 0 0
node 42 1 0 0
node 74 1 0 0
node 85 1 0 0
node 89 1 0 0
node 91 2 0 0
node 95 2 0 0
node 113 1 0 0
node 117 1 0 0
node 120 2 0 0
node 121 1 0 0
node 122 1 0 0
node 124 1 0 0
node 132 1 0 0
node 133 1 0 0
gene  1 17 18 -6.843292485556624 0 1.0 -6.843292485556624 1
gene  1 17 19 6.335606566267721 0 1.0 6.335606566267721 1
gene  1 17 20 -3.3412083469198586 0 1.0 -3.3412083469198586 1
gene  1 17 21 -4.221567450469783 0 1.0 -4.221567450469783 1
gene  1 17 22 6.404711646046365 0 1.0 6.404711646046365 1
gene  1 17 23 4.208707855523207 0 1.0 4.208707855523207 1
gene  1 11 18 -13.647601225758306 0 3.0 -13.647601225758306 1
gene  1 11 19 11.519140385049454 0 4.0 11.519140385049454 1
gene  2 11 20 3.825642944174767 0 5.0 3.825642944174767 1
gene  2 11 21 -1.830251887767988 0 6.0 -1.830251887767988 1
gene  1 11 22 -7.50480110685489 0 7.0 -7.50480110685489 1
gene  2 11 23 7.118045965594635 0 8.0 7.118045965594635 1
gene  2 12 18 -17.50139924637339 0 13.0 -17.50139924637339 1
gene  2 12 19 -1.0229433356303375 0 14.0 -1.0229433356303375 1
gene  1 12 20 -5.71033052706261 0 15.0 -5.71033052706261 1
gene  1 12 21 0.434247817898961 0 16.0 0.434247817898961 1
gene  1 12 22 4.7005178648351285 0 17.0 4.7005178648351285 1
gene  2 12 23 3.0635238354955368 0 18.0 3.0635238354955368 1
gene  2 14 18 3.80563087984031 0 57.0 3.80563087984031 1
gene  1 14 19 -0.47800073989201075 0 58.0 -0.47800073989201075 1
gene  1 14 20 6.331018997205858 0 59.0 6.331018997205858 1
gene  1 14 21 -11.348706099043703 0 60.0 -11.348706099043703 1
gene  2 14 22 -13.25259071636312 0 61.0 -13.25259071636312 0
gene  2 14 23 8.483010887586651 0 62.0 8.483010887586651 1
gene  1 14 32 -2.667989487846094 0 63.0 -2.667989487846094 1
gene  1 32 23 6.354180428767755 0 64.0 6.354180428767755 1
gene  2 14 36 23.494889669261877 0 80.0 23.494889669261877 1
gene  2 36 21 -7.716491250634803 0 81.0 -7.716491250634803 1
gene  1 14 42 -4.00095127574232 0 105.0 -4.00095127574232 1
gene  1 42 19 6.937329368067067 0 106.0 6.937329368067067 1
gene  1 15 18 0.8944004386701396 0 138.0 0.8944004386701396 1
gene  2 8 18 5.822582049434513 0 145.0 5.822582049434513 1
gene  2 8 19 2.1713544990934377 0 146.0 2.1713544990934377 1
gene  1 8 20 -0.7368465447982944 0 147.0 -0.7368465447982944 1
gene  2 8 21 8.85876408716916 0 148.0 8.85876408716916 1
gene  2 8 22 -1.7299381389481288 0 149.0 -1.7299381389481288 1
gene  2 8 23 -1.6424240535985972 0 150.0 -1.6424240535985972 1
gene  2 13 32 4.7227327551190585 0 176.0 4.7227327551190585 1
gene  1 6 23 -0.36673522932411085 0 224.0 -0.36673522932411085 1
gene  2 13 18 -7.927573406446388 0 260.0 -7.927573406446388 1
gene  1 13 19 -6.523264581739095 0 261.0 -6.523264581739095 1
gene  1 13 20 2.6706209974101354 0 262.0 2.6706209974101354 1
gene  1 13 21 21.640626401782377 0 263.0 21.640626401782377 1
gene  2 13 22 1.8289420471277886 0 264.0 1.8289420471277886 1
gene  2 13 23 2.168423507569305 0 265.0 2.168423507569305 1
gene  2 3 36 -2.703356382596809 0 292.0 -2.703356382596809 1
gene  1 15 19 8.106547083888612 0 293.0 8.106547083888612 1
gene  1 15 20 -2.1614607410877724 0 294.0 -2.1614607410877724 1
gene  2 15 21 -3.741993895091066 0 295.0 -3.741993895091066 1
gene  1 15 22 2.735715549620669 0 296.0 2.735715549620669 1
gene  1 15 23 -9.121911900115617 0 297.0 -9.121911900115617 1
gene  1 3 18 -14.785007424068937 0 322.0 -14.785007424068937 1
gene  1 3 19 2.562848115489123 0 323.0 2.562848115489123 1
gene  1 3 20 -2.620230927172539 0 324.0 -2.620230927172539 1
gene  2 3 21 4.6672452658341985 0 325.0 4.6672452658341985 1
gene  1 3 22 1.170766107576701 0 326.0 1.170766107576701 1
gene  2 3 23 0.9426286124931398 0 327.0 0.9426286124931398 1
gene  1 10 18 -4.6146142175741165 0 340.0 -4.6146142175741165 1
gene  1 10 19 -6.961276093442053 0 341.0 -6.961276093442053 1
gene  2 10 20 4.919801154579605 0 342.0 4.919801154579605 1
gene  2 10 21 5.8271751228925615 0 343.0 5.8271751228925615 1
gene  2 10 22 -5.0562086298545355 0 344.0 -5.0562086298545355 1
gene  1 10 23 -7.434900006501827 0 345.0 -7.434900006501827 1
gene  2 5 21 1.1249175099904747 0 351.0 1.1249175099904747 1
gene  2 32 42 10.40254059292213 0 359.0 10.40254059292213 1
gene  2 7 18 -5.536599941655745 0 373.0 -5.536599941655745 1
gene  1 7 19 -4.878943979381377 0 374.0 -4.878943979381377 1
gene  2 7 20 -16.225235440488774 0 375.0 -16.225235440488774 1
gene  1 7 21 2.115135497060267 0 376.0 2.115135497060267 1
gene  1 7 22 1.3884162349960663 0 377.0 1.3884162349960663 1
gene  1 7 23 2.205090170464834 0 378.0 2.205090170464834 1
gene  1 11 74 -13.68132822427261 0 382.0 -13.68132822427261 1
gene  1 74 19 -6.847297737630946 0 383.0 -6.847297737630946 1
gene  1 42 20 -2.9765032626151964 0 399.0 -2.9765032626151964 1
gene  1 1 18 -3.079102555146686 0 403.0 -3.079102555146686 1
gene  1 1 19 -2.671691686307206 0 404.0 -2.671691686307206 1
gene  2 1 20 -6.426707130700659 0 401.0 -6.426707130700659 1
gene  2 1 21 0.7585645293237007 0 405.0 0.7585645293237007 1
gene  1 1 22 3.80689095627501 0 406.0 3.80689095627501 1
gene  1 1 23 3.6581636240774644 0 407.0 3.6581636240774644 1
gene  1 2 18 0.8791597928018888 0 439.0 0.8791597928018888 0
gene  1 2 19 -7.0029093456535225 0 440.0 -7.0029093456535225 1
gene  1 2 20 -2.6120229447272223 0 441.0 -2.6120229447272223 1
gene  2 2 21 -2.5849614647330617 0 442.0 -2.5849614647330617 1
gene  1 2 22 -0.6087062615292795 0 443.0 -0.6087062615292795 1
gene  1 2 23 4.311689804206985 0 444.0 4.311689804206985 1
gene  2 7 74 1.1879941642596086 0 451.0 1.1879941642596086 1
gene  2 4 18 1.563998266727239 0 471.0 1.563998266727239 1
gene  2 4 19 -5.876705436537556 0 472.0 -5.876705436537556 1
gene  1 4 20 -4.852928622953893 0 473.0 -4.852928622953893 1
gene  1 4 21 9.781622729375442 0 474.0 9.781622729375442 1
gene  2 4 22 5.391985217622386 0 475.0 5.391985217622386 1
gene  2 4 23 -1.4141845312573498 0 476.0 -1.4141845312573498 1
gene  1 11 85 6.056638306246695 0 513.0 6.056638306246695 1
gene  1 85 19 4.340193624289062 0 514.0 4.340193624289062 1
gene  1 1 42 8.20832153537716 0 517.0 8.20832153537716 1
gene  1 16 42 -3.472703559435452 0 519.0 -3.472703559435452 1
gene  1 2 74 -8.367527792048937 0 521.0 -8.367527792048937 1
gene  1 42 85 -8.643256616454408 0 523.0 -8.643256616454408 1
gene  2 9 22 1.0562922726949977 0 548.0 1.0562922726949977 1
gene  1 13 85 8.22493560528413 0 555.0 8.22493560528413 1
gene  2 36 74 -8.289863557940398 0 558.0 -8.289863557940398 1
gene  2 7 89 3.5517606383848657 0 559.0 3.5517606383848657 1
gene  2 89 18 -0.5572759898548368 0 560.0 -0.5572759898548368 1
gene  1 6 91 3.826350255112681 0 567.0 3.826350255112681 1
gene  1 91 23 0.06970814401640657 0 568.0 0.06970814401640657 1
gene  1 7 85 6.651393814096277 0 570.0 6.651393814096277 1
gene  1 9 18 2.0843808741750194 0 578.0 2.0843808741750194 1
gene  2 9 19 -0.8647044148223098 0 579.0 -0.8647044148223098 1
gene  2 9 20 9.496368115306357 0 580.0 9.496368115306357 1
gene  1 9 21 -0.3266131799182803 0 581.0 -0.3266131799182803 1
gene  2 9 23 -6.257082607961722 0 582.0 -6.257082607961722 1
gene  1 10 95 -0.4247988594365055 0 597.0 -0.4247988594365055 1
gene  1 95 19 -2.27065786569048 0 598.0 -2.27065786569048 1
gene  1 13 42 -3.1425174047385456 0 603.0 -3.1425174047385456 1
gene  1 3 74 -6.08741139141687 0 624.0 -6.08741139141687 1
gene  1 5 18 7.825137778417611 0 629.0 7.825137778417611 1
gene  1 5 19 2.4119412092298385 0 630.0 2.4119412092298385 1
gene  1 5 20 0.668115714897991 0 631.0 0.668115714897991 1
gene  2 5 22 3.149320347335241 0 632.0 3.149320347335241 1
gene  2 5 23 9.288139262935383 0 633.0 9.288139262935383 1
gene  2 16 18 -1.8018595502643182 0 704.0 -1.8018595502643182 1
gene  2 16 19 -1.454003870641134 0 705.0 -1.454003870641134 1
gene  1 16 20 -9.289036816558237 0 706.0 -9.289036816558237 1
gene  2 16 21 6.82899769473935 0 707.0 6.82899769473935 1
gene  2 16 22 5.445333851126526 0 708.0 5.445333851126526 1
gene  2 16 23 -8.913030362930426 0 709.0 -8.913030362930426 1
gene  1 13 95 -6.154956570599595 0 720.0 -6.154956570599595 1
gene  2 13 36 1.1144321784372737 0 744.0 1.1144321784372737 1
gene  2 6 18 -1.8187263473748607 0 748.0 -1.8187263473748607 1
gene  2 6 19 1.8197944429783468 0 749.0 1.8197944429783468 1
gene  2 6 20 0.546789084703603 0 750.0 0.546789084703603 1
gene  2 6 21 -10.336089986182085 0 751.0 -10.336089986182085 1
gene  1 6 22 13.20673378523044 0 752.0 13.20673378523044 1
gene  1 23 20 2.622866255561493 0 759.0 2.622866255561493 1
gene  2 19 23 5.343345974903317 0 773.0 5.343345974903317 1
gene  1 4 113 -3.5059774982816947 0 774.0 -3.5059774982816947 1
gene  1 113 20 1.046238310618692 0 775.0 1.046238310618692 1
gene  1 91 42 -1.050255617505768 0 776.0 -1.050255617505768 1
gene  1 21 20 -0.5401492505969732 0 779.0 -0.5401492505969732 1
gene  2 7 95 2.44218921972495 0 782.0 2.44218921972495 1
gene  1 89 32 -1.0970609153614739 0 794.0 -1.0970609153614739 1
gene  1 6 117 0.20341511761896275 0 798.0 0.20341511761896275 1
gene  1 117 22 -0.6363291206643072 0 799.0 -0.6363291206643072 1
gene  1 14 120 -1.9480931942390947 0 810.0 -1.9480931942390947 1
gene  1 120 42 -5.834686085944506 0 811.0 -5.834686085944506 1
gene  1 16 120 1.7017722048394694 0 812.0 1.7017722048394694 1
gene  2 3 91 0.226558241234677 0 815.0 0.226558241234677 1
gene  1 7 121 0.06856408876281245 0 825.0 0.06856408876281245 1
gene  1 121 23 -3.0808802999864566 0 826.0 -3.0808802999864566 1
gene  2 18 74 -1.3588732257437846 0 827.0 -1.3588732257437846 1
gene  2 7 122 -1.0937444511035646 0 836.0 -1.0937444511035646 1
gene  2 122 74 3.816084240066638 0 837.0 3.816084240066638 1
gene  2 14 124 5.8010414873423635 0 841.0 5.8010414873423635 1
gene  2 124 22 -2.112850436126204 0 842.0 -2.112850436126204 1
gene  2 21 19 0.07751360447048872 0 856.0 0.07751360447048872 1
gene  1 15 113 2.127615015584377 0 859.0 2.127615015584377 1
gene  1 4 95 6.5828386297348835 0 861.0 6.5828386297348835 1
gene  1 13 122 1.8117206459462851 0 869.0 1.8117206459462851 1
gene  2 8 85 -2.222733767561931 0 874.0 -2.222733767561931 1
gene  1 117 124 -1.7409654105560686 0 882.0 -1.7409654105560686 1
gene  1 2 132 4.460658627367265 0 897.0 4.460658627367265 1
gene  1 132 18 -2.2108203285902945 0 898.0 -2.2108203285902945 1
gene  2 42 18 -0.26484596674023503 0 900.0 -0.26484596674023503 1
gene  1 117 133 -0.4600646055137714 0 903.0 -0.4600646055137714 1
gene  1 133 124 -4.1960911929088205 0 904.0 -4.1960911929088205 1
gene  1 89 91 -5.658482389390073 0 930.0 -5.658482389390073 1
gene  1 91 120 -1.08827328726165 0 935.0 -1.08827328726165 1
gene  2 22 21 -3.553796862666511 0 949.0 -3.553796862666511 1
gene  2 21 132 0.9862959363650203 0 962.0 0.9862959363650203 1
gene  1 14 113 7.484989173179954 0 970.0 7.484989173179954 1
gene  2 120 85 0.29238175878576605 0 973.0 0.29238175878576605 1
genomeend 7
genomestart  8
trait 1 1.4743872037270211 1.2126836014930213 0.08286402898762335 1.3648893927070853 1.4737910521141837 0.0 1.0681306205648171 0.3610967866278958 
trait 2 0.0 0.7446882930314705 0.93239005958062 0.2596121535266682 0.0 2.247610144307834 0.6430708744148922 2.260198713935586 
node 1 2 1 1
node 2 1 1 1
node 3 1 1 1
node 4 1 1 1
node 5 1 1 1
node 6 2 1 1
node 7 1 1 1
node 8 1 1 1
node 9 2 1 1
node 10 2 1 1
node 11 1 1 1
node 12 1 1 1
node 13 2 1 1
node 14 1 1 1
node 15 1 1 1
node 16 1 1 1
node 17 2 1 3
node 18 1 0 2
node 19 1 0 2
node 20 2 0 2
node 21 2 0 2
node 22 1 0 2
node 23 1 0 2
node 32 1 0 0
node 36 2 0 0
node 42 1 0 0
node 74 1 0 0
node 85 1 0 0
node 89 1 0 0
node 91 2 0 0
node 95 2 0 0
node 113 1 0 0
node 117 1 0 0
node 120 2 0 0
node 121 1 0 0
node 122 1 0 0
node 124 1 0 0
node 132 1 0 0
node 133 1 0 0
gene  1 17 18 -5.561460800349467 0 1.0 -5.561460800349467 1
gene  1 17 19 7.154724324364808 0 1.0 7.154724324364808 1
gene  1 17 20 -2.6068951407394407 0 1.0 -2.6068951407394407 1
gene  1 17 21 -3.479027405750959 0 1.0 -3.479027405750959 1
gene  1 17 22 5.873457546891337 0 1.0 5.873457546891337 1
gene  1 17 23 3.8936559817377496 0 1.0 3.8936559817377496 1
gene  1 11 18 -11.453001268659703 0 3.0 -11.453001268659703 1
gene  1 11 19 9.88335007865854 0 4.0 9.88335007865854 1
gene  2 11 20 1.6602334241595826 0 5.0 1.6602334241595826 1
gene  2 11 21 -1.112997949608121 0 6.0 -1.112997949608121 1
gene  1 11 22 -8.434143051598651 0 7.0 -8.434143051598651 1
gene  2 11 23 6.691670294759221 0 8.0 6.691670294759221 1
gene  2 12 18 -19.615068205546116 0 13.0 -19.615068205546116 1
gene  2 12 19 1.2627620740124028 0 14.0 1.2627620740124028 1
gene  1 12 20 -4.9571962981752575 0 15.0 -4.9571962981752575 1
gene  1 12 21 0.8202670626942228 0 16.0 0.8202670626942228 1
gene  1 12 22 3.390728163602357 0 17.0 3.390728163602357 1
gene  2 12 23 2.54383010450312 0 18.0 2.54383010450312 1
gene  2 14 18 6.000500040830236 0 57.0 6.000500040830236 1
gene  1 14 19 -1.5650813466279034 0 58.0 -1.5650813466279034 1
gene  1 14 20 4.238780449120963 0 59.0 4.238780449120963 1
gene  1 14 21 -9.224170896110062 0 60.0 -9.224170896110062 1
gene  2 14 22 -12.047397621355046 0 61.0 -12.047397621355046 0
gene  2 14 23 6.268347874048381 0 62.0 6.268347874048381 1
gene  1 14 32 -1.180798676631005 0 63.0 -1.180798676631005 1
gene  1 32 23 5.471943146503653 0 64.0 5.471943146503653 1
gene  2 14 36 22.982156464530608 0 80.0 22.982156464530608 1
gene  2 36 21 -6.192215890486982 0 81.0 -6.192215890486982 1
gene  1 14 42 -3.6163671752418596 0 105.0 -3.6163671752418596 1
gene  1 42 19 5.4647977390544185 0 106.0 5.4647977390544185 1
gene  1 15 18 0.0682782926350215 0 138.0 0.0682782926350215 1
gene  2 8 18 5.6070796582795115 0 145.0 5.6070796582795115 1
gene  2 8 19 3.3620813622013515 0 146.0 3.3620813622013515 1
gene  1 8 20 1.1045298550509608 0 147.0 1.1045298550509608 1
gene  2 8 21 7.976277785189521 0 148.0 7.976277785189521 1
gene  2 8 22 -0.3431529778572161 0 149.0 -0.3431529778572161 1
gene  2 8 23 -2.6639494750479287 0 150.0 -2.6639494750479287 1
gene  2 13 32 5.001194094245122 0 176.0 5.001194094245122 1
gene  1 6 23 1.731594553270454 0 224.0 1.731594553270454 1
gene  2 13 18 -6.624302903402176 0 260.0 -6.624302903402176 1
gene  1 13 19 -4.1109442300526915 0 261.0 -4.1109442300526915 1
gene  1 13 20 1.2325510205089711 0 262.0 1.2325510205089711 1
gene  1 13 21 19.506840387336993 0 263.0 19.506840387336993 1
gene  2 13 22 1.8934239250538778 0 264.0 1.8934239250538778 1
gene  2 13 23 3.4856539659276304 0 265.0 3.4856539659276304 1
gene  2 3 36 -2.965296506130029 0 292.0 -2.965296506130029 1
gene  1 15 19 5.980191861271153 0 293.0 5.980191861271153 1
gene  1 15 20 -1.9335133002135687 0 294.0 -1.9335133002135687 1
gene  2 15 21 -5.103084843609159 0 295.0 -5.103084843609159 1
gene  1 15 22 3.7907226392099087 0 296.0 3.7907226392099087 1
gene  1 15 23 -10.264931446038794 0 297.0 -10.264931446038794 1
gene  1 3 18 -14.093509330860243 0 322.0 -14.093509330860243 1
gene  1 3 19 0.9843209864656262 0 323.0 0.9843209864656262 1
gene  1 3 20 -1.480165870642548 0 324.0 -1.480165870642548 1
gene  2 3 21 2.6775142519196455 0 325.0 2.6775142519196455 1
gene  1 3 22 1.455017727345362 0 326.0 1.455017727345362 1
gene  2 3 23 3.1627339083303374 0 327.0 3.1627339083303374 1
gene  1 10 18 -3.200798979406923 0 340.0 -3.200798979406923 1
gene  1 10 19 -5.989674970978182 0 341.0 -5.989674970978182 1
gene  2 10 20 4.146002183623253 0 342.0 4.146002183623253 1
gene  2 10 21 5.874385141690643 0 343.0 5.874385141690643 1
gene  2 10 22 -6.287508984867503 0 344.0 -6.287508984867503 1
gene  1 10 23 -5.110137823060687 0 345.0 -5.110137823060687 1
gene  2 5 21 1.910138688545239 0 351.0 1.910138688545239 1
gene  2 32 42 8.050179109167296 0 359.0 8.050179109167296 1
gene  2 7 18 -3.917987652706534 0 373.0 -3.917987652706534 1
gene  1 7 19 -3.3608535239845736 0 374.0 -3.3608535239845736 1
gene  2 7 20 -16.927867567606793 0 375.0 -16.927867567606793 1
gene  1 7 21 3.001985072258098 0 376.0 3.001985072258098 1
gene  1 7 22 -0.12527188920660653 0 377.0 -0.12527188920660653 1
gene  1 7 23 1.5868512883979475 0 378.0 1.5868512883979475 1
gene  1 11 74 -11.978076836574523 0 382.0 -11.978076836574523 1
gene  1 74 19 -5.933053250849477 0 383.0 -5.933053250849477 1
gene  1 42 20 -3.720618912200761 0 399.0 -3.720618912200761 1
gene  1 1 18 -1.868740167057326 0 403.0 -1.868740167057326 1
gene  1 1 19 -2.2109051862017988 0 404.0 -2.2109051862017988 1
gene  2 1 20 -6.299044021689424 0 401.0 -6.299044021689424 1
gene  2 1 21 2.8582748475810087 0 405.0 2.8582748475810087 1
gene  1 1 22 5.8042603642457 0 406.0 5.8042603642457 1
gene  1 1 23 1.8948614939723076 0 407.0 1.8948614939723076 1
gene  1 2 18 2.4955875572864636 0 439.0 2.4955875572864636 0
gene  1 2 19 -4.752692798727838 0 440.0 -4.752692798727838 1
gene  1 2 20 -4.169537099031446 0 441.0 -4.169537099031446 1
gene  2 2 21 -1.9140865347673315 0 442.0 -1.9140865347673315 1
gene  1 2 22 -0.03927439375221242 0 443.0 -0.03927439375221242 1
gene  1 2 23 6.708946696578495 0 444.0 6.708946696578495 1
gene  2 7 74 2.398858077306614 0 451.0 2.398858077306614 1
gene  2 4 18 1.3627866578454664 0 471.0 1.3627866578454664 1
gene  2 4 19 -7.765015008591165 0 472.0 -7.765015008591165 1
gene  1 4 20 -3.89243833880161 0 473.0 -3.89243833880161 1
gene  1 4 21 10.315652612471371 0 474.0 10.315652612471371 1
gene  2 4 22 3.617967873804278 0 475.0 3.617967873804278 1
gene  2 4 23 -3.1274352347264314 0 476.0 -3.1274352347264314 1
gene  1 11 85 5.101479028022427 0 513.0 5.101479028022427 1
gene  1 85 19 2.824073350762098 0 514.0 2.824073350762098 1
gene  1 1 42 6.3331713083504155 0 517.0 6.3331713083504155 1
