genomestart  0
trait 1 0.1 0.0 0.0 0.1693715065667284 0.0 0.10306735906291292 0.33859219751694225 0.0 
trait 2 0.9846326489587565 0.06104451854167903 0.0 0.0 0.0 0.41760394713775695 1.3725535162819755 0.0 
node 1 1 1 3
node 2 1 1 1
node 3 1 1 1
node 4 1 1 1
node 5 1 1 1
node 6 1 1 1
node 7 1 1 1
node 8 1 1 1
node 9 1 1 1
node 10 2 1 1
node 11 1 1 1
node 12 1 1 1
node 13 1 1 1
node 14 1 1 1
node 15 1 1 1
node 16 1 1 1
node 17 1 1 1
node 18 1 1 1
node 19 1 1 1
node 20 1 1 1
node 21 1 1 1
node 22 1 1 1
node 23 1 1 1
node 24 1 1 1
node 25 1 1 1
node 26 1 1 1
node 27 1 1 1
node 28 2 1 1
node 29 1 1 1
node 30 2 1 1
node 31 1 0 2
node 32 1 0 2
node 33 1 0 2
node 34 1 0 2
node 35 1 0 2
node 36 1 0 2
node 39 1 0 0
node 55 1 0 0
node 59 1 0 0
node 74 1 0 0
node 88 1 0 0
node 118 1 0 0
node 122 1 0 0
gene  1 1 31 -12.751180590329245 0 1.0 -12.751180590329245 1
gene  2 2 31 1.4018845907681527 0 2.0 1.4018845907681527 1
gene  2 3 31 -2.038771291763009 0 3.0 -2.038771291763009 1
gene  2 4 31 -5.9413292786406195 0 4.0 -5.9413292786406195 1
gene  2 5 31 0.3907111638496207 0 5.0 0.3907111638496207 1
gene  2 6 31 -2.13408497721878 0 6.0 -2.13408497721878 1
gene  2 7 31 1.9674158135860909 0 7.0 1.9674158135860909 1
gene  2 8 31 -5.890380784352262 0 8.0 -5.890380784352262 1
gene  2 9 31 7.432513784070245 0 9.0 7.432513784070245 1
gene  2 10 31 3.604912621583696 0 10.0 3.604912621583696 1
gene  2 11 31 -1.0044292118733582 0 11.0 -1.0044292118733582 1
gene  2 12 31 3.1206963434536306 0 12.0 3.1206963434536306 1
gene  2 13 31 -2.555355888150224 0 13.0 -2.555355888150224 1
gene  2 14 31 -6.21472642718613 0 14.0 -6.21472642718613 1
gene  2 15 31 -13.013013848912738 0 15.0 -13.013013848912738 1
gene  2 16 31 15.588504617132763 0 16.0 15.588504617132763 1
gene  2 17 31 -4.24089936550498 0 17.0 -4.24089936550498 1
gene  2 18 31 -3.5491292578774516 0 18.0 -3.5491292578774516 1
gene  2 19 31 -5.709871621853998 0 19.0 -5.709871621853998 1
gene  2 20 31 0.2264077417602578 0 20.0 0.2264077417602578 1
gene  2 21 31 -11.295238172752898 0 21.0 -11.295238172752898 1
gene  2 22 31 -1.9015439896371569 0 22.0 -1.9015439896371569 1
gene  2 23 31 3.250625723743619 0 23.0 3.250625723743619 1
gene  2 24 31 3.8725974257272973 0 24.0 3.8725974257272973 1
gene  2 25 31 0.7632563787165483 0 25.0 0.7632563787165483 1
gene  2 26 31 -10.383633540399876 0 26.0 -10.383633540399876 1
gene  2 27 31 1.8001401092282858 0 27.0 1.8001401092282858 1
gene  2 28 31 1.2872818880302026 0 28.0 1.2872818880302026 1
gene  2 29 31 4.195602149190483 0 29.0 4.195602149190483 1
gene  2 30 31 1.3565155136655762 0 30.0 1.3565155136655762 1
gene  2 1 32 4.331448078000488 0 31.0 4.331448078000488 1
gene  2 2 32 2.73794105577152 0 32.0 2.73794105577152 1
gene  2 3 32 -2.1055398168285637 0 33.0 -2.1055398168285637 1
gene  2 4 32 0.4025067669178895 0 34.0 0.4025067669178895 1
gene  2 5 32 -4.746531275631778 0 35.0 -4.746531275631778 1
gene  2 6 32 7.820881336829738 0 36.0 7.820881336829738 1
gene  2 7 32 4.470025674842649 0 37.0 4.470025674842649 1
gene  2 8 32 -5.1736418324151625 0 38.0 -5.1736418324151625 1
gene  2 9 32 6.603413743511492 0 39.0 6.603413743511492 1
gene  2 10 32 6.52403369270348 0 40.0 6.52403369270348 1
gene  2 11 32 0.8200385982948719 0 41.0 0.8200385982948719 1
gene  2 12 32 -0.9984232893419128 0 42.0 -0.9984232893419128 1
gene  2 13 32 -4.078734502992955 0 43.0 -4.078734502992955 1
gene  2 14 32 -5.752594835531468 0 44.0 -5.752594835531468 1
gene  2 15 32 -3.0071715504154355 0 45.0 -3.0071715504154355 1
gene  2 16 32 3.549434962066305 0 46.0 3.549434962066305 1
gene  2 17 32 2.2163466742641145 0 47.0 2.2163466742641145 1
gene  2 18 32 1.236525975071448 0 48.0 1.236525975071448 1
gene  2 19 32 3.7789486674855746 0 49.0 3.7789486674855746 0
gene  2 20 32 -1.2164330117837152 0 50.0 -1.2164330117837152 1
gene  2 21 32 22.571690279711603 0 51.0 22.571690279711603 1
gene  2 22 32 -1.500625292466878 0 52.0 -1.500625292466878 1
gene  2 23 32 3.177370698291277 0 53.0 3.177370698291277 1
gene  2 24 32 2.5303513397675608 0 54.0 2.5303513397675608 1
gene  2 25 32 -0.37838638474426944 0 55.0 -0.37838638474426944 1
gene  2 26 32 7.697679666061427 0 56.0 7.697679666061427 1
gene  2 27 32 -5.66460538903069 0 57.0 -5.66460538903069 1
gene  2 28 32 -1.4354698800658308 0 58.0 -1.4354698800658308 1
gene  2 29 32 7.2164266755363045 0 59.0 7.2164266755363045 1
gene  2 30 32 3.149932763637616 0 60.0 3.149932763637616 1
gene  2 1 33 -4.14729007648157 0 61.0 -4.14729007648157 1
gene  2 2 33 -8.058664036856586 0 62.0 -8.058664036856586 1
gene  2 3 33 -2.0760323698286567 0 63.0 -2.0760323698286567 1
gene  2 4 33 3.6669132997585434 0 64.0 3.6669132997585434 1
gene  2 5 33 -2.020142846566907 0 65.0 -2.020142846566907 1
gene  2 6 33 -1.9519892429550243 0 66.0 -1.9519892429550243 1
gene  2 7 33 1.6908539488247776 0 67.0 1.6908539488247776 1
gene  2 8 33 4.541908330726178 0 68.0 4.541908330726178 1
gene  2 9 33 -5.3262956352699184 0 69.0 -5.3262956352699184 1
gene  2 10 33 -6.983958727789457 0 70.0 -6.983958727789457 1
gene  2 11 33 4.309632874849958 0 71.0 4.309632874849958 1
gene  2 12 33 -0.12180749831479498 0 72.0 -0.12180749831479498 1
gene  2 13 33 -4.119396211165605 0 73.0 -4.119396211165605 1
gene  2 14 33 0.10319199862056982 0 74.0 0.10319199862056982 1
gene  2 15 33 12.92570970595414 0 75.0 12.92570970595414 1
gene  2 16 33 -0.3493055866884198 0 76.0 -0.3493055866884198 1
gene  2 17 33 -3.166794895841237 0 77.0 -3.166794895841237 1
gene  2 18 33 1.4613133315867486 0 78.0 1.4613133315867486 1
gene  2 19 33 3.9029695521738734 0 79.0 3.9029695521738734 1
gene  2 20 33 0.5426151283446403 0 80.0 0.5426151283446403 1
gene  2 21 33 4.857556606041595 0 81.0 4.857556606041595 1
gene  2 22 33 -2.8205073320408722 0 82.0 -2.8205073320408722 1
gene  2 23 33 3.837874287052025 0 83.0 3.837874287052025 1
gene  2 24 33 7.1089880904439156 0 84.0 7.1089880904439156 1
gene  2 25 33 -5.519706349337405 0 85.0 -5.519706349337405 1
gene  2 26 33 -8.320492092726106 0 86.0 -8.320492092726106 1
gene  2 27 33 -3.264190558222115 0 87.0 -3.264190558222115 1
gene  2 28 33 -2.8017636263869727 0 88.0 -2.8017636263869727 1
gene  2 29 33 -22.48965739725203 0 89.0 -22.48965739725203 1
gene  2 30 33 -2.932341353668189 0 90.0 -2.932341353668189 1
gene  2 1 34 3.467649218890313 0 91.0 3.467649218890313 1
gene  2 2 34 -8.087470247205339 0 92.0 -8.087470247205339 1
gene  2 3 34 1.186805182970073 0 93.0 1.186805182970073 1
gene  2 4 34 7.067027700043672 0 94.0 7.067027700043672 1
gene  2 5 34 -0.7039742755895453 0 95.0 -0.7039742755895453 1
gene  2 6 34 -1.501811474498436 0 96.0 -1.501811474498436 1
gene  2 7 34 1.1846695338931337 0 97.0 1.1846695338931337 1
gene  2 8 34 -1.7040527515365937 0 98.0 -1.7040527515365937 1
gene  2 9 34 1.4876266057164957 0 99.0 1.4876266057164957 1
gene  2 10 34 4.3300854798128885 0 100.0 4.3300854798128885 1
gene  2 11 34 -1.711300123161566 0 101.0 -1.711300123161566 1
gene  2 12 34 -3.869984613251212 0 102.0 -3.869984613251212 1
gene  2 13 34 0.5615131028044553 0 103.0 0.5615131028044553 1
gene  2 14 34 4.0379257730854725 0 104.0 4.0379257730854725 1
gene  2 15 34 19.535979258548636 0 105.0 19.535979258548636 1
gene  2 16 34 0.4376018092081455 0 106.0 0.4376018092081455 1
gene  2 17 34 3.280222694474804 0 107.0 3.280222694474804 1
gene  2 18 34 -1.8048071842632853 0 108.0 -1.8048071842632853 1
gene  2 19 34 -5.693776641753521 0 109.0 -5.693776641753521 1
gene  2 20 34 1.2651051356892107 0 110.0 1.2651051356892107 1
gene  2 21 34 -1.6377162070872484 0 111.0 -1.6377162070872484 1
gene  2 22 34 4.474122004580865 0 112.0 4.474122004580865 1
gene  2 23 34 5.514296618450295 0 113.0 5.514296618450295 1
gene  2 24 34 -0.4161031683816089 0 114.0 -0.4161031683816089 1
gene  2 25 34 0.4908148549786092 0 115.0 0.4908148549786092 1
gene  2 26 34 -1.2145873808312897 0 116.0 -1.2145873808312897 1
gene  2 27 34 -3.4265460252237303 0 117.0 -3.4265460252237303 1
gene  2 28 34 2.798392549608084 0 118.0 2.798392549608084 1
gene  2 29 34 1.1177324150935655 0 119.0 1.1177324150935655 1
gene  2 30 34 -5.185334877308454 0 120.0 -5.185334877308454 1
gene  2 1 35 -11.98674163801459 0 121.0 -11.98674163801459 1
gene  2 2 35 -1.4865917202414314 0 122.0 -1.4865917202414314 1
gene  2 3 35 1.0337616305753397 0 123.0 1.0337616305753397 1
gene  2 4 35 -6.762165185715803 0 124.0 -6.762165185715803 0
gene  2 5 35 0.05926997841162507 0 125.0 0.05926997841162507 1
gene  2 6 35 -2.260955120179239 0 126.0 -2.260955120179239 1
gene  2 7 35 -4.3829966177004716 0 127.0 -4.3829966177004716 1
gene  2 8 35 0.844114096416624 0 128.0 0.844114096416624 1
gene  2 9 35 2.218329172607446 0 129.0 2.218329172607446 1
gene  2 10 35 -1.8614840397092867 0 130.0 -1.8614840397092867 1
gene  2 11 35 3.547352187885101 0 131.0 3.547352187885101 1
gene  2 12 35 0.4258376845599927 0 132.0 0.4258376845599927 1
gene  2 13 35 -2.0277311268380007 0 133.0 -2.0277311268380007 1
gene  2 14 35 5.605640238082769 0 134.0 5.605640238082769 1
gene  2 15 35 0.676166953200025 0 135.0 0.676166953200025 1
gene  2 16 35 1.2768001999440481 0 136.0 1.2768001999440481 1
gene  2 17 35 -3.324802834429673 0 137.0 -3.324802834429673 1
gene  2 18 35 -11.529079361954174 0 138.0 -11.529079361954174 1
gene  2 19 35 0.5329718885794856 0 139.0 0.5329718885794856 1
gene  2 20 35 -1.8464194437568264 0 140.0 -1.8464194437568264 1
gene  2 21 35 -0.11955269413767067 0 141.0 -0.11955269413767067 1
gene  2 22 35 0.22329531628356314 0 142.0 0.22329531628356314 1
gene  2 23 35 -2.9486073238391306 0 143.0 -2.9486073238391306 1
gene  2 24 35 1.6639357311767613 0 144.0 1.6639357311767613 1
gene  2 25 35 3.596001079911485 0 145.0 3.596001079911485 1
gene  2 26 35 2.5080617573804806 0 146.0 2.5080617573804806 1
gene  2 27 35 5.55567234487512 0 147.0 5.55567234487512 1
gene  2 28 35 5.633503281171678 0 148.0 5.633503281171678 1
gene  2 29 35 -7.80277148941196 0 149.0 -7.80277148941196 1
gene  2 30 35 -4.692195397039878 0 150.0 -4.692195397039878 1
gene  2 1 36 4.850309732702135 0 151.0 4.850309732702135 1
gene  2 2 36 1.7510668932707694 0 152.0 1.7510668932707694 1
gene  2 3 36 -0.5740990434854902 0 153.0 -0.5740990434854902 1
gene  2 4 36 -2.440674298446277 0 154.0 -2.440674298446277 1
gene  2 5 36 0.8116348536873459 0 155.0 0.8116348536873459 1
gene  2 6 36 -4.008113330211045 0 156.0 -4.008113330211045 1
gene  2 7 36 -4.288254197486053 0 157.0 -4.288254197486053 1
gene  2 8 36 4.875785944240422 0 158.0 4.875785944240422 1
gene  2 9 36 -5.4038960764287385 0 159.0 -5.4038960764287385 1
gene  2 10 36 -0.10711928588589159 0 160.0 -0.10711928588589159 1
gene  2 11 36 -4.634267383158764 0 161.0 -4.634267383158764 1
gene  2 12 36 -2.8531043828843505 0 162.0 -2.8531043828843505 1
gene  2 13 36 2.3622093034007765 0 163.0 2.3622093034007765 1
gene  2 14 36 3.436371538404061 0 164.0 3.436371538404061 1
gene  2 15 36 -4.3530837622222345 0 165.0 -4.3530837622222345 1
gene  2 16 36 -1.79188625184248 0 166.0 -1.79188625184248 1
gene  2 17 36 2.182961719144348 0 167.0 2.182961719144348 1
gene  2 18 36 -1.404166056690596 0 168.0 -1.404166056690596 1
gene  2 19 36 3.895157688974824 0 169.0 3.895157688974824 1
gene  2 20 36 2.1732693555435816 0 170.0 2.1732693555435816 1
gene  2 21 36 -2.647827008734243 0 171.0 -2.647827008734243 1
gene  2 22 36 0.8558458087534088 0 172.0 0.8558458087534088 1
gene  2 23 36 0.8101296065557957 0 173.0 0.8101296065557957 1
gene  2 24 36 -6.617957678081011 0 174.0 -6.617957678081011 1
gene  2 25 36 -1.626896741332276 0 175.0 -1.626896741332276 1
gene  2 26 36 -0.08737038423602828 0 176.0 -0.08737038423602828 0
gene  2 27 36 3.4910479835977726 0 177.0 3.4910479835977726 1
gene  2 28 36 -0.38178116176740406 0 178.0 -0.38178116176740406 1
gene  2 29 36 -0.02717977965894569 0 179.0 -0.02717977965894569 1
gene  2 30 36 -0.011918514956500148 0 180.0 -0.011918514956500148 1
gene  2 15 39 1.1597003147319245 0 188.0 1.1597003147319245 1
gene  2 39 35 2.682579199943977 0 189.0 2.682579199943977 1
gene  2 23 39 0.4970049421076741 0 207.0 0.4970049421076741 1
gene  2 31 33 0.933898546361425 0 249.0 0.933898546361425 1
gene  2 26 55 -1.9588594417066805 0 256.0 -1.9588594417066805 1
gene  2 55 33 -1.615546926973243 0 257.0 -1.615546926973243 1
gene  2 19 59 -1.4294965297238007 0 273.0 -1.4294965297238007 1
gene  2 59 32 -2.218348579354565 0 274.0 -2.218348579354565 1
gene  2 12 39 -0.2936868446996843 0 277.0 -0.2936868446996843 1
gene  2 24 55 -2.3807283241282553 0 307.0 -2.3807283241282553 1
gene  2 59 33 -3.48366705006535 0 327.0 -3.48366705006535 1
gene  1 3 59 3.1637747087560832 0 362.0 3.1637747087560832 1
gene  2 4 74 -5.062875041119711 0 366.0 -5.062875041119711 1
gene  2 74 35 6.9404959193255955 0 367.0 6.9404959193255955 1
gene  1 29 59 0.11517724761098108 0 389.0 0.11517724761098108 1
gene  2 23 88 -5.869825396936093 0 441.0 -5.869825396936093 1
gene  2 88 32 1.201497724886429 0 442.0 1.201497724886429 1
gene  1 13 74 0.34498694069024005 0 547.0 0.34498694069024005 1
gene  2 26 118 -1.38840237012 0 569.0 -1.38840237012 1
gene  2 118 36 -2.354719875632794 0 570.0 -2.354719875632794 1
gene  2 25 122 4.082508020174118 0 581.0 4.082508020174118 1
gene  2 122 33 -0.42607128997394983 0 582.0 -0.42607128997394983 1
gene  1 122 32 1.7359361095349102 0 644.0 1.7359361095349102 1
genomeend 0
genomestart  1
trait 1 0.1 0.0 0.0 0.1693715065667284 0.0 0.10306735906291292 0.33859219751694225 0.0 
trait 2 0.9846326489587565 0.06104451854167903 0.0 0.0 0.0 0.41760394713775695 1.3725535162819755 0.0 
node 1 1 1 3
node 2 1 1 1
node 3 1 1 1
node 4 1 1 1
node 5 1 1 1
node 6 1 1 1
node 7 1 1 1
node 8 1 1 1
node 9 1 1 1
node 10 2 1 1
node 11 1 1 1
node 12 1 1 1
node 13 1 1 1
node 14 1 1 1
node 15 1 1 1
node 16 1 1 1
node 17 1 1 1
node 18 1 1 1
node 19 1 1 1
node 20 1 1 1
node 21 1 1 1
node 22 1 1 1
node 23 1 1 1
node 24 1 1 1
node 25 1 1 1
node 26 1 1 1
node 27 1 1 1
node 28 2 1 1
node 29 1 1 1
node 30 2 1 1
node 31 1 0 2
node 32 1 0 2
node 33 1 0 2
node 34 1 0 2
node 35 1 0 2
node 36 1 0 2
node 39 1 0 0
node 55 1 0 0
node 59 1 0 0
node 74 1 0 0
node 88 1 0 0
node 118 1 0 0
node 122 1 0 0
gene  1 1 31 -13.695607545811841 0 1.0 -13.695607545811841 1
gene  2 2 31 1.4018845907681527 0 2.0 1.4018845907681527 1
gene  2 3 31 -2.038771291763009 0 3.0 -2.038771291763009 1
gene  2 4 31 -4.80186149840304 0 4.0 -4.80186149840304 1
gene  2 5 31 2.780897831512249 0 5.0 2.780897831512249 1
gene  2 6 31 -0.8259649951761783 0 6.0 -0.8259649951761783 1
gene  2 7 31 1.9674158135860909 0 7.0 1.9674158135860909 1
gene  2 8 31 -7.353214406522065 0 8.0 -7.353214406522065 1
gene  2 9 31 7.432513784070245 0 9.0 7.432513784070245 1
gene  2 10 31 4.003002369673482 0 10.0 4.003002369673482 1
gene  2 11 31 -2.5276443505616157 0 11.0 -2.5276443505616157 1
gene  2 12 31 -2.2949100519381025 0 12.0 -2.2949100519381025 1
gene  2 13 31 -1.3012993608156647 0 13.0 -1.3012993608156647 1
gene  2 14 31 -7.503371440779848 0 14.0 -7.503371440779848 1
gene  2 15 31 -12.325350581603464 0 15.0 -12.325350581603464 1
gene  2 16 31 14.301773513945044 0 16.0 14.301773513945044 1
gene  2 17 31 -5.3552080825337605 0 17.0 -5.3552080825337605 1
gene  2 18 31 -1.8401853956331462 0 18.0 -1.8401853956331462 1
gene  2 19 31 -3.8453993032965217 0 19.0 -3.8453993032965217 1
gene  2 20 31 2.320383817422595 0 20.0 2.320383817422595 1
gene  2 21 31 2.4430861706674354 0 21.0 2.4430861706674354 1
gene  2 22 31 -1.4196649988006436 0 22.0 -1.4196649988006436 1
gene  2 23 31 3.4110184447473952 0 23.0 3.4110184447473952 1
gene  2 24 31 -0.05391394355904827 0 24.0 -0.05391394355904827 1
gene  2 25 31 -1.0444637230548717 0 25.0 -1.0444637230548717 1
gene  2 26 31 -12.716454041717308 0 26.0 -12.716454041717308 1
gene  2 27 31 2.1464158416024337 0 27.0 2.1464158416024337 1
gene  2 28 31 0.46763888850997004 0 28.0 0.46763888850997004 1
gene  2 29 31 3.2495479359347357 0 29.0 3.2495479359347357 1
gene  2 30 31 2.3151000252339573 0 30.0 2.3151000252339573 1
gene  2 1 32 5.378397618688142 0 31.0 5.378397618688142 1
gene  2 2 32 2.423535578715001 0 32.0 2.423535578715001 1
gene  2 3 32 -3.206877429020687 0 33.0 -3.206877429020687 1
gene  2 4 32 2.617240526146199 0 34.0 2.617240526146199 1
gene  2 5 32 -6.3539385963017345 0 35.0 -6.3539385963017345 1
gene  2 6 32 7.820881336829738 0 36.0 7.820881336829738 1
gene  2 7 32 3.1202487515798287 0 37.0 3.1202487515798287 1
gene  2 8 32 -5.297131740162901 0 38.0 -5.297131740162901 1
gene  2 9 32 7.912864386344781 0 39.0 7.912864386344781 1
gene  2 10 32 8.996930284481557 0 40.0 8.996930284481557 1
gene  2 11 32 2.728145931895247 0 41.0 2.728145931895247 1
gene  2 12 32 1.2900407792429216 0 42.0 1.2900407792429216 1
gene  2 13 32 -2.7134191423782132 0 43.0 -2.7134191423782132 1
gene  2 14 32 -6.485430617406578 0 44.0 -6.485430617406578 1
gene  2 15 32 -0.21049935324443186 0 45.0 -0.21049935324443186 1
gene  2 16 32 4.796566520539656 0 46.0 4.796566520539656 1
gene  2 17 32 -0.17199076567047955 0 47.0 -0.17199076567047955 1
gene  2 18 32 -0.7855528888554573 0 48.0 -0.7855528888554573 1
gene  2 19 32 5.819268190887943 0 49.0 5.819268190887943 0
gene  2 20 32 -3.166232051047195 0 50.0 -3.166232051047195 1
gene  2 21 32 22.474087102927037 0 51.0 22.474087102927037 1
gene  2 22 32 -0.8024681741013696 0 52.0 -0.8024681741013696 1
gene  2 23 32 4.542446534091028 0 53.0 4.542446534091028 1
gene  2 24 32 2.270509728259979 0 54.0 2.270509728259979 1
gene  2 25 32 -0.5959263112845614 0 55.0 -0.5959263112845614 1
gene  2 26 32 5.198524334426369 0 56.0 5.198524334426369 1
gene  2 27 32 -7.503325061369374 0 57.0 -7.503325061369374 1
gene  2 28 32 -3.2824205782717337 0 58.0 -3.2824205782717337 1
gene  2 29 32 2.474872561749741 0 59.0 2.474872561749741 1
gene  2 30 32 4.83773286453736 0 60.0 4.83773286453736 1
gene  2 1 33 -1.3298431762987393 0 61.0 -1.3298431762987393 1
gene  2 2 33 -6.956717041555009 0 62.0 -6.956717041555009 1
gene  2 3 33 -3.292225057874746 0 63.0 -3.292225057874746 1
gene  2 4 33 1.2996825028940262 0 64.0 1.2996825028940262 1
gene  2 5 33 -2.11689065646497 0 65.0 -2.11689065646497 1
gene  2 6 33 -2.5870123071256246 0 66.0 -2.5870123071256246 1
gene  2 7 33 2.0788697834720855 0 67.0 2.0788697834720855 1
gene  2 8 33 -1.2131397485349664 0 68.0 -1.2131397485349664 1
gene  2 9 33 -3.8868113438816527 0 69.0 -3.8868113438816527 1
gene  2 10 33 -7.141141342627159 0 70.0 -7.141141342627159 1
gene  2 11 33 2.8519706447843505 0 71.0 2.8519706447843505 1
gene  2 12 33 1.4878588955718737 0 72.0 1.4878588955718737 1
gene  2 13 33 -4.926844300083003 0 73.0 -4.926844300083003 1
gene  2 14 33 -0.9662228162070199 0 74.0 -0.9662228162070199 1
gene  2 15 33 12.92570970595414 0 75.0 12.92570970595414 1
gene  2 16 33 -0.3493055866884198 0 76.0 -0.3493055866884198 1
gene  2 17 33 -3.166794895841237 0 77.0 -3.166794895841237 1
gene  2 18 33 3.308890943017567 0 78.0 3.308890943017567 1
gene  2 19 33 1.2718211913658448 0 79.0 1.2718211913658448 1
gene  2 20 33 2.6781800994492873 0 80.0 2.6781800994492873 1
gene  2 21 33 4.857556606041595 0 81.0 4.857556606041595 1
gene  2 22 33 -3.075848016726545 0 82.0 -3.075848016726545 1
gene  2 23 33 3.837874287052025 0 83.0 3.837874287052025 1
gene  2 24 33 5.389429263843271 0 84.0 5.389429263843271 1
gene  2 25 33 -5.519706349337405 0 85.0 -5.519706349337405 1
gene  2 26 33 -8.20097749083624 0 86.0 -8.20097749083624 1
gene  2 27 33 -3.264190558222115 0 87.0 -3.264190558222115 1
gene  2 28 33 -3.525702452326107 0 88.0 -3.525702452326107 1
gene  2 29 33 -23.117071412924595 0 89.0 -23.117071412924595 1
gene  2 30 33 -2.2362051799686764 0 90.0 -2.2362051799686764 1
gene  2 1 34 5.474035478607469 0 91.0 5.474035478607469 1
gene  2 2 34 -8.458911279799375 0 92.0 -8.458911279799375 1
gene  2 3 34 -0.8729128838378672 0 93.0 -0.8729128838378672 1
gene  2 4 34 7.067027700043672 0 94.0 7.067027700043672 1
gene  2 5 34 1.2379481634813423 0 95.0 1.2379481634813423 1
gene  2 6 34 -3.273769225012522 0 96.0 -3.273769225012522 1
gene  2 7 34 0.9814195301409956 0 97.0 0.9814195301409956 1
gene  2 8 34 -0.6808783152293113 0 98.0 -0.6808783152293113 1
gene  2 9 34 0.22142752377232755 0 99.0 0.22142752377232755 1
gene  2 10 34 6.789039020846493 0 100.0 6.789039020846493 1
gene  2 11 34 -0.7865196046578691 0 101.0 -0.7865196046578691 1
gene  2 12 34 -3.0645352651149116 0 102.0 -3.0645352651149116 1
gene  2 13 34 -0.8823911803111182 0 103.0 -0.8823911803111182 1
gene  2 14 34 -0.6502699004244958 0 104.0 -0.6502699004244958 1
gene  2 15 34 19.535979258548636 0 105.0 19.535979258548636 1
gene  2 16 34 -1.5135549968520938 0 106.0 -1.5135549968520938 1
gene  2 17 34 4.406161891811233 0 107.0 4.406161891811233 1
gene  2 18 34 -0.39515169084801405 0 108.0 -0.39515169084801405 1
gene  2 19 34 -7.04061801811611 0 109.0 -7.04061801811611 1
gene  2 20 34 -1.1619300445820708 0 110.0 -1.1619300445820708 1
gene  2 21 34 0.4544270699221009 0 111.0 0.4544270699221009 1
gene  2 22 34 -2.3966128444903516 0 112.0 -2.3966128444903516 1
gene  2 23 34 7.537585481560474 0 113.0 7.537585481560474 1
gene  2 24 34 -2.0033341939456535 0 114.0 -2.0033341939456535 1
gene  2 25 34 2.597932259045369 0 115.0 2.597932259045369 1
gene  2 26 34 -1.2145873808312897 0 116.0 -1.2145873808312897 1
gene  2 27 34 -3.4265460252237303 0 117.0 -3.4265460252237303 1
gene  2 28 34 -1.9873570314408244 0 118.0 -1.9873570314408244 1
gene  2 29 34 -1.307553627586762 0 119.0 -1.307553627586762 1
gene  2 30 34 -2.8875569376877888 0 120.0 -2.8875569376877888 1
gene  2 1 35 -11.64208197456413 0 121.0 -11.64208197456413 1
gene  2 2 35 -2.801354308314516 0 122.0 -2.801354308314516 1
gene  2 3 35 1.0337616305753397 0 123.0 1.0337616305753397 1
gene  2 4 35 1.746297699543911 0 124.0 1.746297699543911 0
gene  2 5 35 -1.6917889539576594 0 125.0 -1.6917889539576594 1
gene  2 6 35 -2.91547074786174 0 126.0 -2.91547074786174 1
gene  2 7 35 -4.3829966177004716 0 127.0 -4.3829966177004716 1
gene  2 8 35 -1.2753515911690687 0 128.0 -1.2753515911690687 1
gene  2 9 35 0.35139248380682664 0 129.0 0.35139248380682664 1
gene  2 10 35 -4.091661730938748 0 130.0 -4.091661730938748 1
gene  2 11 35 1.7292766746769774 0 131.0 1.7292766746769774 1
gene  2 12 35 2.3850318579058545 0 132.0 2.3850318579058545 1
gene  2 13 35 -1.7597148755514973 0 133.0 -1.7597148755514973 1
gene  2 14 35 4.804006770016307 0 134.0 4.804006770016307 1
gene  2 15 35 -0.995856609724096 0 135.0 -0.995856609724096 1
gene  2 16 35 0.8436657425609109 0 136.0 0.8436657425609109 1
gene  2 17 35 0.811935362924975 0 137.0 0.811935362924975 1
gene  2 18 35 -10.321208128506349 0 138.0 -10.321208128506349 1
gene  2 19 35 2.7353987644473587 0 139.0 2.7353987644473587 1
gene  2 20 35 -4.066214178080148 0 140.0 -4.066214178080148 1
gene  2 21 35 -0.5929865130023269 0 141.0 -0.5929865130023269 1
gene  2 22 35 0.32740553253364296 0 142.0 0.32740553253364296 1
gene  2 23 35 -2.1842446762684182 0 143.0 -2.1842446762684182 1
gene  2 24 35 3.427855074703687 0 144.0 3.427855074703687 1
gene  2 25 35 3.244248461115332 0 145.0 3.244248461115332 1
gene  2 26 35 0.40381670822331817 0 146.0 0.40381670822331817 1
gene  2 27 35 3.779086675623131 0 147.0 3.779086675623131 1
gene  2 28 35 5.612777066949837 0 148.0 5.612777066949837 1
gene  2 29 35 -5.334586622316758 0 149.0 -5.334586622316758 1
gene  2 30 35 -4.528280239246939 0 150.0 -4.528280239246939 1
gene  2 1 36 3.8852517982652857 0 151.0 3.8852517982652857 1
gene  2 2 36 2.921234853274008 0 152.0 2.921234853274008 1
gene  2 3 36 1.2875785129449557 0 153.0 1.2875785129449557 1
gene  2 4 36 -2.6106547520224987 0 154.0 -2.6106547520224987 1
gene  2 5 36 1.4818094478444703 0 155.0 1.4818094478444703 1
gene  2 6 36 -2.8114878851504743 0 156.0 -2.8114878851504743 1
gene  2 7 36 -3.625084282698726 0 157.0 -3.625084282698726 1
gene  2 8 36 1.181073584075999 0 158.0 1.181073584075999 1
gene  2 9 36 1.7050368247665202 0 159.0 1.7050368247665202 1
gene  2 10 36 -0.23398578006344373 0 160.0 -0.23398578006344373 1
gene  2 11 36 -2.5154549893856437 0 161.0 -2.5154549893856437 1
gene  2 12 36 -4.79441425775776 0 162.0 -4.79441425775776 1
gene  2 13 36 3.118780195633531 0 163.0 3.118780195633531 1
gene  2 14 36 -0.5768319954575024 0 164.0 -0.5768319954575024 1
gene  2 15 36 -2.4948086450709717 0 165.0 -2.4948086450709717 1
gene  2 16 36 -2.9399564639093323 0 166.0 -2.9399564639093323 1
gene  2 17 36 2.182961719144348 0 167.0 2.182961719144348 1
gene  2 18 36 -1.3935306574762387 0 168.0 -1.3935306574762387 1
gene  2 19 36 2.8824044827651845 0 169.0 2.8824044827651845 1
gene  2 20 36 2.409025030140841 0 170.0 2.409025030140841 1
gene  2 21 36 -4.410768048738508 0 171.0 -4.410768048738508 1
gene  2 22 36 2.453241433017332 0 172.0 2.453241433017332 1
gene  2 23 36 2.857372596545169 0 173.0 2.857372596545169 1
gene  2 24 36 -4.3538724593131715 0 174.0 -4.3538724593131715 1
gene  2 25 36 -0.5426826597641214 0 175.0 -0.5426826597641214 1
gene  2 26 36 -2.1143198970875363 0 176.0 -2.1143198970875363 0
gene  2 27 36 3.4745514193899214 0 177.0 3.4745514193899214 1
gene  2 28 36 -1.3849884036059867 0 178.0 -1.3849884036059867 1
gene  2 29 36 1.8284269057326163 0 179.0 1.8284269057326163 1
gene  2 30 36 2.3587421990325055 0 180.0 2.3587421990325055 1
gene  2 15 39 -2.3061309763934976 0 188.0 -2.3061309763934976 1
gene  2 39 35 1.42978677108734 0 189.0 1.42978677108734 1
gene  2 23 39 0.6877010619371443 0 207.0 0.6877010619371443 1
gene  2 31 33 1.8031079452091507 0 249.0 1.8031079452091507 1
gene  2 26 55 -1.9588594417066805 0 256.0 -1.9588594417066805 1
gene  2 55 33 0.7247871381918982 0 257.0 0.7247871381918982 1
gene  2 19 59 -1.4294965297238007 0 273.0 -1.4294965297238007 1
gene  2 59 32 -3.9103493495822557 0 274.0 -3.9103493495822557 1
gene  2 12 39 2.064887068597513 0 277.0 2.064887068597513 1
gene  2 24 55 -1.51989380799399 0 307.0 -1.51989380799399 1
gene  2 59 33 -2.4530780495475697 0 327.0 -2.4530780495475697 1
gene  1 3 59 3.1637747087560832 0 362.0 3.1637747087560832 1
gene  2 4 74 -5.378837326241188 0 366.0 -5.378837326241188 1
gene  2 74 35 6.391408078608382 0 367.0 6.391408078608382 1
gene  1 29 59 0.12014206675936556 0 389.0 0.12014206675936556 1
gene  2 23 88 -7.384107316717959 0 441.0 -7.384107316717959 1
gene  2 88 32 0.03603642579338473 0 442.0 0.03603642579338473 1
gene  1 13 74 1.1046277243486649 0 547.0 1.1046277243486649 1
gene  2 26 118 2.310887921892101 0 569.0 2.310887921892101 1
gene  2 118 36 -3.2582594108999294 0 570.0 -3.2582594108999294 1
gene  2 25 122 -1.5676674099513457 0 581.0 -1.5676674099513457 1
gene  2 122 33 0.7823532537587565 0 582.0 0.7823532537587565 1
gene  1 122 32 3.013518134679809 0 644.0 3.013518134679809 1
genomeend 1
genomestart  2
trait 1 0.1 0.0 0.0 0.1693715065667284 0.0 0.10306735906291292 0.33859219751694225 0.0 
trait 2 0.9846326489587565 0.06104451854167903 0.0 0.0 0.0 0.41760394713775695 1.3725535162819755 0.0 
node 1 1 1 3
node 2 1 1 1
node 3 1 1 1
node 4 1 1 1
node 5 1 1 1
node 6 1 1 1
node 7 1 1 1
node 8 1 1 1
node 9 1 1 1
node 10 2 1 1
node 11 1 1 1
node 12 1 1 1
node 13 1 1 1
node 14 1 1 1
node 15 1 1 1
node 16 1 1 1
node 17 1 1 1
node 18 1 1 1
node 19 1 1 1
node 20 1 1 1
node 21 1 1 1
node 22 1 1 1
node 23 1 1 1
node 24 1 1 1
node 25 1 1 1
node 26 1 1 1
node 27 1 1 1
node 28 2 1 1
node 29 1 1 1
node 30 2 1 1
node 31 1 0 2
node 32 1 0 2
node 33 1 0 2
node 34 1 0 2
node 35 1 0 2
node 36 1 0 2
node 39 1 0 0
node 55 1 0 0
node 59 1 0 0
node 74 1 0 0
node 88 1 0 0
node 118 1 0 0
node 122 1 0 0
gene  1 1 31 -14.661370014588824 0 1.0 -14.661370014588824 1
gene  2 2 31 2.508164295727917 0 2.0 2.508164295727917 1
gene  2 3 31 -5.539918865026944 0 3.0 -5.539918865026944 1
gene  2 4 31 -5.8615953427165755 0 4.0 -5.8615953427165755 1
gene  2 5 31 3.237013398770059 0 5.0 3.237013398770059 1
gene  2 6 31 1.1845967762099565 0 6.0 1.1845967762099565 1
gene  2 7 31 -2.4058114964365016 0 7.0 -2.4058114964365016 1
gene  2 8 31 -0.9510967045694132 0 8.0 -0.9510967045694132 1
gene  2 9 31 9.34215409870605 0 9.0 9.34215409870605 1
gene  2 10 31 6.821885377541031 0 10.0 6.821885377541031 1
gene  2 11 31 0.7856203590209948 0 11.0 0.7856203590209948 1
gene  2 12 31 3.3544120678095233 0 12.0 3.3544120678095233 1
gene  2 13 31 -2.4334784903491666 0 13.0 -2.4334784903491666 1
gene  2 14 31 -3.3163821267416305 0 14.0 -3.3163821267416305 1
gene  2 15 31 -12.615448690594135 0 15.0 -12.615448690594135 1
gene  2 16 31 17.58469278463046 0 16.0 17.58469278463046 1
gene  2 17 31 -6.711877300850576 0 17.0 -6.711877300850576 1
gene  2 18 31 -3.2569356238567986 0 18.0 -3.2569356238567986 1
gene  2 19 31 -4.999944725048593 0 19.0 -4.999944725048593 1
gene  2 20 31 -1.1246000243962175 0 20.0 -1.1246000243962175 1
gene  2 21 31 -10.185972149051013 0 21.0 -10.185972149051013 1
gene  2 22 31 -3.5499973536562006 0 22.0 -3.5499973536562006 1
gene  2 23 31 2.933469421735177 0 23.0 2.933469421735177 1
gene  2 24 31 3.0890659542265912 0 24.0 3.0890659542265912 1
gene  2 25 31 0.6445822834460704 0 25.0 0.6445822834460704 1
gene  2 26 31 -12.847493131431168 0 26.0 -12.847493131431168 1
gene  2 27 31 -0.29835095741687856 0 27.0 -0.29835095741687856 1
gene  2 28 31 1.623663499983797 0 28.0 1.623663499983797 1
gene  2 29 31 7.92453234454354 0 29.0 7.92453234454354 1
gene  2 30 31 5.532697006531496 0 30.0 5.532697006531496 1
gene  2 1 32 -1.817437163450114 0 31.0 -1.817437163450114 1
gene  2 2 32 3.0466633229583544 0 32.0 3.0466633229583544 1
gene  2 3 32 -3.0262855240530118 0 33.0 -3.0262855240530118 1
gene  2 4 32 -0.2919345761780119 0 34.0 -0.2919345761780119 1
gene  2 5 32 -1.038097577071197 0 35.0 -1.038097577071197 1
gene  2 6 32 9.328431029778667 0 36.0 9.328431029778667 1
gene  2 7 32 5.992184182603312 0 37.0 5.992184182603312 1
gene  2 8 32 -7.9576482824344845 0 38.0 -7.9576482824344845 1
gene  2 9 32 7.149730725149743 0 39.0 7.149730725149743 1
gene  2 10 32 -0.9090448567464782 0 40.0 -0.9090448567464782 1
gene  2 11 32 2.02962484084048 0 41.0 2.02962484084048 1
gene  2 12 32 -2.381627129395571 0 42.0 -2.381627129395571 1
gene  2 13 32 -6.505526864664392 0 43.0 -6.505526864664392 1
gene  2 14 32 -10.473471320029253 0 44.0 -10.473471320029253 1
gene  2 15 32 -0.524270144864003 0 45.0 -0.524270144864003 1
gene  2 16 32 6.065198321613488 0 46.0 6.065198321613488 1
gene  2 17 32 1.9430645035440175 0 47.0 1.9430645035440175 1
gene  2 18 32 5.598159693792855 0 48.0 5.598159693792855 1
gene  2 19 32 0.47047494016080077 0 49.0 0.47047494016080077 0
gene  2 20 32 3.4032202871120623 0 50.0 3.4032202871120623 1
gene  2 21 32 -1.5192099391721838 0 51.0 -1.5192099391721838 1
gene  2 22 32 -3.1526773958237895 0 52.0 -3.1526773958237895 1
gene  2 23 32 -0.9851219490794947 0 53.0 -0.9851219490794947 1
gene  2 24 32 2.7048030014364537 0 54.0 2.7048030014364537 1
gene  2 25 32 0.4651019151744854 0 55.0 0.4651019151744854 1
gene  2 26 32 6.4417793130716285 0 56.0 6.4417793130716285 1
gene  2 27 32 -1.5937670378339386 0 57.0 -1.5937670378339386 1
gene  2 28 32 -2.1846830156836003 0 58.0 -2.1846830156836003 1
gene  2 29 32 5.927406711873141 0 59.0 5.927406711873141 1
gene  2 30 32 2.230946047699601 0 60.0 2.230946047699601 1
gene  2 1 33 -4.111368704661537 0 61.0 -4.111368704661537 1
gene  2 2 33 -5.464729746672042 0 62.0 -5.464729746672042 1
gene  2 3 33 -4.522215446194918 0 63.0 -4.522215446194918 1
gene  2 4 33 5.951375174368756 0 64.0 5.951375174368756 1
gene  2 5 33 -1.8370304319665323 0 65.0 -1.8370304319665323 1
gene  2 6 33 -2.586782889125904 0 66.0 -2.586782889125904 1
gene  2 7 33 4.2286800313911534 0 67.0 4.2286800313911534 1
gene  2 8 33 2.0389229039557617 0 68.0 2.0389229039557617 1
gene  2 9 33 -2.726646287855264 0 69.0 -2.726646287855264 1
gene  2 10 33 -7.457107426053782 0 70.0 -7.457107426053782 1
gene  2 11 33 1.8434185854730825 0 71.0 1.8434185854730825 1
gene  2 12 33 -0.21148968134325846 0 72.0 -0.21148968134325846 1
gene  2 13 33 -3.4224183789796676 0 73.0 -3.4224183789796676 1
gene  2 14 33 1.4945845116584189 0 74.0 1.4945845116584189 1
gene  2 15 33 10.967887374162547 0 75.0 10.967887374162547 1
gene  2 16 33 4.162749025161911 0 76.0 4.162749025161911 1
gene  2 17 33 -2.4785976568506243 0 77.0 -2.4785976568506243 1
gene  2 18 33 3.776760955910616 0 78.0 3.776760955910616 1
gene  2 19 33 -0.28475359084360663 0 79.0 -0.28475359084360663 1
gene  2 20 33 -3.0285061242715123 0 80.0 -3.0285061242715123 1
gene  2 21 33 5.099761663249926 0 81.0 5.099761663249926 1
gene  2 22 33 0.23358013030451064 0 82.0 0.23358013030451064 1
gene  2 23 33 5.80897302397516 0 83.0 5.80897302397516 1
gene  2 24 33 1.0212426701598325 0 84.0 1.0212426701598325 1
gene  2 25 33 -6.706471177836984 0 85.0 -6.706471177836984 1
gene  2 26 33 -4.804129664051063 0 86.0 -4.804129664051063 1
gene  2 27 33 -5.92143985848114 0 87.0 -5.92143985848114 1
gene  2 28 33 -3.7024744621808767 0 88.0 -3.7024744621808767 1
gene  2 29 33 -27.080008127541117 0 89.0 -27.080008127541117 1
gene  2 30 33 -3.566086165933363 0 90.0 -3.566086165933363 1
gene  2 1 34 2.622549529243077 0 91.0 2.622549529243077 1
gene  2 2 34 -10.985182214967308 0 92.0 -10.985182214967308 1
gene  2 3 34 2.4751342617345653 0 93.0 2.4751342617345653 1
gene  2 4 34 6.972844511562872 0 94.0 6.972844511562872 1
gene  2 5 34 -0.4969991766004597 0 95.0 -0.4969991766004597 1
gene  2 6 34 -3.6771689870589306 0 96.0 -3.6771689870589306 1
gene  2 7 34 -1.6889137705663435 0 97.0 -1.6889137705663435 1
gene  2 8 34 -0.603551916237566 0 98.0 -0.603551916237566 1
gene  2 9 34 0.19685071868425208 0 99.0 0.19685071868425208 1
gene  2 10 34 -0.7103339856541084 0 100.0 -0.7103339856541084 1
gene  2 11 34 -1.1885357027182044 0 101.0 -1.1885357027182044 1
gene  2 12 34 -1.47408808588388 0 102.0 -1.47408808588388 1
gene  2 13 34 2.418246775404264 0 103.0 2.418246775404264 1
gene  2 14 34 5.995653125375503 0 104.0 5.995653125375503 1
gene  2 15 34 22.917892522508698 0 105.0 22.917892522508698 1
gene  2 16 34 1.7285368888846113 0 106.0 1.7285368888846113 1
gene  2 17 34 4.0937020448581185 0 107.0 4.0937020448581185 1
gene  2 18 34 -3.457592408969391 0 108.0 -3.457592408969391 1
gene  2 19 34 -2.194982031434879 0 109.0 -2.194982031434879 1
gene  2 20 34 -2.1061755977888335 0 110.0 -2.1061755977888335 1
gene  2 21 34 1.9752123184544006 0 111.0 1.9752123184544006 1
gene  2 22 34 6.18595300472715 0 112.0 6.18595300472715 1
gene  2 23 34 7.251769699868726 0 113.0 7.251769699868726 1
gene  2 24 34 1.7795834597416929 0 114.0 1.7795834597416929 1
gene  2 25 34 -1.2440972926806722 0 115.0 -1.2440972926806722 1
gene  2 26 34 -1.0226197595241466 0 116.0 -1.0226197595241466 1
gene  2 27 34 -5.5007567769023495 0 117.0 -5.5007567769023495 1
gene  2 28 34 5.526808654531643 0 118.0 5.526808654531643 1
gene  2 29 34 5.002266753553894 0 119.0 5.002266753553894 1
gene  2 30 34 -6.965701281806341 0 120.0 -6.965701281806341 1
gene  2 1 35 -13.650265568369532 0 121.0 -13.650265568369532 1
gene  2 2 35 -1.105174190393628 0 122.0 -1.105174190393628 1
gene  2 3 35 -1.7556130327798127 0 123.0 -1.7556130327798127 1
gene  2 4 35 -1.60370556255529 0 124.0 -1.60370556255529 0
gene  2 5 35 -2.3200783767205344 0 125.0 -2.3200783767205344 1
gene  2 6 35 2.770985027020873 0 126.0 2.770985027020873 1
gene  2 7 35 0.15134919938488395 0 127.0 0.15134919938488395 1
gene  2 8 35 3.2549674292029644 0 128.0 3.2549674292029644 1
gene  2 9 35 -1.676912333322584 0 129.0 -1.676912333322584 1
gene  2 10 35 0.25260982028263745 0 130.0 0.25260982028263745 1
gene  2 11 35 2.2773887853763437 0 131.0 2.2773887853763437 1
gene  2 12 35 0.06973109425477142 0 132.0 0.06973109425477142 1
gene  2 13 35 4.3594679026319305 0 133.0 4.3594679026319305 1
gene  2 14 35 3.166043617600631 0 134.0 3.166043617600631 1
gene  2 15 35 -2.8797972226270403 0 135.0 -2.8797972226270403 1
gene  2 16 35 1.7824642781791158 0 136.0 1.7824642781791158 1
gene  2 17 35 -2.405826549401367 0 137.0 -2.405826549401367 1
gene  2 18 35 -10.846642361907902 0 138.0 -10.846642361907902 1
gene  2 19 35 2.341812431405203 0 139.0 2.341812431405203 1
gene  2 20 35 -0.29339331452586087 0 140.0 -0.29339331452586087 1
gene  2 21 35 -3.5603162633044887 0 141.0 -3.5603162633044887 1
gene  2 22 35 -2.4638309103750493 0 142.0 -2.4638309103750493 1
gene  2 23 35 -4.2288808341691535 0 143.0 -4.2288808341691535 1
gene  2 24 35 1.9697816502868948 0 144.0 1.9697816502868948 1
gene  2 25 35 1.6110016673225038 0 145.0 1.6110016673225038 1
gene  2 26 35 0.4756479706830416 0 146.0 0.4756479706830416 1
gene  2 27 35 -0.5649424410415502 0 147.0 -0.5649424410415502 1
gene  2 28 35 -0.46529941568872163 0 148.0 -0.46529941568872163 1
gene  2 29 35 -9.502453083132746 0 149.0 -9.502453083132746 1
gene  2 30 35 -8.622473332766818 0 150.0 -8.622473332766818 1
gene  2 1 36 3.328100926476078 0 151.0 3.328100926476078 1
gene  2 2 36 0.021864872763531495 0 152.0 0.021864872763531495 1
gene  2 3 36 3.7568637787193713 0 153.0 3.7568637787193713 1
gene  2 4 36 2.978271631222795 0 154.0 2.978271631222795 1
gene  2 5 36 0.5893749985877759 0 155.0 0.5893749985877759 1
gene  2 6 36 -1.9038033065622748 0 156.0 -1.9038033065622748 1
gene  2 7 36 -10.761605459462018 0 157.0 -10.761605459462018 1
gene  2 8 36 3.6474393878678546 0 158.0 3.6474393878678546 1
gene  2 9 36 -0.34178098013008446 0 159.0 -0.34178098013008446 1
gene  2 10 36 -1.6078595508743843 0 160.0 -1.6078595508743843 1
gene  2 11 36 -5.421550591719884 0 161.0 -5.421550591719884 1
gene  2 12 36 -3.4149013222334705 0 162.0 -3.4149013222334705 1
gene  2 13 36 -0.43425338163838645 0 163.0 -0.43425338163838645 1
gene  2 14 36 3.7269930492093435 0 164.0 3.7269930492093435 1
gene  2 15 36 1.2665719043667085 0 165.0 1.2665719043667085 1
gene  2 16 36 -0.4047071072659397 0 166.0 -0.4047071072659397 1
gene  2 17 36 1.727960444090868 0 167.0 1.727960444090868 1
gene  2 18 36 0.07232764871194702 0 168.0 0.07232764871194702 1
gene  2 19 36 3.895157688974824 0 169.0 3.895157688974824 1
gene  2 20 36 2.062429942920611 0 170.0 2.062429942920611 1
gene  2 21 36 -2.0971563128817197 0 171.0 -2.0971563128817197 1
gene  2 22 36 -2.10131879749552 0 172.0 -2.10131879749552 1
gene  2 23 36 -0.40755910283283425 0 173.0 -0.40755910283283425 1
gene  2 24 36 -7.921957565928478 0 174.0 -7.921957565928478 1
gene  2 25 36 -0.4170777687778515 0 175.0 -0.4170777687778515 1
gene  2 26 36 -0.2522107017259951 0 176.0 -0.2522107017259951 0
gene  2 27 36 3.311861976348367 0 177.0 3.311861976348367 1
gene  2 28 36 1.9551538097891854 0 178.0 1.9551538097891854 1
gene  2 29 36 0.03888431120317282 0 179.0 0.03888431120317282 1
gene  2 30 36 -2.4110598516375488 0 180.0 -2.4110598516375488 1
gene  2 15 39 3.5777176373688784 0 188.0 3.5777176373688784 1
gene  2 39 35 -0.1970664455801055 0 189.0 -0.1970664455801055 1
gene  2 23 39 0.4253039413980999 0 207.0 0.4253039413980999 1
gene  2 31 33 -1.463261328816716 0 249.0 -1.463261328816716 1
gene  2 26 55 0.1465234604347554 0 256.0 0.1465234604347554 1
gene  2 55 33 -0.6288240738032782 0 257.0 -0.6288240738032782 1
gene  2 19 59 0.7473281838335863 0 273.0 0.7473281838335863 1
gene  2 59 32 1.278913385402798 0 274.0 1.278913385402798 1
gene  2 12 39 -0.3535559274261124 0 277.0 -0.3535559274261124 1
gene  2 24 55 0.42476203367753984 0 307.0 0.42476203367753984 1
gene  2 59 33 -6.597472351003009 0 327.0 -6.597472351003009 1
gene  1 3 59 3.961886971296842 0 362.0 3.961886971296842 1
gene  2 4 74 1.350720452798 0 366.0 1.350720452798 1
gene  2 74 35 8.366972556851753 0 367.0 8.366972556851753 1
gene  1 29 59 0.968692634367842 0 389.0 0.968692634367842 1
gene  2 23 88 -4.570937110409668 0 441.0 -4.570937110409668 1
gene  2 88 32 1.3247660102769148 0 442.0 1.3247660102769148 1
gene  1 13 74 1.9269157022142802 0 547.0 1.9269157022142802 1
gene  2 26 118 0.19642773446889555 0 569.0 0.19642773446889555 1
gene  2 118 36 -1.6826694105034203 0 570.0 -1.6826694105034203 1
gene  2 25 122 5.5169129499992025 0 581.0 5.5169129499992025 1
gene  2 122 33 3.574032733367411 0 582.0 3.574032733367411 1
gene  1 122 32 1.3595348040512705 0 644.0 1.3595348040512705 1
gene  2 12 88 -2.173412959584248 0 753.0 -2.173412959584248 1
genomeend 2
genomestart  3
trait 1 0.1 0.0 0.0 0.1693715065667284 0.0 0.10306735906291292 0.33859219751694225 0.0 
trait 2 0.9846326489587565 0.06104451854167903 0.0 0.0 0.0 0.41760394713775695 1.3725535162819755 0.0 
node 1 1 1 3
node 2 1 1 1
node 3 1 1 1
node 4 1 1 1
node 5 1 1 1
node 6 1 1 1
node 7 1 1 1
node 8 1 1 1
node 9 1 1 1
node 10 2 1 1
node 11 1 1 1
node 12 1 1 1
node 13 1 1 1
node 14 1 1 1
node 15 1 1 1
node 16 1 1 1
node 17 1 1 1
node 18 1 1 1
node 19 1 1 1
node 20 1 1 1
node 21 1 1 1
node 22 1 1 1
node 23 1 1 1
node 24 1 1 1
node 25 1 1 1
node 26 1 1 1
node 27 1 1 1
node 28 2 1 1
node 29 1 1 1
node 30 2 1 1
node 31 1 0 2
node 32 1 0 2
node 33 1 0 2
node 34 1 0 2
node 35 1 0 2
node 36 1 0 2
node 39 1 0 0
node 55 1 0 0
node 59 1 0 0
node 74 1 0 0
node 88 1 0 0
node 118 1 0 0
node 122 1 0 0
gene  1 1 31 -15.019341592481384 0 1.0 -15.019341592481384 1
gene  2 2 31 4.612403242299292 0 2.0 4.612403242299292 1
gene  2 3 31 -6.137721306370334 0 3.0 -6.137721306370334 1
gene  2 4 31 -4.742589561195966 0 4.0 -4.742589561195966 1
gene  2 5 31 1.8615486225982114 0 5.0 1.8615486225982114 1
gene  2 6 31 0.5447884406810102 0 6.0 0.5447884406810102 1
gene  2 7 31 -2.2578284016108716 0 7.0 -2.2578284016108716 1
gene  2 8 31 -0.9695980719720765 0 8.0 -0.9695980719720765 1
gene  2 9 31 9.599120558196365 0 9.0 9.599120558196365 1
gene  2 10 31 6.335475245593711 0 10.0 6.335475245593711 1
gene  2 11 31 2.6591631005250664 0 11.0 2.6591631005250664 1
gene  2 12 31 2.9466568892793146 0 12.0 2.9466568892793146 1
gene  2 13 31 -1.1879189534324686 0 13.0 -1.1879189534324686 1
gene  2 14 31 -1.0964297881676952 0 14.0 -1.0964297881676952 1
gene  2 15 31 -14.604611363350793 0 15.0 -14.604611363350793 1
gene  2 16 31 19.70242348699461 0 16.0 19.70242348699461 1
gene  2 17 31 -5.090383494233213 0 17.0 -5.090383494233213 1
gene  2 18 31 -2.3783075063675128 0 18.0 -2.3783075063675128 1
gene  2 19 31 -3.5742395345412588 0 19.0 -3.5742395345412588 1
gene  2 20 31 -0.3230371418645469 0 20.0 -0.3230371418645469 1
gene  2 21 31 -11.405502513921594 0 21.0 -11.405502513921594 1
gene  2 22 31 -5.102616678756643 0 22.0 -5.102616678756643 1
gene  2 23 31 3.507956518870669 0 23.0 3.507956518870669 1
gene  2 24 31 3.042289507638089 0 24.0 3.042289507638089 1
gene  2 25 31 -1.3991784542487182 0 25.0 -1.3991784542487182 1
gene  2 26 31 -11.928072193907989 0 26.0 -11.928072193907989 1
gene  2 27 31 0.9112476758895751 0 27.0 0.9112476758895751 1
gene  2 28 31 3.419566738986669 0 28.0 3.419566738986669 1
gene  2 29 31 6.1920010364860385 0 29.0 6.1920010364860385 1
gene  2 30 31 5.564373264597147 0 30.0 5.564373264597147 1
gene  2 1 32 -3.1822506490380276 0 31.0 -3.1822506490380276 1
gene  2 2 32 2.7607824898004854 0 32.0 2.7607824898004854 1
gene  2 3 32 -4.675944621856308 0 33.0 -4.675944621856308 1
gene  2 4 32 0.9975707010130139 0 34.0 0.9975707010130139 1
gene  2 5 32 -1.2668165255227197 0 35.0 -1.2668165255227197 1
gene  2 6 32 9.413593206425368 0 36.0 9.413593206425368 1
gene  2 7 32 5.980795807909603 0 37.0 5.980795807909603 1
gene  2 8 32 -8.230916613675307 0 38.0 -8.230916613675307 1
gene  2 9 32 4.795050815318437 0 39.0 4.795050815318437 1
gene  2 10 32 -0.24575751277899127 0 40.0 -0.24575751277899127 1
gene  2 11 32 3.3468613856888734 0 41.0 3.3468613856888734 1
gene  2 12 32 -3.3107741117335987 0 42.0 -3.3107741117335987 1
gene  2 13 32 -6.809714596968593 0 43.0 -6.809714596968593 1
gene  2 14 32 -9.612373630876819 0 44.0 -9.612373630876819 1
gene  2 15 32 -0.7879380017704232 0 45.0 -0.7879380017704232 1
gene  2 16 32 4.5680575791981095 0 46.0 4.5680575791981095 1
gene  2 17 32 3.6126122288478157 0 47.0 3.6126122288478157 1
gene  2 18 32 4.999836276081432 0 48.0 4.999836276081432 1
gene  2 19 32 0.9154919880240664 0 49.0 0.9154919880240664 0
gene  2 20 32 2.166153608688952 0 50.0 2.166153608688952 1
gene  2 21 32 -0.9495449432206919 0 51.0 -0.9495449432206919 1
gene  2 22 32 -3.0440122164435834 0 52.0 -3.0440122164435834 1
gene  2 23 32 -3.0949156669872284 0 53.0 -3.0949156669872284 1
gene  2 24 32 4.640383159013112 0 54.0 4.640383159013112 1
gene  2 25 32 2.484380176704041 0 55.0 2.484380176704041 1
gene  2 26 32 8.939381128837498 0 56.0 8.939381128837498 1
gene  2 27 32 -2.8456725146164423 0 57.0 -2.8456725146164423 1
gene  2 28 32 -3.4731554265355307 0 58.0 -3.4731554265355307 1
gene  2 29 32 4.403228195883914 0 59.0 4.403228195883914 1
gene  2 30 32 2.5150253491075705 0 60.0 2.5150253491075705 1
gene  2 1 33 -3.815512644308974 0 61.0 -3.815512644308974 1
gene  2 2 33 -6.989327602472099 0 62.0 -6.989327602472099 1
gene  2 3 33 -3.409223539266661 0 63.0 -3.409223539266661 1
gene  2 4 33 4.46113612119397 0 64.0 4.46113612119397 1
gene  2 5 33 -0.4980835476661194 0 65.0 -0.4980835476661194 1
gene  2 6 33 -0.8593048668726864 0 66.0 -0.8593048668726864 1
gene  2 7 33 2.2899868975103312 0 67.0 2.2899868975103312 1
gene  2 8 33 2.990802982892549 0 68.0 2.990802982892549 1
gene  2 9 33 -1.1674186252236673 0 69.0 -1.1674186252236673 1
gene  2 10 33 -5.777765507908796 0 70.0 -5.777765507908796 1
gene  2 11 33 0.09114449876571751 0 71.0 0.09114449876571751 1
gene  2 12 33 -0.8335585791638576 0 72.0 -0.8335585791638576 1
gene  2 13 33 -3.7110393504122463 0 73.0 -3.7110393504122463 1
gene  2 14 33 -0.5966317358363478 0 74.0 -0.5966317358363478 1
gene  2 15 33 12.765382101582185 0 75.0 12.765382101582185 1
gene  2 16 33 1.9037096731927217 0 76.0 1.9037096731927217 1
gene  2 17 33 -2.879049203841885 0 77.0 -2.879049203841885 1
gene  2 18 33 3.5392973207990153 0 78.0 3.5392973207990153 1
gene  2 19 33 -1.3881381387773102 0 79.0 -1.3881381387773102 1
gene  2 20 33 -4.950796495755504 0 80.0 -4.950796495755504 1
gene  2 21 33 3.1801241585108606 0 81.0 3.1801241585108606 1
gene  2 22 33 -2.175800333705758 0 82.0 -2.175800333705758 1
gene  2 23 33 4.046378189585637 0 83.0 4.046378189585637 1
gene  2 24 33 1.0560310362059129 0 84.0 1.0560310362059129 1
gene  2 25 33 -8.649558194302559 0 85.0 -8.649558194302559 1
gene  2 26 33 -5.974405604408398 0 86.0 -5.974405604408398 1
gene  2 27 33 -6.5261324727600964 0 87.0 -6.5261324727600964 1
gene  2 28 33 -4.111291432547318 0 88.0 -4.111291432547318 1
gene  2 29 33 -28.534366422819257 0 89.0 -28.534366422819257 1
gene  2 30 33 -1.0723542043954657 0 90.0 -1.0723542043954657 1
gene  2 1 34 4.500913730385673 0 91.0 4.500913730385673 1
gene  2 2 34 -9.160314017845876 0 92.0 -9.160314017845876 1
gene  2 3 34 0.4368374064355103 0 93.0 0.4368374064355103 1
gene  2 4 34 6.560813701781328 0 94.0 6.560813701781328 1
gene  2 5 34 0.5960027011889568 0 95.0 0.5960027011889568 1
gene  2 6 34 -3.066364816450911 0 96.0 -3.066364816450911 1
gene  2 7 34 -2.9809209806703594 0 97.0 -2.9809209806703594 1
gene  2 8 34 -1.9908346220369721 0 98.0 -1.9908346220369721 1
gene  2 9 34 2.081334318955812 0 99.0 2.081334318955812 1
gene  2 10 34 0.08796216403399848 0 100.0 0.08796216403399848 1
gene  2 11 34 1.1043981893543173 0 101.0 1.1043981893543173 1
gene  2 12 34 -0.33158328113705116 0 102.0 -0.33158328113705116 1
gene  2 13 34 0.3865016819096412 0 103.0 0.3865016819096412 1
gene  2 14 34 7.0540663420342105 0 104.0 7.0540663420342105 1
gene  2 15 34 23.23163125778884 0 105.0 23.23163125778884 1
gene  2 16 34 -0.7538796245917769 0 106.0 -0.7538796245917769 1
gene  2 17 34 4.171754494262679 0 107.0 4.171754494262679 1
gene  2 18 34 -5.1611073824236025 0 108.0 -5.1611073824236025 1
gene  2 19 34 -1.4262519586617657 0 109.0 -1.4262519586617657 1
gene  2 20 34 -0.5288535805531962 0 110.0 -0.5288535805531962 1
gene  2 21 34 0.2799913149326232 0 111.0 0.2799913149326232 1
gene  2 22 34 4.7651273802898535 0 112.0 4.7651273802898535 1
gene  2 23 34 9.427191977915236 0 113.0 9.427191977915236 1
gene  2 24 34 3.620719706929946 0 114.0 3.620719706929946 1
gene  2 25 34 0.9162302625466014 0 115.0 0.9162302625466014 1
gene  2 26 34 -3.4215517907593647 0 116.0 -3.4215517907593647 1
gene  2 27 34 -5.7166724177621075 0 117.0 -5.7166724177621075 1
gene  2 28 34 6.300862908850143 0 118.0 6.300862908850143 1
gene  2 29 34 6.808377535281444 0 119.0 6.808377535281444 1
gene  2 30 34 -4.901845248169927 0 120.0 -4.901845248169927 1
gene  2 1 35 -13.279607918384603 0 121.0 -13.279607918384603 1
gene  2 2 35 -1.8640997770393715 0 122.0 -1.8640997770393715 1
gene  2 3 35 -2.675677709060124 0 123.0 -2.675677709060124 1
gene  2 4 35 -2.544084557869764 0 124.0 -2.544084557869764 0
gene  2 5 35 0.04711496522849146 0 125.0 0.04711496522849146 1
gene  2 6 35 3.4211146882579833 0 126.0 3.4211146882579833 1
gene  2 7 35 0.5898036707144677 0 127.0 0.5898036707144677 1
gene  2 8 35 5.003184569206565 0 128.0 5.003184569206565 1
gene  2 9 35 0.29316194376400784 0 129.0 0.29316194376400784 1
gene  2 10 35 -0.8537801978746518 0 130.0 -0.8537801978746518 1
gene  2 11 35 4.221206555046988 0 131.0 4.221206555046988 1
gene  2 12 35 -1.7051822873423559 0 132.0 -1.7051822873423559 1
gene  2 13 35 2.8320036876849493 0 133.0 2.8320036876849493 1
gene  2 14 35 3.496985158629129 0 134.0 3.496985158629129 1
gene  2 15 35 -3.8648796036192774 0 135.0 -3.8648796036192774 1
gene  2 16 35 2.7810371716455933 0 136.0 2.7810371716455933 1
gene  2 17 35 -2.0424510654177666 0 137.0 -2.0424510654177666 1
gene  2 18 35 -9.886750384027248 0 138.0 -9.886750384027248 1
gene  2 19 35 4.645614339727348 0 139.0 4.645614339727348 1
gene  2 20 35 -0.5600496523912919 0 140.0 -0.5600496523912919 1
gene  2 21 35 -2.609265411262932 0 141.0 -2.609265411262932 1
gene  2 22 35 -0.3605415583735203 0 142.0 -0.3605415583735203 1
gene  2 23 35 -4.3760708587684745 0 143.0 -4.3760708587684745 1
gene  2 24 35 0.6278084395982866 0 144.0 0.6278084395982866 1
gene  2 25 35 1.563126828160686 0 145.0 1.563126828160686 1
gene  2 26 35 1.4694696042318085 0 146.0 1.4694696042318085 1
gene  2 27 35 0.29111499687785114 0 147.0 0.29111499687785114 1
gene  2 28 35 -0.3992965776728663 0 148.0 -0.3992965776728663 1
gene  2 29 35 -10.803837943350926 0 149.0 -10.803837943350926 1
gene  2 30 35 -10.262869150422377 0 150.0 -10.262869150422377 1
gene  2 1 36 5.06241015758624 0 151.0 5.06241015758624 1
gene  2 2 36 1.66395995655211 0 152.0 1.66395995655211 1
gene  2 3 36 2.735432062673683 0 153.0 2.735432062673683 1
gene  2 4 36 1.4253273891275982 0 154.0 1.4253273891275982 1
gene  2 5 36 0.20372077840584513 0 155.0 0.20372077840584513 1
gene  2 6 36 -2.13236516899474 0 156.0 -2.13236516899474 1
gene  2 7 36 -8.923380521024242 0 157.0 -8.923380521024242 1
gene  2 8 36 2.357205697853006 0 158.0 2.357205697853006 1
gene  2 9 36 0.22359013873483108 0 159.0 0.22359013873483108 1
gene  2 10 36 -3.750782360530431 0 160.0 -3.750782360530431 1
gene  2 11 36 -7.0702787739273285 0 161.0 -7.0702787739273285 1
gene  2 12 36 -4.668343914301126 0 162.0 -4.668343914301126 1
gene  2 13 36 0.4273024954408261 0 163.0 0.4273024954408261 1
gene  2 14 36 2.7324159047154954 0 164.0 2.7324159047154954 1
gene  2 15 36 0.28460100409867617 0 165.0 0.28460100409867617 1
gene  2 16 36 0.989227667276078 0 166.0 0.989227667276078 1
gene  2 17 36 3.4579515664401086 0 167.0 3.4579515664401086 1
gene  2 18 36 0.48708004171733404 0 168.0 0.48708004171733404 1
gene  2 19 36 -1.2066981628810314 0 169.0 -1.2066981628810314 1
gene  2 20 36 2.062429942920611 0 170.0 2.062429942920611 1
gene  2 21 36 -0.11941619419736771 0 171.0 -0.11941619419736771 1
gene  2 22 36 -2.10131879749552 0 172.0 -2.10131879749552 1
gene  2 23 36 -1.350363176480155 0 173.0 -1.350363176480155 1
gene  2 24 36 -7.921957565928478 0 174.0 -7.921957565928478 1
gene  2 25 36 -0.4170777687778515 0 175.0 -0.4170777687778515 1
gene  2 26 36 1.5898839358900594 0 176.0 1.5898839358900594 0
gene  2 27 36 -2.243683206845341 0 177.0 -2.243683206845341 1
gene  2 28 36 1.9551538097891854 0 178.0 1.9551538097891854 1
gene  2 29 36 -0.3969447426774317 0 179.0 -0.3969447426774317 1
gene  2 30 36 -2.4110598516375488 0 180.0 -2.4110598516375488 1
gene  2 15 39 3.5777176373688784 0 188.0 3.5777176373688784 1
gene  2 39 35 -0.1970664455801055 0 189.0 -0.1970664455801055 1
gene  2 23 39 -1.869175539130799 0 207.0 -1.869175539130799 1
gene  2 31 33 -1.32767136199742 0 249.0 -1.32767136199742 1
gene  2 26 55 -2.150488351099414 0 256.0 -2.150488351099414 1
gene  2 55 33 -0.3541150940593218 0 257.0 -0.3541150940593218 1
gene  2 19 59 -0.8818596653213848 0 273.0 -0.8818596653213848 1
gene  2 59 32 1.278913385402798 0 274.0 1.278913385402798 1
gene  2 12 39 -0.43117953143470167 0 277.0 -0.43117953143470167 1
gene  2 24 55 0.5966737607938921 0 307.0 0.5966737607938921 1
gene  2 59 33 -7.165725529605337 0 327.0 -7.165725529605337 1
gene  1 3 59 3.961886971296842 0 362.0 3.961886971296842 1
gene  2 4 74 1.350720452798 0 366.0 1.350720452798 1
gene  2 74 35 7.645530185454664 0 367.0 7.645530185454664 1
gene  1 29 59 -1.63395092320588 0 389.0 -1.63395092320588 1
gene  2 23 88 -0.7988335961060302 0 441.0 -0.7988335961060302 1
gene  2 88 32 1.3247660102769148 0 442.0 1.3247660102769148 1
gene  1 13 74 2.8397411938639925 0 547.0 2.8397411938639925 1
gene  2 26 118 -0.30399973610846903 0 569.0 -0.30399973610846903 1
gene  2 118 36 -1.6826694105034203 0 570.0 -1.6826694105034203 1
gene  2 25 122 5.5169129499992025 0 581.0 5.5169129499992025 1
gene  2 122 33 4.967327633731845 0 582.0 4.967327633731845 1
gene  1 122 32 -1.213821954581122 0 644.0 -1.213821954581122 1
gene  2 12 88 -1.8388605904766435 0 753.0 -1.8388605904766435 1
genomeend 3
genomestart  4
trait 1 0.1 0.0 0.0 0.1693715065667284 0.0 0.10306735906291292 0.33859219751694225 0.0 
trait 2 0.9846326489587565 0.0 0.0 0.0 0.43146877191809474 0.012611714024458598 1.0430941215417393 0.0 
node 1 1 1 3
node 2 1 1 1
node 3 1 1 1
node 4 1 1 1
node 5 1 1 1
node 6 1 1 1
node 7 1 1 1
node 8 1 1 1
node 9 1 1 1
node 10 2 1 1
node 11 1 1 1
node 12 1 1 1
node 13 1 1 1
node 14 1 1 1
node 15 1 1 1
node 16 1 1 1
node 17 1 1 1
node 18 1 1 1
node 19 1 1 1
node 20 1 1 1
node 21 1 1 1
node 22 1 1 1
node 23 1 1 1
node 24 1 1 1
node 25 1 1 1
node 26 1 1 1
node 27 1 1 1
node 28 2 1 1
node 29 1 1 1
node 30 2 1 1
node 31 1 0 2
node 32 1 0 2
node 33 1 0 2
node 34 1 0 2
node 35 1 0 2
node 36 1 0 2
node 39 1 0 0
node 55 1 0 0
node 59 1 0 0
node 74 1 0 0
node 88 1 0 0
node 118 1 0 0
node 122 1 0 0
gene  1 1 31 -13.82508584320854 0 1.0 -13.82508584320854 1
gene  2 2 31 2.2409131140995986 0 2.0 2.2409131140995986 1
gene  2 3 31 -0.8365201764000298 0 3.0 -0.8365201764000298 1
gene  2 4 31 0.9782979902874991 0 4.0 0.9782979902874991 1
gene  2 5 31 -0.6898149575915633 0 5.0 -0.6898149575915633 1
gene  2 6 31 -2.13408497721878 0 6.0 -2.13408497721878 1
gene  2 7 31 1.6538462031927523 0 7.0 1.6538462031927523 1
gene  2 8 31 1.9567716306929783 0 8.0 1.9567716306929783 1
gene  2 9 31 8.682646638623128 0 9.0 8.682646638623128 1
gene  2 10 31 4.365421933876653 0 10.0 4.365421933876653 1
gene  2 11 31 0.5135489929959558 0 11.0 0.5135489929959558 1
gene  2 12 31 2.232838364193939 0 12.0 2.232838364193939 1
gene  2 13 31 -2.01628528492019 0 13.0 -2.01628528492019 1
gene  2 14 31 -7.9967112568625485 0 14.0 -7.9967112568625485 1
gene  2 15 31 -10.602464464488074 0 15.0 -10.602464464488074 1
gene  2 16 31 14.308108067473746 0 16.0 14.308108067473746 1
gene  2 17 31 -5.152751695931143 0 17.0 -5.152751695931143 1
gene  2 18 31 -2.5654350591173487 0 18.0 -2.5654350591173487 1
gene  2 19 31 -5.709871621853998 0 19.0 -5.709871621853998 1
gene  2 20 31 -0.8569570503398926 0 20.0 -0.8569570503398926 1
gene  2 21 31 -10.586465313378678 0 21.0 -10.586465313378678 1
gene  2 22 31 -1.9015439896371569 0 22.0 -1.9015439896371569 1
gene  2 23 31 1.3134371416546098 0 23.0 1.3134371416546098 1
gene  2 24 31 4.881634867590896 0 24.0 4.881634867590896 1
gene  2 25 31 1.6735534327745742 0 25.0 1.6735534327745742 1
gene  2 26 31 -9.715637149909893 0 26.0 -9.715637149909893 1
gene  2 27 31 0.40953071817047815 0 27.0 0.40953071817047815 1
gene  2 28 31 -0.929446554960067 0 28.0 -0.929446554960067 1
gene  2 29 31 5.488547400306642 0 29.0 5.488547400306642 1
gene  2 30 31 0.9860958597018965 0 30.0 0.9860958597018965 1
gene  2 1 32 2.843147115257557 0 31.0 2.843147115257557 1
gene  2 2 32 1.12659467495377 0 32.0 1.12659467495377 1
gene  2 3 32 -3.8382433561984737 0 33.0 -3.8382433561984737 1
gene  2 4 32 -0.8118056675791527 0 34.0 -0.8118056675791527 1
gene  2 5 32 -3.9362825448791536 0 35.0 -3.9362825448791536 1
gene  2 6 32 8.821843685241642 0 36.0 8.821843685241642 1
gene  2 7 32 -0.28457367449443577 0 37.0 -0.28457367449443577 1
gene  2 8 32 -3.2834601764659936 0 38.0 -3.2834601764659936 1
gene  2 9 32 7.623453895859582 0 39.0 7.623453895859582 1
gene  2 10 32 2.1119954980803786 0 40.0 2.1119954980803786 1
gene  2 11 32 -1.7792743085768778 0 41.0 -1.7792743085768778 1
gene  2 12 32 -2.468635294589246 0 42.0 -2.468635294589246 1
gene  2 13 32 -4.279839276149868 0 43.0 -4.279839276149868 1
gene  2 14 32 -5.863400315851348 0 44.0 -5.863400315851348 1
gene  2 15 32 -1.573936480293384 0 45.0 -1.573936480293384 1
gene  2 16 32 5.552065073915346 0 46.0 5.552065073915346 1
gene  2 17 32 3.5437403222495645 0 47.0 3.5437403222495645 1
gene  2 18 32 -0.8540864833771584 0 48.0 -0.8540864833771584 1
gene  2 19 32 2.299295687805161 0 49.0 2.299295687805161 0
gene  2 20 32 -2.1416028636621416 0 50.0 -2.1416028636621416 1
gene  2 21 32 22.5991244390783 0 51.0 22.5991244390783 1
gene  2 22 32 -1.4747080659188017 0 52.0 -1.4747080659188017 1
gene  2 23 32 1.7405265752307661 0 53.0 1.7405265752307661 1
gene  2 24 32 0.3522268651240865 0 54.0 0.3522268651240865 1
gene  2 25 32 -1.9513782828958215 0 55.0 -1.9513782828958215 1
gene  2 26 32 5.83201294838634 0 56.0 5.83201294838634 1
gene  2 27 32 -1.0273081775456032 0 57.0 -1.0273081775456032 1
gene  2 28 32 -1.4757658436454415 0 58.0 -1.4757658436454415 1
gene  2 29 32 7.364738784035522 0 59.0 7.364738784035522 1
gene  2 30 32 2.4483088167625158 0 60.0 2.4483088167625158 1
gene  2 1 33 -5.762590144929968 0 61.0 -5.762590144929968 1
gene  2 2 33 -7.347794732650005 0 62.0 -7.347794732650005 1
gene  2 3 33 -0.7617191365372056 0 63.0 -0.7617191365372056 1
gene  2 4 33 4.34383297578257 0 64.0 4.34383297578257 1
gene  2 5 33 -0.40786900090094536 0 65.0 -0.40786900090094536 1
gene  2 6 33 -1.9519892429550243 0 66.0 -1.9519892429550243 1
gene  2 7 33 -0.2000354552643282 0 67.0 -0.2000354552643282 1
gene  2 8 33 6.989817385213405 0 68.0 6.989817385213405 1
gene  2 9 33 -5.3262956352699184 0 69.0 -5.3262956352699184 1
gene  2 10 33 -6.586560930056392 0 70.0 -6.586560930056392 1
gene  2 11 33 2.9215027157983857 0 71.0 2.9215027157983857 1
gene  2 12 33 0.8419371894432606 0 72.0 0.8419371894432606 1
gene  2 13 33 -4.457265520895203 0 73.0 -4.457265520895203 1
gene  2 14 33 1.4122955083735318 0 74.0 1.4122955083735318 1
gene  2 15 33 11.667423730492743 0 75.0 11.667423730492743 1
gene  2 16 33 1.3771502674604528 0 76.0 1.3771502674604528 1
gene  2 17 33 -4.123640738262373 0 77.0 -4.123640738262373 1
gene  2 18 33 0.8551795161685101 0 78.0 0.8551795161685101 1
gene  2 19 33 2.0086463638555863 0 79.0 2.0086463638555863 1
gene  2 20 33 2.928553134162267 0 80.0 2.928553134162267 1
gene  2 21 33 4.87287902903578 0 81.0 4.87287902903578 1
gene  2 22 33 -5.04338827178369 0 82.0 -5.04338827178369 1
gene  2 23 33 0.8631392904041219 0 83.0 0.8631392904041219 1
gene  2 24 33 5.5148164449237385 0 84.0 5.5148164449237385 1
gene  2 25 33 -6.839465211387614 0 85.0 -6.839465211387614 1
gene  2 26 33 -8.434469306366127 0 86.0 -8.434469306366127 1
gene  2 27 33 -3.264190558222115 0 87.0 -3.264190558222115 1
gene  2 28 33 -4.850347862547739 0 88.0 -4.850347862547739 1
gene  2 29 33 -22.48965739725203 0 89.0 -22.48965739725203 1
gene  2 30 33 1.5995680941872181 0 90.0 1.5995680941872181 1
gene  2 1 34 3.467649218890313 0 91.0 3.467649218890313 1
gene  2 2 34 -9.608695032545723 0 92.0 -9.608695032545723 1
gene  2 3 34 2.1381569756467007 0 93.0 2.1381569756467007 1
gene  2 4 34 6.3170606284021344 0 94.0 6.3170606284021344 1
gene  2 5 34 1.3468638799923263 0 95.0 1.3468638799923263 1
gene  2 6 34 -3.9749173849233714 0 96.0 -3.9749173849233714 1
gene  2 7 34 0.6040004296296169 0 97.0 0.6040004296296169 1
gene  2 8 34 -1.7040527515365937 0 98.0 -1.7040527515365937 1
gene  2 9 34 1.9461204862730488 0 99.0 1.9461204862730488 1
gene  2 10 34 3.6193729613406807 0 100.0 3.6193729613406807 1
gene  2 11 34 -3.211822169299959 0 101.0 -3.211822169299959 1
gene  2 12 34 -3.5634970730761757 0 102.0 -3.5634970730761757 1
gene  2 13 34 -0.8035634644451928 0 103.0 -0.8035634644451928 1
gene  2 14 34 1.2028172528240564 0 104.0 1.2028172528240564 1
gene  2 15 34 19.251184296621187 0 105.0 19.251184296621187 1
gene  2 16 34 -1.3508649810771556 0 106.0 -1.3508649810771556 1
gene  2 17 34 0.04230444324410443 0 107.0 0.04230444324410443 1
gene  2 18 34 -1.8048071842632853 0 108.0 -1.8048071842632853 1
gene  2 19 34 -0.42887482007173044 0 109.0 -0.42887482007173044 1
gene  2 20 34 1.2651051356892107 0 110.0 1.2651051356892107 1
gene  2 21 34 -1.4038444657194014 0 111.0 -1.4038444657194014 1
gene  2 22 34 5.017242586603241 0 112.0 5.017242586603241 1
gene  2 23 34 -1.8158706181084818 0 113.0 -1.8158706181084818 1
gene  2 24 34 -2.9008175655777158 0 114.0 -2.9008175655777158 1
gene  2 25 34 0.4908148549786092 0 115.0 0.4908148549786092 1
gene  2 26 34 -2.0190364641870153 0 116.0 -2.0190364641870153 1
gene  2 27 34 -4.437410344716122 0 117.0 -4.437410344716122 1
gene  2 28 34 0.9173232638198512 0 118.0 0.9173232638198512 1
gene  2 29 34 2.4816608808524627 0 119.0 2.4816608808524627 1
gene  2 30 34 -4.871411270927778 0 120.0 -4.871411270927778 1
gene  2 1 35 -14.434204649806277 0 121.0 -14.434204649806277 1
gene  2 2 35 -1.1093285602722136 0 122.0 -1.1093285602722136 1
gene  2 3 35 -0.3517416597241503 0 123.0 -0.3517416597241503 1
gene  2 4 35 -5.855356820590837 0 124.0 -5.855356820590837 0
gene  2 5 35 1.3978550314199905 0 125.0 1.3978550314199905 1
gene  2 6 35 -1.7293064251554302 0 126.0 -1.7293064251554302 1
gene  2 7 35 -6.6765482526065885 0 127.0 -6.6765482526065885 1
gene  2 8 35 0.2091920003312835 0 128.0 0.2091920003312835 1
gene  2 9 35 -0.23957085046075788 0 129.0 -0.23957085046075788 1
gene  2 10 35 -3.0639593333125497 0 130.0 -3.0639593333125497 1
gene  2 11 35 4.4684900007047546 0 131.0 4.4684900007047546 1
gene  2 12 35 2.7517857275532487 0 132.0 2.7517857275532487 1
gene  2 13 35 -2.762155930941172 0 133.0 -2.762155930941172 1
gene  2 14 35 7.470260327464112 0 134.0 7.470260327464112 1
gene  2 15 35 -1.8018472886792476 0 135.0 -1.8018472886792476 1
gene  2 16 35 1.949886142260798 0 136.0 1.949886142260798 1
gene  2 17 35 -5.6784071047304305 0 137.0 -5.6784071047304305 1
gene  2 18 35 -11.241001708076604 0 138.0 -11.241001708076604 1
gene  2 19 35 1.780224903088489 0 139.0 1.780224903088489 1
gene  2 20 35 -0.8900839856425562 0 140.0 -0.8900839856425562 1
gene  2 21 35 -2.3330334429132575 0 141.0 -2.3330334429132575 1
gene  2 22 35 0.6636299735376139 0 142.0 0.6636299735376139 1
gene  2 23 35 -1.05341747807096 0 143.0 -1.05341747807096 1
gene  2 24 35 2.1199358341452177 0 144.0 2.1199358341452177 1
gene  2 25 35 3.4004510962319965 0 145.0 3.4004510962319965 1
gene  2 26 35 3.3295866394324727 0 146.0 3.3295866394324727 1
gene  2 27 35 4.750056590191981 0 147.0 4.750056590191981 1
gene  2 28 35 5.764812374851374 0 148.0 5.764812374851374 1
gene  2 29 35 -5.748324098053152 0 149.0 -5.748324098053152 1
gene  2 30 35 -0.24711477489001765 0 150.0 -0.24711477489001765 1
gene  2 1 36 3.260357561104328 0 151.0 3.260357561104328 1
gene  2 2 36 1.7510668932707694 0 152.0 1.7510668932707694 1
gene  2 3 36 0.3640002299103722 0 153.0 0.3640002299103722 1
gene  2 4 36 -2.440674298446277 0 154.0 -2.440674298446277 1
gene  2 5 36 0.12527201424965306 0 155.0 0.12527201424965306 1
gene  2 6 36 -6.42305999640975 0 156.0 -6.42305999640975 1
gene  2 7 36 -5.514620575130205 0 157.0 -5.514620575130205 1
gene  2 8 36 5.378508789310811 0 158.0 5.378508789310811 1
gene  2 9 36 -4.895394211461683 0 159.0 -4.895394211461683 1
gene  2 10 36 0.9577322551668597 0 160.0 0.9577322551668597 1
gene  2 11 36 0.22902414776389518 0 161.0 0.22902414776389518 1
gene  2 12 36 0.381140906929634 0 162.0 0.381140906929634 1
gene  2 13 36 1.2431597634518992 0 163.0 1.2431597634518992 1
gene  2 14 36 4.313434505809997 0 164.0 4.313434505809997 1
gene  2 15 36 -4.600326302211511 0 165.0 -4.600326302211511 1
gene  2 16 36 -1.7231794797538773 0 166.0 -1.7231794797538773 1
gene  2 17 36 3.7865453193176117 0 167.0 3.7865453193176117 1
gene  2 18 36 -2.4717248020683686 0 168.0 -2.4717248020683686 1
gene  2 19 36 5.2573548772575105 0 169.0 5.2573548772575105 1
gene  2 20 36 2.4721549078612655 0 170.0 2.4721549078612655 1
gene  2 21 36 -2.0899725726176563 0 171.0 -2.0899725726176563 1
gene  2 22 36 6.451918451705341E-4 0 172.0 6.451918451705341E-4 1
gene  2 23 36 1.142398133170735 0 173.0 1.142398133170735 1
gene  2 24 36 -8.96892016761048 0 174.0 -8.96892016761048 1
gene  2 25 36 -0.7571702398116208 0 175.0 -0.7571702398116208 1
gene  2 26 36 -1.5127869076091751 0 176.0 -1.5127869076091751 0
gene  2 27 36 2.47081429523216 0 177.0 2.47081429523216 1
gene  2 28 36 0.312414365102596 0 178.0 0.312414365102596 1
gene  2 29 36 -1.9442005108505136 0 179.0 -1.9442005108505136 1
gene  2 30 36 -1.1900799784430585 0 180.0 -1.1900799784430585 1
gene  2 15 39 3.083963722623934 0 188.0 3.083963722623934 1
gene  2 39 35 4.654893460373376 0 189.0 4.654893460373376 1
gene  2 23 39 -1.8969066740793004 0 207.0 -1.8969066740793004 1
gene  2 31 33 2.9088678635498977 0 249.0 2.9088678635498977 1
gene  2 26 55 -4.052154514509354 0 256.0 -4.052154514509354 1
gene  2 55 33 -2.2657781077579013 0 257.0 -2.2657781077579013 1
gene  2 19 59 0.33664158549233303 0 273.0 0.33664158549233303 1
gene  2 59 32 -3.2942813702470644 0 274.0 -3.2942813702470644 1
gene  2 12 39 1.5932322639211538 0 277.0 1.5932322639211538 1
gene  2 24 55 1.0202714984284076 0 307.0 1.0202714984284076 1
gene  2 59 33 -5.495131679794245 0 327.0 -5.495131679794245 1
gene  1 3 59 0.3823217941271184 0 362.0 0.3823217941271184 1
gene  2 4 74 -5.062875041119711 0 366.0 -5.062875041119711 1
gene  2 74 35 8.589069944839581 0 367.0 8.589069944839581 1
gene  1 29 59 2.1896197915738895 0 389.0 2.1896197915738895 1
gene  2 23 88 0.4841375365294648 0 441.0 0.4841375365294648 1
gene  2 88 32 1.4840599629830378 0 442.0 1.4840599629830378 1
gene  1 13 74 0.27759302293634824 0 547.0 0.27759302293634824 1
gene  2 26 118 -3.1278937415079655 0 569.0 -3.1278937415079655 1
gene  2 118 36 -3.5982992429400467 0 570.0 -3.5982992429400467 1
gene  2 25 122 1.8924383397608189 0 581.0 1.8924383397608189 1
gene  2 122 33 0.8494688566260797 0 582.0 0.8494688566260797 1
gene  1 122 32 0.5818135486432512 0 644.0 0.5818135486432512 1
genomeend 4
genomestart  5
trait 1 0.1 0.0 0.0 0.1693715065667284 0.0 0.10306735906291292 0.33859219751694225 0.0 
trait 2 0.9846326489587565 0.06104451854167903 0.0 0.0 0.0 0.41760394713775695 1.3725535162819755 0.0 
node 1 1 1 3
node 2 1 1 1
node 3 1 1 1
node 4 1 1 1
node 5 1 1 1
node 6 1 1 1
node 7 1 1 1
node 8 1 1 1
node 9 1 1 1
node 10 2 1 1
node 11 1 1 1
node 12 1 1 1
node 13 1 1 1
node 14 1 1 1
node 15 1 1 1
node 16 1 1 1
node 17 1 1 1
node 18 1 1 1
node 19 1 1 1
node 20 1 1 1
node 21 1 1 1
node 22 1 1 1
node 23 1 1 1
node 24 1 1 1
node 25 1 1 1
node 26 1 1 1
node 27 1 1 1
node 28 2 1 1
node 29 1 1 1
node 30 2 1 1
node 31 1 0 2
node 32 1 0 2
node 33 1 0 2
node 34 1 0 2
node 35 1 0 2
node 36 1 0 2
node 39 1 0 0
node 55 1 0 0
node 59 1 0 0
node 74 1 0 0
node 88 1 0 0
node 118 1 0 0
node 122 1 0 0
gene  1 1 31 -15.338340289746979 0 1.0 -15.338340289746979 1
gene  2 2 31 4.65362928855898 0 2.0 4.65362928855898 1
gene  2 3 31 -3.672889390147525 0 3.0 -3.672889390147525 1
gene  2 4 31 -5.346635686293358 0 4.0 -5.346635686293358 1
gene  2 5 31 3.4744864387233734 0 5.0 3.4744864387233734 1
gene  2 6 31 2.9927142484536353 0 6.0 2.9927142484536353 1
gene  2 7 31 -0.9468336420005521 0 7.0 -0.9468336420005521 1
gene  2 8 31 -0.4161830656088158 0 8.0 -0.4161830656088158 1
gene  2 9 31 8.306668565860376 0 9.0 8.306668565860376 1
gene  2 10 31 7.4734645509839 0 10.0 7.4734645509839 1
gene  2 11 31 -1.4697749466698715 0 11.0 -1.4697749466698715 1
gene  2 12 31 2.174588489235492 0 12.0 2.174588489235492 1
gene  2 13 31 -3.8892680482651225 0 13.0 -3.8892680482651225 1
gene  2 14 31 -4.28020906377711 0 14.0 -4.28020906377711 1
gene  2 15 31 -11.783792316508212 0 15.0 -11.783792316508212 1
gene  2 16 31 19.926573093656565 0 16.0 19.926573093656565 1
gene  2 17 31 -5.683853199852253 0 17.0 -5.683853199852253 1
gene  2 18 31 -5.428659472917326 0 18.0 -5.428659472917326 1
gene  2 19 31 -5.070065626307933 0 19.0 -5.070065626307933 1
gene  2 20 31 0.23794344868744544 0 20.0 0.23794344868744544 1
gene  2 21 31 -11.937760216623296 0 21.0 -11.937760216623296 1
gene  2 22 31 -3.0252585476310694 0 22.0 -3.0252585476310694 1
gene  2 23 31 0.728536648894532 0 23.0 0.728536648894532 1
gene  2 24 31 1.5490916038483062 0 24.0 1.5490916038483062 1
gene  2 25 31 0.4485933323937471 0 25.0 0.4485933323937471 1
gene  2 26 31 -12.889115919310997 0 26.0 -12.889115919310997 1
gene  2 27 31 -1.3687750670310737 0 27.0 -1.3687750670310737 1
gene  2 28 31 1.7481514412894172 0 28.0 1.7481514412894172 1
gene  2 29 31 6.531891702728278 0 29.0 6.531891702728278 1
gene  2 30 31 6.630768607726783 0 30.0 6.630768607726783 1
gene  2 1 32 -4.075440730936347 0 31.0 -4.075440730936347 1
gene  2 2 32 3.5951570984192864 0 32.0 3.5951570984192864 1
gene  2 3 32 -2.916254890731071 0 33.0 -2.916254890731071 1
gene  2 4 32 -0.3456901017473361 0 34.0 -0.3456901017473361 1
gene  2 5 32 0.5589444178939276 0 35.0 0.5589444178939276 1
gene  2 6 32 10.188432396658722 0 36.0 10.188432396658722 1
gene  2 7 32 5.816818176347584 0 37.0 5.816818176347584 1
gene  2 8 32 -6.228755243756119 0 38.0 -6.228755243756119 1
gene  2 9 32 9.638190461271869 0 39.0 9.638190461271869 1
gene  2 10 32 0.8816727672167175 0 40.0 0.8816727672167175 1
gene  2 11 32 4.461385644589865 0 41.0 4.461385644589865 1
gene  2 12 32 -4.64583277303555 0 42.0 -4.64583277303555 1
gene  2 13 32 -6.618046680788591 0 43.0 -6.618046680788591 1
gene  2 14 32 -10.122148102934013 0 44.0 -10.122148102934013 1
gene  2 15 32 1.810735493671201 0 45.0 1.810735493671201 1
gene  2 16 32 5.375245804375993 0 46.0 5.375245804375993 1
gene  2 17 32 0.8815870804645463 0 47.0 0.8815870804645463 1
gene  2 18 32 4.631794002968965 0 48.0 4.631794002968965 1
gene  2 19 32 -1.3199522007935198 0 49.0 -1.3199522007935198 0
gene  2 20 32 2.296117722727822 0 50.0 2.296117722727822 1
gene  2 21 32 -0.5445548857257103 0 51.0 -0.5445548857257103 1
gene  2 22 32 -3.2741607895894322 0 52.0 -3.2741607895894322 1
gene  2 23 32 0.8998190576232818 0 53.0 0.8998190576232818 1
gene  2 24 32 0.6550317262664347 0 54.0 0.6550317262664347 1
gene  2 25 32 1.6344173930137211 0 55.0 1.6344173930137211 1
gene  2 26 32 7.568718771862551 0 56.0 7.568718771862551 1
gene  2 27 32 -3.805727462770707 0 57.0 -3.805727462770707 1
gene  2 28 32 -4.55167744498379 0 58.0 -4.55167744498379 1
gene  2 29 32 5.9162106968057415 0 59.0 5.9162106968057415 1
gene  2 30 32 0.2232411268691954 0 60.0 0.2232411268691954 1
gene  2 1 33 -5.023532029119422 0 61.0 -5.023532029119422 1
gene  2 2 33 -5.648561134225142 0 62.0 -5.648561134225142 1
gene  2 3 33 -2.5429840648214626 0 63.0 -2.5429840648214626 1
gene  2 4 33 7.665400169974166 0 64.0 7.665400169974166 1
gene  2 5 33 -3.5854807862057836 0 65.0 -3.5854807862057836 1
gene  2 6 33 -4.5744968783766655 0 66.0 -4.5744968783766655 1
gene  2 7 33 3.7486714666743954 0 67.0 3.7486714666743954 1
gene  2 8 33 0.20551177221063277 0 68.0 0.20551177221063277 1
gene  2 9 33 -2.7297863607211816 0 69.0 -2.7297863607211816 1
gene  2 10 33 -5.424243702261972 0 70.0 -5.424243702261972 1
gene  2 11 33 2.662143111906309 0 71.0 2.662143111906309 1
gene  2 12 33 -1.6611311458943216 0 72.0 -1.6611311458943216 1
gene  2 13 33 -2.9462931314918883 0 73.0 -2.9462931314918883 1
gene  2 14 33 0.32318736066462184 0 74.0 0.32318736066462184 1
gene  2 15 33 8.71847507046898 0 75.0 8.71847507046898 1
gene  2 16 33 3.478372508473486 0 76.0 3.478372508473486 1
gene  2 17 33 -4.966726780419801 0 77.0 -4.966726780419801 1
gene  2 18 33 5.125032696154978 0 78.0 5.125032696154978 1
gene  2 19 33 1.5174409258266484 0 79.0 1.5174409258266484 1
gene  2 20 33 -1.9099087575787355 0 80.0 -1.9099087575787355 1
gene  2 21 33 2.9404557181942126 0 81.0 2.9404557181942126 1
gene  2 22 33 -2.009704393322429 0 82.0 -2.009704393322429 1
gene  2 23 33 7.327224181579326 0 83.0 7.327224181579326 1
gene  2 24 33 0.9273660251720444 0 84.0 0.9273660251720444 1
gene  2 25 33 -6.643098052925783 0 85.0 -6.643098052925783 1
gene  2 26 33 -4.406493266493214 0 86.0 -4.406493266493214 1
gene  2 27 33 -4.278789720810522 0 87.0 -4.278789720810522 1
gene  2 28 33 -5.558047157461888 0 88.0 -5.558047157461888 1
gene  2 29 33 -29.19658147971461 0 89.0 -29.19658147971461 1
gene  2 30 33 -3.892872898630963 0 90.0 -3.892872898630963 1
gene  2 1 34 2.008047994392623 0 91.0 2.008047994392623 1
gene  2 2 34 -11.398065828494657 0 92.0 -11.398065828494657 1
gene  2 3 34 4.05669929634212 0 93.0 4.05669929634212 1
gene  2 4 34 6.839809978019121 0 94.0 6.839809978019121 1
gene  2 5 34 -0.08096577170676217 0 95.0 -0.08096577170676217 1
gene  2 6 34 -5.221439815205165 0 96.0 -5.221439815205165 1
gene  2 7 34 -1.015379501010077 0 97.0 -1.015379501010077 1
gene  2 8 34 1.385462742734111 0 98.0 1.385462742734111 1
gene  2 9 34 -2.1679832826701344 0 99.0 -2.1679832826701344 1
gene  2 10 34 -1.4947545767389032 0 100.0 -1.4947545767389032 1
gene  2 11 34 -3.079841495747964 0 101.0 -3.079841495747964 1
gene  2 12 34 -3.6256492507532894 0 102.0 -3.6256492507532894 1
gene  2 13 34 3.472267724391859 0 103.0 3.472267724391859 1
gene  2 14 34 4.643162290019302 0 104.0 4.643162290019302 1
gene  2 15 34 22.373804359223687 0 105.0 22.373804359223687 1
gene  2 16 34 2.9081113466704682 0 106.0 2.9081113466704682 1
gene  2 17 34 2.878168129571632 0 107.0 2.878168129571632 1
gene  2 18 34 -1.5014629713810166 0 108.0 -1.5014629713810166 1
gene  2 19 34 -3.2509659040313923 0 109.0 -3.2509659040313923 1
gene  2 20 34 0.2948073990896991 0 110.0 0.2948073990896991 1
gene  2 21 34 3.3090557130901557 0 111.0 3.3090557130901557 1
gene  2 22 34 7.45130125010215 0 112.0 7.45130125010215 1
gene  2 23 34 7.300764290611365 0 113.0 7.300764290611365 1
gene  2 24 34 -0.7153164797014746 0 114.0 -0.7153164797014746 1
gene  2 25 34 -2.451645434456952 0 115.0 -2.451645434456952 1
gene  2 26 34 -3.1745431943012505 0 116.0 -3.1745431943012505 1
gene  2 27 34 -4.409169000684976 0 117.0 -4.409169000684976 1
gene  2 28 34 5.53066824927218 0 118.0 5.53066824927218 1
gene  2 29 34 3.891555231917549 0 119.0 3.891555231917549 1
gene  2 30 34 -6.72657486712494 0 120.0 -6.72657486712494 1
gene  2 1 35 -15.907073080995229 0 121.0 -15.907073080995229 1
gene  2 2 35 0.9515681214087011 0 122.0 0.9515681214087011 1
gene  2 3 35 -3.3207776277008887 0 123.0 -3.3207776277008887 1
gene  2 4 35 -0.22141962090718303 0 124.0 -0.22141962090718303 0
gene  2 5 35 -2.3514976618970516 0 125.0 -2.3514976618970516 1
gene  2 6 35 5.061739708233784 0 126.0 5.061739708233784 1
gene  2 7 35 0.651216129823047 0 127.0 0.651216129823047 1
gene  2 8 35 4.035337273350304 0 128.0 4.035337273350304 1
gene  2 9 35 -1.2590225495327325 0 129.0 -1.2590225495327325 1
gene  2 10 35 2.3492690370764646 0 130.0 2.3492690370764646 1
gene  2 11 35 0.7284447326301442 0 131.0 0.7284447326301442 1
gene  2 12 35 0.9730763996701163 0 132.0 0.9730763996701163 1
gene  2 13 35 2.7059598950547183 0 133.0 2.7059598950547183 1
gene  2 14 35 1.5187248760895484 0 134.0 1.5187248760895484 1
gene  2 15 35 -4.540869486264952 0 135.0 -4.540869486264952 1
gene  2 16 35 -0.07637054149600608 0 136.0 -0.07637054149600608 1
gene  2 17 35 0.0514126417987435 0 137.0 0.0514126417987435 1
gene  2 18 35 -12.535086924221226 0 138.0 -12.535086924221226 1
gene  2 19 35 -0.007199412885117162 0 139.0 -0.007199412885117162 1
gene  2 20 35 1.743901865316806 0 140.0 1.743901865316806 1
gene  2 21 35 -4.654050282598501 0 141.0 -4.654050282598501 1
gene  2 22 35 -1.372769676564741 0 142.0 -1.372769676564741 1
gene  2 23 35 -4.497415818933206 0 143.0 -4.497415818933206 1
gene  2 24 35 1.380990919712567 0 144.0 1.380990919712567 1
gene  2 25 35 -0.18525101220416929 0 145.0 -0.18525101220416929 1
gene  2 26 35 0.9430590131979002 0 146.0 0.9430590131979002 1
gene  2 27 35 -0.7196228342181469 0 147.0 -0.7196228342181469 1
gene  2 28 35 -2.70634685271193 0 148.0 -2.70634685271193 1
gene  2 29 35 -11.316701667952016 0 149.0 -11.316701667952016 1
gene  2 30 35 -9.724012404963494 0 150.0 -9.724012404963494 1
gene  2 1 36 3.1642941201663213 0 151.0 3.1642941201663213 1
gene  2 2 36 -2.039055854177243 0 152.0 -2.039055854177243 1
gene  2 3 36 2.8695395928024956 0 153.0 2.8695395928024956 1
gene  2 4 36 5.097558317066545 0 154.0 5.097558317066545 1
gene  2 5 36 1.7199877017594019 0 155.0 1.7199877017594019 1
gene  2 6 36 -0.7476081296454118 0 156.0 -0.7476081296454118 1
gene  2 7 36 -11.26434333949901 0 157.0 -11.26434333949901 1
gene  2 8 36 3.7799137235768216 0 158.0 3.7799137235768216 1
gene  2 9 36 0.7463480254020058 0 159.0 0.7463480254020058 1
gene  2 10 36 -2.1845575386125753 0 160.0 -2.1845575386125753 1
gene  2 11 36 -5.353233518281315 0 161.0 -5.353233518281315 1
gene  2 12 36 -1.002693203578608 0 162.0 -1.002693203578608 1
gene  2 13 36 0.4240947304126347 0 163.0 0.4240947304126347 1
gene  2 14 36 3.3355624141157887 0 164.0 3.3355624141157887 1
gene  2 15 36 0.4946071537886096 0 165.0 0.4946071537886096 1
gene  2 16 36 -2.119275479431548 0 166.0 -2.119275479431548 1
gene  2 17 36 0.13393785449310303 0 167.0 0.13393785449310303 1
gene  2 18 36 0.07232764871194702 0 168.0 0.07232764871194702 1
gene  2 19 36 3.895157688974824 0 169.0 3.895157688974824 1
gene  2 20 36 4.307182112643648 0 170.0 4.307182112643648 1
gene  2 21 36 0.17647033530510892 0 171.0 0.17647033530510892 1
gene  2 22 36 -2.10131879749552 0 172.0 -2.10131879749552 1
gene  2 23 36 -1.6898168390991075 0 173.0 -1.6898168390991075 1
gene  2 24 36 -9.118926297647585 0 174.0 -9.118926297647585 1
gene  2 25 36 -0.4170777687778515 0 175.0 -0.4170777687778515 1
gene  2 26 36 0.19070706949628974 0 176.0 0.19070706949628974 0
gene  2 27 36 2.4702591942414927 0 177.0 2.4702591942414927 1
gene  2 28 36 3.7827115494226526 0 178.0 3.7827115494226526 1
gene  2 29 36 0.34142935302004407 0 179.0 0.34142935302004407 1
gene  2 30 36 1.7766192328741013 0 180.0 1.7766192328741013 1
gene  2 15 39 3.5777176373688784 0 188.0 3.5777176373688784 1
gene  2 39 35 1.2673454404353222 0 189.0 1.2673454404353222 1
gene  2 23 39 0.4253039413980999 0 207.0 0.4253039413980999 1
gene  2 31 33 -1.76569816217908 0 249.0 -1.76569816217908 1
gene  2 26 55 0.8048409667388268 0 256.0 0.8048409667388268 1
gene  2 55 33 -2.642665698486633 0 257.0 -2.642665698486633 1
gene  2 19 59 -1.5882401882450423 0 273.0 -1.5882401882450423 1
gene  2 59 32 1.278913385402798 0 274.0 1.278913385402798 1
gene  2 12 39 -2.4044360044020117 0 277.0 -2.4044360044020117 1
gene  2 24 55 0.42476203367753984 0 307.0 0.42476203367753984 1
gene  2 59 33 -5.970552327797153 0 327.0 -5.970552327797153 1
gene  1 3 59 5.619601540984744 0 362.0 5.619601540984744 1
gene  2 4 74 1.1670873772817663 0 366.0 1.1670873772817663 1
gene  2 74 35 8.366972556851753 0 367.0 8.366972556851753 1
gene  1 29 59 3.377713704244838 0 389.0 3.377713704244838 1
gene  2 23 88 -1.5378217059219932 0 441.0 -1.5378217059219932 1
gene  2 88 32 1.9963398492016198 0 442.0 1.9963398492016198 1
gene  1 13 74 0.14213116892286148 0 547.0 0.14213116892286148 1
gene  2 26 118 -0.0481112209953119 0 569.0 -0.0481112209953119 1
gene  2 118 36 -0.7695148612772157 0 570.0 -0.7695148612772157 1
gene  2 25 122 5.164617735764917 0 581.0 5.164617735764917 1
gene  2 122 33 2.5729592808926824 0 582.0 2.5729592808926824 1
gene  1 122 32 1.0179217431755763 0 644.0 1.0179217431755763 1
gene  2 12 88 -0.5161083305353518 0 753.0 -0.5161083305353518 1
genomeend 5
genomestart  6
trait 1 0.1 0.0 0.0 0.1693715065667284 0.0 0.10306735906291292 0.33859219751694225 0.0 
trait 2 0.9846326489587565 0.06104451854167903 0.0 0.0 0.0 0.41760394713775695 1.3725535162819755 0.0 
node 1 1 1 3
node 2 1 1 1
node 3 1 1 1
node 4 1 1 1
node 5 1 1 1
node 6 1 1 1
node 7 1 1 1
node 8 1 1 1
node 9 1 1 1
node 10 2 1 1
node 11 1 1 1
node 12 1 1 1
node 13 1 1 1
node 14 1 1 1
node 15 1 1 1
node 16 1 1 1
node 17 1 1 1
node 18 1 1 1
node 19 1 1 1
node 20 1 1 1
node 21 1 1 1
node 22 1 1 1
node 23 1 1 1
node 24 1 1 1
node 25 1 1 1
node 26 1 1 1
node 27 1 1 1
node 28 2 1 1
node 29 1 1 1
node 30 2 1 1
node 31 1 0 2
node 32 1 0 2
node 33 1 0 2
node 34 1 0 2
node 35 1 0 2
node 36 1 0 2
node 39 1 0 0
node 55 1 0 0
node 59 1 0 0
node 74 1 0 0
node 88 1 0 0
node 118 1 0 0
node 122 1 0 0
gene  1 1 31 -14.661370014588824 0 1.0 -14.661370014588824 1
gene  2 2 31 2.4124424346280366 0 2.0 2.4124424346280366 1
gene  2 3 31 -6.981128542797929 0 3.0 -6.981128542797929 1
gene  2 4 31 2.15396779252219 0 4.0 2.15396779252219 1
gene  2 5 31 5.524883571937382 0 5.0 5.524883571937382 1
gene  2 6 31 0.5497117213160723 0 6.0 0.5497117213160723 1
gene  2 7 31 -2.7577660526971495 0 7.0 -2.7577660526971495 1
gene  2 8 31 -1.8520912311868132 0 8.0 -1.8520912311868132 1
gene  2 9 31 10.076670760732963 0 9.0 10.076670760732963 1
gene  2 10 31 9.142894795996202 0 10.0 9.142894795996202 1
gene  2 11 31 0.575772289183575 0 11.0 0.575772289183575 1
gene  2 12 31 1.926492855728417 0 12.0 1.926492855728417 1
gene  2 13 31 -2.138770271457739 0 13.0 -2.138770271457739 1
gene  2 14 31 -4.330310818636049 0 14.0 -4.330310818636049 1
gene  2 15 31 -14.954795676439335 0 15.0 -14.954795676439335 1
gene  2 16 31 1.8761703567369923 0 16.0 1.8761703567369923 1
gene  2 17 31 -1.8292796651364305 0 17.0 -1.8292796651364305 1
gene  2 18 31 -0.5297247003928387 0 18.0 -0.5297247003928387 1
gene  2 19 31 0.14420186471687468 0 19.0 0.14420186471687468 1
gene  2 20 31 0.7444099705718321 0 20.0 0.7444099705718321 1
gene  2 21 31 0.9079454630487604 0 21.0 0.9079454630487604 1
gene  2 22 31 -5.884887883340723 0 22.0 -5.884887883340723 1
gene  2 23 31 0.5067061571465343 0 23.0 0.5067061571465343 1
gene  2 24 31 1.977584152267029 0 24.0 1.977584152267029 1
gene  2 25 31 2.1326896966324065 0 25.0 2.1326896966324065 1
gene  2 26 31 -10.76729072540936 0 26.0 -10.76729072540936 1
gene  2 27 31 2.0021505231992567 0 27.0 2.0021505231992567 1
gene  2 28 31 3.929280219544007 0 28.0 3.929280219544007 1
gene  2 29 31 6.7145016298008855 0 29.0 6.7145016298008855 1
gene  2 30 31 -1.2558323559657412 0 30.0 -1.2558323559657412 1
gene  2 1 32 -3.2081080118751952 0 31.0 -3.2081080118751952 1
gene  2 2 32 3.6289657824745545 0 32.0 3.6289657824745545 1
gene  2 3 32 2.0374608885663097 0 33.0 2.0374608885663097 1
gene  2 4 32 -2.4861738724435933 0 34.0 -2.4861738724435933 1
gene  2 5 32 -0.8479328141832037 0 35.0 -0.8479328141832037 1
gene  2 6 32 8.834541330188227 0 36.0 8.834541330188227 1
gene  2 7 32 8.336473273823994 0 37.0 8.336473273823994 1
gene  2 8 32 -7.717682611078902 0 38.0 -7.717682611078902 1
gene  2 9 32 7.149730725149743 0 39.0 7.149730725149743 1
gene  2 10 32 1.0147329605316524 0 40.0 1.0147329605316524 1
gene  2 11 32 2.6367986768562623 0 41.0 2.6367986768562623 1
gene  2 12 32 2.4426648638051294 0 42.0 2.4426648638051294 1
gene  2 13 32 1.7177400190096703 0 43.0 1.7177400190096703 1
gene  2 14 32 -11.653152293508862 0 44.0 -11.653152293508862 1
gene  2 15 32 -2.5089164068549454 0 45.0 -2.5089164068549454 1
gene  2 16 32 -0.4292861398987344 0 46.0 -0.4292861398987344 1
gene  2 17 32 -1.4569598093219032 0 47.0 -1.4569598093219032 1
gene  2 18 32 3.7618159572222103 0 48.0 3.7618159572222103 1
gene  2 19 32 -0.15602066074480697 0 49.0 -0.15602066074480697 0
gene  2 20 32 2.2739249279876086 0 50.0 2.2739249279876086 1
gene  2 21 32 -1.5192099391721838 0 51.0 -1.5192099391721838 1
gene  2 22 32 -4.820809463821263 0 52.0 -4.820809463821263 1
gene  2 23 32 -3.062445535246403 0 53.0 -3.062445535246403 1
gene  2 24 32 -1.6943909085198148 0 54.0 -1.6943909085198148 1
gene  2 25 32 0.4651019151744854 0 55.0 0.4651019151744854 1
gene  2 26 32 8.189798993521201 0 56.0 8.189798993521201 1
gene  2 27 32 -1.9808020526157746 0 57.0 -1.9808020526157746 1
gene  2 28 32 -2.74014437833796 0 58.0 -2.74014437833796 1
gene  2 29 32 6.2295813409533825 0 59.0 6.2295813409533825 1
gene  2 30 32 3.2641470615634205 0 60.0 3.2641470615634205 1
gene  2 1 33 -6.284858751044495 0 61.0 -6.284858751044495 1
gene  2 2 33 -6.03329163038868 0 62.0 -6.03329163038868 1
gene  2 3 33 -0.08681224863196779 0 63.0 -0.08681224863196779 1
gene  2 4 33 3.753508404138863 0 64.0 3.753508404138863 1
gene  2 5 33 -0.27586065775500823 0 65.0 -0.27586065775500823 1
gene  2 6 33 -0.8998671794966815 0 66.0 -0.8998671794966815 1
gene  2 7 33 3.844769614699171 0 67.0 3.844769614699171 1
gene  2 8 33 0.9351221112345385 0 68.0 0.9351221112345385 1
gene  2 9 33 0.9399213661644401 0 69.0 0.9399213661644401 1
gene  2 10 33 -7.5833577754054105 0 70.0 -7.5833577754054105 1
gene  2 11 33 0.3767509177722326 0 71.0 0.3767509177722326 1
gene  2 12 33 1.3076078319446531 0 72.0 1.3076078319446531 1
gene  2 13 33 -5.8252840743666425 0 73.0 -5.8252840743666425 1
gene  2 14 33 2.9325757649523285 0 74.0 2.9325757649523285 1
gene  2 15 33 -2.4768223071500204 0 75.0 -2.4768223071500204 1
gene  2 16 33 -1.945742539131425 0 76.0 -1.945742539131425 1
gene  2 17 33 -2.010188056554579 0 77.0 -2.010188056554579 1
gene  2 18 33 2.421273878518477 0 78.0 2.421273878518477 1
gene  2 19 33 1.621315871433445 0 79.0 1.621315871433445 1
gene  2 20 33 -3.0285061242715123 0 80.0 -3.0285061242715123 1
gene  2 21 33 5.099761663249926 0 81.0 5.099761663249926 1
gene  2 22 33 0.9788853610732344 0 82.0 0.9788853610732344 1
gene  2 23 33 7.146303597525583 0 83.0 7.146303597525583 1
gene  2 24 33 2.7405623352534545 0 84.0 2.7405623352534545 1
gene  2 25 33 -9.01045354842315 0 85.0 -9.01045354842315 1
gene  2 26 33 -6.162465557985991 0 86.0 -6.162465557985991 1
gene  2 27 33 -5.530377517638839 0 87.0 -5.530377517638839 1
gene  2 28 33 -3.7024744621808767 0 88.0 -3.7024744621808767 1
gene  2 29 33 -27.59174929950902 0 89.0 -27.59174929950902 1
gene  2 30 33 -4.47751648880067 0 90.0 -4.47751648880067 1
gene  2 1 34 4.651550964403354 0 91.0 4.651550964403354 1
gene  2 2 34 -11.516322501291837 0 92.0 -11.516322501291837 1
gene  2 3 34 2.4751342617345653 0 93.0 2.4751342617345653 1
gene  2 4 34 -1.8329065687883639 0 94.0 -1.8329065687883639 1
gene  2 5 34 -1.0319413337152263 0 95.0 -1.0319413337152263 1
gene  2 6 34 1.4257880960963907 0 96.0 1.4257880960963907 1
gene  2 7 34 1.2778882208418505 0 97.0 1.2778882208418505 1
gene  2 8 34 0.39735096220884025 0 98.0 0.39735096220884025 1
gene  2 9 34 0.4045633918566548 0 99.0 0.4045633918566548 1
gene  2 10 34 -0.49462581925268967 0 100.0 -0.49462581925268967 1
gene  2 11 34 1.065688567670235 0 101.0 1.065688567670235 1
gene  2 12 34 -1.47408808588388 0 102.0 -1.47408808588388 1
gene  2 13 34 0.5690966269833511 0 103.0 0.5690966269833511 1
gene  2 14 34 -0.6321444980149846 0 104.0 -0.6321444980149846 1
gene  2 15 34 20.966133509199672 0 105.0 20.966133509199672 1
gene  2 16 34 -0.7212974220934285 0 106.0 -0.7212974220934285 1
gene  2 17 34 3.4801312293328213 0 107.0 3.4801312293328213 1
gene  2 18 34 -1.8772739721550242 0 108.0 -1.8772739721550242 1
gene  2 19 34 0.3220363507502935 0 109.0 0.3220363507502935 1
gene  2 20 34 -1.0936992619664458 0 110.0 -1.0936992619664458 1
gene  2 21 34 2.729524673649893 0 111.0 2.729524673649893 1
gene  2 22 34 6.18595300472715 0 112.0 6.18595300472715 1
gene  2 23 34 5.856808552950289 0 113.0 5.856808552950289 1
gene  2 24 34 0.7850940773419476 0 114.0 0.7850940773419476 1
gene  2 25 34 -1.2440972926806722 0 115.0 -1.2440972926806722 1
gene  2 26 34 -0.5269991155123789 0 116.0 -0.5269991155123789 1
gene  2 27 34 -7.6737710119915405 0 117.0 -7.6737710119915405 1
gene  2 28 34 5.526808654531643 0 118.0 5.526808654531643 1
gene  2 29 34 4.698903657896256 0 119.0 4.698903657896256 1
gene  2 30 34 -6.965701281806341 0 120.0 -6.965701281806341 1
gene  2 1 35 -11.28195025420284 0 121.0 -11.28195025420284 1
gene  2 2 35 -2.1928431944731783 0 122.0 -2.1928431944731783 1
gene  2 3 35 -1.7556130327798127 0 123.0 -1.7556130327798127 1
gene  2 4 35 -1.60370556255529 0 124.0 -1.60370556255529 0
gene  2 5 35 -2.3200783767205344 0 125.0 -2.3200783767205344 1
gene  2 6 35 1.6756425337853176 0 126.0 1.6756425337853176 1
gene  2 7 35 2.449514150447528 0 127.0 2.449514150447528 1
gene  2 8 35 -2.277891952957797 0 128.0 -2.277891952957797 1
gene  2 9 35 -1.607859772496895 0 129.0 -1.607859772496895 1
gene  2 10 35 0.25260982028263745 0 130.0 0.25260982028263745 1
gene  2 11 35 1.7262685793839854 0 131.0 1.7262685793839854 1
gene  2 12 35 0.06973109425477142 0 132.0 0.06973109425477142 1
gene  2 13 35 3.0743977401106166 0 133.0 3.0743977401106166 1
gene  2 14 35 0.14662578013215133 0 134.0 0.14662578013215133 1
gene  2 15 35 -2.29866345637961 0 135.0 -2.29866345637961 1
gene  2 16 35 3.513460777160012 0 136.0 3.513460777160012 1
gene  2 17 35 -1.1832134952471036 0 137.0 -1.1832134952471036 1
gene  2 18 35 -10.203109049147436 0 138.0 -10.203109049147436 1
gene  2 19 35 1.7964856345666538 0 139.0 1.7964856345666538 1
gene  2 20 35 1.0541594247502122 0 140.0 1.0541594247502122 1
gene  2 21 35 -3.612726688949852 0 141.0 -3.612726688949852 1
gene  2 22 35 -3.0080154078446966 0 142.0 -3.0080154078446966 1
gene  2 23 35 -1.9547795960138417 0 143.0 -1.9547795960138417 1
gene  2 24 35 0.2791536654250497 0 144.0 0.2791536654250497 1
gene  2 25 35 0.9064750398446089 0 145.0 0.9064750398446089 1
gene  2 26 35 -0.8889887690648048 0 146.0 -0.8889887690648048 1
gene  2 27 35 -2.026625301921052 0 147.0 -2.026625301921052 1
gene  2 28 35 -0.1985025981838312 0 148.0 -0.1985025981838312 1
gene  2 29 35 -9.502453083132746 0 149.0 -9.502453083132746 1
gene  2 30 35 -2.301834066246159 0 150.0 -2.301834066246159 1
gene  2 1 36 1.210105831446218 0 151.0 1.210105831446218 1
gene  2 2 36 0.4343713147950773 0 152.0 0.4343713147950773 1
gene  2 3 36 3.7568637787193713 0 153.0 3.7568637787193713 1
gene  2 4 36 4.123112035902699 0 154.0 4.123112035902699 1
gene  2 5 36 2.0486568228747544 0 155.0 2.0486568228747544 1
gene  2 6 36 -1.9532658573467092 0 156.0 -1.9532658573467092 1
gene  2 7 36 -8.807194394578673 0 157.0 -8.807194394578673 1
gene  2 8 36 5.701598495148451 0 158.0 5.701598495148451 1
gene  2 9 36 0.9971070906599435 0 159.0 0.9971070906599435 1
gene  2 10 36 -3.690335639436474 0 160.0 -3.690335639436474 1
gene  2 11 36 -7.540499040849189 0 161.0 -7.540499040849189 1
gene  2 12 36 -1.1652568170399986 0 162.0 -1.1652568170399986 1
gene  2 13 36 -0.43425338163838645 0 163.0 -0.43425338163838645 1
gene  2 14 36 3.7519574463132788 0 164.0 3.7519574463132788 1
gene  2 15 36 1.2665719043667085 0 165.0 1.2665719043667085 1
gene  2 16 36 -0.4047071072659397 0 166.0 -0.4047071072659397 1
gene  2 17 36 1.727960444090868 0 167.0 1.727960444090868 1
gene  2 18 36 0.07232764871194702 0 168.0 0.07232764871194702 1
gene  2 19 36 2.8345701774734775 0 169.0 2.8345701774734775 1
gene  2 20 36 0.5992071853887824 0 170.0 0.5992071853887824 1
gene  2 21 36 -2.0971563128817197 0 171.0 -2.0971563128817197 1
gene  2 22 36 -1.4170269548698613 0 172.0 -1.4170269548698613 1
gene  2 23 36 -2.0042592711937814 0 173.0 -2.0042592711937814 1
gene  2 24 36 -7.921957565928478 0 174.0 -7.921957565928478 1
gene  2 25 36 -1.8809951454187688 0 175.0 -1.8809951454187688 1
gene  2 26 36 0.506264490858447 0 176.0 0.506264490858447 0
gene  2 27 36 3.311861976348367 0 177.0 3.311861976348367 1
gene  2 28 36 1.386117386866398 0 178.0 1.386117386866398 1
gene  2 29 36 1.3893658628496204 0 179.0 1.3893658628496204 1
gene  2 30 36 -0.416640046182736 0 180.0 -0.416640046182736 1
gene  2 15 39 2.716567030396561 0 188.0 2.716567030396561 1
gene  2 39 35 0.9415740740577492 0 189.0 0.9415740740577492 1
gene  2 23 39 0.6951878421410709 0 207.0 0.6951878421410709 1
gene  2 31 33 0.8837078413907051 0 249.0 0.8837078413907051 1
gene  2 26 55 0.19662840593123676 0 256.0 0.19662840593123676 1
gene  2 55 33 -0.924250856016583 0 257.0 -0.924250856016583 1
gene  2 19 59 -0.7702366461594701 0 273.0 -0.7702366461594701 1
gene  2 59 32 -0.7062489948428412 0 274.0 -0.7062489948428412 1
gene  2 12 39 -1.4303365133585002 0 277.0 -1.4303365133585002 1
gene  2 24 55 -0.689095171423956 0 307.0 -0.689095171423956 1
gene  2 59 33 -4.510397854954675 0 327.0 -4.510397854954675 1
gene  1 3 59 5.3596036684023804 0 362.0 5.3596036684023804 1
gene  2 4 74 1.73322029384817 0 366.0 1.73322029384817 1
gene  2 74 35 -1.3114660474496984 0 367.0 -1.3114660474496984 1
gene  1 29 59 -0.8655199361701621 0 389.0 -0.8655199361701621 1
gene  2 23 88 -3.4238747223177795 0 441.0 -3.4238747223177795 1
gene  2 88 32 -0.43448249221340873 0 442.0 -0.43448249221340873 1
gene  1 13 74 2.597468621433344 0 547.0 2.597468621433344 1
gene  2 26 118 2.1829404901254192 0 569.0 2.1829404901254192 1
gene  2 118 36 2.2885400357747017 0 570.0 2.2885400357747017 1
gene  2 25 122 7.02985453642037 0 581.0 7.02985453642037 1
gene  2 122 33 1.8245702066943603 0 582.0 1.8245702066943603 1
gene  1 122 32 -0.03243983896073471 0 644.0 -0.03243983896073471 1
gene  2 12 88 -0.36859155848847713 0 753.0 -0.36859155848847713 1
genomeend 6
genomestart  7
trait 1 0.1 0.0 0.0 0.0 0.0 0.13742314541721723 0.45145626335592304 0.0 
trait 2 1.2443179503896973 0.0 0.0 0.0 0.0 0.0 1.5764123971589674 0.0 
node 1 1 1 3
node 2 1 1 1
node 3 1 1 1
node 4 1 1 1
node 5 1 1 1
node 6 1 1 1
node 7 1 1 1
node 8 1 1 1
node 9 1 1 1
node 10 2 1 1
node 11 1 1 1
node 12 1 1 1
node 13 1 1 1
node 14 1 1 1
node 15 1 1 1
node 16 1 1 1
node 17 1 1 1
node 18 1 1 1
node 19 1 1 1
node 20 1 1 1
node 21 1 1 1
node 22 1 1 1
node 23 1 1 1
node 24 1 1 1
node 25 1 1 1
node 26 1 1 1
node 27 1 1 1
node 28 2 1 1
node 29 1 1 1
node 30 1 1 1
node 31 1 0 2
node 32 1 0 2
node 33 1 0 2
node 34 1 0 2
node 35 1 0 2
node 36 1 0 2
node 39 1 0 0
node 55 1 0 0
node 59 1 0 0
node 74 1 0 0
node 88 1 0 0
node 114 1 0 0
node 123 1 0 0
node 133 1 0 0
gene  1 1 31 -14.817948766490044 0 1.0 -14.817948766490044 1
gene  2 2 31 1.090699428232601 0 2.0 1.090699428232601 1
gene  2 3 31 14.639249711310153 0 3.0 14.639249711310153 1
gene  2 4 31 3.9837615036059706 0 4.0 3.9837615036059706 1
gene  2 5 31 -3.2776520031533147 0 5.0 -3.2776520031533147 1
gene  2 6 31 -0.7088433501730191 0 6.0 -0.7088433501730191 1
gene  2 7 31 -0.2731416789828559 0 7.0 -0.2731416789828559 1
gene  2 8 31 4.211494716687026 0 8.0 4.211494716687026 1
gene  2 9 31 19.188876016128987 0 9.0 19.188876016128987 1
gene  2 10 31 2.1697063841818647 0 10.0 2.1697063841818647 1
gene  2 11 31 -0.2708914985610697 0 11.0 -0.2708914985610697 1
gene  2 12 31 5.036678568804935 0 12.0 5.036678568804935 1
gene  1 13 31 -3.2945748001062185 0 13.0 -3.2945748001062185 1
gene  2 14 31 -6.819241240667827 0 14.0 -6.819241240667827 1
gene  2 15 31 -4.9968997069743555 0 15.0 -4.9968997069743555 1
gene  2 16 31 4.961491474691094 0 16.0 4.961491474691094 1
gene  2 17 31 13.04000829024947 0 17.0 13.04000829024947 1
gene  2 18 31 2.2118238461766113 0 18.0 2.2118238461766113 1
gene  2 19 31 -6.1483078202749315 0 19.0 -6.1483078202749315 1
gene  2 20 31 -7.801973246151401 0 20.0 -7.801973246151401 1
gene  2 21 31 -5.580423981295131 0 21.0 -5.580423981295131 1
gene  2 22 31 0.044163101147984385 0 22.0 0.044163101147984385 0
gene  2 23 31 -0.35834478805543846 0 23.0 -0.35834478805543846 1
gene  2 24 31 5.172026123351008 0 24.0 5.172026123351008 1
gene  2 25 31 1.4597844157257223 0 25.0 1.4597844157257223 1
gene  2 26 31 2.2082010482694114 0 26.0 2.2082010482694114 1
gene  2 27 31 -0.852786365948047 0 27.0 -0.852786365948047 1
gene  2 28 31 1.0223623978913847 0 28.0 1.0223623978913847 1
gene  2 29 31 2.2219258634237207 0 29.0 2.2219258634237207 1
gene  2 30 31 1.7063441052026733 0 30.0 1.7063441052026733 1
gene  2 1 32 3.9446049384466932 0 31.0 3.9446049384466932 1
gene  2 2 32 2.5638080874462075 0 32.0 2.5638080874462075 1
gene  2 3 32 -1.2132472142141657 0 33.0 -1.2132472142141657 1
gene  2 4 32 0.6016929542595723 0 34.0 0.6016929542595723 1
gene  2 5 32 1.6867551235838665 0 35.0 1.6867551235838665 1
gene  2 6 32 -5.303794371729807 0 36.0 -5.303794371729807 1
gene  2 7 32 -2.4369564971471824 0 37.0 -2.4369564971471824 1
gene  2 8 32 -6.5901842156855714 0 38.0 -6.5901842156855714 1
gene  2 9 32 1.3684021953485825 0 39.0 1.3684021953485825 1
gene  2 10 32 6.819743620305399 0 40.0 6.819743620305399 1
gene  2 11 32 -4.16057635426926 0 41.0 -4.16057635426926 1
gene  2 12 32 -1.2896355083670406 0 42.0 -1.2896355083670406 1
gene  2 13 32 -9.551612024247447 0 43.0 -9.551612024247447 1
gene  2 14 32 -1.4566481243681282 0 44.0 -1.4566481243681282 1
gene  2 15 32 -1.2209705589763624 0 45.0 -1.2209705589763624 1
gene  2 16 32 4.457728444833882 0 46.0 4.457728444833882 1
gene  2 17 32 0.5766311155525794 0 47.0 0.5766311155525794 1
gene  2 18 32 -1.5985000348623384 0 48.0 -1.5985000348623384 1
gene  2 19 32 -11.954579291152887 0 49.0 -11.954579291152887 0
gene  2 20 32 -4.488294600048013 0 50.0 -4.488294600048013 1
gene  2 21 32 19.10747064843528 0 51.0 19.10747064843528 1
gene  2 22 32 0.5863529733291737 0 52.0 0.5863529733291737 1
gene  2 23 32 3.0874169169480306 0 53.0 3.0874169169480306 1
gene  2 24 32 2.765427025616632 0 54.0 2.765427025616632 1
gene  2 25 32 4.786852949091535 0 55.0 4.786852949091535 1
gene  2 26 32 -0.3915232809122251 0 56.0 -0.3915232809122251 1
gene  2 27 32 1.8698796977778311 0 57.0 1.8698796977778311 1
gene  2 28 32 -1.9726617830610491 0 58.0 -1.9726617830610491 1
gene  2 29 32 -2.0882584488252336 0 59.0 -2.0882584488252336 1
gene  2 30 32 3.719650906226052 0 60.0 3.719650906226052 1
gene  2 1 33 1.7016810221427154 0 61.0 1.7016810221427154 1
gene  2 2 33 4.517187363340906 0 62.0 4.517187363340906 1
gene  2 3 33 -0.7731860598396036 0 63.0 -0.7731860598396036 1
gene  2 4 33 -0.4845244282017678 0 64.0 -0.4845244282017678 1
gene  2 5 33 6.629525850321056 0 65.0 6.629525850321056 1
gene  2 6 33 3.333631495518315 0 66.0 3.333631495518315 1
gene  2 7 33 3.941711038234676 0 67.0 3.941711038234676 1
