genomestart  0
trait 1 1.0250857033585747 0.27707961942569176 0.15809469960011385 0.0 0.2514374830677016 0.0 0.0 0.053624658311804546 
trait 2 2.354324471299045 0.0 0.659708618295936 0.0 0.0 0.0 0.5038344613940436 0.14909413983521724 
node 1 2 1 1
node 2 2 1 1
node 3 1 1 1
node 4 1 1 1
node 5 1 1 1
node 6 1 1 1
node 7 1 1 1
node 8 1 1 1
node 9 1 1 1
node 10 2 1 1
node 11 2 1 1
node 12 1 1 1
node 13 1 1 1
node 14 1 1 1
node 15 1 1 1
node 16 1 1 1
node 17 2 1 3
node 18 1 0 2
node 19 1 0 2
node 20 1 0 2
node 21 1 0 2
node 22 2 0 2
node 23 1 0 2
node 112 1 0 0
node 208 1 0 0
node 244 1 0 0
node 271 1 0 0
node 411 1 0 0
node 429 1 0 0
node 484 1 0 0
node 488 1 0 0
node 648 1 0 0
node 707 2 0 0
node 809 1 0 0
node 910 1 0 0
node 914 1 0 0
node 1006 1 0 0
gene  1 17 18 -6.195628037829175 0 1.0 -6.195628037829175 1
gene  1 17 19 16.08165244767738 0 1.0 16.08165244767738 1
gene  1 17 20 -6.108050714308197 0 1.0 -6.108050714308197 1
gene  1 17 21 -0.33030137197873555 0 1.0 -0.33030137197873555 1
gene  1 17 22 -5.85766123763407 0 1.0 -5.85766123763407 1
gene  1 17 23 12.170321302100264 0 1.0 12.170321302100264 1
gene  1 7 18 -2.0122117765824896 0 17.0 -2.0122117765824896 1
gene  2 7 19 -4.637221122855807 0 18.0 -4.637221122855807 1
gene  2 7 20 10.06858000605268 0 19.0 10.06858000605268 1
gene  2 7 21 1.259483565029231 0 20.0 1.259483565029231 1
gene  1 7 22 7.817304739103316 0 21.0 7.817304739103316 1
gene  1 7 23 -0.5245814126641295 0 22.0 -0.5245814126641295 1
gene  1 15 18 -10.744471455779674 0 88.0 -10.744471455779674 1
gene  2 15 19 17.080844114338166 0 89.0 17.080844114338166 1
gene  2 15 20 -3.3728334716775956 0 90.0 -3.3728334716775956 1
gene  1 15 21 2.9739059775535193 0 91.0 2.9739059775535193 1
gene  2 15 22 4.00346746672755 0 92.0 4.00346746672755 1
gene  1 15 23 -6.796693197704677 0 93.0 -6.796693197704677 1
gene  2 5 18 -2.976111214276881 0 323.0 -2.976111214276881 1
gene  1 5 19 -5.056952396700167 0 324.0 -5.056952396700167 1
gene  1 5 20 -7.964995010924397 0 325.0 -7.964995010924397 1
gene  1 5 21 -0.32143233507935753 0 326.0 -0.32143233507935753 1
gene  1 5 22 2.4597120294474277 0 327.0 2.4597120294474277 1
gene  2 5 23 0.4383466312277693 0 328.0 0.4383466312277693 1
gene  2 18 21 -27.101179598233404 0 544.0 -27.101179598233404 1
gene  1 15 112 -0.04417721933870178 0 712.0 -0.04417721933870178 1
gene  1 112 21 15.759274336564957 0 713.0 15.759274336564957 1
gene  2 14 18 20.168495538838144 0 1046.0 20.168495538838144 1
gene  1 14 19 0.5940629599314431 0 1047.0 0.5940629599314431 1
gene  1 14 20 -4.934590322547371 0 1048.0 -4.934590322547371 1
gene  1 14 21 -0.7881032394748206 0 1049.0 -0.7881032394748206 1
gene  1 14 22 -6.98290209678409 0 1050.0 -6.98290209678409 1
gene  1 14 23 3.234233721821443 0 1051.0 3.234233721821443 1
gene  2 1 20 -11.692325541257185 0 1201.0 -11.692325541257185 1
gene  1 15 208 5.643437514841734 0 1556.0 5.643437514841734 1
gene  1 208 18 1.9050296802119693 0 1557.0 1.9050296802119693 1
gene  2 112 19 -3.7124760409414073 0 1703.0 -3.7124760409414073 1
gene  1 4 21 4.604176867642568 0 1772.0 4.604176867642568 1
gene  2 5 244 9.725093061157935 0 1822.0 9.725093061157935 1
gene  2 244 18 4.003170985452425 0 1823.0 4.003170985452425 1
gene  1 15 271 11.888726698314112 0 2042.0 11.888726698314112 1
gene  1 271 208 -8.208798336048396 0 2043.0 -8.208798336048396 1
gene  2 244 208 -11.07654719433407 0 2091.0 -11.07654719433407 1
gene  2 244 22 -13.533299487663655 0 2331.0 -13.533299487663655 1
gene  2 20 21 3.313217316833994 0 2428.0 3.313217316833994 1
gene  1 3 22 -14.510828259338064 0 2501.0 -14.510828259338064 1
gene  1 6 271 -3.052407222589399 0 2549.0 -3.052407222589399 1
gene  1 20 22 -5.577756626206182 0 2652.0 -5.577756626206182 1
gene  1 2 20 1.6038148628148274 0 2716.0 1.6038148628148274 1
gene  1 112 22 6.460449937960722 0 2785.0 6.460449937960722 1
gene  1 3 18 6.238510473220372 0 2978.0 6.238510473220372 1
gene  1 3 19 3.838940811398105 0 2979.0 3.838940811398105 0
gene  1 3 20 3.06041808805852 0 2980.0 3.06041808805852 1
gene  2 3 21 3.0130377045719023 0 2981.0 3.0130377045719023 1
gene  1 3 23 1.9843417689041152 0 2982.0 1.9843417689041152 1
gene  1 13 18 -26.812859592208607 0 3030.0 -26.812859592208607 1
gene  1 13 19 11.150771989302083 0 3031.0 11.150771989302083 1
gene  1 13 20 -9.985307559959821 0 3032.0 -9.985307559959821 1
gene  1 13 21 9.385716479272013 0 3033.0 9.385716479272013 1
gene  1 13 22 -2.582889526647639 0 3034.0 -2.582889526647639 1
gene  2 13 23 4.547410271416139 0 3023.0 4.547410271416139 1
gene  1 3 411 4.176230613083297 0 3178.0 4.176230613083297 1
gene  1 411 20 3.2506528063102182 0 3179.0 3.2506528063102182 1
gene  1 2 23 -5.559390351753641 0 3224.0 -5.559390351753641 1
gene  2 20 112 12.02024295422672 0 3249.0 12.02024295422672 1
gene  1 3 429 -2.052772503702796 0 3288.0 -2.052772503702796 1
gene  1 429 19 -0.4216152975283092 0 3289.0 -0.4216152975283092 1
gene  2 244 484 -4.164571903743823 0 3768.0 -4.164571903743823 1
gene  2 484 22 7.78770183666094 0 3769.0 7.78770183666094 1
gene  2 15 488 -1.780460760848106 0 3810.0 -1.780460760848106 1
gene  2 488 22 5.399621600360806 0 3811.0 5.399621600360806 1
gene  1 12 18 0.6025862653572278 0 3812.0 0.6025862653572278 1
gene  1 12 19 1.2955740745034316 0 3813.0 1.2955740745034316 1
gene  1 12 20 7.73215722027288 0 3814.0 7.73215722027288 1
gene  1 12 21 3.2021928074340718 0 3815.0 3.2021928074340718 1
gene  1 12 22 1.6983648326862144 0 3816.0 1.6983648326862144 1
gene  2 12 23 -12.292340462407624 0 3817.0 -12.292340462407624 1
gene  1 1 18 -6.515792320921311 0 4064.0 -6.515792320921311 1
gene  1 1 19 2.8746638667563214 0 4065.0 2.8746638667563214 1
gene  2 1 21 2.8631954504781283 0 4066.0 2.8631954504781283 1
gene  2 1 22 2.0853446314522497 0 4067.0 2.0853446314522497 1
gene  2 1 23 6.209235399627711 0 4068.0 6.209235399627711 1
gene  1 4 20 -4.531298917668559 0 4193.0 -4.531298917668559 1
gene  1 10 18 -4.365526602865691 0 4365.0 -4.365526602865691 1
gene  2 10 19 -0.761760883899889 0 4366.0 -0.761760883899889 1
gene  2 10 20 -7.59389896183743 0 4367.0 -7.59389896183743 1
gene  1 10 21 7.925367708842911 0 4368.0 7.925367708842911 1
gene  2 10 22 9.272302850361157 0 4369.0 9.272302850361157 1
gene  2 10 23 10.29226380195482 0 4370.0 10.29226380195482 1
gene  1 8 18 2.575076829514388 0 4406.0 2.575076829514388 1
gene  1 8 19 -3.7162855156304255 0 4407.0 -3.7162855156304255 1
gene  1 8 20 -6.516740292349716 0 4408.0 -6.516740292349716 1
gene  1 8 21 -1.9186099473191547 0 4409.0 -1.9186099473191547 1
gene  1 8 22 -1.2846800089258106 0 4410.0 -1.2846800089258106 0
gene  2 8 23 -1.3557997048333643 0 4411.0 -1.3557997048333643 1
gene  2 4 18 -3.0331072302045197 0 4485.0 -3.0331072302045197 1
gene  2 4 19 -3.2035595597643587 0 4486.0 -3.2035595597643587 1
gene  1 4 22 -12.50823288946213 0 4487.0 -12.50823288946213 1
gene  1 4 23 -8.295108410363937 0 4488.0 -8.295108410363937 1
gene  2 13 208 4.107992174966891 0 4719.0 4.107992174966891 1
gene  1 271 429 -1.1828286546034068 0 4762.0 -1.1828286546034068 1
gene  1 2 18 -4.3207842300691155 0 4882.0 -4.3207842300691155 1
gene  2 2 19 -1.5789655851053483 0 4883.0 -1.5789655851053483 1
gene  2 2 21 5.496926336363375 0 4884.0 5.496926336363375 1
gene  2 2 22 -2.471562080635197 0 4885.0 -2.471562080635197 1
gene  2 9 18 -0.4995672282469015 0 4961.0 -0.4995672282469015 1
gene  1 9 19 -1.1808351063198441 0 4962.0 -1.1808351063198441 0
gene  2 9 20 -0.3150916821720088 0 4963.0 -0.3150916821720088 1
gene  2 9 21 -3.333989733601766 0 4964.0 -3.333989733601766 1
gene  1 9 22 3.8089799745098176 0 4965.0 3.8089799745098176 1
gene  2 9 23 -1.131967063291413 0 4966.0 -1.131967063291413 1
gene  2 14 411 -13.967434102064825 0 5105.0 -13.967434102064825 1
gene  1 15 648 -10.093166399866877 0 5195.0 -10.093166399866877 0
gene  1 648 208 1.165983984869101 0 5196.0 1.165983984869101 1
gene  2 648 20 1.0245184281157589 0 5299.0 1.0245184281157589 1
gene  1 10 244 -7.332560671019209 0 5510.0 -7.332560671019209 1
gene  2 244 707 2.389009357559197 0 5636.0 2.389009357559197 1
gene  2 707 484 -1.789619057323691 0 5637.0 -1.789619057323691 1
gene  2 11 18 -1.1313975240258316 0 5891.0 -1.1313975240258316 1
gene  1 11 19 5.1669847967687685 0 5892.0 5.1669847967687685 1
gene  1 11 20 1.9444769815559266 0 5893.0 1.9444769815559266 1
gene  2 11 21 2.9729633540913487 0 5894.0 2.9729633540913487 1
gene  1 11 22 0.5483328577701043 0 5895.0 0.5483328577701043 1
gene  2 11 23 -0.56885834372963 0 5896.0 -0.56885834372963 1
gene  1 4 271 -2.642305781518549 0 5969.0 -2.642305781518549 1
gene  1 6 18 5.3879353091439945 0 6161.0 5.3879353091439945 1
gene  2 6 19 -4.3710863093589944 0 6162.0 -4.3710863093589944 1
gene  1 6 20 0.666238257086838 0 6163.0 0.666238257086838 1
gene  2 6 21 -1.8465623692777609 0 6164.0 -1.8465623692777609 1
gene  1 6 22 -0.14806880094426278 0 6165.0 -0.14806880094426278 1
gene  2 6 23 1.7986525587584539 0 6166.0 1.7986525587584539 1
gene  2 21 429 3.0663491154868923 0 6172.0 3.0663491154868923 1
gene  1 484 411 2.9307972738487598 0 6243.0 2.9307972738487598 1
gene  2 648 707 1.0566585528753585 0 6333.0 1.0566585528753585 1
gene  1 14 488 1.4979003419000645 0 6647.0 1.4979003419000645 1
gene  1 9 707 1.4405486318904444 0 6682.0 1.4405486318904444 1
gene  1 429 809 -0.07755605881669986 0 6709.0 -0.07755605881669986 1
gene  1 809 19 1.777257113493125 0 6710.0 1.777257113493125 1
gene  1 411 18 -1.8054520110822336 0 6838.0 -1.8054520110822336 1
gene  2 16 18 -0.6708940756047499 0 6839.0 -0.6708940756047499 1
gene  2 16 19 8.123110613317532 0 6840.0 8.123110613317532 1
gene  1 16 20 -1.2212450960142003 0 6841.0 -1.2212450960142003 1
gene  1 16 21 -1.5605633591388484 0 6842.0 -1.5605633591388484 1
gene  2 16 22 5.077755752279096 0 6843.0 5.077755752279096 1
gene  2 16 23 1.8191581296890686 0 6844.0 1.8191581296890686 1
gene  1 15 910 3.709164555008895 0 7369.0 3.709164555008895 1
gene  1 910 648 -2.4184844967424937 0 7370.0 -2.4184844967424937 1
gene  2 22 271 -2.114513869666516 0 7497.0 -2.114513869666516 1
gene  1 208 19 -5.477796115073805 0 7629.0 -5.477796115073805 1
gene  1 5 914 3.66444615892203 0 7641.0 3.66444615892203 1
gene  1 914 21 -0.39181946256389766 0 7642.0 -0.39181946256389766 1
gene  1 4 411 -1.0130127384401697 0 7676.0 -1.0130127384401697 1
gene  1 8 1006 -0.7251820718156283 0 8083.0 -0.7251820718156283 1
gene  1 1006 22 -1.8472744664619594 0 8084.0 -1.8472744664619594 1
gene  2 2 429 1.3786310188527735 0 8102.0 1.3786310188527735 1
gene  2 4 707 -2.486383586244218 0 8782.0 -2.486383586244218 1
gene  1 10 910 7.502213652466601 0 8979.0 7.502213652466601 1
gene  2 411 22 8.794760517523466 0 9169.0 8.794760517523466 1
genomeend 0
genomestart  1
trait 1 1.0250857033585747 0.27707961942569176 0.15809469960011385 0.0 0.2514374830677016 0.0 0.0 0.053624658311804546 
trait 2 2.354324471299045 0.0 0.659708618295936 0.0 0.0 0.0 0.5038344613940436 0.14909413983521724 
node 1 2 1 1
node 2 2 1 1
node 3 1 1 1
node 4 1 1 1
node 5 1 1 1
node 6 1 1 1
node 7 1 1 1
node 8 1 1 1
node 9 1 1 1
node 10 2 1 1
node 11 2 1 1
node 12 1 1 1
node 13 1 1 1
node 14 1 1 1
node 15 1 1 1
node 16 1 1 1
node 17 2 1 3
node 18 1 0 2
node 19 1 0 2
node 20 1 0 2
node 21 1 0 2
node 22 2 0 2
node 23 1 0 2
node 112 1 0 0
node 208 1 0 0
node 244 1 0 0
node 271 1 0 0
node 411 1 0 0
node 429 1 0 0
node 484 1 0 0
node 488 1 0 0
node 648 1 0 0
node 707 2 0 0
node 809 1 0 0
node 910 1 0 0
node 914 1 0 0
node 1006 1 0 0
gene  1 17 18 -6.195628037829175 0 1.0 -6.195628037829175 1
gene  1 17 19 16.08165244767738 0 1.0 16.08165244767738 1
gene  1 17 20 -6.108050714308197 0 1.0 -6.108050714308197 1
gene  1 17 21 -0.33030137197873555 0 1.0 -0.33030137197873555 1
gene  1 17 22 -5.85766123763407 0 1.0 -5.85766123763407 1
gene  1 17 23 12.170321302100264 0 1.0 12.170321302100264 1
gene  1 7 18 -2.0122117765824896 0 17.0 -2.0122117765824896 1
gene  2 7 19 -4.637221122855807 0 18.0 -4.637221122855807 1
gene  2 7 20 10.06858000605268 0 19.0 10.06858000605268 1
gene  2 7 21 1.259483565029231 0 20.0 1.259483565029231 1
gene  1 7 22 7.817304739103316 0 21.0 7.817304739103316 1
gene  1 7 23 -0.5245814126641295 0 22.0 -0.5245814126641295 1
gene  1 15 18 -10.744471455779674 0 88.0 -10.744471455779674 1
gene  2 15 19 17.080844114338166 0 89.0 17.080844114338166 1
gene  2 15 20 -3.3728334716775956 0 90.0 -3.3728334716775956 1
gene  1 15 21 2.9739059775535193 0 91.0 2.9739059775535193 1
gene  2 15 22 4.00346746672755 0 92.0 4.00346746672755 1
gene  1 15 23 -6.796693197704677 0 93.0 -6.796693197704677 1
gene  2 5 18 -2.976111214276881 0 323.0 -2.976111214276881 1
gene  1 5 19 -5.056952396700167 0 324.0 -5.056952396700167 1
gene  1 5 20 -7.964995010924397 0 325.0 -7.964995010924397 1
gene  1 5 21 -0.32143233507935753 0 326.0 -0.32143233507935753 1
gene  1 5 22 2.4597120294474277 0 327.0 2.4597120294474277 1
gene  2 5 23 0.4383466312277693 0 328.0 0.4383466312277693 1
gene  2 18 21 -27.101179598233404 0 544.0 -27.101179598233404 1
gene  1 15 112 -0.04417721933870178 0 712.0 -0.04417721933870178 1
gene  1 112 21 15.759274336564957 0 713.0 15.759274336564957 1
gene  2 14 18 20.168495538838144 0 1046.0 20.168495538838144 1
gene  1 14 19 0.5940629599314431 0 1047.0 0.5940629599314431 1
gene  1 14 20 -4.934590322547371 0 1048.0 -4.934590322547371 1
gene  1 14 21 -0.7881032394748206 0 1049.0 -0.7881032394748206 1
gene  1 14 22 -6.98290209678409 0 1050.0 -6.98290209678409 1
gene  1 14 23 3.234233721821443 0 1051.0 3.234233721821443 1
gene  2 1 20 -11.692325541257185 0 1201.0 -11.692325541257185 1
gene  1 15 208 5.643437514841734 0 1556.0 5.643437514841734 1
gene  1 208 18 1.9050296802119693 0 1557.0 1.9050296802119693 1
gene  2 112 19 -3.7124760409414073 0 1703.0 -3.7124760409414073 1
gene  1 4 21 4.604176867642568 0 1772.0 4.604176867642568 1
gene  2 5 244 9.725093061157935 0 1822.0 9.725093061157935 1
gene  2 244 18 4.003170985452425 0 1823.0 4.003170985452425 1
gene  1 15 271 11.888726698314112 0 2042.0 11.888726698314112 1
gene  1 271 208 -8.208798336048396 0 2043.0 -8.208798336048396 1
gene  2 244 208 -11.07654719433407 0 2091.0 -11.07654719433407 1
gene  2 244 22 -13.533299487663655 0 2331.0 -13.533299487663655 1
gene  2 20 21 3.313217316833994 0 2428.0 3.313217316833994 1
gene  1 3 22 -14.510828259338064 0 2501.0 -14.510828259338064 1
gene  1 6 271 -3.052407222589399 0 2549.0 -3.052407222589399 1
gene  1 20 22 -5.577756626206182 0 2652.0 -5.577756626206182 1
gene  1 2 20 1.6038148628148274 0 2716.0 1.6038148628148274 1
gene  1 112 22 6.460449937960722 0 2785.0 6.460449937960722 1
gene  1 3 18 6.238510473220372 0 2978.0 6.238510473220372 1
gene  1 3 19 3.838940811398105 0 2979.0 3.838940811398105 0
gene  1 3 20 3.06041808805852 0 2980.0 3.06041808805852 1
gene  2 3 21 3.0130377045719023 0 2981.0 3.0130377045719023 1
gene  1 3 23 1.9843417689041152 0 2982.0 1.9843417689041152 1
gene  1 13 18 -26.812859592208607 0 3030.0 -26.812859592208607 1
gene  1 13 19 11.150771989302083 0 3031.0 11.150771989302083 1
gene  1 13 20 -9.985307559959821 0 3032.0 -9.985307559959821 1
gene  1 13 21 9.385716479272013 0 3033.0 9.385716479272013 1
gene  1 13 22 -2.582889526647639 0 3034.0 -2.582889526647639 1
gene  2 13 23 4.547410271416139 0 3023.0 4.547410271416139 1
gene  1 3 411 4.176230613083297 0 3178.0 4.176230613083297 1
gene  1 411 20 3.2506528063102182 0 3179.0 3.2506528063102182 1
gene  1 2 23 -5.559390351753641 0 3224.0 -5.559390351753641 1
gene  2 20 112 12.02024295422672 0 3249.0 12.02024295422672 1
gene  1 3 429 -2.052772503702796 0 3288.0 -2.052772503702796 1
gene  1 429 19 -0.4216152975283092 0 3289.0 -0.4216152975283092 1
gene  2 244 484 -4.164571903743823 0 3768.0 -4.164571903743823 1
gene  2 484 22 7.78770183666094 0 3769.0 7.78770183666094 1
gene  2 15 488 -1.780460760848106 0 3810.0 -1.780460760848106 1
gene  2 488 22 5.399621600360806 0 3811.0 5.399621600360806 1
gene  1 12 18 0.6025862653572278 0 3812.0 0.6025862653572278 1
gene  1 12 19 1.2955740745034316 0 3813.0 1.2955740745034316 1
gene  1 12 20 7.73215722027288 0 3814.0 7.73215722027288 1
gene  1 12 21 3.2021928074340718 0 3815.0 3.2021928074340718 1
gene  1 12 22 1.6983648326862144 0 3816.0 1.6983648326862144 1
gene  2 12 23 -12.292340462407624 0 3817.0 -12.292340462407624 1
gene  1 1 18 -6.515792320921311 0 4064.0 -6.515792320921311 1
gene  1 1 19 2.8746638667563214 0 4065.0 2.8746638667563214 1
gene  2 1 21 2.8631954504781283 0 4066.0 2.8631954504781283 1
gene  2 1 22 2.0853446314522497 0 4067.0 2.0853446314522497 1
gene  2 1 23 6.209235399627711 0 4068.0 6.209235399627711 1
gene  1 4 20 -4.531298917668559 0 4193.0 -4.531298917668559 1
gene  1 10 18 -4.365526602865691 0 4365.0 -4.365526602865691 1
gene  2 10 19 -0.761760883899889 0 4366.0 -0.761760883899889 1
gene  2 10 20 -7.59389896183743 0 4367.0 -7.59389896183743 1
gene  1 10 21 7.925367708842911 0 4368.0 7.925367708842911 1
gene  2 10 22 9.272302850361157 0 4369.0 9.272302850361157 1
gene  2 10 23 10.29226380195482 0 4370.0 10.29226380195482 1
gene  1 8 18 2.575076829514388 0 4406.0 2.575076829514388 1
gene  1 8 19 -3.7162855156304255 0 4407.0 -3.7162855156304255 1
gene  1 8 20 -6.516740292349716 0 4408.0 -6.516740292349716 1
gene  1 8 21 -1.9186099473191547 0 4409.0 -1.9186099473191547 1
gene  1 8 22 -1.2846800089258106 0 4410.0 -1.2846800089258106 0
gene  2 8 23 -1.3557997048333643 0 4411.0 -1.3557997048333643 1
gene  2 4 18 -3.0331072302045197 0 4485.0 -3.0331072302045197 1
gene  2 4 19 -3.2035595597643587 0 4486.0 -3.2035595597643587 1
gene  1 4 22 -12.50823288946213 0 4487.0 -12.50823288946213 1
gene  1 4 23 -8.295108410363937 0 4488.0 -8.295108410363937 1
gene  2 13 208 4.107992174966891 0 4719.0 4.107992174966891 1
gene  1 271 429 -1.1828286546034068 0 4762.0 -1.1828286546034068 1
gene  1 2 18 -4.3207842300691155 0 4882.0 -4.3207842300691155 1
gene  2 2 19 -1.5789655851053483 0 4883.0 -1.5789655851053483 1
gene  2 2 21 5.496926336363375 0 4884.0 5.496926336363375 1
gene  2 2 22 -2.471562080635197 0 4885.0 -2.471562080635197 1
gene  2 9 18 -0.4995672282469015 0 4961.0 -0.4995672282469015 1
gene  1 9 19 -1.1808351063198441 0 4962.0 -1.1808351063198441 0
gene  2 9 20 -0.3150916821720088 0 4963.0 -0.3150916821720088 1
gene  2 9 21 -3.333989733601766 0 4964.0 -3.333989733601766 1
gene  1 9 22 3.8089799745098176 0 4965.0 3.8089799745098176 1
gene  2 9 23 -1.131967063291413 0 4966.0 -1.131967063291413 1
gene  2 14 411 -13.967434102064825 0 5105.0 -13.967434102064825 1
gene  1 15 648 -10.093166399866877 0 5195.0 -10.093166399866877 0
gene  1 648 208 1.165983984869101 0 5196.0 1.165983984869101 1
gene  2 648 20 1.0245184281157589 0 5299.0 1.0245184281157589 1
gene  1 10 244 -7.332560671019209 0 5510.0 -7.332560671019209 1
gene  2 244 707 2.389009357559197 0 5636.0 2.389009357559197 1
gene  2 707 484 -1.789619057323691 0 5637.0 -1.789619057323691 1
gene  2 11 18 -1.1313975240258316 0 5891.0 -1.1313975240258316 1
gene  1 11 19 5.1669847967687685 0 5892.0 5.1669847967687685 1
gene  1 11 20 1.9444769815559266 0 5893.0 1.9444769815559266 1
gene  2 11 21 2.9729633540913487 0 5894.0 2.9729633540913487 1
gene  1 11 22 0.5483328577701043 0 5895.0 0.5483328577701043 1
gene  2 11 23 -0.56885834372963 0 5896.0 -0.56885834372963 1
gene  1 4 271 -2.642305781518549 0 5969.0 -2.642305781518549 1
gene  1 6 18 5.3879353091439945 0 6161.0 5.3879353091439945 1
gene  2 6 19 -4.3710863093589944 0 6162.0 -4.3710863093589944 1
gene  1 6 20 0.666238257086838 0 6163.0 0.666238257086838 1
gene  2 6 21 -1.8465623692777609 0 6164.0 -1.8465623692777609 1
gene  1 6 22 -0.14806880094426278 0 6165.0 -0.14806880094426278 1
gene  2 6 23 1.7986525587584539 0 6166.0 1.7986525587584539 1
gene  2 21 429 3.0663491154868923 0 6172.0 3.0663491154868923 1
gene  1 484 411 2.9307972738487598 0 6243.0 2.9307972738487598 1
gene  2 648 707 1.0566585528753585 0 6333.0 1.0566585528753585 1
gene  1 14 488 1.4979003419000645 0 6647.0 1.4979003419000645 1
gene  1 9 707 1.4405486318904444 0 6682.0 1.4405486318904444 1
gene  1 429 809 -0.07755605881669986 0 6709.0 -0.07755605881669986 1
gene  1 809 19 1.777257113493125 0 6710.0 1.777257113493125 1
gene  1 411 18 -1.8054520110822336 0 6838.0 -1.8054520110822336 1
gene  2 16 18 -0.6708940756047499 0 6839.0 -0.6708940756047499 1
gene  2 16 19 8.123110613317532 0 6840.0 8.123110613317532 1
gene  1 16 20 -1.2212450960142003 0 6841.0 -1.2212450960142003 1
gene  1 16 21 -1.5605633591388484 0 6842.0 -1.5605633591388484 1
gene  2 16 22 5.077755752279096 0 6843.0 5.077755752279096 1
gene  2 16 23 1.8191581296890686 0 6844.0 1.8191581296890686 1
gene  1 15 910 3.709164555008895 0 7369.0 3.709164555008895 1
gene  1 910 648 -2.4184844967424937 0 7370.0 -2.4184844967424937 1
gene  2 22 271 -2.114513869666516 0 7497.0 -2.114513869666516 1
gene  1 208 19 -5.477796115073805 0 7629.0 -5.477796115073805 1
gene  1 5 914 3.66444615892203 0 7641.0 3.66444615892203 1
gene  1 914 21 -0.39181946256389766 0 7642.0 -0.39181946256389766 1
gene  1 4 411 -1.0130127384401697 0 7676.0 -1.0130127384401697 1
gene  1 8 1006 -0.7251820718156283 0 8083.0 -0.7251820718156283 1
gene  1 1006 22 -1.8472744664619594 0 8084.0 -1.8472744664619594 1
gene  2 2 429 1.3786310188527735 0 8102.0 1.3786310188527735 1
gene  2 4 707 -2.486383586244218 0 8782.0 -2.486383586244218 1
gene  1 10 910 7.502213652466601 0 8979.0 7.502213652466601 1
gene  2 411 22 8.794760517523466 0 9169.0 8.794760517523466 1
genomeend 1
genomestart  2
trait 1 1.0250857033585747 0.27707961942569176 0.15809469960011385 0.0 0.2514374830677016 0.0 0.0 0.053624658311804546 
trait 2 2.354324471299045 0.0 0.659708618295936 0.0 0.0 0.0 0.5038344613940436 0.14909413983521724 
node 1 2 1 1
node 2 2 1 1
node 3 1 1 1
node 4 1 1 1
node 5 1 1 1
node 6 1 1 1
node 7 1 1 1
node 8 1 1 1
node 9 2 1 1
node 10 2 1 1
node 11 2 1 1
node 12 1 1 1
node 13 1 1 1
node 14 1 1 1
node 15 1 1 1
node 16 1 1 1
node 17 2 1 3
node 18 1 0 2
node 19 1 0 2
node 20 1 0 2
node 21 1 0 2
node 22 2 0 2
node 23 1 0 2
node 112 1 0 0
node 208 1 0 0
node 244 1 0 0
node 271 1 0 0
node 411 1 0 0
node 429 1 0 0
node 484 1 0 0
node 488 1 0 0
node 648 1 0 0
node 707 2 0 0
node 809 1 0 0
node 910 1 0 0
node 914 1 0 0
node 1006 1 0 0
gene  1 17 18 -4.477501389478492 0 1.0 -4.477501389478492 1
gene  1 17 19 16.756308002503307 0 1.0 16.756308002503307 1
gene  1 17 20 -8.106508737084566 0 1.0 -8.106508737084566 1
gene  1 17 21 -0.8371470018619086 0 1.0 -0.8371470018619086 1
gene  1 17 22 1.2302859661581678 0 1.0 1.2302859661581678 1
gene  1 17 23 13.92979368803042 0 1.0 13.92979368803042 1
gene  1 7 18 -4.392829153974665 0 17.0 -4.392829153974665 1
gene  2 7 19 -2.859980601355525 0 18.0 -2.859980601355525 1
gene  2 7 20 9.747467632885643 0 19.0 9.747467632885643 1
gene  2 7 21 3.60273936795236 0 20.0 3.60273936795236 1
gene  1 7 22 10.236687430959865 0 21.0 10.236687430959865 1
gene  1 7 23 -1.7115524470282808 0 22.0 -1.7115524470282808 1
gene  1 15 18 -12.893800710518379 0 88.0 -12.893800710518379 1
gene  2 15 19 17.619612721861863 0 89.0 17.619612721861863 1
gene  2 15 20 -2.4543208402624166 0 90.0 -2.4543208402624166 1
gene  1 15 21 2.9739059775535193 0 91.0 2.9739059775535193 1
gene  2 15 22 4.00346746672755 0 92.0 4.00346746672755 1
gene  1 15 23 -5.241550538526029 0 93.0 -5.241550538526029 1
gene  2 5 18 -1.5346587924789583 0 323.0 -1.5346587924789583 1
gene  1 5 19 -3.403829834025875 0 324.0 -3.403829834025875 1
gene  1 5 20 -6.359430800822168 0 325.0 -6.359430800822168 1
gene  1 5 21 -0.3075085438755909 0 326.0 -0.3075085438755909 1
gene  1 5 22 0.054704575039776326 0 327.0 0.054704575039776326 1
gene  2 5 23 -1.9859279927890765 0 328.0 -1.9859279927890765 1
gene  2 18 21 -0.13150909169269642 0 544.0 -0.13150909169269642 1
gene  1 15 112 0.2619663761007901 0 712.0 0.2619663761007901 1
gene  1 112 21 15.759274336564957 0 713.0 15.759274336564957 1
gene  2 14 18 17.832767875236968 0 1046.0 17.832767875236968 1
gene  1 14 19 1.1173208564453216 0 1047.0 1.1173208564453216 1
gene  1 14 20 -4.584681686060852 0 1048.0 -4.584681686060852 1
gene  1 14 21 -0.814261818961262 0 1049.0 -0.814261818961262 1
gene  1 14 22 -8.734425159147554 0 1050.0 -8.734425159147554 1
gene  1 14 23 2.4252985119305657 0 1051.0 2.4252985119305657 1
gene  2 1 20 -13.290550004761803 0 1201.0 -13.290550004761803 1
gene  1 15 208 7.844066846751351 0 1556.0 7.844066846751351 1
gene  1 208 18 -0.3680319588254899 0 1557.0 -0.3680319588254899 1
gene  2 112 19 -5.1679664816481825 0 1703.0 -5.1679664816481825 1
gene  1 4 21 2.6151497318701384 0 1772.0 2.6151497318701384 1
gene  2 5 244 8.064074241114824 0 1822.0 8.064074241114824 1
gene  2 244 18 3.0413564414951137 0 1823.0 3.0413564414951137 1
gene  1 15 271 2.2896624045656457 0 2042.0 2.2896624045656457 1
gene  1 271 208 -8.208798336048396 0 2043.0 -8.208798336048396 1
gene  2 244 208 -13.257471366823992 0 2091.0 -13.257471366823992 1
gene  2 244 22 -11.955555120996339 0 2331.0 -11.955555120996339 1
gene  2 20 21 2.652878206451279 0 2428.0 2.652878206451279 1
gene  1 3 22 -12.964588582766433 0 2501.0 -12.964588582766433 1
gene  1 6 271 -2.774192763071686 0 2549.0 -2.774192763071686 1
gene  1 20 22 2.43947864589419 0 2652.0 2.43947864589419 1
gene  1 2 20 1.6038148628148274 0 2716.0 1.6038148628148274 1
gene  1 112 22 4.173721434448117 0 2785.0 4.173721434448117 1
gene  1 3 18 4.287689857688205 0 2978.0 4.287689857688205 1
gene  1 3 19 2.2240904283287133 0 2979.0 2.2240904283287133 0
gene  1 3 20 1.7327644469298362 0 2980.0 1.7327644469298362 1
gene  2 3 21 4.273263994535667 0 2981.0 4.273263994535667 1
gene  1 3 23 1.9843417689041152 0 2982.0 1.9843417689041152 1
gene  1 13 18 -25.28139699693625 0 3030.0 -25.28139699693625 1
gene  1 13 19 10.384529239645845 0 3031.0 10.384529239645845 1
gene  1 13 20 -8.548334785665366 0 3032.0 -8.548334785665366 1
gene  1 13 21 10.675002457930749 0 3033.0 10.675002457930749 1
gene  1 13 22 -3.0624887218758494 0 3034.0 -3.0624887218758494 1
gene  2 13 23 6.619815290306877 0 3023.0 6.619815290306877 1
gene  1 3 411 3.685855904935572 0 3178.0 3.685855904935572 1
gene  1 411 20 3.7037477162253403 0 3179.0 3.7037477162253403 1
gene  1 2 23 -5.495604012531164 0 3224.0 -5.495604012531164 1
gene  2 20 112 11.581595003333964 0 3249.0 11.581595003333964 1
gene  1 3 429 -0.3322911441033367 0 3288.0 -0.3322911441033367 1
gene  1 429 19 -0.5930439469625188 0 3289.0 -0.5930439469625188 1
gene  2 244 484 -5.910464971552383 0 3768.0 -5.910464971552383 1
gene  2 484 22 8.479638931041524 0 3769.0 8.479638931041524 1
gene  2 15 488 -1.780460760848106 0 3810.0 -1.780460760848106 1
gene  2 488 22 5.503391010787529 0 3811.0 5.503391010787529 1
gene  1 12 18 -0.13707655549281494 0 3812.0 -0.13707655549281494 1
gene  1 12 19 2.7325081815690524 0 3813.0 2.7325081815690524 1
gene  1 12 20 7.451646307832689 0 3814.0 7.451646307832689 1
gene  1 12 21 4.296978198720252 0 3815.0 4.296978198720252 1
gene  1 12 22 2.241761297412272 0 3816.0 2.241761297412272 1
gene  2 12 23 -10.3359162098389 0 3817.0 -10.3359162098389 1
gene  1 1 18 -5.476975721579443 0 4064.0 -5.476975721579443 1
gene  1 1 19 3.5296202104315895 0 4065.0 3.5296202104315895 1
gene  2 1 21 1.673084302787975 0 4066.0 1.673084302787975 1
gene  2 1 22 1.1373924542586036 0 4067.0 1.1373924542586036 1
gene  2 1 23 3.861295895258142 0 4068.0 3.861295895258142 1
gene  1 4 20 -3.6979886219523768 0 4193.0 -3.6979886219523768 1
gene  1 10 18 -4.055126005901651 0 4365.0 -4.055126005901651 1
gene  2 10 19 1.6026733442286503 0 4366.0 1.6026733442286503 1
gene  2 10 20 0.19458800160292722 0 4367.0 0.19458800160292722 1
gene  1 10 21 7.323652396649716 0 4368.0 7.323652396649716 1
gene  2 10 22 7.2457987929517325 0 4369.0 7.2457987929517325 1
gene  2 10 23 -1.6653853000984755 0 4370.0 -1.6653853000984755 1
gene  1 8 18 3.2909679634312328 0 4406.0 3.2909679634312328 1
gene  1 8 19 -4.67289160681727 0 4407.0 -4.67289160681727 1
gene  1 8 20 -6.516740292349716 0 4408.0 -6.516740292349716 1
gene  1 8 21 -0.06989067974628771 0 4409.0 -0.06989067974628771 1
gene  1 8 22 -1.8510779345236352 0 4410.0 -1.8510779345236352 0
gene  2 8 23 -0.36705772007706705 0 4411.0 -0.36705772007706705 1
gene  2 4 18 -2.2568770109771594 0 4485.0 -2.2568770109771594 1
gene  2 4 19 -4.169031763212015 0 4486.0 -4.169031763212015 1
gene  1 4 22 -13.087919486056657 0 4487.0 -13.087919486056657 1
gene  1 4 23 -7.856354478756544 0 4488.0 -7.856354478756544 1
gene  2 13 208 3.395932695856825 0 4719.0 3.395932695856825 1
gene  1 271 429 1.1783770228354777 0 4762.0 1.1783770228354777 1
gene  1 2 18 -5.287558055697928 0 4882.0 -5.287558055697928 1
gene  2 2 19 -2.8467799057062457 0 4883.0 -2.8467799057062457 1
gene  2 2 21 5.496926336363375 0 4884.0 5.496926336363375 1
gene  2 2 22 -2.471562080635197 0 4885.0 -2.471562080635197 1
gene  2 9 18 -0.21110567211867426 0 4961.0 -0.21110567211867426 1
gene  1 9 19 2.4335381544737777 0 4962.0 2.4335381544737777 0
gene  2 9 20 -0.3150916821720088 0 4963.0 -0.3150916821720088 1
gene  2 9 21 -4.4346149731321285 0 4964.0 -4.4346149731321285 1
gene  1 9 22 5.907640451300363 0 4965.0 5.907640451300363 1
gene  2 9 23 0.15183281117986214 0 4966.0 0.15183281117986214 1
gene  2 14 411 -15.334854400452983 0 5105.0 -15.334854400452983 1
gene  1 15 648 -8.3010416053827 0 5195.0 -8.3010416053827 0
gene  1 648 208 -1.8091877611932432 0 5196.0 -1.8091877611932432 1
gene  2 648 20 0.21358703138523627 0 5299.0 0.21358703138523627 1
gene  1 10 244 -7.132264448960948 0 5510.0 -7.132264448960948 1
gene  2 244 707 0.5176809149193022 0 5636.0 0.5176809149193022 1
gene  2 707 484 -1.789619057323691 0 5637.0 -1.789619057323691 1
gene  2 11 18 -1.3803788270489172 0 5891.0 -1.3803788270489172 1
gene  1 11 19 -2.468203482090136 0 5892.0 -2.468203482090136 1
gene  1 11 20 4.064389784293548 0 5893.0 4.064389784293548 1
gene  2 11 21 3.5093152611769387 0 5894.0 3.5093152611769387 1
gene  1 11 22 0.3333939073592951 0 5895.0 0.3333939073592951 1
gene  2 11 23 -2.1294148024108512 0 5896.0 -2.1294148024108512 1
gene  1 4 271 -0.9647621868110461 0 5969.0 -0.9647621868110461 1
gene  1 6 18 -2.1713170659981045 0 6161.0 -2.1713170659981045 1
gene  2 6 19 -4.540546419078109 0 6162.0 -4.540546419078109 1
gene  1 6 20 0.9275961697818474 0 6163.0 0.9275961697818474 1
gene  2 6 21 -4.134741099604618 0 6164.0 -4.134741099604618 1
gene  1 6 22 -2.6392604658405907 0 6165.0 -2.6392604658405907 1
gene  2 6 23 4.198512447929053 0 6166.0 4.198512447929053 1
gene  2 21 429 3.0663491154868923 0 6172.0 3.0663491154868923 1
gene  1 484 411 1.7671052217581027 0 6243.0 1.7671052217581027 1
gene  2 648 707 0.3427047232138039 0 6333.0 0.3427047232138039 1
gene  1 14 488 1.4979003419000645 0 6647.0 1.4979003419000645 1
gene  1 9 707 0.1361427295579068 0 6682.0 0.1361427295579068 1
gene  1 429 809 -0.20947932715755013 0 6709.0 -0.20947932715755013 1
gene  1 809 19 0.44315869980344313 0 6710.0 0.44315869980344313 1
gene  1 411 18 -2.905675265584078 0 6838.0 -2.905675265584078 1
gene  2 16 18 -0.7357172360509867 0 6839.0 -0.7357172360509867 1
gene  2 16 19 6.214766880099205 0 6840.0 6.214766880099205 1
gene  1 16 20 -3.3821793360462675 0 6841.0 -3.3821793360462675 1
gene  1 16 21 -0.6654136857813215 0 6842.0 -0.6654136857813215 1
gene  2 16 22 -0.5897983000261695 0 6843.0 -0.5897983000261695 1
gene  2 16 23 0.12755445486874994 0 6844.0 0.12755445486874994 1
gene  1 15 910 -1.5531709458014356 0 7369.0 -1.5531709458014356 1
gene  1 910 648 -0.5147819419190274 0 7370.0 -0.5147819419190274 1
gene  2 22 271 -2.114513869666516 0 7497.0 -2.114513869666516 1
gene  1 208 19 -6.344790081827586 0 7629.0 -6.344790081827586 1
gene  1 5 914 2.679822592339402 0 7641.0 2.679822592339402 1
gene  1 914 21 -1.3703959779248316 0 7642.0 -1.3703959779248316 1
gene  1 4 411 -1.340309307661987 0 7676.0 -1.340309307661987 1
gene  1 8 1006 -2.987491713762095 0 8083.0 -2.987491713762095 1
gene  1 1006 22 -2.1305131743679917 0 8084.0 -2.1305131743679917 1
gene  2 2 429 1.5292871126697944 0 8102.0 1.5292871126697944 1
gene  2 4 707 1.254451283205599 0 8782.0 1.254451283205599 1
gene  1 10 910 9.939279229449157 0 8979.0 9.939279229449157 1
gene  2 411 22 10.250739004724622 0 9169.0 10.250739004724622 1
genomeend 2
genomestart  3
trait 1 1.0250857033585747 0.27707961942569176 0.15809469960011385 0.0 0.2514374830677016 0.0 0.0 0.053624658311804546 
trait 2 2.354324471299045 0.0 0.659708618295936 0.0 0.0 0.0 0.5038344613940436 0.14909413983521724 
node 1 2 1 1
node 2 2 1 1
node 3 1 1 1
node 4 1 1 1
node 5 1 1 1
node 6 1 1 1
node 7 1 1 1
node 8 1 1 1
node 9 1 1 1
node 10 2 1 1
node 11 2 1 1
node 12 1 1 1
node 13 1 1 1
node 14 1 1 1
node 15 1 1 1
node 16 1 1 1
node 17 2 1 3
node 18 1 0 2
node 19 1 0 2
node 20 1 0 2
node 21 1 0 2
node 22 2 0 2
node 23 1 0 2
node 112 1 0 0
node 208 1 0 0
node 244 1 0 0
node 271 1 0 0
node 411 1 0 0
node 429 1 0 0
node 484 1 0 0
node 488 1 0 0
node 648 1 0 0
node 707 2 0 0
node 809 1 0 0
node 910 1 0 0
node 914 1 0 0
node 1006 1 0 0
node 1287 1 0 0
gene  1 17 18 -6.195628037829175 0 1.0 -6.195628037829175 1
gene  1 17 19 16.08165244767738 0 1.0 16.08165244767738 1
gene  1 17 20 -6.108050714308197 0 1.0 -6.108050714308197 1
gene  1 17 21 -0.33030137197873555 0 1.0 -0.33030137197873555 1
gene  1 17 22 -5.85766123763407 0 1.0 -5.85766123763407 1
gene  1 17 23 12.170321302100264 0 1.0 12.170321302100264 1
gene  1 7 18 -2.0122117765824896 0 17.0 -2.0122117765824896 1
gene  2 7 19 -4.637221122855807 0 18.0 -4.637221122855807 1
gene  2 7 20 10.06858000605268 0 19.0 10.06858000605268 1
gene  2 7 21 1.259483565029231 0 20.0 1.259483565029231 1
gene  1 7 22 7.817304739103316 0 21.0 7.817304739103316 1
gene  1 7 23 -0.5245814126641295 0 22.0 -0.5245814126641295 1
gene  1 15 18 -10.744471455779674 0 88.0 -10.744471455779674 1
gene  2 15 19 17.080844114338166 0 89.0 17.080844114338166 1
gene  2 15 20 -3.3728334716775956 0 90.0 -3.3728334716775956 1
gene  1 15 21 2.9739059775535193 0 91.0 2.9739059775535193 1
gene  2 15 22 4.00346746672755 0 92.0 4.00346746672755 1
gene  1 15 23 -6.796693197704677 0 93.0 -6.796693197704677 1
gene  2 5 18 -2.976111214276881 0 323.0 -2.976111214276881 1
gene  1 5 19 -5.056952396700167 0 324.0 -5.056952396700167 1
gene  1 5 20 -7.964995010924397 0 325.0 -7.964995010924397 1
gene  1 5 21 -0.32143233507935753 0 326.0 -0.32143233507935753 1
gene  1 5 22 2.4597120294474277 0 327.0 2.4597120294474277 1
gene  2 5 23 0.4383466312277693 0 328.0 0.4383466312277693 1
gene  2 18 21 -27.101179598233404 0 544.0 -27.101179598233404 1
gene  1 15 112 -0.04417721933870178 0 712.0 -0.04417721933870178 1
gene  1 112 21 15.759274336564957 0 713.0 15.759274336564957 1
gene  2 14 18 20.168495538838144 0 1046.0 20.168495538838144 1
gene  1 14 19 0.5940629599314431 0 1047.0 0.5940629599314431 1
gene  1 14 20 -4.934590322547371 0 1048.0 -4.934590322547371 1
gene  1 14 21 -0.7881032394748206 0 1049.0 -0.7881032394748206 1
gene  1 14 22 -6.98290209678409 0 1050.0 -6.98290209678409 1
gene  1 14 23 3.234233721821443 0 1051.0 3.234233721821443 1
gene  2 1 20 -11.692325541257185 0 1201.0 -11.692325541257185 1
gene  1 15 208 5.643437514841734 0 1556.0 5.643437514841734 1
gene  1 208 18 1.9050296802119693 0 1557.0 1.9050296802119693 1
gene  2 112 19 -3.7124760409414073 0 1703.0 -3.7124760409414073 1
gene  1 4 21 4.604176867642568 0 1772.0 4.604176867642568 1
gene  2 5 244 9.725093061157935 0 1822.0 9.725093061157935 1
gene  2 244 18 4.003170985452425 0 1823.0 4.003170985452425 1
gene  1 15 271 11.888726698314112 0 2042.0 11.888726698314112 1
gene  1 271 208 -8.208798336048396 0 2043.0 -8.208798336048396 1
gene  2 244 208 -11.07654719433407 0 2091.0 -11.07654719433407 1
gene  2 244 22 -13.533299487663655 0 2331.0 -13.533299487663655 1
gene  2 20 21 3.313217316833994 0 2428.0 3.313217316833994 1
gene  1 3 22 -14.510828259338064 0 2501.0 -14.510828259338064 1
gene  1 6 271 -3.052407222589399 0 2549.0 -3.052407222589399 1
gene  1 20 22 -5.577756626206182 0 2652.0 -5.577756626206182 1
gene  1 2 20 1.6038148628148274 0 2716.0 1.6038148628148274 1
gene  1 112 22 6.460449937960722 0 2785.0 6.460449937960722 1
gene  1 3 18 6.238510473220372 0 2978.0 6.238510473220372 1
gene  1 3 19 3.838940811398105 0 2979.0 3.838940811398105 0
gene  1 3 20 3.06041808805852 0 2980.0 3.06041808805852 1
gene  2 3 21 3.0130377045719023 0 2981.0 3.0130377045719023 1
gene  1 3 23 1.9843417689041152 0 2982.0 1.9843417689041152 1
gene  1 13 18 -26.812859592208607 0 3030.0 -26.812859592208607 1
gene  1 13 19 11.150771989302083 0 3031.0 11.150771989302083 1
gene  1 13 20 -9.985307559959821 0 3032.0 -9.985307559959821 1
gene  1 13 21 9.385716479272013 0 3033.0 9.385716479272013 1
gene  1 13 22 -2.582889526647639 0 3034.0 -2.582889526647639 1
gene  2 13 23 4.547410271416139 0 3023.0 4.547410271416139 1
gene  1 3 411 4.176230613083297 0 3178.0 4.176230613083297 1
gene  1 411 20 3.2506528063102182 0 3179.0 3.2506528063102182 1
gene  1 2 23 -5.559390351753641 0 3224.0 -5.559390351753641 1
gene  2 20 112 12.02024295422672 0 3249.0 12.02024295422672 1
gene  1 3 429 -2.052772503702796 0 3288.0 -2.052772503702796 1
gene  1 429 19 -0.4216152975283092 0 3289.0 -0.4216152975283092 1
gene  2 244 484 -4.164571903743823 0 3768.0 -4.164571903743823 1
gene  2 484 22 7.78770183666094 0 3769.0 7.78770183666094 1
gene  2 15 488 -1.780460760848106 0 3810.0 -1.780460760848106 1
gene  2 488 22 5.399621600360806 0 3811.0 5.399621600360806 1
gene  1 12 18 0.6025862653572278 0 3812.0 0.6025862653572278 1
gene  1 12 19 1.2955740745034316 0 3813.0 1.2955740745034316 0
gene  1 12 20 7.73215722027288 0 3814.0 7.73215722027288 1
gene  1 12 21 3.2021928074340718 0 3815.0 3.2021928074340718 1
gene  1 12 22 1.6983648326862144 0 3816.0 1.6983648326862144 1
gene  2 12 23 -12.292340462407624 0 3817.0 -12.292340462407624 1
gene  1 1 18 -6.515792320921311 0 4064.0 -6.515792320921311 1
gene  1 1 19 2.8746638667563214 0 4065.0 2.8746638667563214 1
gene  2 1 21 2.8631954504781283 0 4066.0 2.8631954504781283 1
gene  2 1 22 2.0853446314522497 0 4067.0 2.0853446314522497 1
gene  2 1 23 6.209235399627711 0 4068.0 6.209235399627711 1
gene  1 4 20 -4.531298917668559 0 4193.0 -4.531298917668559 1
gene  1 10 18 -4.365526602865691 0 4365.0 -4.365526602865691 1
gene  2 10 19 -0.761760883899889 0 4366.0 -0.761760883899889 1
gene  2 10 20 -7.59389896183743 0 4367.0 -7.59389896183743 1
gene  1 10 21 7.925367708842911 0 4368.0 7.925367708842911 1
gene  2 10 22 9.272302850361157 0 4369.0 9.272302850361157 1
gene  2 10 23 10.29226380195482 0 4370.0 10.29226380195482 1
gene  1 8 18 2.575076829514388 0 4406.0 2.575076829514388 1
gene  1 8 19 -3.7162855156304255 0 4407.0 -3.7162855156304255 1
gene  1 8 20 -6.516740292349716 0 4408.0 -6.516740292349716 1
gene  1 8 21 -1.9186099473191547 0 4409.0 -1.9186099473191547 1
gene  1 8 22 -1.2846800089258106 0 4410.0 -1.2846800089258106 0
gene  2 8 23 -1.3557997048333643 0 4411.0 -1.3557997048333643 1
gene  2 4 18 -3.0331072302045197 0 4485.0 -3.0331072302045197 1
gene  2 4 19 -3.2035595597643587 0 4486.0 -3.2035595597643587 1
gene  1 4 22 -12.50823288946213 0 4487.0 -12.50823288946213 1
gene  1 4 23 -8.295108410363937 0 4488.0 -8.295108410363937 1
gene  2 13 208 4.107992174966891 0 4719.0 4.107992174966891 1
gene  1 271 429 -1.1828286546034068 0 4762.0 -1.1828286546034068 1
gene  1 2 18 -4.3207842300691155 0 4882.0 -4.3207842300691155 1
gene  2 2 19 -1.5789655851053483 0 4883.0 -1.5789655851053483 1
gene  2 2 21 5.496926336363375 0 4884.0 5.496926336363375 1
gene  2 2 22 -2.471562080635197 0 4885.0 -2.471562080635197 1
gene  2 9 18 -0.4995672282469015 0 4961.0 -0.4995672282469015 1
gene  1 9 19 -1.1808351063198441 0 4962.0 -1.1808351063198441 0
gene  2 9 20 -0.3150916821720088 0 4963.0 -0.3150916821720088 1
gene  2 9 21 -3.333989733601766 0 4964.0 -3.333989733601766 1
gene  1 9 22 3.8089799745098176 0 4965.0 3.8089799745098176 1
gene  2 9 23 -1.131967063291413 0 4966.0 -1.131967063291413 1
gene  2 14 411 -13.967434102064825 0 5105.0 -13.967434102064825 1
gene  1 15 648 -10.093166399866877 0 5195.0 -10.093166399866877 0
gene  1 648 208 1.165983984869101 0 5196.0 1.165983984869101 1
gene  2 648 20 1.0245184281157589 0 5299.0 1.0245184281157589 1
gene  1 10 244 -7.332560671019209 0 5510.0 -7.332560671019209 1
gene  2 244 707 2.389009357559197 0 5636.0 2.389009357559197 1
gene  2 707 484 -1.789619057323691 0 5637.0 -1.789619057323691 1
gene  2 11 18 -1.1313975240258316 0 5891.0 -1.1313975240258316 1
gene  1 11 19 5.1669847967687685 0 5892.0 5.1669847967687685 1
gene  1 11 20 1.9444769815559266 0 5893.0 1.9444769815559266 1
gene  2 11 21 2.9729633540913487 0 5894.0 2.9729633540913487 1
gene  1 11 22 0.5483328577701043 0 5895.0 0.5483328577701043 1
gene  2 11 23 -0.56885834372963 0 5896.0 -0.56885834372963 1
gene  1 4 271 -2.642305781518549 0 5969.0 -2.642305781518549 1
gene  1 6 18 5.3879353091439945 0 6161.0 5.3879353091439945 1
gene  2 6 19 -4.3710863093589944 0 6162.0 -4.3710863093589944 1
gene  1 6 20 0.666238257086838 0 6163.0 0.666238257086838 1
gene  2 6 21 -1.8465623692777609 0 6164.0 -1.8465623692777609 1
gene  1 6 22 -0.14806880094426278 0 6165.0 -0.14806880094426278 1
gene  2 6 23 1.7986525587584539 0 6166.0 1.7986525587584539 1
gene  2 21 429 3.0663491154868923 0 6172.0 3.0663491154868923 1
gene  1 484 411 2.9307972738487598 0 6243.0 2.9307972738487598 1
gene  2 648 707 1.0566585528753585 0 6333.0 1.0566585528753585 1
gene  1 14 488 1.4979003419000645 0 6647.0 1.4979003419000645 1
gene  1 9 707 1.4405486318904444 0 6682.0 1.4405486318904444 1
gene  1 429 809 -0.07755605881669986 0 6709.0 -0.07755605881669986 1
gene  1 809 19 1.777257113493125 0 6710.0 1.777257113493125 1
gene  1 411 18 -1.8054520110822336 0 6838.0 -1.8054520110822336 1
gene  2 16 18 -0.6708940756047499 0 6839.0 -0.6708940756047499 1
gene  2 16 19 8.123110613317532 0 6840.0 8.123110613317532 1
gene  1 16 20 -1.2212450960142003 0 6841.0 -1.2212450960142003 1
gene  1 16 21 -1.5605633591388484 0 6842.0 -1.5605633591388484 1
gene  2 16 22 5.077755752279096 0 6843.0 5.077755752279096 1
gene  2 16 23 1.8191581296890686 0 6844.0 1.8191581296890686 1
gene  1 15 910 3.709164555008895 0 7369.0 3.709164555008895 1
gene  1 910 648 -2.4184844967424937 0 7370.0 -2.4184844967424937 1
gene  2 22 271 -2.114513869666516 0 7497.0 -2.114513869666516 1
gene  1 208 19 -5.477796115073805 0 7629.0 -5.477796115073805 1
gene  1 5 914 3.66444615892203 0 7641.0 3.66444615892203 1
gene  1 914 21 -0.39181946256389766 0 7642.0 -0.39181946256389766 1
gene  1 4 411 -1.0130127384401697 0 7676.0 -1.0130127384401697 1
gene  1 8 1006 -0.7251820718156283 0 8083.0 -0.7251820718156283 1
gene  1 1006 22 -1.8472744664619594 0 8084.0 -1.8472744664619594 1
gene  2 2 429 1.3786310188527735 0 8102.0 1.3786310188527735 1
gene  2 4 707 -2.486383586244218 0 8782.0 -2.486383586244218 1
gene  1 10 910 7.502213652466601 0 8979.0 7.502213652466601 1
gene  2 411 22 8.794760517523466 0 9169.0 8.794760517523466 1
gene  1 12 1287 1.0 0 9308.0 0.0 1
gene  1 1287 19 1.2955740745034316 0 9309.0 0.0 1
genomeend 3
genomestart  4
trait 1 1.0250857033585747 0.27707961942569176 0.15809469960011385 0.0 0.2514374830677016 0.0 0.0 0.053624658311804546 
trait 2 2.354324471299045 0.0 0.659708618295936 0.0 0.0 0.0 0.5038344613940436 0.14909413983521724 
node 1 2 1 1
node 2 2 1 1
node 3 1 1 1
node 4 1 1 1
node 5 1 1 1
node 6 1 1 1
node 7 1 1 1
node 8 1 1 1
node 9 1 1 1
node 10 2 1 1
node 11 2 1 1
node 12 1 1 1
node 13 1 1 1
node 14 1 1 1
node 15 1 1 1
node 16 1 1 1
node 17 2 1 3
node 18 1 0 2
node 19 1 0 2
node 20 1 0 2
node 21 1 0 2
node 22 2 0 2
node 23 1 0 2
node 112 1 0 0
node 208 1 0 0
node 244 1 0 0
node 271 1 0 0
node 411 1 0 0
node 429 1 0 0
node 484 1 0 0
node 488 1 0 0
node 648 1 0 0
node 707 2 0 0
node 809 1 0 0
node 910 1 0 0
node 914 1 0 0
node 1006 1 0 0
gene  1 17 18 -8.222768061945626 0 1.0 -8.222768061945626 1
gene  1 17 19 16.08165244767738 0 1.0 16.08165244767738 1
gene  1 17 20 -6.25434543090852 0 1.0 -6.25434543090852 1
gene  1 17 21 -0.33030137197873555 0 1.0 -0.33030137197873555 1
gene  1 17 22 -2.311992015183067 0 1.0 -2.311992015183067 1
gene  1 17 23 12.48564146342056 0 1.0 12.48564146342056 1
gene  1 7 18 -1.8685358175363094 0 17.0 -1.8685358175363094 1
gene  2 7 19 -3.6798835762737285 0 18.0 -3.6798835762737285 1
gene  2 7 20 8.654735506257897 0 19.0 8.654735506257897 1
gene  2 7 21 0.3870802717419992 0 20.0 0.3870802717419992 1
gene  1 7 22 7.663939516546697 0 21.0 7.663939516546697 1
gene  1 7 23 -0.7069485938199518 0 22.0 -0.7069485938199518 1
gene  1 15 18 -10.744471455779674 0 88.0 -10.744471455779674 1
gene  2 15 19 1.8632517832309143 0 89.0 1.8632517832309143 1
gene  2 15 20 -2.0496119505212347 0 90.0 -2.0496119505212347 1
gene  1 15 21 0.7262300462773168 0 91.0 0.7262300462773168 1
gene  2 15 22 2.91159465163659 0 92.0 2.91159465163659 1
gene  1 15 23 -5.457825486015656 0 93.0 -5.457825486015656 1
gene  2 5 18 -2.5556841357582742 0 323.0 -2.5556841357582742 1
gene  1 5 19 -4.916925058276579 0 324.0 -4.916925058276579 1
gene  1 5 20 -6.98650766955351 0 325.0 -6.98650766955351 1
gene  1 5 21 -1.930218313971702 0 326.0 -1.930218313971702 1
gene  1 5 22 2.322577682276369 0 327.0 2.322577682276369 1
gene  2 5 23 2.823306706348506 0 328.0 2.823306706348506 1
gene  2 18 21 1.1237212465291315 0 544.0 1.1237212465291315 1
gene  1 15 112 2.342171066375841 0 712.0 2.342171066375841 1
gene  1 112 21 15.759274336564957 0 713.0 15.759274336564957 1
gene  2 14 18 0.05958126667866437 0 1046.0 0.05958126667866437 1
gene  1 14 19 0.5940629599314431 0 1047.0 0.5940629599314431 1
gene  1 14 20 -3.007922686079426 0 1048.0 -3.007922686079426 1
gene  1 14 21 0.5192160792982774 0 1049.0 0.5192160792982774 1
gene  1 14 22 -6.98290209678409 0 1050.0 -6.98290209678409 1
gene  1 14 23 1.7958010298088734 0 1051.0 1.7958010298088734 1
gene  2 1 20 -12.386487588785949 0 1201.0 -12.386487588785949 1
gene  1 15 208 -2.106809853527055 0 1556.0 -2.106809853527055 1
gene  1 208 18 -2.4856304190777556 0 1557.0 -2.4856304190777556 1
gene  2 112 19 -2.6456346425165216 0 1703.0 -2.6456346425165216 1
gene  1 4 21 4.640254211186299 0 1772.0 4.640254211186299 1
gene  2 5 244 12.149507241826146 0 1822.0 12.149507241826146 1
gene  2 244 18 2.7738273806157094 0 1823.0 2.7738273806157094 1
gene  1 15 271 14.13182507387614 0 2042.0 14.13182507387614 1
gene  1 271 208 -6.501612728302003 0 2043.0 -6.501612728302003 1
gene  2 244 208 -2.4120078100570206 0 2091.0 -2.4120078100570206 1
gene  2 244 22 -14.491960767591376 0 2331.0 -14.491960767591376 1
gene  2 20 21 3.558924625605865 0 2428.0 3.558924625605865 1
gene  1 3 22 -12.869541709123395 0 2501.0 -12.869541709123395 1
gene  1 6 271 0.44533379349360525 0 2549.0 0.44533379349360525 1
gene  1 20 22 0.45929407384639104 0 2652.0 0.45929407384639104 1
gene  1 2 20 3.335244049944075 0 2716.0 3.335244049944075 1
gene  1 112 22 6.290445994034638 0 2785.0 6.290445994034638 1
gene  1 3 18 2.1967099093936677 0 2978.0 2.1967099093936677 1
gene  1 3 19 5.461412038164816 0 2979.0 5.461412038164816 0
gene  1 3 20 0.5645684005049203 0 2980.0 0.5645684005049203 1
gene  2 3 21 3.0130377045719023 0 2981.0 3.0130377045719023 1
gene  1 3 23 4.334391616380954 0 2982.0 4.334391616380954 1
gene  1 13 18 -26.410123517311884 0 3030.0 -26.410123517311884 1
gene  1 13 19 12.0070915895108 0 3031.0 12.0070915895108 1
gene  1 13 20 -9.55354783791863 0 3032.0 -9.55354783791863 1
gene  1 13 21 2.2930733542712693 0 3033.0 2.2930733542712693 1
gene  1 13 22 -1.2191363429154745 0 3034.0 -1.2191363429154745 1
gene  2 13 23 0.007103293606863514 0 3023.0 0.007103293606863514 1
gene  1 3 411 5.493809519624673 0 3178.0 5.493809519624673 1
gene  1 411 20 5.2660814528993285 0 3179.0 5.2660814528993285 1
gene  1 2 23 -7.692112742687178 0 3224.0 -7.692112742687178 1
gene  2 20 112 9.633304370608458 0 3249.0 9.633304370608458 1
gene  1 3 429 -2.777128343513162 0 3288.0 -2.777128343513162 1
gene  1 429 19 1.997800507386537 0 3289.0 1.997800507386537 1
gene  2 244 484 -2.1250435483827355 0 3768.0 -2.1250435483827355 1
gene  2 484 22 7.78770183666094 0 3769.0 7.78770183666094 1
gene  2 15 488 -1.2252586151979008 0 3810.0 -1.2252586151979008 1
gene  2 488 22 7.503861803691223 0 3811.0 7.503861803691223 1
gene  1 12 18 2.0462753269377245 0 3812.0 2.0462753269377245 1
gene  1 12 19 0.41795287724841224 0 3813.0 0.41795287724841224 1
gene  1 12 20 -1.9276979813162323 0 3814.0 -1.9276979813162323 1
gene  1 12 21 1.5169135732034276 0 3815.0 1.5169135732034276 1
gene  1 12 22 -0.25920644255500697 0 3816.0 -0.25920644255500697 1
gene  2 12 23 -11.709300580631357 0 3817.0 -11.709300580631357 1
gene  1 1 18 -8.071722919556734 0 4064.0 -8.071722919556734 1
gene  1 1 19 0.40034590923290914 0 4065.0 0.40034590923290914 1
gene  2 1 21 4.2912856097616885 0 4066.0 4.2912856097616885 1
gene  2 1 22 2.0853446314522497 0 4067.0 2.0853446314522497 1
gene  2 1 23 4.421911301123462 0 4068.0 4.421911301123462 1
gene  1 4 20 -4.531298917668559 0 4193.0 -4.531298917668559 1
gene  1 10 18 -2.1485768491078296 0 4365.0 -2.1485768491078296 1
gene  2 10 19 -0.8250515822580617 0 4366.0 -0.8250515822580617 1
gene  2 10 20 -6.424129789381189 0 4367.0 -6.424129789381189 1
gene  1 10 21 9.630601366011767 0 4368.0 9.630601366011767 1
gene  2 10 22 8.621104488379634 0 4369.0 8.621104488379634 1
gene  2 10 23 10.29226380195482 0 4370.0 10.29226380195482 1
gene  1 8 18 2.4330224582898285 0 4406.0 2.4330224582898285 1
gene  1 8 19 -5.763631773085976 0 4407.0 -5.763631773085976 1
gene  1 8 20 -7.603003688206899 0 4408.0 -7.603003688206899 1
gene  1 8 21 -4.299393690940285 0 4409.0 -4.299393690940285 1
gene  1 8 22 -3.603371710579927 0 4410.0 -3.603371710579927 0
gene  2 8 23 -1.3557997048333643 0 4411.0 -1.3557997048333643 1
gene  2 4 18 -3.6099039675579427 0 4485.0 -3.6099039675579427 1
gene  2 4 19 -5.31855410560256 0 4486.0 -5.31855410560256 1
gene  1 4 22 -1.9522029045331146 0 4487.0 -1.9522029045331146 1
gene  1 4 23 -8.890412738544443 0 4488.0 -8.890412738544443 1
gene  2 13 208 5.656874054143559 0 4719.0 5.656874054143559 1
gene  1 271 429 0.2695147067501442 0 4762.0 0.2695147067501442 1
gene  1 2 18 1.9610571994240436 0 4882.0 1.9610571994240436 1
gene  2 2 19 0.6409264470561769 0 4883.0 0.6409264470561769 1
gene  2 2 21 7.372417477688548 0 4884.0 7.372417477688548 1
gene  2 2 22 -0.04169403661064619 0 4885.0 -0.04169403661064619 1
gene  2 9 18 -0.2924300661957091 0 4961.0 -0.2924300661957091 1
gene  1 9 19 -2.994258648474574 0 4962.0 -2.994258648474574 0
gene  2 9 20 -0.0036103157447239798 0 4963.0 -0.0036103157447239798 1
gene  2 9 21 -0.9930297233861145 0 4964.0 -0.9930297233861145 1
gene  1 9 22 5.362139105528509 0 4965.0 5.362139105528509 1
gene  2 9 23 1.5899396193347575 0 4966.0 1.5899396193347575 1
gene  2 14 411 -15.209434653357404 0 5105.0 -15.209434653357404 1
gene  1 15 648 -12.067172638629938 0 5195.0 -12.067172638629938 0
gene  1 648 208 0.17851157287258945 0 5196.0 0.17851157287258945 1
gene  2 648 20 0.9039523231730937 0 5299.0 0.9039523231730937 1
gene  1 10 244 -7.366346187102853 0 5510.0 -7.366346187102853 1
gene  2 244 707 2.524707402296819 0 5636.0 2.524707402296819 1
gene  2 707 484 -0.6493137878168318 0 5637.0 -0.6493137878168318 1
gene  2 11 18 -2.2998678061230384 0 5891.0 -2.2998678061230384 1
gene  1 11 19 4.30894668080134 0 5892.0 4.30894668080134 1
gene  1 11 20 1.9444769815559266 0 5893.0 1.9444769815559266 1
gene  2 11 21 2.9729633540913487 0 5894.0 2.9729633540913487 1
gene  1 11 22 -0.15010960630175568 0 5895.0 -0.15010960630175568 1
gene  2 11 23 -2.8810638717201424 0 5896.0 -2.8810638717201424 1
gene  1 4 271 -0.46864778299826515 0 5969.0 -0.46864778299826515 1
gene  1 6 18 4.082989560580554 0 6161.0 4.082989560580554 1
gene  2 6 19 -4.75675497335618 0 6162.0 -4.75675497335618 1
gene  1 6 20 0.666238257086838 0 6163.0 0.666238257086838 1
gene  2 6 21 0.15581315494408887 0 6164.0 0.15581315494408887 1
gene  1 6 22 -1.413521467552324 0 6165.0 -1.413521467552324 1
gene  2 6 23 2.1110536682227887 0 6166.0 2.1110536682227887 1
gene  2 21 429 -2.3435660226725155 0 6172.0 -2.3435660226725155 1
gene  1 484 411 4.854883756654144 0 6243.0 4.854883756654144 1
gene  2 648 707 3.3869495783517833 0 6333.0 3.3869495783517833 1
gene  1 14 488 2.1660972552870295 0 6647.0 2.1660972552870295 1
gene  1 9 707 -0.19781995100790595 0 6682.0 -0.19781995100790595 1
gene  1 429 809 -0.9943054661318793 0 6709.0 -0.9943054661318793 1
gene  1 809 19 0.43819010503470346 0 6710.0 0.43819010503470346 1
gene  1 411 18 -1.0851116888353454 0 6838.0 -1.0851116888353454 1
gene  2 16 18 0.2603673310971242 0 6839.0 0.2603673310971242 1
gene  2 16 19 10.267726353608065 0 6840.0 10.267726353608065 1
gene  1 16 20 -1.2212450960142003 0 6841.0 -1.2212450960142003 1
gene  1 16 21 -2.8194439928004558 0 6842.0 -2.8194439928004558 1
gene  2 16 22 6.438975132518577 0 6843.0 6.438975132518577 1
gene  2 16 23 1.4023926546292704 0 6844.0 1.4023926546292704 1
gene  1 15 910 1.3808470399762718 0 7369.0 1.3808470399762718 1
gene  1 910 648 -1.4184149258451149 0 7370.0 -1.4184149258451149 1
gene  2 22 271 -1.007846670215538 0 7497.0 -1.007846670215538 1
gene  1 208 19 -5.477796115073805 0 7629.0 -5.477796115073805 1
gene  1 5 914 4.912360231327575 0 7641.0 4.912360231327575 1
gene  1 914 21 -2.7016134919944768 0 7642.0 -2.7016134919944768 1
gene  1 4 411 0.15725367547072433 0 7676.0 0.15725367547072433 1
gene  1 8 1006 -0.474919826755473 0 8083.0 -0.474919826755473 1
gene  1 1006 22 -3.4843648565306564 0 8084.0 -3.4843648565306564 1
gene  2 2 429 2.8581649600211874 0 8102.0 2.8581649600211874 1
gene  2 4 707 -2.972908056257888 0 8782.0 -2.972908056257888 1
gene  1 10 910 8.39221351843746 0 8979.0 8.39221351843746 1
gene  2 411 22 7.006700435916847 0 9169.0 7.006700435916847 1
genomeend 4
genomestart  5
trait 1 1.0250857033585747 0.27707961942569176 0.15809469960011385 0.0 0.2514374830677016 0.0 0.0 0.053624658311804546 
trait 2 2.354324471299045 0.0 0.659708618295936 0.0 0.0 0.0 0.5038344613940436 0.14909413983521724 
node 1 2 1 1
node 2 2 1 1
node 3 1 1 1
node 4 1 1 1
node 5 1 1 1
node 6 1 1 1
node 7 1 1 1
node 8 1 1 1
node 9 1 1 1
node 10 2 1 1
node 11 2 1 1
node 12 1 1 1
node 13 1 1 1
node 14 1 1 1
node 15 1 1 1
node 16 1 1 1
node 17 2 1 3
node 18 1 0 2
node 19 1 0 2
node 20 1 0 2
node 21 1 0 2
node 22 2 0 2
node 23 1 0 2
node 112 1 0 0
node 208 1 0 0
node 244 1 0 0
node 271 1 0 0
node 411 1 0 0
node 429 1 0 0
node 484 1 0 0
node 488 1 0 0
node 648 1 0 0
node 707 2 0 0
node 809 1 0 0
node 910 1 0 0
node 914 1 0 0
node 1006 1 0 0
gene  1 17 18 -4.6209151447357995 0 1.0 -4.6209151447357995 1
gene  1 17 19 17.43602502141613 0 1.0 17.43602502141613 1
gene  1 17 20 -5.47622623004812 0 1.0 -5.47622623004812 1
gene  1 17 21 1.0882429555724193 0 1.0 1.0882429555724193 1
gene  1 17 22 -6.815931749999973 0 1.0 -6.815931749999973 1
gene  1 17 23 14.324704889345611 0 1.0 14.324704889345611 1
gene  1 7 18 -1.6678226698435088 0 17.0 -1.6678226698435088 1
gene  2 7 19 -3.2756662595221075 0 18.0 -3.2756662595221075 1
gene  2 7 20 8.284820631140764 0 19.0 8.284820631140764 1
gene  2 7 21 3.0950796142110697 0 20.0 3.0950796142110697 1
gene  1 7 22 8.392195251105138 0 21.0 8.392195251105138 1
gene  1 7 23 -1.7584061585116075 0 22.0 -1.7584061585116075 1
gene  1 15 18 -10.031930726362841 0 88.0 -10.031930726362841 1
gene  2 15 19 17.94183450971488 0 89.0 17.94183450971488 1
gene  2 15 20 -5.6106909894711645 0 90.0 -5.6106909894711645 1
gene  1 15 21 4.453874194249106 0 91.0 4.453874194249106 1
gene  2 15 22 5.623927968930011 0 92.0 5.623927968930011 1
gene  1 15 23 -6.222537736506477 0 93.0 -6.222537736506477 1
gene  2 5 18 -0.8353562974354283 0 323.0 -0.8353562974354283 1
gene  1 5 19 -7.236617861344937 0 324.0 -7.236617861344937 1
gene  1 5 20 -9.485582946288119 0 325.0 -9.485582946288119 1
gene  1 5 21 1.1945122412517821 0 326.0 1.1945122412517821 1
gene  1 5 22 2.985484393733703 0 327.0 2.985484393733703 1
gene  2 5 23 2.776291371605764 0 328.0 2.776291371605764 1
gene  2 18 21 -25.384360586253518 0 544.0 -25.384360586253518 1
gene  1 15 112 -0.982950568435345 0 712.0 -0.982950568435345 1
gene  1 112 21 18.097661069834526 0 713.0 18.097661069834526 1
gene  2 14 18 21.15549975432105 0 1046.0 21.15549975432105 1
gene  1 14 19 1.2969136138686497 0 1047.0 1.2969136138686497 1
gene  1 14 20 -4.076869139306959 0 1048.0 -4.076869139306959 1
gene  1 14 21 0.6744969102486753 0 1049.0 0.6744969102486753 1
gene  1 14 22 -6.908642630738961 0 1050.0 -6.908642630738961 1
gene  1 14 23 2.904953407542601 0 1051.0 2.904953407542601 1
gene  2 1 20 -13.058336544878491 0 1201.0 -13.058336544878491 1
gene  1 15 208 7.1091045493545835 0 1556.0 7.1091045493545835 1
gene  1 208 18 1.349967854491465 0 1557.0 1.349967854491465 1
gene  2 112 19 -5.463849116042069 0 1703.0 -5.463849116042069 1
gene  1 4 21 5.4755305194865 0 1772.0 5.4755305194865 1
gene  2 5 244 8.160510577153534 0 1822.0 8.160510577153534 1
gene  2 244 18 1.7978362723856902 0 1823.0 1.7978362723856902 1
gene  1 15 271 11.862113769403358 0 2042.0 11.862113769403358 1
gene  1 271 208 -6.528477088435456 0 2043.0 -6.528477088435456 1
gene  2 244 208 -12.020503672557764 0 2091.0 -12.020503672557764 1
gene  2 244 22 -12.83233446007198 0 2331.0 -12.83233446007198 1
gene  2 20 21 5.051434068503017 0 2428.0 5.051434068503017 1
gene  1 3 22 -12.747014249657589 0 2501.0 -12.747014249657589 1
gene  1 6 271 -1.4899764018540134 0 2549.0 -1.4899764018540134 1
gene  1 20 22 -4.514174887635779 0 2652.0 -4.514174887635779 1
gene  1 2 20 2.5892724698495933 0 2716.0 2.5892724698495933 1
gene  1 112 22 8.948904340952986 0 2785.0 8.948904340952986 1
gene  1 3 18 5.627780482350757 0 2978.0 5.627780482350757 1
gene  1 3 19 2.676465749889984 0 2979.0 2.676465749889984 0
gene  1 3 20 5.5199107622527555 0 2980.0 5.5199107622527555 1
gene  2 3 21 1.2638260046760075 0 2981.0 1.2638260046760075 1
gene  1 3 23 3.4522753222162033 0 2982.0 3.4522753222162033 1
gene  1 13 18 -26.65220478915746 0 3030.0 -26.65220478915746 1
gene  1 13 19 11.994191753975507 0 3031.0 11.994191753975507 1
gene  1 13 20 -10.293054683337015 0 3032.0 -10.293054683337015 1
gene  1 13 21 10.204429910232133 0 3033.0 10.204429910232133 1
gene  1 13 22 -1.2329894956773833 0 3034.0 -1.2329894956773833 1
gene  2 13 23 2.9824716230816923 0 3023.0 2.9824716230816923 1
gene  1 3 411 2.9351447290705734 0 3178.0 2.9351447290705734 1
gene  1 411 20 4.729784994791082 0 3179.0 4.729784994791082 1
gene  1 2 23 -6.349689313899407 0 3224.0 -6.349689313899407 1
gene  2 20 112 13.160389290759444 0 3249.0 13.160389290759444 1
gene  1 3 429 -1.1871148823632605 0 3288.0 -1.1871148823632605 1
gene  1 429 19 -0.8757319221777304 0 3289.0 -0.8757319221777304 1
gene  2 244 484 -2.125500821013682 0 3768.0 -2.125500821013682 1
gene  2 484 22 7.510733380857236 0 3769.0 7.510733380857236 1
gene  2 15 488 -1.5863752748495585 0 3810.0 -1.5863752748495585 1
gene  2 488 22 4.350803762319799 0 3811.0 4.350803762319799 1
gene  1 12 18 1.6635481895004705 0 3812.0 1.6635481895004705 1
gene  1 12 19 -0.33369601573867813 0 3813.0 -0.33369601573867813 1
gene  1 12 20 6.587040663054058 0 3814.0 6.587040663054058 1
gene  1 12 21 1.1545999563875173 0 3815.0 1.1545999563875173 1
gene  1 12 22 3.075801555863397 0 3816.0 3.075801555863397 1
gene  2 12 23 -14.3713406799948 0 3817.0 -14.3713406799948 1
gene  1 1 18 -7.107518479258566 0 4064.0 -7.107518479258566 1
gene  1 1 19 1.2865893815845846 0 4065.0 1.2865893815845846 1
gene  2 1 21 0.7049913240801229 0 4066.0 0.7049913240801229 1
gene  2 1 22 3.2537644059559896 0 4067.0 3.2537644059559896 1
gene  2 1 23 8.456080948564127 0 4068.0 8.456080948564127 1
gene  1 4 20 -6.540763090474675 0 4193.0 -6.540763090474675 1
gene  1 10 18 -3.1256450746354396 0 4365.0 -3.1256450746354396 1
gene  2 10 19 1.188862877635456 0 4366.0 1.188862877635456 1
gene  2 10 20 -9.034581186766669 0 4367.0 -9.034581186766669 1
gene  1 10 21 9.895809526410947 0 4368.0 9.895809526410947 1
gene  2 10 22 7.291124595690398 0 4369.0 7.291124595690398 1
gene  2 10 23 12.7829518172109 0 4370.0 12.7829518172109 1
gene  1 8 18 0.07932527288400282 0 4406.0 0.07932527288400282 1
gene  1 8 19 -3.5407472771123074 0 4407.0 -3.5407472771123074 1
gene  1 8 20 -6.396939268104792 0 4408.0 -6.396939268104792 1
gene  1 8 21 -1.0718134356411744 0 4409.0 -1.0718134356411744 1
gene  1 8 22 -2.389896208082367 0 4410.0 -2.389896208082367 0
gene  2 8 23 -1.5987932051685467 0 4411.0 -1.5987932051685467 1
gene  2 4 18 -4.909171085566304 0 4485.0 -4.909171085566304 1
gene  2 4 19 -2.7745475433701294 0 4486.0 -2.7745475433701294 1
gene  1 4 22 -11.574394095528206 0 4487.0 -11.574394095528206 1
gene  1 4 23 -9.096609751367854 0 4488.0 -9.096609751367854 1
gene  2 13 208 4.482256457100991 0 4719.0 4.482256457100991 1
gene  1 271 429 -1.0230672084636208 0 4762.0 -1.0230672084636208 1
gene  1 2 18 -5.718653700727257 0 4882.0 -5.718653700727257 1
gene  2 2 19 0.6592585808791971 0 4883.0 0.6592585808791971 1
gene  2 2 21 5.999256002362404 0 4884.0 5.999256002362404 1
gene  2 2 22 -4.0764290536768515 0 4885.0 -4.0764290536768515 1
gene  2 9 18 -0.9163523694405753 0 4961.0 -0.9163523694405753 1
gene  1 9 19 -3.0732435804784553 0 4962.0 -3.0732435804784553 0
gene  2 9 20 -1.0748652952754303 0 4963.0 -1.0748652952754303 1
gene  2 9 21 -2.4682309054717813 0 4964.0 -2.4682309054717813 1
gene  1 9 22 1.77455047293572 0 4965.0 1.77455047293572 1
gene  2 9 23 -1.7470783822772347 0 4966.0 -1.7470783822772347 1
gene  2 14 411 -11.552372550919438 0 5105.0 -11.552372550919438 1
gene  1 15 648 -10.797652399715247 0 5195.0 -10.797652399715247 0
gene  1 648 208 3.131397490973188 0 5196.0 3.131397490973188 1
gene  2 648 20 2.3237192638365696 0 5299.0 2.3237192638365696 1
gene  1 10 244 -5.035381327721469 0 5510.0 -5.035381327721469 1
gene  2 244 707 4.332867143839413 0 5636.0 4.332867143839413 1
gene  2 707 484 -2.1520807113619025 0 5637.0 -2.1520807113619025 1
gene  2 11 18 -2.3704633808666014 0 5891.0 -2.3704633808666014 1
gene  1 11 19 4.93865514078229 0 5892.0 4.93865514078229 1
gene  1 11 20 3.6939902796327013 0 5893.0 3.6939902796327013 1
gene  2 11 21 3.2897080720344842 0 5894.0 3.2897080720344842 1
gene  1 11 22 1.9047987986668304 0 5895.0 1.9047987986668304 1
gene  2 11 23 -2.1595933293451735 0 5896.0 -2.1595933293451735 1
gene  1 4 271 -5.103669107803469 0 5969.0 -5.103669107803469 1
gene  1 6 18 7.571270563957125 0 6161.0 7.571270563957125 1
gene  2 6 19 -4.6097941274736005 0 6162.0 -4.6097941274736005 1
gene  1 6 20 0.666238257086838 0 6163.0 0.666238257086838 1
gene  2 6 21 -2.1160519866813092 0 6164.0 -2.1160519866813092 1
gene  1 6 22 -0.14806880094426278 0 6165.0 -0.14806880094426278 1
gene  2 6 23 1.7986525587584539 0 6166.0 1.7986525587584539 1
gene  2 21 429 4.655450407066609 0 6172.0 4.655450407066609 1
gene  1 484 411 2.097380142692141 0 6243.0 2.097380142692141 1
gene  2 648 707 0.2595807403999597 0 6333.0 0.2595807403999597 1
gene  1 14 488 2.6800775467812854 0 6647.0 2.6800775467812854 1
gene  1 9 707 -0.44143786207579283 0 6682.0 -0.44143786207579283 1
gene  1 429 809 1.1412983968927783 0 6709.0 1.1412983968927783 1
gene  1 809 19 1.9879896264514878 0 6710.0 1.9879896264514878 1
gene  1 411 18 -1.3333393560748539 0 6838.0 -1.3333393560748539 1
gene  2 16 18 -2.902767112976731 0 6839.0 -2.902767112976731 1
gene  2 16 19 -1.0515927839136925 0 6840.0 -1.0515927839136925 1
gene  1 16 20 -3.101203261376786 0 6841.0 -3.101203261376786 1
gene  1 16 21 -2.0811417185519225 0 6842.0 -2.0811417185519225 1
gene  2 16 22 5.077755752279096 0 6843.0 5.077755752279096 1
gene  2 16 23 1.8191581296890686 0 6844.0 1.8191581296890686 1
gene  1 15 910 4.655498125718885 0 7369.0 4.655498125718885 1
gene  1 910 648 0.9656322959991653 0 7370.0 0.9656322959991653 1
gene  2 22 271 -2.3282398625893617 0 7497.0 -2.3282398625893617 1
gene  1 208 19 -7.701543222181785 0 7629.0 -7.701543222181785 1
gene  1 5 914 0.4787180767113927 0 7641.0 0.4787180767113927 1
gene  1 914 21 0.4942050561908293 0 7642.0 0.4942050561908293 1
gene  1 4 411 -0.8197552843974296 0 7676.0 -0.8197552843974296 1
gene  1 8 1006 1.553123175613766 0 8083.0 1.553123175613766 1
gene  1 1006 22 -1.202718930069123 0 8084.0 -1.202718930069123 1
gene  2 2 429 1.3786310188527735 0 8102.0 1.3786310188527735 1
gene  2 4 707 -2.486383586244218 0 8782.0 -2.486383586244218 1
gene  1 10 910 7.844388021221954 0 8979.0 7.844388021221954 1
gene  2 411 22 9.426329772168575 0 9169.0 9.426329772168575 1
genomeend 5
genomestart  6
trait 1 1.0250857033585747 0.27707961942569176 0.15809469960011385 0.0 0.2514374830677016 0.0 0.0 0.053624658311804546 
trait 2 2.122700634359553 0.14684629652598902 0.48552213037665126 0.0 0.0 0.0 0.5038344613940436 0.6212272667602441 
node 1 2 1 1
node 2 2 1 1
node 3 1 1 1
node 4 1 1 1
node 5 1 1 1
node 6 1 1 1
node 7 1 1 1
node 8 1 1 1
node 9 1 1 1
node 10 2 1 1
node 11 2 1 1
node 12 1 1 1
node 13 1 1 1
node 14 1 1 1
node 15 1 1 1
node 16 1 1 1
node 17 2 1 3
node 18 1 0 2
node 19 1 0 2
node 20 1 0 2
node 21 1 0 2
node 22 2 0 2
node 23 1 0 2
node 112 1 0 0
node 208 1 0 0
node 244 1 0 0
node 271 1 0 0
node 411 1 0 0
node 429 1 0 0
node 484 1 0 0
node 488 1 0 0
node 648 1 0 0
node 707 1 0 0
node 809 1 0 0
node 910 1 0 0
node 923 1 0 0
gene  1 17 18 -9.511400730230093 0 1.0 -9.511400730230093 1
gene  1 17 19 18.426037673253273 0 1.0 18.426037673253273 1
gene  1 17 20 -15.285741531025488 0 1.0 -15.285741531025488 1
gene  1 17 21 -1.1639864868836698 0 1.0 -1.1639864868836698 1
gene  1 17 22 0.573559170903325 0 1.0 0.573559170903325 1
gene  1 17 23 4.915426089832456 0 1.0 4.915426089832456 1
gene  1 7 18 -1.8632358505665692 0 17.0 -1.8632358505665692 1
gene  2 7 19 -2.888108969886756 0 18.0 -2.888108969886756 1
gene  2 7 20 -0.5380846392636873 0 19.0 -0.5380846392636873 1
gene  2 7 21 -6.493500941527009 0 20.0 -6.493500941527009 1
gene  1 7 22 3.66033526596759 0 21.0 3.66033526596759 1
gene  1 7 23 5.961771384226642 0 22.0 5.961771384226642 1
gene  1 15 18 3.731436693685283 0 88.0 3.731436693685283 1
gene  2 15 19 2.9932957513973526 0 89.0 2.9932957513973526 1
gene  2 15 20 -0.09812064580135571 0 90.0 -0.09812064580135571 1
gene  1 15 21 -9.27353561842775 0 91.0 -9.27353561842775 1
gene  2 15 22 1.4631405281597014 0 92.0 1.4631405281597014 1
gene  1 15 23 -0.026701630512708796 0 93.0 -0.026701630512708796 1
gene  2 5 18 -5.534608192759397 0 323.0 -5.534608192759397 1
gene  1 5 19 -9.672668792670223 0 324.0 -9.672668792670223 1
gene  1 5 20 -1.4879685229079551 0 325.0 -1.4879685229079551 1
gene  1 5 21 -3.5052832795213122 0 326.0 -3.5052832795213122 1
gene  1 5 22 -4.174221807695449 0 327.0 -4.174221807695449 1
gene  2 5 23 3.3857617949390635 0 328.0 3.3857617949390635 1
gene  2 18 21 -31.149492129169523 0 544.0 -31.149492129169523 1
gene  1 15 112 9.370529960913425 0 712.0 9.370529960913425 1
gene  1 112 21 6.496258169408594 0 713.0 6.496258169408594 1
gene  2 14 18 21.497580728845282 0 1046.0 21.497580728845282 1
gene  1 14 19 1.8104659046677316 0 1047.0 1.8104659046677316 1
gene  1 14 20 -7.619535423046164 0 1048.0 -7.619535423046164 1
gene  1 14 21 0.4395347891909147 0 1049.0 0.4395347891909147 1
gene  1 14 22 -2.274396419848249 0 1050.0 -2.274396419848249 1
gene  1 14 23 6.2264835499983535 0 1051.0 6.2264835499983535 1
gene  2 1 20 3.1967275255093215 0 1201.0 3.1967275255093215 1
gene  1 15 208 6.432253643623267 0 1556.0 6.432253643623267 1
gene  1 208 18 -0.13937141080201465 0 1557.0 -0.13937141080201465 1
gene  2 112 19 -1.059220109697455 0 1703.0 -1.059220109697455 1
gene  1 4 21 -2.699841180464931 0 1772.0 -2.699841180464931 1
gene  2 5 244 13.925350383743986 0 1822.0 13.925350383743986 1
gene  2 244 18 2.7328465212042814 0 1823.0 2.7328465212042814 1
gene  1 15 271 8.916361507394138 0 2042.0 8.916361507394138 1
gene  1 271 208 -3.341502757563544 0 2043.0 -3.341502757563544 1
gene  2 244 208 -9.58342552011683 0 2091.0 -9.58342552011683 1
gene  2 244 22 4.967201841145084 0 2331.0 4.967201841145084 1
gene  2 20 21 9.277765734935237 0 2428.0 9.277765734935237 1
gene  1 3 22 -12.237741885385065 0 2501.0 -12.237741885385065 1
gene  1 6 271 -1.6541108412671337 0 2549.0 -1.6541108412671337 1
gene  1 20 22 -12.051094102269202 0 2652.0 -12.051094102269202 1
gene  1 2 20 3.3327085210438545 0 2716.0 3.3327085210438545 1
gene  1 112 22 10.28600011684473 0 2785.0 10.28600011684473 1
gene  1 3 18 1.507425323054774 0 2978.0 1.507425323054774 1
gene  1 3 19 -8.015772039424398 0 2979.0 -8.015772039424398 0
gene  1 3 20 -4.3218713481996085 0 2980.0 -4.3218713481996085 1
gene  2 3 21 3.5411955987530215 0 2981.0 3.5411955987530215 1
gene  1 3 23 0.5363615167885573 0 2982.0 0.5363615167885573 1
gene  1 13 18 -22.270976919608653 0 3030.0 -22.270976919608653 1
gene  1 13 19 17.54114150643848 0 3031.0 17.54114150643848 1
gene  1 13 20 2.23745039259666 0 3032.0 2.23745039259666 1
gene  1 13 21 6.145200954660909 0 3033.0 6.145200954660909 1
gene  1 13 22 -5.694716155961727 0 3034.0 -5.694716155961727 1
gene  2 13 23 -0.0862225165847233 0 3023.0 -0.0862225165847233 1
gene  1 3 411 8.074597015411804 0 3178.0 8.074597015411804 1
gene  1 411 20 -4.292732221287824 0 3179.0 -4.292732221287824 1
gene  1 2 23 2.484522314866283 0 3224.0 2.484522314866283 1
gene  2 20 112 16.1726154463133 0 3249.0 16.1726154463133 1
gene  1 3 429 4.236717412827517 0 3288.0 4.236717412827517 1
gene  1 429 19 -0.5046587629967993 0 3289.0 -0.5046587629967993 1
gene  2 244 484 -3.922750168945836 0 3768.0 -3.922750168945836 1
gene  2 484 22 5.107477428651556 0 3769.0 5.107477428651556 1
gene  2 15 488 1.181833347380444 0 3810.0 1.181833347380444 1
gene  2 488 22 -3.8829114945882397 0 3811.0 -3.8829114945882397 1
gene  1 12 18 2.1728928145105204 0 3812.0 2.1728928145105204 1
gene  1 12 19 -3.891199613826843 0 3813.0 -3.891199613826843 1
gene  1 12 20 -0.9607711765674484 0 3814.0 -0.9607711765674484 1
gene  1 12 21 0.4402550882066476 0 3815.0 0.4402550882066476 1
gene  1 12 22 -2.5906615828436435 0 3816.0 -2.5906615828436435 1
gene  2 12 23 -3.017022552330259 0 3817.0 -3.017022552330259 1
gene  1 1 18 -0.30503981416772064 0 4064.0 -0.30503981416772064 1
gene  1 1 19 10.70060121340774 0 4065.0 10.70060121340774 1
gene  2 1 21 7.327250940538575 0 4066.0 7.327250940538575 1
gene  2 1 22 5.717693745153561 0 4067.0 5.717693745153561 1
gene  2 1 23 6.126254523899985 0 4068.0 6.126254523899985 1
gene  1 4 20 3.575082957476667 0 4193.0 3.575082957476667 1
gene  1 10 18 -0.8103872815716453 0 4365.0 -0.8103872815716453 1
gene  2 10 19 -6.5783380433581256 0 4366.0 -6.5783380433581256 1
gene  2 10 20 -8.169981071999166 0 4367.0 -8.169981071999166 1
gene  1 10 21 10.06427681734485 0 4368.0 10.06427681734485 1
gene  2 10 22 5.456773609633103 0 4369.0 5.456773609633103 1
gene  2 10 23 -5.437281384419 0 4370.0 -5.437281384419 1
gene  1 8 18 6.286030811450219 0 4406.0 6.286030811450219 1
gene  1 8 19 -5.485783084856051 0 4407.0 -5.485783084856051 1
gene  1 8 20 -5.333065778893221 0 4408.0 -5.333065778893221 1
gene  1 8 21 10.33032978566784 0 4409.0 10.33032978566784 1
gene  1 8 22 -5.005054676534119 0 4410.0 -5.005054676534119 1
gene  2 8 23 0.5443821615293709 0 4411.0 0.5443821615293709 1
gene  2 4 18 -11.817372715527627 0 4485.0 -11.817372715527627 1
gene  2 4 19 6.157667478870013 0 4486.0 6.157667478870013 1
gene  1 4 22 0.8630558637016508 0 4487.0 0.8630558637016508 1
gene  1 4 23 -14.616058079297598 0 4488.0 -14.616058079297598 1
gene  2 13 208 4.765631977783232 0 4719.0 4.765631977783232 1
gene  1 271 429 0.6754153774834181 0 4762.0 0.6754153774834181 1
gene  1 2 18 -2.091445524673907 0 4882.0 -2.091445524673907 1
gene  2 2 19 2.161735886581538 0 4883.0 2.161735886581538 1
gene  2 2 21 1.40283802843694 0 4884.0 1.40283802843694 1
gene  2 2 22 -1.504089726300446 0 4885.0 -1.504089726300446 1
gene  2 9 18 -2.438421366254414 0 4961.0 -2.438421366254414 1
gene  1 9 19 -3.695665944175097 0 4962.0 -3.695665944175097 1
gene  2 9 20 -5.615516080944332 0 4963.0 -5.615516080944332 1
gene  2 9 21 2.6000680897023245 0 4964.0 2.6000680897023245 1
gene  1 9 22 0.9679795020451676 0 4965.0 0.9679795020451676 1
gene  2 9 23 -0.4595390567514035 0 4966.0 -0.4595390567514035 1
gene  2 14 411 -10.945051866914575 0 5105.0 -10.945051866914575 1
gene  1 15 648 -5.758778960959807 0 5195.0 -5.758778960959807 1
gene  1 648 208 -1.2209681450830592 0 5196.0 -1.2209681450830592 1
gene  2 648 20 2.5326736550185167 0 5299.0 2.5326736550185167 1
gene  1 10 244 -4.142311273914542 0 5510.0 -4.142311273914542 1
gene  2 244 707 -4.680543019687972 0 5636.0 -4.680543019687972 1
gene  2 707 484 2.559459582316648 0 5637.0 2.559459582316648 1
gene  2 11 18 2.7283992462024975 0 5891.0 2.7283992462024975 1
gene  1 11 19 -5.478570479785918 0 5892.0 -5.478570479785918 1
gene  1 11 20 5.886742939526215 0 5893.0 5.886742939526215 1
gene  2 11 21 -1.2766013441444426 0 5894.0 -1.2766013441444426 1
gene  1 11 22 -10.591030051657334 0 5895.0 -10.591030051657334 1
gene  2 11 23 -3.013140500294077 0 5896.0 -3.013140500294077 1
gene  1 4 271 4.872996468636491 0 5969.0 4.872996468636491 1
gene  1 6 18 -4.850168560208433 0 6161.0 -4.850168560208433 1
gene  2 6 19 3.6078052283998767 0 6162.0 3.6078052283998767 1
gene  1 6 20 -0.41099367163108813 0 6163.0 -0.41099367163108813 1
gene  2 6 21 0.7871364424468688 0 6164.0 0.7871364424468688 1
gene  1 6 22 -0.3113907425050011 0 6165.0 -0.3113907425050011 1
gene  2 6 23 1.729683014063428 0 6166.0 1.729683014063428 1
gene  2 21 429 0.811634407189262 0 6172.0 0.811634407189262 1
gene  1 484 411 0.17732635384030848 0 6243.0 0.17732635384030848 1
gene  2 648 707 -0.9948776052834027 0 6333.0 -0.9948776052834027 1
gene  1 14 488 -0.958806108958514 0 6647.0 -0.958806108958514 1
gene  1 9 707 1.6846345637052174 0 6682.0 1.6846345637052174 1
gene  1 429 809 -0.48413838230624107 0 6709.0 -0.48413838230624107 1
gene  1 809 19 -0.8941446622154938 0 6710.0 -0.8941446622154938 1
gene  1 411 18 -1.2702202470552784 0 6838.0 -1.2702202470552784 1
gene  2 16 18 0.3232068597656379 0 6839.0 0.3232068597656379 1
gene  2 16 19 1.9720955657082797 0 6840.0 1.9720955657082797 1
gene  1 16 20 -1.329934943683964 0 6841.0 -1.329934943683964 1
gene  1 16 21 5.210396991760341 0 6842.0 5.210396991760341 1
gene  2 16 22 -2.005979773532111 0 6843.0 -2.005979773532111 1
gene  2 16 23 0.14542218730257916 0 6844.0 0.14542218730257916 1
gene  1 15 910 2.374839399099204 0 7369.0 2.374839399099204 1
gene  1 910 648 3.463239498426457 0 7370.0 3.463239498426457 1
gene  2 22 271 1.0595035298318203 0 7497.0 1.0595035298318203 1
gene  1 208 19 -7.771176245588427 0 7629.0 -7.771176245588427 1
gene  1 13 923 -0.14605989741185793 0 7673.0 -0.14605989741185793 1
gene  1 923 21 1.02484531178014 0 7674.0 1.02484531178014 1
gene  2 22 429 0.685282875399885 0 7939.0 0.685282875399885 1
gene  1 208 923 0.15824590812354244 0 7966.0 0.15824590812354244 1
gene  1 11 208 -0.2691438238556404 0 7990.0 -0.2691438238556404 1
gene  1 809 23 -1.3045967155115217 0 8046.0 -1.3045967155115217 1
gene  1 9 923 -3.69807135242763 0 8079.0 -3.69807135242763 1
gene  2 19 23 -0.1288943812999066 0 8099.0 -0.1288943812999066 1
gene  1 7 923 -3.0774209438820233 0 8675.0 -3.0774209438820233 1
genomeend 6
genomestart  7
trait 1 1.0250857033585747 0.27707961942569176 0.15809469960011385 0.0 0.2514374830677016 0.0 0.0 0.053624658311804546 
trait 2 2.122700634359553 0.14684629652598902 0.48552213037665126 0.0 0.0 0.0 0.5038344613940436 0.6212272667602441 
node 1 2 1 1
node 2 2 1 1
node 3 1 1 1
node 4 1 1 1
node 5 1 1 1
node 6 1 1 1
node 7 1 1 1
node 8 1 1 1
node 9 1 1 1
node 10 2 1 1
node 11 2 1 1
node 12 1 1 1
node 13 1 1 1
node 14 1 1 1
node 15 1 1 1
node 16 1 1 1
node 17 2 1 3
node 18 1 0 2
node 19 1 0 2
node 20 1 0 2
node 21 1 0 2
node 22 2 0 2
node 23 1 0 2
node 112 1 0 0
node 208 1 0 0
node 244 1 0 0
node 271 1 0 0
node 411 1 0 0
node 429 1 0 0
node 484 1 0 0
node 488 1 0 0
node 648 1 0 0
node 707 1 0 0
node 809 1 0 0
node 910 1 0 0
node 923 1 0 0
gene  1 17 18 -8.03140849147708 0 1.0 -8.03140849147708 1
gene  1 17 19 1.511620463557442 0 1.0 1.511620463557442 1
gene  1 17 20 -16.830619662998785 0 1.0 -16.830619662998785 1
gene  1 17 21 -2.3061479427267852 0 1.0 -2.3061479427267852 1
gene  1 17 22 2.9898608853335995 0 1.0 2.9898608853335995 1
gene  1 17 23 4.1179430735298 0 1.0 4.1179430735298 1
gene  1 7 18 0.4724982444408212 0 17.0 0.4724982444408212 1
gene  2 7 19 -3.108005116955116 0 18.0 -3.108005116955116 1
gene  2 7 20 -1.3213034833784625 0 19.0 -1.3213034833784625 1
gene  2 7 21 -0.6836183113696825 0 20.0 -0.6836183113696825 1
gene  1 7 22 5.901640569383432 0 21.0 5.901640569383432 1
gene  1 7 23 6.648417514707254 0 22.0 6.648417514707254 1
gene  1 15 18 -1.2775661898727253 0 88.0 -1.2775661898727253 1
gene  2 15 19 4.492848380957231 0 89.0 4.492848380957231 1
gene  2 15 20 -1.4742025936761025 0 90.0 -1.4742025936761025 1
gene  1 15 21 -7.268016800814902 0 91.0 -7.268016800814902 1
gene  2 15 22 0.16410196371804342 0 92.0 0.16410196371804342 1
gene  1 15 23 0.31125021617090964 0 93.0 0.31125021617090964 1
gene  2 5 18 -6.136925951673087 0 323.0 -6.136925951673087 1
gene  1 5 19 -7.458846028604736 0 324.0 -7.458846028604736 1
gene  1 5 20 -2.461094489801227 0 325.0 -2.461094489801227 1
gene  1 5 21 -1.1808475958750662 0 326.0 -1.1808475958750662 1
gene  1 5 22 -3.6116968801694194 0 327.0 -3.6116968801694194 1
gene  2 5 23 -1.2500322625745997 0 328.0 -1.2500322625745997 1
gene  2 18 21 2.2525271728604404 0 544.0 2.2525271728604404 1
gene  1 15 112 11.61759340581709 0 712.0 11.61759340581709 1
gene  1 112 21 8.66334748987057 0 713.0 8.66334748987057 1
gene  2 14 18 20.178722639604988 0 1046.0 20.178722639604988 1
gene  1 14 19 3.9746743705705185 0 1047.0 3.9746743705705185 1
gene  1 14 20 -7.492165712408869 0 1048.0 -7.492165712408869 1
gene  1 14 21 2.594326697316986 0 1049.0 2.594326697316986 1
gene  1 14 22 0.008640972804367653 0 1050.0 0.008640972804367653 1
gene  1 14 23 0.5564447070225009 0 1051.0 0.5564447070225009 1
gene  2 1 20 5.492396268997877 0 1201.0 5.492396268997877 1
gene  1 15 208 6.432253643623267 0 1556.0 6.432253643623267 1
gene  1 208 18 -0.9374342578963254 0 1557.0 -0.9374342578963254 1
gene  2 112 19 1.3991153464231694 0 1703.0 1.3991153464231694 1
gene  1 4 21 -4.579268503874441 0 1772.0 -4.579268503874441 1
gene  2 5 244 14.932889562227126 0 1822.0 14.932889562227126 1
gene  2 244 18 4.253001271480693 0 1823.0 4.253001271480693 1
gene  1 15 271 6.493150764636321 0 2042.0 6.493150764636321 1
gene  1 271 208 -3.341502757563544 0 2043.0 -3.341502757563544 1
gene  2 244 208 -9.58342552011683 0 2091.0 -9.58342552011683 1
gene  2 244 22 -0.4553294560827423 0 2331.0 -0.4553294560827423 1
gene  2 20 21 10.802388133317365 0 2428.0 10.802388133317365 1
gene  1 3 22 1.4798081343803 0 2501.0 1.4798081343803 1
gene  1 6 271 -1.6541108412671337 0 2549.0 -1.6541108412671337 1
gene  1 20 22 -14.006379128237624 0 2652.0 -14.006379128237624 1
gene  1 2 20 -1.6796675830336367 0 2716.0 -1.6796675830336367 1
gene  1 112 22 -1.377942655701526 0 2785.0 -1.377942655701526 1
gene  1 3 18 0.9803836281355577 0 2978.0 0.9803836281355577 1
gene  1 3 19 -8.739565825990784 0 2979.0 -8.739565825990784 0
gene  1 3 20 -3.704432255913501 0 2980.0 -3.704432255913501 1
gene  2 3 21 0.439144630419534 0 2981.0 0.439144630419534 1
gene  1 3 23 2.1052531107369856 0 2982.0 2.1052531107369856 1
gene  1 13 18 -21.76562713727775 0 3030.0 -21.76562713727775 1
gene  1 13 19 -0.4014675609518989 0 3031.0 -0.4014675609518989 1
gene  1 13 20 1.2560635965277422 0 3032.0 1.2560635965277422 1
gene  1 13 21 -1.6577271058707832 0 3033.0 -1.6577271058707832 1
gene  1 13 22 -5.694716155961727 0 3034.0 -5.694716155961727 1
gene  2 13 23 -2.359196843812264 0 3023.0 -2.359196843812264 1
gene  1 3 411 8.074597015411804 0 3178.0 8.074597015411804 1
gene  1 411 20 -3.5784933121163793 0 3179.0 -3.5784933121163793 1
gene  1 2 23 2.0003293568866223 0 3224.0 2.0003293568866223 1
gene  2 20 112 17.330853502742528 0 3249.0 17.330853502742528 1
gene  1 3 429 -1.927932525781547 0 3288.0 -1.927932525781547 1
gene  1 429 19 1.264638566775879 0 3289.0 1.264638566775879 1
gene  2 244 484 -4.2563153572529915 0 3768.0 -4.2563153572529915 1
gene  2 484 22 3.4196031494592773 0 3769.0 3.4196031494592773 1
gene  2 15 488 1.431823508948735 0 3810.0 1.431823508948735 1
gene  2 488 22 -3.798360997598732 0 3811.0 -3.798360997598732 1
gene  1 12 18 2.9027866645619937 0 3812.0 2.9027866645619937 1
gene  1 12 19 -4.991817709375455 0 3813.0 -4.991817709375455 1
gene  1 12 20 2.266631761213911 0 3814.0 2.266631761213911 1
gene  1 12 21 1.5286785047315565 0 3815.0 1.5286785047315565 1
gene  1 12 22 -4.729048512352048 0 3816.0 -4.729048512352048 1
gene  2 12 23 -3.56640212957363 0 3817.0 -3.56640212957363 1
gene  1 1 18 -0.13070848235732724 0 4064.0 -0.13070848235732724 1
gene  1 1 19 -0.1867978398425285 0 4065.0 -0.1867978398425285 1
gene  2 1 21 0.7847363473272615 0 4066.0 0.7847363473272615 1
gene  2 1 22 7.043521307819647 0 4067.0 7.043521307819647 1
gene  2 1 23 5.718198228609288 0 4068.0 5.718198228609288 1
gene  1 4 20 1.2255821567396419 0 4193.0 1.2255821567396419 1
gene  1 10 18 -0.8103872815716453 0 4365.0 -0.8103872815716453 1
gene  2 10 19 1.8622641072490906 0 4366.0 1.8622641072490906 1
gene  2 10 20 -5.778514995866374 0 4367.0 -5.778514995866374 1
gene  1 10 21 11.348950040370598 0 4368.0 11.348950040370598 1
gene  2 10 22 5.354846524113565 0 4369.0 5.354846524113565 1
gene  2 10 23 -5.00766062898136 0 4370.0 -5.00766062898136 1
gene  1 8 18 4.895476066878442 0 4406.0 4.895476066878442 1
gene  1 8 19 -5.485783084856051 0 4407.0 -5.485783084856051 1
gene  1 8 20 -4.070301202585078 0 4408.0 -4.070301202585078 1
gene  1 8 21 10.939712938525892 0 4409.0 10.939712938525892 1
gene  1 8 22 -5.141915714349624 0 4410.0 -5.141915714349624 1
gene  2 8 23 1.2927140861273243 0 4411.0 1.2927140861273243 1
gene  2 4 18 -12.693069610903368 0 4485.0 -12.693069610903368 1
gene  2 4 19 1.3892938282799543 0 4486.0 1.3892938282799543 1
gene  1 4 22 1.9378131031839692 0 4487.0 1.9378131031839692 1
gene  1 4 23 -13.04540928855838 0 4488.0 -13.04540928855838 1
gene  2 13 208 1.9948785119018102 0 4719.0 1.9948785119018102 1
gene  1 271 429 0.6754153774834181 0 4762.0 0.6754153774834181 1
gene  1 2 18 -1.8282735102756253 0 4882.0 -1.8282735102756253 1
gene  2 2 19 -0.08442656692658285 0 4883.0 -0.08442656692658285 1
gene  2 2 21 2.420526486188361 0 4884.0 2.420526486188361 1
gene  2 2 22 -0.9248547144345995 0 4885.0 -0.9248547144345995 1
gene  2 9 18 -0.5672977572061189 0 4961.0 -0.5672977572061189 1
gene  1 9 19 -3.695665944175097 0 4962.0 -3.695665944175097 1
gene  2 9 20 -3.260832902512155 0 4963.0 -3.260832902512155 1
gene  2 9 21 3.101015433684876 0 4964.0 3.101015433684876 1
gene  1 9 22 -1.2608598726525717 0 4965.0 -1.2608598726525717 1
gene  2 9 23 0.2406212574888511 0 4966.0 0.2406212574888511 1
gene  2 14 411 -11.751980591520757 0 5105.0 -11.751980591520757 1
gene  1 15 648 -6.012312329678536 0 5195.0 -6.012312329678536 1
gene  1 648 208 0.0032240410226398453 0 5196.0 0.0032240410226398453 1
gene  2 648 20 2.3073747941744593 0 5299.0 2.3073747941744593 1
gene  1 10 244 -4.142311273914542 0 5510.0 -4.142311273914542 1
gene  2 244 707 -4.680543019687972 0 5636.0 -4.680543019687972 1
gene  2 707 484 2.3042762121976943 0 5637.0 2.3042762121976943 1
gene  2 11 18 -0.5629952727034107 0 5891.0 -0.5629952727034107 1
gene  1 11 19 -5.478570479785918 0 5892.0 -5.478570479785918 1
gene  1 11 20 -0.686498940632899 0 5893.0 -0.686498940632899 1
gene  2 11 21 0.5882055488862759 0 5894.0 0.5882055488862759 1
gene  1 11 22 -11.533410891922568 0 5895.0 -11.533410891922568 1
gene  2 11 23 1.9223636482408488 0 5896.0 1.9223636482408488 1
gene  1 4 271 5.169519237226233 0 5969.0 5.169519237226233 1
gene  1 6 18 -4.850168560208433 0 6161.0 -4.850168560208433 1
gene  2 6 19 1.1661876257502688 0 6162.0 1.1661876257502688 1
gene  1 6 20 2.0233002584228355 0 6163.0 2.0233002584228355 1
gene  2 6 21 2.603105308742012 0 6164.0 2.603105308742012 1
gene  1 6 22 2.085654834823614 0 6165.0 2.085654834823614 1
gene  2 6 23 3.4883684560344284 0 6166.0 3.4883684560344284 1
gene  2 21 429 0.811634407189262 0 6172.0 0.811634407189262 1
gene  1 484 411 0.17732635384030848 0 6243.0 0.17732635384030848 1
gene  2 648 707 0.49169787132244114 0 6333.0 0.49169787132244114 1
gene  1 14 488 -1.5582869698578703 0 6647.0 -1.5582869698578703 1
gene  1 9 707 -0.3463135902840908 0 6682.0 -0.3463135902840908 1
gene  1 429 809 -0.48413838230624107 0 6709.0 -0.48413838230624107 1
gene  1 809 19 0.13053635431297117 0 6710.0 0.13053635431297117 1
gene  1 411 18 -1.1465871122435183 0 6838.0 -1.1465871122435183 1
gene  2 16 18 1.673278347413487 0 6839.0 1.673278347413487 1
gene  2 16 19 2.2448780073731953 0 6840.0 2.2448780073731953 1
gene  1 16 20 -2.9050236676769345 0 6841.0 -2.9050236676769345 1
gene  1 16 21 6.7644714713978225 0 6842.0 6.7644714713978225 1
gene  2 16 22 -4.049240598094478 0 6843.0 -4.049240598094478 1
gene  2 16 23 1.5294998374577675 0 6844.0 1.5294998374577675 1
gene  1 15 910 4.466089959933278 0 7369.0 4.466089959933278 1
gene  1 910 648 3.893058431069885 0 7370.0 3.893058431069885 1
gene  2 22 271 0.22219685421305813 0 7497.0 0.22219685421305813 1
gene  1 208 19 -6.837893579168733 0 7629.0 -6.837893579168733 1
gene  1 13 923 -2.267918350645675 0 7673.0 -2.267918350645675 1
gene  1 923 21 1.286239974496453 0 7674.0 1.286239974496453 1
gene  2 22 429 -0.6516602218203631 0 7939.0 -0.6516602218203631 1
gene  1 208 923 0.9948032027609135 0 7966.0 0.9948032027609135 1
gene  1 11 208 0.7755843100704122 0 7990.0 0.7755843100704122 1
gene  1 809 23 -3.0169095340285317 0 8046.0 -3.0169095340285317 1
gene  1 9 923 -4.022360886943384 0 8079.0 -4.022360886943384 1
gene  2 19 23 -0.1288943812999066 0 8099.0 -0.1288943812999066 1
gene  1 7 923 -1.0798839538483687 0 8675.0 -1.0798839538483687 1
genomeend 7
genomestart  8
trait 1 1.0250857033585747 0.27707961942569176 0.15809469960011385 0.0 0.2514374830677016 0.0 0.0 0.053624658311804546 
trait 2 2.122700634359553 0.14684629652598902 0.48552213037665126 0.0 0.0 0.0 0.5038344613940436 0.6212272667602441 
node 1 2 1 1
node 2 2 1 1
node 3 1 1 1
node 4 1 1 1
node 5 1 1 1
node 6 1 1 1
node 7 1 1 1
node 8 1 1 1
node 9 1 1 1
node 10 2 1 1
node 11 2 1 1
node 12 1 1 1
node 13 1 1 1
node 14 1 1 1
node 15 1 1 1
node 16 1 1 1
node 17 2 1 3
node 18 1 0 2
node 19 1 0 2
node 20 1 0 2
node 21 1 0 2
node 22 2 0 2
node 23 1 0 2
node 112 1 0 0
node 208 1 0 0
node 244 1 0 0
node 271 1 0 0
node 411 1 0 0
node 429 1 0 0
node 484 1 0 0
node 488 1 0 0
node 648 1 0 0
node 707 1 0 0
node 809 1 0 0
node 910 1 0 0
node 923 1 0 0
gene  1 17 18 -8.752118834261665 0 1.0 -8.752118834261665 1
gene  1 17 19 17.41603907134051 0 1.0 17.41603907134051 1
gene  1 17 20 -13.76248779711564 0 1.0 -13.76248779711564 1
gene  1 17 21 -3.411281825191833 0 1.0 -3.411281825191833 1
gene  1 17 22 3.0010351246558944 0 1.0 3.0010351246558944 1
gene  1 17 23 3.846780889360871 0 1.0 3.846780889360871 1
gene  1 7 18 -2.5100134335522637 0 17.0 -2.5100134335522637 1
gene  2 7 19 -1.6891453611605736 0 18.0 -1.6891453611605736 1
gene  2 7 20 -1.400841504232063 0 19.0 -1.400841504232063 1
gene  2 7 21 -7.306801137748683 0 20.0 -7.306801137748683 1
gene  1 7 22 6.142589190538794 0 21.0 6.142589190538794 1
gene  1 7 23 6.510111319718566 0 22.0 6.510111319718566 1
gene  1 15 18 3.5912421275533988 0 88.0 3.5912421275533988 1
gene  2 15 19 5.363976110084737 0 89.0 5.363976110084737 1
gene  2 15 20 1.933207797647691 0 90.0 1.933207797647691 1
gene  1 15 21 -10.414941457967704 0 91.0 -10.414941457967704 1
gene  2 15 22 0.4736943542852703 0 92.0 0.4736943542852703 1
gene  1 15 23 0.6207769432022064 0 93.0 0.6207769432022064 1
gene  2 5 18 -5.905809647500614 0 323.0 -5.905809647500614 1
gene  1 5 19 -11.429450099495261 0 324.0 -11.429450099495261 1
gene  1 5 20 -1.9437259764948323 0 325.0 -1.9437259764948323 1
gene  1 5 21 -3.12160004525291 0 326.0 -3.12160004525291 1
gene  1 5 22 -4.044910267987055 0 327.0 -4.044910267987055 1
gene  2 5 23 3.5895045538371444 0 328.0 3.5895045538371444 1
gene  2 18 21 -32.34122172326643 0 544.0 -32.34122172326643 1
gene  1 15 112 10.672796966693756 0 712.0 10.672796966693756 1
gene  1 112 21 8.539939446599337 0 713.0 8.539939446599337 1
gene  2 14 18 23.195792949650006 0 1046.0 23.195792949650006 1
gene  1 14 19 -0.6046146085235802 0 1047.0 -0.6046146085235802 1
gene  1 14 20 -10.103222923442218 0 1048.0 -10.103222923442218 1
gene  1 14 21 2.006873188573304 0 1049.0 2.006873188573304 1
gene  1 14 22 -3.437580367214153 0 1050.0 -3.437580367214153 1
gene  1 14 23 4.822564785187043 0 1051.0 4.822564785187043 1
gene  2 1 20 2.8420404263609544 0 1201.0 2.8420404263609544 1
gene  1 15 208 4.628871625543752 0 1556.0 4.628871625543752 1
gene  1 208 18 0.841215686495011 0 1557.0 0.841215686495011 1
gene  2 112 19 -0.4317737329371236 0 1703.0 -0.4317737329371236 1
gene  1 4 21 -3.2563527370345593 0 1772.0 -3.2563527370345593 1
gene  2 5 244 13.646647516112084 0 1822.0 13.646647516112084 1
gene  2 244 18 4.402925778228164 0 1823.0 4.402925778228164 1
gene  1 15 271 8.732333577826305 0 2042.0 8.732333577826305 1
gene  1 271 208 -1.7310073761406437 0 2043.0 -1.7310073761406437 1
gene  2 244 208 -7.216355273902375 0 2091.0 -7.216355273902375 1
gene  2 244 22 4.665536650964585 0 2331.0 4.665536650964585 1
gene  2 20 21 7.687846449973304 0 2428.0 7.687846449973304 1
gene  1 3 22 -14.090255315777515 0 2501.0 -14.090255315777515 1
gene  1 6 271 -0.6051612812520593 0 2549.0 -0.6051612812520593 1
gene  1 20 22 -14.052813206393068 0 2652.0 -14.052813206393068 1
gene  1 2 20 2.6351782085822926 0 2716.0 2.6351782085822926 1
gene  1 112 22 10.014450019726661 0 2785.0 10.014450019726661 1
gene  1 3 18 -0.06094623491400353 0 2978.0 -0.06094623491400353 1
gene  1 3 19 -7.843002812011395 0 2979.0 -7.843002812011395 0
gene  1 3 20 -2.8908816720789767 0 2980.0 -2.8908816720789767 1
gene  2 3 21 3.459197243037176 0 2981.0 3.459197243037176 1
gene  1 3 23 2.4298501545755307 0 2982.0 2.4298501545755307 1
gene  1 13 18 -22.5475174893603 0 3030.0 -22.5475174893603 1
gene  1 13 19 16.255893493895858 0 3031.0 16.255893493895858 1
gene  1 13 20 3.5780688372107576 0 3032.0 3.5780688372107576 1
gene  1 13 21 4.781334122165711 0 3033.0 4.781334122165711 1
gene  1 13 22 -5.308784561125556 0 3034.0 -5.308784561125556 1
gene  2 13 23 1.7252418819944146 0 3023.0 1.7252418819944146 1
gene  1 3 411 7.169952116778628 0 3178.0 7.169952116778628 1
gene  1 411 20 -5.268227172420902 0 3179.0 -5.268227172420902 1
gene  1 2 23 3.3614756214147787 0 3224.0 3.3614756214147787 1
gene  2 20 112 15.781009761322178 0 3249.0 15.781009761322178 1
gene  1 3 429 4.5572727941059705 0 3288.0 4.5572727941059705 1
gene  1 429 19 -0.8097216361853625 0 3289.0 -0.8097216361853625 1
gene  2 244 484 -1.9859956471116742 0 3768.0 -1.9859956471116742 1
gene  2 484 22 7.124367473062589 0 3769.0 7.124367473062589 1
gene  2 15 488 3.0294968762472143 0 3810.0 3.0294968762472143 1
gene  2 488 22 -3.936977150787134 0 3811.0 -3.936977150787134 1
gene  1 12 18 2.2855860656754903 0 3812.0 2.2855860656754903 1
gene  1 12 19 -2.46826515828299 0 3813.0 -2.46826515828299 1
gene  1 12 20 0.1462974356315897 0 3814.0 0.1462974356315897 1
gene  1 12 21 -1.2859667434387805 0 3815.0 -1.2859667434387805 1
gene  1 12 22 -4.013100399876463 0 3816.0 -4.013100399876463 1
gene  2 12 23 -4.20346194455143 0 3817.0 -4.20346194455143 1
gene  1 1 18 0.3105842931177728 0 4064.0 0.3105842931177728 1
gene  1 1 19 10.231876976392767 0 4065.0 10.231876976392767 1
gene  2 1 21 7.439425494007708 0 4066.0 7.439425494007708 1
gene  2 1 22 3.459348991988374 0 4067.0 3.459348991988374 1
gene  2 1 23 7.2397012771839755 0 4068.0 7.2397012771839755 1
gene  1 4 20 6.043918204258424 0 4193.0 6.043918204258424 1
gene  1 10 18 -0.6469470142947322 0 4365.0 -0.6469470142947322 1
gene  2 10 19 -6.4351255099887235 0 4366.0 -6.4351255099887235 1
gene  2 10 20 -7.939995191369089 0 4367.0 -7.939995191369089 1
gene  1 10 21 8.147427779437685 0 4368.0 8.147427779437685 1
gene  2 10 22 5.40001831265612 0 4369.0 5.40001831265612 1
gene  2 10 23 -7.0851767274463535 0 4370.0 -7.0851767274463535 1
gene  1 8 18 6.887691947491787 0 4406.0 6.887691947491787 1
gene  1 8 19 -4.467079580013142 0 4407.0 -4.467079580013142 1
gene  1 8 20 -7.781156949841073 0 4408.0 -7.781156949841073 1
gene  1 8 21 7.9100328185818025 0 4409.0 7.9100328185818025 1
gene  1 8 22 -3.046717124847108 0 4410.0 -3.046717124847108 1
gene  2 8 23 -0.7210817333980077 0 4411.0 -0.7210817333980077 1
gene  2 4 18 -11.145226371116433 0 4485.0 -11.145226371116433 1
gene  2 4 19 5.553303126117969 0 4486.0 5.553303126117969 1
gene  1 4 22 2.790218123329277 0 4487.0 2.790218123329277 1
gene  1 4 23 -16.587191765854566 0 4488.0 -16.587191765854566 1
gene  2 13 208 2.8933527800508765 0 4719.0 2.8933527800508765 1
gene  1 271 429 -0.640286448929498 0 4762.0 -0.640286448929498 1
gene  1 2 18 -2.0292446149171437 0 4882.0 -2.0292446149171437 1
gene  2 2 19 3.019806692878776 0 4883.0 3.019806692878776 1
gene  2 2 21 0.5404523018748559 0 4884.0 0.5404523018748559 1
gene  2 2 22 -2.6299794606481144 0 4885.0 -2.6299794606481144 1
gene  2 9 18 -0.003943993932054912 0 4961.0 -0.003943993932054912 1
gene  1 9 19 -4.459358583641678 0 4962.0 -4.459358583641678 1
gene  2 9 20 -7.3564196539129965 0 4963.0 -7.3564196539129965 1
gene  2 9 21 4.257492940468792 0 4964.0 4.257492940468792 1
gene  1 9 22 -0.0399957834745559 0 4965.0 -0.0399957834745559 1
gene  2 9 23 -1.1903544789564888 0 4966.0 -1.1903544789564888 1
gene  2 14 411 -12.959918004320151 0 5105.0 -12.959918004320151 1
gene  1 15 648 -7.935852918955076 0 5195.0 -7.935852918955076 1
gene  1 648 208 0.8464080461474179 0 5196.0 0.8464080461474179 1
gene  2 648 20 3.6569282805841015 0 5299.0 3.6569282805841015 1
gene  1 10 244 -1.7279778121730724 0 5510.0 -1.7279778121730724 1
gene  2 244 707 -3.263111350125813 0 5636.0 -3.263111350125813 1
gene  2 707 484 4.0076578913633165 0 5637.0 4.0076578913633165 1
gene  2 11 18 0.8881346557052701 0 5891.0 0.8881346557052701 1
gene  1 11 19 -4.658724737135219 0 5892.0 -4.658724737135219 1
gene  1 11 20 4.580883931065256 0 5893.0 4.580883931065256 1
gene  2 11 21 -0.395695898352189 0 5894.0 -0.395695898352189 1
gene  1 11 22 -10.765787914440484 0 5895.0 -10.765787914440484 1
gene  2 11 23 -2.691668663349848 0 5896.0 -2.691668663349848 1
gene  1 4 271 2.992776949832252 0 5969.0 2.992776949832252 1
gene  1 6 18 -3.360399509388509 0 6161.0 -3.360399509388509 1
gene  2 6 19 3.9352445953588133 0 6162.0 3.9352445953588133 1
gene  1 6 20 -0.41099367163108813 0 6163.0 -0.41099367163108813 1
gene  2 6 21 -0.15406289907952897 0 6164.0 -0.15406289907952897 1
gene  1 6 22 -2.401408758214278 0 6165.0 -2.401408758214278 1
gene  2 6 23 4.061855446054 0 6166.0 4.061855446054 1
gene  2 21 429 0.811634407189262 0 6172.0 0.811634407189262 1
gene  1 484 411 -0.07862553614764162 0 6243.0 -0.07862553614764162 1
gene  2 648 707 -0.12128195647579859 0 6333.0 -0.12128195647579859 1
gene  1 14 488 -0.958806108958514 0 6647.0 -0.958806108958514 1
gene  1 9 707 1.7034413896619838 0 6682.0 1.7034413896619838 1
gene  1 429 809 -0.48413838230624107 0 6709.0 -0.48413838230624107 1
gene  1 809 19 -0.8941446622154938 0 6710.0 -0.8941446622154938 1
gene  1 411 18 -1.291625166232117 0 6838.0 -1.291625166232117 1
gene  2 16 18 1.4248121125303241 0 6839.0 1.4248121125303241 1
gene  2 16 19 2.1879698960533442 0 6840.0 2.1879698960533442 1
gene  1 16 20 -1.329934943683964 0 6841.0 -1.329934943683964 1
gene  1 16 21 6.625068475087227 0 6842.0 6.625068475087227 1
gene  2 16 22 -2.005979773532111 0 6843.0 -2.005979773532111 1
gene  2 16 23 -2.221159535300182 0 6844.0 -2.221159535300182 1
gene  1 15 910 1.3096921958106684 0 7369.0 1.3096921958106684 1
gene  1 910 648 2.1346288375240565 0 7370.0 2.1346288375240565 1
gene  2 22 271 3.2411236740292475 0 7497.0 3.2411236740292475 1
gene  1 208 19 -6.607760674834042 0 7629.0 -6.607760674834042 1
gene  1 13 923 -1.1068127198005495 0 7673.0 -1.1068127198005495 1
gene  1 923 21 2.233615440063687 0 7674.0 2.233615440063687 1
gene  2 22 429 0.685282875399885 0 7939.0 0.685282875399885 1
gene  1 208 923 -2.1891079865419516 0 7966.0 -2.1891079865419516 1
gene  1 11 208 -0.2691438238556404 0 7990.0 -0.2691438238556404 1
gene  1 809 23 0.996342684440318 0 8046.0 0.996342684440318 1
gene  1 9 923 -2.042739177489873 0 8079.0 -2.042739177489873 1
gene  2 19 23 1.2632689091664029 0 8099.0 1.2632689091664029 1
gene  1 7 923 -2.8163893882559705 0 8675.0 -2.8163893882559705 1
genomeend 8
genomestart  9
trait 1 1.0250857033585747 0.27707961942569176 0.15809469960011385 0.0 0.2514374830677016 0.0 0.0 0.053624658311804546 
trait 2 2.122700634359553 0.14684629652598902 0.48552213037665126 0.0 0.0 0.0 0.5038344613940436 0.6212272667602441 
node 1 2 1 1
node 2 2 1 1
node 3 1 1 1
node 4 1 1 1
node 5 1 1 1
node 6 1 1 1
node 7 1 1 1
node 8 1 1 1
node 9 1 1 1
node 10 2 1 1
node 11 2 1 1
node 12 1 1 1
node 13 1 1 1
node 14 1 1 1
node 15 1 1 1
node 16 1 1 1
node 17 2 1 3
node 18 1 0 2
node 19 1 0 2
node 20 1 0 2
node 21 1 0 2
node 22 2 0 2
node 23 1 0 2
node 112 1 0 0
node 208 1 0 0
node 244 1 0 0
node 271 1 0 0
node 411 1 0 0
node 429 1 0 0
node 484 1 0 0
node 488 1 0 0
node 648 1 0 0
node 707 1 0 0
node 809 1 0 0
node 910 1 0 0
node 923 1 0 0
node 1282 1 0 0
gene  1 17 18 -9.511400730230093 0 1.0 -9.511400730230093 1
gene  1 17 19 18.426037673253273 0 1.0 18.426037673253273 1
gene  1 17 20 -15.285741531025488 0 1.0 -15.285741531025488 1
gene  1 17 21 -1.1639864868836698 0 1.0 -1.1639864868836698 1
gene  1 17 22 0.573559170903325 0 1.0 0.573559170903325 1
gene  1 17 23 4.915426089832456 0 1.0 4.915426089832456 1
gene  1 7 18 -1.8632358505665692 0 17.0 -1.8632358505665692 1
gene  2 7 19 -2.888108969886756 0 18.0 -2.888108969886756 1
gene  2 7 20 -0.5380846392636873 0 19.0 -0.5380846392636873 1
gene  2 7 21 -6.493500941527009 0 20.0 -6.493500941527009 1
gene  1 7 22 3.66033526596759 0 21.0 3.66033526596759 1
gene  1 7 23 5.961771384226642 0 22.0 5.961771384226642 1
gene  1 15 18 3.731436693685283 0 88.0 3.731436693685283 1
gene  2 15 19 2.9932957513973526 0 89.0 2.9932957513973526 1
gene  2 15 20 -0.09812064580135571 0 90.0 -0.09812064580135571 1
gene  1 15 21 -9.27353561842775 0 91.0 -9.27353561842775 1
gene  2 15 22 1.4631405281597014 0 92.0 1.4631405281597014 1
