genomestart  0
trait 1 0.1 0.0 0.0 0.0 0.0 0.0 0.0 0.0 
trait 2 0.1 0.0 0.0 0.0 0.0 0.0 0.0 0.0 
node 1 2 1 3
node 2 1 1 1
node 3 1 1 1
node 4 1 1 1
node 5 1 1 1
node 6 2 1 1
node 7 1 1 1
node 8 1 1 1
node 9 1 1 1
node 10 1 1 1
node 11 1 1 1
node 12 1 1 1
node 13 1 1 1
node 14 1 1 1
node 15 1 1 1
node 16 1 1 1
node 17 1 1 1
node 18 1 1 1
node 19 1 1 1
node 20 1 1 1
node 21 1 1 1
node 22 1 1 1
node 23 1 1 1
node 24 1 1 1
node 25 1 1 1
node 26 1 1 1
node 27 1 1 1
node 28 1 1 1
node 29 1 1 1
node 30 1 1 1
node 31 1 0 2
node 32 1 0 2
node 33 1 0 2
node 34 1 0 2
node 35 1 0 2
node 36 1 0 2
node 65 1 0 0
node 80 1 0 0
gene  1 1 31 0.07090891350559825 0 1.0 0.07090891350559825 1
gene  2 2 31 1.9129042957749784 0 2.0 1.9129042957749784 1
gene  2 3 31 -3.9858713413292604 0 3.0 -3.9858713413292604 1
gene  2 4 31 0.5167560931623274 0 4.0 0.5167560931623274 1
gene  2 5 31 -2.2820559721387896 0 5.0 -2.2820559721387896 1
gene  2 6 31 2.706906322993112 0 6.0 2.706906322993112 1
gene  2 7 31 -10.7033855995284 0 7.0 -10.7033855995284 1
gene  2 8 31 -3.2373147489407104 0 8.0 -3.2373147489407104 1
gene  2 9 31 -3.886506347187244 0 9.0 -3.886506347187244 1
gene  2 10 31 -2.4550774227664656 0 10.0 -2.4550774227664656 1
gene  2 11 31 8.05574499915887 0 11.0 8.05574499915887 1
gene  2 12 31 -0.12638399776338272 0 12.0 -0.12638399776338272 1
gene  2 13 31 -1.7721452547418175 0 13.0 -1.7721452547418175 1
gene  2 14 31 4.677539734837611 0 14.0 4.677539734837611 1
gene  2 15 31 2.8203376921272723 0 15.0 2.8203376921272723 1
gene  2 16 31 -2.1143857803751667 0 16.0 -2.1143857803751667 1
gene  2 17 31 12.722889671817509 0 17.0 12.722889671817509 0
gene  2 18 31 -4.901794905167424 0 18.0 -4.901794905167424 1
gene  2 19 31 2.176238563967327 0 19.0 2.176238563967327 1
gene  2 20 31 -7.979912744090369 0 20.0 -7.979912744090369 1
gene  2 21 31 1.674355712806905 0 21.0 1.674355712806905 1
gene  2 22 31 -0.4549011747432529 0 22.0 -0.4549011747432529 1
gene  2 23 31 2.8549612746731103 0 23.0 2.8549612746731103 1
gene  2 24 31 -2.852155010278231 0 24.0 -2.852155010278231 1
gene  2 25 31 -1.1730373404424435 0 25.0 -1.1730373404424435 1
gene  2 26 31 -1.4761553121786868 0 26.0 -1.4761553121786868 1
gene  2 27 31 2.789331852067472 0 27.0 2.789331852067472 1
gene  2 28 31 -1.8329837744952626 0 28.0 -1.8329837744952626 1
gene  2 29 31 -0.3977066665551787 0 29.0 -0.3977066665551787 1
gene  2 30 31 0.41007529495020456 0 30.0 0.41007529495020456 1
gene  2 1 32 1.100103998907351 0 31.0 1.100103998907351 1
gene  2 2 32 -1.771459648983291 0 32.0 -1.771459648983291 1
gene  2 3 32 5.386688866529202 0 33.0 5.386688866529202 1
gene  2 4 32 0.8113114973993336 0 34.0 0.8113114973993336 1
gene  2 5 32 3.261560503969586 0 35.0 3.261560503969586 1
gene  2 6 32 0.5917872092930146 0 36.0 0.5917872092930146 1
gene  2 7 32 2.696274451601034 0 37.0 2.696274451601034 1
gene  2 8 32 -0.4920000093654445 0 38.0 -0.4920000093654445 1
gene  2 9 32 7.311297223683156 0 39.0 7.311297223683156 1
gene  2 10 32 3.8075828813634045 0 40.0 3.8075828813634045 1
gene  2 11 32 8.299483726372475 0 41.0 8.299483726372475 1
gene  2 12 32 4.445895664403884 0 42.0 4.445895664403884 1
gene  2 13 32 5.531651950935877 0 43.0 5.531651950935877 1
gene  2 14 32 -2.314601473413556 0 44.0 -2.314601473413556 1
gene  2 15 32 -0.8954857530014548 0 45.0 -0.8954857530014548 1
gene  2 16 32 0.4605415899124554 0 46.0 0.4605415899124554 1
gene  2 17 32 -2.6893543665869175 0 47.0 -2.6893543665869175 1
gene  2 18 32 1.3380993024073136 0 48.0 1.3380993024073136 1
gene  2 19 32 5.195197800968829 0 49.0 5.195197800968829 1
gene  2 20 32 10.024678544202033 0 50.0 10.024678544202033 1
gene  2 21 32 -1.3510755440512434 0 51.0 -1.3510755440512434 1
gene  2 22 32 2.2739793711100553 0 52.0 2.2739793711100553 1
gene  2 23 32 -1.1071009652414951 0 53.0 -1.1071009652414951 1
gene  2 24 32 -2.587967561004374 0 54.0 -2.587967561004374 1
gene  2 25 32 -1.1417975378530918 0 55.0 -1.1417975378530918 1
gene  2 26 32 1.741507701014372 0 56.0 1.741507701014372 1
gene  2 27 32 -5.811778003495626 0 57.0 -5.811778003495626 1
gene  2 28 32 -7.891461491732732 0 58.0 -7.891461491732732 1
gene  2 29 32 -2.8298307067378565 0 59.0 -2.8298307067378565 1
gene  2 30 32 -0.8609836377755389 0 60.0 -0.8609836377755389 1
gene  2 1 33 1.2369346483982948 0 61.0 1.2369346483982948 1
gene  2 2 33 16.372511372063855 0 62.0 16.372511372063855 1
gene  2 3 33 -1.9111886932016175 0 63.0 -1.9111886932016175 1
gene  2 4 33 0.16735572459238313 0 64.0 0.16735572459238313 1
gene  2 5 33 0.21290316965286632 0 65.0 0.21290316965286632 1
gene  2 6 33 4.489652720063895 0 66.0 4.489652720063895 1
gene  2 7 33 1.6289860685898845 0 67.0 1.6289860685898845 1
gene  2 8 33 -9.703081091058937 0 68.0 -9.703081091058937 1
gene  2 9 33 -1.0907418621019978 0 69.0 -1.0907418621019978 1
gene  2 10 33 3.8771989557707642 0 70.0 3.8771989557707642 1
gene  2 11 33 0.1045120656774512 0 71.0 0.1045120656774512 1
gene  2 12 33 1.662982625398313 0 72.0 1.662982625398313 1
gene  2 13 33 0.9304574207635856 0 73.0 0.9304574207635856 1
gene  2 14 33 1.889574117797917 0 74.0 1.889574117797917 1
gene  2 15 33 -3.2274766583990537 0 75.0 -3.2274766583990537 1
gene  2 16 33 -1.0007055506074194 0 76.0 -1.0007055506074194 1
gene  2 17 33 3.0816244399405983 0 77.0 3.0816244399405983 1
gene  2 18 33 0.03288295798719565 0 78.0 0.03288295798719565 1
gene  2 19 33 -2.320965344455511 0 79.0 -2.320965344455511 1
gene  2 20 33 0.22312780981423463 0 80.0 0.22312780981423463 1
gene  2 21 33 1.4105975790454903 0 81.0 1.4105975790454903 1
gene  2 22 33 0.6076032728187786 0 82.0 0.6076032728187786 1
gene  2 23 33 2.291423135912529 0 83.0 2.291423135912529 1
gene  1 24 33 -3.3208496831091048 0 84.0 -3.3208496831091048 1
gene  2 25 33 -2.174785412465514 0 85.0 -2.174785412465514 1
gene  2 26 33 2.731935092939241 0 86.0 2.731935092939241 1
gene  2 27 33 14.177275413809802 0 87.0 14.177275413809802 1
gene  2 28 33 -7.704392331343785 0 88.0 -7.704392331343785 1
gene  2 29 33 1.442108425767146 0 89.0 1.442108425767146 1
gene  2 30 33 5.547079975651663 0 90.0 5.547079975651663 1
gene  2 1 34 -9.272655417026316 0 91.0 -9.272655417026316 1
gene  2 2 34 0.11596584685807199 0 92.0 0.11596584685807199 1
gene  2 3 34 -2.325619186167386 0 93.0 -2.325619186167386 1
gene  2 4 34 -1.7223498855546167 0 94.0 -1.7223498855546167 1
gene  2 5 34 -1.56572277439188 0 95.0 -1.56572277439188 1
gene  2 6 34 0.9150325646087019 0 96.0 0.9150325646087019 1
gene  2 7 34 -1.2564538995523544 0 97.0 -1.2564538995523544 1
gene  2 8 34 3.3050852702737377 0 98.0 3.3050852702737377 1
gene  2 9 34 5.537550993979807 0 99.0 5.537550993979807 1
gene  2 10 34 2.1203915494557473 0 100.0 2.1203915494557473 1
gene  2 11 34 0.3147824730798632 0 101.0 0.3147824730798632 1
gene  2 12 34 -0.551963543014476 0 102.0 -0.551963543014476 1
gene  2 13 34 -2.4767936591208985 0 103.0 -2.4767936591208985 1
gene  2 14 34 -1.5385813999981583 0 104.0 -1.5385813999981583 1
gene  2 15 34 -1.7435570949956731 0 105.0 -1.7435570949956731 1
gene  2 16 34 -0.7474604416671629 0 106.0 -0.7474604416671629 1
gene  2 17 34 -1.42102520426011 0 107.0 -1.42102520426011 1
gene  2 18 34 0.2438434671428784 0 108.0 0.2438434671428784 1
gene  2 19 34 2.8774597376305855 0 109.0 2.8774597376305855 1
gene  2 20 34 -0.052092758318048826 0 110.0 -0.052092758318048826 1
gene  2 21 34 -2.5088323046808023 0 111.0 -2.5088323046808023 1
gene  2 22 34 1.6897790445236631 0 112.0 1.6897790445236631 1
gene  2 23 34 -2.029888377998747 0 113.0 -2.029888377998747 1
gene  2 24 34 -1.0793964879424114 0 114.0 -1.0793964879424114 1
gene  2 25 34 1.0383136021522295 0 115.0 1.0383136021522295 1
gene  2 26 34 -0.3178144737384636 0 116.0 -0.3178144737384636 1
gene  2 27 34 1.6759423733929366 0 117.0 1.6759423733929366 1
gene  2 28 34 -8.537725620952454 0 118.0 -8.537725620952454 1
gene  2 29 34 -3.7253613210058534 0 119.0 -3.7253613210058534 1
gene  2 30 34 -2.196627361129393 0 120.0 -2.196627361129393 1
gene  2 1 35 2.369296423689579 0 121.0 2.369296423689579 1
gene  2 2 35 0.9701498170530696 0 122.0 0.9701498170530696 1
gene  2 3 35 -5.082611836954108 0 123.0 -5.082611836954108 1
gene  2 4 35 7.412772432439879 0 124.0 7.412772432439879 1
gene  2 5 35 -0.7286646327439955 0 125.0 -0.7286646327439955 1
gene  2 6 35 -9.368370887507051 0 126.0 -9.368370887507051 1
gene  2 7 35 0.5291413256203904 0 127.0 0.5291413256203904 1
gene  2 8 35 2.901222732603559 0 128.0 2.901222732603559 1
gene  2 9 35 -2.181023914613484 0 129.0 -2.181023914613484 1
gene  2 10 35 -3.0016892668188966 0 130.0 -3.0016892668188966 1
gene  2 11 35 1.9745236316412589 0 131.0 1.9745236316412589 1
gene  2 12 35 1.743258400359458 0 132.0 1.743258400359458 1
gene  2 13 35 -10.631392579213482 0 133.0 -10.631392579213482 1
gene  2 14 35 2.613026363155617 0 134.0 2.613026363155617 1
gene  2 15 35 -0.061543090472289674 0 135.0 -0.061543090472289674 1
gene  2 16 35 -1.1597655848520865 0 136.0 -1.1597655848520865 1
gene  2 17 35 -3.6954090095067302 0 137.0 -3.6954090095067302 1
gene  2 18 35 -4.892105698936578 0 138.0 -4.892105698936578 1
gene  2 19 35 -0.854580947489437 0 139.0 -0.854580947489437 1
gene  2 20 35 -5.157111816694446 0 140.0 -5.157111816694446 1
gene  2 21 35 0.48693738909257683 0 141.0 0.48693738909257683 1
gene  2 22 35 2.656910665655109 0 142.0 2.656910665655109 1
gene  2 23 35 1.392301497264976 0 143.0 1.392301497264976 1
gene  2 24 35 1.6797817372856139 0 144.0 1.6797817372856139 1
gene  2 25 35 -2.9089420803341492 0 145.0 -2.9089420803341492 1
gene  2 26 35 -0.7581251498230928 0 146.0 -0.7581251498230928 1
gene  2 27 35 8.077324119864487 0 147.0 8.077324119864487 1
gene  2 28 35 11.218537440972215 0 148.0 11.218537440972215 1
gene  2 29 35 -5.25244858032708 0 149.0 -5.25244858032708 1
gene  2 30 35 2.034344971234483 0 150.0 2.034344971234483 1
gene  2 1 36 -1.2228650600659958 0 151.0 -1.2228650600659958 1
gene  2 2 36 0.3473599074390239 0 152.0 0.3473599074390239 1
gene  2 3 36 1.6333199794648967 0 153.0 1.6333199794648967 1
gene  2 4 36 -2.426691893603156 0 154.0 -2.426691893603156 1
gene  2 5 36 0.6006835898303349 0 155.0 0.6006835898303349 1
gene  2 6 36 -1.2867365642769353 0 156.0 -1.2867365642769353 1
gene  2 7 36 1.3959618764276094 0 157.0 1.3959618764276094 1
gene  2 8 36 -2.5918904528623266 0 158.0 -2.5918904528623266 1
gene  2 9 36 0.12783474021110075 0 159.0 0.12783474021110075 1
gene  2 10 36 2.6351098189968063 0 160.0 2.6351098189968063 1
gene  2 11 36 -2.3464640300319646 0 161.0 -2.3464640300319646 1
gene  2 12 36 0.10558855578867865 0 162.0 0.10558855578867865 1
gene  2 13 36 1.410042339193911 0 163.0 1.410042339193911 1
gene  2 14 36 -3.916250118344567 0 164.0 -3.916250118344567 1
gene  2 15 36 0.8635596985837896 0 165.0 0.8635596985837896 1
gene  2 16 36 0.38700412774389337 0 166.0 0.38700412774389337 1
gene  2 17 36 -3.0591421181476957 0 167.0 -3.0591421181476957 1
gene  2 18 36 -5.265905039804871 0 168.0 -5.265905039804871 1
gene  2 19 36 -0.355848187187922 0 169.0 -0.355848187187922 1
gene  2 20 36 -6.561195710426978 0 170.0 -6.561195710426978 1
gene  2 21 36 -0.8603147601946104 0 171.0 -0.8603147601946104 1
gene  2 22 36 -1.5092057346158188 0 172.0 -1.5092057346158188 1
gene  2 23 36 2.4202902210154447 0 173.0 2.4202902210154447 1
gene  2 24 36 -3.7926749502726556 0 174.0 -3.7926749502726556 1
gene  2 25 36 -2.2680063300991895 0 175.0 -2.2680063300991895 1
gene  2 26 36 -6.344305502049393 0 176.0 -6.344305502049393 1
gene  2 27 36 -1.544631326981558 0 177.0 -1.544631326981558 1
gene  2 28 36 3.797524691945536 0 178.0 3.797524691945536 1
gene  2 29 36 -1.5241889423500954 0 179.0 -1.5241889423500954 1
gene  2 30 36 1.212422257598202 0 180.0 1.212422257598202 1
gene  1 36 34 -3.4113158971733455 0 234.0 -3.4113158971733455 1
gene  2 4 65 0.8771090974706736 0 291.0 0.8771090974706736 1
gene  2 65 34 -2.857291170198281 0 292.0 -2.857291170198281 1
gene  1 31 32 -10.64125591595791 0 328.0 -10.64125591595791 1
gene  2 17 80 1.777640025182361 0 348.0 1.777640025182361 1
gene  2 80 31 -5.757325394510529 0 349.0 -5.757325394510529 1
genomeend 0
genomestart  1
trait 1 0.41519587221937193 0.0 0.0 0.0 0.47527159119737106 0.0 0.2520569729084152 0.6362101456988349 
trait 2 0.1 0.0 0.0 0.9876859997227342 0.7049350783707725 0.6170036591867375 0.03413125951679996 0.9000055390354995 
node 1 1 1 3
node 2 1 1 1
node 3 1 1 1
node 4 1 1 1
node 5 1 1 1
node 6 1 1 1
node 7 1 1 1
node 8 1 1 1
node 9 1 1 1
node 10 1 1 1
node 11 1 1 1
node 12 1 1 1
node 13 1 1 1
node 14 1 1 1
node 15 1 1 1
node 16 1 1 1
node 17 1 1 1
node 18 1 1 1
node 19 1 1 1
node 20 1 1 1
node 21 1 1 1
node 22 1 1 1
node 23 1 1 1
node 24 1 1 1
node 25 1 1 1
node 26 1 1 1
node 27 1 1 1
node 28 1 1 1
node 29 1 1 1
node 30 1 1 1
node 31 1 0 2
node 32 1 0 2
node 33 1 0 2
node 34 1 0 2
node 35 1 0 2
node 36 2 0 2
node 43 1 0 0
gene  1 1 31 1.1055143594922359 0 1.0 1.1055143594922359 1
gene  2 2 31 2.409900894786026 0 2.0 2.409900894786026 1
gene  2 3 31 -0.8682127475005013 0 3.0 -0.8682127475005013 1
gene  2 4 31 9.273664659185409 0 4.0 9.273664659185409 1
gene  2 5 31 0.30382790926720205 0 5.0 0.30382790926720205 1
gene  2 6 31 -6.15232723349188 0 6.0 -6.15232723349188 1
gene  2 7 31 -0.06732682085854913 0 7.0 -0.06732682085854913 1
gene  2 8 31 3.7799524847506714 0 8.0 3.7799524847506714 1
gene  2 9 31 -2.233048145808404 0 9.0 -2.233048145808404 1
gene  2 10 31 9.275291612353794 0 10.0 9.275291612353794 1
gene  2 11 31 -2.1944187059733276 0 11.0 -2.1944187059733276 1
gene  2 12 31 1.8091304297325732 0 12.0 1.8091304297325732 1
gene  2 13 31 -2.8365726516578653 0 13.0 -2.8365726516578653 1
gene  2 14 31 -2.085918435350215 0 14.0 -2.085918435350215 1
gene  2 15 31 -2.675233977759219 0 15.0 -2.675233977759219 1
gene  2 16 31 0.5124735616360574 0 16.0 0.5124735616360574 1
gene  2 17 31 -1.4912033998989913 0 17.0 -1.4912033998989913 1
gene  2 18 31 2.0617426847073035 0 18.0 2.0617426847073035 1
gene  2 19 31 -0.35832788192580933 0 19.0 -0.35832788192580933 1
gene  2 20 31 -0.13027304597427047 0 20.0 -0.13027304597427047 1
gene  2 21 31 -2.223239626043016 0 21.0 -2.223239626043016 1
gene  2 22 31 8.614687105131749 0 22.0 8.614687105131749 1
gene  2 23 31 3.8876736090003146 0 23.0 3.8876736090003146 1
gene  2 24 31 -1.0984455750766131 0 24.0 -1.0984455750766131 1
gene  2 25 31 -2.072732488929904 0 25.0 -2.072732488929904 1
gene  2 26 31 -1.0536831216700326 0 26.0 -1.0536831216700326 1
gene  2 27 31 2.7206342145794147 0 27.0 2.7206342145794147 1
gene  2 28 31 -6.792346195677968 0 28.0 -6.792346195677968 1
gene  2 29 31 2.30730880219855 0 29.0 2.30730880219855 1
gene  2 30 31 -7.058313810359303 0 30.0 -7.058313810359303 1
gene  2 1 32 1.039792202454897 0 31.0 1.039792202454897 1
gene  2 2 32 5.415868868003565 0 32.0 5.415868868003565 1
gene  2 3 32 0.8525384378987084 0 33.0 0.8525384378987084 1
gene  2 4 32 2.3905136199726664 0 34.0 2.3905136199726664 1
gene  2 5 32 -0.5389126081237383 0 35.0 -0.5389126081237383 1
gene  2 6 32 -0.35158421686898533 0 36.0 -0.35158421686898533 1
gene  2 7 32 4.162989544906926 0 37.0 4.162989544906926 1
gene  2 8 32 2.808102265490129 0 38.0 2.808102265490129 1
gene  2 9 32 -0.8378347095064607 0 39.0 -0.8378347095064607 1
gene  2 10 32 -0.18084799319848643 0 40.0 -0.18084799319848643 1
gene  2 11 32 -5.9031325977509645 0 41.0 -5.9031325977509645 1
gene  2 12 32 -1.240125511593868 0 42.0 -1.240125511593868 1
gene  1 13 32 0.30813359874115237 0 43.0 0.30813359874115237 1
gene  2 14 32 -1.2547450961443547 0 44.0 -1.2547450961443547 1
gene  2 15 32 -1.84657683886861 0 45.0 -1.84657683886861 1
gene  2 16 32 0.9066104621535676 0 46.0 0.9066104621535676 1
gene  2 17 32 2.300492698006838 0 47.0 2.300492698006838 1
gene  2 18 32 8.23622241690014 0 48.0 8.23622241690014 1
gene  2 19 32 3.275141970994774 0 49.0 3.275141970994774 1
gene  2 20 32 0.037404483964620094 0 50.0 0.037404483964620094 1
gene  2 21 32 -5.3186712715659175 0 51.0 -5.3186712715659175 1
gene  2 22 32 -0.7358495688200006 0 52.0 -0.7358495688200006 1
gene  2 23 32 -0.08220385599915364 0 53.0 -0.08220385599915364 1
gene  2 24 32 -6.6097404681309015 0 54.0 -6.6097404681309015 1
gene  2 25 32 1.9202492291549809 0 55.0 1.9202492291549809 1
gene  2 26 32 5.970211708142886 0 56.0 5.970211708142886 1
gene  2 27 32 -4.732180833243341 0 57.0 -4.732180833243341 1
gene  2 28 32 9.787164728924207 0 58.0 9.787164728924207 1
gene  2 29 32 1.2677091800720923 0 59.0 1.2677091800720923 1
gene  2 30 32 1.6259021905755773 0 60.0 1.6259021905755773 1
gene  2 1 33 -2.53430126660756 0 61.0 -2.53430126660756 1
gene  2 2 33 2.425550677574055 0 62.0 2.425550677574055 1
gene  2 3 33 -0.27730915100849396 0 63.0 -0.27730915100849396 1
gene  2 4 33 2.9634461193058055 0 64.0 2.9634461193058055 1
gene  2 5 33 -2.3270715491845206 0 65.0 -2.3270715491845206 1
gene  2 6 33 -2.1213860597352188 0 66.0 -2.1213860597352188 1
gene  2 7 33 1.6709519947217037 0 67.0 1.6709519947217037 1
gene  2 8 33 -5.994478937474915 0 68.0 -5.994478937474915 1
gene  2 9 33 0.9876124965249189 0 69.0 0.9876124965249189 1
gene  2 10 33 -3.7613602804875965 0 70.0 -3.7613602804875965 1
gene  2 11 33 -6.467440592413417 0 71.0 -6.467440592413417 1
gene  2 12 33 0.9698060046809351 0 72.0 0.9698060046809351 1
gene  2 13 33 -5.920598126018746 0 73.0 -5.920598126018746 1
gene  2 14 33 1.7690476259987356 0 74.0 1.7690476259987356 1
gene  2 15 33 0.08069341789829876 0 75.0 0.08069341789829876 1
gene  2 16 33 -4.316558856195544 0 76.0 -4.316558856195544 1
gene  2 17 33 2.318226946302704 0 77.0 2.318226946302704 1
gene  2 18 33 3.857897666402151 0 78.0 3.857897666402151 1
gene  2 19 33 3.0426603157880865 0 79.0 3.0426603157880865 1
gene  2 20 33 -3.3644314386337255 0 80.0 -3.3644314386337255 1
gene  2 21 33 0.9983531721069272 0 81.0 0.9983531721069272 1
gene  2 22 33 10.356590120312413 0 82.0 10.356590120312413 1
gene  2 23 33 -6.85851632627932 0 83.0 -6.85851632627932 1
gene  2 24 33 0.11395799845713617 0 84.0 0.11395799845713617 1
gene  2 25 33 -3.5803201539441454 0 85.0 -3.5803201539441454 1
gene  2 26 33 2.585276377342523 0 86.0 2.585276377342523 1
gene  2 27 33 3.041163950335891 0 87.0 3.041163950335891 1
gene  2 28 33 -6.213582250513036 0 88.0 -6.213582250513036 1
gene  2 29 33 3.3453648070019923 0 89.0 3.3453648070019923 1
gene  2 30 33 -1.2216585111401155 0 90.0 -1.2216585111401155 1
gene  2 1 34 -4.918932858017869 0 91.0 -4.918932858017869 1
gene  2 2 34 5.477748458140735 0 92.0 5.477748458140735 1
gene  2 3 34 -3.2414479547163673 0 93.0 -3.2414479547163673 1
gene  2 4 34 -2.1788739392243235 0 94.0 -2.1788739392243235 1
gene  2 5 34 -1.9078596379562436 0 95.0 -1.9078596379562436 1
gene  2 6 34 0.009105322536144378 0 96.0 0.009105322536144378 1
gene  2 7 34 -1.0353699227223008 0 97.0 -1.0353699227223008 1
gene  2 8 34 -1.6927475200100572 0 98.0 -1.6927475200100572 1
gene  2 9 34 5.041800223045899 0 99.0 5.041800223045899 1
gene  2 10 34 -3.590504485082291 0 100.0 -3.590504485082291 1
gene  2 11 34 3.543961943033052 0 101.0 3.543961943033052 1
gene  2 12 34 -4.010937377212885 0 102.0 -4.010937377212885 1
gene  2 13 34 -9.128773279079338 0 103.0 -9.128773279079338 1
gene  2 14 34 0.4683781283256714 0 104.0 0.4683781283256714 1
gene  2 15 34 6.1065386378077875 0 105.0 6.1065386378077875 1
gene  2 16 34 -3.88743464637698 0 106.0 -3.88743464637698 1
gene  2 17 34 7.516069642169387 0 107.0 7.516069642169387 1
gene  2 18 34 1.1604998831895563 0 108.0 1.1604998831895563 1
gene  2 19 34 1.7404794876277832 0 109.0 1.7404794876277832 1
gene  2 20 34 2.2253479463462877 0 110.0 2.2253479463462877 1
gene  2 21 34 -0.8455685938719559 0 111.0 -0.8455685938719559 1
gene  2 22 34 -4.4373806887601415 0 112.0 -4.4373806887601415 1
gene  2 23 34 4.524270015443641 0 113.0 4.524270015443641 1
gene  2 24 34 7.234828918055548 0 114.0 7.234828918055548 1
gene  2 25 34 1.1998961427652781 0 115.0 1.1998961427652781 1
gene  2 26 34 -3.7679269558226673 0 116.0 -3.7679269558226673 1
gene  2 27 34 -1.4777780268377572 0 117.0 -1.4777780268377572 1
gene  2 28 34 -1.8211595847311959 0 118.0 -1.8211595847311959 1
gene  2 29 34 2.5717233903299084 0 119.0 2.5717233903299084 1
gene  2 30 34 1.1137126245247333 0 120.0 1.1137126245247333 1
gene  2 1 35 -0.06336025002388301 0 121.0 -0.06336025002388301 1
gene  2 2 35 -2.6654613180912006 0 122.0 -2.6654613180912006 1
gene  2 3 35 -1.1657764037160407 0 123.0 -1.1657764037160407 1
gene  2 4 35 7.341350320340115 0 124.0 7.341350320340115 1
gene  2 5 35 0.7134400677410058 0 125.0 0.7134400677410058 1
gene  2 6 35 -5.502650568713882 0 126.0 -5.502650568713882 1
gene  2 7 35 9.81604423558012 0 127.0 9.81604423558012 1
gene  2 8 35 -5.63976731561474 0 128.0 -5.63976731561474 1
gene  2 9 35 -3.5309761996730087 0 129.0 -3.5309761996730087 1
gene  2 10 35 2.8082231980954164 0 130.0 2.8082231980954164 1
gene  2 11 35 -2.803018881042771 0 131.0 -2.803018881042771 1
gene  2 12 35 -3.4930493547709203 0 132.0 -3.4930493547709203 1
gene  2 13 35 -5.798852817349092 0 133.0 -5.798852817349092 1
gene  2 14 35 -4.290570505883652 0 134.0 -4.290570505883652 1
gene  2 15 35 2.9517100033718258 0 135.0 2.9517100033718258 1
gene  2 16 35 -7.38048996074831 0 136.0 -7.38048996074831 1
gene  2 17 35 -1.7340377266648113 0 137.0 -1.7340377266648113 1
gene  2 18 35 5.326275641646367 0 138.0 5.326275641646367 1
gene  2 19 35 -1.4580656085358146 0 139.0 -1.4580656085358146 1
gene  2 20 35 3.136203988002175 0 140.0 3.136203988002175 1
gene  2 21 35 0.8847601211460514 0 141.0 0.8847601211460514 1
gene  2 22 35 3.489438884705419 0 142.0 3.489438884705419 1
gene  2 23 35 2.1377438234350272 0 143.0 2.1377438234350272 1
gene  2 24 35 -2.166750399403172 0 144.0 -2.166750399403172 1
gene  2 25 35 -4.52336795658329 0 145.0 -4.52336795658329 1
gene  2 26 35 3.6464544526396487 0 146.0 3.6464544526396487 1
gene  2 27 35 -3.0108964489632855 0 147.0 -3.0108964489632855 1
gene  2 28 35 -4.480586311547238 0 148.0 -4.480586311547238 1
gene  2 29 35 2.470181119765858 0 149.0 2.470181119765858 1
gene  2 30 35 -0.31059328750279114 0 150.0 -0.31059328750279114 1
gene  2 1 36 0.49884971138866896 0 151.0 0.49884971138866896 1
gene  2 2 36 2.42927086916718 0 152.0 2.42927086916718 1
gene  2 3 36 -1.2425767583946272 0 153.0 -1.2425767583946272 1
gene  2 4 36 -2.60464422498045 0 154.0 -2.60464422498045 1
gene  2 5 36 -0.4004646519283875 0 155.0 -0.4004646519283875 1
gene  2 6 36 -1.811446629633744 0 156.0 -1.811446629633744 1
gene  2 7 36 0.9293363584583453 0 157.0 0.9293363584583453 1
gene  2 8 36 -3.0076245132321238 0 158.0 -3.0076245132321238 1
gene  2 9 36 -3.004335978422967 0 159.0 -3.004335978422967 1
gene  2 10 36 0.7673254548711308 0 160.0 0.7673254548711308 1
gene  2 11 36 -4.1716121635591366 0 161.0 -4.1716121635591366 1
gene  2 12 36 -3.230286260770899 0 162.0 -3.230286260770899 1
gene  2 13 36 -3.8047665934566024 0 163.0 -3.8047665934566024 1
gene  2 14 36 1.3903161183288097 0 164.0 1.3903161183288097 1
gene  2 15 36 0.9093013288713276 0 165.0 0.9093013288713276 1
gene  2 16 36 -1.5693656266272933 0 166.0 -1.5693656266272933 1
gene  2 17 36 0.4862367395305456 0 167.0 0.4862367395305456 1
gene  2 18 36 2.402261092458951 0 168.0 2.402261092458951 1
gene  2 19 36 0.663247467393026 0 169.0 0.663247467393026 1
gene  2 20 36 0.9396509196919978 0 170.0 0.9396509196919978 1
gene  2 21 36 -0.20753229322346134 0 171.0 -0.20753229322346134 1
gene  2 22 36 -3.1311166246594624 0 172.0 -3.1311166246594624 1
gene  2 23 36 -1.7548513256564433 0 173.0 -1.7548513256564433 1
gene  2 24 36 0.6635457300385823 0 174.0 0.6635457300385823 1
gene  2 25 36 -1.6469737943798615 0 175.0 -1.6469737943798615 1
gene  2 26 36 1.2906528239241535 0 176.0 1.2906528239241535 1
gene  2 27 36 -3.5608245172169037 0 177.0 -3.5608245172169037 1
gene  2 28 36 -3.1273439762564053 0 178.0 -3.1273439762564053 1
gene  2 29 36 -3.657620721094994 0 179.0 -3.657620721094994 1
gene  2 30 36 -0.5246373924119203 0 180.0 -0.5246373924119203 1
gene  2 8 43 -0.21515665011729274 0 212.0 -0.21515665011729274 1
gene  2 43 33 -0.5861801918962635 0 213.0 -0.5861801918962635 1
gene  2 10 43 1.2569464466916207 0 219.0 1.2569464466916207 1
gene  1 43 34 -0.04759852798021602 0 314.0 -0.04759852798021602 1
genomeend 1
genomestart  2
trait 1 0.41519587221937193 0.0 0.0 0.0 0.47527159119737106 0.0 0.2520569729084152 0.6362101456988349 
trait 2 0.1 0.0 0.0 0.9876859997227342 0.7049350783707725 0.6170036591867375 0.03413125951679996 0.9000055390354995 
node 1 1 1 3
node 2 1 1 1
node 3 1 1 1
node 4 1 1 1
node 5 1 1 1
node 6 1 1 1
node 7 1 1 1
node 8 1 1 1
node 9 1 1 1
node 10 1 1 1
node 11 1 1 1
node 12 1 1 1
node 13 1 1 1
node 14 1 1 1
node 15 1 1 1
node 16 1 1 1
node 17 1 1 1
node 18 1 1 1
node 19 1 1 1
node 20 1 1 1
node 21 1 1 1
node 22 1 1 1
node 23 1 1 1
node 24 1 1 1
node 25 1 1 1
node 26 1 1 1
node 27 1 1 1
node 28 1 1 1
node 29 1 1 1
node 30 1 1 1
node 31 1 0 2
node 32 1 0 2
node 33 1 0 2
node 34 1 0 2
node 35 1 0 2
node 36 2 0 2
node 43 1 0 0
gene  1 1 31 -0.1564572604274525 0 1.0 -0.1564572604274525 1
gene  2 2 31 0.6542289424803605 0 2.0 0.6542289424803605 1
gene  2 3 31 -1.9312020305383792 0 3.0 -1.9312020305383792 1
gene  2 4 31 6.041117882700594 0 4.0 6.041117882700594 1
gene  2 5 31 -2.999226306878905 0 5.0 -2.999226306878905 1
gene  2 6 31 -7.342332516795212 0 6.0 -7.342332516795212 1
gene  2 7 31 -1.774558803755961 0 7.0 -1.774558803755961 1
gene  2 8 31 4.971271742623685 0 8.0 4.971271742623685 1
gene  2 9 31 1.0474111854714339 0 9.0 1.0474111854714339 1
gene  2 10 31 10.04708074909788 0 10.0 10.04708074909788 1
gene  2 11 31 0.6515727454333436 0 11.0 0.6515727454333436 1
gene  2 12 31 -1.6848147320420623 0 12.0 -1.6848147320420623 1
gene  2 13 31 0.772725822585004 0 13.0 0.772725822585004 1
gene  2 14 31 -0.04827935095517549 0 14.0 -0.04827935095517549 1
gene  2 15 31 -1.9828220164831927 0 15.0 -1.9828220164831927 1
gene  2 16 31 -0.8465863588876177 0 16.0 -0.8465863588876177 1
gene  2 17 31 3.034456120017644 0 17.0 3.034456120017644 1
gene  2 18 31 -0.906329705586977 0 18.0 -0.906329705586977 1
gene  2 19 31 -4.207133087439309 0 19.0 -4.207133087439309 1
gene  2 20 31 1.5092146735956244 0 20.0 1.5092146735956244 1
gene  2 21 31 -1.2887225576977748 0 21.0 -1.2887225576977748 1
gene  2 22 31 5.294117778425283 0 22.0 5.294117778425283 1
gene  2 23 31 2.602860256129646 0 23.0 2.602860256129646 1
gene  2 24 31 -2.339042686681621 0 24.0 -2.339042686681621 1
gene  2 25 31 -0.5387678377600142 0 25.0 -0.5387678377600142 1
gene  2 26 31 1.1024014529455761 0 26.0 1.1024014529455761 1
gene  2 27 31 -2.173346076809451 0 27.0 -2.173346076809451 1
gene  2 28 31 -2.813782585745293 0 28.0 -2.813782585745293 1
gene  2 29 31 2.4238271350159186 0 29.0 2.4238271350159186 1
gene  2 30 31 -6.536396388429772 0 30.0 -6.536396388429772 1
gene  2 1 32 3.3763179675138346 0 31.0 3.3763179675138346 1
gene  2 2 32 6.934854425236488 0 32.0 6.934854425236488 1
gene  2 3 32 0.019208933508797044 0 33.0 0.019208933508797044 1
gene  2 4 32 3.1833654815582975 0 34.0 3.1833654815582975 1
gene  2 5 32 3.4909163865808233 0 35.0 3.4909163865808233 1
gene  2 6 32 0.004890241192210709 0 36.0 0.004890241192210709 1
gene  2 7 32 4.53929337287877 0 37.0 4.53929337287877 1
gene  2 8 32 0.43561117029534613 0 38.0 0.43561117029534613 1
gene  2 9 32 -2.649490821662232 0 39.0 -2.649490821662232 1
gene  2 10 32 0.35858193320612597 0 40.0 0.35858193320612597 1
gene  2 11 32 -3.9719147291269445 0 41.0 -3.9719147291269445 1
gene  2 12 32 -5.291876780072405 0 42.0 -5.291876780072405 1
gene  1 13 32 2.0993894110143176 0 43.0 2.0993894110143176 1
gene  2 14 32 -2.244822307112928 0 44.0 -2.244822307112928 1
gene  2 15 32 -0.1722492628547223 0 45.0 -0.1722492628547223 1
gene  2 16 32 2.0019855761156773 0 46.0 2.0019855761156773 1
gene  2 17 32 1.9062273077723129 0 47.0 1.9062273077723129 1
gene  2 18 32 5.753020418343927 0 48.0 5.753020418343927 1
gene  2 19 32 2.8241783903540796 0 49.0 2.8241783903540796 1
gene  2 20 32 0.22452173589710467 0 50.0 0.22452173589710467 1
gene  2 21 32 -5.70014437795707 0 51.0 -5.70014437795707 1
gene  2 22 32 -1.7755449742876064 0 52.0 -1.7755449742876064 1
gene  2 23 32 1.2226321641106557 0 53.0 1.2226321641106557 1
gene  2 24 32 2.1026074194302122 0 54.0 2.1026074194302122 1
gene  2 25 32 1.9725432300735486 0 55.0 1.9725432300735486 1
gene  2 26 32 9.71299169752536 0 56.0 9.71299169752536 1
gene  2 27 32 -5.072590171463825 0 57.0 -5.072590171463825 1
gene  2 28 32 6.508886615604943 0 58.0 6.508886615604943 1
gene  2 29 32 2.5585981444601464 0 59.0 2.5585981444601464 1
gene  2 30 32 2.739560469317711 0 60.0 2.739560469317711 1
gene  2 1 33 -4.628990477105083 0 61.0 -4.628990477105083 1
gene  2 2 33 1.2677789440197302 0 62.0 1.2677789440197302 1
gene  2 3 33 -1.4953144133551355 0 63.0 -1.4953144133551355 1
gene  2 4 33 0.4308790202040207 0 64.0 0.4308790202040207 1
gene  2 5 33 1.597119482658559 0 65.0 1.597119482658559 1
gene  2 6 33 -0.6325169296618762 0 66.0 -0.6325169296618762 1
gene  2 7 33 -1.7276572840540028 0 67.0 -1.7276572840540028 1
gene  2 8 33 -5.699582648113494 0 68.0 -5.699582648113494 1
gene  2 9 33 5.429503795527873 0 69.0 5.429503795527873 1
gene  2 10 33 -1.6189821826109334 0 70.0 -1.6189821826109334 1
gene  2 11 33 -3.6505745886573195 0 71.0 -3.6505745886573195 1
gene  2 12 33 3.6984314633669655 0 72.0 3.6984314633669655 1
gene  2 13 33 -3.6731537753042156 0 73.0 -3.6731537753042156 1
gene  2 14 33 4.78930054113137 0 74.0 4.78930054113137 1
gene  2 15 33 -0.3371462038853287 0 75.0 -0.3371462038853287 1
gene  2 16 33 0.520916542994311 0 76.0 0.520916542994311 1
gene  2 17 33 2.697977312697697 0 77.0 2.697977312697697 1
gene  2 18 33 3.302613384530718 0 78.0 3.302613384530718 1
gene  2 19 33 6.971673924933655 0 79.0 6.971673924933655 1
gene  2 20 33 -0.4203391419990701 0 80.0 -0.4203391419990701 1
gene  2 21 33 2.438141998479858 0 81.0 2.438141998479858 1
gene  2 22 33 10.264482123761184 0 82.0 10.264482123761184 1
gene  2 23 33 1.598964474256587 0 83.0 1.598964474256587 1
gene  2 24 33 3.4362000139088424 0 84.0 3.4362000139088424 1
gene  2 25 33 -0.4377750033811816 0 85.0 -0.4377750033811816 1
gene  2 26 33 1.2701886832305185 0 86.0 1.2701886832305185 1
gene  2 27 33 5.073697615324389 0 87.0 5.073697615324389 1
gene  2 28 33 -1.1445806357197488 0 88.0 -1.1445806357197488 1
gene  2 29 33 5.741862409494223 0 89.0 5.741862409494223 1
gene  2 30 33 -4.005914893226923 0 90.0 -4.005914893226923 1
gene  2 1 34 0.6817041552443539 0 91.0 0.6817041552443539 1
gene  2 2 34 9.43031404623959 0 92.0 9.43031404623959 1
gene  2 3 34 -3.754819273537804 0 93.0 -3.754819273537804 1
gene  2 4 34 -3.725385257515554 0 94.0 -3.725385257515554 1
gene  2 5 34 0.37655720656445224 0 95.0 0.37655720656445224 1
gene  2 6 34 -0.664875676179822 0 96.0 -0.664875676179822 1
gene  2 7 34 3.432092201925233 0 97.0 3.432092201925233 1
gene  2 8 34 -2.36983294992195 0 98.0 -2.36983294992195 1
gene  2 9 34 7.091543264107791 0 99.0 7.091543264107791 1
gene  2 10 34 -1.2728678648832605 0 100.0 -1.2728678648832605 1
gene  2 11 34 4.369547705742951 0 101.0 4.369547705742951 1
gene  2 12 34 1.8625820393257595 0 102.0 1.8625820393257595 1
gene  2 13 34 -8.850098745436458 0 103.0 -8.850098745436458 1
gene  2 14 34 -1.3554315568354498 0 104.0 -1.3554315568354498 1
gene  2 15 34 0.8999088166416611 0 105.0 0.8999088166416611 1
gene  2 16 34 -3.4861842408791324 0 106.0 -3.4861842408791324 1
gene  2 17 34 9.088742271133626 0 107.0 9.088742271133626 1
gene  2 18 34 0.9590008955108904 0 108.0 0.9590008955108904 1
gene  2 19 34 1.9441211842365198 0 109.0 1.9441211842365198 1
gene  2 20 34 3.609693941245089 0 110.0 3.609693941245089 1
gene  2 21 34 -0.4820405534712182 0 111.0 -0.4820405534712182 1
gene  2 22 34 -1.346945938283132 0 112.0 -1.346945938283132 1
gene  2 23 34 -1.4291242554640085 0 113.0 -1.4291242554640085 1
gene  2 24 34 7.2715869411906535 0 114.0 7.2715869411906535 1
gene  2 25 34 4.073432136694261 0 115.0 4.073432136694261 1
gene  2 26 34 -2.6324033172109447 0 116.0 -2.6324033172109447 1
gene  2 27 34 -2.360686776123764 0 117.0 -2.360686776123764 1
gene  2 28 34 1.236070505823099 0 118.0 1.236070505823099 1
gene  2 29 34 2.109629125042744 0 119.0 2.109629125042744 1
gene  2 30 34 1.2725443796709237 0 120.0 1.2725443796709237 1
gene  2 1 35 3.220230154326148 0 121.0 3.220230154326148 1
gene  2 2 35 0.3323028842359399 0 122.0 0.3323028842359399 1
gene  2 3 35 -1.1766427779086934 0 123.0 -1.1766427779086934 1
gene  2 4 35 -1.0918198174718472 0 124.0 -1.0918198174718472 1
gene  2 5 35 0.7078642856331663 0 125.0 0.7078642856331663 1
gene  2 6 35 -7.718739528505389 0 126.0 -7.718739528505389 1
gene  2 7 35 7.076168289852474 0 127.0 7.076168289852474 1
gene  2 8 35 -10.254460325880974 0 128.0 -10.254460325880974 1
gene  2 9 35 -4.713613380220113 0 129.0 -4.713613380220113 1
gene  2 10 35 -0.8347462304740305 0 130.0 -0.8347462304740305 1
gene  2 11 35 -1.4654426760782087 0 131.0 -1.4654426760782087 1
gene  2 12 35 1.035242984745689 0 132.0 1.035242984745689 1
gene  2 13 35 -0.32783838041786667 0 133.0 -0.32783838041786667 1
gene  2 14 35 -0.3698038162165235 0 134.0 -0.3698038162165235 1
gene  2 15 35 3.8204389465987765 0 135.0 3.8204389465987765 1
gene  2 16 35 -7.074043001897621 0 136.0 -7.074043001897621 1
gene  2 17 35 -1.0852744793116103 0 137.0 -1.0852744793116103 1
gene  2 18 35 3.1837632488769336 0 138.0 3.1837632488769336 1
gene  2 19 35 -1.2180937424342808 0 139.0 -1.2180937424342808 1
gene  2 20 35 1.7026695630087714 0 140.0 1.7026695630087714 1
gene  2 21 35 -0.13335175518702935 0 141.0 -0.13335175518702935 1
gene  2 22 35 2.08926003668753 0 142.0 2.08926003668753 1
gene  2 23 35 6.461806836521108 0 143.0 6.461806836521108 1
gene  2 24 35 -4.426312468094265 0 144.0 -4.426312468094265 1
gene  2 25 35 -4.429763271104029 0 145.0 -4.429763271104029 1
gene  2 26 35 5.844977184115287 0 146.0 5.844977184115287 1
gene  2 27 35 -1.243110709463951 0 147.0 -1.243110709463951 1
gene  2 28 35 -2.1203102651304553 0 148.0 -2.1203102651304553 1
gene  2 29 35 0.5984929891038493 0 149.0 0.5984929891038493 1
gene  2 30 35 1.4433534876633356 0 150.0 1.4433534876633356 1
gene  2 1 36 2.0077758314050467 0 151.0 2.0077758314050467 1
gene  2 2 36 -1.538196074162171 0 152.0 -1.538196074162171 1
gene  2 3 36 -0.7543433983206107 0 153.0 -0.7543433983206107 1
gene  2 4 36 0.8523059409407272 0 154.0 0.8523059409407272 1
gene  2 5 36 2.602122354377934 0 155.0 2.602122354377934 1
gene  2 6 36 -0.6356934035450257 0 156.0 -0.6356934035450257 1
gene  2 7 36 1.98125858292962 0 157.0 1.98125858292962 1
gene  2 8 36 -1.9893589473406417 0 158.0 -1.9893589473406417 1
gene  2 9 36 -0.929412334750237 0 159.0 -0.929412334750237 1
gene  2 10 36 -1.0653046149324576 0 160.0 -1.0653046149324576 1
gene  2 11 36 -1.7219692583315411 0 161.0 -1.7219692583315411 1
gene  2 12 36 1.0069140031454853 0 162.0 1.0069140031454853 1
gene  2 13 36 -5.685959295313597 0 163.0 -5.685959295313597 1
gene  2 14 36 0.6139812258674364 0 164.0 0.6139812258674364 1
gene  2 15 36 0.9093013288713276 0 165.0 0.9093013288713276 1
gene  2 16 36 -1.4676322824509578 0 166.0 -1.4676322824509578 1
gene  2 17 36 -1.8212671969845302 0 167.0 -1.8212671969845302 1
gene  2 18 36 -5.676052808709068 0 168.0 -5.676052808709068 1
gene  2 19 36 -1.2604262615457555 0 169.0 -1.2604262615457555 1
gene  2 20 36 -1.2471470509473928 0 170.0 -1.2471470509473928 1
gene  2 21 36 1.3312055425306535 0 171.0 1.3312055425306535 1
gene  2 22 36 -2.6118528074111147 0 172.0 -2.6118528074111147 1
gene  2 23 36 1.9157875809968778 0 173.0 1.9157875809968778 1
gene  2 24 36 1.908745949210711 0 174.0 1.908745949210711 1
gene  2 25 36 0.7025775725772199 0 175.0 0.7025775725772199 1
gene  2 26 36 2.4174945244015755 0 176.0 2.4174945244015755 1
gene  2 27 36 -4.028767625153654 0 177.0 -4.028767625153654 1
gene  2 28 36 0.5132723406358806 0 178.0 0.5132723406358806 1
gene  2 29 36 -5.4303648765397865 0 179.0 -5.4303648765397865 1
gene  2 30 36 1.9894822150217348 0 180.0 1.9894822150217348 1
gene  2 8 43 4.605163741644809 0 212.0 4.605163741644809 1
gene  2 43 33 0.4772118790110096 0 213.0 0.4772118790110096 1
gene  2 10 43 0.6302778043283713 0 219.0 0.6302778043283713 1
gene  1 43 34 -1.436655900892877 0 314.0 -1.436655900892877 1
genomeend 2
genomestart  3
trait 1 0.1 0.0 0.0 0.0 0.0 0.0 0.0 0.0 
trait 2 0.6682038637780096 0.0 0.0 0.0 0.0 0.0 0.0 0.0 
node 1 1 1 3
node 2 1 1 1
node 3 1 1 1
node 4 1 1 1
node 5 1 1 1
node 6 1 1 1
node 7 1 1 1
node 8 1 1 1
node 9 1 1 1
node 10 1 1 1
node 11 1 1 1
node 12 1 1 1
node 13 1 1 1
node 14 2 1 1
node 15 1 1 1
node 16 1 1 1
node 17 1 1 1
node 18 1 1 1
node 19 1 1 1
node 20 1 1 1
node 21 1 1 1
node 22 1 1 1
node 23 1 1 1
node 24 1 1 1
node 25 1 1 1
node 26 1 1 1
node 27 1 1 1
node 28 2 1 1
node 29 1 1 1
node 30 1 1 1
node 31 1 0 2
node 32 1 0 2
node 33 1 0 2
node 34 1 0 2
node 35 1 0 2
node 36 1 0 2
node 38 1 0 0
node 44 1 0 0
node 57 1 0 0
gene  1 1 31 -2.774919893608887 0 1.0 -2.774919893608887 1
gene  2 2 31 -0.1815500765138207 0 2.0 -0.1815500765138207 1
gene  2 3 31 -1.802780690531881 0 3.0 -1.802780690531881 1
gene  2 4 31 0.1280498322668676 0 4.0 0.1280498322668676 1
gene  2 5 31 0.551823976821624 0 5.0 0.551823976821624 1
gene  2 6 31 0.6045139316376923 0 6.0 0.6045139316376923 1
gene  2 7 31 -0.2707564273020906 0 7.0 -0.2707564273020906 1
gene  2 8 31 7.549713129168962 0 8.0 7.549713129168962 1
gene  2 9 31 0.3443631600780408 0 9.0 0.3443631600780408 1
gene  2 10 31 1.8634682728021057 0 10.0 1.8634682728021057 1
gene  2 11 31 4.499100348495066 0 11.0 4.499100348495066 1
gene  2 12 31 8.442920944402866 0 12.0 8.442920944402866 1
gene  2 13 31 1.0385913322225666 0 13.0 1.0385913322225666 1
gene  2 14 31 -3.6625530554935803 0 14.0 -3.6625530554935803 1
gene  2 15 31 0.07743716857067762 0 15.0 0.07743716857067762 1
gene  2 16 31 -1.9394139655339417 0 16.0 -1.9394139655339417 1
gene  2 17 31 -5.256516379871137 0 17.0 -5.256516379871137 1
gene  2 18 31 -0.814557787043825 0 18.0 -0.814557787043825 1
gene  2 19 31 -0.9305256245113551 0 19.0 -0.9305256245113551 1
gene  2 20 31 1.7352572085333153 0 20.0 1.7352572085333153 1
gene  2 21 31 2.640912458327433 0 21.0 2.640912458327433 1
gene  2 22 31 -0.5326280815262139 0 22.0 -0.5326280815262139 1
gene  2 23 31 2.7380843584643673 0 23.0 2.7380843584643673 1
gene  2 24 31 3.4717772410670404 0 24.0 3.4717772410670404 1
gene  2 25 31 2.0911669898869514 0 25.0 2.0911669898869514 1
gene  2 26 31 -0.42880878289774604 0 26.0 -0.42880878289774604 1
gene  2 27 31 0.4158554250627069 0 27.0 0.4158554250627069 1
gene  2 28 31 4.790704143970109 0 28.0 4.790704143970109 1
gene  2 29 31 1.8700169088486607 0 29.0 1.8700169088486607 1
gene  2 30 31 -4.131378111064021 0 30.0 -4.131378111064021 1
gene  2 1 32 10.56175588809113 0 31.0 10.56175588809113 1
gene  2 2 32 2.0168748020100784 0 32.0 2.0168748020100784 1
gene  2 3 32 -3.687208607091334 0 33.0 -3.687208607091334 1
gene  2 4 32 2.651807079443719 0 34.0 2.651807079443719 1
gene  2 5 32 -4.241366477278937 0 35.0 -4.241366477278937 1
gene  2 6 32 -2.7274899102354464 0 36.0 -2.7274899102354464 1
gene  2 7 32 2.2051934723638693 0 37.0 2.2051934723638693 1
gene  2 8 32 2.9688854649608003 0 38.0 2.9688854649608003 1
gene  2 9 32 -7.275159333213975 0 39.0 -7.275159333213975 1
gene  2 10 32 6.660585206444331 0 40.0 6.660585206444331 1
gene  2 11 32 1.5464994286429539 0 41.0 1.5464994286429539 1
gene  2 12 32 1.9230949513264952 0 42.0 1.9230949513264952 1
gene  2 13 32 2.6998170577659573 0 43.0 2.6998170577659573 1
gene  2 14 32 0.06849844618410073 0 44.0 0.06849844618410073 1
gene  2 15 32 2.319563807709029 0 45.0 2.319563807709029 1
gene  2 16 32 -2.4612152692602143 0 46.0 -2.4612152692602143 1
gene  2 17 32 0.01734321368318381 0 47.0 0.01734321368318381 1
gene  2 18 32 3.0561979134690302 0 48.0 3.0561979134690302 1
gene  2 19 32 -2.8641903507351594 0 49.0 -2.8641903507351594 1
gene  2 20 32 4.819733330556977 0 50.0 4.819733330556977 1
gene  2 21 32 -8.145827843791473 0 51.0 -8.145827843791473 1
gene  2 22 32 -3.3506652592401727 0 52.0 -3.3506652592401727 1
gene  2 23 32 4.28762571708862 0 53.0 4.28762571708862 1
gene  2 24 32 2.674250886313515 0 54.0 2.674250886313515 1
gene  2 25 32 0.8116132870020545 0 55.0 0.8116132870020545 1
gene  2 26 32 -0.8781346893086556 0 56.0 -0.8781346893086556 1
gene  2 27 32 -0.33186098201063574 0 57.0 -0.33186098201063574 1
gene  2 28 32 2.1280859475875964 0 58.0 2.1280859475875964 1
gene  2 29 32 1.7108981446248521 0 59.0 1.7108981446248521 1
gene  2 30 32 -3.9698707255443977 0 60.0 -3.9698707255443977 1
gene  2 1 33 2.663797015281447 0 61.0 2.663797015281447 1
gene  2 2 33 -3.9036289073060146 0 62.0 -3.9036289073060146 1
gene  2 3 33 -1.425875286042256 0 63.0 -1.425875286042256 1
gene  2 4 33 -5.177401952980047 0 64.0 -5.177401952980047 1
gene  2 5 33 -3.9466272728282608 0 65.0 -3.9466272728282608 1
gene  2 6 33 -4.9944324380803575 0 66.0 -4.9944324380803575 0
gene  2 7 33 3.561629815209103 0 67.0 3.561629815209103 1
gene  2 8 33 1.1308070858192634 0 68.0 1.1308070858192634 1
gene  2 9 33 -4.207215351335538 0 69.0 -4.207215351335538 1
gene  2 10 33 3.3208955287078994 0 70.0 3.3208955287078994 1
gene  2 11 33 1.2650239919642423 0 71.0 1.2650239919642423 1
gene  2 12 33 12.048023819110455 0 72.0 12.048023819110455 1
gene  2 13 33 12.529831096124614 0 73.0 12.529831096124614 1
gene  2 14 33 3.329096498739416 0 74.0 3.329096498739416 1
gene  2 15 33 -6.285789142558992 0 75.0 -6.285789142558992 1
gene  2 16 33 -1.0998253395656779 0 76.0 -1.0998253395656779 1
gene  2 17 33 -7.931886511917565 0 77.0 -7.931886511917565 1
gene  2 18 33 -0.2377132536714206 0 78.0 -0.2377132536714206 1
gene  2 19 33 3.2942098579285397 0 79.0 3.2942098579285397 1
gene  2 20 33 2.062418551947071 0 80.0 2.062418551947071 1
gene  2 21 33 0.1903187775974149 0 81.0 0.1903187775974149 1
gene  2 22 33 1.6079376988001814 0 82.0 1.6079376988001814 1
gene  2 23 33 -1.2758952114417366 0 83.0 -1.2758952114417366 1
gene  2 24 33 1.8018728390266454 0 84.0 1.8018728390266454 1
gene  2 25 33 0.8199035917128443 0 85.0 0.8199035917128443 1
gene  2 26 33 -1.6550680833587696 0 86.0 -1.6550680833587696 1
gene  2 27 33 -2.757991987251075 0 87.0 -2.757991987251075 1
gene  2 28 33 -4.373667759485686 0 88.0 -4.373667759485686 1
gene  2 29 33 1.7277675464805633 0 89.0 1.7277675464805633 1
gene  2 30 33 -1.155896019609749 0 90.0 -1.155896019609749 1
gene  2 1 34 -1.6731751392791419 0 91.0 -1.6731751392791419 1
gene  2 2 34 -0.3206886853105595 0 92.0 -0.3206886853105595 1
gene  2 3 34 -11.959889822736157 0 93.0 -11.959889822736157 1
gene  2 4 34 3.3421766697642585 0 94.0 3.3421766697642585 1
gene  2 5 34 -7.322198402300963 0 95.0 -7.322198402300963 1
gene  2 6 34 -1.409382596496924 0 96.0 -1.409382596496924 1
gene  2 7 34 0.7411326597920496 0 97.0 0.7411326597920496 1
gene  2 8 34 -2.049707885125563 0 98.0 -2.049707885125563 1
gene  2 9 34 0.837163309308667 0 99.0 0.837163309308667 1
gene  2 10 34 -1.6392631056620561 0 100.0 -1.6392631056620561 1
gene  2 11 34 5.33311235574249 0 101.0 5.33311235574249 1
gene  2 12 34 -0.38396211160861693 0 102.0 -0.38396211160861693 1
gene  2 13 34 3.636751257838898 0 103.0 3.636751257838898 1
gene  2 14 34 5.867655766451962 0 104.0 5.867655766451962 1
gene  2 15 34 8.628425462781976 0 105.0 8.628425462781976 1
gene  2 16 34 0.9577400004454879 0 106.0 0.9577400004454879 1
gene  2 17 34 0.28125364824272947 0 107.0 0.28125364824272947 1
gene  2 18 34 0.8629257270651209 0 108.0 0.8629257270651209 1
gene  2 19 34 1.3433069669481954 0 109.0 1.3433069669481954 1
gene  2 20 34 -0.8680498568997039 0 110.0 -0.8680498568997039 1
gene  2 21 34 0.7791560916559672 0 111.0 0.7791560916559672 1
gene  2 22 34 -1.893420518249634 0 112.0 -1.893420518249634 1
gene  2 23 34 -1.413973308582471 0 113.0 -1.413973308582471 1
gene  2 24 34 4.2315571870022115 0 114.0 4.2315571870022115 1
gene  2 25 34 1.7621584942429547 0 115.0 1.7621584942429547 1
gene  2 26 34 3.637911021034433 0 116.0 3.637911021034433 1
gene  2 27 34 -2.3391139326383352 0 117.0 -2.3391139326383352 1
gene  2 28 34 -8.01055722541311 0 118.0 -8.01055722541311 1
gene  2 29 34 -10.228621527451686 0 119.0 -10.228621527451686 1
gene  2 30 34 3.024027885129875 0 120.0 3.024027885129875 1
gene  2 1 35 7.46880238496237 0 121.0 7.46880238496237 1
gene  2 2 35 0.3065848448448077 0 122.0 0.3065848448448077 1
gene  2 3 35 2.4325611532430007 0 123.0 2.4325611532430007 1
gene  2 4 35 -1.7150585952621376 0 124.0 -1.7150585952621376 1
gene  2 5 35 -11.68443423056287 0 125.0 -11.68443423056287 1
gene  2 6 35 -4.128954369829385 0 126.0 -4.128954369829385 1
gene  2 7 35 -0.7470311016272029 0 127.0 -0.7470311016272029 1
gene  2 8 35 -0.25606375978946105 0 128.0 -0.25606375978946105 1
gene  2 9 35 0.38850428011417226 0 129.0 0.38850428011417226 1
gene  2 10 35 -1.306743401416419 0 130.0 -1.306743401416419 1
gene  2 11 35 -3.368037907938293 0 131.0 -3.368037907938293 1
gene  2 12 35 -0.11238742943365154 0 132.0 -0.11238742943365154 1
gene  2 13 35 0.7808212752959687 0 133.0 0.7808212752959687 1
gene  2 14 35 2.588145571857579 0 134.0 2.588145571857579 1
gene  1 15 35 2.290834841634463 0 135.0 2.290834841634463 1
gene  2 16 35 0.9248819464821967 0 136.0 0.9248819464821967 1
gene  2 17 35 7.145018714201459 0 137.0 7.145018714201459 1
gene  2 18 35 6.84526239929382 0 138.0 6.84526239929382 1
gene  2 19 35 2.332450899216504 0 139.0 2.332450899216504 1
gene  2 20 35 4.83997268236258 0 140.0 4.83997268236258 1
gene  2 21 35 -7.118595560333894 0 141.0 -7.118595560333894 1
gene  2 22 35 0.03609843087196363 0 142.0 0.03609843087196363 1
gene  2 23 35 1.1777293444469263 0 143.0 1.1777293444469263 1
gene  2 24 35 -0.5374084511562085 0 144.0 -0.5374084511562085 1
gene  2 25 35 0.4841018888585302 0 145.0 0.4841018888585302 1
gene  2 26 35 0.9471528172958856 0 146.0 0.9471528172958856 1
gene  2 27 35 -7.155493326497911 0 147.0 -7.155493326497911 1
gene  2 28 35 -3.5686988647305857 0 148.0 -3.5686988647305857 1
gene  2 29 35 13.16079070559545 0 149.0 13.16079070559545 1
gene  2 30 35 -1.883010922925779 0 150.0 -1.883010922925779 1
gene  2 1 36 -3.1293973510934348 0 151.0 -3.1293973510934348 1
gene  2 2 36 4.53784046147607 0 152.0 4.53784046147607 1
gene  2 3 36 -4.893757978791088 0 153.0 -4.893757978791088 1
gene  2 4 36 2.390616600753261 0 154.0 2.390616600753261 1
gene  2 5 36 2.8958324925972834 0 155.0 2.8958324925972834 1
gene  2 6 36 -2.455559862868837 0 156.0 -2.455559862868837 1
gene  2 7 36 3.071400422692796 0 157.0 3.071400422692796 1
gene  2 8 36 4.180706116642625 0 158.0 4.180706116642625 1
gene  2 9 36 -1.5213077899734884 0 159.0 -1.5213077899734884 1
gene  2 10 36 0.8021483053135983 0 160.0 0.8021483053135983 1
gene  2 11 36 1.1301745463814625 0 161.0 1.1301745463814625 1
gene  2 12 36 2.9284865573778522 0 162.0 2.9284865573778522 1
gene  2 13 36 6.270900532858761 0 163.0 6.270900532858761 1
gene  2 14 36 -2.7345391958335683 0 164.0 -2.7345391958335683 1
gene  2 15 36 1.5744517481588696 0 165.0 1.5744517481588696 1
gene  2 16 36 -0.03111895246472679 0 166.0 -0.03111895246472679 1
gene  2 17 36 0.10167643360049827 0 167.0 0.10167643360049827 1
gene  2 18 36 2.806433685533833 0 168.0 2.806433685533833 1
gene  2 19 36 0.8348101178030064 0 169.0 0.8348101178030064 1
gene  2 20 36 0.049131704963754075 0 170.0 0.049131704963754075 1
gene  2 21 36 1.381715008279428 0 171.0 1.381715008279428 1
gene  2 22 36 -0.32542110645721684 0 172.0 -0.32542110645721684 1
gene  2 23 36 0.7612715733275371 0 173.0 0.7612715733275371 1
gene  2 24 36 -1.63712996774734 0 174.0 -1.63712996774734 1
gene  2 25 36 0.33133810523126034 0 175.0 0.33133810523126034 1
gene  2 26 36 -0.7576709192776923 0 176.0 -0.7576709192776923 1
gene  2 27 36 1.89161302998576 0 177.0 1.89161302998576 1
gene  2 28 36 3.2077520664783483 0 178.0 3.2077520664783483 1
gene  2 29 36 -1.6588116618345634 0 179.0 -1.6588116618345634 1
gene  2 30 36 1.0417290758362865 0 180.0 1.0417290758362865 1
gene  2 13 38 0.979133667313824 0 183.0 0.979133667313824 1
gene  2 38 34 -2.1880285015485312 0 184.0 -2.1880285015485312 1
gene  1 16 38 -1.3342340558579298 0 192.0 -1.3342340558579298 1
gene  2 10 44 2.887504142883298 0 217.0 2.887504142883298 1
gene  2 44 34 1.7471870702627703 0 218.0 1.7471870702627703 1
gene  2 20 38 1.328587833511457 0 222.0 1.328587833511457 1
gene  2 6 57 3.9462817375255015 0 266.0 3.9462817375255015 1
gene  2 57 33 1.1593746161306895 0 267.0 1.1593746161306895 1
gene  2 3 38 1.962797723185575 0 312.0 1.962797723185575 1
gene  2 8 38 13.238155388103634 0 322.0 13.238155388103634 1
genomeend 3
genomestart  4
trait 1 0.1 0.0 0.0 0.0 0.0 0.0 0.0 0.0 
trait 2 0.3816509176155668 0.2360648924209494 0.0 0.0 0.0 0.0 0.503180056317187 0.0 
node 1 1 1 3
node 2 1 1 1
node 3 1 1 1
node 4 1 1 1
node 5 1 1 1
node 6 1 1 1
node 7 1 1 1
node 8 1 1 1
node 9 1 1 1
node 10 1 1 1
node 11 1 1 1
node 12 1 1 1
node 13 1 1 1
node 14 1 1 1
node 15 1 1 1
node 16 1 1 1
node 17 1 1 1
node 18 1 1 1
node 19 1 1 1
node 20 1 1 1
node 21 1 1 1
node 22 1 1 1
node 23 1 1 1
node 24 1 1 1
node 25 1 1 1
node 26 1 1 1
node 27 1 1 1
node 28 2 1 1
node 29 1 1 1
node 30 1 1 1
node 31 1 0 2
node 32 1 0 2
node 33 1 0 2
node 34 1 0 2
node 35 1 0 2
node 36 1 0 2
node 38 1 0 0
node 44 1 0 0
node 57 1 0 0
gene  1 1 31 -4.675911837555299 0 1.0 -4.675911837555299 1
gene  2 2 31 -1.9474775507841464 0 2.0 -1.9474775507841464 1
gene  2 3 31 -4.441037636799125 0 3.0 -4.441037636799125 1
gene  2 4 31 -0.6557724275038039 0 4.0 -0.6557724275038039 1
gene  2 5 31 2.4930985816193845 0 5.0 2.4930985816193845 1
gene  2 6 31 2.584238970447233 0 6.0 2.584238970447233 1
gene  2 7 31 -4.222241244204242 0 7.0 -4.222241244204242 1
gene  2 8 31 6.706479953894771 0 8.0 6.706479953894771 1
gene  2 9 31 -0.9867635551073359 0 9.0 -0.9867635551073359 1
gene  2 10 31 1.1605425230084379 0 10.0 1.1605425230084379 1
gene  2 11 31 5.222410956514278 0 11.0 5.222410956514278 1
gene  2 12 31 9.87069063837875 0 12.0 9.87069063837875 1
gene  2 13 31 2.784798452118883 0 13.0 2.784798452118883 1
gene  2 14 31 -2.9997481655037737 0 14.0 -2.9997481655037737 1
gene  2 15 31 1.3232563804966495 0 15.0 1.3232563804966495 1
gene  2 16 31 -1.5336181225264391 0 16.0 -1.5336181225264391 1
gene  2 17 31 -6.017100536767883 0 17.0 -6.017100536767883 1
gene  2 18 31 0.04587227723930665 0 18.0 0.04587227723930665 1
gene  2 19 31 0.8453538084069148 0 19.0 0.8453538084069148 1
gene  2 20 31 0.466902397364634 0 20.0 0.466902397364634 1
gene  2 21 31 1.488980730396348 0 21.0 1.488980730396348 1
gene  2 22 31 0.17402071940813535 0 22.0 0.17402071940813535 1
gene  2 23 31 2.1446389394620446 0 23.0 2.1446389394620446 1
gene  2 24 31 6.6491142707732465 0 24.0 6.6491142707732465 1
gene  2 25 31 0.6470907396053682 0 25.0 0.6470907396053682 1
gene  2 26 31 -2.1195815751089953 0 26.0 -2.1195815751089953 1
gene  2 27 31 2.8591829681358787 0 27.0 2.8591829681358787 1
gene  2 28 31 3.9863558945671373 0 28.0 3.9863558945671373 1
gene  2 29 31 -1.4689050106577763 0 29.0 -1.4689050106577763 1
gene  2 30 31 -5.414105423770269 0 30.0 -5.414105423770269 1
gene  2 1 32 9.64597907202366 0 31.0 9.64597907202366 1
gene  2 2 32 -3.399674241163182 0 32.0 -3.399674241163182 1
gene  2 3 32 -0.08644849473505256 0 33.0 -0.08644849473505256 1
gene  2 4 32 8.371010506278656 0 34.0 8.371010506278656 1
gene  2 5 32 -7.13556156641131 0 35.0 -7.13556156641131 1
gene  2 6 32 2.447670850467664 0 36.0 2.447670850467664 1
gene  2 7 32 1.29819627685454 0 37.0 1.29819627685454 1
gene  2 8 32 3.4120716267296243 0 38.0 3.4120716267296243 1
gene  2 9 32 -12.204770066414474 0 39.0 -12.204770066414474 1
gene  2 10 32 3.758182349707798 0 40.0 3.758182349707798 1
gene  2 11 32 5.32078268106015 0 41.0 5.32078268106015 1
gene  2 12 32 1.5855561370607898 0 42.0 1.5855561370607898 1
gene  2 13 32 -2.355264384667578 0 43.0 -2.355264384667578 1
gene  2 14 32 2.525383248726541 0 44.0 2.525383248726541 1
gene  2 15 32 2.6728337153942126 0 45.0 2.6728337153942126 1
gene  2 16 32 -5.197453849818957 0 46.0 -5.197453849818957 1
gene  2 17 32 -1.1244791675944823 0 47.0 -1.1244791675944823 1
gene  2 18 32 1.0187727713995556 0 48.0 1.0187727713995556 1
gene  2 19 32 -5.730357221311421 0 49.0 -5.730357221311421 1
gene  2 20 32 1.756243889509014 0 50.0 1.756243889509014 1
gene  2 21 32 -5.371384558998181 0 51.0 -5.371384558998181 1
gene  2 22 32 -2.138609207365252 0 52.0 -2.138609207365252 1
gene  2 23 32 4.575147805764386 0 53.0 4.575147805764386 1
gene  2 24 32 2.4355276555897105 0 54.0 2.4355276555897105 1
gene  2 25 32 -3.699328676244366 0 55.0 -3.699328676244366 1
gene  2 26 32 -0.4579646394132135 0 56.0 -0.4579646394132135 1
gene  2 27 32 0.8699864302457054 0 57.0 0.8699864302457054 1
gene  2 28 32 1.3354829309629457 0 58.0 1.3354829309629457 1
gene  2 29 32 0.09850195083598079 0 59.0 0.09850195083598079 1
gene  2 30 32 -0.4760028505536571 0 60.0 -0.4760028505536571 1
gene  2 1 33 4.206192735559119 0 61.0 4.206192735559119 1
gene  2 2 33 -0.8780847991581715 0 62.0 -0.8780847991581715 1
gene  2 3 33 -1.8149066884510452 0 63.0 -1.8149066884510452 1
gene  2 4 33 -5.004009517795499 0 64.0 -5.004009517795499 1
gene  2 5 33 -4.592449444621947 0 65.0 -4.592449444621947 1
gene  2 6 33 -4.36384270965217 0 66.0 -4.36384270965217 0
gene  2 7 33 4.178579201052361 0 67.0 4.178579201052361 1
gene  2 8 33 -0.020769042816007888 0 68.0 -0.020769042816007888 1
gene  2 9 33 -7.185295507820338 0 69.0 -7.185295507820338 1
gene  2 10 33 3.0816727561536226 0 70.0 3.0816727561536226 1
gene  2 11 33 5.131205806824205 0 71.0 5.131205806824205 1
gene  1 12 33 10.583689500798274 0 72.0 10.583689500798274 1
gene  2 13 33 13.824011224177955 0 73.0 13.824011224177955 1
gene  2 14 33 1.557984828376374 0 74.0 1.557984828376374 1
gene  2 15 33 -8.59253021483737 0 75.0 -8.59253021483737 1
gene  2 16 33 -0.8841430431719246 0 76.0 -0.8841430431719246 1
gene  2 17 33 -12.33904116426652 0 77.0 -12.33904116426652 1
gene  2 18 33 -2.319099735283883 0 78.0 -2.319099735283883 1
gene  2 19 33 4.852148645980254 0 79.0 4.852148645980254 1
gene  2 20 33 1.5655920933340282 0 80.0 1.5655920933340282 1
gene  2 21 33 2.7967622497320628 0 81.0 2.7967622497320628 1
gene  2 22 33 1.4817649647048028 0 82.0 1.4817649647048028 1
gene  2 23 33 -0.5609317591819056 0 83.0 -0.5609317591819056 1
gene  2 24 33 2.7714629951084664 0 84.0 2.7714629951084664 1
gene  2 25 33 1.6075970220634919 0 85.0 1.6075970220634919 1
gene  2 26 33 0.709808087158269 0 86.0 0.709808087158269 1
gene  2 27 33 -0.13059720615630743 0 87.0 -0.13059720615630743 1
gene  2 28 33 -2.1480655754752838 0 88.0 -2.1480655754752838 1
gene  2 29 33 3.0585325315668777 0 89.0 3.0585325315668777 1
gene  2 30 33 -2.2476314973726117 0 90.0 -2.2476314973726117 1
gene  2 1 34 -3.935365950526797 0 91.0 -3.935365950526797 1
gene  2 2 34 -0.6568816852452559 0 92.0 -0.6568816852452559 1
gene  2 3 34 -14.878522918865801 0 93.0 -14.878522918865801 1
gene  2 4 34 1.9037773068841726 0 94.0 1.9037773068841726 1
gene  2 5 34 -8.11804599414907 0 95.0 -8.11804599414907 1
gene  2 6 34 -4.242976719191252 0 96.0 -4.242976719191252 1
gene  2 7 34 2.506662565919726 0 97.0 2.506662565919726 1
gene  2 8 34 -3.7154566301806566 0 98.0 -3.7154566301806566 1
gene  2 9 34 4.052229776754887 0 99.0 4.052229776754887 1
gene  2 10 34 -2.013008502966626 0 100.0 -2.013008502966626 1
gene  2 11 34 2.3436018206136953 0 101.0 2.3436018206136953 1
gene  2 12 34 1.6896866962021335 0 102.0 1.6896866962021335 1
gene  2 13 34 5.187728506778176 0 103.0 5.187728506778176 1
gene  2 14 34 3.2830448300882913 0 104.0 3.2830448300882913 1
gene  2 15 34 10.103303374386233 0 105.0 10.103303374386233 1
gene  2 16 34 -1.600774321246659 0 106.0 -1.600774321246659 1
gene  2 17 34 -2.238489400585405 0 107.0 -2.238489400585405 1
gene  2 18 34 3.7538231370023416 0 108.0 3.7538231370023416 1
gene  2 19 34 -0.1252182785779652 0 109.0 -0.1252182785779652 1
gene  2 20 34 -3.7006415688622694 0 110.0 -3.7006415688622694 1
gene  2 21 34 -1.1119052976391972 0 111.0 -1.1119052976391972 1
gene  2 22 34 1.533102119583243 0 112.0 1.533102119583243 1
gene  2 23 34 0.0013214338006157789 0 113.0 0.0013214338006157789 1
gene  2 24 34 3.025132447926506 0 114.0 3.025132447926506 1
gene  2 25 34 0.3385019783745199 0 115.0 0.3385019783745199 1
gene  2 26 34 5.051609032562689 0 116.0 5.051609032562689 1
gene  2 27 34 -1.109230544128446 0 117.0 -1.109230544128446 1
gene  2 28 34 -10.776011107081935 0 118.0 -10.776011107081935 1
gene  2 29 34 -13.280270491215731 0 119.0 -13.280270491215731 1
gene  2 30 34 6.715137226655588 0 120.0 6.715137226655588 1
gene  2 1 35 11.356677674084704 0 121.0 11.356677674084704 1
gene  2 2 35 -3.8050068269214457 0 122.0 -3.8050068269214457 1
gene  2 3 35 5.010197156421331 0 123.0 5.010197156421331 1
gene  2 4 35 -2.8452707698416093 0 124.0 -2.8452707698416093 1
gene  2 5 35 -13.063564322253429 0 125.0 -13.063564322253429 1
gene  2 6 35 -3.8567314441747818 0 126.0 -3.8567314441747818 1
gene  2 7 35 -0.864161616292918 0 127.0 -0.864161616292918 1
gene  2 8 35 -4.325030742514507 0 128.0 -4.325030742514507 1
gene  2 9 35 -3.901043120338384 0 129.0 -3.901043120338384 1
gene  2 10 35 -1.617797134261504 0 130.0 -1.617797134261504 1
gene  2 11 35 -4.606678864179022 0 131.0 -4.606678864179022 1
gene  2 12 35 3.9644055928070276 0 132.0 3.9644055928070276 1
gene  2 13 35 -2.9977917491091777 0 133.0 -2.9977917491091777 1
gene  2 14 35 7.567408183266232 0 134.0 7.567408183266232 1
gene  1 15 35 0.45124243082235993 0 135.0 0.45124243082235993 1
gene  2 16 35 4.030745954822759 0 136.0 4.030745954822759 1
gene  2 17 35 9.470870091105198 0 137.0 9.470870091105198 1
gene  2 18 35 6.19015333154096 0 138.0 6.19015333154096 1
gene  2 19 35 1.1769011282495796 0 139.0 1.1769011282495796 1
gene  2 20 35 8.258345576511353 0 140.0 8.258345576511353 1
gene  2 21 35 -8.92247302735552 0 141.0 -8.92247302735552 1
gene  2 22 35 -1.2473251350613612 0 142.0 -1.2473251350613612 1
gene  2 23 35 0.7376174308279442 0 143.0 0.7376174308279442 1
gene  2 24 35 -2.9490212682845485 0 144.0 -2.9490212682845485 1
gene  2 25 35 3.7806938449339356 0 145.0 3.7806938449339356 1
gene  2 26 35 -3.0202767692773964 0 146.0 -3.0202767692773964 1
gene  2 27 35 -8.79316126314146 0 147.0 -8.79316126314146 1
gene  2 28 35 -4.8636297321302635 0 148.0 -4.8636297321302635 1
gene  2 29 35 8.377640339313457 0 149.0 8.377640339313457 1
gene  2 30 35 4.505929778419354 0 150.0 4.505929778419354 1
gene  2 1 36 -4.844571458183801 0 151.0 -4.844571458183801 1
gene  2 2 36 4.62362500531926 0 152.0 4.62362500531926 1
gene  2 3 36 -7.465829906740689 0 153.0 -7.465829906740689 1
gene  2 4 36 -0.32554436052836033 0 154.0 -0.32554436052836033 1
gene  2 5 36 3.887946414073535 0 155.0 3.887946414073535 1
gene  2 6 36 -2.3543824150601544 0 156.0 -2.3543824150601544 1
gene  2 7 36 1.6762750624517841 0 157.0 1.6762750624517841 1
gene  2 8 36 4.477621447232612 0 158.0 4.477621447232612 1
gene  2 9 36 -3.3732336691085303 0 159.0 -3.3732336691085303 1
gene  2 10 36 -0.10503326279509473 0 160.0 -0.10503326279509473 1
gene  2 11 36 2.456611728240761 0 161.0 2.456611728240761 1
gene  2 12 36 1.326729008809663 0 162.0 1.326729008809663 1
gene  2 13 36 6.81119388048492 0 163.0 6.81119388048492 1
gene  2 14 36 -1.4024967592159592 0 164.0 -1.4024967592159592 1
gene  2 15 36 -1.112577138659205 0 165.0 -1.112577138659205 1
gene  2 16 36 -2.0746195060476498 0 166.0 -2.0746195060476498 1
gene  2 17 36 0.18664364015858248 0 167.0 0.18664364015858248 1
gene  2 18 36 4.923145762461419 0 168.0 4.923145762461419 1
gene  2 19 36 -0.1730977903326485 0 169.0 -0.1730977903326485 1
gene  2 20 36 -1.1055255633061876 0 170.0 -1.1055255633061876 1
gene  2 21 36 2.7993133113020923 0 171.0 2.7993133113020923 1
gene  2 22 36 0.5694511804297628 0 172.0 0.5694511804297628 1
gene  2 23 36 0.12725877134896535 0 173.0 0.12725877134896535 1
gene  2 24 36 -3.4161954169022075 0 174.0 -3.4161954169022075 1
gene  2 25 36 1.9583791704940805 0 175.0 1.9583791704940805 1
gene  2 26 36 1.76835359521769 0 176.0 1.76835359521769 1
gene  2 27 36 -0.11030190412291613 0 177.0 -0.11030190412291613 1
gene  2 28 36 -1.208370013204147 0 178.0 -1.208370013204147 1
gene  2 29 36 -2.4085773367234475 0 179.0 -2.4085773367234475 1
gene  2 30 36 1.7090872500344672 0 180.0 1.7090872500344672 1
gene  2 13 38 1.6133524462495707 0 183.0 1.6133524462495707 1
gene  2 38 34 0.24226748266978504 0 184.0 0.24226748266978504 1
gene  1 16 38 -1.835297601386854 0 192.0 -1.835297601386854 1
gene  2 10 44 0.01803062014408857 0 217.0 0.01803062014408857 1
gene  2 44 34 0.2810995207681922 0 218.0 0.2810995207681922 1
gene  2 20 38 4.661548374081279 0 222.0 4.661548374081279 1
gene  2 6 57 0.050516389508425075 0 266.0 0.050516389508425075 1
gene  2 57 33 2.605608296098892 0 267.0 2.605608296098892 1
gene  2 3 38 2.5447549758628023 0 312.0 2.5447549758628023 1
gene  2 8 38 -1.9975164930579408 0 322.0 -1.9975164930579408 1
gene  2 33 34 0.1142007718791363 0 358.0 0.1142007718791363 1
gene  2 27 38 -6.738390526386993 0 396.0 -6.738390526386993 1
genomeend 4
genomestart  5
trait 1 0.1 0.0 0.0 0.0 0.0 0.0 0.0 0.0 
trait 2 0.6682038637780096 0.0 0.0 0.0 0.0 0.0 0.0 0.0 
node 1 1 1 3
node 2 1 1 1
node 3 1 1 1
node 4 1 1 1
node 5 1 1 1
node 6 1 1 1
node 7 1 1 1
node 8 1 1 1
node 9 1 1 1
node 10 1 1 1
node 11 1 1 1
node 12 1 1 1
node 13 1 1 1
node 14 2 1 1
node 15 1 1 1
node 16 1 1 1
node 17 1 1 1
node 18 1 1 1
node 19 1 1 1
node 20 1 1 1
node 21 1 1 1
node 22 1 1 1
node 23 1 1 1
node 24 1 1 1
node 25 1 1 1
node 26 1 1 1
node 27 1 1 1
node 28 2 1 1
node 29 1 1 1
node 30 1 1 1
node 31 1 0 2
node 32 1 0 2
node 33 1 0 2
node 34 1 0 2
node 35 1 0 2
node 36 1 0 2
node 38 1 0 0
node 44 2 0 0
node 57 1 0 0
gene  1 1 31 -3.6441075308020565 0 1.0 -3.6441075308020565 1
gene  2 2 31 0.43865549693290473 0 2.0 0.43865549693290473 1
gene  2 3 31 -0.4797260281496889 0 3.0 -0.4797260281496889 1
gene  2 4 31 2.447932982304198 0 4.0 2.447932982304198 1
gene  2 5 31 0.4008372430765838 0 5.0 0.4008372430765838 1
gene  2 6 31 2.4354488084316626 0 6.0 2.4354488084316626 1
gene  2 7 31 -2.409319896602648 0 7.0 -2.409319896602648 1
gene  2 8 31 7.69322314651392 0 8.0 7.69322314651392 1
gene  2 9 31 -1.3782866077957463 0 9.0 -1.3782866077957463 1
gene  2 10 31 3.910172315373252 0 10.0 3.910172315373252 1
gene  2 11 31 3.5267735384050614 0 11.0 3.5267735384050614 1
gene  2 12 31 8.487267378463411 0 12.0 8.487267378463411 1
gene  2 13 31 2.885063832609457 0 13.0 2.885063832609457 1
gene  2 14 31 -2.1304435401942707 0 14.0 -2.1304435401942707 1
gene  2 15 31 -0.5209722888427717 0 15.0 -0.5209722888427717 1
gene  2 16 31 -2.1235817589213584 0 16.0 -2.1235817589213584 1
gene  2 17 31 -3.190300008184088 0 17.0 -3.190300008184088 1
gene  2 18 31 0.5146075063819586 0 18.0 0.5146075063819586 1
gene  2 19 31 0.32675608349694607 0 19.0 0.32675608349694607 1
gene  2 20 31 0.057961750237698784 0 20.0 0.057961750237698784 1
gene  2 21 31 4.074485272328663 0 21.0 4.074485272328663 1
gene  2 22 31 -0.3342914504347486 0 22.0 -0.3342914504347486 1
gene  2 23 31 4.501485713121156 0 23.0 4.501485713121156 1
gene  2 24 31 2.3728559950151826 0 24.0 2.3728559950151826 1
gene  2 25 31 0.07727204565415091 0 25.0 0.07727204565415091 1
gene  2 26 31 1.2006457332900908 0 26.0 1.2006457332900908 1
gene  2 27 31 1.2032954281937769 0 27.0 1.2032954281937769 1
gene  2 28 31 2.635254593432121 0 28.0 2.635254593432121 1
gene  2 29 31 3.703989672137997 0 29.0 3.703989672137997 1
gene  2 30 31 -5.6689467001207 0 30.0 -5.6689467001207 1
gene  2 1 32 8.17523713868846 0 31.0 8.17523713868846 1
gene  2 2 32 0.1818725385918578 0 32.0 0.1818725385918578 1
gene  2 3 32 -2.263321392112318 0 33.0 -2.263321392112318 1
gene  2 4 32 0.9179035027348377 0 34.0 0.9179035027348377 1
gene  2 5 32 -3.7409709790932384 0 35.0 -3.7409709790932384 1
gene  2 6 32 -1.178149691343215 0 36.0 -1.178149691343215 1
gene  2 7 32 0.6585930879631037 0 37.0 0.6585930879631037 1
gene  2 8 32 0.9933228956555511 0 38.0 0.9933228956555511 1
gene  2 9 32 -8.625962395022844 0 39.0 -8.625962395022844 1
gene  2 10 32 5.40157297580035 0 40.0 5.40157297580035 1
gene  2 11 32 3.704598516422508 0 41.0 3.704598516422508 1
gene  2 12 32 0.4227404408860944 0 42.0 0.4227404408860944 1
gene  2 13 32 2.0953545924529573 0 43.0 2.0953545924529573 1
gene  2 14 32 1.9320097141070154 0 44.0 1.9320097141070154 1
gene  2 15 32 2.902033505563948 0 45.0 2.902033505563948 1
gene  2 16 32 -1.2167937264862423 0 46.0 -1.2167937264862423 1
gene  2 17 32 -2.1419335394263546 0 47.0 -2.1419335394263546 1
gene  2 18 32 5.026718793263128 0 48.0 5.026718793263128 1
gene  2 19 32 -3.7239839843305864 0 49.0 -3.7239839843305864 1
gene  2 20 32 7.312697314749895 0 50.0 7.312697314749895 1
gene  2 21 32 -5.919216591084469 0 51.0 -5.919216591084469 1
gene  2 22 32 -3.45247418123478 0 52.0 -3.45247418123478 1
gene  2 23 32 5.237084333788136 0 53.0 5.237084333788136 1
gene  2 24 32 4.6737471385199765 0 54.0 4.6737471385199765 1
gene  2 25 32 1.0529627932406218 0 55.0 1.0529627932406218 1
gene  2 26 32 -0.4003726494358631 0 56.0 -0.4003726494358631 1
gene  2 27 32 -2.3031565104048886 0 57.0 -2.3031565104048886 1
gene  2 28 32 4.249430392574332 0 58.0 4.249430392574332 1
gene  2 29 32 3.094617394220402 0 59.0 3.094617394220402 1
gene  2 30 32 -4.833546451768357 0 60.0 -4.833546451768357 1
gene  2 1 33 1.2682943266225655 0 61.0 1.2682943266225655 1
gene  2 2 33 -5.3052118881402 0 62.0 -5.3052118881402 1
gene  2 3 33 0.30716934563966736 0 63.0 0.30716934563966736 1
gene  2 4 33 -7.062776990319426 0 64.0 -7.062776990319426 1
gene  2 5 33 -5.0045219825689 0 65.0 -5.0045219825689 1
gene  2 6 33 -5.691238364036244 0 66.0 -5.691238364036244 0
gene  2 7 33 3.310509171383137 0 67.0 3.310509171383137 1
gene  2 8 33 1.5229565415771285 0 68.0 1.5229565415771285 1
gene  2 9 33 -2.939604456855907 0 69.0 -2.939604456855907 1
gene  2 10 33 3.099912991076914 0 70.0 3.099912991076914 1
gene  2 11 33 0.9035006077578123 0 71.0 0.9035006077578123 1
gene  2 12 33 10.56316173107052 0 72.0 10.56316173107052 1
gene  2 13 33 14.112539232146512 0 73.0 14.112539232146512 1
gene  2 14 33 3.915628304425495 0 74.0 3.915628304425495 1
gene  2 15 33 -7.703560127317438 0 75.0 -7.703560127317438 1
gene  2 16 33 -3.0457517926703996 0 76.0 -3.0457517926703996 1
gene  2 17 33 -5.454475271660163 0 77.0 -5.454475271660163 1
gene  2 18 33 -0.1762258693138542 0 78.0 -0.1762258693138542 1
gene  2 19 33 2.147304843423722 0 79.0 2.147304843423722 1
gene  2 20 33 2.488449058160622 0 80.0 2.488449058160622 1
gene  2 21 33 1.78056801053872 0 81.0 1.78056801053872 1
gene  2 22 33 1.6943983699025609 0 82.0 1.6943983699025609 1
gene  2 23 33 1.1161539800532865 0 83.0 1.1161539800532865 1
gene  2 24 33 -0.31451237978741053 0 84.0 -0.31451237978741053 1
gene  2 25 33 2.5015130470171396 0 85.0 2.5015130470171396 1
gene  2 26 33 -3.4208137213460255 0 86.0 -3.4208137213460255 1
gene  2 27 33 -1.4317175878131931 0 87.0 -1.4317175878131931 1
gene  2 28 33 -4.855828230001836 0 88.0 -4.855828230001836 1
gene  2 29 33 1.4239520313570555 0 89.0 1.4239520313570555 1
gene  2 30 33 0.5895686674825318 0 90.0 0.5895686674825318 1
gene  2 1 34 -1.616873438237735 0 91.0 -1.616873438237735 1
gene  2 2 34 -2.076564396345029 0 92.0 -2.076564396345029 1
gene  2 3 34 -13.847684083369657 0 93.0 -13.847684083369657 1
gene  2 4 34 3.7908776631043093 0 94.0 3.7908776631043093 1
gene  2 5 34 -7.116160028499165 0 95.0 -7.116160028499165 1
gene  2 6 34 -2.712369672299342 0 96.0 -2.712369672299342 1
gene  2 7 34 1.6646785082250037 0 97.0 1.6646785082250037 1
gene  2 8 34 -2.706813410034597 0 98.0 -2.706813410034597 1
gene  2 9 34 1.3988549126736194 0 99.0 1.3988549126736194 1
gene  2 10 34 -0.6133984296244772 0 100.0 -0.6133984296244772 1
gene  2 11 34 4.05066304944946 0 101.0 4.05066304944946 1
gene  2 12 34 -2.7969028415719728 0 102.0 -2.7969028415719728 1
gene  2 13 34 4.196188763575113 0 103.0 4.196188763575113 1
gene  2 14 34 8.345464111582427 0 104.0 8.345464111582427 1
gene  2 15 34 6.200316357964564 0 105.0 6.200316357964564 1
gene  2 16 34 0.7669247388885867 0 106.0 0.7669247388885867 1
gene  2 17 34 2.0889988148513376 0 107.0 2.0889988148513376 1
gene  2 18 34 0.1502369140312152 0 108.0 0.1502369140312152 1
gene  2 19 34 3.4921393850726545 0 109.0 3.4921393850726545 1
gene  2 20 34 0.560733869825174 0 110.0 0.560733869825174 1
gene  2 21 34 2.985194271623602 0 111.0 2.985194271623602 1
gene  2 22 34 -4.099548850318866 0 112.0 -4.099548850318866 1
gene  2 23 34 -3.8474499661023014 0 113.0 -3.8474499661023014 1
gene  2 24 34 4.993348138505679 0 114.0 4.993348138505679 1
gene  2 25 34 2.425356588140647 0 115.0 2.425356588140647 1
gene  2 26 34 5.032611403647632 0 116.0 5.032611403647632 1
gene  2 27 34 -0.5415559787782875 0 117.0 -0.5415559787782875 1
gene  2 28 34 -6.497734622956234 0 118.0 -6.497734622956234 1
gene  2 29 34 -11.26804699739357 0 119.0 -11.26804699739357 1
gene  2 30 34 4.919244294025545 0 120.0 4.919244294025545 1
gene  2 1 35 7.6158957518715455 0 121.0 7.6158957518715455 1
gene  2 2 35 -1.2316239884307263 0 122.0 -1.2316239884307263 1
gene  2 3 35 1.9762375970867279 0 123.0 1.9762375970867279 1
gene  2 4 35 -2.492561609381203 0 124.0 -2.492561609381203 1
gene  2 5 35 -11.212164374103319 0 125.0 -11.212164374103319 1
gene  2 6 35 -4.540340323394917 0 126.0 -4.540340323394917 1
gene  2 7 35 0.7610555273686155 0 127.0 0.7610555273686155 1
gene  2 8 35 -1.828876604653983 0 128.0 -1.828876604653983 1
gene  2 9 35 -0.28649571795737816 0 129.0 -0.28649571795737816 1
gene  2 10 35 -1.7622976016941365 0 130.0 -1.7622976016941365 1
gene  2 11 35 -2.374155267844205 0 131.0 -2.374155267844205 1
gene  2 12 35 -0.15614487150256617 0 132.0 -0.15614487150256617 1
gene  2 13 35 1.4975393690137961 0 133.0 1.4975393690137961 1
gene  2 14 35 0.09812916917136594 0 134.0 0.09812916917136594 1
gene  1 15 35 -0.11178353118788742 0 135.0 -0.11178353118788742 1
gene  2 16 35 3.043814157540606 0 136.0 3.043814157540606 1
gene  2 17 35 9.038092471578862 0 137.0 9.038092471578862 1
gene  2 18 35 8.896193303215249 0 138.0 8.896193303215249 1
gene  2 19 35 1.3742821559470346 0 139.0 1.3742821559470346 1
gene  2 20 35 7.2306727184286395 0 140.0 7.2306727184286395 1
gene  2 21 35 -8.316447531965935 0 141.0 -8.316447531965935 1
gene  2 22 35 1.6826626235653126 0 142.0 1.6826626235653126 1
gene  2 23 35 3.4376423871481365 0 143.0 3.4376423871481365 1
gene  2 24 35 -2.520722925884132 0 144.0 -2.520722925884132 1
gene  2 25 35 0.7656427509538172 0 145.0 0.7656427509538172 1
gene  2 26 35 1.3923071619507978 0 146.0 1.3923071619507978 1
gene  2 27 35 -8.136818845506847 0 147.0 -8.136818845506847 1
gene  2 28 35 -2.516648944344662 0 148.0 -2.516648944344662 1
gene  2 29 35 12.688570624310229 0 149.0 12.688570624310229 1
gene  2 30 35 -3.5868852060822256 0 150.0 -3.5868852060822256 1
gene  2 1 36 -4.891268200491111 0 151.0 -4.891268200491111 1
gene  2 2 36 3.7732941654155474 0 152.0 3.7732941654155474 1
gene  2 3 36 -4.849477669179671 0 153.0 -4.849477669179671 1
gene  2 4 36 1.7428677560594807 0 154.0 1.7428677560594807 1
gene  2 5 36 1.5262946479498998 0 155.0 1.5262946479498998 1
gene  2 6 36 -2.455559862868837 0 156.0 -2.455559862868837 1
gene  2 7 36 3.071400422692796 0 157.0 3.071400422692796 1
gene  2 8 36 4.180706116642625 0 158.0 4.180706116642625 1
gene  2 9 36 -1.3399281188794636 0 159.0 -1.3399281188794636 1
gene  2 10 36 -0.9982999766279685 0 160.0 -0.9982999766279685 1
gene  2 11 36 0.7494051823535169 0 161.0 0.7494051823535169 1
gene  2 12 36 1.598255224157346 0 162.0 1.598255224157346 1
gene  2 13 36 6.888424826931709 0 163.0 6.888424826931709 1
gene  2 14 36 -1.3963528050657215 0 164.0 -1.3963528050657215 1
gene  2 15 36 2.666806018318259 0 165.0 2.666806018318259 1
gene  2 16 36 2.247598107900201 0 166.0 2.247598107900201 1
gene  2 17 36 0.3051186543691106 0 167.0 0.3051186543691106 1
gene  2 18 36 -1.1434309825234388 0 168.0 -1.1434309825234388 1
gene  2 19 36 1.6785276581889346 0 169.0 1.6785276581889346 1
gene  2 20 36 1.2746783102804813 0 170.0 1.2746783102804813 1
gene  2 21 36 1.3620375471559172 0 171.0 1.3620375471559172 1
gene  2 22 36 -2.162693696043612 0 172.0 -2.162693696043612 1
gene  2 23 36 0.7612715733275371 0 173.0 0.7612715733275371 1
gene  2 24 36 -1.63712996774734 0 174.0 -1.63712996774734 1
gene  2 25 36 0.33133810523126034 0 175.0 0.33133810523126034 1
gene  2 26 36 -2.543414416041859 0 176.0 -2.543414416041859 1
gene  2 27 36 1.1788841735015199 0 177.0 1.1788841735015199 1
gene  2 28 36 -2.1091711412433183 0 178.0 -2.1091711412433183 1
gene  2 29 36 -1.783471853009238 0 179.0 -1.783471853009238 1
gene  2 30 36 2.3979959707705096 0 180.0 2.3979959707705096 1
gene  2 13 38 1.3246354675718788 0 183.0 1.3246354675718788 1
gene  2 38 34 -4.221015017099726 0 184.0 -4.221015017099726 1
gene  1 16 38 -1.9548885592932426 0 192.0 -1.9548885592932426 1
gene  2 10 44 2.887504142883298 0 217.0 2.887504142883298 1
gene  2 44 34 1.0404557484897115 0 218.0 1.0404557484897115 1
gene  2 20 38 0.8770052016234653 0 222.0 0.8770052016234653 1
gene  2 6 57 1.892883400214036 0 266.0 1.892883400214036 1
gene  2 57 33 0.2772268689146926 0 267.0 0.2772268689146926 1
gene  2 3 38 1.1028438858528715 0 312.0 1.1028438858528715 1
gene  2 8 38 15.198347427823677 0 322.0 15.198347427823677 1
genomeend 5
genomestart  6
trait 1 0.1 0.0 0.0 0.0 0.0 0.0 0.0 0.0 
trait 2 0.6682038637780096 0.0 0.0 0.0 0.0 0.0 0.0 0.0 
node 1 1 1 3
node 2 1 1 1
node 3 1 1 1
node 4 1 1 1
node 5 1 1 1
node 6 1 1 1
node 7 1 1 1
node 8 1 1 1
node 9 1 1 1
node 10 1 1 1
node 11 1 1 1
node 12 1 1 1
node 13 1 1 1
node 14 2 1 1
node 15 1 1 1
node 16 1 1 1
node 17 1 1 1
node 18 1 1 1
node 19 1 1 1
node 20 1 1 1
node 21 1 1 1
node 22 1 1 1
node 23 1 1 1
node 24 1 1 1
node 25 1 1 1
node 26 1 1 1
node 27 1 1 1
node 28 2 1 1
node 29 1 1 1
node 30 1 1 1
node 31 1 0 2
node 32 1 0 2
node 33 1 0 2
node 34 1 0 2
node 35 1 0 2
node 36 1 0 2
node 38 1 0 0
node 44 1 0 0
node 57 1 0 0
gene  1 1 31 2.0998798812419643 0 1.0 2.0998798812419643 1
gene  2 2 31 2.2266187749589834 0 2.0 2.2266187749589834 1
gene  2 3 31 -4.118607065414557 0 3.0 -4.118607065414557 1
gene  2 4 31 0.2648962256831032 0 4.0 0.2648962256831032 1
gene  2 5 31 1.2795727356955124 0 5.0 1.2795727356955124 1
gene  2 6 31 0.7980056363207302 0 6.0 0.7980056363207302 1
gene  2 7 31 2.0224749423432113 0 7.0 2.0224749423432113 1
gene  2 8 31 9.619037494508762 0 8.0 9.619037494508762 1
gene  2 9 31 -1.476727413573884 0 9.0 -1.476727413573884 1
gene  2 10 31 2.448200994536407 0 10.0 2.448200994536407 1
gene  2 11 31 -1.1643273536596253 0 11.0 -1.1643273536596253 1
gene  2 12 31 5.989143633631991 0 12.0 5.989143633631991 1
gene  2 13 31 -1.6612575551664062 0 13.0 -1.6612575551664062 1
gene  2 14 31 -2.1672859590609126 0 14.0 -2.1672859590609126 1
gene  2 15 31 -1.7250611809778504 0 15.0 -1.7250611809778504 1
gene  2 16 31 -0.1097917384661129 0 16.0 -0.1097917384661129 1
gene  2 17 31 -1.079751080489759 0 17.0 -1.079751080489759 1
gene  2 18 31 0.02128715627571509 0 18.0 0.02128715627571509 1
gene  2 19 31 -0.5131022963595199 0 19.0 -0.5131022963595199 1
gene  2 20 31 -0.7205232603350877 0 20.0 -0.7205232603350877 1
gene  2 21 31 4.748772647098642 0 21.0 4.748772647098642 1
gene  2 22 31 1.4195888617851635 0 22.0 1.4195888617851635 1
gene  2 23 31 1.2992476641509056 0 23.0 1.2992476641509056 1
gene  2 24 31 4.448452210771777 0 24.0 4.448452210771777 1
gene  2 25 31 0.6397213246156954 0 25.0 0.6397213246156954 1
gene  2 26 31 -2.586899261751422 0 26.0 -2.586899261751422 1
gene  2 27 31 0.03211354709711067 0 27.0 0.03211354709711067 1
gene  2 28 31 4.790704143970109 0 28.0 4.790704143970109 1
gene  2 29 31 0.48581107784302247 0 29.0 0.48581107784302247 1
gene  2 30 31 0.7476051137985193 0 30.0 0.7476051137985193 1
gene  2 1 32 8.82009743338041 0 31.0 8.82009743338041 1
gene  2 2 32 2.0168748020100784 0 32.0 2.0168748020100784 1
gene  2 3 32 -1.831630957144606 0 33.0 -1.831630957144606 1
gene  2 4 32 4.1312042216461 0 34.0 4.1312042216461 1
gene  2 5 32 -5.954547887725694 0 35.0 -5.954547887725694 1
gene  2 6 32 -2.7274899102354464 0 36.0 -2.7274899102354464 1
gene  2 7 32 -2.302649428683702 0 37.0 -2.302649428683702 1
gene  2 8 32 1.8314291513750813 0 38.0 1.8314291513750813 1
gene  2 9 32 -0.8133628187090935 0 39.0 -0.8133628187090935 1
gene  2 10 32 6.71227781531453 0 40.0 6.71227781531453 1
gene  2 11 32 1.8570343935647635 0 41.0 1.8570343935647635 1
gene  2 12 32 3.6202188638108286 0 42.0 3.6202188638108286 1
gene  2 13 32 2.8144295964706982 0 43.0 2.8144295964706982 1
gene  2 14 32 -0.38527480211266196 0 44.0 -0.38527480211266196 1
gene  2 15 32 -1.546857288485593 0 45.0 -1.546857288485593 1
gene  2 16 32 -1.761790298980646 0 46.0 -1.761790298980646 1
gene  2 17 32 0.9930258058976112 0 47.0 0.9930258058976112 1
gene  2 18 32 -2.4876486410650758 0 48.0 -2.4876486410650758 1
gene  2 19 32 -1.5133994934966872 0 49.0 -1.5133994934966872 1
gene  2 20 32 4.819733330556977 0 50.0 4.819733330556977 1
gene  2 21 32 -7.491081800553327 0 51.0 -7.491081800553327 1
gene  2 22 32 -3.3506652592401727 0 52.0 -3.3506652592401727 1
gene  2 23 32 6.147766095794954 0 53.0 6.147766095794954 1
gene  2 24 32 0.5260888291932417 0 54.0 0.5260888291932417 1
gene  2 25 32 1.1984657860266745 0 55.0 1.1984657860266745 1
gene  2 26 32 0.07833001748853674 0 56.0 0.07833001748853674 1
gene  2 27 32 -0.28171757809471587 0 57.0 -0.28171757809471587 1
gene  2 28 32 0.1171860823803259 0 58.0 0.1171860823803259 1
gene  2 29 32 2.2322849604574078 0 59.0 2.2322849604574078 1
gene  2 30 32 -3.2296880834629667 0 60.0 -3.2296880834629667 1
gene  2 1 33 2.4372768903913435 0 61.0 2.4372768903913435 1
gene  2 2 33 -3.9036289073060146 0 62.0 -3.9036289073060146 1
gene  2 3 33 -1.425875286042256 0 63.0 -1.425875286042256 1
gene  2 4 33 -5.834101625802593 0 64.0 -5.834101625802593 1
gene  2 5 33 0.4694789093877724 0 65.0 0.4694789093877724 1
gene  2 6 33 -6.676987149836763 0 66.0 -6.676987149836763 0
gene  2 7 33 1.2296808751390773 0 67.0 1.2296808751390773 1
gene  2 8 33 1.4332353938672282 0 68.0 1.4332353938672282 1
gene  2 9 33 0.7880286585230687 0 69.0 0.7880286585230687 1
gene  2 10 33 1.672688908439249 0 70.0 1.672688908439249 1
gene  2 11 33 2.5371401714715076 0 71.0 2.5371401714715076 1
gene  2 12 33 13.164698322042298 0 72.0 13.164698322042298 1
gene  2 13 33 13.525477069260456 0 73.0 13.525477069260456 1
gene  2 14 33 0.7338864129270071 0 74.0 0.7338864129270071 1
gene  2 15 33 -0.35084086945947723 0 75.0 -0.35084086945947723 1
gene  2 16 33 1.1398434421770642 0 76.0 1.1398434421770642 1
gene  2 17 33 -6.948265323213878 0 77.0 -6.948265323213878 1
gene  2 18 33 -2.505636719528882 0 78.0 -2.505636719528882 1
gene  2 19 33 1.0243300583969341 0 79.0 1.0243300583969341 1
gene  2 20 33 -0.04169416843537421 0 80.0 -0.04169416843537421 1
gene  2 21 33 1.5591184235316242 0 81.0 1.5591184235316242 1
gene  2 22 33 3.547954240099833 0 82.0 3.547954240099833 1
gene  2 23 33 -1.2758952114417366 0 83.0 -1.2758952114417366 1
gene  2 24 33 3.1226538654993528 0 84.0 3.1226538654993528 1
gene  2 25 33 2.9260525512628304 0 85.0 2.9260525512628304 1
gene  2 26 33 -2.32240769094961 0 86.0 -2.32240769094961 1
gene  2 27 33 -0.7968032515517431 0 87.0 -0.7968032515517431 1
gene  2 28 33 -2.6015652057359664 0 88.0 -2.6015652057359664 1
gene  2 29 33 1.7584320644552554 0 89.0 1.7584320644552554 1
gene  2 30 33 0.8508383979491561 0 90.0 0.8508383979491561 1
gene  2 1 34 -1.2379734428162392 0 91.0 -1.2379734428162392 1
gene  2 2 34 1.2352414201168596 0 92.0 1.2352414201168596 1
gene  2 3 34 -13.855073330040565 0 93.0 -13.855073330040565 1
gene  2 4 34 5.188361692810748 0 94.0 5.188361692810748 1
gene  2 5 34 -1.76384227089271 0 95.0 -1.76384227089271 1
gene  2 6 34 -3.40506223442617 0 96.0 -3.40506223442617 1
gene  2 7 34 2.358884251349379 0 97.0 2.358884251349379 1
gene  2 8 34 -0.03910509233892273 0 98.0 -0.03910509233892273 1
gene  2 9 34 0.16904617814219286 0 99.0 0.16904617814219286 1
gene  2 10 34 -0.359921488743302 0 100.0 -0.359921488743302 1
gene  2 11 34 6.8589169947042645 0 101.0 6.8589169947042645 1
gene  2 12 34 -0.38396211160861693 0 102.0 -0.38396211160861693 1
gene  2 13 34 4.145179459450528 0 103.0 4.145179459450528 1
gene  2 14 34 8.061318204030052 0 104.0 8.061318204030052 1
gene  2 15 34 6.143738666232691 0 105.0 6.143738666232691 1
gene  2 16 34 -0.9385343382792488 0 106.0 -0.9385343382792488 1
gene  2 17 34 0.7347717888941607 0 107.0 0.7347717888941607 1
gene  2 18 34 0.5163674547823969 0 108.0 0.5163674547823969 1
gene  2 19 34 0.6854675913691819 0 109.0 0.6854675913691819 1
gene  2 20 34 1.0363788002709553 0 110.0 1.0363788002709553 1
gene  2 21 34 -0.017501114270207285 0 111.0 -0.017501114270207285 1
gene  2 22 34 -2.4922503275160475 0 112.0 -2.4922503275160475 1
gene  2 23 34 -2.2560796690178795 0 113.0 -2.2560796690178795 1
gene  2 24 34 2.601318406913781 0 114.0 2.601318406913781 1
gene  2 25 34 0.05999173351342235 0 115.0 0.05999173351342235 1
gene  2 26 34 3.4046009367752945 0 116.0 3.4046009367752945 1
gene  2 27 34 -2.3391139326383352 0 117.0 -2.3391139326383352 1
gene  2 28 34 2.460216167703379 0 118.0 2.460216167703379 1
gene  2 29 34 -0.9828677266395915 0 119.0 -0.9828677266395915 1
gene  2 30 34 3.9601393179085784 0 120.0 3.9601393179085784 1
gene  2 1 35 -0.6968643518290476 0 121.0 -0.6968643518290476 1
gene  2 2 35 -0.5942248091294633 0 122.0 -0.5942248091294633 1
gene  2 3 35 -0.006883918549762225 0 123.0 -0.006883918549762225 1
gene  2 4 35 -0.25198711160758624 0 124.0 -0.25198711160758624 1
gene  2 5 35 -11.992155644302894 0 125.0 -11.992155644302894 1
gene  2 6 35 -5.9665476643283695 0 126.0 -5.9665476643283695 1
gene  2 7 35 -0.6095750553152778 0 127.0 -0.6095750553152778 1
gene  2 8 35 0.03710495168343708 0 128.0 0.03710495168343708 1
gene  2 9 35 1.4981744326707185 0 129.0 1.4981744326707185 1
gene  2 10 35 -2.07042705078664 0 130.0 -2.07042705078664 1
gene  2 11 35 -4.593267448255267 0 131.0 -4.593267448255267 1
gene  2 12 35 0.4827674891186049 0 132.0 0.4827674891186049 1
gene  2 13 35 0.3289101147616544 0 133.0 0.3289101147616544 1
gene  2 14 35 1.2270376934706664 0 134.0 1.2270376934706664 1
gene  1 15 35 2.4710639971710364 0 135.0 2.4710639971710364 1
gene  2 16 35 1.5454592304452661 0 136.0 1.5454592304452661 1
gene  2 17 35 7.543584614432735 0 137.0 7.543584614432735 1
gene  2 18 35 0.2816125265753444 0 138.0 0.2816125265753444 1
gene  2 19 35 0.6458785707401846 0 139.0 0.6458785707401846 1
gene  2 20 35 3.2170303280360133 0 140.0 3.2170303280360133 1
gene  2 21 35 -5.086645213524143 0 141.0 -5.086645213524143 1
gene  2 22 35 1.62135062208578 0 142.0 1.62135062208578 1
gene  2 23 35 0.25872830448545936 0 143.0 0.25872830448545936 1
gene  2 24 35 -1.7797772147244295 0 144.0 -1.7797772147244295 1
gene  2 25 35 -1.8987831062320035 0 145.0 -1.8987831062320035 1
gene  2 26 35 2.749760084712973 0 146.0 2.749760084712973 1
gene  2 27 35 -0.611590155694208 0 147.0 -0.611590155694208 1
gene  2 28 35 -4.2923893158231445 0 148.0 -4.2923893158231445 1
gene  2 29 35 14.990691690006125 0 149.0 14.990691690006125 1
gene  2 30 35 -0.7952181982251467 0 150.0 -0.7952181982251467 1
gene  2 1 36 -1.9511021377353996 0 151.0 -1.9511021377353996 1
gene  2 2 36 5.403881151585302 0 152.0 5.403881151585302 1
gene  2 3 36 -3.2114929813351565 0 153.0 -3.2114929813351565 1
gene  2 4 36 2.390616600753261 0 154.0 2.390616600753261 1
gene  2 5 36 0.4483564487823055 0 155.0 0.4483564487823055 1
gene  2 6 36 0.707331934906301 0 156.0 0.707331934906301 1
gene  2 7 36 2.80114883246329 0 157.0 2.80114883246329 1
gene  2 8 36 4.940605931609362 0 158.0 4.940605931609362 1
gene  2 9 36 -0.0927376304513674 0 159.0 -0.0927376304513674 1
gene  2 10 36 -0.6709130449446016 0 160.0 -0.6709130449446016 1
gene  2 11 36 1.8533932366565837 0 161.0 1.8533932366565837 1
gene  2 12 36 4.739015248333658 0 162.0 4.739015248333658 1
gene  2 13 36 5.608930354463846 0 163.0 5.608930354463846 1
gene  2 14 36 -2.625600260674362 0 164.0 -2.625600260674362 1
gene  2 15 36 -0.2559921632349995 0 165.0 -0.2559921632349995 1
gene  2 16 36 0.8032454009614522 0 166.0 0.8032454009614522 1
gene  2 17 36 1.9763232256093757 0 167.0 1.9763232256093757 1
gene  2 18 36 4.920349003964587 0 168.0 4.920349003964587 1
gene  2 19 36 -1.114530522084649 0 169.0 -1.114530522084649 1
gene  2 20 36 0.9773040874122324 0 170.0 0.9773040874122324 1
gene  2 21 36 1.381715008279428 0 171.0 1.381715008279428 1
gene  2 22 36 -1.8420205350626009 0 172.0 -1.8420205350626009 1
gene  2 23 36 -1.116284735959983 0 173.0 -1.116284735959983 1
gene  2 24 36 -0.07939008074329168 0 174.0 -0.07939008074329168 1
gene  2 25 36 -0.876966244799478 0 175.0 -0.876966244799478 1
gene  2 26 36 0.5090831005940488 0 176.0 0.5090831005940488 1
gene  2 27 36 3.1187588137989772 0 177.0 3.1187588137989772 1
gene  2 28 36 0.9229294778800226 0 178.0 0.9229294778800226 1
gene  2 29 36 -1.6588116618345634 0 179.0 -1.6588116618345634 1
gene  2 30 36 -0.07974804772444233 0 180.0 -0.07974804772444233 1
gene  2 13 38 -1.0661175539461814 0 183.0 -1.0661175539461814 1
gene  2 38 34 -1.9081050573185618 0 184.0 -1.9081050573185618 1
gene  1 16 38 0.08649415056974541 0 192.0 0.08649415056974541 1
gene  2 10 44 1.2148648474817634 0 217.0 1.2148648474817634 1
gene  2 44 34 3.101554453306127 0 218.0 3.101554453306127 1
gene  2 20 38 0.8154322422869493 0 222.0 0.8154322422869493 1
gene  2 6 57 2.930794827377438 0 266.0 2.930794827377438 1
gene  2 57 33 -0.29059620003178654 0 267.0 -0.29059620003178654 1
gene  2 3 38 1.0202834028535688 0 312.0 1.0202834028535688 1
gene  2 8 38 13.238155388103634 0 322.0 13.238155388103634 1
genomeend 6
genomestart  7
trait 1 0.1 0.0 0.0 0.0 0.0 0.0 0.0 0.0 
trait 2 0.3816509176155668 0.2360648924209494 0.0 0.0 0.0 0.0 0.503180056317187 0.0 
node 1 1 1 3
node 2 1 1 1
node 3 1 1 1
node 4 1 1 1
node 5 1 1 1
node 6 1 1 1
node 7 1 1 1
node 8 1 1 1
node 9 1 1 1
node 10 1 1 1
node 11 1 1 1
node 12 1 1 1
node 13 1 1 1
node 14 1 1 1
node 15 1 1 1
node 16 1 1 1
node 17 1 1 1
node 18 1 1 1
node 19 1 1 1
node 20 1 1 1
node 21 1 1 1
node 22 1 1 1
node 23 1 1 1
node 24 1 1 1
node 25 1 1 1
node 26 1 1 1
node 27 1 1 1
node 28 2 1 1
node 29 1 1 1
node 30 1 1 1
node 31 1 0 2
node 32 1 0 2
node 33 1 0 2
node 34 1 0 2
node 35 1 0 2
node 36 1 0 2
node 38 1 0 0
node 44 1 0 0
node 57 1 0 0
gene  1 1 31 -6.465068411603045 0 1.0 -6.465068411603045 1
gene  2 2 31 -3.7514444554879036 0 2.0 -3.7514444554879036 1
gene  2 3 31 -6.123337730017971 0 3.0 -6.123337730017971 1
gene  2 4 31 -2.7922199619305976 0 4.0 -2.7922199619305976 1
gene  2 5 31 4.726421227101748 0 5.0 4.726421227101748 1
gene  2 6 31 1.2748432420059346 0 6.0 1.2748432420059346 1
gene  2 7 31 -4.111180581321633 0 7.0 -4.111180581321633 1
gene  2 8 31 6.680728130384239 0 8.0 6.680728130384239 1
gene  2 9 31 -1.1146651666541594 0 9.0 -1.1146651666541594 1
gene  2 10 31 2.677119934223984 0 10.0 2.677119934223984 1
gene  2 11 31 4.037582323675342 0 11.0 4.037582323675342 1
gene  2 12 31 10.571140475012191 0 12.0 10.571140475012191 1
gene  2 13 31 1.2296077809041703 0 13.0 1.2296077809041703 1
gene  2 14 31 -1.6101006404830753 0 14.0 -1.6101006404830753 1
gene  2 15 31 2.99827755439454 0 15.0 2.99827755439454 1
gene  2 16 31 -3.4029721447846297 0 16.0 -3.4029721447846297 1
gene  2 17 31 -5.914118731392496 0 17.0 -5.914118731392496 1
gene  2 18 31 -1.9015159322329058 0 18.0 -1.9015159322329058 1
gene  2 19 31 -0.018368802969598974 0 19.0 -0.018368802969598974 1
gene  2 20 31 -0.801510807997319 0 20.0 -0.801510807997319 1
gene  2 21 31 1.1730346251455526 0 21.0 1.1730346251455526 1
gene  2 22 31 -0.9061370227938261 0 22.0 -0.9061370227938261 1
gene  2 23 31 4.103486577382789 0 23.0 4.103486577382789 1
gene  2 24 31 5.131008800163954 0 24.0 5.131008800163954 1
gene  2 25 31 -0.771196067431289 0 25.0 -0.771196067431289 1
gene  2 26 31 -0.7249069109517969 0 26.0 -0.7249069109517969 1
gene  2 27 31 0.5478561479168782 0 27.0 0.5478561479168782 1
gene  2 28 31 4.69192099285028 0 28.0 4.69192099285028 1
gene  2 29 31 0.6436580105282554 0 29.0 0.6436580105282554 1
gene  2 30 31 -3.43998820072363 0 30.0 -3.43998820072363 1
gene  2 1 32 11.262010385246152 0 31.0 11.262010385246152 1
gene  2 2 32 -2.929136551580767 0 32.0 -2.929136551580767 1
gene  2 3 32 -0.5313557519961829 0 33.0 -0.5313557519961829 1
gene  2 4 32 9.060385185362689 0 34.0 9.060385185362689 1
gene  2 5 32 -6.381638861444298 0 35.0 -6.381638861444298 1
gene  2 6 32 2.4952156306395357 0 36.0 2.4952156306395357 1
gene  2 7 32 1.988665748610547 0 37.0 1.988665748610547 1
gene  2 8 32 1.2858959653738529 0 38.0 1.2858959653738529 1
gene  2 9 32 -9.948214161965243 0 39.0 -9.948214161965243 1
gene  2 10 32 3.402343221901568 0 40.0 3.402343221901568 1
gene  2 11 32 4.681881616837849 0 41.0 4.681881616837849 1
gene  2 12 32 1.4879267764089028 0 42.0 1.4879267764089028 1
gene  2 13 32 -4.752888934779241 0 43.0 -4.752888934779241 1
gene  2 14 32 2.994482334118359 0 44.0 2.994482334118359 1
gene  2 15 32 2.573517122852631 0 45.0 2.573517122852631 1
gene  2 16 32 -5.4212471822419825 0 46.0 -5.4212471822419825 1
gene  2 17 32 -3.2959367783326834 0 47.0 -3.2959367783326834 1
gene  2 18 32 -0.653259429308882 0 48.0 -0.653259429308882 1
gene  2 19 32 -7.671247807073902 0 49.0 -7.671247807073902 1
gene  2 20 32 -0.01527267669479837 0 50.0 -0.01527267669479837 1
gene  2 21 32 -3.129701582475641 0 51.0 -3.129701582475641 1
gene  2 22 32 -2.5168780672459454 0 52.0 -2.5168780672459454 1
gene  2 23 32 4.37543577152587 0 53.0 4.37543577152587 1
gene  2 24 32 0.8983110179709126 0 54.0 0.8983110179709126 1
gene  2 25 32 -4.300103071202747 0 55.0 -4.300103071202747 1
gene  2 26 32 0.6907223414791712 0 56.0 0.6907223414791712 1
gene  2 27 32 -0.24757236873555288 0 57.0 -0.24757236873555288 1
gene  2 28 32 -1.0761149197026803 0 58.0 -1.0761149197026803 1
gene  2 29 32 -2.395200836936772 0 59.0 -2.395200836936772 1
gene  2 30 32 0.4146256380277926 0 60.0 0.4146256380277926 1
gene  2 1 33 2.502307295498937 0 61.0 2.502307295498937 1
gene  2 2 33 0.23561534313554855 0 62.0 0.23561534313554855 1
gene  2 3 33 -2.4418064167453046 0 63.0 -2.4418064167453046 1
gene  2 4 33 -6.917792577748993 0 64.0 -6.917792577748993 1
gene  2 5 33 -4.30169282157748 0 65.0 -4.30169282157748 1
gene  2 6 33 -5.971964821894712 0 66.0 -5.971964821894712 0
gene  2 7 33 4.2909730203823475 0 67.0 4.2909730203823475 1
gene  2 8 33 -0.7894763451774983 0 68.0 -0.7894763451774983 1
gene  2 9 33 -6.224209407521496 0 69.0 -6.224209407521496 1
gene  2 10 33 4.777429146095129 0 70.0 4.777429146095129 1
gene  2 11 33 5.352364080627296 0 71.0 5.352364080627296 1
gene  1 12 33 8.335354662636139 0 72.0 8.335354662636139 1
gene  2 13 33 14.618963978349353 0 73.0 14.618963978349353 1
gene  2 14 33 1.735809798995733 0 74.0 1.735809798995733 1
gene  2 15 33 -9.221493489381027 0 75.0 -9.221493489381027 1
gene  2 16 33 -2.7983057951995565 0 76.0 -2.7983057951995565 1
gene  2 17 33 -10.753320442747247 0 77.0 -10.753320442747247 1
gene  2 18 33 -2.4733506975524593 0 78.0 -2.4733506975524593 1
gene  2 19 33 6.753744172534033 0 79.0 6.753744172534033 1
gene  2 20 33 1.8038662755611838 0 80.0 1.8038662755611838 1
gene  2 21 33 4.304915452553503 0 81.0 4.304915452553503 1
gene  2 22 33 3.6920027749878743 0 82.0 3.6920027749878743 1
gene  2 23 33 1.1971886515350203 0 83.0 1.1971886515350203 1
gene  2 24 33 2.596870394407026 0 84.0 2.596870394407026 1
gene  2 25 33 1.8804164478764485 0 85.0 1.8804164478764485 1
gene  2 26 33 2.5448789454428944 0 86.0 2.5448789454428944 1
gene  2 27 33 -1.5051221892690818 0 87.0 -1.5051221892690818 1
gene  2 28 33 -2.7289036727361067 0 88.0 -2.7289036727361067 1
gene  2 29 33 0.6433466607752485 0 89.0 0.6433466607752485 1
gene  2 30 33 -4.2288985713091645 0 90.0 -4.2288985713091645 1
gene  2 1 34 -5.839268596150784 0 91.0 -5.839268596150784 1
gene  2 2 34 0.4161816835378591 0 92.0 0.4161816835378591 1
gene  2 3 34 -15.129900233137136 0 93.0 -15.129900233137136 1
gene  2 4 34 4.026655028016537 0 94.0 4.026655028016537 1
gene  2 5 34 -6.1867440794081485 0 95.0 -6.1867440794081485 1
gene  2 6 34 -3.0706379635244745 0 96.0 -3.0706379635244745 1
gene  2 7 34 2.1212721253177187 0 97.0 2.1212721253177187 1
gene  2 8 34 -1.3329303691623364 0 98.0 -1.3329303691623364 1
gene  2 9 34 3.5580837361489457 0 99.0 3.5580837361489457 1
gene  2 10 34 -0.9265084940636883 0 100.0 -0.9265084940636883 1
gene  2 11 34 2.0521527906567254 0 101.0 2.0521527906567254 1
gene  2 12 34 0.4625674336564922 0 102.0 0.4625674336564922 1
gene  2 13 34 6.942822263599421 0 103.0 6.942822263599421 1
gene  2 14 34 4.178740986341403 0 104.0 4.178740986341403 1
gene  2 15 34 12.582577194686216 0 105.0 12.582577194686216 1
gene  2 16 34 -1.6532768795189154 0 106.0 -1.6532768795189154 1
gene  2 17 34 -3.878900516816318 0 107.0 -3.878900516816318 1
gene  2 18 34 1.464800762748145 0 108.0 1.464800762748145 1
gene  2 19 34 -0.11963593982387866 0 109.0 -0.11963593982387866 1
gene  2 20 34 -5.394648514248648 0 110.0 -5.394648514248648 1
gene  2 21 34 -0.4518127272106316 0 111.0 -0.4518127272106316 1
gene  2 22 34 0.2936086918718743 0 112.0 0.2936086918718743 1
gene  2 23 34 0.04190734317067746 0 113.0 0.04190734317067746 1
gene  2 24 34 4.505243627837383 0 114.0 4.505243627837383 1
gene  2 25 34 -2.0790358371193816 0 115.0 -2.0790358371193816 1
gene  2 26 34 6.58973970883288 0 116.0 6.58973970883288 1
gene  2 27 34 -1.9784879481939721 0 117.0 -1.9784879481939721 1
gene  2 28 34 -9.83243373428038 0 118.0 -9.83243373428038 1
gene  2 29 34 -12.142604244039449 0 119.0 -12.142604244039449 1
gene  2 30 34 7.230705103834864 0 120.0 7.230705103834864 1
gene  2 1 35 13.238216268553682 0 121.0 13.238216268553682 1
gene  2 2 35 -2.3224682128229235 0 122.0 -2.3224682128229235 1
gene  2 3 35 7.098939496173291 0 123.0 7.098939496173291 1
gene  2 4 35 -0.4299369689196886 0 124.0 -0.4299369689196886 1
gene  2 5 35 -14.992021334350913 0 125.0 -14.992021334350913 1
gene  2 6 35 -3.133490497103378 0 126.0 -3.133490497103378 1
gene  2 7 35 -1.7845319064344998 0 127.0 -1.7845319064344998 1
gene  2 8 35 -3.8257499238213466 0 128.0 -3.8257499238213466 1
gene  2 9 35 -5.9305812064806585 0 129.0 -5.9305812064806585 1
gene  2 10 35 -2.255295996586979 0 130.0 -2.255295996586979 1
gene  2 11 35 -5.974960843597949 0 131.0 -5.974960843597949 1
gene  2 12 35 2.6260253826513473 0 132.0 2.6260253826513473 1
gene  2 13 35 -5.063114887299192 0 133.0 -5.063114887299192 1
gene  2 14 35 5.809026886803359 0 134.0 5.809026886803359 1
gene  1 15 35 1.0467865600848951 0 135.0 1.0467865600848951 1
gene  2 16 35 5.32635796669746 0 136.0 5.32635796669746 1
gene  2 17 35 7.6970533288841505 0 137.0 7.6970533288841505 1
gene  2 18 35 7.665277750291413 0 138.0 7.665277750291413 1
gene  2 19 35 2.4911021045550417 0 139.0 2.4911021045550417 1
gene  2 20 35 9.398038560811722 0 140.0 9.398038560811722 1
gene  2 21 35 -10.87753722298187 0 141.0 -10.87753722298187 1
gene  2 22 35 -1.1807216656454402 0 142.0 -1.1807216656454402 1
gene  2 23 35 0.632227925138159 0 143.0 0.632227925138159 1
gene  2 24 35 -1.8139169722793316 0 144.0 -1.8139169722793316 1
gene  2 25 35 5.910442920732157 0 145.0 5.910442920732157 1
gene  2 26 35 -5.0269621919765 0 146.0 -5.0269621919765 1
gene  2 27 35 -10.971697142415064 0 147.0 -10.971697142415064 1
gene  2 28 35 -3.908702747834902 0 148.0 -3.908702747834902 1
gene  2 29 35 7.4087823780304545 0 149.0 7.4087823780304545 1
gene  2 30 35 5.891070013021258 0 150.0 5.891070013021258 1
gene  2 1 36 -2.58458977638371 0 151.0 -2.58458977638371 1
gene  2 2 36 3.4971875276027005 0 152.0 3.4971875276027005 1
gene  2 3 36 -6.138427619830946 0 153.0 -6.138427619830946 1
gene  2 4 36 1.1913189559707633 0 154.0 1.1913189559707633 1
gene  2 5 36 2.848180823582269 0 155.0 2.848180823582269 1
gene  2 6 36 -0.826399559728831 0 156.0 -0.826399559728831 1
gene  2 7 36 1.6762750624517841 0 157.0 1.6762750624517841 1
gene  2 8 36 4.493283905995109 0 158.0 4.493283905995109 1
gene  2 9 36 1.8199327003594858 0 159.0 1.8199327003594858 1
gene  2 10 36 -0.10503326279509473 0 160.0 -0.10503326279509473 1
gene  2 11 36 2.0107843869223228 0 161.0 2.0107843869223228 1
gene  2 12 36 -1.5648451665789567 0 162.0 -1.5648451665789567 1
gene  2 13 36 6.81119388048492 0 163.0 6.81119388048492 1
gene  2 14 36 -1.4024967592159592 0 164.0 -1.4024967592159592 1
gene  2 15 36 1.1430636440543074 0 165.0 1.1430636440543074 1
gene  2 16 36 -2.7919327334129056 0 166.0 -2.7919327334129056 1
gene  2 17 36 0.18664364015858248 0 167.0 0.18664364015858248 1
gene  2 18 36 3.498601664753372 0 168.0 3.498601664753372 1
gene  2 19 36 -0.1730977903326485 0 169.0 -0.1730977903326485 1
gene  2 20 36 0.26017978698838956 0 170.0 0.26017978698838956 1
gene  2 21 36 1.8315305401948607 0 171.0 1.8315305401948607 1
gene  2 22 36 2.374972615384727 0 172.0 2.374972615384727 1
gene  2 23 36 0.12725877134896535 0 173.0 0.12725877134896535 1
gene  2 24 36 -3.4161954169022075 0 174.0 -3.4161954169022075 1
gene  2 25 36 1.0517824977978523 0 175.0 1.0517824977978523 1
gene  2 26 36 -0.5253614529512105 0 176.0 -0.5253614529512105 1
gene  2 27 36 1.5179565633868175 0 177.0 1.5179565633868175 1
gene  2 28 36 -1.208370013204147 0 178.0 -1.208370013204147 1
gene  2 29 36 -1.7200999324553503 0 179.0 -1.7200999324553503 1
gene  2 30 36 0.46158810407423845 0 180.0 0.46158810407423845 1
gene  2 13 38 -0.6490199619260288 0 183.0 -0.6490199619260288 1
gene  2 38 34 -1.1708609470259843 0 184.0 -1.1708609470259843 1
gene  1 16 38 -1.835297601386854 0 192.0 -1.835297601386854 1
gene  2 10 44 -0.5975760040450515 0 217.0 -0.5975760040450515 1
gene  2 44 34 0.2810995207681922 0 218.0 0.2810995207681922 1
gene  2 20 38 4.661548374081279 0 222.0 4.661548374081279 1
gene  2 6 57 0.050516389508425075 0 266.0 0.050516389508425075 1
gene  2 57 33 2.605608296098892 0 267.0 2.605608296098892 1
gene  2 3 38 -1.775866394953066 0 312.0 -1.775866394953066 1
gene  2 8 38 -1.9975164930579408 0 322.0 -1.9975164930579408 1
gene  2 33 34 -2.484097345405646 0 358.0 -2.484097345405646 1
genomeend 7
genomestart  8
trait 1 0.1 0.0 0.0 0.0 0.0 0.0 0.0 0.0 
trait 2 0.6682038637780096 0.0 0.0 0.0 0.0 0.0 0.0 0.0 
node 1 1 1 3
node 2 1 1 1
node 3 1 1 1
node 4 1 1 1
node 5 1 1 1
node 6 1 1 1
node 7 1 1 1
node 8 1 1 1
node 9 1 1 1
node 10 1 1 1
node 11 1 1 1
