genomestart  0
trait 1 0.1 0.0 0.0 0.0 0.0 0.0 0.0 0.0 
trait 2 0.1 0.0 0.0 0.0 0.0 0.0 0.0 0.0 
node 1 1 1 3
node 2 1 1 1
node 3 1 1 1
node 4 1 1 1
node 5 1 1 1
node 6 1 1 1
node 7 1 1 1
node 8 1 1 1
node 9 1 1 1
node 10 1 1 1
node 11 1 1 1
node 12 1 1 1
node 13 1 1 1
node 14 1 1 1
node 15 1 1 1
node 16 1 1 1
node 17 1 1 1
node 18 1 1 1
node 19 1 1 1
node 20 1 1 1
node 21 1 1 1
node 22 1 1 1
node 23 1 1 1
node 24 1 1 1
node 25 1 1 1
node 26 1 1 1
node 27 1 1 1
node 28 1 1 1
node 29 1 1 1
node 30 1 1 1
node 31 1 0 2
node 32 1 0 2
node 33 1 0 2
node 34 1 0 2
node 35 1 0 2
node 36 1 0 2
node 41 1 0 0
node 76 1 0 0
gene  1 1 31 1.0321666903247648 0 1.0 1.0321666903247648 1
gene  2 2 31 -1.1306215554399426 0 2.0 -1.1306215554399426 1
gene  2 3 31 -0.3844457310749244 0 3.0 -0.3844457310749244 1
gene  2 4 31 -1.793837005206246 0 4.0 -1.793837005206246 1
gene  2 5 31 -1.4955653167912906 0 5.0 -1.4955653167912906 1
gene  2 6 31 -0.5693096175786171 0 6.0 -0.5693096175786171 1
gene  2 7 31 -2.6074070953200588 0 7.0 -2.6074070953200588 1
gene  2 8 31 -2.249337913488286 0 8.0 -2.249337913488286 1
gene  2 9 31 -2.169369401455568 0 9.0 -2.169369401455568 1
gene  2 10 31 2.2428289155879213 0 10.0 2.2428289155879213 1
gene  2 11 31 -0.7530656130081128 0 11.0 -0.7530656130081128 1
gene  2 12 31 -0.1842314144712508 0 12.0 -0.1842314144712508 1
gene  2 13 31 0.08289086400905354 0 13.0 0.08289086400905354 1
gene  2 14 31 1.7097082538805808 0 14.0 1.7097082538805808 1
gene  2 15 31 0.6663329135712464 0 15.0 0.6663329135712464 1
gene  2 16 31 -3.5891670053485827 0 16.0 -3.5891670053485827 1
gene  2 17 31 -3.145409122803335 0 17.0 -3.145409122803335 1
gene  2 18 31 6.817378652882384 0 18.0 6.817378652882384 1
gene  2 19 31 -1.8938001058721512 0 19.0 -1.8938001058721512 1
gene  2 20 31 -0.9417857471318896 0 20.0 -0.9417857471318896 1
gene  2 21 31 4.834480781611763 0 21.0 4.834480781611763 1
gene  2 22 31 -2.774525273424424 0 22.0 -2.774525273424424 1
gene  2 23 31 4.496569074010557 0 23.0 4.496569074010557 1
gene  2 24 31 -0.7936900394459668 0 24.0 -0.7936900394459668 1
gene  2 25 31 2.405502470636877 0 25.0 2.405502470636877 1
gene  2 26 31 -2.2968804161947216 0 26.0 -2.2968804161947216 1
gene  2 27 31 3.032116341925173 0 27.0 3.032116341925173 1
gene  2 28 31 2.41810911922156 0 28.0 2.41810911922156 1
gene  2 29 31 1.846191366643167 0 29.0 1.846191366643167 1
gene  2 30 31 2.322396845851573 0 30.0 2.322396845851573 1
gene  2 1 32 3.737331614793735 0 31.0 3.737331614793735 1
gene  2 2 32 -0.90003724536063 0 32.0 -0.90003724536063 1
gene  2 3 32 -2.0686443011493365 0 33.0 -2.0686443011493365 1
gene  2 4 32 1.76871163978405 0 34.0 1.76871163978405 1
gene  2 5 32 4.774408877293791 0 35.0 4.774408877293791 1
gene  2 6 32 -1.198646678844281 0 36.0 -1.198646678844281 1
gene  2 7 32 -6.806559679043248 0 37.0 -6.806559679043248 1
gene  2 8 32 4.759449973842734 0 38.0 4.759449973842734 1
gene  2 9 32 -4.144927101332546 0 39.0 -4.144927101332546 1
gene  2 10 32 -1.997183046454096 0 40.0 -1.997183046454096 1
gene  2 11 32 0.5630254897041842 0 41.0 0.5630254897041842 1
gene  2 12 32 0.7893927892151362 0 42.0 0.7893927892151362 1
gene  2 13 32 -2.9267105950090455 0 43.0 -2.9267105950090455 1
gene  2 14 32 -2.61405111443484 0 44.0 -2.61405111443484 1
gene  2 15 32 -0.49074304336764185 0 45.0 -0.49074304336764185 1
gene  2 16 32 0.049895788858685286 0 46.0 0.049895788858685286 1
gene  2 17 32 4.600555828833876 0 47.0 4.600555828833876 1
gene  2 18 32 -0.399096271569364 0 48.0 -0.399096271569364 1
gene  2 19 32 -1.4624525271058229 0 49.0 -1.4624525271058229 1
gene  2 20 32 -1.468596124821966 0 50.0 -1.468596124821966 1
gene  2 21 32 -1.8969241473732643 0 51.0 -1.8969241473732643 1
gene  2 22 32 -0.24469702355165612 0 52.0 -0.24469702355165612 1
gene  2 23 32 2.857912092571537 0 53.0 2.857912092571537 1
gene  2 24 32 1.0932344020782183 0 54.0 1.0932344020782183 1
gene  2 25 32 -1.1619820742336584 0 55.0 -1.1619820742336584 1
gene  2 26 32 -4.841509999981131 0 56.0 -4.841509999981131 1
gene  2 27 32 -0.3674090552433683 0 57.0 -0.3674090552433683 1
gene  2 28 32 -0.4659036387821778 0 58.0 -0.4659036387821778 1
gene  2 29 32 -2.111846045732167 0 59.0 -2.111846045732167 1
gene  2 30 32 -0.1545952002076385 0 60.0 -0.1545952002076385 1
gene  2 1 33 -0.5389137908419381 0 61.0 -0.5389137908419381 1
gene  2 2 33 4.423037091692835 0 62.0 4.423037091692835 1
gene  2 3 33 1.4230797271454418 0 63.0 1.4230797271454418 1
gene  2 4 33 -0.8935046597871353 0 64.0 -0.8935046597871353 1
gene  2 5 33 -1.2703894736363692 0 65.0 -1.2703894736363692 1
gene  2 6 33 -0.6065646595048451 0 66.0 -0.6065646595048451 1
gene  2 7 33 -0.24115914889269696 0 67.0 -0.24115914889269696 1
gene  2 8 33 -5.821201460516968 0 68.0 -5.821201460516968 1
gene  2 9 33 2.8655531311135074 0 69.0 2.8655531311135074 1
gene  2 10 33 -6.031006994717679 0 70.0 -6.031006994717679 1
gene  2 11 33 -3.2323472811708784 0 71.0 -3.2323472811708784 1
gene  2 12 33 4.043598363057653 0 72.0 4.043598363057653 1
gene  2 13 33 -5.169486938176061 0 73.0 -5.169486938176061 1
gene  2 14 33 0.09744407886115336 0 74.0 0.09744407886115336 1
gene  2 15 33 -2.982865550074809 0 75.0 -2.982865550074809 1
gene  2 16 33 -0.7403039907753002 0 76.0 -0.7403039907753002 1
gene  2 17 33 0.7474688715412143 0 77.0 0.7474688715412143 1
gene  2 18 33 0.5794131642861489 0 78.0 0.5794131642861489 1
gene  2 19 33 1.3072789372895233 0 79.0 1.3072789372895233 1
gene  2 20 33 0.5811353475827128 0 80.0 0.5811353475827128 1
gene  2 21 33 1.6719540291081543 0 81.0 1.6719540291081543 1
gene  2 22 33 0.563753624925242 0 82.0 0.563753624925242 1
gene  2 23 33 -3.599055346748526 0 83.0 -3.599055346748526 0
gene  2 24 33 -0.7760785691520324 0 84.0 -0.7760785691520324 1
gene  2 25 33 -4.0980445733010695 0 85.0 -4.0980445733010695 0
gene  2 26 33 -0.11986572262328438 0 86.0 -0.11986572262328438 1
gene  2 27 33 -3.66924790837321 0 87.0 -3.66924790837321 1
gene  2 28 33 -4.456157405955568 0 88.0 -4.456157405955568 1
gene  2 29 33 0.23077700079389518 0 89.0 0.23077700079389518 1
gene  2 30 33 -2.6052675882504888 0 90.0 -2.6052675882504888 1
gene  2 1 34 1.3717115090829435 0 91.0 1.3717115090829435 1
gene  2 2 34 -2.256063685234288 0 92.0 -2.256063685234288 1
gene  2 3 34 -0.2999590718045273 0 93.0 -0.2999590718045273 1
gene  2 4 34 1.1437411276911604 0 94.0 1.1437411276911604 1
gene  2 5 34 3.2839077193347315 0 95.0 3.2839077193347315 1
gene  2 6 34 0.19288499665304304 0 96.0 0.19288499665304304 1
gene  2 7 34 2.671246535279006 0 97.0 2.671246535279006 1
gene  2 8 34 -1.3471494138901643 0 98.0 -1.3471494138901643 1
gene  2 9 34 -1.5619274863261043 0 99.0 -1.5619274863261043 1
gene  2 10 34 -6.259423018123725 0 100.0 -6.259423018123725 1
gene  2 11 34 -1.6994195083205215 0 101.0 -1.6994195083205215 1
gene  2 12 34 1.7931561151837125 0 102.0 1.7931561151837125 1
gene  2 13 34 2.653993192383674 0 103.0 2.653993192383674 1
gene  2 14 34 -1.8166468239381262 0 104.0 -1.8166468239381262 1
gene  2 15 34 -5.979453779378527 0 105.0 -5.979453779378527 1
gene  2 16 34 -1.5124062508015257 0 106.0 -1.5124062508015257 1
gene  2 17 34 2.059711102102985 0 107.0 2.059711102102985 1
gene  2 18 34 -0.8526499264881837 0 108.0 -0.8526499264881837 1
gene  2 19 34 -1.3197821646714285 0 109.0 -1.3197821646714285 1
gene  2 20 34 -2.5827362475208338 0 110.0 -2.5827362475208338 1
gene  2 21 34 -0.32226673137864115 0 111.0 -0.32226673137864115 1
gene  2 22 34 -0.7820831407968326 0 112.0 -0.7820831407968326 1
gene  2 23 34 2.7217025415425584 0 113.0 2.7217025415425584 1
gene  2 24 34 -0.11164120948545686 0 114.0 -0.11164120948545686 1
gene  2 25 34 -2.273113899599436 0 115.0 -2.273113899599436 1
gene  2 26 34 0.4530653295502812 0 116.0 0.4530653295502812 1
gene  2 27 34 3.3683791187838925 0 117.0 3.3683791187838925 1
gene  2 28 34 0.6436843921357118 0 118.0 0.6436843921357118 1
gene  2 29 34 -2.654462494447074 0 119.0 -2.654462494447074 1
gene  2 30 34 2.12931440550008 0 120.0 2.12931440550008 1
gene  2 1 35 -0.40296928340703836 0 121.0 -0.40296928340703836 1
gene  2 2 35 3.32533228277839 0 122.0 3.32533228277839 1
gene  2 3 35 7.672852286704337 0 123.0 7.672852286704337 1
gene  2 4 35 1.018008822930592 0 124.0 1.018008822930592 1
gene  2 5 35 0.4479446491936456 0 125.0 0.4479446491936456 1
gene  2 6 35 -1.2568509600616573 0 126.0 -1.2568509600616573 1
gene  2 7 35 0.3618251579287981 0 127.0 0.3618251579287981 1
gene  2 8 35 -0.0753479499274956 0 128.0 -0.0753479499274956 1
gene  2 9 35 -2.9579839809435198 0 129.0 -2.9579839809435198 1
gene  2 10 35 -1.4019961547951856 0 130.0 -1.4019961547951856 1
gene  2 11 35 -0.611244284730948 0 131.0 -0.611244284730948 1
gene  2 12 35 0.2070943026553146 0 132.0 0.2070943026553146 1
gene  2 13 35 5.775826802019367 0 133.0 5.775826802019367 1
gene  2 14 35 4.773769983651496 0 134.0 4.773769983651496 1
gene  2 15 35 -1.9077539507530041 0 135.0 -1.9077539507530041 1
gene  2 16 35 -0.42992912703137953 0 136.0 -0.42992912703137953 1
gene  2 17 35 3.14046240246232 0 137.0 3.14046240246232 1
gene  2 18 35 -1.3787229970219503 0 138.0 -1.3787229970219503 1
gene  2 19 35 0.2381372547617236 0 139.0 0.2381372547617236 1
gene  2 20 35 3.7896086786245005 0 140.0 3.7896086786245005 1
gene  2 21 35 1.7206363021682747 0 141.0 1.7206363021682747 1
gene  2 22 35 -1.4146923970702998 0 142.0 -1.4146923970702998 1
gene  2 23 35 -3.0636413024831435 0 143.0 -3.0636413024831435 1
gene  2 24 35 1.3635349835671566 0 144.0 1.3635349835671566 1
gene  2 25 35 -5.803350561517446 0 145.0 -5.803350561517446 1
gene  2 26 35 4.467264028513364 0 146.0 4.467264028513364 1
gene  2 27 35 1.0574983114812633 0 147.0 1.0574983114812633 1
gene  2 28 35 -0.4512072969901851 0 148.0 -0.4512072969901851 1
gene  2 29 35 1.4692434361524032 0 149.0 1.4692434361524032 1
gene  2 30 35 -1.3125571485859884 0 150.0 -1.3125571485859884 1
gene  2 1 36 2.320469822294152 0 151.0 2.320469822294152 1
gene  2 2 36 4.194110425503347 0 152.0 4.194110425503347 1
gene  2 3 36 -0.45237607130166513 0 153.0 -0.45237607130166513 1
gene  2 4 36 0.24920673933610055 0 154.0 0.24920673933610055 1
gene  2 5 36 0.24188111516962763 0 155.0 0.24188111516962763 1
gene  2 6 36 -1.832503406113804 0 156.0 -1.832503406113804 1
gene  2 7 36 -0.764506047855405 0 157.0 -0.764506047855405 1
gene  2 8 36 2.4068095057738823 0 158.0 2.4068095057738823 1
gene  2 9 36 -0.47851866193346027 0 159.0 -0.47851866193346027 1
gene  2 10 36 -2.2355079730783616 0 160.0 -2.2355079730783616 1
gene  2 11 36 6.864775706350958 0 161.0 6.864775706350958 1
gene  2 12 36 -2.837452043312297 0 162.0 -2.837452043312297 1
gene  2 13 36 -2.6369255104013236 0 163.0 -2.6369255104013236 1
gene  2 14 36 3.1805936997296094 0 164.0 3.1805936997296094 1
gene  2 15 36 2.342267166614023 0 165.0 2.342267166614023 1
gene  2 16 36 -1.2310197129266802 0 166.0 -1.2310197129266802 1
gene  2 17 36 2.053097576498004 0 167.0 2.053097576498004 1
gene  2 18 36 3.9786102839195268 0 168.0 3.9786102839195268 1
gene  2 19 36 -0.2506324719184071 0 169.0 -0.2506324719184071 1
gene  2 20 36 1.2474724914368334 0 170.0 1.2474724914368334 1
gene  2 21 36 -1.1797899830972625 0 171.0 -1.1797899830972625 1
gene  2 22 36 -1.2644127930028755 0 172.0 -1.2644127930028755 1
gene  2 23 36 -2.1418020730857066 0 173.0 -2.1418020730857066 1
gene  2 24 36 4.043205696653308 0 174.0 4.043205696653308 1
gene  2 25 36 0.09371973273287348 0 175.0 0.09371973273287348 1
gene  2 26 36 3.5018179460824537 0 176.0 3.5018179460824537 1
gene  2 27 36 0.20346526887885696 0 177.0 0.20346526887885696 1
gene  2 28 36 -0.8144149110696355 0 178.0 -0.8144149110696355 1
gene  2 29 36 -0.12981094436729096 0 179.0 -0.12981094436729096 1
gene  2 30 36 -0.38725392443304807 0 180.0 -0.38725392443304807 1
gene  2 34 35 1.9120940202460344 0 193.0 1.9120940202460344 1
gene  2 25 41 -1.6456243769426282 0 200.0 -1.6456243769426282 1
gene  2 41 33 4.2148494959529454 0 201.0 4.2148494959529454 1
gene  1 34 31 -6.677325042716208 0 324.0 -6.677325042716208 1
gene  2 24 41 -6.18868134908625 0 328.0 -6.18868134908625 1
gene  2 23 76 0.24892709720935513 0 342.0 0.24892709720935513 1
gene  2 76 33 -3.086186488987985 0 343.0 -3.086186488987985 1
genomeend 0
genomestart  1
trait 1 0.1 0.0 0.0 0.0 0.0 0.0 0.0 0.0 
trait 2 0.1 0.0 0.0 0.0 0.0 0.0 0.0 0.0 
node 1 1 1 3
node 2 1 1 1
node 3 1 1 1
node 4 1 1 1
node 5 1 1 1
node 6 1 1 1
node 7 1 1 1
node 8 1 1 1
node 9 1 1 1
node 10 1 1 1
node 11 1 1 1
node 12 1 1 1
node 13 1 1 1
node 14 1 1 1
node 15 1 1 1
node 16 1 1 1
node 17 1 1 1
node 18 1 1 1
node 19 1 1 1
node 20 1 1 1
node 21 1 1 1
node 22 1 1 1
node 23 1 1 1
node 24 1 1 1
node 25 1 1 1
node 26 1 1 1
node 27 1 1 1
node 28 1 1 1
node 29 1 1 1
node 30 1 1 1
node 31 1 0 2
node 32 1 0 2
node 33 1 0 2
node 34 1 0 2
node 35 1 0 2
node 36 1 0 2
node 41 1 0 0
node 76 1 0 0
gene  1 1 31 -4.470047853071776 0 1.0 -4.470047853071776 1
gene  2 2 31 -1.0029615308352007 0 2.0 -1.0029615308352007 1
gene  2 3 31 -0.3860005362709745 0 3.0 -0.3860005362709745 1
gene  2 4 31 0.18452189616588055 0 4.0 0.18452189616588055 1
gene  2 5 31 1.5915707110046353 0 5.0 1.5915707110046353 1
gene  2 6 31 -2.841714706064459 0 6.0 -2.841714706064459 1
gene  2 7 31 -0.41559895433059957 0 7.0 -0.41559895433059957 1
gene  2 8 31 -1.5546942869605045 0 8.0 -1.5546942869605045 1
gene  2 9 31 -2.2797547461522765 0 9.0 -2.2797547461522765 1
gene  2 10 31 1.0162167197536727 0 10.0 1.0162167197536727 1
gene  2 11 31 -0.759427598841228 0 11.0 -0.759427598841228 1
gene  2 12 31 -0.022560031807967895 0 12.0 -0.022560031807967895 1
gene  2 13 31 -2.167307683278019 0 13.0 -2.167307683278019 1
gene  2 14 31 -1.1944941066557853 0 14.0 -1.1944941066557853 1
gene  2 15 31 -0.2736241056510953 0 15.0 -0.2736241056510953 1
gene  2 16 31 -4.623342375247365 0 16.0 -4.623342375247365 1
gene  2 17 31 -0.21507392975404827 0 17.0 -0.21507392975404827 1
gene  2 18 31 5.560475085739096 0 18.0 5.560475085739096 1
gene  2 19 31 5.204919608402706 0 19.0 5.204919608402706 1
gene  2 20 31 -5.3388688536570506 0 20.0 -5.3388688536570506 1
gene  2 21 31 4.9723944095944645 0 21.0 4.9723944095944645 1
gene  2 22 31 -1.8765194556804896 0 22.0 -1.8765194556804896 1
gene  2 23 31 2.2419827556892975 0 23.0 2.2419827556892975 1
gene  2 24 31 -1.7818499185931995 0 24.0 -1.7818499185931995 1
gene  2 25 31 3.7389768705026416 0 25.0 3.7389768705026416 1
gene  2 26 31 3.8523878950656423 0 26.0 3.8523878950656423 1
gene  2 27 31 2.1832207837740265 0 27.0 2.1832207837740265 1
gene  2 28 31 1.1375776251922596 0 28.0 1.1375776251922596 1
gene  2 29 31 3.689404680152917 0 29.0 3.689404680152917 1
gene  2 30 31 -0.5841434099151834 0 30.0 -0.5841434099151834 1
gene  2 1 32 1.49778451479119 0 31.0 1.49778451479119 1
gene  2 2 32 -2.1830542140364324 0 32.0 -2.1830542140364324 1
gene  2 3 32 -4.0371796683043115 0 33.0 -4.0371796683043115 1
gene  2 4 32 0.49066617485744946 0 34.0 0.49066617485744946 1
gene  2 5 32 2.6929224379964403 0 35.0 2.6929224379964403 1
gene  2 6 32 -0.3937460631304597 0 36.0 -0.3937460631304597 1
gene  2 7 32 -5.3308944576021915 0 37.0 -5.3308944576021915 1
gene  2 8 32 4.980191040515649 0 38.0 4.980191040515649 1
gene  2 9 32 -2.685411508370925 0 39.0 -2.685411508370925 1
gene  2 10 32 -3.037967880408017 0 40.0 -3.037967880408017 1
gene  2 11 32 0.03311076986191336 0 41.0 0.03311076986191336 1
gene  2 12 32 -1.269649511167366 0 42.0 -1.269649511167366 1
gene  2 13 32 -3.703199377106798 0 43.0 -3.703199377106798 1
gene  2 14 32 -3.3281170687207746 0 44.0 -3.3281170687207746 1
gene  2 15 32 -3.962000442086189 0 45.0 -3.962000442086189 1
gene  2 16 32 2.608721388170112 0 46.0 2.608721388170112 1
gene  2 17 32 3.384971669617264 0 47.0 3.384971669617264 1
gene  2 18 32 1.199949127819964 0 48.0 1.199949127819964 1
gene  2 19 32 2.4793380890669408 0 49.0 2.4793380890669408 1
gene  2 20 32 -2.293161737919606 0 50.0 -2.293161737919606 1
gene  2 21 32 -1.9059080351372346 0 51.0 -1.9059080351372346 1
gene  2 22 32 -3.6455670129245794 0 52.0 -3.6455670129245794 1
gene  2 23 32 2.5101144594735523 0 53.0 2.5101144594735523 1
gene  2 24 32 -0.2245306623543577 0 54.0 -0.2245306623543577 1
gene  2 25 32 1.4812517498965136 0 55.0 1.4812517498965136 1
gene  2 26 32 -4.067098286159106 0 56.0 -4.067098286159106 1
gene  2 27 32 0.5611705925586359 0 57.0 0.5611705925586359 1
gene  2 28 32 -4.251147253323696 0 58.0 -4.251147253323696 1
gene  2 29 32 1.9803708230528962 0 59.0 1.9803708230528962 1
gene  2 30 32 -2.5740553678319245 0 60.0 -2.5740553678319245 1
gene  2 1 33 -1.4218217130959387 0 61.0 -1.4218217130959387 1
gene  2 2 33 4.69232299235652 0 62.0 4.69232299235652 1
gene  2 3 33 4.010451405989869 0 63.0 4.010451405989869 1
gene  2 4 33 -2.059230104158254 0 64.0 -2.059230104158254 1
gene  2 5 33 -1.0763891668781944 0 65.0 -1.0763891668781944 1
gene  2 6 33 -1.7269023568667787 0 66.0 -1.7269023568667787 1
gene  2 7 33 1.6285911820048633 0 67.0 1.6285911820048633 1
gene  2 8 33 -7.45748396247345 0 68.0 -7.45748396247345 1
gene  2 9 33 1.8519727537767445 0 69.0 1.8519727537767445 1
gene  2 10 33 -7.946736538880618 0 70.0 -7.946736538880618 1
gene  2 11 33 -1.6827609505199363 0 71.0 -1.6827609505199363 1
gene  2 12 33 0.3514106301207778 0 72.0 0.3514106301207778 1
gene  2 13 33 -4.1590532133562785 0 73.0 -4.1590532133562785 1
gene  2 14 33 0.025986190200146808 0 74.0 0.025986190200146808 1
gene  2 15 33 -0.5209508259785354 0 75.0 -0.5209508259785354 1
gene  2 16 33 1.3683252263346455 0 76.0 1.3683252263346455 1
gene  2 17 33 -1.1819567393963537 0 77.0 -1.1819567393963537 1
gene  2 18 33 1.683619369171505 0 78.0 1.683619369171505 1
gene  2 19 33 2.1928891511850495 0 79.0 2.1928891511850495 1
gene  2 20 33 8.52223512112652 0 80.0 8.52223512112652 1
gene  2 21 33 -0.2579095561923357 0 81.0 -0.2579095561923357 1
gene  2 22 33 -0.6182200861223246 0 82.0 -0.6182200861223246 1
gene  2 23 33 -5.216631258060046 0 83.0 -5.216631258060046 0
gene  2 24 33 -1.1629815752907569 0 84.0 -1.1629815752907569 1
gene  2 25 33 -3.82589619570874 0 85.0 -3.82589619570874 0
gene  2 26 33 0.7375506302667516 0 86.0 0.7375506302667516 1
gene  2 27 33 0.17921087218648157 0 87.0 0.17921087218648157 1
gene  2 28 33 -3.3083253920890083 0 88.0 -3.3083253920890083 1
gene  2 29 33 -3.899304982454349 0 89.0 -3.899304982454349 1
gene  2 30 33 -0.7291112621527991 0 90.0 -0.7291112621527991 1
gene  2 1 34 1.3513544243575342 0 91.0 1.3513544243575342 1
gene  2 2 34 -5.354069718862137 0 92.0 -5.354069718862137 1
gene  2 3 34 -0.5788924050551805 0 93.0 -0.5788924050551805 1
gene  2 4 34 -0.1519676460062811 0 94.0 -0.1519676460062811 1
gene  2 5 34 2.9465435019100155 0 95.0 2.9465435019100155 1
gene  2 6 34 -0.2854916988631726 0 96.0 -0.2854916988631726 1
gene  2 7 34 1.5135828598939076 0 97.0 1.5135828598939076 1
gene  2 8 34 -0.08045275422571008 0 98.0 -0.08045275422571008 1
gene  2 9 34 -1.352707425443614 0 99.0 -1.352707425443614 1
gene  2 10 34 -4.786775945443132 0 100.0 -4.786775945443132 1
gene  2 11 34 -1.0394617475917192 0 101.0 -1.0394617475917192 1
gene  2 12 34 4.681829536319105 0 102.0 4.681829536319105 1
gene  2 13 34 0.11895839463481317 0 103.0 0.11895839463481317 1
gene  2 14 34 0.11009848257046118 0 104.0 0.11009848257046118 1
gene  2 15 34 -5.800097151015987 0 105.0 -5.800097151015987 1
gene  2 16 34 -0.5946981129208462 0 106.0 -0.5946981129208462 1
gene  2 17 34 2.4267655039406195 0 107.0 2.4267655039406195 1
gene  2 18 34 0.6459791734060041 0 108.0 0.6459791734060041 1
gene  2 19 34 -3.702347042089932 0 109.0 -3.702347042089932 1
gene  2 20 34 -0.83532735493975 0 110.0 -0.83532735493975 1
gene  2 21 34 3.564359472026623 0 111.0 3.564359472026623 1
gene  2 22 34 -0.6872203133245142 0 112.0 -0.6872203133245142 1
gene  2 23 34 0.6984550041223433 0 113.0 0.6984550041223433 1
gene  2 24 34 -3.268471608709074 0 114.0 -3.268471608709074 1
gene  2 25 34 -2.6514793217826265 0 115.0 -2.6514793217826265 1
gene  2 26 34 3.6448552325596104 0 116.0 3.6448552325596104 1
gene  2 27 34 4.050139047789209 0 117.0 4.050139047789209 1
gene  2 28 34 2.343835257356629 0 118.0 2.343835257356629 1
gene  2 29 34 0.1097355586430302 0 119.0 0.1097355586430302 1
gene  2 30 34 0.09135586158654885 0 120.0 0.09135586158654885 1
gene  2 1 35 1.2231978253659264 0 121.0 1.2231978253659264 1
gene  2 2 35 2.2675855056504473 0 122.0 2.2675855056504473 1
gene  2 3 35 6.099181786696346 0 123.0 6.099181786696346 1
gene  2 4 35 -0.3965236053332355 0 124.0 -0.3965236053332355 1
gene  2 5 35 1.0773553315878481 0 125.0 1.0773553315878481 1
gene  2 6 35 -1.2894955392431287 0 126.0 -1.2894955392431287 1
gene  2 7 35 -1.2552911603533945 0 127.0 -1.2552911603533945 1
gene  2 8 35 -2.5694802998032955 0 128.0 -2.5694802998032955 1
gene  2 9 35 -0.1957335310556645 0 129.0 -0.1957335310556645 1
gene  2 10 35 0.14058390331761828 0 130.0 0.14058390331761828 1
gene  2 11 35 2.9814940940861483 0 131.0 2.9814940940861483 1
gene  2 12 35 3.1778689093321013 0 132.0 3.1778689093321013 1
gene  2 13 35 3.3145149144514074 0 133.0 3.3145149144514074 1
gene  2 14 35 4.140068920746847 0 134.0 4.140068920746847 1
gene  2 15 35 -3.8749513317217668 0 135.0 -3.8749513317217668 1
gene  2 16 35 2.6947585267097334 0 136.0 2.6947585267097334 1
gene  2 17 35 1.733848082163485 0 137.0 1.733848082163485 1
gene  2 18 35 -2.0293870010655253 0 138.0 -2.0293870010655253 1
gene  2 19 35 -0.9846409016512839 0 139.0 -0.9846409016512839 1
gene  2 20 35 -0.3122372052623483 0 140.0 -0.3122372052623483 1
gene  2 21 35 1.093164108235219 0 141.0 1.093164108235219 1
gene  2 22 35 -2.858281287410964 0 142.0 -2.858281287410964 1
gene  2 23 35 -2.831978198884028 0 143.0 -2.831978198884028 1
gene  2 24 35 -2.446405685353704 0 144.0 -2.446405685353704 1
gene  2 25 35 -1.89901758979238 0 145.0 -1.89901758979238 1
gene  2 26 35 2.1104934372927495 0 146.0 2.1104934372927495 1
gene  2 27 35 -2.83658516965049 0 147.0 -2.83658516965049 1
gene  2 28 35 -3.597666199931582 0 148.0 -3.597666199931582 1
gene  2 29 35 3.4086870159936797 0 149.0 3.4086870159936797 1
gene  2 30 35 -1.0115249808833877 0 150.0 -1.0115249808833877 1
gene  2 1 36 1.9819635059674416 0 151.0 1.9819635059674416 1
gene  2 2 36 3.852083385525825 0 152.0 3.852083385525825 1
gene  2 3 36 -1.9663060353172557 0 153.0 -1.9663060353172557 1
gene  2 4 36 0.8330413291660765 0 154.0 0.8330413291660765 1
gene  2 5 36 2.286927270263896 0 155.0 2.286927270263896 1
gene  2 6 36 0.12076751651176121 0 156.0 0.12076751651176121 1
gene  2 7 36 -2.642119208079524 0 157.0 -2.642119208079524 1
gene  2 8 36 -0.07659987128245649 0 158.0 -0.07659987128245649 1
gene  2 9 36 -1.452171430671609 0 159.0 -1.452171430671609 1
gene  2 10 36 -2.5781466690801493 0 160.0 -2.5781466690801493 1
gene  2 11 36 5.577535400222687 0 161.0 5.577535400222687 1
gene  2 12 36 0.3281637085760622 0 162.0 0.3281637085760622 1
gene  2 13 36 -1.3753965858074473 0 163.0 -1.3753965858074473 1
gene  2 14 36 0.8013208883231099 0 164.0 0.8013208883231099 1
gene  2 15 36 1.8856252553940311 0 165.0 1.8856252553940311 1
gene  2 16 36 3.3489012706222385 0 166.0 3.3489012706222385 1
gene  2 17 36 -0.4826633784260006 0 167.0 -0.4826633784260006 1
gene  2 18 36 -1.6288463359663017 0 168.0 -1.6288463359663017 1
gene  2 19 36 -1.029964271017686 0 169.0 -1.029964271017686 1
gene  2 20 36 2.4328903085988243 0 170.0 2.4328903085988243 1
gene  2 21 36 0.18711738123633093 0 171.0 0.18711738123633093 1
gene  2 22 36 -0.19892625463226787 0 172.0 -0.19892625463226787 1
gene  2 23 36 -1.448430916926751 0 173.0 -1.448430916926751 1
gene  2 24 36 1.7291719588916543 0 174.0 1.7291719588916543 1
gene  2 25 36 0.747454368528902 0 175.0 0.747454368528902 1
gene  2 26 36 -0.6419037310252507 0 176.0 -0.6419037310252507 1
gene  2 27 36 1.5887702078015573 0 177.0 1.5887702078015573 1
gene  2 28 36 -0.8144149110696355 0 178.0 -0.8144149110696355 1
gene  2 29 36 -1.308302659607075 0 179.0 -1.308302659607075 1
gene  2 30 36 -2.1186511556948777 0 180.0 -2.1186511556948777 1
gene  2 34 35 1.4374290080991594 0 193.0 1.4374290080991594 1
gene  2 25 41 0.15335490972892996 0 200.0 0.15335490972892996 1
gene  2 41 33 3.159800891963582 0 201.0 3.159800891963582 1
gene  1 34 31 -7.651523362059937 0 324.0 -7.651523362059937 1
gene  2 24 41 -2.036226153668991 0 328.0 -2.036226153668991 1
gene  2 23 76 2.7483267499756203 0 342.0 2.7483267499756203 1
gene  2 76 33 -0.6471867080386382 0 343.0 -0.6471867080386382 1
genomeend 1
genomestart  2
trait 1 0.1 0.0 0.0 0.0 0.0 0.0 0.0 0.0 
trait 2 0.1 0.0 0.0 0.0 0.0 0.0 0.0 0.0 
node 1 1 1 3
node 2 1 1 1
node 3 1 1 1
node 4 1 1 1
node 5 1 1 1
node 6 1 1 1
node 7 1 1 1
node 8 1 1 1
node 9 1 1 1
node 10 1 1 1
node 11 1 1 1
node 12 1 1 1
node 13 1 1 1
node 14 1 1 1
node 15 1 1 1
node 16 1 1 1
node 17 1 1 1
node 18 1 1 1
node 19 1 1 1
node 20 1 1 1
node 21 1 1 1
node 22 1 1 1
node 23 1 1 1
node 24 1 1 1
node 25 1 1 1
node 26 1 1 1
node 27 1 1 1
node 28 1 1 1
node 29 1 1 1
node 30 1 1 1
node 31 1 0 2
node 32 1 0 2
node 33 1 0 2
node 34 1 0 2
node 35 1 0 2
node 36 1 0 2
node 41 1 0 0
node 51 1 0 0
gene  1 1 31 -2.361590824701948 0 1.0 -2.361590824701948 1
gene  2 2 31 -0.1500572335400605 0 2.0 -0.1500572335400605 1
gene  2 3 31 -1.0081446049793439 0 3.0 -1.0081446049793439 1
gene  2 4 31 -2.2134327949182087 0 4.0 -2.2134327949182087 1
gene  2 5 31 -0.7810696844087242 0 5.0 -0.7810696844087242 1
gene  2 6 31 0.32019220926158676 0 6.0 0.32019220926158676 1
gene  2 7 31 -1.0505454583788152 0 7.0 -1.0505454583788152 1
gene  2 8 31 0.17222230891337542 0 8.0 0.17222230891337542 1
gene  2 9 31 -1.7600229800669553 0 9.0 -1.7600229800669553 1
gene  2 10 31 2.2197321509562506 0 10.0 2.2197321509562506 1
gene  2 11 31 -0.527758020335207 0 11.0 -0.527758020335207 1
gene  2 12 31 0.29066903350129136 0 12.0 0.29066903350129136 1
gene  2 13 31 0.08921467013529902 0 13.0 0.08921467013529902 1
gene  2 14 31 -0.3062793637312613 0 14.0 -0.3062793637312613 1
gene  2 15 31 1.9318768342990347 0 15.0 1.9318768342990347 1
gene  2 16 31 -1.0173761330055033 0 16.0 -1.0173761330055033 1
gene  2 17 31 -2.1528278337316005 0 17.0 -2.1528278337316005 1
gene  2 18 31 4.470775110200914 0 18.0 4.470775110200914 1
gene  2 19 31 2.6762533583059804 0 19.0 2.6762533583059804 1
gene  2 20 31 -3.2118599036133983 0 20.0 -3.2118599036133983 1
gene  2 21 31 2.5433056183264435 0 21.0 2.5433056183264435 1
gene  2 22 31 0.43103979708320206 0 22.0 0.43103979708320206 1
gene  2 23 31 2.6446594765347777 0 23.0 2.6446594765347777 1
gene  2 24 31 0.45812235692787895 0 24.0 0.45812235692787895 1
gene  2 25 31 1.3522496256022531 0 25.0 1.3522496256022531 1
gene  2 26 31 0.6287454915498814 0 26.0 0.6287454915498814 1
gene  2 27 31 -0.6828668332528869 0 27.0 -0.6828668332528869 1
gene  2 28 31 3.9405373255631746 0 28.0 3.9405373255631746 1
gene  2 29 31 0.4391578615226188 0 29.0 0.4391578615226188 1
gene  2 30 31 -0.12491706734227193 0 30.0 -0.12491706734227193 1
gene  2 1 32 2.539530696678558 0 31.0 2.539530696678558 1
gene  2 2 32 4.041519508396485E-4 0 32.0 4.041519508396485E-4 1
gene  2 3 32 -0.2477374068852518 0 33.0 -0.2477374068852518 1
gene  2 4 32 0.2260785830729255 0 34.0 0.2260785830729255 1
gene  2 5 32 1.6645913475662264 0 35.0 1.6645913475662264 1
gene  2 6 32 -0.24183131994408213 0 36.0 -0.24183131994408213 1
gene  2 7 32 -3.4728826056293354 0 37.0 -3.4728826056293354 1
gene  2 8 32 3.00971560969707 0 38.0 3.00971560969707 1
gene  2 9 32 -2.1910878793839808 0 39.0 -2.1910878793839808 1
gene  2 10 32 -2.5447930530700322 0 40.0 -2.5447930530700322 1
gene  2 11 32 -2.0313512291426172 0 41.0 -2.0313512291426172 1
gene  2 12 32 -0.7986147897297666 0 42.0 -0.7986147897297666 1
gene  2 13 32 -1.4915745374858769 0 43.0 -1.4915745374858769 1
gene  2 14 32 -2.672990257988543 0 44.0 -2.672990257988543 1
gene  2 15 32 -1.9125768644578247 0 45.0 -1.9125768644578247 1
gene  2 16 32 0.7549913508493982 0 46.0 0.7549913508493982 0
gene  2 17 32 2.8669931453997 0 47.0 2.8669931453997 1
gene  2 18 32 -0.650410487185237 0 48.0 -0.650410487185237 1
gene  2 19 32 -0.4593660593646163 0 49.0 -0.4593660593646163 1
gene  2 20 32 -1.801077815444169 0 50.0 -1.801077815444169 1
gene  2 21 32 -2.2225282381052027 0 51.0 -2.2225282381052027 1
gene  2 22 32 -1.2347069067410266 0 52.0 -1.2347069067410266 1
gene  2 23 32 0.24200285903107377 0 53.0 0.24200285903107377 1
gene  2 24 32 3.4089869204349488 0 54.0 3.4089869204349488 1
gene  2 25 32 1.10854274357013 0 55.0 1.10854274357013 1
gene  2 26 32 -3.6679672347625982 0 56.0 -3.6679672347625982 1
gene  2 27 32 -2.017040928233832 0 57.0 -2.017040928233832 1
gene  2 28 32 -0.557589302961504 0 58.0 -0.557589302961504 1
gene  2 29 32 -2.1369516158924955 0 59.0 -2.1369516158924955 1
gene  2 30 32 -0.32882533305234185 0 60.0 -0.32882533305234185 1
gene  2 1 33 -1.576394342219579 0 61.0 -1.576394342219579 1
gene  2 2 33 3.481785016277177 0 62.0 3.481785016277177 1
gene  2 3 33 1.215312238273389 0 63.0 1.215312238273389 1
gene  2 4 33 -0.6150477945233017 0 64.0 -0.6150477945233017 1
gene  2 5 33 -2.9053432802895447 0 65.0 -2.9053432802895447 1
gene  2 6 33 -2.402384050886949 0 66.0 -2.402384050886949 1
gene  2 7 33 0.39426881473338815 0 67.0 0.39426881473338815 1
gene  2 8 33 -3.5482695001463673 0 68.0 -3.5482695001463673 1
gene  2 9 33 0.9333837682094747 0 69.0 0.9333837682094747 1
gene  2 10 33 -3.6931422254458957 0 70.0 -3.6931422254458957 1
gene  2 11 33 0.06077526281629053 0 71.0 0.06077526281629053 1
gene  2 12 33 2.0849526832809167 0 72.0 2.0849526832809167 1
gene  2 13 33 -2.700093543075579 0 73.0 -2.700093543075579 1
gene  2 14 33 -1.1714245235043441 0 74.0 -1.1714245235043441 1
gene  2 15 33 -0.48875957404655274 0 75.0 -0.48875957404655274 1
gene  2 16 33 0.6026331375360223 0 76.0 0.6026331375360223 1
gene  2 17 33 -0.2516433259179458 0 77.0 -0.2516433259179458 1
gene  2 18 33 0.6164727793044349 0 78.0 0.6164727793044349 1
gene  2 19 33 2.1287970048591385 0 79.0 2.1287970048591385 1
gene  2 20 33 4.921803947401791 0 80.0 4.921803947401791 1
gene  2 21 33 1.7752034587537218 0 81.0 1.7752034587537218 1
gene  2 22 33 -0.5838630399606104 0 82.0 -0.5838630399606104 1
gene  2 23 33 -1.418685216785828 0 83.0 -1.418685216785828 1
gene  2 24 33 0.7350274859141324 0 84.0 0.7350274859141324 1
gene  2 25 33 -1.9729799750821655 0 85.0 -1.9729799750821655 0
gene  2 26 33 1.739737362921427 0 86.0 1.739737362921427 1
gene  2 27 33 -2.2773632312146015 0 87.0 -2.2773632312146015 1
gene  2 28 33 -1.011471137127118 0 88.0 -1.011471137127118 1
gene  2 29 33 -0.5610700527508434 0 89.0 -0.5610700527508434 1
gene  2 30 33 0.1256523428365166 0 90.0 0.1256523428365166 1
gene  2 1 34 0.7563746330623138 0 91.0 0.7563746330623138 1
gene  2 2 34 -1.3875265978038414 0 92.0 -1.3875265978038414 1
gene  2 3 34 2.520667621995012 0 93.0 2.520667621995012 1
gene  2 4 34 -2.782694696879847 0 94.0 -2.782694696879847 1
gene  2 5 34 0.4734947237992818 0 95.0 0.4734947237992818 1
gene  2 6 34 0.9161292718766862 0 96.0 0.9161292718766862 1
gene  2 7 34 0.5737641382800169 0 97.0 0.5737641382800169 1
gene  2 8 34 -2.937594435783105 0 98.0 -2.937594435783105 1
gene  2 9 34 -1.804656634079258 0 99.0 -1.804656634079258 1
gene  2 10 34 -1.9781410034634723 0 100.0 -1.9781410034634723 1
gene  2 11 34 -1.78609620084439 0 101.0 -1.78609620084439 1
gene  2 12 34 0.3605078582667276 0 102.0 0.3605078582667276 1
gene  2 13 34 -0.4745314580239264 0 103.0 -0.4745314580239264 1
gene  2 14 34 -0.015339301975371478 0 104.0 -0.015339301975371478 1
gene  2 15 34 -4.761047605732968 0 105.0 -4.761047605732968 1
gene  2 16 34 2.6487313344187786 0 106.0 2.6487313344187786 1
gene  2 17 34 1.311840325606392 0 107.0 1.311840325606392 1
gene  2 18 34 1.6077356979012083 0 108.0 1.6077356979012083 1
gene  2 19 34 -1.53807539837553 0 109.0 -1.53807539837553 1
gene  2 20 34 -0.5958870929371376 0 110.0 -0.5958870929371376 1
gene  2 21 34 3.8020299602510823 0 111.0 3.8020299602510823 1
gene  2 22 34 -1.1056575843446386 0 112.0 -1.1056575843446386 1
gene  2 23 34 -0.016425148978340243 0 113.0 -0.016425148978340243 1
gene  2 24 34 -2.185563626838886 0 114.0 -2.185563626838886 1
gene  2 25 34 -1.29703431361829 0 115.0 -1.29703431361829 1
gene  2 26 34 1.56438815433396 0 116.0 1.56438815433396 1
gene  2 27 34 0.4531125031798622 0 117.0 0.4531125031798622 1
gene  2 28 34 2.2119861448359646 0 118.0 2.2119861448359646 1
gene  2 29 34 -2.6738304528660644 0 119.0 -2.6738304528660644 1
gene  2 30 34 1.2395238082628737 0 120.0 1.2395238082628737 1
gene  2 1 35 2.020809514922582 0 121.0 2.020809514922582 1
gene  2 2 35 1.3621367480349942 0 122.0 1.3621367480349942 1
gene  2 3 35 3.0317952222257136 0 123.0 3.0317952222257136 1
gene  2 4 35 1.4061388583418368 0 124.0 1.4061388583418368 1
gene  2 5 35 0.07921055822154743 0 125.0 0.07921055822154743 1
gene  2 6 35 -2.0747648965666516 0 126.0 -2.0747648965666516 1
gene  2 7 35 1.7837281821885866 0 127.0 1.7837281821885866 1
gene  2 8 35 -1.9448032423535369 0 128.0 -1.9448032423535369 1
gene  2 9 35 -3.4175721443943603 0 129.0 -3.4175721443943603 1
gene  2 10 35 -1.1348968750559414 0 130.0 -1.1348968750559414 1
gene  2 11 35 -0.7400807903501805 0 131.0 -0.7400807903501805 1
gene  2 12 35 -0.06102572248750504 0 132.0 -0.06102572248750504 1
gene  2 13 35 2.8273780765877454 0 133.0 2.8273780765877454 1
gene  2 14 35 4.250708462113596 0 134.0 4.250708462113596 1
gene  2 15 35 -1.295102193238609 0 135.0 -1.295102193238609 1
gene  2 16 35 -0.5055869093442588 0 136.0 -0.5055869093442588 1
gene  2 17 35 2.8758319631858087 0 137.0 2.8758319631858087 1
gene  2 18 35 0.5882116519740892 0 138.0 0.5882116519740892 1
gene  2 19 35 -0.407383754355076 0 139.0 -0.407383754355076 1
gene  2 20 35 1.7879070892249393 0 140.0 1.7879070892249393 1
gene  2 21 35 -0.45010592846480146 0 141.0 -0.45010592846480146 1
gene  2 22 35 -3.287826819023774 0 142.0 -3.287826819023774 1
gene  2 23 35 -3.601915547589689 0 143.0 -3.601915547589689 1
gene  2 24 35 1.2429892699465193 0 144.0 1.2429892699465193 1
gene  2 25 35 -2.315780833976959 0 145.0 -2.315780833976959 1
gene  2 26 35 2.977291229223835 0 146.0 2.977291229223835 1
gene  2 27 35 0.6784121273789874 0 147.0 0.6784121273789874 1
gene  2 28 35 -2.8135844366890654 0 148.0 -2.8135844366890654 1
gene  2 29 35 1.7346043977889676 0 149.0 1.7346043977889676 1
gene  2 30 35 0.3956023357719512 0 150.0 0.3956023357719512 1
gene  2 1 36 2.1645442271646615 0 151.0 2.1645442271646615 1
gene  2 2 36 2.441951053596354 0 152.0 2.441951053596354 1
gene  2 3 36 1.0669156008904557 0 153.0 1.0669156008904557 1
gene  2 4 36 1.6819002537224534 0 154.0 1.6819002537224534 1
gene  2 5 36 2.5065725788148265 0 155.0 2.5065725788148265 1
gene  2 6 36 1.6124816624658997 0 156.0 1.6124816624658997 1
gene  2 7 36 -1.3384144033087275 0 157.0 -1.3384144033087275 1
gene  2 8 36 -2.33496180234053 0 158.0 -2.33496180234053 1
gene  2 9 36 -2.9833785022174215 0 159.0 -2.9833785022174215 1
gene  2 10 36 -0.3282412332199196 0 160.0 -0.3282412332199196 1
gene  2 11 36 3.0743485754651463 0 161.0 3.0743485754651463 1
gene  2 12 36 -2.240812940046213 0 162.0 -2.240812940046213 1
gene  2 13 36 -0.6663071128627003 0 163.0 -0.6663071128627003 1
gene  2 14 36 1.2623915371122552 0 164.0 1.2623915371122552 1
gene  2 15 36 2.319869451527957 0 165.0 2.319869451527957 1
gene  2 16 36 1.4662614755017107 0 166.0 1.4662614755017107 1
gene  2 17 36 1.9405603813088212 0 167.0 1.9405603813088212 1
gene  2 18 36 4.710708507120582 0 168.0 4.710708507120582 1
gene  2 19 36 -0.23647062537989583 0 169.0 -0.23647062537989583 1
gene  2 20 36 2.4328903085988243 0 170.0 2.4328903085988243 1
gene  2 21 36 0.18711738123633093 0 171.0 0.18711738123633093 1
gene  2 22 36 1.3722996764459996 0 172.0 1.3722996764459996 1
gene  2 23 36 0.11233379845433022 0 173.0 0.11233379845433022 1
gene  2 24 36 2.678998782548792 0 174.0 2.678998782548792 1
gene  2 25 36 3.4751440440092347 0 175.0 3.4751440440092347 1
gene  2 26 36 0.33854669254224934 0 176.0 0.33854669254224934 1
gene  2 27 36 1.3722276956498973 0 177.0 1.3722276956498973 1
gene  2 28 36 1.6692772102591324 0 178.0 1.6692772102591324 1
gene  2 29 36 0.29739180913508045 0 179.0 0.29739180913508045 1
gene  2 30 36 -1.4450284547963053 0 180.0 -1.4450284547963053 1
gene  2 34 35 -0.4412533954831063 0 193.0 -0.4412533954831063 1
gene  2 25 41 1.5923118404287389 0 200.0 1.5923118404287389 1
gene  2 41 33 1.5101205083254532 0 201.0 1.5101205083254532 1
gene  2 16 51 1.0 0 237.0 0.0 1
gene  2 51 32 0.7549913508493982 0 238.0 0.0 1
gene  1 51 36 4.257037997843263 0 247.0 4.257037997843263 1
genomeend 2
genomestart  3
trait 1 0.1 0.0 0.0 0.0 0.0 0.0 0.0 0.0 
trait 2 0.1 0.0 0.0 0.0 0.0 0.0 0.0 0.0 
node 1 1 1 3
node 2 1 1 1
node 3 1 1 1
node 4 1 1 1
node 5 1 1 1
node 6 1 1 1
node 7 1 1 1
node 8 1 1 1
node 9 1 1 1
node 10 1 1 1
node 11 1 1 1
node 12 1 1 1
node 13 1 1 1
node 14 1 1 1
node 15 1 1 1
node 16 1 1 1
node 17 1 1 1
node 18 1 1 1
node 19 1 1 1
node 20 1 1 1
node 21 2 1 1
node 22 1 1 1
node 23 1 1 1
node 24 1 1 1
node 25 1 1 1
node 26 1 1 1
node 27 1 1 1
node 28 1 1 1
node 29 1 1 1
node 30 1 1 1
node 31 1 0 2
node 32 1 0 2
node 33 1 0 2
node 34 1 0 2
node 35 1 0 2
node 36 1 0 2
node 41 1 0 0
node 51 1 0 0
gene  1 1 31 -2.361590824701948 0 1.0 -2.361590824701948 1
gene  2 2 31 -0.1500572335400605 0 2.0 -0.1500572335400605 1
gene  2 3 31 -1.0081446049793439 0 3.0 -1.0081446049793439 1
gene  2 4 31 -2.2134327949182087 0 4.0 -2.2134327949182087 1
gene  2 5 31 -0.7810696844087242 0 5.0 -0.7810696844087242 1
gene  2 6 31 0.32019220926158676 0 6.0 0.32019220926158676 1
gene  2 7 31 -1.0505454583788152 0 7.0 -1.0505454583788152 1
gene  2 8 31 0.17222230891337542 0 8.0 0.17222230891337542 1
gene  2 9 31 -1.7600229800669553 0 9.0 -1.7600229800669553 1
gene  2 10 31 2.2197321509562506 0 10.0 2.2197321509562506 1
gene  2 11 31 -0.527758020335207 0 11.0 -0.527758020335207 1
gene  2 12 31 0.29066903350129136 0 12.0 0.29066903350129136 1
gene  2 13 31 0.08921467013529902 0 13.0 0.08921467013529902 1
gene  2 14 31 -0.3062793637312613 0 14.0 -0.3062793637312613 1
gene  2 15 31 1.9318768342990347 0 15.0 1.9318768342990347 1
gene  2 16 31 -1.0173761330055033 0 16.0 -1.0173761330055033 1
gene  2 17 31 -2.1528278337316005 0 17.0 -2.1528278337316005 1
gene  2 18 31 4.470775110200914 0 18.0 4.470775110200914 1
gene  2 19 31 2.6762533583059804 0 19.0 2.6762533583059804 1
gene  2 20 31 -3.2118599036133983 0 20.0 -3.2118599036133983 1
gene  2 21 31 2.5433056183264435 0 21.0 2.5433056183264435 1
gene  2 22 31 0.43103979708320206 0 22.0 0.43103979708320206 1
gene  2 23 31 2.6446594765347777 0 23.0 2.6446594765347777 1
gene  2 24 31 0.45812235692787895 0 24.0 0.45812235692787895 1
gene  2 25 31 1.3522496256022531 0 25.0 1.3522496256022531 1
gene  2 26 31 0.6287454915498814 0 26.0 0.6287454915498814 1
gene  2 27 31 -0.6828668332528869 0 27.0 -0.6828668332528869 1
gene  2 28 31 3.9405373255631746 0 28.0 3.9405373255631746 1
gene  2 29 31 0.4391578615226188 0 29.0 0.4391578615226188 1
gene  2 30 31 -0.12491706734227193 0 30.0 -0.12491706734227193 1
gene  2 1 32 2.539530696678558 0 31.0 2.539530696678558 1
gene  2 2 32 4.041519508396485E-4 0 32.0 4.041519508396485E-4 1
gene  2 3 32 -0.2477374068852518 0 33.0 -0.2477374068852518 1
gene  2 4 32 0.2260785830729255 0 34.0 0.2260785830729255 1
gene  2 5 32 1.6645913475662264 0 35.0 1.6645913475662264 1
gene  2 6 32 -0.24183131994408213 0 36.0 -0.24183131994408213 1
gene  2 7 32 -3.4728826056293354 0 37.0 -3.4728826056293354 1
gene  2 8 32 3.00971560969707 0 38.0 3.00971560969707 1
gene  2 9 32 -2.1910878793839808 0 39.0 -2.1910878793839808 1
gene  2 10 32 -2.5447930530700322 0 40.0 -2.5447930530700322 1
gene  2 11 32 -2.0313512291426172 0 41.0 -2.0313512291426172 1
gene  2 12 32 -0.7986147897297666 0 42.0 -0.7986147897297666 1
gene  2 13 32 -1.4915745374858769 0 43.0 -1.4915745374858769 1
gene  2 14 32 -2.672990257988543 0 44.0 -2.672990257988543 1
gene  2 15 32 -1.9125768644578247 0 45.0 -1.9125768644578247 1
gene  2 16 32 0.7549913508493982 0 46.0 0.7549913508493982 0
gene  2 17 32 2.8669931453997 0 47.0 2.8669931453997 1
gene  2 18 32 -0.650410487185237 0 48.0 -0.650410487185237 1
gene  2 19 32 -0.4593660593646163 0 49.0 -0.4593660593646163 1
gene  2 20 32 -1.801077815444169 0 50.0 -1.801077815444169 1
gene  2 21 32 -2.2225282381052027 0 51.0 -2.2225282381052027 1
gene  2 22 32 -1.2347069067410266 0 52.0 -1.2347069067410266 1
gene  2 23 32 0.24200285903107377 0 53.0 0.24200285903107377 1
gene  2 24 32 3.4089869204349488 0 54.0 3.4089869204349488 1
gene  2 25 32 1.10854274357013 0 55.0 1.10854274357013 1
gene  2 26 32 -3.6679672347625982 0 56.0 -3.6679672347625982 1
gene  2 27 32 -2.017040928233832 0 57.0 -2.017040928233832 1
gene  2 28 32 -0.557589302961504 0 58.0 -0.557589302961504 1
gene  2 29 32 -2.1369516158924955 0 59.0 -2.1369516158924955 1
gene  2 30 32 -0.32882533305234185 0 60.0 -0.32882533305234185 1
gene  2 1 33 -1.576394342219579 0 61.0 -1.576394342219579 1
gene  2 2 33 3.481785016277177 0 62.0 3.481785016277177 1
gene  2 3 33 1.215312238273389 0 63.0 1.215312238273389 1
gene  2 4 33 -0.6150477945233017 0 64.0 -0.6150477945233017 1
gene  2 5 33 -2.9053432802895447 0 65.0 -2.9053432802895447 1
gene  2 6 33 -2.402384050886949 0 66.0 -2.402384050886949 1
gene  2 7 33 0.39426881473338815 0 67.0 0.39426881473338815 1
gene  2 8 33 -3.5482695001463673 0 68.0 -3.5482695001463673 1
gene  2 9 33 0.9333837682094747 0 69.0 0.9333837682094747 1
gene  2 10 33 -3.6931422254458957 0 70.0 -3.6931422254458957 1
gene  2 11 33 0.06077526281629053 0 71.0 0.06077526281629053 1
gene  2 12 33 2.0849526832809167 0 72.0 2.0849526832809167 1
gene  2 13 33 -2.700093543075579 0 73.0 -2.700093543075579 1
gene  2 14 33 -1.1714245235043441 0 74.0 -1.1714245235043441 1
gene  2 15 33 -0.48875957404655274 0 75.0 -0.48875957404655274 1
gene  2 16 33 0.6026331375360223 0 76.0 0.6026331375360223 1
gene  2 17 33 -0.2516433259179458 0 77.0 -0.2516433259179458 1
gene  2 18 33 0.6164727793044349 0 78.0 0.6164727793044349 1
gene  2 19 33 2.1287970048591385 0 79.0 2.1287970048591385 1
gene  2 20 33 4.921803947401791 0 80.0 4.921803947401791 1
gene  2 21 33 1.7752034587537218 0 81.0 1.7752034587537218 1
gene  2 22 33 -0.5838630399606104 0 82.0 -0.5838630399606104 1
gene  2 23 33 -1.418685216785828 0 83.0 -1.418685216785828 1
gene  2 24 33 0.7350274859141324 0 84.0 0.7350274859141324 1
gene  2 25 33 -1.9729799750821655 0 85.0 -1.9729799750821655 1
gene  2 26 33 1.739737362921427 0 86.0 1.739737362921427 1
gene  2 27 33 -2.2773632312146015 0 87.0 -2.2773632312146015 1
gene  2 28 33 -1.011471137127118 0 88.0 -1.011471137127118 1
gene  2 29 33 -0.5610700527508434 0 89.0 -0.5610700527508434 1
gene  2 30 33 0.1256523428365166 0 90.0 0.1256523428365166 1
gene  2 1 34 0.7563746330623138 0 91.0 0.7563746330623138 1
gene  2 2 34 -1.3875265978038414 0 92.0 -1.3875265978038414 1
gene  2 3 34 2.520667621995012 0 93.0 2.520667621995012 1
gene  2 4 34 -2.782694696879847 0 94.0 -2.782694696879847 1
gene  2 5 34 0.4734947237992818 0 95.0 0.4734947237992818 1
gene  2 6 34 0.9161292718766862 0 96.0 0.9161292718766862 1
gene  2 7 34 0.5737641382800169 0 97.0 0.5737641382800169 1
gene  2 8 34 -2.937594435783105 0 98.0 -2.937594435783105 1
gene  2 9 34 -1.804656634079258 0 99.0 -1.804656634079258 1
gene  2 10 34 -1.9781410034634723 0 100.0 -1.9781410034634723 1
gene  2 11 34 -1.78609620084439 0 101.0 -1.78609620084439 1
gene  2 12 34 0.3605078582667276 0 102.0 0.3605078582667276 1
gene  2 13 34 -0.4745314580239264 0 103.0 -0.4745314580239264 1
gene  2 14 34 -0.015339301975371478 0 104.0 -0.015339301975371478 1
gene  2 15 34 -4.761047605732968 0 105.0 -4.761047605732968 1
gene  2 16 34 2.6487313344187786 0 106.0 2.6487313344187786 1
gene  2 17 34 1.311840325606392 0 107.0 1.311840325606392 1
gene  2 18 34 1.6077356979012083 0 108.0 1.6077356979012083 1
gene  2 19 34 -1.53807539837553 0 109.0 -1.53807539837553 1
gene  2 20 34 -0.5958870929371376 0 110.0 -0.5958870929371376 1
gene  2 21 34 3.8020299602510823 0 111.0 3.8020299602510823 1
gene  2 22 34 -1.1056575843446386 0 112.0 -1.1056575843446386 1
gene  2 23 34 -0.016425148978340243 0 113.0 -0.016425148978340243 1
gene  2 24 34 -2.185563626838886 0 114.0 -2.185563626838886 1
gene  2 25 34 -1.29703431361829 0 115.0 -1.29703431361829 1
gene  2 26 34 1.56438815433396 0 116.0 1.56438815433396 1
gene  2 27 34 0.4531125031798622 0 117.0 0.4531125031798622 1
gene  2 28 34 2.2119861448359646 0 118.0 2.2119861448359646 1
gene  2 29 34 -2.6738304528660644 0 119.0 -2.6738304528660644 1
gene  2 30 34 1.2395238082628737 0 120.0 1.2395238082628737 1
gene  2 1 35 2.020809514922582 0 121.0 2.020809514922582 1
gene  2 2 35 1.3621367480349942 0 122.0 1.3621367480349942 1
gene  2 3 35 3.0317952222257136 0 123.0 3.0317952222257136 1
gene  2 4 35 1.4061388583418368 0 124.0 1.4061388583418368 1
gene  2 5 35 0.07921055822154743 0 125.0 0.07921055822154743 1
gene  2 6 35 -2.0747648965666516 0 126.0 -2.0747648965666516 1
gene  2 7 35 1.7837281821885866 0 127.0 1.7837281821885866 1
gene  2 8 35 -1.9448032423535369 0 128.0 -1.9448032423535369 1
gene  2 9 35 -3.4175721443943603 0 129.0 -3.4175721443943603 1
gene  2 10 35 -1.1348968750559414 0 130.0 -1.1348968750559414 1
gene  2 11 35 -0.7400807903501805 0 131.0 -0.7400807903501805 1
gene  2 12 35 -0.06102572248750504 0 132.0 -0.06102572248750504 1
gene  2 13 35 2.8273780765877454 0 133.0 2.8273780765877454 1
gene  2 14 35 4.250708462113596 0 134.0 4.250708462113596 1
gene  2 15 35 -1.295102193238609 0 135.0 -1.295102193238609 1
gene  2 16 35 -0.5055869093442588 0 136.0 -0.5055869093442588 1
gene  2 17 35 2.8758319631858087 0 137.0 2.8758319631858087 1
gene  2 18 35 0.5882116519740892 0 138.0 0.5882116519740892 1
gene  2 19 35 -0.407383754355076 0 139.0 -0.407383754355076 1
gene  2 20 35 1.7879070892249393 0 140.0 1.7879070892249393 1
gene  2 21 35 -0.45010592846480146 0 141.0 -0.45010592846480146 1
gene  2 22 35 -3.287826819023774 0 142.0 -3.287826819023774 1
gene  2 23 35 -3.601915547589689 0 143.0 -3.601915547589689 1
gene  2 24 35 1.2429892699465193 0 144.0 1.2429892699465193 1
gene  2 25 35 -2.315780833976959 0 145.0 -2.315780833976959 1
gene  2 26 35 2.977291229223835 0 146.0 2.977291229223835 1
gene  2 27 35 0.6784121273789874 0 147.0 0.6784121273789874 1
gene  2 28 35 -2.8135844366890654 0 148.0 -2.8135844366890654 1
gene  2 29 35 1.7346043977889676 0 149.0 1.7346043977889676 1
gene  2 30 35 0.3956023357719512 0 150.0 0.3956023357719512 1
gene  2 1 36 2.1645442271646615 0 151.0 2.1645442271646615 1
gene  2 2 36 2.441951053596354 0 152.0 2.441951053596354 1
gene  2 3 36 1.0669156008904557 0 153.0 1.0669156008904557 1
gene  2 4 36 1.6819002537224534 0 154.0 1.6819002537224534 1
gene  2 5 36 2.5065725788148265 0 155.0 2.5065725788148265 1
gene  2 6 36 1.6124816624658997 0 156.0 1.6124816624658997 1
gene  2 7 36 -1.3384144033087275 0 157.0 -1.3384144033087275 1
gene  2 8 36 -2.33496180234053 0 158.0 -2.33496180234053 1
gene  2 9 36 -2.9833785022174215 0 159.0 -2.9833785022174215 1
gene  2 10 36 -0.3282412332199196 0 160.0 -0.3282412332199196 1
gene  2 11 36 3.0743485754651463 0 161.0 3.0743485754651463 1
gene  2 12 36 -2.240812940046213 0 162.0 -2.240812940046213 1
gene  2 13 36 -0.6663071128627003 0 163.0 -0.6663071128627003 1
gene  2 14 36 1.2623915371122552 0 164.0 1.2623915371122552 1
gene  2 15 36 2.319869451527957 0 165.0 2.319869451527957 1
gene  2 16 36 1.4662614755017107 0 166.0 1.4662614755017107 1
gene  2 17 36 1.9405603813088212 0 167.0 1.9405603813088212 1
gene  2 18 36 4.710708507120582 0 168.0 4.710708507120582 1
gene  2 19 36 -0.23647062537989583 0 169.0 -0.23647062537989583 1
gene  2 20 36 2.4328903085988243 0 170.0 2.4328903085988243 1
gene  2 21 36 0.18711738123633093 0 171.0 0.18711738123633093 1
gene  2 22 36 1.3722996764459996 0 172.0 1.3722996764459996 1
gene  2 23 36 0.11233379845433022 0 173.0 0.11233379845433022 1
gene  2 24 36 2.678998782548792 0 174.0 2.678998782548792 1
gene  2 25 36 3.4751440440092347 0 175.0 3.4751440440092347 1
gene  2 26 36 0.33854669254224934 0 176.0 0.33854669254224934 1
gene  2 27 36 1.3722276956498973 0 177.0 1.3722276956498973 1
gene  2 28 36 1.6692772102591324 0 178.0 1.6692772102591324 1
gene  2 29 36 0.29739180913508045 0 179.0 0.29739180913508045 1
gene  2 30 36 -1.4450284547963053 0 180.0 -1.4450284547963053 1
gene  2 34 35 -0.4412533954831063 0 193.0 -0.4412533954831063 1
gene  2 25 41 1.5923118404287389 0 200.0 1.5923118404287389 1
gene  2 41 33 1.5101205083254532 0 201.0 1.5101205083254532 1
gene  2 16 51 1.0 0 237.0 0.0 1
gene  2 51 32 0.7549913508493982 0 238.0 0.0 1
gene  1 51 36 4.257037997843263 0 247.0 4.257037997843263 1
genomeend 3
genomestart  4
trait 1 0.1 0.0 0.0 0.0 0.0 0.0 0.0 0.0 
trait 2 0.1 0.0 0.0 0.0 0.0 0.0 0.0 0.0 
node 1 1 1 3
node 2 1 1 1
node 3 1 1 1
node 4 1 1 1
node 5 1 1 1
node 6 1 1 1
node 7 1 1 1
node 8 1 1 1
node 9 1 1 1
node 10 1 1 1
node 11 1 1 1
node 12 1 1 1
node 13 1 1 1
node 14 1 1 1
node 15 1 1 1
node 16 1 1 1
node 17 1 1 1
node 18 1 1 1
node 19 1 1 1
node 20 1 1 1
node 21 1 1 1
node 22 1 1 1
node 23 1 1 1
node 24 1 1 1
node 25 1 1 1
node 26 1 1 1
node 27 1 1 1
node 28 1 1 1
node 29 1 1 1
node 30 1 1 1
node 31 1 0 2
node 32 1 0 2
node 33 1 0 2
node 34 1 0 2
node 35 1 0 2
node 36 1 0 2
node 41 1 0 0
node 51 1 0 0
gene  1 1 31 -2.361590824701948 0 1.0 -2.361590824701948 1
gene  2 2 31 -0.1500572335400605 0 2.0 -0.1500572335400605 1
gene  2 3 31 -0.5444618513705501 0 3.0 -0.5444618513705501 1
gene  2 4 31 -2.4608471368325944 0 4.0 -2.4608471368325944 1
gene  2 5 31 -1.9210808158978976 0 5.0 -1.9210808158978976 1
gene  2 6 31 0.4043087373866595 0 6.0 0.4043087373866595 1
gene  2 7 31 0.32423296075074903 0 7.0 0.32423296075074903 1
gene  2 8 31 0.17222230891337542 0 8.0 0.17222230891337542 1
gene  2 9 31 -2.954850629003083 0 9.0 -2.954850629003083 1
gene  2 10 31 4.098057286175983 0 10.0 4.098057286175983 1
gene  2 11 31 -0.07614909633441364 0 11.0 -0.07614909633441364 1
gene  2 12 31 -0.16204339305045795 0 12.0 -0.16204339305045795 1
gene  2 13 31 0.9709653003339825 0 13.0 0.9709653003339825 1
gene  2 14 31 0.7418637768984846 0 14.0 0.7418637768984846 1
gene  2 15 31 1.1534824507771813 0 15.0 1.1534824507771813 1
gene  2 16 31 -1.52541923844365 0 16.0 -1.52541923844365 1
gene  2 17 31 -0.9954595638815573 0 17.0 -0.9954595638815573 1
gene  2 18 31 6.610903366136702 0 18.0 6.610903366136702 1
gene  2 19 31 2.6762533583059804 0 19.0 2.6762533583059804 1
gene  2 20 31 -3.2118599036133983 0 20.0 -3.2118599036133983 1
gene  2 21 31 2.5433056183264435 0 21.0 2.5433056183264435 1
gene  2 22 31 -2.00484949201671 0 22.0 -2.00484949201671 1
gene  2 23 31 0.3654909296151507 0 23.0 0.3654909296151507 1
gene  2 24 31 -1.70714839382923 0 24.0 -1.70714839382923 1
gene  2 25 31 1.71713225335081 0 25.0 1.71713225335081 1
gene  2 26 31 -1.5518415855899514 0 26.0 -1.5518415855899514 1
gene  2 27 31 -1.2351890091438102 0 27.0 -1.2351890091438102 1
gene  2 28 31 -2.3539588774828277 0 28.0 -2.3539588774828277 1
gene  2 29 31 -1.1937456772704813 0 29.0 -1.1937456772704813 1
gene  2 30 31 1.6366816504057264 0 30.0 1.6366816504057264 1
gene  2 1 32 0.12087391379814783 0 31.0 0.12087391379814783 1
gene  2 2 32 -0.6784674137275185 0 32.0 -0.6784674137275185 1
gene  2 3 32 2.1565747675765206 0 33.0 2.1565747675765206 1
gene  2 4 32 -0.9184520316136517 0 34.0 -0.9184520316136517 1
gene  2 5 32 1.5527142146878616 0 35.0 1.5527142146878616 1
gene  2 6 32 2.208044241513602 0 36.0 2.208044241513602 1
gene  2 7 32 -3.043775137887609 0 37.0 -3.043775137887609 1
gene  2 8 32 1.4811358195537476 0 38.0 1.4811358195537476 1
gene  2 9 32 1.2045925356413836 0 39.0 1.2045925356413836 1
gene  2 10 32 -1.795558043099945 0 40.0 -1.795558043099945 1
gene  2 11 32 -2.7043929469904655 0 41.0 -2.7043929469904655 1
gene  2 12 32 -0.6273897210901284 0 42.0 -0.6273897210901284 1
gene  2 13 32 0.48297133412806303 0 43.0 0.48297133412806303 1
gene  2 14 32 -1.4100231473962834 0 44.0 -1.4100231473962834 1
gene  2 15 32 -1.3337091542096 0 45.0 -1.3337091542096 1
gene  2 16 32 0.7549913508493982 0 46.0 0.7549913508493982 0
gene  2 17 32 0.7513453801234891 0 47.0 0.7513453801234891 1
gene  2 18 32 2.4725776066090392 0 48.0 2.4725776066090392 1
gene  2 19 32 2.408139637422659 0 49.0 2.408139637422659 1
gene  2 20 32 -1.801077815444169 0 50.0 -1.801077815444169 1
gene  2 21 32 1.6632459437840408 0 51.0 1.6632459437840408 1
gene  2 22 32 0.19976201308453012 0 52.0 0.19976201308453012 1
gene  2 23 32 0.6658392600967113 0 53.0 0.6658392600967113 1
gene  2 24 32 2.9461512323644294 0 54.0 2.9461512323644294 1
gene  2 25 32 1.10854274357013 0 55.0 1.10854274357013 1
gene  2 26 32 -3.6679672347625982 0 56.0 -3.6679672347625982 1
gene  2 27 32 2.3084391657147476 0 57.0 2.3084391657147476 1
gene  2 28 32 -2.1564725768412734 0 58.0 -2.1564725768412734 1
gene  2 29 32 0.5655397240634946 0 59.0 0.5655397240634946 1
gene  2 30 32 2.168040402464477 0 60.0 2.168040402464477 1
gene  2 1 33 -0.7889267323031127 0 61.0 -0.7889267323031127 1
gene  2 2 33 4.145122687490274 0 62.0 4.145122687490274 1
gene  2 3 33 -2.429893893461163 0 63.0 -2.429893893461163 1
gene  2 4 33 0.3719598730635525 0 64.0 0.3719598730635525 1
gene  2 5 33 -2.695052602397459 0 65.0 -2.695052602397459 1
gene  2 6 33 1.7811506040593814 0 66.0 1.7811506040593814 1
gene  2 7 33 0.7653089118940176 0 67.0 0.7653089118940176 1
gene  2 8 33 -4.040778633752836 0 68.0 -4.040778633752836 1
gene  2 9 33 -1.432215927007046 0 69.0 -1.432215927007046 1
gene  2 10 33 -2.3517476118175233 0 70.0 -2.3517476118175233 1
gene  2 11 33 1.146835206417907 0 71.0 1.146835206417907 1
gene  2 12 33 3.5607661461669258 0 72.0 3.5607661461669258 1
gene  2 13 33 -2.0213985580366183 0 73.0 -2.0213985580366183 1
gene  2 14 33 -3.12177637567597 0 74.0 -3.12177637567597 1
gene  2 15 33 -2.730096254370792 0 75.0 -2.730096254370792 1
gene  2 16 33 1.6220357525597673 0 76.0 1.6220357525597673 1
gene  2 17 33 2.3296365379698276 0 77.0 2.3296365379698276 1
gene  2 18 33 2.6697369479401756 0 78.0 2.6697369479401756 1
gene  2 19 33 2.1287970048591385 0 79.0 2.1287970048591385 1
gene  2 20 33 -0.27739982509685457 0 80.0 -0.27739982509685457 1
gene  2 21 33 -0.01682781540640277 0 81.0 -0.01682781540640277 1
gene  2 22 33 -0.2153018367045284 0 82.0 -0.2153018367045284 1
gene  2 23 33 -2.165234482528635 0 83.0 -2.165234482528635 1
gene  2 24 33 3.0862791073890357 0 84.0 3.0862791073890357 1
gene  2 25 33 1.070802605568968 0 85.0 1.070802605568968 0
gene  2 26 33 1.739737362921427 0 86.0 1.739737362921427 1
gene  2 27 33 -2.2773632312146015 0 87.0 -2.2773632312146015 1
gene  2 28 33 -0.8117475817153269 0 88.0 -0.8117475817153269 1
gene  2 29 33 -1.3917919371577276 0 89.0 -1.3917919371577276 1
gene  2 30 33 -0.7988509481803685 0 90.0 -0.7988509481803685 1
gene  2 1 34 2.239185285848924 0 91.0 2.239185285848924 1
gene  2 2 34 -0.431109376192951 0 92.0 -0.431109376192951 1
gene  2 3 34 0.8271193201174762 0 93.0 0.8271193201174762 1
gene  2 4 34 -0.9527996355184181 0 94.0 -0.9527996355184181 1
gene  2 5 34 0.5108242349691983 0 95.0 0.5108242349691983 1
gene  2 6 34 0.6940892883271594 0 96.0 0.6940892883271594 1
gene  2 7 34 0.5737641382800169 0 97.0 0.5737641382800169 1
gene  2 8 34 -0.33017588524601016 0 98.0 -0.33017588524601016 1
gene  2 9 34 -0.7493925063404725 0 99.0 -0.7493925063404725 1
gene  2 10 34 -2.5954034595791815 0 100.0 -2.5954034595791815 1
gene  2 11 34 -1.78609620084439 0 101.0 -1.78609620084439 1
gene  2 12 34 1.6653326729670972 0 102.0 1.6653326729670972 1
gene  2 13 34 -2.399059503562767 0 103.0 -2.399059503562767 1
gene  2 14 34 -0.04913159915651949 0 104.0 -0.04913159915651949 1
gene  2 15 34 -3.757281757187297 0 105.0 -3.757281757187297 1
gene  2 16 34 -1.4724219269332097 0 106.0 -1.4724219269332097 1
gene  2 17 34 2.1813345346387516 0 107.0 2.1813345346387516 1
gene  2 18 34 1.6077356979012083 0 108.0 1.6077356979012083 1
gene  2 19 34 -1.7054828044581498 0 109.0 -1.7054828044581498 1
gene  2 20 34 -0.5958870929371376 0 110.0 -0.5958870929371376 1
gene  2 21 34 5.2693575951793346 0 111.0 5.2693575951793346 1
gene  2 22 34 -2.056594932285512 0 112.0 -2.056594932285512 1
gene  2 23 34 -1.9999060222020377 0 113.0 -1.9999060222020377 1
gene  2 24 34 -2.185563626838886 0 114.0 -2.185563626838886 1
gene  2 25 34 -2.4973906991762425 0 115.0 -2.4973906991762425 1
gene  2 26 34 -0.05489344545274777 0 116.0 -0.05489344545274777 1
gene  2 27 34 0.4531125031798622 0 117.0 0.4531125031798622 1
gene  2 28 34 -0.23226824875356256 0 118.0 -0.23226824875356256 1
gene  2 29 34 0.8838635971555484 0 119.0 0.8838635971555484 1
gene  2 30 34 0.7072947822673292 0 120.0 0.7072947822673292 1
gene  2 1 35 -2.394756661235383 0 121.0 -2.394756661235383 1
gene  2 2 35 1.650627990568239 0 122.0 1.650627990568239 1
gene  2 3 35 1.4099455145377102 0 123.0 1.4099455145377102 1
gene  2 4 35 0.27768577682718276 0 124.0 0.27768577682718276 1
gene  2 5 35 0.07921055822154743 0 125.0 0.07921055822154743 1
gene  2 6 35 -2.4480902494046948 0 126.0 -2.4480902494046948 1
gene  2 7 35 3.6017613291829456 0 127.0 3.6017613291829456 1
gene  2 8 35 -1.8631445698073401 0 128.0 -1.8631445698073401 1
gene  2 9 35 -5.867024013719405 0 129.0 -5.867024013719405 1
gene  2 10 35 -3.3227710395348256 0 130.0 -3.3227710395348256 1
gene  2 11 35 -0.7400807903501805 0 131.0 -0.7400807903501805 1
gene  2 12 35 2.3477077102430295 0 132.0 2.3477077102430295 1
gene  2 13 35 1.5494761174087652 0 133.0 1.5494761174087652 1
gene  2 14 35 4.6536936794271035 0 134.0 4.6536936794271035 1
gene  2 15 35 -0.8953259638758622 0 135.0 -0.8953259638758622 1
gene  2 16 35 0.49944828029676624 0 136.0 0.49944828029676624 1
gene  2 17 35 -0.3410475357877199 0 137.0 -0.3410475357877199 1
gene  2 18 35 -1.6739933757792413 0 138.0 -1.6739933757792413 1
gene  2 19 35 -1.155080609571013 0 139.0 -1.155080609571013 1
gene  2 20 35 1.809499854503227 0 140.0 1.809499854503227 1
gene  2 21 35 -0.25919269788994054 0 141.0 -0.25919269788994054 1
gene  2 22 35 -1.0503537189332544 0 142.0 -1.0503537189332544 1
gene  2 23 35 -2.033905016724297 0 143.0 -2.033905016724297 1
gene  2 24 35 2.3744523687579857 0 144.0 2.3744523687579857 1
gene  2 25 35 1.7305353135854045 0 145.0 1.7305353135854045 1
gene  2 26 35 0.6222043592644684 0 146.0 0.6222043592644684 1
gene  2 27 35 1.5038873364087872 0 147.0 1.5038873364087872 1
gene  2 28 35 -3.484010186358543 0 148.0 -3.484010186358543 1
gene  2 29 35 2.025171061003768 0 149.0 2.025171061003768 1
gene  2 30 35 1.9081161512443094 0 150.0 1.9081161512443094 1
gene  2 1 36 0.5368418540081037 0 151.0 0.5368418540081037 1
gene  2 2 36 1.868792136819302 0 152.0 1.868792136819302 1
gene  2 3 36 0.8162933548983717 0 153.0 0.8162933548983717 1
gene  2 4 36 -0.34356813696041355 0 154.0 -0.34356813696041355 1
gene  2 5 36 1.4930723893479807 0 155.0 1.4930723893479807 1
gene  2 6 36 2.512378951313834 0 156.0 2.512378951313834 1
gene  2 7 36 -0.4134007896471331 0 157.0 -0.4134007896471331 1
gene  2 8 36 -2.33496180234053 0 158.0 -2.33496180234053 1
gene  2 9 36 -2.6813968886332162 0 159.0 -2.6813968886332162 1
gene  2 10 36 2.0998775795271203 0 160.0 2.0998775795271203 1
gene  2 11 36 1.7434682239258121 0 161.0 1.7434682239258121 1
gene  2 12 36 1.9733048735172796 0 162.0 1.9733048735172796 1
gene  2 13 36 0.8665384881847595 0 163.0 0.8665384881847595 1
gene  2 14 36 0.9471485787908568 0 164.0 0.9471485787908568 1
gene  2 15 36 3.8446559117471484 0 165.0 3.8446559117471484 1
gene  2 16 36 -0.7659347831957142 0 166.0 -0.7659347831957142 1
gene  2 17 36 1.585160636206806 0 167.0 1.585160636206806 1
gene  2 18 36 4.475528260460575 0 168.0 4.475528260460575 1
gene  2 19 36 2.234846632373946 0 169.0 2.234846632373946 1
gene  2 20 36 1.0777365154041918 0 170.0 1.0777365154041918 1
gene  2 21 36 0.7733361570207843 0 171.0 0.7733361570207843 1
gene  2 22 36 0.3256581571015118 0 172.0 0.3256581571015118 1
gene  2 23 36 -0.6030740653271942 0 173.0 -0.6030740653271942 1
gene  2 24 36 -0.7029472075122062 0 174.0 -0.7029472075122062 1
gene  2 25 36 2.1076084695458857 0 175.0 2.1076084695458857 1
gene  2 26 36 -1.0023065384162706 0 176.0 -1.0023065384162706 1
gene  2 27 36 1.3722276956498973 0 177.0 1.3722276956498973 1
gene  2 28 36 3.604615996834033 0 178.0 3.604615996834033 1
gene  2 29 36 1.6085052619394227 0 179.0 1.6085052619394227 1
gene  2 30 36 0.21378052868770236 0 180.0 0.21378052868770236 1
gene  2 34 35 -1.834448125950905 0 193.0 -1.834448125950905 1
gene  2 25 41 3.4648177138005387 0 200.0 3.4648177138005387 1
gene  2 41 33 -0.32247457308039906 0 201.0 -0.32247457308039906 1
gene  2 16 51 -0.34299836034357 0 237.0 -0.34299836034357 1
gene  2 51 32 -0.7688529228007359 0 238.0 -0.7688529228007359 1
gene  1 51 36 -1.8156774076482924 0 247.0 -1.8156774076482924 1
genomeend 4
genomestart  5
trait 1 0.407717506511557 0.0 0.0 0.30772434452866226 0.0 0.0 0.0 0.0 
trait 2 0.1 0.0 0.0 0.0 0.0 0.0 0.0 0.0 
node 1 1 1 3
node 2 1 1 1
node 3 1 1 1
node 4 1 1 1
node 5 1 1 1
node 6 1 1 1
node 7 1 1 1
node 8 1 1 1
node 9 1 1 1
node 10 1 1 1
node 11 1 1 1
node 12 1 1 1
node 13 1 1 1
node 14 1 1 1
node 15 1 1 1
node 16 1 1 1
node 17 1 1 1
node 18 1 1 1
node 19 1 1 1
node 20 1 1 1
node 21 1 1 1
node 22 1 1 1
node 23 1 1 1
node 24 1 1 1
node 25 1 1 1
node 26 1 1 1
node 27 1 1 1
node 28 1 1 1
node 29 1 1 1
node 30 1 1 1
node 31 1 0 2
node 32 1 0 2
node 33 1 0 2
node 34 1 0 2
node 35 1 0 2
node 36 1 0 2
node 41 1 0 0
node 51 1 0 0
gene  1 1 31 0.007981945115667521 0 1.0 0.007981945115667521 1
gene  2 2 31 1.1471926581283975 0 2.0 1.1471926581283975 1
gene  2 3 31 0.13975896397504006 0 3.0 0.13975896397504006 1
gene  2 4 31 -2.292720659043181 0 4.0 -2.292720659043181 1
gene  2 5 31 -0.5082067591826452 0 5.0 -0.5082067591826452 1
gene  2 6 31 -0.8463558836568983 0 6.0 -0.8463558836568983 1
gene  2 7 31 -0.43071985986492567 0 7.0 -0.43071985986492567 1
gene  2 8 31 1.2691532090507218 0 8.0 1.2691532090507218 1
gene  2 9 31 0.10965840721914533 0 9.0 0.10965840721914533 1
gene  2 10 31 2.0330626051357537 0 10.0 2.0330626051357537 1
gene  2 11 31 -0.7142230304496129 0 11.0 -0.7142230304496129 1
gene  2 12 31 0.738519444449218 0 12.0 0.738519444449218 1
gene  2 13 31 -1.9738289251691037 0 13.0 -1.9738289251691037 1
gene  2 14 31 -2.3322470800864785 0 14.0 -2.3322470800864785 1
gene  2 15 31 4.330045618195115 0 15.0 4.330045618195115 1
gene  2 16 31 -0.3286344801827261 0 16.0 -0.3286344801827261 1
gene  2 17 31 -0.777577052775202 0 17.0 -0.777577052775202 1
gene  2 18 31 6.291732241155039 0 18.0 6.291732241155039 1
gene  2 19 31 0.44448627734324875 0 19.0 0.44448627734324875 1
gene  2 20 31 -3.361674317418105 0 20.0 -3.361674317418105 1
gene  2 21 31 0.564906421593879 0 21.0 0.564906421593879 1
gene  2 22 31 0.8738485562284577 0 22.0 0.8738485562284577 1
gene  2 23 31 2.862888135602214 0 23.0 2.862888135602214 1
gene  2 24 31 0.3366831422849171 0 24.0 0.3366831422849171 1
gene  2 25 31 -0.10616715287773726 0 25.0 -0.10616715287773726 1
gene  2 26 31 -0.9204266677286324 0 26.0 -0.9204266677286324 1
gene  2 27 31 -3.0949209562506232 0 27.0 -3.0949209562506232 1
gene  2 28 31 2.1072242851366054 0 28.0 2.1072242851366054 1
gene  2 29 31 0.8165096763771054 0 29.0 0.8165096763771054 1
gene  2 30 31 0.6381250369214168 0 30.0 0.6381250369214168 1
gene  2 1 32 1.702108584174257 0 31.0 1.702108584174257 1
gene  2 2 32 0.21342145817597274 0 32.0 0.21342145817597274 1
gene  2 3 32 -1.2734412771693358 0 33.0 -1.2734412771693358 1
gene  2 4 32 0.9430301480589508 0 34.0 0.9430301480589508 1
gene  2 5 32 3.624659595193785 0 35.0 3.624659595193785 1
gene  2 6 32 -1.503259832839507 0 36.0 -1.503259832839507 1
gene  2 7 32 -4.511218809187369 0 37.0 -4.511218809187369 1
gene  2 8 32 3.3882698551885664 0 38.0 3.3882698551885664 1
gene  2 9 32 -1.098085167908493 0 39.0 -1.098085167908493 1
gene  2 10 32 -0.3906510194010533 0 40.0 -0.3906510194010533 1
gene  2 11 32 -4.442729326587056 0 41.0 -4.442729326587056 1
gene  2 12 32 1.246252814051871 0 42.0 1.246252814051871 1
gene  2 13 32 0.392916457791024 0 43.0 0.392916457791024 1
gene  2 14 32 -4.59904684475091 0 44.0 -4.59904684475091 1
gene  2 15 32 -2.9669757877811347 0 45.0 -2.9669757877811347 1
gene  2 16 32 -1.531487434769317 0 46.0 -1.531487434769317 0
gene  2 17 32 5.047205190042991 0 47.0 5.047205190042991 1
gene  2 18 32 -0.3450035517042218 0 48.0 -0.3450035517042218 1
gene  2 19 32 0.6819605499804922 0 49.0 0.6819605499804922 1
gene  2 20 32 0.5103691593499433 0 50.0 0.5103691593499433 1
gene  2 21 32 -0.3914554269234465 0 51.0 -0.3914554269234465 1
gene  2 22 32 -0.26133511904022044 0 52.0 -0.26133511904022044 1
gene  2 23 32 1.9998462844520724 0 53.0 1.9998462844520724 1
gene  2 24 32 4.349228514599107 0 54.0 4.349228514599107 1
gene  2 25 32 1.1058935071412093 0 55.0 1.1058935071412093 1
gene  2 26 32 -3.212800614727223 0 56.0 -3.212800614727223 1
gene  2 27 32 -0.8635198675525195 0 57.0 -0.8635198675525195 1
gene  2 28 32 -1.9263798930067229 0 58.0 -1.9263798930067229 1
gene  2 29 32 -4.398378515022371 0 59.0 -4.398378515022371 1
gene  2 30 32 -2.351000994343533 0 60.0 -2.351000994343533 1
gene  2 1 33 -2.3647664545672678 0 61.0 -2.3647664545672678 1
gene  2 2 33 2.9870624799450396 0 62.0 2.9870624799450396 1
gene  2 3 33 -1.0673369010443179 0 63.0 -1.0673369010443179 1
gene  2 4 33 -0.2592417217864503 0 64.0 -0.2592417217864503 1
gene  2 5 33 -1.4464686932349196 0 65.0 -1.4464686932349196 1
gene  2 6 33 -4.284885037810577 0 66.0 -4.284885037810577 1
gene  2 7 33 -1.3770404177843811 0 67.0 -1.3770404177843811 1
gene  2 8 33 -4.348920774093555 0 68.0 -4.348920774093555 1
gene  2 9 33 2.447747901957511 0 69.0 2.447747901957511 1
gene  2 10 33 -1.789251034281225 0 70.0 -1.789251034281225 1
gene  2 11 33 -1.7134687040046028 0 71.0 -1.7134687040046028 1
gene  2 12 33 4.090179313693141 0 72.0 4.090179313693141 1
gene  2 13 33 -3.0460258037474204 0 73.0 -3.0460258037474204 1
gene  2 14 33 0.4893475283595885 0 74.0 0.4893475283595885 1
gene  2 15 33 -1.0996911313111895 0 75.0 -1.0996911313111895 1
gene  2 16 33 0.49697501037567604 0 76.0 0.49697501037567604 1
gene  2 17 33 -1.0366405901810933 0 77.0 -1.0366405901810933 1
gene  2 18 33 1.6610816815234106 0 78.0 1.6610816815234106 1
gene  2 19 33 1.7558539351488802 0 79.0 1.7558539351488802 1
gene  2 20 33 6.695435157939521 0 80.0 6.695435157939521 1
gene  2 21 33 1.0008656563937257 0 81.0 1.0008656563937257 1
gene  2 22 33 -0.5638513132093242 0 82.0 -0.5638513132093242 1
gene  2 23 33 -0.16123526765010476 0 83.0 -0.16123526765010476 1
gene  2 24 33 2.136718790760933 0 84.0 2.136718790760933 1
gene  2 25 33 -0.042118837096857265 0 85.0 -0.042118837096857265 0
gene  2 26 33 0.12474421172845518 0 86.0 0.12474421172845518 1
gene  2 27 33 -3.442465641959505 0 87.0 -3.442465641959505 1
gene  2 28 33 -0.9181040686818104 0 88.0 -0.9181040686818104 1
gene  2 29 33 -1.1264694363492473 0 89.0 -1.1264694363492473 1
gene  2 30 33 1.4519184945929333 0 90.0 1.4519184945929333 1
gene  2 1 34 2.980620754836043 0 91.0 2.980620754836043 1
gene  2 2 34 -2.8115182980112468 0 92.0 -2.8115182980112468 1
gene  2 3 34 0.4781403664846007 0 93.0 0.4781403664846007 1
gene  2 4 34 -1.2928686720985436 0 94.0 -1.2928686720985436 1
gene  2 5 34 2.4785577844983653 0 95.0 2.4785577844983653 1
gene  2 6 34 -1.1155055353135586 0 96.0 -1.1155055353135586 1
gene  2 7 34 -0.30956549962815094 0 97.0 -0.30956549962815094 1
gene  2 8 34 -2.7846136934043253 0 98.0 -2.7846136934043253 1
gene  2 9 34 -3.9776205106460854 0 99.0 -3.9776205106460854 1
gene  2 10 34 -1.046109135449936 0 100.0 -1.046109135449936 1
gene  2 11 34 -0.9458649684522137 0 101.0 -0.9458649684522137 1
gene  2 12 34 -1.6484341452777946 0 102.0 -1.6484341452777946 1
gene  2 13 34 -0.424006168780469 0 103.0 -0.424006168780469 1
gene  2 14 34 1.1369592861610167 0 104.0 1.1369592861610167 1
gene  2 15 34 -6.068912969169113 0 105.0 -6.068912969169113 1
gene  2 16 34 3.5550111736226104 0 106.0 3.5550111736226104 1
gene  2 17 34 1.6343283684689605 0 107.0 1.6343283684689605 1
gene  2 18 34 3.3834513851044337 0 108.0 3.3834513851044337 1
gene  2 19 34 -1.1346847530474338 0 109.0 -1.1346847530474338 1
gene  2 20 34 -1.9232525014903956 0 110.0 -1.9232525014903956 1
gene  2 21 34 1.976246448748381 0 111.0 1.976246448748381 1
gene  2 22 34 0.5381754483144101 0 112.0 0.5381754483144101 1
gene  2 23 34 2.0115511068384317 0 113.0 2.0115511068384317 1
gene  2 24 34 -1.8965985633505462 0 114.0 -1.8965985633505462 1
gene  2 25 34 -0.17288412250649343 0 115.0 -0.17288412250649343 1
gene  2 26 34 1.3772684454588437 0 116.0 1.3772684454588437 1
gene  2 27 34 -0.20300912825451523 0 117.0 -0.20300912825451523 1
gene  2 28 34 2.6801582248879825 0 118.0 2.6801582248879825 1
gene  2 29 34 -2.355346756721319 0 119.0 -2.355346756721319 1
gene  2 30 34 0.9939059710306168 0 120.0 0.9939059710306168 1
gene  2 1 35 2.858058691049555 0 121.0 2.858058691049555 1
gene  2 2 35 0.2583091037758356 0 122.0 0.2583091037758356 1
gene  2 3 35 4.226211508925164 0 123.0 4.226211508925164 1
gene  2 4 35 0.21067534788154507 0 124.0 0.21067534788154507 1
gene  2 5 35 2.383445550676223 0 125.0 2.383445550676223 1
gene  2 6 35 -3.6653995283286482 0 126.0 -3.6653995283286482 1
gene  2 7 35 -0.06474555781473934 0 127.0 -0.06474555781473934 1
gene  2 8 35 -1.900460404704433 0 128.0 -1.900460404704433 1
gene  2 9 35 -5.601863000572452 0 129.0 -5.601863000572452 1
gene  2 10 35 -0.499257319831206 0 130.0 -0.499257319831206 1
gene  2 11 35 1.3250821664093395 0 131.0 1.3250821664093395 1
gene  2 12 35 -1.343265568383693 0 132.0 -1.343265568383693 1
gene  2 13 35 0.9369944109764585 0 133.0 0.9369944109764585 1
gene  2 14 35 2.0335433407464847 0 134.0 2.0335433407464847 1
gene  2 15 35 -2.272205915370758 0 135.0 -2.272205915370758 1
gene  2 16 35 -0.7417974117812571 0 136.0 -0.7417974117812571 1
gene  2 17 35 2.8497129588389742 0 137.0 2.8497129588389742 1
gene  2 18 35 -0.6111206604806136 0 138.0 -0.6111206604806136 1
gene  2 19 35 -1.3347508016841818 0 139.0 -1.3347508016841818 1
gene  2 20 35 0.4408630651713019 0 140.0 0.4408630651713019 1
gene  2 21 35 -0.7272052411111729 0 141.0 -0.7272052411111729 1
gene  2 22 35 -1.5349237820550203 0 142.0 -1.5349237820550203 1
gene  2 23 35 -5.153907459789351 0 143.0 -5.153907459789351 1
gene  2 24 35 -0.7159361894330312 0 144.0 -0.7159361894330312 1
gene  2 25 35 -2.96479722539845 0 145.0 -2.96479722539845 1
gene  2 26 35 4.876683269556806 0 146.0 4.876683269556806 1
gene  2 27 35 -0.028222960751245862 0 147.0 -0.028222960751245862 1
gene  2 28 35 -0.5709513133586412 0 148.0 -0.5709513133586412 1
gene  2 29 35 0.5522064220052156 0 149.0 0.5522064220052156 1
gene  2 30 35 0.3141002242935783 0 150.0 0.3141002242935783 1
gene  2 1 36 -1.590657239801404 0 151.0 -1.590657239801404 1
gene  2 2 36 -0.07726520664546405 0 152.0 -0.07726520664546405 1
gene  2 3 36 1.0669156008904557 0 153.0 1.0669156008904557 1
gene  2 4 36 1.6819002537224534 0 154.0 1.6819002537224534 1
gene  2 5 36 -1.2299177356280488 0 155.0 -1.2299177356280488 1
gene  2 6 36 1.1959302574351667 0 156.0 1.1959302574351667 1
gene  2 7 36 -1.8568831691090713 0 157.0 -1.8568831691090713 1
gene  2 8 36 -2.33496180234053 0 158.0 -2.33496180234053 1
gene  2 9 36 -3.863827578949558 0 159.0 -3.863827578949558 1
gene  2 10 36 1.480002184604345 0 160.0 1.480002184604345 1
gene  2 11 36 3.0743485754651463 0 161.0 3.0743485754651463 1
gene  2 12 36 -2.941834297665815 0 162.0 -2.941834297665815 1
gene  2 13 36 -2.768248582778967 0 163.0 -2.768248582778967 1
gene  2 14 36 -0.2236413537095896 0 164.0 -0.2236413537095896 1
gene  2 15 36 3.656612978164876 0 165.0 3.656612978164876 1
gene  2 16 36 2.153978149743028 0 166.0 2.153978149743028 1
gene  2 17 36 -0.22118436475723935 0 167.0 -0.22118436475723935 1
gene  2 18 36 2.700571995086766 0 168.0 2.700571995086766 1
gene  2 19 36 0.5890292772720612 0 169.0 0.5890292772720612 1
gene  2 20 36 0.4987318570897745 0 170.0 0.4987318570897745 1
gene  2 21 36 0.18711738123633093 0 171.0 0.18711738123633093 1
gene  2 22 36 2.412498298461354 0 172.0 2.412498298461354 1
gene  2 23 36 0.11233379845433022 0 173.0 0.11233379845433022 1
gene  2 24 36 0.9266086087458831 0 174.0 0.9266086087458831 1
gene  2 25 36 3.4751440440092347 0 175.0 3.4751440440092347 1
gene  2 26 36 0.33854669254224934 0 176.0 0.33854669254224934 1
gene  2 27 36 0.4137930815457841 0 177.0 0.4137930815457841 1
gene  2 28 36 1.6692772102591324 0 178.0 1.6692772102591324 1
gene  2 29 36 -0.2755215152083952 0 179.0 -0.2755215152083952 1
gene  2 30 36 -2.9711951332846716 0 180.0 -2.9711951332846716 1
gene  2 34 35 -1.9478456420748282 0 193.0 -1.9478456420748282 1
gene  2 25 41 1.5923118404287389 0 200.0 1.5923118404287389 1
gene  2 41 33 -0.5731723298715392 0 201.0 -0.5731723298715392 1
gene  2 16 51 1.120896090581485 0 237.0 1.120896090581485 1
gene  2 51 32 -1.530359110023557 0 238.0 -1.530359110023557 1
gene  1 51 36 2.5187041495768474 0 247.0 2.5187041495768474 1
gene  1 35 36 2.147145081238788 0 334.0 2.147145081238788 1
genomeend 5
genomestart  6
trait 1 0.1 0.0 0.0 0.0 0.0 0.0 0.0 0.0 
trait 2 0.1 0.0 0.0 0.0 0.0 0.0 0.0 0.0 
node 1 1 1 3
node 2 1 1 1
node 3 1 1 1
node 4 1 1 1
node 5 1 1 1
node 6 1 1 1
node 7 1 1 1
node 8 1 1 1
node 9 1 1 1
node 10 1 1 1
node 11 1 1 1
node 12 1 1 1
node 13 1 1 1
node 14 1 1 1
node 15 1 1 1
node 16 1 1 1
node 17 1 1 1
node 18 1 1 1
node 19 1 1 1
node 20 1 1 1
node 21 2 1 1
node 22 1 1 1
node 23 1 1 1
node 24 1 1 1
node 25 1 1 1
node 26 1 1 1
node 27 1 1 1
node 28 1 1 1
node 29 1 1 1
node 30 1 1 1
node 31 1 0 2
node 32 1 0 2
node 33 1 0 2
node 34 1 0 2
node 35 1 0 2
node 36 1 0 2
node 41 1 0 0
node 51 1 0 0
gene  1 1 31 0.061602211018962905 0 1.0 0.061602211018962905 1
gene  2 2 31 -0.024535572605561606 0 2.0 -0.024535572605561606 1
gene  2 3 31 -0.6706452519594814 0 3.0 -0.6706452519594814 1
gene  2 4 31 -4.2043995102831255 0 4.0 -4.2043995102831255 1
gene  2 5 31 1.4954928210665128 0 5.0 1.4954928210665128 1
gene  2 6 31 1.8426719816334196 0 6.0 1.8426719816334196 1
gene  2 7 31 0.8587995665008454 0 7.0 0.8587995665008454 1
gene  2 8 31 0.39671618395622277 0 8.0 0.39671618395622277 1
gene  2 9 31 -1.7600229800669553 0 9.0 -1.7600229800669553 1
gene  2 10 31 4.438164839840038 0 10.0 4.438164839840038 1
gene  2 11 31 1.574873382804568 0 11.0 1.574873382804568 1
gene  2 12 31 0.13894403784888376 0 12.0 0.13894403784888376 1
gene  2 13 31 1.1706806769411786 0 13.0 1.1706806769411786 1
gene  2 14 31 -1.898275946301104 0 14.0 -1.898275946301104 1
gene  2 15 31 1.8130320408761564 0 15.0 1.8130320408761564 1
gene  2 16 31 -0.7488885720576705 0 16.0 -0.7488885720576705 1
gene  2 17 31 -3.412623976292343 0 17.0 -3.412623976292343 1
gene  2 18 31 5.591029103316951 0 18.0 5.591029103316951 1
gene  2 19 31 2.1854644902800473 0 19.0 2.1854644902800473 1
gene  2 20 31 -4.447039254183153 0 20.0 -4.447039254183153 1
gene  2 21 31 -0.01872404249345233 0 21.0 -0.01872404249345233 1
gene  2 22 31 0.43103979708320206 0 22.0 0.43103979708320206 1
gene  2 23 31 4.956943201680993 0 23.0 4.956943201680993 1
gene  2 24 31 0.5845074921442379 0 24.0 0.5845074921442379 1
gene  2 25 31 -0.06058053643571926 0 25.0 -0.06058053643571926 1
gene  2 26 31 0.6287454915498814 0 26.0 0.6287454915498814 1
gene  2 27 31 1.6091416033724926 0 27.0 1.6091416033724926 1
gene  2 28 31 4.134939868202532 0 28.0 4.134939868202532 1
gene  2 29 31 -1.6466519958217094 0 29.0 -1.6466519958217094 1
gene  2 30 31 2.022798982155794 0 30.0 2.022798982155794 1
gene  2 1 32 -0.08213438893167141 0 31.0 -0.08213438893167141 1
gene  2 2 32 0.8387901941103134 0 32.0 0.8387901941103134 1
gene  2 3 32 -2.727655326913726 0 33.0 -2.727655326913726 1
gene  2 4 32 2.385841744732528 0 34.0 2.385841744732528 1
gene  2 5 32 1.6645913475662264 0 35.0 1.6645913475662264 1
gene  2 6 32 0.7313723006118192 0 36.0 0.7313723006118192 1
gene  2 7 32 0.7775324578153167 0 37.0 0.7775324578153167 1
gene  2 8 32 0.5850358062194072 0 38.0 0.5850358062194072 1
gene  2 9 32 1.5495970915308224 0 39.0 1.5495970915308224 1
gene  2 10 32 -2.5447930530700322 0 40.0 -2.5447930530700322 1
gene  2 11 32 1.8765111174103042 0 41.0 1.8765111174103042 1
gene  2 12 32 -1.4551556792392686 0 42.0 -1.4551556792392686 1
gene  2 13 32 -0.07781827542270059 0 43.0 -0.07781827542270059 1
gene  2 14 32 -1.9090012719430396 0 44.0 -1.9090012719430396 1
gene  2 15 32 0.41783501688132074 0 45.0 0.41783501688132074 1
gene  2 16 32 -0.6763405949552121 0 46.0 -0.6763405949552121 0
gene  2 17 32 2.1904210921896263 0 47.0 2.1904210921896263 1
gene  2 18 32 0.35016141783990173 0 48.0 0.35016141783990173 1
gene  2 19 32 0.2503431481098145 0 49.0 0.2503431481098145 1
gene  2 20 32 -0.20942304582070603 0 50.0 -0.20942304582070603 1
gene  2 21 32 -3.586442294977811 0 51.0 -3.586442294977811 1
gene  2 22 32 -1.2347069067410266 0 52.0 -1.2347069067410266 1
gene  2 23 32 -0.8598963657208242 0 53.0 -0.8598963657208242 1
gene  2 24 32 1.2115124568192566 0 54.0 1.2115124568192566 1
gene  2 25 32 -0.8404998136345092 0 55.0 -0.8404998136345092 1
gene  2 26 32 -5.743996832447687 0 56.0 -5.743996832447687 1
gene  2 27 32 0.7013225769620668 0 57.0 0.7013225769620668 1
gene  2 28 32 -0.4590074775298506 0 58.0 -0.4590074775298506 1
gene  2 29 32 -1.3833212931995158 0 59.0 -1.3833212931995158 1
gene  2 30 32 -2.3024754922073116 0 60.0 -2.3024754922073116 1
gene  2 1 33 -0.7467579186370993 0 61.0 -0.7467579186370993 1
gene  2 2 33 3.481785016277177 0 62.0 3.481785016277177 1
gene  2 3 33 1.9023846206764805 0 63.0 1.9023846206764805 1
gene  2 4 33 -1.812538869591599 0 64.0 -1.812538869591599 1
gene  2 5 33 -4.334687353405613 0 65.0 -4.334687353405613 1
gene  2 6 33 -0.5148892240160494 0 66.0 -0.5148892240160494 1
gene  2 7 33 -0.20362809312225894 0 67.0 -0.20362809312225894 1
gene  2 8 33 0.9040202984478285 0 68.0 0.9040202984478285 1
gene  2 9 33 -0.05171340861905138 0 69.0 -0.05171340861905138 1
gene  2 10 33 -5.256343963446668 0 70.0 -5.256343963446668 1
gene  2 11 33 -2.3152335782437374 0 71.0 -2.3152335782437374 1
gene  2 12 33 2.0849526832809167 0 72.0 2.0849526832809167 1
gene  2 13 33 -1.9413198019173823 0 73.0 -1.9413198019173823 1
gene  2 14 33 -1.698223354481012 0 74.0 -1.698223354481012 1
gene  2 15 33 -0.48875957404655274 0 75.0 -0.48875957404655274 1
gene  2 16 33 1.7573333983713637 0 76.0 1.7573333983713637 1
gene  2 17 33 -0.2516433259179458 0 77.0 -0.2516433259179458 1
gene  2 18 33 0.2361858152384229 0 78.0 0.2361858152384229 1
gene  2 19 33 3.5878170401711174 0 79.0 3.5878170401711174 1
gene  2 20 33 2.725857172925922 0 80.0 2.725857172925922 1
gene  2 21 33 2.8220800173505287 0 81.0 2.8220800173505287 1
gene  2 22 33 -1.0420950319408304 0 82.0 -1.0420950319408304 1
gene  2 23 33 -0.5435547406693841 0 83.0 -0.5435547406693841 1
gene  2 24 33 0.22284223128009795 0 84.0 0.22284223128009795 1
gene  2 25 33 -1.0842534734190887 0 85.0 -1.0842534734190887 0
gene  2 26 33 3.3458456363133453 0 86.0 3.3458456363133453 1
gene  2 27 33 -3.4950270309446276 0 87.0 -3.4950270309446276 1
gene  2 28 33 -3.254726237880158 0 88.0 -3.254726237880158 1
gene  2 29 33 -1.109505447699902 0 89.0 -1.109505447699902 1
gene  2 30 33 0.05398523326136023 0 90.0 0.05398523326136023 1
gene  2 1 34 0.7563746330623138 0 91.0 0.7563746330623138 1
gene  2 2 34 -2.6584997394525063 0 92.0 -2.6584997394525063 1
gene  2 3 34 1.6160230954466839 0 93.0 1.6160230954466839 1
gene  2 4 34 -1.3848500832743063 0 94.0 -1.3848500832743063 1
gene  2 5 34 -1.4282677361843605 0 95.0 -1.4282677361843605 1
gene  2 6 34 0.7996283584576453 0 96.0 0.7996283584576453 1
gene  2 7 34 2.3595478704521198 0 97.0 2.3595478704521198 1
gene  2 8 34 -2.937594435783105 0 98.0 -2.937594435783105 1
gene  2 9 34 -4.263691891792792 0 99.0 -4.263691891792792 1
gene  2 10 34 -2.2293459627971752 0 100.0 -2.2293459627971752 1
gene  2 11 34 -3.4234137184271765 0 101.0 -3.4234137184271765 1
gene  2 12 34 0.3605078582667276 0 102.0 0.3605078582667276 1
gene  2 13 34 -0.4745314580239264 0 103.0 -0.4745314580239264 1
gene  2 14 34 -2.0875652882006364 0 104.0 -2.0875652882006364 1
gene  2 15 34 -4.761047605732968 0 105.0 -4.761047605732968 1
gene  2 16 34 4.1721123079151585 0 106.0 4.1721123079151585 1
gene  2 17 34 1.311840325606392 0 107.0 1.311840325606392 1
gene  2 18 34 1.3931108040432199 0 108.0 1.3931108040432199 1
gene  2 19 34 0.8250360731815638 0 109.0 0.8250360731815638 1
gene  2 20 34 1.714524800982743 0 110.0 1.714524800982743 1
gene  2 21 34 5.1073957296268695 0 111.0 5.1073957296268695 1
gene  2 22 34 -0.09151371163270361 0 112.0 -0.09151371163270361 1
gene  2 23 34 1.597972304682056 0 113.0 1.597972304682056 1
gene  2 24 34 -1.4240714023734051 0 114.0 -1.4240714023734051 1
gene  2 25 34 -0.22801934179624994 0 115.0 -0.22801934179624994 1
gene  2 26 34 2.4795591859976382 0 116.0 2.4795591859976382 1
gene  2 27 34 1.3183217786386778 0 117.0 1.3183217786386778 1
gene  2 28 34 2.83833205757769 0 118.0 2.83833205757769 1
gene  2 29 34 -3.475887381838046 0 119.0 -3.475887381838046 1
gene  2 30 34 -1.5572762950748387 0 120.0 -1.5572762950748387 1
gene  2 1 35 2.7621631392461605 0 121.0 2.7621631392461605 1
gene  2 2 35 3.1864117694022207 0 122.0 3.1864117694022207 1
gene  2 3 35 0.04275838495832435 0 123.0 0.04275838495832435 1
gene  2 4 35 -0.6825162799333844 0 124.0 -0.6825162799333844 1
gene  2 5 35 0.07921055822154743 0 125.0 0.07921055822154743 1
gene  2 6 35 -2.0747648965666516 0 126.0 -2.0747648965666516 1
gene  2 7 35 0.8658291896677469 0 127.0 0.8658291896677469 1
gene  2 8 35 -0.12937769205058358 0 128.0 -0.12937769205058358 1
gene  2 9 35 -1.5716446149850105 0 129.0 -1.5716446149850105 1
gene  2 10 35 -2.014540963430602 0 130.0 -2.014540963430602 1
gene  2 11 35 -0.5115803760100022 0 131.0 -0.5115803760100022 1
gene  2 12 35 0.4125625871122131 0 132.0 0.4125625871122131 1
gene  2 13 35 2.505032431333534 0 133.0 2.505032431333534 1
gene  2 14 35 5.956883469512763 0 134.0 5.956883469512763 1
gene  2 15 35 1.8842827416961885 0 135.0 1.8842827416961885 1
gene  2 16 35 -0.6272277835683633 0 136.0 -0.6272277835683633 1
gene  2 17 35 2.8758319631858087 0 137.0 2.8758319631858087 1
gene  2 18 35 1.0055026037852197 0 138.0 1.0055026037852197 1
gene  2 19 35 -2.086129217549577 0 139.0 -2.086129217549577 1
gene  2 20 35 1.154476162271896 0 140.0 1.154476162271896 1
gene  2 21 35 -1.8573862955430835 0 141.0 -1.8573862955430835 1
gene  2 22 35 -2.0984742912928693 0 142.0 -2.0984742912928693 1
gene  2 23 35 -3.601915547589689 0 143.0 -3.601915547589689 1
gene  2 24 35 0.8475046213846114 0 144.0 0.8475046213846114 1
gene  2 25 35 1.0250305442012375 0 145.0 1.0250305442012375 1
gene  2 26 35 3.271563247708608 0 146.0 3.271563247708608 1
gene  2 27 35 -0.8674730053385766 0 147.0 -0.8674730053385766 1
gene  2 28 35 -0.3941906025877455 0 148.0 -0.3941906025877455 1
gene  2 29 35 0.2639747730173876 0 149.0 0.2639747730173876 1
gene  2 30 35 1.8918160911749358 0 150.0 1.8918160911749358 1
gene  2 1 36 2.5872910387489902 0 151.0 2.5872910387489902 1
gene  2 2 36 2.441951053596354 0 152.0 2.441951053596354 1
gene  2 3 36 -1.293972742176651 0 153.0 -1.293972742176651 1
gene  2 4 36 0.36020571192041806 0 154.0 0.36020571192041806 1
gene  2 5 36 -1.633953530165423 0 155.0 -1.633953530165423 1
gene  2 6 36 2.984871277923592 0 156.0 2.984871277923592 1
gene  2 7 36 -0.5873380604250777 0 157.0 -0.5873380604250777 1
gene  2 8 36 2.1003218568299604 0 158.0 2.1003218568299604 1
gene  2 9 36 -5.025955215093262 0 159.0 -5.025955215093262 1
gene  2 10 36 1.2078820036598517 0 160.0 1.2078820036598517 1
gene  2 11 36 -0.6669479189905412 0 161.0 -0.6669479189905412 1
gene  2 12 36 -0.03713640393381468 0 162.0 -0.03713640393381468 1
gene  2 13 36 -1.5731760273038797 0 163.0 -1.5731760273038797 1
gene  2 14 36 3.4752231790933514 0 164.0 3.4752231790933514 1
gene  2 15 36 2.427475499812904 0 165.0 2.427475499812904 1
gene  2 16 36 -2.2839730443481967 0 166.0 -2.2839730443481967 1
gene  2 17 36 3.9417306493975612 0 167.0 3.9417306493975612 1
gene  2 18 36 6.997829715644192 0 168.0 6.997829715644192 1
gene  2 19 36 1.3504299154645827 0 169.0 1.3504299154645827 1
gene  2 20 36 1.559254453803972 0 170.0 1.559254453803972 1
gene  2 21 36 -1.0961985675638182 0 171.0 -1.0961985675638182 1
gene  2 22 36 2.307699098892058 0 172.0 2.307699098892058 1
gene  2 23 36 -1.8690276027374944 0 173.0 -1.8690276027374944 1
gene  2 24 36 2.526229020707009 0 174.0 2.526229020707009 1
gene  2 25 36 -1.0041453590242129 0 175.0 -1.0041453590242129 1
gene  2 26 36 1.0537323838104846 0 176.0 1.0537323838104846 1
gene  2 27 36 1.9996041158962736 0 177.0 1.9996041158962736 1
gene  2 28 36 2.056407267541747 0 178.0 2.056407267541747 1
gene  2 29 36 1.9791156334644664 0 179.0 1.9791156334644664 1
gene  2 30 36 0.1906082206399593 0 180.0 0.1906082206399593 1
gene  2 34 35 1.9969474084740524 0 193.0 1.9969474084740524 1
gene  2 25 41 3.286395791104641 0 200.0 3.286395791104641 1
gene  2 41 33 2.914819767971834 0 201.0 2.914819767971834 1
gene  2 16 51 2.872243234511548 0 237.0 2.872243234511548 1
gene  2 51 32 2.324904581856792 0 238.0 2.324904581856792 1
gene  1 51 36 2.7565523133177425 0 247.0 2.7565523133177425 1
gene  1 35 36 0.11522116381156522 0 334.0 0.11522116381156522 1
genomeend 6
genomestart  7
trait 1 0.1 0.0 0.0 0.0 0.0 0.0 0.0 0.0 
trait 2 0.1 0.0 0.0 0.0 0.0 0.0 0.0 0.0 
node 1 1 1 3
node 2 1 1 1
node 3 1 1 1
node 4 1 1 1
node 5 1 1 1
node 6 1 1 1
node 7 1 1 1
node 8 1 1 1
node 9 1 1 1
node 10 1 1 1
node 11 1 1 1
node 12 1 1 1
node 13 1 1 1
node 14 1 1 1
node 15 1 1 1
node 16 1 1 1
node 17 1 1 1
node 18 1 1 1
node 19 1 1 1
node 20 1 1 1
node 21 1 1 1
node 22 1 1 1
node 23 1 1 1
node 24 1 1 1
node 25 1 1 1
node 26 1 1 1
node 27 1 1 1
node 28 1 1 1
node 29 1 1 1
node 30 1 1 1
node 31 1 0 2
node 32 1 0 2
node 33 1 0 2
node 34 1 0 2
node 35 1 0 2
node 36 1 0 2
node 41 1 0 0
node 51 1 0 0
gene  1 1 31 -2.3308068686047654 0 1.0 -2.3308068686047654 1
gene  2 2 31 -0.2769691300743352 0 2.0 -0.2769691300743352 1
gene  2 3 31 -0.19912982268820412 0 3.0 -0.19912982268820412 1
gene  2 4 31 -1.0763101022502077 0 4.0 -1.0763101022502077 1
gene  2 5 31 -1.0325222194843422 0 5.0 -1.0325222194843422 1
gene  2 6 31 -1.0080619931925265 0 6.0 -1.0080619931925265 1
gene  2 7 31 -1.0505454583788152 0 7.0 -1.0505454583788152 1
gene  2 8 31 -0.32321304209998314 0 8.0 -0.32321304209998314 1
gene  2 9 31 0.20904500856237213 0 9.0 0.20904500856237213 1
gene  2 10 31 1.9547886632950955 0 10.0 1.9547886632950955 1
gene  2 11 31 -0.527758020335207 0 11.0 -0.527758020335207 1
gene  2 12 31 -0.3460191535544968 0 12.0 -0.3460191535544968 1
gene  2 13 31 -1.0739381188621977 0 13.0 -1.0739381188621977 1
gene  2 14 31 -2.6128565539263535 0 14.0 -2.6128565539263535 1
gene  2 15 31 2.453083177057831 0 15.0 2.453083177057831 1
gene  2 16 31 -2.9052139118025915 0 16.0 -2.9052139118025915 1
gene  2 17 31 -4.602804383252826 0 17.0 -4.602804383252826 1
gene  2 18 31 4.648009748518103 0 18.0 4.648009748518103 1
gene  2 19 31 1.6556931504482972 0 19.0 1.6556931504482972 1
gene  2 20 31 -2.538127250202941 0 20.0 -2.538127250202941 1
gene  2 21 31 1.777674407570038 0 21.0 1.777674407570038 1
gene  2 22 31 -0.32870403031169304 0 22.0 -0.32870403031169304 1
gene  2 23 31 1.5709933347747962 0 23.0 1.5709933347747962 1
gene  2 24 31 -0.5370858725273494 0 24.0 -0.5370858725273494 1
gene  2 25 31 2.3992177214072514 0 25.0 2.3992177214072514 1
gene  2 26 31 1.6305392519369735 0 26.0 1.6305392519369735 1
gene  2 27 31 -1.5160241446499785 0 27.0 -1.5160241446499785 1
gene  2 28 31 4.226379609822575 0 28.0 4.226379609822575 1
gene  2 29 31 2.9333541662754974 0 29.0 2.9333541662754974 1
gene  2 30 31 0.820178276630745 0 30.0 0.820178276630745 1
gene  2 1 32 0.13504627361594945 0 31.0 0.13504627361594945 1
gene  2 2 32 0.7485754441726052 0 32.0 0.7485754441726052 1
gene  2 3 32 -2.470149141404744 0 33.0 -2.470149141404744 1
gene  2 4 32 -0.6185719944021133 0 34.0 -0.6185719944021133 1
gene  2 5 32 1.8667236826165967 0 35.0 1.8667236826165967 1
gene  2 6 32 1.7747149736272645 0 36.0 1.7747149736272645 1
gene  2 7 32 -4.7084414386414215 0 37.0 -4.7084414386414215 1
gene  2 8 32 4.029553213165306 0 38.0 4.029553213165306 1
gene  2 9 32 -2.5621991323720796 0 39.0 -2.5621991323720796 1
gene  2 10 32 -1.607919895190605 0 40.0 -1.607919895190605 1
gene  2 11 32 -2.093253328576865 0 41.0 -2.093253328576865 1
gene  2 12 32 -0.4460381677760123 0 42.0 -0.4460381677760123 1
gene  2 13 32 -3.333354161007291 0 43.0 -3.333354161007291 1
gene  2 14 32 -1.278968182462815 0 44.0 -1.278968182462815 1
gene  2 15 32 0.2663539578206826 0 45.0 0.2663539578206826 1
gene  2 16 32 0.8688886678682657 0 46.0 0.8688886678682657 0
gene  2 17 32 0.6274697543798822 0 47.0 0.6274697543798822 1
gene  2 18 32 1.1725289174160651 0 48.0 1.1725289174160651 1
gene  2 19 32 0.6184807704976751 0 49.0 0.6184807704976751 1
gene  2 20 32 -1.6908667663675971 0 50.0 -1.6908667663675971 1
gene  2 21 32 -3.61842357562956 0 51.0 -3.61842357562956 1
gene  2 22 32 -2.6478140144856095 0 52.0 -2.6478140144856095 1
gene  2 23 32 -0.14090111335340666 0 53.0 -0.14090111335340666 1
gene  2 24 32 1.335626922146818 0 54.0 1.335626922146818 1
gene  2 25 32 1.4975775279220362 0 55.0 1.4975775279220362 1
gene  2 26 32 -1.6329410537575506 0 56.0 -1.6329410537575506 1
gene  2 27 32 -2.235215676490811 0 57.0 -2.235215676490811 1
gene  2 28 32 0.5288848962266419 0 58.0 0.5288848962266419 1
gene  2 29 32 -3.064297639175611 0 59.0 -3.064297639175611 1
gene  2 30 32 -2.1767839959681505 0 60.0 -2.1767839959681505 1
gene  2 1 33 -2.323572578409868 0 61.0 -2.323572578409868 1
gene  2 2 33 4.617582395328581 0 62.0 4.617582395328581 1
gene  2 3 33 2.471095490956729 0 63.0 2.471095490956729 1
gene  2 4 33 -1.1854751892842792 0 64.0 -1.1854751892842792 1
gene  2 5 33 -5.043030642481602 0 65.0 -5.043030642481602 1
gene  2 6 33 -2.402384050886949 0 66.0 -2.402384050886949 1
gene  2 7 33 -1.718532834389547 0 67.0 -1.718532834389547 1
gene  2 8 33 -3.5482695001463673 0 68.0 -3.5482695001463673 1
gene  2 9 33 2.9318592358439655 0 69.0 2.9318592358439655 1
gene  2 10 33 -2.6516759410460224 0 70.0 -2.6516759410460224 1
gene  2 11 33 -1.6676564522187698 0 71.0 -1.6676564522187698 1
gene  2 12 33 2.0849526832809167 0 72.0 2.0849526832809167 1
gene  2 13 33 2.478113976707138 0 73.0 2.478113976707138 1
gene  2 14 33 -1.4299493251008282 0 74.0 -1.4299493251008282 1
gene  2 15 33 0.7886543978791825 0 75.0 0.7886543978791825 1
gene  2 16 33 1.5526885737505645 0 76.0 1.5526885737505645 1
gene  2 17 33 -1.9739937125386882 0 77.0 -1.9739937125386882 1
gene  2 18 33 -0.41368942804647735 0 78.0 -0.41368942804647735 1
gene  2 19 33 1.1469353894160408 0 79.0 1.1469353894160408 1
gene  2 20 33 4.921803947401791 0 80.0 4.921803947401791 1
gene  2 21 33 -0.2528516313293736 0 81.0 -0.2528516313293736 1
gene  2 22 33 -2.932205766695001 0 82.0 -2.932205766695001 1
gene  2 23 33 -2.1495663926046253 0 83.0 -2.1495663926046253 1
gene  2 24 33 -0.18574589717890988 0 84.0 -0.18574589717890988 1
gene  2 25 33 -1.0099718629323768 0 85.0 -1.0099718629323768 0
gene  2 26 33 2.322437385961859 0 86.0 2.322437385961859 1
gene  2 27 33 -4.498482634105173 0 87.0 -4.498482634105173 1
gene  2 28 33 -0.6529568932968264 0 88.0 -0.6529568932968264 1
gene  2 29 33 1.104505722829372 0 89.0 1.104505722829372 1
gene  2 30 33 -2.070837244264564 0 90.0 -2.070837244264564 1
gene  2 1 34 3.0899998676990084 0 91.0 3.0899998676990084 1
gene  2 2 34 0.7504488271801755 0 92.0 0.7504488271801755 1
gene  2 3 34 0.8393620843221381 0 93.0 0.8393620843221381 1
gene  2 4 34 2.035942352358653 0 94.0 2.035942352358653 1
gene  2 5 34 0.3613655204396879 0 95.0 0.3613655204396879 1
gene  2 6 34 1.470750265955834 0 96.0 1.470750265955834 1
gene  2 7 34 -0.262261955476477 0 97.0 -0.262261955476477 1
gene  2 8 34 -1.1273001750956282 0 98.0 -1.1273001750956282 1
gene  2 9 34 -4.134374755919769 0 99.0 -4.134374755919769 1
gene  2 10 34 -0.7887318942830355 0 100.0 -0.7887318942830355 1
gene  2 11 34 0.6087072834557297 0 101.0 0.6087072834557297 1
gene  2 12 34 0.9033352503750682 0 102.0 0.9033352503750682 1
gene  2 13 34 -0.9706348748034506 0 103.0 -0.9706348748034506 1
gene  2 14 34 -0.20559730655922293 0 104.0 -0.20559730655922293 1
gene  2 15 34 -3.8794138881984956 0 105.0 -3.8794138881984956 1
gene  2 16 34 3.329215678178908 0 106.0 3.329215678178908 1
gene  2 17 34 2.5435684561543765 0 107.0 2.5435684561543765 1
gene  2 18 34 1.2895655242711133 0 108.0 1.2895655242711133 1
gene  2 19 34 -1.623054611019756 0 109.0 -1.623054611019756 1
gene  2 20 34 -0.06344737635183662 0 110.0 -0.06344737635183662 1
gene  2 21 34 -1.1306546058405564 0 111.0 -1.1306546058405564 1
gene  2 22 34 -0.23118249894911946 0 112.0 -0.23118249894911946 1
gene  2 23 34 1.9726924910222827 0 113.0 1.9726924910222827 1
gene  2 24 34 -4.623304055455852 0 114.0 -4.623304055455852 1
gene  2 25 34 0.13478464081596586 0 115.0 0.13478464081596586 1
gene  2 26 34 -0.3733699793463714 0 116.0 -0.3733699793463714 1
gene  2 27 34 -0.3262519299606362 0 117.0 -0.3262519299606362 1
gene  2 28 34 3.7169655529586465 0 118.0 3.7169655529586465 1
gene  2 29 34 -3.3701057822662084 0 119.0 -3.3701057822662084 1
gene  2 30 34 -0.047494615486818104 0 120.0 -0.047494615486818104 1
gene  2 1 35 2.020809514922582 0 121.0 2.020809514922582 1
gene  2 2 35 1.3621367480349942 0 122.0 1.3621367480349942 1
gene  2 3 35 3.775012047841954 0 123.0 3.775012047841954 1
gene  2 4 35 2.2042109695643433 0 124.0 2.2042109695643433 1
gene  2 5 35 0.8559306156901756 0 125.0 0.8559306156901756 1
gene  2 6 35 -2.0863260520623 0 126.0 -2.0863260520623 1
gene  2 7 35 -1.897909216232695 0 127.0 -1.897909216232695 1
gene  2 8 35 -1.9448032423535369 0 128.0 -1.9448032423535369 1
gene  2 9 35 -5.68067304642752 0 129.0 -5.68067304642752 1
gene  2 10 35 -0.23558640877837833 0 130.0 -0.23558640877837833 1
gene  2 11 35 -2.986655011810461 0 131.0 -2.986655011810461 1
gene  2 12 35 -0.4595185943976733 0 132.0 -0.4595185943976733 1
gene  2 13 35 3.8599843600053214 0 133.0 3.8599843600053214 1
gene  2 14 35 2.3287825902148382 0 134.0 2.3287825902148382 1
gene  2 15 35 2.3767925692770437 0 135.0 2.3767925692770437 1
gene  2 16 35 -0.8466092003568739 0 136.0 -0.8466092003568739 1
gene  2 17 35 5.122509382437777 0 137.0 5.122509382437777 1
gene  2 18 35 1.9482115739652173 0 138.0 1.9482115739652173 1
gene  2 19 35 -2.126791188175668 0 139.0 -2.126791188175668 1
gene  2 20 35 1.570566142889458 0 140.0 1.570566142889458 1
gene  2 21 35 -0.12305675745295003 0 141.0 -0.12305675745295003 1
gene  2 22 35 -0.8093985085766189 0 142.0 -0.8093985085766189 1
gene  2 23 35 -1.6139403647886192 0 143.0 -1.6139403647886192 1
gene  2 24 35 -1.0923786345866093 0 144.0 -1.0923786345866093 1
gene  2 25 35 -2.5639993944817037 0 145.0 -2.5639993944817037 1
gene  2 26 35 3.113897511396374 0 146.0 3.113897511396374 1
gene  2 27 35 0.5408948095132466 0 147.0 0.5408948095132466 1
gene  2 28 35 -3.1918550416576803 0 148.0 -3.1918550416576803 1
gene  2 29 35 -0.7493364017508362 0 149.0 -0.7493364017508362 1
gene  2 30 35 -1.4600854603287672 0 150.0 -1.4600854603287672 1
gene  2 1 36 0.46224911711848926 0 151.0 0.46224911711848926 1
gene  2 2 36 2.441951053596354 0 152.0 2.441951053596354 1
gene  2 3 36 2.8944180465308254 0 153.0 2.8944180465308254 1
gene  2 4 36 0.30772717895489476 0 154.0 0.30772717895489476 1
gene  2 5 36 4.429413426844037 0 155.0 4.429413426844037 1
gene  2 6 36 2.116035990931862 0 156.0 2.116035990931862 1
gene  2 7 36 -1.3384144033087275 0 157.0 -1.3384144033087275 1
gene  2 8 36 -2.33496180234053 0 158.0 -2.33496180234053 1
gene  2 9 36 1.7424401747719531 0 159.0 1.7424401747719531 1
gene  2 10 36 -2.115132930215443 0 160.0 -2.115132930215443 1
gene  2 11 36 -2.228885091811804 0 161.0 -2.228885091811804 1
gene  2 12 36 -1.910211747612148 0 162.0 -1.910211747612148 1
gene  2 13 36 -0.6663071128627003 0 163.0 -0.6663071128627003 1
gene  2 14 36 -0.9493389766366702 0 164.0 -0.9493389766366702 1
gene  2 15 36 0.6393916972031557 0 165.0 0.6393916972031557 1
gene  2 16 36 -0.43372853794606936 0 166.0 -0.43372853794606936 1
gene  2 17 36 3.9940147359966796 0 167.0 3.9940147359966796 1
gene  2 18 36 4.765136063085811 0 168.0 4.765136063085811 1
gene  2 19 36 1.4493020732098147 0 169.0 1.4493020732098147 1
gene  2 20 36 4.842501740917417 0 170.0 4.842501740917417 1
gene  2 21 36 2.3491550975998203 0 171.0 2.3491550975998203 1
gene  2 22 36 1.3750336719211225 0 172.0 1.3750336719211225 1
gene  2 23 36 1.6671511845239169 0 173.0 1.6671511845239169 1
gene  2 24 36 1.2354293440708501 0 174.0 1.2354293440708501 1
gene  2 25 36 5.064537446678941 0 175.0 5.064537446678941 1
gene  2 26 36 0.011427892449001442 0 176.0 0.011427892449001442 1
gene  2 27 36 1.4291752548492112 0 177.0 1.4291752548492112 1
gene  2 28 36 1.6692772102591324 0 178.0 1.6692772102591324 1
gene  2 29 36 -1.8326822272713001 0 179.0 -1.8326822272713001 1
gene  2 30 36 0.637396309276751 0 180.0 0.637396309276751 1
gene  2 34 35 2.0554473285208976 0 193.0 2.0554473285208976 1
gene  2 25 41 0.2734068669078124 0 200.0 0.2734068669078124 1
gene  2 41 33 3.1799274581875867 0 201.0 3.1799274581875867 1
gene  2 16 51 0.37355775939215397 0 237.0 0.37355775939215397 1
gene  2 51 32 0.7549913508493982 0 238.0 0.7549913508493982 1
gene  1 51 36 6.280175565495508 0 247.0 6.280175565495508 1
genomeend 7
genomestart  8
trait 1 0.1 0.0 0.0 0.0 0.0 0.0 0.0 0.0 
trait 2 0.1 0.0 0.0 0.0 0.0 0.0 0.0 0.0 
node 1 1 1 3
node 2 1 1 1
node 3 1 1 1
node 4 1 1 1
node 5 1 1 1
node 6 1 1 1
node 7 1 1 1
node 8 1 1 1
node 9 1 1 1
node 10 1 1 1
node 11 1 1 1
node 12 1 1 1
node 13 1 1 1
node 14 1 1 1
node 15 1 1 1
node 16 1 1 1
node 17 1 1 1
node 18 1 1 1
node 19 1 1 1
node 20 1 1 1
node 21 1 1 1
node 22 1 1 1
node 23 1 1 1
node 24 1 1 1
node 25 1 1 1
node 26 1 1 1
node 27 1 1 1
node 28 1 1 1
node 29 1 1 1
node 30 1 1 1
node 31 1 0 2
node 32 1 0 2
node 33 1 0 2
node 34 1 0 2
node 35 1 0 2
node 36 1 0 2
node 41 1 0 0
node 51 1 0 0
gene  1 1 31 -2.361590824701948 0 1.0 -2.361590824701948 1
gene  2 2 31 -0.1500572335400605 0 2.0 -0.1500572335400605 1
gene  2 3 31 -1.0081446049793439 0 3.0 -1.0081446049793439 1
gene  2 4 31 -2.2134327949182087 0 4.0 -2.2134327949182087 1
gene  2 5 31 -0.7810696844087242 0 5.0 -0.7810696844087242 1
gene  2 6 31 0.32019220926158676 0 6.0 0.32019220926158676 1
