genomestart  1
trait 1 0.1 0.0 0.0 0.0 0.0 0.0 0.0 0.0 
trait 2 0.1 0.0 0.0 0.0 0.0 0.0 0.0 0.0 
node 1 0 1 3
node 2 0 1 1
node 3 0 1 1
node 4 0 1 1
node 5 0 1 1
node 6 0 1 1
node 7 0 1 1
node 8 0 1 1
node 9 0 1 1
node 10 0 1 1
node 11 0 1 1
node 12 0 1 1
node 13 0 1 1
node 14 0 1 1
node 15 0 1 1
node 16 0 1 1
node 17 0 1 1
node 18 0 1 1
node 19 0 1 1
node 20 0 1 1
node 21 0 1 1
node 22 0 1 1
node 23 0 1 1
node 24 0 1 1
node 25 0 1 1
node 26 0 1 1
node 27 0 1 1
node 28 0 1 1
node 29 0 1 1
node 30 0 1 1
node 31 0 0 2
node 32 0 0 2
node 33 0 0 2
node 34 0 0 2
node 35 0 0 2
node 36 0 0 2
gene  1 1 31 0.0 0 1.0 0.0 1
gene  2 26 31 0.0 0 26.0 0.0 1
gene  1 27 31 0.0 0 27.0 0.0 1
gene  1 28 31 0.0 0 28.0 0.0 1
gene  1 29 31 0.0 0 29.0 0.0 1
gene  1 30 31 0.0 0 30.0 0.0 1
gene  1 1 32 0.0 0 31.0 0.0 1
gene  1 26 32 0.0 0 56.0 0.0 1
gene  1 27 32 0.0 0 57.0 0.0 1
gene  1 28 32 0.0 0 58.0 0.0 1
gene  1 29 32 0.0 0 59.0 0.0 1
gene  1 30 32 0.0 0 60.0 0.0 1
gene  1 1 33 0.0 0 61.0 0.0 1
gene  1 26 33 0.0 0 86.0 0.0 1
gene  1 27 33 0.0 0 87.0 0.0 1
gene  1 28 33 0.0 0 88.0 0.0 1
gene  1 29 33 0.0 0 89.0 0.0 1
gene  1 30 33 0.0 0 90.0 0.0 1
gene  1 1 34 0.0 0 91.0 0.0 1
gene  2 26 34 0.0 0 116.0 0.0 1
gene  2 27 34 0.0 0 117.0 0.0 1
gene  2 28 34 0.0 0 118.0 0.0 1
gene  2 29 34 0.0 0 119.0 0.0 1
gene  2 30 34 0.0 0 120.0 0.0 1
gene  2 1 35 0.0 0 121.0 0.0 1
gene  2 26 35 0.0 0 146.0 0.0 1
gene  2 27 35 0.0 0 147.0 0.0 1
gene  2 28 35 0.0 0 148.0 0.0 1
gene  2 29 35 0.0 0 149.0 0.0 1
gene  1 30 35 0.0 0 150.0 0.0 1
gene  1 1 36 0.0 0 151.0 0.0 1
gene  2 26 36 0.0 0 176.0 0.0 1
gene  1 27 36 0.0 0 177.0 0.0 1
gene  1 28 36 0.0 0 178.0 0.0 1
gene  1 29 36 0.0 0 179.0 0.0 1
gene  1 30 36 0.0 0 180.0 0.0 1
genomeend 1
