genomestart  21
trait 1 1.0250857033585747 0.27707961942569176 0.15809469960011385 0.0 0.2514374830677016 0.0 0.0 0.053624658311804546 
trait 2 2.354324471299045 0.9611927763669152 0.659708618295936 0.0 0.0 0.0 0.5038344613940436 0.008554446590025244 
node 1 2 1 1
node 2 2 1 1
node 3 1 1 1
node 4 1 1 1
node 5 1 1 1
node 6 1 1 1
node 7 1 1 1
node 8 1 1 1
node 9 1 1 1
node 10 2 1 1
node 11 2 1 1
node 12 1 1 1
node 13 1 1 1
node 14 1 1 1
node 15 1 1 1
node 16 1 1 1
node 17 2 1 3
node 18 1 0 2
node 19 1 0 2
node 20 1 0 2
node 21 1 0 2
node 22 2 0 2
node 23 1 0 2
node 112 1 0 0
node 208 2 0 0
node 244 1 0 0
node 271 1 0 0
node 411 1 0 0
node 429 1 0 0
node 484 1 0 0
node 488 1 0 0
node 648 1 0 0
node 707 1 0 0
node 809 1 0 0
node 910 1 0 0
node 921 1 0 0
node 1059 1 0 0
node 1185 1 0 0
gene  1 17 18 -8.480754987688027 0 1.0 -8.480754987688027 1
gene  1 17 19 19.315455434754483 0 1.0 19.315455434754483 1
gene  1 17 20 -16.861057673306945 0 1.0 -16.861057673306945 1
gene  1 17 21 5.399765920268805 0 1.0 5.399765920268805 1
gene  1 17 22 1.9328077912232535 0 1.0 1.9328077912232535 1
gene  1 17 23 15.234297593045039 0 1.0 15.234297593045039 1
gene  1 7 18 -3.959545999256229 0 17.0 -3.959545999256229 1
gene  2 7 19 -3.4191426109031067 0 18.0 -3.4191426109031067 1
gene  2 7 20 -1.184942307882899 0 19.0 -1.184942307882899 1
gene  2 7 21 1.3252350893642229 0 20.0 1.3252350893642229 1
gene  1 7 22 9.381320342351097 0 21.0 9.381320342351097 1
gene  1 7 23 -6.001484645107105 0 22.0 -6.001484645107105 1
gene  1 15 18 -11.937406090090608 0 88.0 -11.937406090090608 1
gene  2 15 19 -2.3060339105728334 0 89.0 -2.3060339105728334 1
gene  2 15 20 -1.492483147393937 0 90.0 -1.492483147393937 0
gene  2 15 21 -3.2857670077906 0 91.0 -3.2857670077906 1
gene  2 15 22 1.726336148581601 0 92.0 1.726336148581601 1
gene  1 15 23 -1.7249392045797465 0 93.0 -1.7249392045797465 1
gene  2 5 18 7.4497483181191155 0 323.0 7.4497483181191155 1
gene  1 5 19 -0.4424957688470224 0 324.0 -0.4424957688470224 1
gene  1 5 20 2.157444331649079 0 325.0 2.157444331649079 1
gene  1 5 21 5.636254602166646 0 326.0 5.636254602166646 1
gene  1 5 22 1.3062982032169939 0 327.0 1.3062982032169939 1
gene  2 5 23 0.9698114494006266 0 328.0 0.9698114494006266 1
gene  2 18 21 -32.49810722292973 0 544.0 -32.49810722292973 1
gene  1 15 112 -0.6423974504825667 0 712.0 -0.6423974504825667 1
gene  1 112 21 2.170697243666286 0 713.0 2.170697243666286 1
gene  2 14 18 26.737419123206404 0 1046.0 26.737419123206404 1
gene  1 14 19 4.297778067832832 0 1047.0 4.297778067832832 1
gene  1 14 20 -0.8550458519253517 0 1048.0 -0.8550458519253517 1
gene  1 14 21 2.8697131136130114 0 1049.0 2.8697131136130114 1
gene  1 14 22 -5.408863824522584 0 1050.0 -5.408863824522584 1
gene  1 14 23 -1.668424371320633 0 1051.0 -1.668424371320633 1
gene  2 1 20 2.04171781257657 0 1201.0 2.04171781257657 1
gene  1 15 208 -6.343805479984155 0 1556.0 -6.343805479984155 1
gene  1 208 18 -1.2183024674758902 0 1557.0 -1.2183024674758902 1
gene  2 112 19 1.8994259581304744 0 1703.0 1.8994259581304744 1
gene  1 4 21 4.687473657567182 0 1772.0 4.687473657567182 1
gene  2 5 244 2.0328734958259562 0 1822.0 2.0328734958259562 1
gene  2 244 18 -0.7518708780896959 0 1823.0 -0.7518708780896959 1
gene  1 15 271 2.520607146617853 0 2042.0 2.520607146617853 1
gene  1 271 208 1.9640003383096598 0 2043.0 1.9640003383096598 1
gene  2 244 208 0.37683652871675744 0 2091.0 0.37683652871675744 1
gene  2 244 22 -1.7014205534584623 0 2331.0 -1.7014205534584623 1
gene  2 20 21 11.888493725858718 0 2428.0 11.888493725858718 1
gene  1 3 22 5.882669240833519 0 2501.0 5.882669240833519 1
gene  1 6 271 -0.9094426322513699 0 2549.0 -0.9094426322513699 1
gene  1 20 22 -3.2355245516309283 0 2652.0 -3.2355245516309283 1
gene  1 2 20 7.08278446281573 0 2716.0 7.08278446281573 1
gene  1 112 22 1.7618538252272786 0 2785.0 1.7618538252272786 1
gene  1 3 18 2.0698587291450528 0 2978.0 2.0698587291450528 1
gene  1 3 19 -3.6675677799773805 0 2979.0 -3.6675677799773805 1
gene  1 3 20 -1.5963373791243056 0 2980.0 -1.5963373791243056 1
gene  2 3 21 -1.1626954170703707 0 2981.0 -1.1626954170703707 1
gene  1 3 23 -9.50802269753369 0 2982.0 -9.50802269753369 1
gene  1 13 18 -30.98247953759559 0 3030.0 -30.98247953759559 1
gene  1 13 19 1.9034434880592883 0 3031.0 1.9034434880592883 1
gene  1 13 20 -19.61658655900641 0 3032.0 -19.61658655900641 1
gene  1 13 21 0.5685304796766366 0 3033.0 0.5685304796766366 1
gene  1 13 22 -1.055330889979787 0 3034.0 -1.055330889979787 1
gene  2 13 23 1.55377166536479 0 3023.0 1.55377166536479 1
gene  1 3 411 -1.5528535135431907 0 3178.0 -1.5528535135431907 1
gene  1 411 20 2.0775153194546414 0 3179.0 2.0775153194546414 1
gene  1 2 23 2.8532034725656543 0 3224.0 2.8532034725656543 1
gene  2 20 112 0.1640465775806793 0 3249.0 0.1640465775806793 1
gene  1 3 429 0.5868208817555881 0 3288.0 0.5868208817555881 1
gene  1 429 19 -0.8396066960715318 0 3289.0 -0.8396066960715318 1
gene  2 244 484 0.9961318658232874 0 3768.0 0.9961318658232874 1
gene  2 484 22 4.306876386646982 0 3769.0 4.306876386646982 1
gene  2 15 488 0.09335535445490306 0 3810.0 0.09335535445490306 1
gene  2 488 22 4.088715370905972 0 3811.0 4.088715370905972 1
gene  1 12 18 2.2351952781959206 0 3812.0 2.2351952781959206 1
gene  1 12 19 -2.3442407924681516 0 3813.0 -2.3442407924681516 1
gene  1 12 20 2.9309756289694264 0 3814.0 2.9309756289694264 1
gene  1 12 21 6.0897360533028 0 3815.0 6.0897360533028 1
gene  1 12 22 -0.28381782386745436 0 3816.0 -0.28381782386745436 1
gene  2 12 23 4.57740346262543 0 3817.0 4.57740346262543 1
gene  1 1 18 2.1765181300038003 0 4064.0 2.1765181300038003 1
gene  1 1 19 -0.1978058930606288 0 4065.0 -0.1978058930606288 1
gene  2 1 21 5.549277108402379 0 4066.0 5.549277108402379 1
gene  2 1 22 -2.089662560308041 0 4067.0 -2.089662560308041 1
gene  2 1 23 1.4981130274414511 0 4068.0 1.4981130274414511 1
gene  1 4 20 4.190549799530871 0 4193.0 4.190549799530871 1
gene  1 10 18 1.5462970696923273 0 4365.0 1.5462970696923273 1
gene  2 10 19 -2.3205471829945394 0 4366.0 -2.3205471829945394 1
gene  2 10 20 -8.274707576488947 0 4367.0 -8.274707576488947 1
gene  1 10 21 -1.8936052990856174 0 4368.0 -1.8936052990856174 1
gene  2 10 22 -0.6240382948426738 0 4369.0 -0.6240382948426738 1
gene  2 10 23 -0.011992686302633615 0 4370.0 -0.011992686302633615 1
gene  1 8 18 3.9266532967185492 0 4406.0 3.9266532967185492 1
gene  1 8 19 -1.3378852849070897 0 4407.0 -1.3378852849070897 1
gene  1 8 20 4.204646877340104 0 4408.0 4.204646877340104 1
gene  1 8 21 2.467267607009598 0 4409.0 2.467267607009598 1
gene  1 8 22 -1.1041128171958203 0 4410.0 -1.1041128171958203 1
gene  2 8 23 4.446131169544122 0 4411.0 4.446131169544122 1
gene  2 4 18 -2.6827571707293343 0 4485.0 -2.6827571707293343 1
gene  2 4 19 2.2883618433390995 0 4486.0 2.2883618433390995 1
gene  1 4 22 -5.822806071038288 0 4487.0 -5.822806071038288 1
gene  1 4 23 -12.531026230533934 0 4488.0 -12.531026230533934 1
gene  2 13 208 1.9056946042975227 0 4719.0 1.9056946042975227 1
gene  1 271 429 5.539719534545201 0 4762.0 5.539719534545201 1
gene  1 2 18 -5.1868977692328215 0 4882.0 -5.1868977692328215 1
gene  2 2 19 -3.417208421219476 0 4883.0 -3.417208421219476 1
gene  2 2 21 -4.1784018070989735 0 4884.0 -4.1784018070989735 1
gene  2 2 22 -17.725779888011253 0 4885.0 -17.725779888011253 1
gene  2 9 18 -8.204716821479954 0 4961.0 -8.204716821479954 1
gene  1 9 19 1.6340155854862473 0 4962.0 1.6340155854862473 0
gene  2 9 20 -1.9190315021843296 0 4963.0 -1.9190315021843296 0
gene  2 9 21 1.5051487641062247 0 4964.0 1.5051487641062247 1
gene  1 9 22 1.0661124190884421 0 4965.0 1.0661124190884421 1
gene  2 9 23 -5.178251821502319 0 4966.0 -5.178251821502319 1
gene  2 14 411 -2.6036230791412898 0 5105.0 -2.6036230791412898 1
gene  1 15 648 -9.896587232337767 0 5195.0 -9.896587232337767 1
gene  1 648 208 2.2855899118015652 0 5196.0 2.2855899118015652 1
gene  2 648 20 4.234655180667939 0 5299.0 4.234655180667939 1
gene  1 10 244 -4.49660588080023 0 5510.0 -4.49660588080023 1
gene  2 244 707 0.08613746683929974 0 5636.0 0.08613746683929974 1
gene  2 707 484 -2.0270190095286087 0 5637.0 -2.0270190095286087 1
gene  2 11 18 0.35307461024002174 0 5891.0 0.35307461024002174 1
gene  1 11 19 -1.7663545762659358 0 5892.0 -1.7663545762659358 1
gene  1 11 20 3.38349148199412 0 5893.0 3.38349148199412 1
gene  2 11 21 -2.8704763284966632 0 5894.0 -2.8704763284966632 1
gene  1 11 22 1.202225335474457 0 5895.0 1.202225335474457 1
gene  2 11 23 -6.7332941049212796 0 5896.0 -6.7332941049212796 1
gene  1 4 271 2.279394620416751 0 5969.0 2.279394620416751 1
gene  1 6 18 -0.36703955899200047 0 6161.0 -0.36703955899200047 1
gene  2 6 19 -5.782750990036131 0 6162.0 -5.782750990036131 1
gene  1 6 20 -5.10229662923349 0 6163.0 -5.10229662923349 1
gene  2 6 21 6.132687549759032 0 6164.0 6.132687549759032 1
gene  1 6 22 1.4748466630951445 0 6165.0 1.4748466630951445 1
gene  2 6 23 -0.8062384141300707 0 6166.0 -0.8062384141300707 1
gene  2 21 429 -0.4299787154823778 0 6172.0 -0.4299787154823778 1
gene  1 484 411 3.6318187522453895 0 6243.0 3.6318187522453895 1
gene  1 648 707 -2.695163810562425 0 6333.0 -2.695163810562425 1
gene  1 14 488 -1.482363949433779 0 6647.0 -1.482363949433779 1
gene  1 9 707 -2.132194971878226 0 6682.0 -2.132194971878226 1
gene  1 429 809 3.2922591961989167 0 6709.0 3.2922591961989167 1
gene  1 809 19 3.1626528722279854 0 6710.0 3.1626528722279854 1
gene  1 411 18 -1.6658734165832412 0 6838.0 -1.6658734165832412 1
gene  2 16 18 -2.2216089124903586 0 6839.0 -2.2216089124903586 1
gene  2 16 19 1.9093286912853558 0 6840.0 1.9093286912853558 1
gene  1 16 20 -4.5367933717557465 0 6841.0 -4.5367933717557465 1
gene  1 16 21 -3.655592723838757 0 6842.0 -3.655592723838757 1
gene  2 16 22 4.236523609249647 0 6843.0 4.236523609249647 1
gene  2 16 23 -1.3956621508388867 0 6844.0 -1.3956621508388867 1
gene  1 15 910 -2.918637395179724 0 7369.0 -2.918637395179724 1
gene  1 910 648 -4.3473709472217195 0 7370.0 -4.3473709472217195 1
gene  2 22 271 7.148718436689338 0 7497.0 7.148718436689338 1
gene  1 208 19 1.683286365342736 0 7629.0 1.683286365342736 1
gene  2 3 484 -1.6067342161511684 0 7662.0 -1.6067342161511684 1
gene  1 8 921 3.765568158166985 0 7666.0 3.765568158166985 1
gene  1 921 20 -0.539568814324221 0 7667.0 -0.539568814324221 1
gene  1 23 19 6.595013810970432 0 7861.0 6.595013810970432 1
gene  2 16 484 1.3748399732753716 0 7888.0 1.3748399732753716 1
gene  1 5 411 2.316990111444395 0 7911.0 2.316990111444395 1
gene  2 14 707 1.678088124582164 0 8242.0 1.678088124582164 1
gene  2 9 1059 0.5202964370677923 0 8317.0 0.5202964370677923 1
gene  2 1059 20 -2.903528455057406 0 8318.0 -2.903528455057406 1
gene  2 14 648 2.106621291311633 0 8476.0 2.106621291311633 1
gene  1 411 19 6.543024252853185 0 8797.0 6.543024252853185 1
gene  2 15 1185 -1.7415234391018897 0 8909.0 -1.7415234391018897 1
gene  2 1185 20 2.240218097574596 0 8910.0 2.240218097574596 1
genomeend 21
