genomestart  14
trait 1 0.1 0.0 0.0 0.0 0.0 0.0 0.0 0.0 
trait 2 0.2 0.0 0.0 0.0 0.0 0.0 0.0 0.0 
trait 3 0.2420455576898474 0.0 0.0 0.0 0.0 0.0 0.0 0.0 
node 1 1 1 3
node 2 1 1 1
node 3 1 1 1
node 4 1 1 1
node 5 1 1 1
node 6 1 1 1
node 7 1 1 1
node 8 1 1 1
node 9 1 1 1
node 10 1 1 1
node 11 1 1 1
node 12 1 1 1
node 13 1 1 1
node 14 1 1 1
node 15 1 0 2
node 16 1 0 2
node 17 1 0 2
node 18 1 0 2
node 19 1 0 2
node 20 1 0 2
gene  1 1 15 -2.1513583402597525 0 1.0 -2.1513583402597525 1
gene  1 2 15 0.5945287088050106 0 1.0 0.5945287088050106 1
gene  1 3 15 -1.0093044158517956 0 1.0 -1.0093044158517956 1
gene  1 4 15 3.7536152174068698 0 1.0 3.7536152174068698 1
gene  1 5 15 -2.5722821958712654 0 1.0 -2.5722821958712654 1
gene  1 6 15 -2.610436888566759 0 1.0 -2.610436888566759 1
gene  1 7 15 2.2093935435330847 0 1.0 2.2093935435330847 1
gene  1 8 15 -0.5544146647586001 0 1.0 -0.5544146647586001 1
gene  1 9 15 -0.79247236262401 0 1.0 -0.79247236262401 1
gene  1 10 15 -2.146972242994162 0 1.0 -2.146972242994162 1
gene  1 11 15 1.0040003797829438 0 1.0 1.0040003797829438 1
gene  1 12 15 -1.0949489670547337 0 1.0 -1.0949489670547337 1
gene  1 13 15 1.8446613624989325 0 1.0 1.8446613624989325 1
gene  1 14 15 -2.2269255415856044 0 1.0 -2.2269255415856044 1
gene  1 1 16 -2.194709923275181 0 1.0 -2.194709923275181 1
gene  1 2 16 2.8175742618068496 0 1.0 2.8175742618068496 1
gene  1 3 16 -1.1504159348284184 0 1.0 -1.1504159348284184 1
gene  1 4 16 3.4335748222960847 0 1.0 3.4335748222960847 1
gene  1 5 16 -1.950593309616696 0 1.0 -1.950593309616696 1
gene  1 6 16 0.7890067863494246 0 1.0 0.7890067863494246 1
gene  1 7 16 -2.9791788105491097 0 1.0 -2.9791788105491097 1
gene  1 8 16 1.3513969900965628 0 1.0 1.3513969900965628 1
gene  1 9 16 -3.8782309834218363 0 1.0 -3.8782309834218363 1
gene  1 10 16 -0.7716524032148641 0 1.0 -0.7716524032148641 1
gene  1 11 16 2.9467573729307923 0 1.0 2.9467573729307923 1
gene  1 12 16 1.3003105646960225 0 1.0 1.3003105646960225 1
gene  1 13 16 -1.7742149452453513 0 1.0 -1.7742149452453513 1
gene  1 14 16 6.124325802190564 0 1.0 6.124325802190564 1
gene  1 1 17 1.2038829492058916 0 1.0 1.2038829492058916 1
gene  1 2 17 0.9581610679694261 0 1.0 0.9581610679694261 1
gene  1 3 17 1.3089387187551074 0 1.0 1.3089387187551074 1
gene  1 4 17 0.2424667444524362 0 1.0 0.2424667444524362 1
gene  1 5 17 0.6667483913417545 0 1.0 0.6667483913417545 1
gene  1 6 17 -0.03269185188250834 0 1.0 -0.03269185188250834 1
gene  1 7 17 -0.9623703478009633 0 1.0 -0.9623703478009633 1
gene  1 8 17 0.7786982469545372 0 1.0 0.7786982469545372 1
gene  1 9 17 -0.050333014816352994 0 1.0 -0.050333014816352994 1
gene  1 10 17 -5.409704795255889 0 1.0 -5.409704795255889 1
gene  1 11 17 -1.3440062520895144 0 1.0 -1.3440062520895144 1
gene  1 12 17 -2.0977603909373883 0 1.0 -2.0977603909373883 1
gene  1 13 17 -2.180058151193178 0 1.0 -2.180058151193178 1
gene  1 14 17 1.8238439923021406 0 1.0 1.8238439923021406 1
gene  1 1 18 1.110496560845311 0 1.0 1.110496560845311 1
gene  1 2 18 2.22202048832563 0 1.0 2.22202048832563 1
gene  1 3 18 -2.544043241769754 0 1.0 -2.544043241769754 1
gene  1 4 18 -0.2962999811656825 0 1.0 -0.2962999811656825 1
gene  1 5 18 4.883006496423532 0 1.0 4.883006496423532 1
gene  1 6 18 1.7824301968237253 0 1.0 1.7824301968237253 1
gene  1 7 18 0.2825534232916955 0 1.0 0.2825534232916955 1
gene  1 8 18 0.2653570975463704 0 1.0 0.2653570975463704 1
gene  1 9 18 -1.8976763689236134 0 1.0 -1.8976763689236134 1
gene  1 10 18 1.5853619659804954 0 1.0 1.5853619659804954 1
gene  1 11 18 3.6153135603803737 0 1.0 3.6153135603803737 1
gene  1 12 18 -1.1558349677225443 0 1.0 -1.1558349677225443 1
gene  1 13 18 -0.006112066300588692 0 1.0 -0.006112066300588692 1
gene  1 14 18 -0.47564496499191666 0 1.0 -0.47564496499191666 1
gene  1 1 19 -0.8080542517323885 0 1.0 -0.8080542517323885 1
gene  1 2 19 -1.9489797329248542 0 1.0 -1.9489797329248542 1
gene  1 3 19 0.8945870982898421 0 1.0 0.8945870982898421 1
gene  1 4 19 -1.0179058802786196 0 1.0 -1.0179058802786196 1
gene  1 5 19 -2.3235921792437617 0 1.0 -2.3235921792437617 1
gene  1 6 19 0.9913645276391164 0 1.0 0.9913645276391164 1
gene  1 7 19 -0.37983905988886146 0 1.0 -0.37983905988886146 1
gene  1 8 19 0.8996985629260432 0 1.0 0.8996985629260432 1
gene  1 9 19 -1.3692649640849788 0 1.0 -1.3692649640849788 1
gene  1 10 19 0.2373171843927282 0 1.0 0.2373171843927282 1
gene  1 11 19 4.03839787554805 0 1.0 4.03839787554805 1
gene  1 12 19 2.250472061915434 0 1.0 2.250472061915434 1
gene  1 13 19 -3.0309866079004535 0 1.0 -3.0309866079004535 1
gene  1 14 19 0.6609637216588653 0 1.0 0.6609637216588653 1
gene  1 1 20 1.1332514397101299 0 1.0 1.1332514397101299 1
gene  1 2 20 -2.9865411394900674 0 1.0 -2.9865411394900674 1
gene  1 3 20 1.86494492013707 0 1.0 1.86494492013707 1
gene  1 4 20 -1.720243592668039 0 1.0 -1.720243592668039 1
gene  1 5 20 1.4535305945306485 0 1.0 1.4535305945306485 1
gene  1 6 20 1.099146827863898 0 1.0 1.099146827863898 1
gene  1 7 20 1.687853266652111 0 1.0 1.687853266652111 1
gene  1 8 20 -0.8890585771246536 0 1.0 -0.8890585771246536 1
gene  1 9 20 -2.0103606952958013 0 1.0 -2.0103606952958013 1
gene  1 10 20 0.677196741918726 0 1.0 0.677196741918726 1
gene  1 11 20 -1.4068365974595398 0 1.0 -1.4068365974595398 1
gene  1 12 20 -1.492122838600077 0 1.0 -1.492122838600077 1
gene  1 13 20 -1.6748761142705193 0 1.0 -1.6748761142705193 1
gene  1 14 20 -1.2088409022343785 0 1.0 -1.2088409022343785 1
genomeend 14
