genomestart  21
trait 1 0.1 0.0 0.0 0.0 0.0 0.0 0.0 0.0 
trait 2 0.1 0.0 0.0 0.0 0.0 0.0 0.0 0.0 
node 1 1 1 3
node 2 1 1 1
node 3 1 1 1
node 4 1 1 1
node 5 1 1 1
node 6 1 1 1
node 7 1 1 1
node 8 1 1 1
node 9 1 1 1
node 10 1 1 1
node 11 1 1 1
node 12 1 1 1
node 13 1 1 1
node 14 1 1 1
node 15 1 1 1
node 16 1 1 1
node 17 1 1 1
node 18 1 1 1
node 19 1 1 1
node 20 1 1 1
node 21 1 1 1
node 22 1 1 1
node 23 1 1 1
node 24 1 1 1
node 25 1 1 1
node 26 1 1 1
node 27 1 1 1
node 28 1 1 1
node 29 1 1 1
node 30 1 1 1
node 31 1 0 2
node 32 1 0 2
node 33 1 0 2
node 34 1 0 2
node 35 1 0 2
node 36 1 0 2
node 41 1 0 0
node 61 1 0 0
gene  1 1 31 -2.7617604369310436 0 1.0 -2.7617604369310436 1
gene  2 2 31 -2.5051947238195815 0 2.0 -2.5051947238195815 1
gene  2 3 31 -2.1357753502651655 0 3.0 -2.1357753502651655 1
gene  2 4 31 -2.5605969533477393 0 4.0 -2.5605969533477393 1
gene  2 5 31 -1.5540839188682285 0 5.0 -1.5540839188682285 1
gene  2 6 31 0.518072333183379 0 6.0 0.518072333183379 1
gene  2 7 31 0.016824678842535468 0 7.0 0.016824678842535468 1
gene  2 8 31 -2.0307880068147988 0 8.0 -2.0307880068147988 1
gene  2 9 31 -2.838032640270546 0 9.0 -2.838032640270546 1
gene  2 10 31 3.768993713191565 0 10.0 3.768993713191565 1
gene  2 11 31 -0.5503203345083905 0 11.0 -0.5503203345083905 1
gene  2 12 31 0.5715428569004264 0 12.0 0.5715428569004264 1
gene  2 13 31 0.6151568689749591 0 13.0 0.6151568689749591 1
gene  2 14 31 0.3297220450788555 0 14.0 0.3297220450788555 1
gene  2 15 31 4.1621609184249415 0 15.0 4.1621609184249415 1
gene  2 16 31 -0.15282973545087053 0 16.0 -0.15282973545087053 1
gene  2 17 31 -1.967351267650411 0 17.0 -1.967351267650411 1
gene  2 18 31 6.751719710607011 0 18.0 6.751719710607011 1
gene  2 19 31 3.6452969817515046 0 19.0 3.6452969817515046 1
gene  2 20 31 -3.1596804455329677 0 20.0 -3.1596804455329677 1
gene  2 21 31 1.3319220989495417 0 21.0 1.3319220989495417 1
gene  2 22 31 2.568536439347594 0 22.0 2.568536439347594 1
gene  2 23 31 2.5218328460340564 0 23.0 2.5218328460340564 1
gene  2 24 31 1.6287218051795007 0 24.0 1.6287218051795007 1
gene  2 25 31 1.9515332271840669 0 25.0 1.9515332271840669 1
gene  2 26 31 0.7669255581277559 0 26.0 0.7669255581277559 1
gene  2 27 31 1.3867787300905667 0 27.0 1.3867787300905667 1
gene  2 28 31 2.752956180985735 0 28.0 2.752956180985735 1
gene  2 29 31 -0.7730104878320141 0 29.0 -0.7730104878320141 1
gene  2 30 31 -0.735862449259815 0 30.0 -0.735862449259815 1
gene  2 1 32 4.36235368776703 0 31.0 4.36235368776703 1
gene  2 2 32 1.681146979203803 0 32.0 1.681146979203803 1
gene  2 3 32 1.2977752673374738 0 33.0 1.2977752673374738 1
gene  2 4 32 0.03162483921267101 0 34.0 0.03162483921267101 1
gene  2 5 32 3.379870962778835 0 35.0 3.379870962778835 1
gene  2 6 32 1.9856999359210796 0 36.0 1.9856999359210796 1
gene  2 7 32 -3.143047207120026 0 37.0 -3.143047207120026 1
gene  2 8 32 1.5258122956671485 0 38.0 1.5258122956671485 1
gene  2 9 32 -3.43564734274322 0 39.0 -3.43564734274322 1
gene  2 10 32 -2.0732958259453587 0 40.0 -2.0732958259453587 1
gene  2 11 32 0.3839729187692926 0 41.0 0.3839729187692926 1
gene  2 12 32 1.3546000220208025 0 42.0 1.3546000220208025 1
gene  2 13 32 -3.3113542222888146 0 43.0 -3.3113542222888146 1
gene  2 14 32 -4.796550144832786 0 44.0 -4.796550144832786 1
gene  2 15 32 0.5441959555637037 0 45.0 0.5441959555637037 1
gene  2 16 32 0.18167495119458688 0 46.0 0.18167495119458688 1
gene  2 17 32 2.69185538420889 0 47.0 2.69185538420889 1
gene  2 18 32 -1.318644392038422 0 48.0 -1.318644392038422 1
gene  2 19 32 0.109321005052044 0 49.0 0.109321005052044 1
gene  2 20 32 -2.6064517462947614 0 50.0 -2.6064517462947614 1
gene  2 21 32 -0.08203572499251788 0 51.0 -0.08203572499251788 1
gene  2 22 32 -3.685770895093995 0 52.0 -3.685770895093995 1
gene  2 23 32 -0.4190215767570413 0 53.0 -0.4190215767570413 1
gene  2 24 32 2.686725013798376 0 54.0 2.686725013798376 1
gene  2 25 32 -0.7051881670552878 0 55.0 -0.7051881670552878 1
gene  2 26 32 -3.797125884680203 0 56.0 -3.797125884680203 1
gene  2 27 32 -0.024409920322359335 0 57.0 -0.024409920322359335 1
gene  2 28 32 -1.3188280083613741 0 58.0 -1.3188280083613741 1
gene  2 29 32 -3.273412232089983 0 59.0 -3.273412232089983 1
gene  2 30 32 -1.7471594025400028 0 60.0 -1.7471594025400028 1
gene  2 1 33 -2.2763138386239357 0 61.0 -2.2763138386239357 1
gene  2 2 33 1.131565731093393 0 62.0 1.131565731093393 1
gene  2 3 33 0.8335328874329963 0 63.0 0.8335328874329963 1
gene  2 4 33 -2.8967758870330043 0 64.0 -2.8967758870330043 1
gene  2 5 33 -2.2887887254039896 0 65.0 -2.2887887254039896 1
gene  2 6 33 -1.4289111429429595 0 66.0 -1.4289111429429595 1
gene  2 7 33 -0.5723912857091598 0 67.0 -0.5723912857091598 1
gene  2 8 33 -3.266479426289126 0 68.0 -3.266479426289126 1
gene  2 9 33 2.4340421784290798 0 69.0 2.4340421784290798 1
gene  2 10 33 -4.242075851174331 0 70.0 -4.242075851174331 1
gene  2 11 33 2.232258482003688 0 71.0 2.232258482003688 1
gene  2 12 33 3.0683832728487683 0 72.0 3.0683832728487683 1
gene  2 13 33 -3.5201314192025723 0 73.0 -3.5201314192025723 1
gene  2 14 33 -1.0642080399003664 0 74.0 -1.0642080399003664 1
gene  2 15 33 -1.792270292913772 0 75.0 -1.792270292913772 1
gene  2 16 33 0.6187982123502063 0 76.0 0.6187982123502063 1
gene  2 17 33 1.4631901370686624 0 77.0 1.4631901370686624 1
gene  2 18 33 -0.4587041589464853 0 78.0 -0.4587041589464853 1
gene  2 19 33 3.4999338335437393 0 79.0 3.4999338335437393 1
gene  2 20 33 3.411981612631025 0 80.0 3.411981612631025 1
gene  2 21 33 1.0768137186467914 0 81.0 1.0768137186467914 1
gene  2 22 33 -1.4212923865731775 0 82.0 -1.4212923865731775 1
gene  2 23 33 -2.550188296062906 0 83.0 -2.550188296062906 1
gene  2 24 33 1.1715486841607516 0 84.0 1.1715486841607516 1
gene  2 25 33 -1.9033935775221067 0 85.0 -1.9033935775221067 1
gene  2 26 33 1.6944152224156521 0 86.0 1.6944152224156521 1
gene  2 27 33 -2.926282665320929 0 87.0 -2.926282665320929 1
gene  2 28 33 -3.374511554773056 0 88.0 -3.374511554773056 1
gene  2 29 33 -1.5388907522989443 0 89.0 -1.5388907522989443 1
gene  2 30 33 -2.0361699903693453 0 90.0 -2.0361699903693453 1
gene  2 1 34 -1.3609182335666836 0 91.0 -1.3609182335666836 1
gene  2 2 34 -1.8140285358702137 0 92.0 -1.8140285358702137 1
gene  2 3 34 3.9213704852323987 0 93.0 3.9213704852323987 1
gene  2 4 34 -5.107329546549826 0 94.0 -5.107329546549826 1
gene  2 5 34 -1.3182010622307003 0 95.0 -1.3182010622307003 1
gene  2 6 34 -0.12759261088813156 0 96.0 -0.12759261088813156 1
gene  2 7 34 -0.5219054951087567 0 97.0 -0.5219054951087567 1
gene  2 8 34 -1.627179376797455 0 98.0 -1.627179376797455 1
gene  2 9 34 -3.2806470223543505 0 99.0 -3.2806470223543505 1
gene  2 10 34 -3.4722591492493535 0 100.0 -3.4722591492493535 1
gene  2 11 34 0.6763198582433845 0 101.0 0.6763198582433845 1
gene  2 12 34 1.8870594318047105 0 102.0 1.8870594318047105 1
gene  2 13 34 0.20766686969151948 0 103.0 0.20766686969151948 1
gene  2 14 34 1.2230006950363355 0 104.0 1.2230006950363355 1
gene  2 15 34 -7.142566962673353 0 105.0 -7.142566962673353 1
gene  2 16 34 1.8389206495889303 0 106.0 1.8389206495889303 1
gene  2 17 34 2.8304681408234833 0 107.0 2.8304681408234833 1
gene  2 18 34 1.6603720668275848 0 108.0 1.6603720668275848 1
gene  2 19 34 -3.403114640175951 0 109.0 -3.403114640175951 1
gene  2 20 34 -0.7898363766607768 0 110.0 -0.7898363766607768 1
gene  2 21 34 4.858682781684065 0 111.0 4.858682781684065 1
gene  2 22 34 0.4367684857930165 0 112.0 0.4367684857930165 1
gene  2 23 34 -1.0087494406986883 0 113.0 -1.0087494406986883 1
gene  2 24 34 -3.907267324569079 0 114.0 -3.907267324569079 1
gene  2 25 34 0.9508807439283813 0 115.0 0.9508807439283813 1
gene  2 26 34 3.174169257746097 0 116.0 3.174169257746097 1
gene  2 27 34 -1.3416575370901074 0 117.0 -1.3416575370901074 1
gene  2 28 34 0.08645915019080253 0 118.0 0.08645915019080253 1
gene  2 29 34 -2.358353681821015 0 119.0 -2.358353681821015 1
gene  2 30 34 3.107500242690481 0 120.0 3.107500242690481 1
gene  2 1 35 1.7519777622824249 0 121.0 1.7519777622824249 1
gene  2 2 35 0.3411995510796082 0 122.0 0.3411995510796082 1
gene  2 3 35 0.5583955659987909 0 123.0 0.5583955659987909 1
gene  2 4 35 -1.0373446107500877 0 124.0 -1.0373446107500877 1
gene  2 5 35 0.5993175609136936 0 125.0 0.5993175609136936 1
gene  2 6 35 0.3611414781367559 0 126.0 0.3611414781367559 1
gene  2 7 35 1.1216082358154367 0 127.0 1.1216082358154367 1
gene  2 8 35 -1.3742509868259078 0 128.0 -1.3742509868259078 1
gene  2 9 35 -4.409186406054588 0 129.0 -4.409186406054588 1
gene  2 10 35 -3.143499728387162 0 130.0 -3.143499728387162 1
gene  2 11 35 0.7029440040604438 0 131.0 0.7029440040604438 1
gene  2 12 35 1.285776132136949 0 132.0 1.285776132136949 1
gene  2 13 35 1.2410873184513338 0 133.0 1.2410873184513338 1
gene  2 14 35 6.5486316417218005 0 134.0 6.5486316417218005 1
gene  2 15 35 -1.2756674716195844 0 135.0 -1.2756674716195844 1
gene  2 16 35 -1.0837485356525964 0 136.0 -1.0837485356525964 1
gene  2 17 35 1.7528919567657804 0 137.0 1.7528919567657804 1
gene  2 18 35 -0.9820146009556066 0 138.0 -0.9820146009556066 1
gene  2 19 35 1.5284491105134066 0 139.0 1.5284491105134066 1
gene  2 20 35 1.1494960696022085 0 140.0 1.1494960696022085 1
gene  2 21 35 -0.9931369905511402 0 141.0 -0.9931369905511402 1
gene  2 22 35 -5.19764483378674 0 142.0 -5.19764483378674 1
gene  2 23 35 -1.582762332321812 0 143.0 -1.582762332321812 1
gene  2 24 35 2.6529584197974616 0 144.0 2.6529584197974616 1
gene  2 25 35 -3.8412757204065624 0 145.0 -3.8412757204065624 1
gene  2 26 35 0.9892843853377788 0 146.0 0.9892843853377788 1
gene  2 27 35 -1.451780009104324 0 147.0 -1.451780009104324 1
gene  2 28 35 -0.9553844031527703 0 148.0 -0.9553844031527703 1
gene  2 29 35 2.2761070770092915 0 149.0 2.2761070770092915 1
gene  2 30 35 2.4542521609910817 0 150.0 2.4542521609910817 1
gene  2 1 36 2.1645442271646615 0 151.0 2.1645442271646615 1
gene  2 2 36 2.1054502838050264 0 152.0 2.1054502838050264 1
gene  2 3 36 1.0669156008904557 0 153.0 1.0669156008904557 1
gene  2 4 36 1.6819002537224534 0 154.0 1.6819002537224534 1
gene  2 5 36 0.166227304214277 0 155.0 0.166227304214277 1
gene  2 6 36 -1.6224612878615523 0 156.0 -1.6224612878615523 1
gene  2 7 36 1.015011993991426 0 157.0 1.015011993991426 1
gene  2 8 36 -3.468175079173437 0 158.0 -3.468175079173437 1
gene  2 9 36 -2.9833785022174215 0 159.0 -2.9833785022174215 1
gene  2 10 36 -0.3282412332199196 0 160.0 -0.3282412332199196 1
gene  2 11 36 1.8136093575543422 0 161.0 1.8136093575543422 1
gene  2 12 36 -2.1070817923753546 0 162.0 -2.1070817923753546 1
gene  2 13 36 -1.3991029501031562 0 163.0 -1.3991029501031562 1
gene  2 14 36 1.2623915371122552 0 164.0 1.2623915371122552 1
gene  2 15 36 4.566345313658571 0 165.0 4.566345313658571 1
gene  2 16 36 -0.6739101139441084 0 166.0 -0.6739101139441084 1
gene  2 17 36 1.9405603813088212 0 167.0 1.9405603813088212 1
gene  2 18 36 4.710708507120582 0 168.0 4.710708507120582 1
gene  2 19 36 -2.353116061820997 0 169.0 -2.353116061820997 1
gene  2 20 36 4.352408043405805 0 170.0 4.352408043405805 1
gene  2 21 36 -0.3285240787743309 0 171.0 -0.3285240787743309 1
gene  2 22 36 0.041769513704857264 0 172.0 0.041769513704857264 1
gene  2 23 36 -0.450186703164414 0 173.0 -0.450186703164414 1
gene  2 24 36 2.678998782548792 0 174.0 2.678998782548792 1
gene  2 25 36 4.662256266934601 0 175.0 4.662256266934601 1
gene  2 26 36 -0.28132165089594396 0 176.0 -0.28132165089594396 1
gene  2 27 36 1.3722276956498973 0 177.0 1.3722276956498973 1
gene  2 28 36 1.6692772102591324 0 178.0 1.6692772102591324 1
gene  2 29 36 -3.0977433468506446 0 179.0 -3.0977433468506446 1
gene  2 30 36 -0.6699499286444802 0 180.0 -0.6699499286444802 1
gene  2 34 35 0.44052424457904893 0 193.0 0.44052424457904893 1
gene  2 25 41 2.478898314318039 0 200.0 2.478898314318039 1
gene  2 41 33 3.931581874948213 0 201.0 3.931581874948213 1
gene  2 11 61 2.9913645782413303 0 277.0 2.9913645782413303 1
gene  2 61 31 0.3149253746984553 0 278.0 0.3149253746984553 1
gene  2 36 32 9.501814213098788 0 287.0 9.501814213098788 1
gene  1 25 61 -7.43955885862042 0 308.0 -7.43955885862042 1
genomeend 21
