genomestart  26
trait 1 0.1 0.0 0.0 0.0 0.0 0.0 0.0 0.0 
trait 2 0.2 0.0 0.0 0.0 0.0 0.0 0.0 0.0 
trait 3 0.28551138942246185 0.0 0.0 0.0 0.0 0.0 0.0 0.0 
node 1 1 1 3
node 2 1 1 1
node 3 1 1 1
node 4 1 1 1
node 5 1 1 1
node 6 1 1 1
node 7 1 1 1
node 8 1 1 1
node 9 1 1 1
node 10 1 1 1
node 11 1 1 1
node 12 1 1 1
node 13 1 1 1
node 14 1 1 1
node 15 1 0 2
node 16 1 0 2
node 17 1 0 2
node 18 1 0 2
node 19 1 0 2
node 20 1 0 2
gene  1 1 15 -2.3417591256674877 0 1.0 -2.3417591256674877 1
gene  1 2 15 3.0939056787653714 0 1.0 3.0939056787653714 1
gene  1 3 15 -1.515640690816776 0 1.0 -1.515640690816776 1
gene  1 4 15 0.08176225092091177 0 1.0 0.08176225092091177 1
gene  1 5 15 -1.9672458525501992 0 1.0 -1.9672458525501992 1
gene  1 6 15 -2.9065801060903156 0 1.0 -2.9065801060903156 1
gene  1 7 15 -0.4326852012201403 0 1.0 -0.4326852012201403 1
gene  1 8 15 1.2411243666538467 0 1.0 1.2411243666538467 1
gene  1 9 15 0.9745768395513978 0 1.0 0.9745768395513978 1
gene  1 10 15 -3.655526720315207 0 1.0 -3.655526720315207 1
gene  1 11 15 -1.6715639960585431 0 1.0 -1.6715639960585431 1
gene  1 12 15 -3.4410258894603176 0 1.0 -3.4410258894603176 1
gene  1 13 15 0.6755501792453271 0 1.0 0.6755501792453271 1
gene  1 14 15 -3.807129740557677 0 1.0 -3.807129740557677 1
gene  1 1 16 5.696726709493367 0 1.0 5.696726709493367 1
gene  1 2 16 -1.3466985394576592 0 1.0 -1.3466985394576592 1
gene  1 3 16 -2.7353724425364456 0 1.0 -2.7353724425364456 1
gene  1 4 16 1.6782821076360852 0 1.0 1.6782821076360852 1
gene  1 5 16 -2.95118361992225 0 1.0 -2.95118361992225 1
gene  1 6 16 -1.4515797595825168 0 1.0 -1.4515797595825168 1
gene  1 7 16 1.1681004442753138 0 1.0 1.1681004442753138 1
gene  1 8 16 1.1776591810114887 0 1.0 1.1776591810114887 1
gene  1 9 16 -0.16840944422857707 0 1.0 -0.16840944422857707 1
gene  1 10 16 -3.2236353824766617 0 1.0 -3.2236353824766617 1
gene  1 11 16 1.3118520266843474 0 1.0 1.3118520266843474 1
gene  1 12 16 0.03125118365145951 0 1.0 0.03125118365145951 1
gene  1 13 16 -2.0691212328433517 0 1.0 -2.0691212328433517 1
gene  1 14 16 1.6909435934084975 0 1.0 1.6909435934084975 1
gene  1 1 17 -0.1239183163680776 0 1.0 -0.1239183163680776 1
gene  1 2 17 1.0563952721681602 0 1.0 1.0563952721681602 1
gene  1 3 17 0.47605406721692844 0 1.0 0.47605406721692844 1
gene  1 4 17 -3.051107201146567 0 1.0 -3.051107201146567 1
gene  1 5 17 -1.2257793248088542 0 1.0 -1.2257793248088542 1
gene  1 6 17 -2.7882758084554435 0 1.0 -2.7882758084554435 1
gene  1 7 17 1.1543840238373377 0 1.0 1.1543840238373377 1
gene  1 8 17 -1.8026965743632246 0 1.0 -1.8026965743632246 1
gene  1 9 17 -1.1875974379430525 0 1.0 -1.1875974379430525 1
gene  1 10 17 -3.230670241976604 0 1.0 -3.230670241976604 1
gene  1 11 17 -1.3529583271867895 0 1.0 -1.3529583271867895 1
gene  1 12 17 0.16532812233153105 0 1.0 0.16532812233153105 1
gene  1 13 17 -2.5745764643529645 0 1.0 -2.5745764643529645 1
gene  1 14 17 -0.8360545282246263 0 1.0 -0.8360545282246263 1
gene  1 1 18 0.8885277099505353 0 1.0 0.8885277099505353 1
gene  1 2 18 -1.700341004371724 0 1.0 -1.700341004371724 1
gene  1 3 18 3.2710144068695994 0 1.0 3.2710144068695994 1
gene  1 4 18 0.6697447320679724 0 1.0 0.6697447320679724 1
gene  1 5 18 -2.8825042338736218 0 1.0 -2.8825042338736218 1
gene  1 6 18 0.8770039713521813 0 1.0 0.8770039713521813 1
gene  1 7 18 1.8780033656491266 0 1.0 1.8780033656491266 1
gene  1 8 18 1.9005844603381221 0 1.0 1.9005844603381221 1
gene  1 9 18 -2.001968471829128 0 1.0 -2.001968471829128 1
gene  1 10 18 -0.4226622177829027 0 1.0 -0.4226622177829027 1
gene  1 11 18 2.368141408807576 0 1.0 2.368141408807576 1
gene  1 12 18 -1.5285497997601012 0 1.0 -1.5285497997601012 1
gene  1 13 18 -1.2102105167652901 0 1.0 -1.2102105167652901 1
gene  1 14 18 -1.0075211248765683 0 1.0 -1.0075211248765683 1
gene  1 1 19 -0.9211752776138917 0 1.0 -0.9211752776138917 1
gene  1 2 19 3.6784657486360515 0 1.0 3.6784657486360515 1
gene  1 3 19 -0.5531215354068514 0 1.0 -0.5531215354068514 1
gene  1 4 19 -2.595482437509221 0 1.0 -2.595482437509221 1
gene  1 5 19 -0.5741034987759701 0 1.0 -0.5741034987759701 1
gene  1 6 19 0.8842182365971389 0 1.0 0.8842182365971389 1
gene  1 7 19 3.8849279639453194 0 1.0 3.8849279639453194 1
gene  1 8 19 0.0023815585301696363 0 1.0 0.0023815585301696363 1
gene  1 9 19 1.5834240466080385 0 1.0 1.5834240466080385 1
gene  1 10 19 -2.0835371411003676 0 1.0 -2.0835371411003676 1
gene  1 11 19 3.215001186540132 0 1.0 3.215001186540132 1
gene  1 12 19 2.2200570801475195 0 1.0 2.2200570801475195 1
gene  1 13 19 -2.3784269190230685 0 1.0 -2.3784269190230685 1
gene  1 14 19 1.5149059262761946 0 1.0 1.5149059262761946 1
gene  1 1 20 0.9187393462710423 0 1.0 0.9187393462710423 1
gene  1 2 20 0.24592182712958266 0 1.0 0.24592182712958266 1
gene  1 3 20 1.1015645535644571 0 1.0 1.1015645535644571 1
gene  1 4 20 -0.3672259832122967 0 1.0 -0.3672259832122967 1
gene  1 5 20 -0.8775251460517852 0 1.0 -0.8775251460517852 1
gene  1 6 20 0.9647603831261803 0 1.0 0.9647603831261803 1
gene  1 7 20 -0.11291801066704332 0 1.0 -0.11291801066704332 1
gene  1 8 20 1.0771045077486023 0 1.0 1.0771045077486023 1
gene  1 9 20 -1.1966949160133933 0 1.0 -1.1966949160133933 1
gene  1 10 20 0.7620023708462731 0 1.0 0.7620023708462731 1
gene  1 11 20 -0.8738718401049522 0 1.0 -0.8738718401049522 1
gene  1 12 20 -0.6578183191948194 0 1.0 -0.6578183191948194 1
gene  1 13 20 1.1362143353018723 0 1.0 1.1362143353018723 1
gene  1 14 20 -0.915667741942122 0 1.0 -0.915667741942122 1
genomeend 26
