genomestart  16
trait 1 0.1 0.0 0.0 0.0 0.0 0.0 0.0 0.0 
trait 2 0.1 0.0 0.0 0.870787060293485 0.0 0.0 0.0 0.0 
node 1 1 1 3
node 2 1 1 1
node 3 1 1 1
node 4 1 1 1
node 5 1 1 1
node 6 1 1 1
node 7 1 1 1
node 8 1 1 1
node 9 1 1 1
node 10 1 1 1
node 11 1 1 1
node 12 1 1 1
node 13 1 1 1
node 14 1 1 1
node 15 1 1 1
node 16 1 1 1
node 17 1 1 1
node 18 1 1 1
node 19 1 1 1
node 20 1 1 1
node 21 1 1 1
node 22 1 1 1
node 23 1 1 1
node 24 1 1 1
node 25 1 1 1
node 26 1 1 1
node 27 1 1 1
node 28 1 1 1
node 29 1 1 1
node 30 1 1 1
node 31 1 0 2
node 32 1 0 2
node 33 1 0 2
node 34 1 0 2
node 35 1 0 2
node 36 2 0 2
node 43 1 0 0
gene  1 1 31 0.08747566535758322 0 1.0 0.08747566535758322 1
gene  2 2 31 -3.4829499964137147 0 2.0 -3.4829499964137147 1
gene  2 3 31 2.782245837241372 0 3.0 2.782245837241372 1
gene  2 4 31 -0.8826115108979962 0 4.0 -0.8826115108979962 1
gene  2 5 31 -0.109561772805149 0 5.0 -0.109561772805149 1
gene  2 6 31 0.25211004449938745 0 6.0 0.25211004449938745 1
gene  2 7 31 -0.628705717329165 0 7.0 -0.628705717329165 1
gene  2 8 31 0.7126952104322293 0 8.0 0.7126952104322293 1
gene  2 9 31 0.9556180382063192 0 9.0 0.9556180382063192 1
gene  2 10 31 3.0600985322443695 0 10.0 3.0600985322443695 1
gene  2 11 31 -1.2856367510381579 0 11.0 -1.2856367510381579 1
gene  2 12 31 -3.134088444404559 0 12.0 -3.134088444404559 1
gene  2 13 31 -0.513071478942727 0 13.0 -0.513071478942727 1
gene  2 14 31 -0.8768351447966927 0 14.0 -0.8768351447966927 1
gene  2 15 31 1.6876123687499744 0 15.0 1.6876123687499744 1
gene  2 16 31 2.013651312381217 0 16.0 2.013651312381217 1
gene  2 17 31 -2.4042121199379407 0 17.0 -2.4042121199379407 1
gene  2 18 31 0.8901818483620646 0 18.0 0.8901818483620646 1
gene  2 19 31 -1.0407798302360778 0 19.0 -1.0407798302360778 1
gene  2 20 31 -4.5911244654000924 0 20.0 -4.5911244654000924 1
gene  2 21 31 0.16561097804884584 0 21.0 0.16561097804884584 1
gene  2 22 31 3.139536217975608 0 22.0 3.139536217975608 1
gene  2 23 31 -0.21416380247466926 0 23.0 -0.21416380247466926 1
gene  2 24 31 -2.2674669878204985 0 24.0 -2.2674669878204985 1
gene  2 25 31 -0.5252889811396982 0 25.0 -0.5252889811396982 1
gene  2 26 31 -2.7130993764459537 0 26.0 -2.7130993764459537 1
gene  2 27 31 -2.053262139769436 0 27.0 -2.053262139769436 1
gene  2 28 31 4.644982504513612 0 28.0 4.644982504513612 1
gene  2 29 31 0.8305501090372944 0 29.0 0.8305501090372944 1
gene  2 30 31 -1.7675520955284214 0 30.0 -1.7675520955284214 1
gene  2 1 32 1.459220008008385 0 31.0 1.459220008008385 1
gene  2 2 32 -1.5395461602682694 0 32.0 -1.5395461602682694 1
gene  2 3 32 -0.696964611424475 0 33.0 -0.696964611424475 1
gene  2 4 32 -2.3739394262082905 0 34.0 -2.3739394262082905 1
gene  2 5 32 -2.461876302890913 0 35.0 -2.461876302890913 1
gene  2 6 32 -1.1358564060605287 0 36.0 -1.1358564060605287 1
gene  2 7 32 -5.3096216466320625 0 37.0 -5.3096216466320625 1
gene  2 8 32 4.2685561915976065 0 38.0 4.2685561915976065 1
gene  2 9 32 -1.1559693427505975 0 39.0 -1.1559693427505975 1
gene  2 10 32 1.2563723549919794 0 40.0 1.2563723549919794 1
gene  2 11 32 6.720601819298444 0 41.0 6.720601819298444 1
gene  2 12 32 -0.01005627410281068 0 42.0 -0.01005627410281068 1
gene  2 13 32 3.4799007723820847 0 43.0 3.4799007723820847 1
gene  2 14 32 0.956094243343963 0 44.0 0.956094243343963 1
gene  2 15 32 3.226018728791476 0 45.0 3.226018728791476 1
gene  2 16 32 -5.5453286190896085 0 46.0 -5.5453286190896085 1
gene  2 17 32 -3.887413395356323 0 47.0 -3.887413395356323 1
gene  2 18 32 -1.450722138239437 0 48.0 -1.450722138239437 1
gene  2 19 32 0.39768582727393575 0 49.0 0.39768582727393575 1
gene  2 20 32 0.9252834950876605 0 50.0 0.9252834950876605 1
gene  2 21 32 1.2776270882258007 0 51.0 1.2776270882258007 1
gene  2 22 32 -2.554179249114739 0 52.0 -2.554179249114739 1
gene  2 23 32 0.4197165101917655 0 53.0 0.4197165101917655 1
gene  2 24 32 -1.0673389484433096 0 54.0 -1.0673389484433096 1
gene  2 25 32 -1.532947504708455 0 55.0 -1.532947504708455 1
gene  2 26 32 5.100669722440571 0 56.0 5.100669722440571 1
gene  2 27 32 2.4496488140886674 0 57.0 2.4496488140886674 1
gene  2 28 32 0.9621432341481584 0 58.0 0.9621432341481584 1
gene  2 29 32 3.3869007281377095 0 59.0 3.3869007281377095 1
gene  2 30 32 1.208513653940576 0 60.0 1.208513653940576 1
gene  2 1 33 -2.48966485525365 0 61.0 -2.48966485525365 1
gene  2 2 33 1.0798326840332142 0 62.0 1.0798326840332142 1
gene  2 3 33 -0.05053671024575779 0 63.0 -0.05053671024575779 1
gene  2 4 33 -2.4403345038596407 0 64.0 -2.4403345038596407 1
gene  2 5 33 1.4372335446354176 0 65.0 1.4372335446354176 1
gene  2 6 33 1.3479975512399835 0 66.0 1.3479975512399835 1
gene  2 7 33 -0.4527127994325534 0 67.0 -0.4527127994325534 1
gene  2 8 33 1.6384205489267383 0 68.0 1.6384205489267383 1
gene  2 9 33 0.741416314161113 0 69.0 0.741416314161113 1
gene  2 10 33 -3.5814592509340963 0 70.0 -3.5814592509340963 1
gene  2 11 33 -2.5029003349626766 0 71.0 -2.5029003349626766 1
gene  2 12 33 -7.672494314737582 0 72.0 -7.672494314737582 1
gene  2 13 33 1.538939623110059 0 73.0 1.538939623110059 1
gene  2 14 33 -0.3481376317346059 0 74.0 -0.3481376317346059 1
gene  2 15 33 -2.5398221478811576 0 75.0 -2.5398221478811576 1
gene  2 16 33 -0.8395901646167476 0 76.0 -0.8395901646167476 1
gene  2 17 33 -2.0654510153664187 0 77.0 -2.0654510153664187 1
gene  2 18 33 2.6173517248351095 0 78.0 2.6173517248351095 1
gene  2 19 33 -4.0983615787086665 0 79.0 -4.0983615787086665 1
gene  2 20 33 2.504248256345771 0 80.0 2.504248256345771 1
gene  2 21 33 -5.160286445955677 0 81.0 -5.160286445955677 1
gene  2 22 33 -0.24172061772474063 0 82.0 -0.24172061772474063 1
gene  2 23 33 1.7960882956799171 0 83.0 1.7960882956799171 1
gene  2 24 33 -2.9875448383325476 0 84.0 -2.9875448383325476 1
gene  2 25 33 -2.25506613521444 0 85.0 -2.25506613521444 1
gene  2 26 33 0.046208461299378445 0 86.0 0.046208461299378445 1
gene  2 27 33 -0.17482004502478565 0 87.0 -0.17482004502478565 1
gene  2 28 33 -0.8588180005539552 0 88.0 -0.8588180005539552 1
gene  2 29 33 1.0546290334227544 0 89.0 1.0546290334227544 1
gene  2 30 33 -1.844339484186655 0 90.0 -1.844339484186655 1
gene  2 1 34 3.441317179750087 0 91.0 3.441317179750087 1
gene  2 2 34 3.834815764885879 0 92.0 3.834815764885879 1
gene  2 3 34 -0.9877908264452093 0 93.0 -0.9877908264452093 1
gene  2 4 34 1.797253487470124 0 94.0 1.797253487470124 1
gene  2 5 34 -2.5824082775403188 0 95.0 -2.5824082775403188 1
gene  2 6 34 4.235267669748545 0 96.0 4.235267669748545 1
gene  2 7 34 -2.3938580306131634 0 97.0 -2.3938580306131634 1
gene  2 8 34 2.8236066926437147 0 98.0 2.8236066926437147 1
gene  2 9 34 1.9316795088816148 0 99.0 1.9316795088816148 1
gene  2 10 34 1.7440170961327255 0 100.0 1.7440170961327255 1
gene  2 11 34 1.446406933914106 0 101.0 1.446406933914106 1
gene  2 12 34 1.7983353609365422 0 102.0 1.7983353609365422 1
gene  2 13 34 1.95634374862035 0 103.0 1.95634374862035 1
gene  2 14 34 1.1413437502795705 0 104.0 1.1413437502795705 1
gene  2 15 34 -4.751129179442385 0 105.0 -4.751129179442385 1
gene  2 16 34 3.678391423630434 0 106.0 3.678391423630434 1
gene  2 17 34 -1.410702487264368 0 107.0 -1.410702487264368 1
gene  2 18 34 7.705304940946422 0 108.0 7.705304940946422 1
gene  2 19 34 -3.9676775989805724 0 109.0 -3.9676775989805724 1
gene  2 20 34 -2.7068067279139316 0 110.0 -2.7068067279139316 1
gene  2 21 34 -1.5424029626380722 0 111.0 -1.5424029626380722 1
gene  2 22 34 0.2816379587192509 0 112.0 0.2816379587192509 1
gene  2 23 34 0.5449685912767779 0 113.0 0.5449685912767779 1
gene  2 24 34 -2.7159188985190266 0 114.0 -2.7159188985190266 1
gene  2 25 34 -0.4724922208531674 0 115.0 -0.4724922208531674 1
gene  2 26 34 2.078532134313836 0 116.0 2.078532134313836 1
gene  2 27 34 2.536020589363558 0 117.0 2.536020589363558 1
gene  2 28 34 -6.054393061846539 0 118.0 -6.054393061846539 1
gene  2 29 34 6.627863085537336 0 119.0 6.627863085537336 1
gene  2 30 34 -0.04978878800219311 0 120.0 -0.04978878800219311 1
gene  2 1 35 -4.232683241981135 0 121.0 -4.232683241981135 1
gene  2 2 35 -0.7833435673581736 0 122.0 -0.7833435673581736 1
gene  2 3 35 2.4374735307109447 0 123.0 2.4374735307109447 1
gene  2 4 35 0.31081338168130546 0 124.0 0.31081338168130546 1
gene  2 5 35 -2.2137163144631415 0 125.0 -2.2137163144631415 1
gene  2 6 35 -2.4773321013339986 0 126.0 -2.4773321013339986 1
gene  2 7 35 -2.5041069102538875 0 127.0 -2.5041069102538875 1
gene  2 8 35 3.994381188419008 0 128.0 3.994381188419008 1
gene  2 9 35 -1.641644696437293 0 129.0 -1.641644696437293 1
gene  2 10 35 0.25124756580538044 0 130.0 0.25124756580538044 1
gene  2 11 35 -1.2362712973169683 0 131.0 -1.2362712973169683 1
gene  2 12 35 2.3326599033868476 0 132.0 2.3326599033868476 1
gene  2 13 35 -2.4225773994041786 0 133.0 -2.4225773994041786 1
gene  2 14 35 0.6356876262237312 0 134.0 0.6356876262237312 1
gene  2 15 35 -2.370672032903893 0 135.0 -2.370672032903893 1
gene  2 16 35 1.0360827245687867 0 136.0 1.0360827245687867 1
gene  2 17 35 -0.1321094212082552 0 137.0 -0.1321094212082552 1
gene  2 18 35 2.4445761877284027 0 138.0 2.4445761877284027 1
gene  2 19 35 0.8857130510043238 0 139.0 0.8857130510043238 1
gene  2 20 35 -1.368073476480145 0 140.0 -1.368073476480145 1
gene  2 21 35 -0.8307203593780599 0 141.0 -0.8307203593780599 1
gene  2 22 35 0.47329353716368916 0 142.0 0.47329353716368916 1
gene  2 23 35 -5.735147740331369 0 143.0 -5.735147740331369 1
gene  2 24 35 1.8489145352836804 0 144.0 1.8489145352836804 1
gene  2 25 35 0.29136800279102215 0 145.0 0.29136800279102215 1
gene  2 26 35 0.9587617205537802 0 146.0 0.9587617205537802 1
gene  2 27 35 4.141948158877362 0 147.0 4.141948158877362 1
gene  2 28 35 -0.229670635907134 0 148.0 -0.229670635907134 1
gene  2 29 35 5.065102633397461 0 149.0 5.065102633397461 1
gene  2 30 35 2.3336712056978275 0 150.0 2.3336712056978275 1
gene  2 1 36 -1.5649724328540104 0 151.0 -1.5649724328540104 1
gene  2 2 36 0.11174047152107658 0 152.0 0.11174047152107658 1
gene  2 3 36 0.48789374637957716 0 153.0 0.48789374637957716 1
gene  2 4 36 2.8084185400828967 0 154.0 2.8084185400828967 1
gene  2 5 36 2.7239467658037 0 155.0 2.7239467658037 1
gene  2 6 36 0.11451715767865422 0 156.0 0.11451715767865422 1
gene  2 7 36 1.3528768928988801 0 157.0 1.3528768928988801 1
gene  2 8 36 1.8490877421981855 0 158.0 1.8490877421981855 1
gene  2 9 36 1.3181761740199929 0 159.0 1.3181761740199929 1
gene  2 10 36 0.930643322841719 0 160.0 0.930643322841719 1
gene  2 11 36 0.2731039346053989 0 161.0 0.2731039346053989 1
gene  2 12 36 0.18263132775531687 0 162.0 0.18263132775531687 1
gene  2 13 36 -2.573949849413304 0 163.0 -2.573949849413304 1
gene  2 14 36 -0.397053597415034 0 164.0 -0.397053597415034 1
gene  2 15 36 -2.2681720611861893 0 165.0 -2.2681720611861893 1
gene  2 16 36 -2.2862578694201696 0 166.0 -2.2862578694201696 1
gene  2 17 36 -0.11219264645849064 0 167.0 -0.11219264645849064 1
gene  2 18 36 1.994179732139157 0 168.0 1.994179732139157 1
gene  2 19 36 -3.4976029500366783 0 169.0 -3.4976029500366783 1
gene  2 20 36 -4.920414833102048 0 170.0 -4.920414833102048 1
gene  2 21 36 -0.2281329915738085 0 171.0 -0.2281329915738085 1
gene  2 22 36 -2.1184956387897422 0 172.0 -2.1184956387897422 1
gene  2 23 36 -1.3232110419396208 0 173.0 -1.3232110419396208 0
gene  2 24 36 1.2269320902395466 0 174.0 1.2269320902395466 1
gene  2 25 36 -0.4266140577129498 0 175.0 -0.4266140577129498 1
gene  2 26 36 1.6080203350285576 0 176.0 1.6080203350285576 1
gene  2 27 36 0.8621539495142511 0 177.0 0.8621539495142511 1
gene  2 28 36 4.932115858803401 0 178.0 4.932115858803401 1
gene  2 29 36 -0.21576998839907024 0 179.0 -0.21576998839907024 1
gene  2 30 36 1.961421361538365 0 180.0 1.961421361538365 1
gene  2 23 43 1.0 0 215.0 1.0 1
gene  2 43 36 1.781901994256103 0 216.0 1.781901994256103 1
genomeend 16
