genomestart  45
trait 1 0.1 0.0 0.0 0.0 0.0 0.0 0.0 0.0 
trait 2 0.1 0.0 0.0 0.0 0.0 0.0 0.0 0.0 
node 1 0 1 3
node 2 0 1 1
node 3 0 1 1
node 4 0 1 1
node 5 0 1 1
node 6 0 1 1
node 7 0 1 1
node 8 0 1 1
node 9 0 1 1
node 10 0 1 1
node 11 0 1 1
node 12 0 1 1
node 13 0 1 1
node 14 0 1 1
node 15 0 1 1
node 16 0 1 1
node 17 0 1 1
node 18 0 1 1
node 19 0 1 1
node 20 0 1 1
node 21 0 1 1
node 22 0 1 1
node 23 0 1 1
node 24 0 1 1
node 25 0 1 1
node 26 0 1 1
node 27 0 1 1
node 28 0 1 1
node 29 0 1 1
node 30 0 1 1
node 31 0 0 2
node 32 0 0 2
node 33 0 0 2
node 34 0 0 2
node 35 0 0 2
node 36 0 0 2
gene  1 1 31 0.2996582267262212 0 1.0 0.2996582267262212 1
gene  2 26 31 1.202895643386672 0 26.0 1.202895643386672 1
gene  0 27 31 0.1559057010675472 0 27.0 0.1559057010675472 1
gene  0 28 31 1.0469282513743141 0 28.0 1.0469282513743141 1
gene  0 29 31 -1.9002199863814582 0 29.0 -1.9002199863814582 1
gene  0 30 31 -1.6682136555743199 0 30.0 -1.6682136555743199 1
gene  0 1 32 1.0277310338164123 0 31.0 1.0277310338164123 1
gene  0 26 32 2.1846043671164685 0 56.0 2.1846043671164685 1
gene  0 27 32 0.7219544888436937 0 57.0 0.7219544888436937 1
gene  0 28 32 -0.462258640677911 0 58.0 -0.462258640677911 1
gene  0 29 32 2.4223759519054386 0 59.0 2.4223759519054386 1
gene  0 30 32 2.413189179504755 0 60.0 2.413189179504755 1
gene  0 1 33 -1.474911641263144 0 61.0 -1.474911641263144 1
gene  0 26 33 0.08172184817079176 0 86.0 0.08172184817079176 1
gene  0 27 33 -2.9076232029947153 0 87.0 -2.9076232029947153 1
gene  0 28 33 -1.322763133979461 0 88.0 -1.322763133979461 1
gene  0 29 33 0.35406931134195985 0 89.0 0.35406931134195985 1
gene  0 30 33 -1.4311211480214066 0 90.0 -1.4311211480214066 1
gene  0 1 34 1.8088980989800114 0 91.0 1.8088980989800114 1
gene  0 26 34 -1.0409915346925187 0 116.0 -1.0409915346925187 1
gene  0 27 34 1.6813469396066472 0 117.0 1.6813469396066472 1
gene  0 28 34 -1.5023116029129693 0 118.0 -1.5023116029129693 1
gene  0 29 34 0.2648880015675187 0 119.0 0.2648880015675187 1
gene  0 30 34 -0.23686624830400743 0 120.0 -0.23686624830400743 1
gene  0 1 35 -1.8706271880306868 0 121.0 -1.8706271880306868 1
gene  0 26 35 1.8684331397642326 0 146.0 1.8684331397642326 1
gene  0 27 35 2.4105235003765526 0 147.0 2.4105235003765526 1
gene  0 28 35 -0.8673878556160916 0 148.0 -0.8673878556160916 1
gene  0 29 35 1.0176282601307918 0 149.0 1.0176282601307918 1
gene  0 30 35 1.4105831627032537 0 150.0 1.4105831627032537 1
gene  0 1 36 0.29842066265721323 0 151.0 0.29842066265721323 1
gene  0 26 36 -1.4237776006272291 0 176.0 -1.4237776006272291 1
gene  0 27 36 -2.0876692020913814 0 177.0 -2.0876692020913814 1
gene  0 28 36 -2.0171250351879495 0 178.0 -2.0171250351879495 1
gene  0 29 36 1.6297285305044034 0 179.0 1.6297285305044034 1
gene  0 30 36 1.4974188012219463 0 180.0 1.4974188012219463 1
genomeend 45
