genomestart  24
trait 1 0.1 0.0 0.0 0.0 0.0 0.0 0.0 0.0 
trait 2 0.1 0.0 0.0 0.870787060293485 0.0 0.0 0.0 0.0 
node 1 1 1 3
node 2 1 1 1
node 3 1 1 1
node 4 1 1 1
node 5 1 1 1
node 6 1 1 1
node 7 1 1 1
node 8 1 1 1
node 9 1 1 1
node 10 1 1 1
node 11 1 1 1
node 12 1 1 1
node 13 1 1 1
node 14 1 1 1
node 15 1 1 1
node 16 1 1 1
node 17 1 1 1
node 18 1 1 1
node 19 1 1 1
node 20 1 1 1
node 21 1 1 1
node 22 1 1 1
node 23 1 1 1
node 24 1 1 1
node 25 1 1 1
node 26 1 1 1
node 27 1 1 1
node 28 1 1 1
node 29 1 1 1
node 30 1 1 1
node 31 1 0 2
node 32 1 0 2
node 33 1 0 2
node 34 1 0 2
node 35 1 0 2
node 36 1 0 2
node 42 1 0 0
node 45 1 0 0
gene  1 1 31 -0.8662684381968712 0 1.0 -0.8662684381968712 1
gene  2 2 31 -4.032692786961749 0 2.0 -4.032692786961749 1
gene  2 3 31 1.009951903671238 0 3.0 1.009951903671238 1
gene  2 4 31 0.3034687480394924 0 4.0 0.3034687480394924 1
gene  2 5 31 2.520869512825701 0 5.0 2.520869512825701 1
gene  2 6 31 0.6620426933986585 0 6.0 0.6620426933986585 1
gene  2 7 31 -3.7035961386905467 0 7.0 -3.7035961386905467 1
gene  2 8 31 3.245391006629764 0 8.0 3.245391006629764 1
gene  2 9 31 -1.8788953330994604 0 9.0 -1.8788953330994604 1
gene  2 10 31 -3.2099531790751596 0 10.0 -3.2099531790751596 1
gene  2 11 31 -2.112781997718718 0 11.0 -2.112781997718718 1
gene  2 12 31 0.23134546786810373 0 12.0 0.23134546786810373 1
gene  2 13 31 2.4503802743379097 0 13.0 2.4503802743379097 1
gene  2 14 31 -0.37319128609280244 0 14.0 -0.37319128609280244 1
gene  2 15 31 -1.4836423461305184 0 15.0 -1.4836423461305184 1
gene  2 16 31 -2.2739433277062773 0 16.0 -2.2739433277062773 1
gene  2 17 31 -5.39315601033792 0 17.0 -5.39315601033792 1
gene  2 18 31 -0.2604352705432712 0 18.0 -0.2604352705432712 1
gene  2 19 31 1.0557449050162981 0 19.0 1.0557449050162981 1
gene  2 20 31 -2.7733868464607574 0 20.0 -2.7733868464607574 1
gene  2 21 31 0.8369927297648618 0 21.0 0.8369927297648618 1
gene  2 22 31 1.7195708742878562 0 22.0 1.7195708742878562 1
gene  2 23 31 -0.026144999039024036 0 23.0 -0.026144999039024036 1
gene  2 24 31 -2.3940240111211843 0 24.0 -2.3940240111211843 1
gene  2 25 31 2.102487036322138 0 25.0 2.102487036322138 1
gene  2 26 31 -5.207506747979752 0 26.0 -5.207506747979752 1
gene  2 27 31 -1.7446797642982852 0 27.0 -1.7446797642982852 1
gene  2 28 31 0.022250385524709926 0 28.0 0.022250385524709926 1
gene  2 29 31 3.865101745481875 0 29.0 3.865101745481875 1
gene  2 30 31 -5.260092163864615 0 30.0 -5.260092163864615 1
gene  2 1 32 0.6556533625390167 0 31.0 0.6556533625390167 1
gene  2 2 32 -2.550818885468445 0 32.0 -2.550818885468445 1
gene  2 3 32 0.88189713574881 0 33.0 0.88189713574881 1
gene  2 4 32 1.9583059933175189 0 34.0 1.9583059933175189 1
gene  2 5 32 -1.4860054347664553 0 35.0 -1.4860054347664553 1
gene  2 6 32 -6.498770755819633 0 36.0 -6.498770755819633 1
gene  2 7 32 1.2901783944581922 0 37.0 1.2901783944581922 1
gene  2 8 32 0.5828758068863326 0 38.0 0.5828758068863326 1
gene  2 9 32 -1.6594892466849385 0 39.0 -1.6594892466849385 1
gene  2 10 32 2.657403368069612 0 40.0 2.657403368069612 1
gene  2 11 32 1.584508375774547 0 41.0 1.584508375774547 1
gene  2 12 32 -4.187147626020871 0 42.0 -4.187147626020871 1
gene  2 13 32 1.6789366423555512 0 43.0 1.6789366423555512 1
gene  2 14 32 -1.1536454028433054 0 44.0 -1.1536454028433054 1
gene  2 15 32 4.478069680461454 0 45.0 4.478069680461454 1
gene  2 16 32 -2.2618561987831565 0 46.0 -2.2618561987831565 1
gene  2 17 32 -2.768573657808126 0 47.0 -2.768573657808126 1
gene  2 18 32 -1.018325702831013 0 48.0 -1.018325702831013 1
gene  2 19 32 3.9221174209020266 0 49.0 3.9221174209020266 1
gene  2 20 32 -2.1389808158782944 0 50.0 -2.1389808158782944 1
gene  2 21 32 -2.505502314080057 0 51.0 -2.505502314080057 1
gene  2 22 32 -5.42903975558921 0 52.0 -5.42903975558921 1
gene  2 23 32 0.2632422769265139 0 53.0 0.2632422769265139 1
gene  2 24 32 -4.998660336176346 0 54.0 -4.998660336176346 1
gene  2 25 32 -2.2059913287778192 0 55.0 -2.2059913287778192 1
gene  2 26 32 7.482017423052596 0 56.0 7.482017423052596 0
gene  2 27 32 1.7043871039083558 0 57.0 1.7043871039083558 1
gene  2 28 32 1.3550258693662767 0 58.0 1.3550258693662767 1
gene  2 29 32 -1.3989944976308353 0 59.0 -1.3989944976308353 1
gene  2 30 32 3.246530286199364 0 60.0 3.246530286199364 1
gene  2 1 33 -2.6157147246485373 0 61.0 -2.6157147246485373 1
gene  2 2 33 0.22833728472585188 0 62.0 0.22833728472585188 1
gene  2 3 33 1.6502500950009873 0 63.0 1.6502500950009873 1
gene  2 4 33 -0.9702246742139915 0 64.0 -0.9702246742139915 1
gene  2 5 33 0.20485714465577298 0 65.0 0.20485714465577298 1
gene  2 6 33 1.1592392767015895 0 66.0 1.1592392767015895 1
gene  2 7 33 -0.3587017893964003 0 67.0 -0.3587017893964003 1
gene  2 8 33 3.7814243715784177 0 68.0 3.7814243715784177 1
gene  2 9 33 0.18409170012068465 0 69.0 0.18409170012068465 1
gene  2 10 33 4.8604807258929235 0 70.0 4.8604807258929235 1
gene  2 11 33 -2.3262148261191644 0 71.0 -2.3262148261191644 1
gene  2 12 33 -4.746913526328591 0 72.0 -4.746913526328591 1
gene  2 13 33 -0.14221329174895092 0 73.0 -0.14221329174895092 1
gene  2 14 33 4.790893173583562 0 74.0 4.790893173583562 1
gene  2 15 33 -4.179979459027195 0 75.0 -4.179979459027195 1
gene  2 16 33 3.33765690011152 0 76.0 3.33765690011152 1
gene  2 17 33 -2.801491599074423 0 77.0 -2.801491599074423 1
gene  2 18 33 -0.9873557840565124 0 78.0 -0.9873557840565124 1
gene  2 19 33 1.2667336006016998 0 79.0 1.2667336006016998 1
gene  2 20 33 -0.5443910298225185 0 80.0 -0.5443910298225185 1
gene  2 21 33 -5.3979889925056215 0 81.0 -5.3979889925056215 1
gene  2 22 33 -3.5900572923936283 0 82.0 -3.5900572923936283 1
gene  2 23 33 -1.12196200503393 0 83.0 -1.12196200503393 1
gene  2 24 33 -0.38325958562977847 0 84.0 -0.38325958562977847 1
gene  2 25 33 -3.2980459148281422 0 85.0 -3.2980459148281422 1
gene  2 26 33 -1.515076404136546 0 86.0 -1.515076404136546 1
gene  2 27 33 4.587772460929718 0 87.0 4.587772460929718 1
gene  2 28 33 -3.9847401625823453 0 88.0 -3.9847401625823453 1
gene  2 29 33 -4.405391905165397 0 89.0 -4.405391905165397 1
gene  2 30 33 -2.6836221082165643 0 90.0 -2.6836221082165643 1
gene  2 1 34 1.394172025887339 0 91.0 1.394172025887339 1
gene  2 2 34 -3.042042807144716 0 92.0 -3.042042807144716 1
gene  2 3 34 -5.078740464151164 0 93.0 -5.078740464151164 1
gene  2 4 34 -0.5962587213946902 0 94.0 -0.5962587213946902 1
gene  2 5 34 -2.217693500036413 0 95.0 -2.217693500036413 1
gene  2 6 34 0.7933551003078327 0 96.0 0.7933551003078327 1
gene  2 7 34 0.46086840731165246 0 97.0 0.46086840731165246 1
gene  2 8 34 0.8612567082270355 0 98.0 0.8612567082270355 1
gene  2 9 34 0.2528375411042185 0 99.0 0.2528375411042185 1
gene  2 10 34 1.109313935050433 0 100.0 1.109313935050433 1
gene  2 11 34 1.0661825119107857 0 101.0 1.0661825119107857 1
gene  2 12 34 -0.5012034299857382 0 102.0 -0.5012034299857382 1
gene  2 13 34 3.640775459713183 0 103.0 3.640775459713183 1
gene  2 14 34 -1.7199383044192582 0 104.0 -1.7199383044192582 1
gene  2 15 34 -2.8436964113894425 0 105.0 -2.8436964113894425 1
gene  2 16 34 0.332856137428307 0 106.0 0.332856137428307 1
gene  2 17 34 -3.3220193736994137 0 107.0 -3.3220193736994137 1
gene  2 18 34 2.795520878263292 0 108.0 2.795520878263292 1
gene  2 19 34 -1.6985846001668954 0 109.0 -1.6985846001668954 1
gene  2 20 34 3.217362083563732 0 110.0 3.217362083563732 1
gene  2 21 34 2.863207666588445 0 111.0 2.863207666588445 1
gene  2 22 34 0.8404093464914975 0 112.0 0.8404093464914975 1
gene  2 23 34 5.070340584124121 0 113.0 5.070340584124121 1
gene  2 24 34 -3.994933166448396 0 114.0 -3.994933166448396 1
gene  2 25 34 0.2550289132180197 0 115.0 0.2550289132180197 1
gene  2 26 34 3.785392649187304 0 116.0 3.785392649187304 1
gene  2 27 34 5.381521923391867 0 117.0 5.381521923391867 1
gene  2 28 34 -12.25050690029063 0 118.0 -12.25050690029063 1
gene  2 29 34 6.694302495541663 0 119.0 6.694302495541663 1
gene  2 30 34 -0.18793018291832442 0 120.0 -0.18793018291832442 1
gene  2 1 35 -2.566147294084025 0 121.0 -2.566147294084025 1
gene  2 2 35 -1.7046688299028026 0 122.0 -1.7046688299028026 1
gene  2 3 35 3.882979654308669 0 123.0 3.882979654308669 1
gene  2 4 35 0.41252161129155396 0 124.0 0.41252161129155396 1
gene  2 5 35 -1.4467154645808877 0 125.0 -1.4467154645808877 1
gene  2 6 35 -5.9033353105297275 0 126.0 -5.9033353105297275 1
gene  2 7 35 -3.8593816532105745 0 127.0 -3.8593816532105745 1
gene  2 8 35 4.253546093016767 0 128.0 4.253546093016767 1
gene  2 9 35 2.3723526884054422 0 129.0 2.3723526884054422 1
gene  2 10 35 -2.382474713897872 0 130.0 -2.382474713897872 1
gene  2 11 35 0.06463687807847673 0 131.0 0.06463687807847673 1
gene  2 12 35 2.33820987854624 0 132.0 2.33820987854624 1
gene  2 13 35 -2.3683774509889854 0 133.0 -2.3683774509889854 1
gene  2 14 35 2.396648081171607 0 134.0 2.396648081171607 1
gene  2 15 35 -4.935590469148739 0 135.0 -4.935590469148739 1
gene  2 16 35 3.592782180128814 0 136.0 3.592782180128814 1
gene  2 17 35 0.384288241056402 0 137.0 0.384288241056402 1
gene  2 18 35 1.27961856907115 0 138.0 1.27961856907115 1
gene  2 19 35 -1.393667347028837 0 139.0 -1.393667347028837 1
gene  2 20 35 -0.5793342642167831 0 140.0 -0.5793342642167831 1
gene  2 21 35 -2.0068811803669595 0 141.0 -2.0068811803669595 1
gene  2 22 35 0.48891862966193655 0 142.0 0.48891862966193655 1
gene  2 23 35 1.9661492122216786 0 143.0 1.9661492122216786 1
gene  2 24 35 3.1054609961806423 0 144.0 3.1054609961806423 1
gene  2 25 35 -0.6641542776487764 0 145.0 -0.6641542776487764 1
gene  2 26 35 4.846719151040865 0 146.0 4.846719151040865 1
gene  2 27 35 3.3222545387028504 0 147.0 3.3222545387028504 1
gene  2 28 35 -0.5611105684318434 0 148.0 -0.5611105684318434 1
gene  2 29 35 2.374883731391747 0 149.0 2.374883731391747 1
gene  2 30 35 -1.054848175424648 0 150.0 -1.054848175424648 1
gene  2 1 36 0.1938471706439366 0 151.0 0.1938471706439366 1
gene  2 2 36 4.107473018060658 0 152.0 4.107473018060658 1
gene  2 3 36 -2.401217695374969 0 153.0 -2.401217695374969 1
gene  2 4 36 1.815290899910404 0 154.0 1.815290899910404 1
gene  2 5 36 -0.3850542136065441 0 155.0 -0.3850542136065441 1
gene  2 6 36 -0.516906754535213 0 156.0 -0.516906754535213 1
gene  2 7 36 4.27633658689575 0 157.0 4.27633658689575 1
gene  2 8 36 2.161724346893305 0 158.0 2.161724346893305 1
gene  2 9 36 2.2187655787613196 0 159.0 2.2187655787613196 1
gene  2 10 36 -0.4483857294782334 0 160.0 -0.4483857294782334 1
gene  2 11 36 0.9561143349880401 0 161.0 0.9561143349880401 1
gene  2 12 36 -1.7337484920009931 0 162.0 -1.7337484920009931 1
gene  2 13 36 -2.271532021712469 0 163.0 -2.271532021712469 1
gene  2 14 36 0.14085073537362774 0 164.0 0.14085073537362774 1
gene  2 15 36 0.5749421985422325 0 165.0 0.5749421985422325 1
gene  2 16 36 -2.2607019556215615 0 166.0 -2.2607019556215615 1
gene  2 17 36 -0.8560730374794282 0 167.0 -0.8560730374794282 1
gene  2 18 36 1.3378765049261103 0 168.0 1.3378765049261103 1
gene  2 19 36 -0.6842402970774141 0 169.0 -0.6842402970774141 1
gene  2 20 36 -3.422354940595137 0 170.0 -3.422354940595137 1
gene  2 21 36 0.46846785343925157 0 171.0 0.46846785343925157 1
gene  2 22 36 -1.7289651762272675 0 172.0 -1.7289651762272675 0
gene  2 23 36 0.7453636711478986 0 173.0 0.7453636711478986 1
gene  2 24 36 1.28401261183781 0 174.0 1.28401261183781 1
gene  2 25 36 -2.233750030229673 0 175.0 -2.233750030229673 1
gene  2 26 36 -1.151310824935707 0 176.0 -1.151310824935707 1
gene  2 27 36 -0.6030696583153397 0 177.0 -0.6030696583153397 1
gene  2 28 36 0.8710432728444545 0 178.0 0.8710432728444545 1
gene  2 29 36 -1.9759725258282 0 179.0 -1.9759725258282 1
gene  2 30 36 2.4053075304190035 0 180.0 2.4053075304190035 1
gene  2 24 42 -0.9583090616837254 0 207.0 -0.9583090616837254 1
gene  2 42 33 -1.3270771132317156 0 208.0 -1.3270771132317156 1
gene  1 36 35 -1.4800712601984745 0 209.0 -1.4800712601984745 1
gene  2 26 45 1.0 0 233.0 0.0 1
gene  2 45 32 7.482017423052596 0 234.0 0.0 1
genomeend 24
