genomestart  0
trait 1 0.1 0.0 0.0 0.0 0.0 0.0 0.0 0.0 
trait 2 0.2 0.0 0.0 0.0 0.0 0.0 0.0 0.0 
trait 3 0.3 0.0 0.0 0.0 0.0 0.0 0.0 0.0 
node 1 0 1 3
node 2 0 1 1
node 3 0 1 1
node 4 0 1 1
node 5 0 1 1
node 6 0 1 1
node 7 0 1 1
node 8 0 1 1
node 9 0 1 1
node 10 0 1 1
node 11 0 1 1
node 12 0 1 1
node 13 0 1 1
node 14 0 1 1
node 15 0 0 2
gene  1 1 15 0.6746932003167413 0 1.0 0.6746932003167413 1
gene  1 2 15 0.01906102023273315 0 1.0 0.01906102023273315 1
gene  1 3 15 -0.6149000956956086 0 1.0 -0.6149000956956086 1
gene  1 4 15 0.0985624973334619 0 1.0 0.0985624973334619 1
gene  1 5 15 0.8371306518622939 0 1.0 0.8371306518622939 1
gene  1 6 15 0.5278414241448415 0 1.0 0.5278414241448415 1
gene  1 7 15 -0.9269385234849358 0 1.0 -0.9269385234849358 1
gene  1 8 15 -0.20371516768949027 0 1.0 -0.20371516768949027 1
gene  1 9 15 0.23112924697622905 0 1.0 0.23112924697622905 1
gene  1 10 15 0.5191084639214693 0 1.0 0.5191084639214693 1
gene  1 11 15 0.9840270619690297 0 1.0 0.9840270619690297 1
gene  1 12 15 -0.4086206332427954 0 1.0 -0.4086206332427954 1
gene  1 13 15 -0.8982162423065133 0 1.0 -0.8982162423065133 1
gene  1 14 15 -0.45425936636423414 0 1.0 -0.45425936636423414 1
genomeend 0