genomestart  0
trait 1 0.2117319170668674 0.0 0.30576705124072745 0.0 0.0 0.21798510140266825 0.0 0.0 
trait 2 0.09022896134979176 0.0 0.0 0.0 0.0 0.0 0.0 0.0 
node 1 1 1 3
node 2 1 1 1
node 3 1 1 1
node 4 1 1 1
node 5 1 1 1
node 6 1 1 1
node 7 1 1 1
node 8 1 1 1
node 9 1 1 1
node 10 1 1 1
node 11 1 1 1
node 12 1 1 1
node 13 1 1 1
node 14 1 1 1
node 15 1 1 1
node 16 1 1 1
node 17 1 1 1
node 18 1 1 1
node 19 1 1 1
node 20 1 1 1
node 21 1 1 1
node 22 1 1 1
node 23 1 1 1
node 24 1 1 1
node 25 1 1 1
node 26 1 1 1
node 27 1 1 1
node 28 1 1 1
node 29 1 1 1
node 30 1 1 1
node 31 1 0 2
node 32 1 0 2
node 33 1 0 2
node 34 1 0 2
node 35 1 0 2
node 36 1 0 2
gene  1 1 31 -2.629460029482581 0 1.0 -2.629460029482581 1
gene  2 2 31 -7.2449650255399005 0 2.0 -7.2449650255399005 1
gene  2 3 31 -2.139751515473801 0 3.0 -2.139751515473801 1
gene  2 4 31 -1.5084025259394325 0 4.0 -1.5084025259394325 1
gene  2 5 31 5.052580688727852 0 5.0 5.052580688727852 1
gene  2 6 31 2.9683438127766095 0 6.0 2.9683438127766095 1
gene  2 7 31 -1.8355676375865593 0 7.0 -1.8355676375865593 1
gene  2 8 31 -0.10094397184815862 0 8.0 -0.10094397184815862 1
gene  2 9 31 3.804457491640887 0 9.0 3.804457491640887 1
gene  2 10 31 0.6579956509200418 0 10.0 0.6579956509200418 1
gene  2 11 31 -1.7723133917682046 0 11.0 -1.7723133917682046 1
gene  2 12 31 0.2120742352783347 0 12.0 0.2120742352783347 1
gene  2 13 31 -0.9448770413001182 0 13.0 -0.9448770413001182 1
gene  2 14 31 -3.9772870503208084 0 14.0 -3.9772870503208084 1
gene  2 15 31 -1.7724852356473495 0 15.0 -1.7724852356473495 1
gene  2 16 31 5.569196605357609 0 16.0 5.569196605357609 1
gene  2 17 31 -0.6074504208725161 0 17.0 -0.6074504208725161 1
gene  2 18 31 -0.6999600834768497 0 18.0 -0.6999600834768497 1
gene  2 19 31 1.3751504377505739 0 19.0 1.3751504377505739 1
gene  2 20 31 -1.2134049832063056 0 20.0 -1.2134049832063056 1
gene  2 21 31 -0.13970270350505865 0 21.0 -0.13970270350505865 1
gene  2 22 31 4.0521839791825975 0 22.0 4.0521839791825975 1
gene  2 23 31 0.36412059149611675 0 23.0 0.36412059149611675 1
gene  2 24 31 -3.552425177251978 0 24.0 -3.552425177251978 1
gene  2 25 31 2.3549183962831775 0 25.0 2.3549183962831775 1
gene  2 26 31 -1.877207224882807 0 26.0 -1.877207224882807 1
gene  2 27 31 -6.0814886755437705 0 27.0 -6.0814886755437705 1
gene  2 28 31 4.0858668017009325 0 28.0 4.0858668017009325 1
gene  2 29 31 -1.7911145849778425 0 29.0 -1.7911145849778425 1
gene  2 30 31 -6.0067059816736235 0 30.0 -6.0067059816736235 1
gene  2 1 32 -4.794698762248754 0 31.0 -4.794698762248754 1
gene  2 2 32 1.1425885775450224 0 32.0 1.1425885775450224 1
gene  2 3 32 -2.4530889870330332 0 33.0 -2.4530889870330332 1
gene  2 4 32 0.11811116633679042 0 34.0 0.11811116633679042 1
gene  2 5 32 -3.799361999216709 0 35.0 -3.799361999216709 1
gene  2 6 32 1.4963768207045802 0 36.0 1.4963768207045802 1
gene  2 7 32 -1.6712178612182282 0 37.0 -1.6712178612182282 1
gene  2 8 32 -1.709090223477653 0 38.0 -1.709090223477653 1
gene  2 9 32 6.091135791766562 0 39.0 6.091135791766562 1
gene  2 10 32 1.7756476998464794 0 40.0 1.7756476998464794 1
gene  2 11 32 5.207551477510041 0 41.0 5.207551477510041 1
gene  2 12 32 -2.110526895819212 0 42.0 -2.110526895819212 1
gene  2 13 32 1.363310913557994 0 43.0 1.363310913557994 1
gene  2 14 32 1.041514442401121 0 44.0 1.041514442401121 1
gene  2 15 32 -1.6549670881209024 0 45.0 -1.6549670881209024 1
gene  2 16 32 -6.921513860811272 0 46.0 -6.921513860811272 1
gene  2 17 32 -2.8349657425331056 0 47.0 -2.8349657425331056 1
gene  2 18 32 7.202962163885335 0 48.0 7.202962163885335 1
gene  2 19 32 2.036015172828952 0 49.0 2.036015172828952 1
gene  2 20 32 -1.445011052882892 0 50.0 -1.445011052882892 1
gene  2 21 32 2.808018920166074 0 51.0 2.808018920166074 1
gene  2 22 32 -1.8819587400164577 0 52.0 -1.8819587400164577 1
gene  2 23 32 0.7397573348682297 0 53.0 0.7397573348682297 1
gene  2 24 32 -5.648741956670286 0 54.0 -5.648741956670286 1
gene  2 25 32 1.3299416970760747 0 55.0 1.3299416970760747 1
gene  2 26 32 -0.1505877719801152 0 56.0 -0.1505877719801152 1
gene  2 27 32 1.210460679049565 0 57.0 1.210460679049565 1
gene  2 28 32 -0.3425013128830023 0 58.0 -0.3425013128830023 1
gene  2 29 32 -2.457044736777873 0 59.0 -2.457044736777873 1
gene  2 30 32 5.201358273751421 0 60.0 5.201358273751421 1
gene  2 1 33 -1.92601900728785 0 61.0 -1.92601900728785 1
gene  2 2 33 1.4322673667062522 0 62.0 1.4322673667062522 1
gene  2 3 33 2.3620773869801326 0 63.0 2.3620773869801326 1
gene  2 4 33 -3.2815023694981775 0 64.0 -3.2815023694981775 1
gene  2 5 33 -0.31553177266730636 0 65.0 -0.31553177266730636 1
gene  2 6 33 8.333494708929035 0 66.0 8.333494708929035 1
gene  2 7 33 -1.9260827793201933 0 67.0 -1.9260827793201933 1
gene  2 8 33 -5.36892103328817 0 68.0 -5.36892103328817 1
gene  2 9 33 -2.160155307186348 0 69.0 -2.160155307186348 1
gene  2 10 33 -0.5586836250829967 0 70.0 -0.5586836250829967 1
gene  2 11 33 3.221567866073725 0 71.0 3.221567866073725 1
gene  2 12 33 3.481603497868427 0 72.0 3.481603497868427 1
gene  2 13 33 -2.338979227485453 0 73.0 -2.338979227485453 1
gene  2 14 33 0.3376364484532415 0 74.0 0.3376364484532415 1
gene  2 15 33 -0.8186411644158864 0 75.0 -0.8186411644158864 1
gene  2 16 33 8.960577853091394 0 76.0 8.960577853091394 1
gene  2 17 33 -1.7452052130094124 0 77.0 -1.7452052130094124 1
gene  2 18 33 -8.20669826222164 0 78.0 -8.20669826222164 1
gene  2 19 33 -1.811154714125458 0 79.0 -1.811154714125458 1
gene  2 20 33 -2.52978286288779 0 80.0 -2.52978286288779 1
gene  2 21 33 -5.784627418329665 0 81.0 -5.784627418329665 1
gene  2 22 33 -5.037414214995829 0 82.0 -5.037414214995829 1
gene  2 23 33 0.5055722177692428 0 83.0 0.5055722177692428 1
gene  2 24 33 0.014663743166851262 0 84.0 0.014663743166851262 1
gene  2 25 33 -6.839227709574242 0 85.0 -6.839227709574242 1
gene  2 26 33 -0.2852478581304545 0 86.0 -0.2852478581304545 1
gene  2 27 33 -3.1594582300116896 0 87.0 -3.1594582300116896 1
gene  2 28 33 9.513034609036088 0 88.0 9.513034609036088 1
gene  2 29 33 5.906462249052734 0 89.0 5.906462249052734 1
gene  2 30 33 3.159544156100979 0 90.0 3.159544156100979 1
gene  2 1 34 2.7489535551736797 0 91.0 2.7489535551736797 1
gene  2 2 34 2.5851327090897858 0 92.0 2.5851327090897858 1
gene  2 3 34 3.3807356411572402 0 93.0 3.3807356411572402 1
gene  2 4 34 0.2961285962253553 0 94.0 0.2961285962253553 1
gene  2 5 34 5.49072375202301 0 95.0 5.49072375202301 1
gene  2 6 34 -1.1644973213341485 0 96.0 -1.1644973213341485 1
gene  2 7 34 -2.495514119493203 0 97.0 -2.495514119493203 1
gene  2 8 34 5.045079518836664 0 98.0 5.045079518836664 1
gene  2 9 34 -0.6218660251255144 0 99.0 -0.6218660251255144 1
gene  2 10 34 -2.354193251865266 0 100.0 -2.354193251865266 1
gene  2 11 34 2.689041367314608 0 101.0 2.689041367314608 1
gene  2 12 34 -0.19700104342611646 0 102.0 -0.19700104342611646 1
gene  2 13 34 -1.1237097912228635 0 103.0 -1.1237097912228635 1
gene  2 14 34 2.1121089174418723 0 104.0 2.1121089174418723 1
gene  2 15 34 -2.811807179270458 0 105.0 -2.811807179270458 1
gene  2 16 34 3.784741016313218 0 106.0 3.784741016313218 1
gene  2 17 34 -3.0114853586951895 0 107.0 -3.0114853586951895 1
gene  2 18 34 -1.146790448424497 0 108.0 -1.146790448424497 1
gene  2 19 34 4.964207585471314 0 109.0 4.964207585471314 1
gene  2 20 34 -0.8732209878961759 0 110.0 -0.8732209878961759 1
gene  2 21 34 -1.6813780841179198 0 111.0 -1.6813780841179198 1
gene  2 22 34 4.0494903355125675 0 112.0 4.0494903355125675 1
gene  2 23 34 -4.755627904447499 0 113.0 -4.755627904447499 1
gene  2 24 34 0.912023653874183 0 114.0 0.912023653874183 1
gene  2 25 34 -3.515425398587842 0 115.0 -3.515425398587842 1
gene  2 26 34 -0.7699029700537741 0 116.0 -0.7699029700537741 1
gene  2 27 34 4.416944659070092 0 117.0 4.416944659070092 1
gene  2 28 34 -7.725903439169311 0 118.0 -7.725903439169311 1
gene  2 29 34 0.5182774782633204 0 119.0 0.5182774782633204 1
gene  2 30 34 2.182416153286537 0 120.0 2.182416153286537 1
gene  2 1 35 5.048955865765523 0 121.0 5.048955865765523 1
gene  2 2 35 -7.730648093127705 0 122.0 -7.730648093127705 1
gene  2 3 35 -0.8525610707956627 0 123.0 -0.8525610707956627 1
gene  2 4 35 8.278107799797384 0 124.0 8.278107799797384 1
gene  2 5 35 2.431033322073855 0 125.0 2.431033322073855 1
gene  2 6 35 4.896231168028323 0 126.0 4.896231168028323 1
gene  2 7 35 4.417950981546718 0 127.0 4.417950981546718 1
gene  2 8 35 4.1327578329207135 0 128.0 4.1327578329207135 1
gene  2 9 35 0.08158582262412661 0 129.0 0.08158582262412661 1
gene  2 10 35 3.4095535872060174 0 130.0 3.4095535872060174 1
gene  2 11 35 4.385457988470119 0 131.0 4.385457988470119 1
gene  2 12 35 -5.929027862699052 0 132.0 -5.929027862699052 1
gene  2 13 35 0.4324194574256226 0 133.0 0.4324194574256226 1
gene  2 14 35 4.9420315946698326 0 134.0 4.9420315946698326 1
gene  2 15 35 1.0902670273319486 0 135.0 1.0902670273319486 1
gene  2 16 35 -1.7257456829728814 0 136.0 -1.7257456829728814 1
gene  2 17 35 -1.8442150378113613 0 137.0 -1.8442150378113613 1
gene  2 18 35 1.154902756724841 0 138.0 1.154902756724841 1
gene  2 19 35 -4.336232703375437 0 139.0 -4.336232703375437 1
gene  2 20 35 -4.9900586308073835 0 140.0 -4.9900586308073835 1
gene  2 21 35 -2.6716616543000358 0 141.0 -2.6716616543000358 1
gene  2 22 35 -1.8032537409302485 0 142.0 -1.8032537409302485 1
gene  2 23 35 -0.5290976331181918 0 143.0 -0.5290976331181918 1
gene  2 24 35 7.75815061527322 0 144.0 7.75815061527322 1
gene  2 25 35 -1.7467586008462348 0 145.0 -1.7467586008462348 1
gene  2 26 35 -0.31487970132611864 0 146.0 -0.31487970132611864 1
gene  2 27 35 -1.9747292893122745 0 147.0 -1.9747292893122745 1
gene  2 28 35 1.6242865244092142 0 148.0 1.6242865244092142 1
gene  2 29 35 1.7880876075422913 0 149.0 1.7880876075422913 1
gene  2 30 35 4.777381118653283 0 150.0 4.777381118653283 1
gene  2 1 36 -1.7389307651483077 0 151.0 -1.7389307651483077 1
gene  2 2 36 -5.467082446762433 0 152.0 -5.467082446762433 1
gene  2 3 36 2.046653860556292 0 153.0 2.046653860556292 1
gene  2 4 36 -1.7731559609933956 0 154.0 -1.7731559609933956 1
gene  2 5 36 3.2646334296533146 0 155.0 3.2646334296533146 1
gene  2 6 36 -1.126662883985978 0 156.0 -1.126662883985978 1
gene  2 7 36 0.08486809476698642 0 157.0 0.08486809476698642 1
gene  2 8 36 5.135908838138362 0 158.0 5.135908838138362 1
gene  2 9 36 0.08975964108668383 0 159.0 0.08975964108668383 1
gene  2 10 36 3.3843181622482934 0 160.0 3.3843181622482934 1
gene  2 11 36 -1.555683666729879 0 161.0 -1.555683666729879 1
gene  2 12 36 1.1854305275413617 0 162.0 1.1854305275413617 1
gene  2 13 36 2.588350273462841 0 163.0 2.588350273462841 1
gene  2 14 36 -6.249978659965834 0 164.0 -6.249978659965834 1
gene  2 15 36 0.8332181316802232 0 165.0 0.8332181316802232 1
gene  2 16 36 1.2364359649065122 0 166.0 1.2364359649065122 1
gene  2 17 36 -2.9839090276575133 0 167.0 -2.9839090276575133 1
gene  2 18 36 1.8093853465898229 0 168.0 1.8093853465898229 1
gene  2 19 36 1.252588263870284 0 169.0 1.252588263870284 1
gene  2 20 36 0.8713126499435957 0 170.0 0.8713126499435957 1
gene  2 21 36 -0.5463503321458545 0 171.0 -0.5463503321458545 1
gene  2 22 36 0.06263823525969014 0 172.0 0.06263823525969014 1
gene  2 23 36 0.3761515495512555 0 173.0 0.3761515495512555 1
gene  2 24 36 -0.09238556912753271 0 174.0 -0.09238556912753271 1
gene  2 25 36 -1.6751117918216591 0 175.0 -1.6751117918216591 1
gene  2 26 36 1.961183475073704 0 176.0 1.961183475073704 1
gene  2 27 36 -5.237178185990008 0 177.0 -5.237178185990008 1
gene  2 28 36 -2.79217597516164 0 178.0 -2.79217597516164 1
gene  2 29 36 -4.255317500089257 0 179.0 -4.255317500089257 1
gene  2 30 36 0.2974002486330385 0 180.0 0.2974002486330385 1
gene  1 35 31 2.9487550570874577 0 207.0 2.9487550570874577 1
genomeend 0