/* Species # 001         : (size= 050) (AvfFit= 27,780) (Age= 7,000)  */
/*-------------------------------------------------------------------*/
/* Organism # 000 Fitness:  178,000 Error:  0,000                      */
genomestart  0
trait 1 0.1 0.0 0.0 0.0 0.0 0.0 0.0 0.0 
trait 2 0.2 0.0 0.0 0.0 0.0 0.0 0.0 0.0 
trait 3 0.3 0.0 0.0 0.0 0.0 0.0 0.0 0.0 
node 1 1 1 3
node 2 1 1 1
node 3 1 1 1
node 4 1 1 1
node 5 1 1 1
node 6 1 1 1
node 7 1 1 1
node 8 1 1 1
node 9 1 1 1
node 10 1 1 1
node 11 1 1 1
node 12 1 1 1
node 13 1 1 1
node 14 1 1 1
node 15 1 0 2
node 16 1 0 2
node 17 1 0 2
node 18 1 0 2
node 19 1 0 2
node 20 1 0 2
gene  1 1 15 -1.0269225471081889 0 1.0 -1.0269225471081889 1
gene  1 2 15 1.872666812072426 0 1.0 1.872666812072426 1
gene  1 3 15 0.31412534564399996 0 1.0 0.31412534564399996 1
gene  1 4 15 -1.7283019105710118 0 1.0 -1.7283019105710118 1
gene  1 5 15 -0.9148368645426564 0 1.0 -0.9148368645426564 1
gene  1 6 15 -2.4855998265178965 0 1.0 -2.4855998265178965 1
gene  1 7 15 2.133825589980935 0 1.0 2.133825589980935 1
gene  1 8 15 -1.9143403768527087 0 1.0 -1.9143403768527087 1
gene  1 9 15 0.9047424506608386 0 1.0 0.9047424506608386 1
gene  1 10 15 2.708077809566384 0 1.0 2.708077809566384 1
gene  1 11 15 -2.247860532522871 0 1.0 -2.247860532522871 1
gene  1 12 15 -2.377081518457872 0 1.0 -2.377081518457872 1
gene  1 13 15 -0.7875571262762947 0 1.0 -0.7875571262762947 1
gene  1 14 15 -4.437273143394808 0 1.0 -4.437273143394808 1
gene  1 1 16 0.14453049741234697 0 1.0 0.14453049741234697 1
gene  1 2 16 -2.931548223022917 0 1.0 -2.931548223022917 1
gene  1 3 16 -3.06046533298427 0 1.0 -3.06046533298427 1
gene  1 4 16 -1.7553289018428593 0 1.0 -1.7553289018428593 1
gene  1 5 16 -0.5459979998769561 0 1.0 -0.5459979998769561 1
gene  1 6 16 -1.3754426103456638 0 1.0 -1.3754426103456638 1
gene  1 7 16 0.4639796958681879 0 1.0 0.4639796958681879 1
gene  1 8 16 1.2140579241823615 0 1.0 1.2140579241823615 1
gene  1 9 16 1.672940778323955 0 1.0 1.672940778323955 1
gene  1 10 16 -0.5616621137690544 0 1.0 -0.5616621137690544 1
gene  1 11 16 1.8037298773603845 0 1.0 1.8037298773603845 1
gene  1 12 16 -1.6321266447261324 0 1.0 -1.6321266447261324 1
gene  1 13 16 5.273872219255708 0 1.0 5.273872219255708 1
gene  1 14 16 1.183533886428748 0 1.0 1.183533886428748 1
gene  1 1 17 -2.0767859482193534 0 1.0 -2.0767859482193534 1
gene  1 2 17 -2.6070134479188223 0 1.0 -2.6070134479188223 1
gene  1 3 17 0.9368045321132142 0 1.0 0.9368045321132142 1
gene  1 4 17 -1.4686075769031681 0 1.0 -1.4686075769031681 1
gene  1 5 17 4.338880585565649 0 1.0 4.338880585565649 1
gene  1 6 17 -1.552922130818704 0 1.0 -1.552922130818704 1
gene  1 7 17 1.6068174685990977 0 1.0 1.6068174685990977 1
gene  1 8 17 -3.6025983226436633 0 1.0 -3.6025983226436633 1
gene  1 9 17 -3.30691874817097 0 1.0 -3.30691874817097 1
gene  1 10 17 -3.1492375529239323 0 1.0 -3.1492375529239323 1
gene  1 11 17 -1.1692770281321268 0 1.0 -1.1692770281321268 1
gene  1 12 17 1.7232359718991597 0 1.0 1.7232359718991597 1
gene  1 13 17 0.27817373313564175 0 1.0 0.27817373313564175 1
gene  1 14 17 -1.8329832765557006 0 1.0 -1.8329832765557006 1
gene  1 1 18 3.01521209184875 0 1.0 3.01521209184875 1
gene  1 2 18 -2.0211530257617536 0 1.0 -2.0211530257617536 1
gene  1 3 18 -1.3260547203744122 0 1.0 -1.3260547203744122 1
gene  1 4 18 -0.04279932890797933 0 1.0 -0.04279932890797933 1
gene  1 5 18 -2.8825042338736218 0 1.0 -2.8825042338736218 1
gene  1 6 18 0.8770039713521813 0 1.0 0.8770039713521813 1
gene  1 7 18 1.8780033656491266 0 1.0 1.8780033656491266 1
gene  1 8 18 1.9005844603381221 0 1.0 1.9005844603381221 1
gene  1 9 18 -2.001968471829128 0 1.0 -2.001968471829128 1
gene  1 10 18 -0.4226622177829027 0 1.0 -0.4226622177829027 1
gene  1 11 18 2.368141408807576 0 1.0 2.368141408807576 1
gene  1 12 18 -1.5285497997601012 0 1.0 -1.5285497997601012 1
gene  1 13 18 -1.2102105167652901 0 1.0 -1.2102105167652901 1
gene  1 14 18 -1.0075211248765683 0 1.0 -1.0075211248765683 1
gene  1 1 19 -0.9211752776138917 0 1.0 -0.9211752776138917 1
gene  1 2 19 3.6784657486360515 0 1.0 3.6784657486360515 1
gene  1 3 19 -0.5531215354068514 0 1.0 -0.5531215354068514 1
gene  1 4 19 -2.595482437509221 0 1.0 -2.595482437509221 1
gene  1 5 19 -0.5741034987759701 0 1.0 -0.5741034987759701 1
gene  1 6 19 0.8842182365971389 0 1.0 0.8842182365971389 1
gene  1 7 19 3.8849279639453194 0 1.0 3.8849279639453194 1
gene  1 8 19 0.0023815585301696363 0 1.0 0.0023815585301696363 1
gene  1 9 19 1.5834240466080385 0 1.0 1.5834240466080385 1
gene  1 10 19 -2.0835371411003676 0 1.0 -2.0835371411003676 1
gene  1 11 19 3.215001186540132 0 1.0 3.215001186540132 1
gene  1 12 19 2.2200570801475195 0 1.0 2.2200570801475195 1
gene  1 13 19 -2.3784269190230685 0 1.0 -2.3784269190230685 1
gene  1 14 19 1.5149059262761946 0 1.0 1.5149059262761946 1
gene  1 1 20 0.9187393462710423 0 1.0 0.9187393462710423 1
gene  1 2 20 0.24592182712958266 0 1.0 0.24592182712958266 1
gene  1 3 20 1.1015645535644571 0 1.0 1.1015645535644571 1
gene  1 4 20 -0.3672259832122967 0 1.0 -0.3672259832122967 1
gene  1 5 20 -0.8775251460517852 0 1.0 -0.8775251460517852 1
gene  1 6 20 0.9647603831261803 0 1.0 0.9647603831261803 1
gene  1 7 20 -0.11291801066704332 0 1.0 -0.11291801066704332 1
gene  1 8 20 1.0771045077486023 0 1.0 1.0771045077486023 1
gene  1 9 20 -1.1966949160133933 0 1.0 -1.1966949160133933 1
gene  1 10 20 0.7620023708462731 0 1.0 0.7620023708462731 1
gene  1 11 20 -0.8738718401049522 0 1.0 -0.8738718401049522 1
gene  1 12 20 -0.6578183191948194 0 1.0 -0.6578183191948194 1
gene  1 13 20 1.1362143353018723 0 1.0 1.1362143353018723 1
gene  1 14 20 -0.915667741942122 0 1.0 -0.915667741942122 1
genomeend 0
/* Organism # 001 Fitness:  47,000 Error:  0,000                      */
genomestart  1
trait 1 0.1 0.0 0.0 0.0 0.0 0.0 0.0 0.0 
trait 2 0.2 0.0 0.0 0.0 0.0 0.0 0.0 0.0 
trait 3 0.2710227788449237 0.0 0.0 0.0 0.0 0.0 0.0 0.0 
node 1 1 1 3
node 2 1 1 1
node 3 1 1 1
node 4 1 1 1
node 5 1 1 1
node 6 1 1 1
node 7 1 1 1
node 8 1 1 1
node 9 1 1 1
node 10 1 1 1
node 11 1 1 1
node 12 1 1 1
node 13 1 1 1
node 14 1 1 1
node 15 1 0 2
node 16 1 0 2
node 17 1 0 2
node 18 1 0 2
node 19 1 0 2
node 20 1 0 2
gene  1 1 15 1.888213939718868 0 1.0 1.888213939718868 1
gene  1 2 15 1.267060396164438 0 1.0 1.267060396164438 1
gene  1 3 15 -2.4724863397253682 0 1.0 -2.4724863397253682 1
gene  1 4 15 -0.47372520878878 0 1.0 -0.47372520878878 1
gene  1 5 15 0.530584368430513 0 1.0 0.530584368430513 1
gene  1 6 15 -2.815675006366976 0 1.0 -2.815675006366976 1
gene  1 7 15 -0.13175020962498696 0 1.0 -0.13175020962498696 1
gene  1 8 15 -0.3361605532685578 0 1.0 -0.3361605532685578 1
gene  1 9 15 1.7228018049042657 0 1.0 1.7228018049042657 1
gene  1 10 15 -0.9762200522446358 0 1.0 -0.9762200522446358 1
gene  1 11 15 -3.656366269564746 0 1.0 -3.656366269564746 1
gene  1 12 15 -2.735009930600354 0 1.0 -2.735009930600354 1
gene  1 13 15 -3.1000082161509708 0 1.0 -3.1000082161509708 1
gene  1 14 15 -3.696837098716683 0 1.0 -3.696837098716683 1
gene  1 1 16 4.691585640548818 0 1.0 4.691585640548818 1
gene  1 2 16 -0.9797909839912777 0 1.0 -0.9797909839912777 1
gene  1 3 16 -2.7511645688277775 0 1.0 -2.7511645688277775 1
gene  1 4 16 -0.4772670246143035 0 1.0 -0.4772670246143035 1
gene  1 5 16 -3.376805489603064 0 1.0 -3.376805489603064 1
gene  1 6 16 -1.8195050756624789 0 1.0 -1.8195050756624789 1
gene  1 7 16 -0.4481937293181937 0 1.0 -0.4481937293181937 1
gene  1 8 16 -1.2126711580237917 0 1.0 -1.2126711580237917 1
gene  1 9 16 2.70738617653621 0 1.0 2.70738617653621 1
gene  1 10 16 2.0789106640988013 0 1.0 2.0789106640988013 1
gene  1 11 16 4.630612399213621 0 1.0 4.630612399213621 1
gene  1 12 16 -0.7606238224750659 0 1.0 -0.7606238224750659 1
gene  1 13 16 0.4919164637108697 0 1.0 0.4919164637108697 1
gene  1 14 16 -0.6603144727930422 0 1.0 -0.6603144727930422 1
gene  1 1 17 -2.849204869322401 0 1.0 -2.849204869322401 1
gene  1 2 17 1.1907767949548111 0 1.0 1.1907767949548111 1
gene  1 3 17 2.663668369000261 0 1.0 2.663668369000261 1
gene  1 4 17 1.2848785790011743 0 1.0 1.2848785790011743 1
gene  1 5 17 1.6214041259418055 0 1.0 1.6214041259418055 1
gene  1 6 17 -1.5248628645815514 0 1.0 -1.5248628645815514 1
gene  1 7 17 -2.3226543116719007 0 1.0 -2.3226543116719007 1
gene  1 8 17 -5.203455935756114 0 1.0 -5.203455935756114 1
gene  1 9 17 -1.9056474862755195 0 1.0 -1.9056474862755195 1
gene  1 10 17 -1.4616258016606893 0 1.0 -1.4616258016606893 1
gene  1 11 17 -1.8848640168175006 0 1.0 -1.8848640168175006 1
gene  1 12 17 -0.964005993684028 0 1.0 -0.964005993684028 1
gene  1 13 17 -2.0927701695564895 0 1.0 -2.0927701695564895 1
gene  1 14 17 0.5200732669364803 0 1.0 0.5200732669364803 1
gene  1 1 18 1.0639671347305053 0 1.0 1.0639671347305053 1
gene  1 2 18 0.3382589890506359 0 1.0 0.3382589890506359 1
gene  1 3 18 2.8286224439819088 0 1.0 2.8286224439819088 1
gene  1 4 18 3.8394912318807837 0 1.0 3.8394912318807837 1
gene  1 5 18 -0.2672192196685479 0 1.0 -0.2672192196685479 1
gene  1 6 18 1.8190740320901935 0 1.0 1.8190740320901935 1
gene  1 7 18 0.3552970421985291 0 1.0 0.3552970421985291 1
gene  1 8 18 -0.7346903179752996 0 1.0 -0.7346903179752996 1
gene  1 9 18 2.3999751246947643 0 1.0 2.3999751246947643 1
gene  1 10 18 -3.174934206001813 0 1.0 -3.174934206001813 1
gene  1 11 18 -1.8488248818010748 0 1.0 -1.8488248818010748 1
gene  1 12 18 -2.1001529964262424 0 1.0 -2.1001529964262424 1
gene  1 13 18 -0.17994968543709045 0 1.0 -0.17994968543709045 1
gene  1 14 18 0.9165856638572734 0 1.0 0.9165856638572734 1
gene  1 1 19 -2.799465831408886 0 1.0 -2.799465831408886 1
gene  1 2 19 -2.24263806578667 0 1.0 -2.24263806578667 1
gene  1 3 19 -0.04409902586822634 0 1.0 -0.04409902586822634 1
gene  1 4 19 0.8070706529002072 0 1.0 0.8070706529002072 1
gene  1 5 19 -1.471347393713129 0 1.0 -1.471347393713129 1
gene  1 6 19 0.8900085162187197 0 1.0 0.8900085162187197 1
gene  1 7 19 -0.4023512450017954 0 1.0 -0.4023512450017954 1
gene  1 8 19 -1.361708965647831 0 1.0 -1.361708965647831 1
gene  1 9 19 -0.5587264405136672 0 1.0 -0.5587264405136672 1
gene  1 10 19 -0.3924237891424115 0 1.0 -0.3924237891424115 1
gene  1 11 19 3.2488862559232383 0 1.0 3.2488862559232383 1
gene  1 12 19 -1.2135869226893405 0 1.0 -1.2135869226893405 1
gene  1 13 19 0.3286844029785857 0 1.0 0.3286844029785857 1
gene  1 14 19 -0.6087312724108196 0 1.0 -0.6087312724108196 1
gene  1 1 20 -7.888911336144666E-4 0 1.0 -7.888911336144666E-4 1
gene  1 2 20 2.0228852189960134 0 1.0 2.0228852189960134 1
gene  1 3 20 1.9271524985790423 0 1.0 1.9271524985790423 1
gene  1 4 20 -0.5075334814410263 0 1.0 -0.5075334814410263 1
gene  1 5 20 2.559658800955688 0 1.0 2.559658800955688 1
gene  1 6 20 -0.9118102930941843 0 1.0 -0.9118102930941843 1
gene  1 7 20 -0.1388894683023202 0 1.0 -0.1388894683023202 1
gene  1 8 20 -2.361459436922325 0 1.0 -2.361459436922325 1
gene  1 9 20 -2.684724537664716 0 1.0 -2.684724537664716 1
gene  1 10 20 -3.1429968119051 0 1.0 -3.1429968119051 1
gene  1 11 20 -1.9489655912171673 0 1.0 -1.9489655912171673 1
gene  1 12 20 0.2204965027595034 0 1.0 0.2204965027595034 1
gene  1 13 20 0.8038959307931404 0 1.0 0.8038959307931404 1
gene  1 14 20 0.5723588167726239 0 1.0 0.5723588167726239 1
genomeend 1
/* Organism # 002 Fitness:  10,000 Error:  0,000                      */
genomestart  2
trait 1 0.1 0.0 0.0 0.0 0.0 0.0 0.0 0.0 
trait 2 0.2 0.0 0.0 0.0 0.0 0.0 0.0 0.0 
trait 3 0.28551138942246185 0.0 0.0 0.0 0.0 0.0 0.0 0.0 
node 1 1 1 3
node 2 1 1 1
node 3 1 1 1
node 4 1 1 1
node 5 1 1 1
node 6 1 1 1
node 7 1 1 1
node 8 1 1 1
node 9 1 1 1
node 10 1 1 1
node 11 1 1 1
node 12 1 1 1
node 13 1 1 1
node 14 1 1 1
node 15 1 0 2
node 16 1 0 2
node 17 1 0 2
node 18 1 0 2
node 19 1 0 2
node 20 1 0 2
gene  1 1 15 -1.4007539851541515 0 1.0 -1.4007539851541515 1
gene  1 2 15 2.2385400180936283 0 1.0 2.2385400180936283 1
gene  1 3 15 -2.1817428854160608 0 1.0 -2.1817428854160608 1
gene  1 4 15 -1.7283019105710118 0 1.0 -1.7283019105710118 1
gene  1 5 15 -1.6830498020490845 0 1.0 -1.6830498020490845 1
gene  1 6 15 -2.4855998265178965 0 1.0 -2.4855998265178965 1
gene  1 7 15 2.293670513470539 0 1.0 2.293670513470539 1
gene  1 8 15 -1.9697073856194534 0 1.0 -1.9697073856194534 1
gene  1 9 15 0.40406418148437395 0 1.0 0.40406418148437395 1
gene  1 10 15 0.7414163335051094 0 1.0 0.7414163335051094 1
gene  1 11 15 -4.696921161237384 0 1.0 -4.696921161237384 1
gene  1 12 15 -2.6671363735496776 0 1.0 -2.6671363735496776 1
gene  1 13 15 -2.493694935071083 0 1.0 -2.493694935071083 1
gene  1 14 15 1.7106509605302036 0 1.0 1.7106509605302036 1
gene  1 1 16 -0.15244535760917427 0 1.0 -0.15244535760917427 1
gene  1 2 16 -4.209439021854848 0 1.0 -4.209439021854848 1
gene  1 3 16 -2.9178751774566085 0 1.0 -2.9178751774566085 1
gene  1 4 16 -0.22842905466557206 0 1.0 -0.22842905466557206 1
gene  1 5 16 -0.8150445964482742 0 1.0 -0.8150445964482742 1
gene  1 6 16 -3.442975708907802 0 1.0 -3.442975708907802 1
gene  1 7 16 -0.8340427278738076 0 1.0 -0.8340427278738076 1
gene  1 8 16 1.2140579241823615 0 1.0 1.2140579241823615 1
gene  1 9 16 3.9533054771615284 0 1.0 3.9533054771615284 1
gene  1 10 16 -0.0452770211068767 0 1.0 -0.0452770211068767 1
gene  1 11 16 0.7441327942839888 0 1.0 0.7441327942839888 1
gene  1 12 16 -2.889239873578384 0 1.0 -2.889239873578384 1
gene  1 13 16 3.4408527128206936 0 1.0 3.4408527128206936 1
gene  1 14 16 1.6621841723930928 0 1.0 1.6621841723930928 1
gene  1 1 17 0.3718754441921668 0 1.0 0.3718754441921668 1
gene  1 2 17 -2.35361942082187 0 1.0 -2.35361942082187 1
gene  1 3 17 -0.5542833942916586 0 1.0 -0.5542833942916586 1
gene  1 4 17 -1.7463739550438744 0 1.0 -1.7463739550438744 1
gene  1 5 17 2.349582318037773 0 1.0 2.349582318037773 1
gene  1 6 17 -1.7446508508183118 0 1.0 -1.7446508508183118 1
gene  1 7 17 1.384181467485301 0 1.0 1.384181467485301 1
gene  1 8 17 -3.956318063405667 0 1.0 -3.956318063405667 1
gene  1 9 17 -1.0187971563094809 0 1.0 -1.0187971563094809 1
gene  1 10 17 -2.4347461441976472 0 1.0 -2.4347461441976472 1
gene  1 11 17 -0.5708177050869029 0 1.0 -0.5708177050869029 1
gene  1 12 17 2.7812755068700685 0 1.0 2.7812755068700685 1
gene  1 13 17 -0.2855415369786743 0 1.0 -0.2855415369786743 1
gene  1 14 17 -1.5272654936792371 0 1.0 -1.5272654936792371 1
gene  1 1 18 3.665066140556318 0 1.0 3.665066140556318 1
gene  1 2 18 -0.48029863621383484 0 1.0 -0.48029863621383484 1
gene  1 3 18 -2.430954838205749 0 1.0 -2.430954838205749 1
gene  1 4 18 2.0483674773264458 0 1.0 2.0483674773264458 1
gene  1 5 18 -0.20145392737715512 0 1.0 -0.20145392737715512 1
gene  1 6 18 0.29383431051805775 0 1.0 0.29383431051805775 1
gene  1 7 18 -0.7959258064462238 0 1.0 -0.7959258064462238 1
gene  1 8 18 -0.15266734364358348 0 1.0 -0.15266734364358348 1
gene  1 9 18 -0.7184796209512623 0 1.0 -0.7184796209512623 1
gene  1 10 18 0.32013350130601825 0 1.0 0.32013350130601825 1
gene  1 11 18 3.366131704765832 0 1.0 3.366131704765832 1
gene  1 12 18 -1.3147580682189486 0 1.0 -1.3147580682189486 1
gene  1 13 18 -2.150380460985825 0 1.0 -2.150380460985825 1
gene  1 14 18 1.0711655164222798 0 1.0 1.0711655164222798 1
gene  1 1 19 -1.5466903950571187 0 1.0 -1.5466903950571187 1
gene  1 2 19 3.2511515729176295 0 1.0 3.2511515729176295 1
gene  1 3 19 1.02449473401566 0 1.0 1.02449473401566 1
gene  1 4 19 -2.746838473217309 0 1.0 -2.746838473217309 1
gene  1 5 19 1.5859548729806565 0 1.0 1.5859548729806565 1
gene  1 6 19 3.2749786834374985 0 1.0 3.2749786834374985 1
gene  1 7 19 2.6080467777248253 0 1.0 2.6080467777248253 1
gene  1 8 19 0.0023815585301696363 0 1.0 0.0023815585301696363 1
gene  1 9 19 1.4137250780121289 0 1.0 1.4137250780121289 1
gene  1 10 19 -1.4120503753922797 0 1.0 -1.4120503753922797 1
gene  1 11 19 2.2201354653363077 0 1.0 2.2201354653363077 1
gene  1 12 19 -0.358883973875381 0 1.0 -0.358883973875381 1
gene  1 13 19 -2.4836135404094453 0 1.0 -2.4836135404094453 1
gene  1 14 19 1.5149059262761946 0 1.0 1.5149059262761946 1
gene  1 1 20 0.1046863414811805 0 1.0 0.1046863414811805 1
gene  1 2 20 -0.6608120330150489 0 1.0 -0.6608120330150489 1
gene  1 3 20 0.9366476886262536 0 1.0 0.9366476886262536 1
gene  1 4 20 -0.3672259832122967 0 1.0 -0.3672259832122967 1
gene  1 5 20 0.6773894929464546 0 1.0 0.6773894929464546 1
gene  1 6 20 2.786056706809679 0 1.0 2.786056706809679 1
gene  1 7 20 -2.16439178558755 0 1.0 -2.16439178558755 1
gene  1 8 20 1.0927343099489915 0 1.0 1.0927343099489915 1
gene  1 9 20 -1.5389961785091986 0 1.0 -1.5389961785091986 1
gene  1 10 20 1.5586954711894907 0 1.0 1.5586954711894907 1
gene  1 11 20 -1.0160973833816538 0 1.0 -1.0160973833816538 1
gene  1 12 20 -0.6434655695463776 0 1.0 -0.6434655695463776 1
gene  1 13 20 2.1327860105441947 0 1.0 2.1327860105441947 1
gene  1 14 20 2.6946070217899676 0 1.0 2.6946070217899676 1
genomeend 2
/* Organism # 003 Fitness:  10,000 Error:  0,000                      */
genomestart  3
trait 1 0.1 0.0 0.0 0.0 0.0 0.0 0.0 0.0 
trait 2 0.2 0.0 0.0 0.0 0.0 0.0 0.0 0.0 
trait 3 0.25653416826738556 0.0 0.0 0.0 0.0 0.0 0.0 0.0 
node 1 1 1 3
node 2 1 1 1
node 3 1 1 1
node 4 1 1 1
node 5 1 1 1
node 6 1 1 1
node 7 1 1 1
node 8 1 1 1
node 9 1 1 1
node 10 1 1 1
node 11 1 1 1
node 12 1 1 1
node 13 1 1 1
node 14 1 1 1
node 15 1 0 2
node 16 1 0 2
node 17 1 0 2
node 18 1 0 2
node 19 1 0 2
node 20 1 0 2
gene  1 1 15 -2.1403190043524876 0 1.0 -2.1403190043524876 1
gene  1 2 15 0.8436865503522912 0 1.0 0.8436865503522912 1
gene  1 3 15 2.9314576315443883 0 1.0 2.9314576315443883 1
gene  1 4 15 0.8647877344284363 0 1.0 0.8647877344284363 1
gene  1 5 15 -2.995801880973975 0 1.0 -2.995801880973975 1
gene  1 6 15 -1.3285611587109372 0 1.0 -1.3285611587109372 1
gene  1 7 15 -0.9623033391555325 0 1.0 -0.9623033391555325 1
gene  1 8 15 1.595744291881754 0 1.0 1.595744291881754 1
gene  1 9 15 -3.616295813873175 0 1.0 -3.616295813873175 1
gene  1 10 15 -1.9976425688779993 0 1.0 -1.9976425688779993 1
gene  1 11 15 -1.4494781116615885 0 1.0 -1.4494781116615885 1
gene  1 12 15 -1.1585275065282223 0 1.0 -1.1585275065282223 1
gene  1 13 15 -1.1520618608654336 0 1.0 -1.1520618608654336 1
gene  1 14 15 -2.295730030246969 0 1.0 -2.295730030246969 1
gene  1 1 16 2.823020398727405 0 1.0 2.823020398727405 1
gene  1 2 16 3.3794803355432297 0 1.0 3.3794803355432297 1
gene  1 3 16 -0.06087028014607654 0 1.0 -0.06087028014607654 1
gene  1 4 16 -0.58232247125409 0 1.0 -0.58232247125409 1
gene  1 5 16 -2.6525125382053867 0 1.0 -2.6525125382053867 1
gene  1 6 16 1.3823213895191653 0 1.0 1.3823213895191653 1
gene  1 7 16 -2.6238342920549123 0 1.0 -2.6238342920549123 1
gene  1 8 16 2.5899872338133174 0 1.0 2.5899872338133174 1
gene  1 9 16 -0.024559901766278425 0 1.0 -0.024559901766278425 1
gene  1 10 16 1.9651659931724708 0 1.0 1.9651659931724708 1
gene  1 11 16 1.1782969170971662 0 1.0 1.1782969170971662 1
gene  1 12 16 1.0592939749651018 0 1.0 1.0592939749651018 1
gene  1 13 16 1.1115267858917202 0 1.0 1.1115267858917202 1
gene  1 14 16 3.396946717960524 0 1.0 3.396946717960524 1
gene  1 1 17 -1.1517970741687074 0 1.0 -1.1517970741687074 1
gene  1 2 17 0.998242088753903 0 1.0 0.998242088753903 1
gene  1 3 17 3.682684303598441 0 1.0 3.682684303598441 1
gene  1 4 17 -1.4406502269030703 0 1.0 -1.4406502269030703 1
gene  1 5 17 2.933151829582945 0 1.0 2.933151829582945 1
gene  1 6 17 -1.9980330949986942 0 1.0 -1.9980330949986942 1
gene  1 7 17 -1.7765701121327164 0 1.0 -1.7765701121327164 1
gene  1 8 17 -2.695340096607231 0 1.0 -2.695340096607231 1
gene  1 9 17 -4.881680974748801 0 1.0 -4.881680974748801 1
gene  1 10 17 0.7088163973396738 0 1.0 0.7088163973396738 1
gene  1 11 17 -1.8335975168139675 0 1.0 -1.8335975168139675 1
gene  1 12 17 0.07570843425596507 0 1.0 0.07570843425596507 1
gene  1 13 17 1.5765381475967475 0 1.0 1.5765381475967475 1
gene  1 14 17 -1.0459281537688652 0 1.0 -1.0459281537688652 1
gene  1 1 18 5.154764118490789 0 1.0 5.154764118490789 1
gene  1 2 18 -2.146079741964241 0 1.0 -2.146079741964241 1
gene  1 3 18 -3.0948249969387707 0 1.0 -3.0948249969387707 1
gene  1 4 18 3.326793636526319 0 1.0 3.326793636526319 1
gene  1 5 18 -2.7764557285593714 0 1.0 -2.7764557285593714 1
gene  1 6 18 -0.44116713094516413 0 1.0 -0.44116713094516413 1
gene  1 7 18 3.2140859461966795 0 1.0 3.2140859461966795 1
gene  1 8 18 1.765081849649546 0 1.0 1.765081849649546 1
gene  1 9 18 -0.4059278189571547 0 1.0 -0.4059278189571547 1
gene  1 10 18 1.0201962566000229 0 1.0 1.0201962566000229 1
gene  1 11 18 0.10346817015872212 0 1.0 0.10346817015872212 1
gene  1 12 18 -1.7620171132369782 0 1.0 -1.7620171132369782 1
gene  1 13 18 1.4764301884730608 0 1.0 1.4764301884730608 1
gene  1 14 18 -0.8986257745109301 0 1.0 -0.8986257745109301 1
gene  1 1 19 -2.6637528095390177 0 1.0 -2.6637528095390177 1
gene  1 2 19 5.0621604205779 0 1.0 5.0621604205779 1
gene  1 3 19 -3.685171060516963 0 1.0 -3.685171060516963 1
gene  1 4 19 -1.0512086411711632 0 1.0 -1.0512086411711632 1
gene  1 5 19 0.8796795359778874 0 1.0 0.8796795359778874 1
gene  1 6 19 0.5999760872608018 0 1.0 0.5999760872608018 1
gene  1 7 19 -3.256128498451562 0 1.0 -3.256128498451562 1
gene  1 8 19 4.53307786911669 0 1.0 4.53307786911669 1
gene  1 9 19 -3.527491813848356 0 1.0 -3.527491813848356 1
gene  1 10 19 1.7741654091541423 0 1.0 1.7741654091541423 1
gene  1 11 19 -0.012787450217235152 0 1.0 -0.012787450217235152 1
gene  1 12 19 -2.6017484667193678 0 1.0 -2.6017484667193678 1
gene  1 13 19 2.4176430268192535 0 1.0 2.4176430268192535 1
gene  1 14 19 -1.6226330512995775 0 1.0 -1.6226330512995775 1
gene  1 1 20 2.2289257254467008 0 1.0 2.2289257254467008 1
gene  1 2 20 0.4072756404810808 0 1.0 0.4072756404810808 1
gene  1 3 20 -2.355685609806525 0 1.0 -2.355685609806525 1
gene  1 4 20 0.41308267348678185 0 1.0 0.41308267348678185 1
gene  1 5 20 1.0919639623408137 0 1.0 1.0919639623408137 1
gene  1 6 20 -2.7883809693145487 0 1.0 -2.7883809693145487 1
gene  1 7 20 -0.1648609259375971 0 1.0 -0.1648609259375971 1
gene  1 8 20 -1.0385791815215013 0 1.0 -1.0385791815215013 1
gene  1 9 20 -0.5805310587925809 0 1.0 -0.5805310587925809 1
gene  1 10 20 -2.283504355149254 0 1.0 -2.283504355149254 1
gene  1 11 20 -1.778874386018641 0 1.0 -1.778874386018641 1
gene  1 12 20 1.8440707105969742 0 1.0 1.8440707105969742 1
gene  1 13 20 -0.7628072290552659 0 1.0 -0.7628072290552659 1
gene  1 14 20 -1.9128716637535306 0 1.0 -1.9128716637535306 1
genomeend 3
/* Organism # 004 Fitness:  10,000 Error:  0,000                      */
genomestart  4
trait 1 0.1 0.0 0.0 0.0 0.0 0.0 0.0 0.0 
trait 2 0.2 0.0 0.0 0.0 0.0 0.0 0.0 0.0 
trait 3 0.2710227788449237 0.0 0.0 0.0 0.0 0.0 0.0 0.0 
node 1 1 1 3
node 2 1 1 1
node 3 1 1 1
node 4 1 1 1
node 5 1 1 1
node 6 1 1 1
node 7 1 1 1
node 8 1 1 1
node 9 1 1 1
node 10 1 1 1
node 11 1 1 1
node 12 1 1 1
node 13 1 1 1
node 14 1 1 1
node 15 1 0 2
node 16 1 0 2
node 17 1 0 2
node 18 1 0 2
node 19 1 0 2
node 20 1 0 2
node 28 1 0 0
gene  1 1 15 -2.1403190043524876 0 1.0 -2.1403190043524876 1
gene  1 2 15 0.8436865503522912 0 1.0 0.8436865503522912 1
gene  1 3 15 2.9314576315443883 0 1.0 2.9314576315443883 1
gene  1 4 15 0.8647877344284363 0 1.0 0.8647877344284363 1
gene  1 5 15 -2.995801880973975 0 1.0 -2.995801880973975 1
gene  1 6 15 -1.3285611587109372 0 1.0 -1.3285611587109372 1
gene  1 7 15 -0.9623033391555325 0 1.0 -0.9623033391555325 1
gene  1 8 15 1.595744291881754 0 1.0 1.595744291881754 1
gene  1 9 15 -3.616295813873175 0 1.0 -3.616295813873175 1
gene  1 10 15 -1.9976425688779993 0 1.0 -1.9976425688779993 1
gene  1 11 15 -1.4494781116615885 0 1.0 -1.4494781116615885 1
gene  1 12 15 -1.1585275065282223 0 1.0 -1.1585275065282223 0
gene  1 13 15 -1.1520618608654336 0 1.0 -1.1520618608654336 1
gene  1 14 15 -2.295730030246969 0 1.0 -2.295730030246969 1
gene  1 1 16 2.823020398727405 0 1.0 2.823020398727405 1
gene  1 2 16 3.3794803355432297 0 1.0 3.3794803355432297 1
gene  1 3 16 -0.06087028014607654 0 1.0 -0.06087028014607654 1
gene  1 4 16 -0.58232247125409 0 1.0 -0.58232247125409 1
gene  1 5 16 -2.6525125382053867 0 1.0 -2.6525125382053867 1
gene  1 6 16 1.3823213895191653 0 1.0 1.3823213895191653 1
gene  1 7 16 -2.6238342920549123 0 1.0 -2.6238342920549123 1
gene  1 8 16 2.5899872338133174 0 1.0 2.5899872338133174 1
gene  1 9 16 -0.024559901766278425 0 1.0 -0.024559901766278425 1
gene  1 10 16 1.9651659931724708 0 1.0 1.9651659931724708 1
gene  1 11 16 1.1782969170971662 0 1.0 1.1782969170971662 1
gene  1 12 16 1.0592939749651018 0 1.0 1.0592939749651018 1
gene  1 13 16 1.1115267858917202 0 1.0 1.1115267858917202 1
gene  1 14 16 3.396946717960524 0 1.0 3.396946717960524 1
gene  1 1 17 -1.1517970741687074 0 1.0 -1.1517970741687074 1
gene  1 2 17 0.998242088753903 0 1.0 0.998242088753903 1
gene  1 3 17 3.682684303598441 0 1.0 3.682684303598441 1
gene  1 4 17 -1.4406502269030703 0 1.0 -1.4406502269030703 1
gene  1 5 17 2.933151829582945 0 1.0 2.933151829582945 1
gene  1 6 17 -1.9980330949986942 0 1.0 -1.9980330949986942 1
gene  1 7 17 -1.7765701121327164 0 1.0 -1.7765701121327164 1
gene  1 8 17 -2.695340096607231 0 1.0 -2.695340096607231 1
gene  1 9 17 -4.881680974748801 0 1.0 -4.881680974748801 1
gene  1 10 17 0.7088163973396738 0 1.0 0.7088163973396738 1
gene  1 11 17 -1.8335975168139675 0 1.0 -1.8335975168139675 1
gene  1 12 17 0.07570843425596507 0 1.0 0.07570843425596507 1
gene  1 13 17 1.5765381475967475 0 1.0 1.5765381475967475 1
gene  1 14 17 -1.0459281537688652 0 1.0 -1.0459281537688652 1
gene  1 1 18 5.154764118490789 0 1.0 5.154764118490789 1
gene  1 2 18 -2.146079741964241 0 1.0 -2.146079741964241 1
gene  1 3 18 -3.0948249969387707 0 1.0 -3.0948249969387707 1
gene  1 4 18 3.326793636526319 0 1.0 3.326793636526319 1
gene  1 5 18 -2.7764557285593714 0 1.0 -2.7764557285593714 1
gene  1 6 18 -0.44116713094516413 0 1.0 -0.44116713094516413 1
gene  1 7 18 3.2140859461966795 0 1.0 3.2140859461966795 1
gene  1 8 18 1.765081849649546 0 1.0 1.765081849649546 1
gene  1 9 18 -0.4059278189571547 0 1.0 -0.4059278189571547 1
gene  1 10 18 1.0201962566000229 0 1.0 1.0201962566000229 1
gene  1 11 18 0.10346817015872212 0 1.0 0.10346817015872212 1
gene  1 12 18 -1.7620171132369782 0 1.0 -1.7620171132369782 1
gene  1 13 18 1.4764301884730608 0 1.0 1.4764301884730608 1
gene  1 14 18 -0.8986257745109301 0 1.0 -0.8986257745109301 1
gene  1 1 19 -2.6637528095390177 0 1.0 -2.6637528095390177 1
gene  1 2 19 5.0621604205779 0 1.0 5.0621604205779 1
gene  1 3 19 -3.685171060516963 0 1.0 -3.685171060516963 1
gene  1 4 19 -1.0512086411711632 0 1.0 -1.0512086411711632 1
gene  1 5 19 0.8796795359778874 0 1.0 0.8796795359778874 1
gene  1 6 19 0.08666828798568438 0 1.0 0.08666828798568438 1
gene  1 7 19 -2.4829539548006303 0 1.0 -2.4829539548006303 1
gene  1 8 19 -6.880142855153459 0 1.0 -6.880142855153459 1
gene  1 9 19 4.92381582647235 0 1.0 4.92381582647235 1
gene  1 10 19 -1.1939427966450946 0 1.0 -1.1939427966450946 1
gene  1 11 19 1.3837161425534146 0 1.0 1.3837161425534146 1
gene  1 12 19 0.9886457442247325 0 1.0 0.9886457442247325 1
gene  1 13 19 0.09858956339857672 0 1.0 0.09858956339857672 1
gene  1 14 19 -0.4923227681430875 0 1.0 -0.4923227681430875 1
gene  1 1 20 -2.2305035077139297 0 1.0 -2.2305035077139297 1
gene  1 2 20 2.206783281654366 0 1.0 2.206783281654366 1
gene  1 3 20 1.1015645535644571 0 1.0 1.1015645535644571 1
gene  1 4 20 0.7063444207557451 0 1.0 0.7063444207557451 1
gene  1 5 20 -2.0140536189177727 0 1.0 -2.0140536189177727 1
gene  1 6 20 0.9647603831261803 0 1.0 0.9647603831261803 1
gene  1 7 20 1.932859413666555 0 1.0 1.932859413666555 1
gene  1 8 20 -1.088386882430514 0 1.0 -1.088386882430514 1
gene  1 9 20 -2.344010101916453 0 1.0 -2.344010101916453 1
gene  1 10 20 0.7620023708462731 0 1.0 0.7620023708462731 1
gene  1 11 20 -2.0608243986000323 0 1.0 -2.0608243986000323 1
gene  1 12 20 -2.849621836244596 0 1.0 -2.849621836244596 1
gene  1 13 20 1.1362143353018723 0 1.0 1.1362143353018723 1
gene  1 14 20 0.31690955789145464 0 1.0 0.31690955789145464 1
gene  1 12 28 1.0 0 32.0 0.0 1
gene  1 28 15 -1.1585275065282223 0 33.0 0.0 1
genomeend 4
/* Organism # 005 Fitness:  10,000 Error:  0,000                      */
genomestart  5
trait 1 0.1 0.0 0.0 0.0 0.0 0.0 0.0 0.0 
trait 2 0.2 0.0 0.0 0.0 0.0 0.0 0.0 0.0 
trait 3 0.3705928163452666 0.0 0.0 0.0 0.0 0.0 0.0 0.04526434675837661 
node 1 1 1 3
node 2 1 1 1
node 3 1 1 1
node 4 1 1 1
node 5 1 1 1
node 6 1 1 1
node 7 1 1 1
node 8 1 1 1
node 9 1 1 1
node 10 1 1 1
node 11 1 1 1
node 12 1 1 1
node 13 1 1 1
node 14 1 1 1
node 15 1 0 2
node 16 1 0 2
node 17 1 0 2
node 18 1 0 2
node 19 1 0 2
node 20 1 0 2
node 29 1 0 0
gene  1 1 15 -2.2995051764979766 0 1.0 -2.2995051764979766 1
gene  1 2 15 4.035267832243602 0 1.0 4.035267832243602 1
gene  1 3 15 0.31412534564399996 0 1.0 0.31412534564399996 1
gene  1 4 15 -0.6075145162034902 0 1.0 -0.6075145162034902 1
gene  1 5 15 -3.71507506187768 0 1.0 -3.71507506187768 1
gene  1 6 15 -5.637331403543783 0 1.0 -5.637331403543783 1
gene  1 7 15 2.133825589980935 0 1.0 2.133825589980935 1
gene  1 8 15 0.27758196481591013 0 1.0 0.27758196481591013 1
gene  1 9 15 -0.38216755896859445 0 1.0 -0.38216755896859445 1
gene  1 10 15 -2.9545994696847195 0 1.0 -2.9545994696847195 1
gene  1 11 15 -6.552914814302481 0 1.0 -6.552914814302481 1
gene  1 12 15 -2.377081518457872 0 1.0 -2.377081518457872 1
gene  1 13 15 0.16096680256294715 0 1.0 0.16096680256294715 1
gene  1 14 15 -1.7853063242928273 0 1.0 -1.7853063242928273 0
gene  1 1 16 0.14453049741234697 0 1.0 0.14453049741234697 1
gene  1 2 16 -2.931548223022917 0 1.0 -2.931548223022917 1
gene  1 3 16 -0.8436132503597188 0 1.0 -0.8436132503597188 1
gene  1 4 16 -1.7553289018428593 0 1.0 -1.7553289018428593 1
gene  1 5 16 -0.5459979998769561 0 1.0 -0.5459979998769561 1
gene  1 6 16 4.09196209567178 0 1.0 4.09196209567178 1
gene  1 7 16 1.153895210306537 0 1.0 1.153895210306537 1
gene  1 8 16 0.678594024998333 0 1.0 0.678594024998333 1
gene  1 9 16 1.672940778323955 0 1.0 1.672940778323955 1
gene  1 10 16 -0.5616621137690544 0 1.0 -0.5616621137690544 1
gene  1 11 16 6.515370348126131 0 1.0 6.515370348126131 1
gene  1 12 16 -1.6321266447261324 0 1.0 -1.6321266447261324 1
gene  1 13 16 5.273872219255708 0 1.0 5.273872219255708 1
gene  1 14 16 1.6909435934084975 0 1.0 1.6909435934084975 1
gene  1 1 17 -1.6063006121466818 0 1.0 -1.6063006121466818 1
gene  1 2 17 -2.6070134479188223 0 1.0 -2.6070134479188223 1
gene  1 3 17 0.9368045321132142 0 1.0 0.9368045321132142 1
gene  1 4 17 -3.619662116369317 0 1.0 -3.619662116369317 1
gene  1 5 17 4.338880585565649 0 1.0 4.338880585565649 1
gene  1 6 17 -1.552922130818704 0 1.0 -1.552922130818704 1
gene  1 7 17 1.1355384249688358 0 1.0 1.1355384249688358 1
gene  1 8 17 -3.6025983226436633 0 1.0 -3.6025983226436633 1
gene  1 9 17 1.2132297740485574 0 1.0 1.2132297740485574 1
gene  1 10 17 -3.1492375529239323 0 1.0 -3.1492375529239323 1
gene  1 11 17 -1.1980427241716982 0 1.0 -1.1980427241716982 1
gene  1 12 17 0.5468792584645592 0 1.0 0.5468792584645592 1
gene  1 13 17 0.27817373313564175 0 1.0 0.27817373313564175 1
gene  1 14 17 0.2201904101041603 0 1.0 0.2201904101041603 1
gene  1 1 18 1.8544181441502312 0 1.0 1.8544181441502312 1
gene  1 2 18 1.6673374454745167 0 1.0 1.6673374454745167 1
gene  1 3 18 -1.3260547203744122 0 1.0 -1.3260547203744122 1
gene  1 4 18 3.1523625238406394 0 1.0 3.1523625238406394 1
gene  1 5 18 -2.182153177085785 0 1.0 -2.182153177085785 1
gene  1 6 18 0.8770039713521813 0 1.0 0.8770039713521813 1
gene  1 7 18 1.8780033656491266 0 1.0 1.8780033656491266 1
gene  1 8 18 1.9005844603381221 0 1.0 1.9005844603381221 1
gene  1 9 18 -0.74523411576305 0 1.0 -0.74523411576305 1
gene  1 10 18 -1.1128630714984968 0 1.0 -1.1128630714984968 1
gene  1 11 18 2.368141408807576 0 1.0 2.368141408807576 1
gene  1 12 18 -1.5285497997601012 0 1.0 -1.5285497997601012 1
gene  1 13 18 -2.8379966242041803 0 1.0 -2.8379966242041803 1
gene  1 14 18 -1.0075211248765683 0 1.0 -1.0075211248765683 1
gene  1 1 19 0.8349384864013127 0 1.0 0.8349384864013127 1
gene  1 2 19 3.6784657486360515 0 1.0 3.6784657486360515 1
gene  1 3 19 -1.5884109082450468 0 1.0 -1.5884109082450468 1
gene  1 4 19 -0.9659944896247713 0 1.0 -0.9659944896247713 1
gene  1 5 19 -0.5741034987759701 0 1.0 -0.5741034987759701 1
gene  1 6 19 2.1398556436712224 0 1.0 2.1398556436712224 1
gene  1 7 19 3.8849279639453194 0 1.0 3.8849279639453194 1
gene  1 8 19 0.0023815585301696363 0 1.0 0.0023815585301696363 1
gene  1 9 19 1.5834240466080385 0 1.0 1.5834240466080385 1
gene  1 10 19 -2.3902543585565477 0 1.0 -2.3902543585565477 1
gene  1 11 19 -0.1532275990230456 0 1.0 -0.1532275990230456 1
gene  1 12 19 2.2200570801475195 0 1.0 2.2200570801475195 1
gene  1 13 19 -2.3784269190230685 0 1.0 -2.3784269190230685 1
gene  1 14 19 1.469663178775029 0 1.0 1.469663178775029 1
gene  1 1 20 -1.329790241380411 0 1.0 -1.329790241380411 1
gene  1 2 20 0.24592182712958266 0 1.0 0.24592182712958266 1
gene  1 3 20 1.1015645535644571 0 1.0 1.1015645535644571 1
gene  1 4 20 -0.3672259832122967 0 1.0 -0.3672259832122967 1
gene  1 5 20 -0.8775251460517852 0 1.0 -0.8775251460517852 1
gene  1 6 20 0.9647603831261803 0 1.0 0.9647603831261803 1
gene  1 7 20 -0.11291801066704332 0 1.0 -0.11291801066704332 1
gene  1 8 20 -2.146351672502875 0 1.0 -2.146351672502875 1
gene  1 9 20 -1.1966949160133933 0 1.0 -1.1966949160133933 1
gene  1 10 20 0.7620023708462731 0 1.0 0.7620023708462731 1
gene  1 11 20 -0.8738718401049522 0 1.0 -0.8738718401049522 1
gene  1 12 20 -0.6578183191948194 0 1.0 -0.6578183191948194 1
gene  1 13 20 1.1362143353018723 0 1.0 1.1362143353018723 1
gene  1 14 20 -0.18907791685480207 0 1.0 -0.18907791685480207 1
gene  1 14 29 1.0 0 34.0 0.0 1
gene  1 29 15 -1.7853063242928273 0 35.0 0.0 1
genomeend 5
/* Organism # 006 Fitness:  10,000 Error:  0,000                      */
genomestart  6
trait 1 0.1 0.0 0.0 0.0 0.0 0.0 0.0 0.0 
trait 2 0.2 0.0 0.0 0.0 0.0 0.0 0.0 0.0 
trait 3 0.2420455576898474 0.0 0.0 0.0 0.0 0.0 0.0 0.0 
node 1 1 1 3
node 2 1 1 1
node 3 1 1 1
node 4 1 1 1
node 5 1 1 1
node 6 1 1 1
node 7 1 1 1
node 8 1 1 1
node 9 1 1 1
node 10 1 1 1
node 11 1 1 1
node 12 1 1 1
node 13 1 1 1
node 14 1 1 1
node 15 1 0 2
node 16 1 0 2
node 17 1 0 2
node 18 1 0 2
node 19 1 0 2
node 20 1 0 2
gene  1 1 15 -1.6468900693083666 0 1.0 -1.6468900693083666 1
gene  1 2 15 -0.16296532597557545 0 1.0 -0.16296532597557545 1
gene  1 3 15 2.6359663591908173 0 1.0 2.6359663591908173 1
gene  1 4 15 2.9384400869174123 0 1.0 2.9384400869174123 1
gene  1 5 15 -0.11879049060187197 0 1.0 -0.11879049060187197 1
gene  1 6 15 -4.51091734768812 0 1.0 -4.51091734768812 1
gene  1 7 15 1.4490166463808511 0 1.0 1.4490166463808511 1
gene  1 8 15 0.05404461437772268 0 1.0 0.05404461437772268 1
gene  1 9 15 4.226188854860579 0 1.0 4.226188854860579 1
gene  1 10 15 -4.2003851861985595 0 1.0 -4.2003851861985595 1
gene  1 11 15 -0.2644920937988231 0 1.0 -0.2644920937988231 1
gene  1 12 15 -3.8224367795990166 0 1.0 -3.8224367795990166 1
gene  1 13 15 -0.33159115978953224 0 1.0 -0.33159115978953224 1
gene  1 14 15 -2.398211879309934 0 1.0 -2.398211879309934 1
gene  1 1 16 5.882612842737179 0 1.0 5.882612842737179 1
gene  1 2 16 -2.351629144352776 0 1.0 -2.351629144352776 1
gene  1 3 16 -1.0322981730063083 0 1.0 -1.0322981730063083 1
gene  1 4 16 3.8493500334640856 0 1.0 3.8493500334640856 1
gene  1 5 16 -1.2400483792050006 0 1.0 -1.2400483792050006 1
gene  1 6 16 -3.5820983535291395 0 1.0 -3.5820983535291395 1
gene  1 7 16 2.6965170065881248 0 1.0 2.6965170065881248 1
gene  1 8 16 2.7258295774023376 0 1.0 2.7258295774023376 1
gene  1 9 16 1.9743421928871747 0 1.0 1.9743421928871747 1
gene  1 10 16 -1.2643000393104042 0 1.0 -1.2643000393104042 1
gene  1 11 16 -1.155415974446077 0 1.0 -1.155415974446077 1
gene  1 12 16 0.4992549814511682 0 1.0 0.4992549814511682 1
gene  1 13 16 -2.57378709626649 0 1.0 -2.57378709626649 1
gene  1 14 16 1.2584145101246742 0 1.0 1.2584145101246742 1
gene  1 1 17 -0.22726912536882715 0 1.0 -0.22726912536882715 1
gene  1 2 17 2.710022326798122 0 1.0 2.710022326798122 1
gene  1 3 17 2.87934066528938 0 1.0 2.87934066528938 1
gene  1 4 17 -2.758594527115728 0 1.0 -2.758594527115728 1
gene  1 5 17 0.9493769238823297 0 1.0 0.9493769238823297 1
gene  1 6 17 -2.2405891784108265 0 1.0 -2.2405891784108265 1
gene  1 7 17 -0.6753540688252071 0 1.0 -0.6753540688252071 1
gene  1 8 17 -0.5455515851992754 0 1.0 -0.5455515851992754 1
gene  1 9 17 -3.0984447486563296 0 1.0 -3.0984447486563296 1
gene  1 10 17 -1.4208693547657043 0 1.0 -1.4208693547657043 1
gene  1 11 17 -2.917658263938673 0 1.0 -2.917658263938673 1
gene  1 12 17 -1.9313059820500735 0 1.0 -1.9313059820500735 1
gene  1 13 17 -1.8562032106478685 0 1.0 -1.8562032106478685 1
gene  1 14 17 -0.19769509751273162 0 1.0 -0.19769509751273162 1
gene  1 1 18 -0.635224058507021 0 1.0 -0.635224058507021 1
gene  1 2 18 -2.9637345406012896 0 1.0 -2.9637345406012896 1
gene  1 3 18 2.212004047500586 0 1.0 2.212004047500586 1
gene  1 4 18 3.692564875355358 0 1.0 3.692564875355358 1
gene  1 5 18 -2.2634442781287927 0 1.0 -2.2634442781287927 1
gene  1 6 18 1.7054581296600178 0 1.0 1.7054581296600178 1
gene  1 7 18 3.5747145131056595 0 1.0 3.5747145131056595 1
gene  1 8 18 1.3428898078993121 0 1.0 1.3428898078993121 1
gene  1 9 18 4.157549289350209 0 1.0 4.157549289350209 1
gene  1 10 18 -0.020634493189290115 0 1.0 -0.020634493189290115 1
gene  1 11 18 2.2613014684811197 0 1.0 2.2613014684811197 1
gene  1 12 18 -0.821157606914291 0 1.0 -0.821157606914291 1
gene  1 13 18 -3.2684375428652457 0 1.0 -3.2684375428652457 1
gene  1 14 18 3.0913812043429543 0 1.0 3.0913812043429543 1
gene  1 1 19 -4.311590171491155 0 1.0 -4.311590171491155 1
gene  1 2 19 -1.6676258448789092 0 1.0 -1.6676258448789092 1
gene  1 3 19 0.799903846006845 0 1.0 0.799903846006845 1
gene  1 4 19 1.1722034711105218 0 1.0 1.1722034711105218 1
gene  1 5 19 -1.71101357499454 0 1.0 -1.71101357499454 1
gene  1 6 19 -0.7424397519246447 0 1.0 -0.7424397519246447 1
gene  1 7 19 -0.2533746250939065 0 1.0 -0.2533746250939065 1
gene  1 8 19 4.285212734511781 0 1.0 4.285212734511781 1
gene  1 9 19 -1.3194300305307418 0 1.0 -1.3194300305307418 1
gene  1 10 19 -0.4663766344788071 0 1.0 -0.4663766344788071 1
gene  1 11 19 -0.2670544969657749 0 1.0 -0.2670544969657749 1
gene  1 12 19 -0.672458162683383 0 1.0 -0.672458162683383 1
gene  1 13 19 1.1003806272087966 0 1.0 1.1003806272087966 1
gene  1 14 19 0.33964109288571687 0 1.0 0.33964109288571687 1
gene  1 1 20 -0.22284302097608633 0 1.0 -0.22284302097608633 1
gene  1 2 20 0.4072756404810808 0 1.0 0.4072756404810808 1
gene  1 3 20 0.08119081745723628 0 1.0 0.08119081745723628 1
gene  1 4 20 -3.203869239556151 0 1.0 -3.203869239556151 1
gene  1 5 20 1.0919639623408137 0 1.0 1.0919639623408137 1
gene  1 6 20 -3.464202324590393 0 1.0 -3.464202324590393 1
gene  1 7 20 -0.1648609259375971 0 1.0 -0.1648609259375971 1
gene  1 8 20 -1.8457374336443932 0 1.0 -1.8457374336443932 1
gene  1 9 20 -0.8478442631191723 0 1.0 -0.8478442631191723 1
gene  1 10 20 0.052252306070398546 0 1.0 0.052252306070398546 1
gene  1 11 20 -0.1473361126533005 0 1.0 -0.1473361126533005 1
gene  1 12 20 1.5780588745896893 0 1.0 1.5780588745896893 1
gene  1 13 20 2.210283804318765 0 1.0 2.210283804318765 1
gene  1 14 20 -2.4186661141349113 0 1.0 -2.4186661141349113 1
gene  1 20 17 3.6614559232781527 0 26.0 3.6614559232781527 1
genomeend 6
/* Organism # 007 Fitness:  9,000 Error:  0,000                      */
genomestart  7
trait 1 0.1 0.0 0.0 0.0 0.0 0.0 0.0 0.0 
trait 2 0.2 0.0 0.0 0.0 0.0 0.0 0.0 0.0 
trait 3 0.2710227788449237 0.0 0.0 0.0 0.0 0.0 0.0 0.0 
node 1 1 1 3
node 2 1 1 1
node 3 1 1 1
node 4 1 1 1
node 5 1 1 1
node 6 1 1 1
node 7 1 1 1
node 8 1 1 1
node 9 1 1 1
node 10 1 1 1
node 11 1 1 1
node 12 1 1 1
node 13 1 1 1
node 14 1 1 1
node 15 1 0 2
node 16 1 0 2
node 17 1 0 2
node 18 1 0 2
node 19 1 0 2
node 20 1 0 2
gene  1 1 15 -1.1143788522419995 0 1.0 -1.1143788522419995 1
gene  1 2 15 -0.3188037397442036 0 1.0 -0.3188037397442036 1
gene  1 3 15 -3.483375523679024 0 1.0 -3.483375523679024 1
gene  1 4 15 -0.47372520878878 0 1.0 -0.47372520878878 1
gene  1 5 15 2.3044468804105587 0 1.0 2.3044468804105587 1
gene  1 6 15 -1.2342575131031386 0 1.0 -1.2342575131031386 1
gene  1 7 15 3.446829449902684 0 1.0 3.446829449902684 1
gene  1 8 15 1.6599494334063123 0 1.0 1.6599494334063123 1
gene  1 9 15 1.4611016980775782 0 1.0 1.4611016980775782 1
gene  1 10 15 0.6355981929526391 0 1.0 0.6355981929526391 1
gene  1 11 15 -4.73853099043462 0 1.0 -4.73853099043462 1
gene  1 12 15 -2.016271229027234 0 1.0 -2.016271229027234 1
gene  1 13 15 -2.4209835293530593 0 1.0 -2.4209835293530593 1
gene  1 14 15 1.3368848407222882 0 1.0 1.3368848407222882 1
gene  1 1 16 5.1260651708188245 0 1.0 5.1260651708188245 1
gene  1 2 16 -3.35681084778495 0 1.0 -3.35681084778495 1
gene  1 3 16 -0.8457106282020046 0 1.0 -0.8457106282020046 1
gene  1 4 16 -0.7365773081472543 0 1.0 -0.7365773081472543 1
gene  1 5 16 -4.602676602568955 0 1.0 -4.602676602568955 1
gene  1 6 16 -0.8744883781084227 0 1.0 -0.8744883781084227 1
gene  1 7 16 0.8707591469163702 0 1.0 0.8707591469163702 1
gene  1 8 16 -0.18914986656688543 0 1.0 -0.18914986656688543 1
gene  1 9 16 0.24271808897558844 0 1.0 0.24271808897558844 1
gene  1 10 16 -2.03349110157324 0 1.0 -2.03349110157324 1
gene  1 11 16 2.2330288618643617 0 1.0 2.2330288618643617 1
gene  1 12 16 -0.6991344258526975 0 1.0 -0.6991344258526975 1
gene  1 13 16 0.4169280303529648 0 1.0 0.4169280303529648 1
gene  1 14 16 -2.2500367103014387 0 1.0 -2.2500367103014387 1
gene  1 1 17 -0.9082204527595954 0 1.0 -0.9082204527595954 1
gene  1 2 17 2.0962533477879686 0 1.0 2.0962533477879686 1
gene  1 3 17 5.157443446786237 0 1.0 5.157443446786237 1
gene  1 4 17 1.8396961629095707 0 1.0 1.8396961629095707 1
gene  1 5 17 2.5313104826466293 0 1.0 2.5313104826466293 1
gene  1 6 17 -2.749495432090783 0 1.0 -2.749495432090783 1
gene  1 7 17 3.481178691848715 0 1.0 3.481178691848715 1
gene  1 8 17 -4.309255589996594 0 1.0 -4.309255589996594 1
gene  1 9 17 -2.201498612861839 0 1.0 -2.201498612861839 1
gene  1 10 17 -1.2746762698745318 0 1.0 -1.2746762698745318 1
gene  1 11 17 -0.6542555849335241 0 1.0 -0.6542555849335241 1
gene  1 12 17 -0.8473719528643859 0 1.0 -0.8473719528643859 1
gene  1 13 17 -0.9950449990962005 0 1.0 -0.9950449990962005 1
gene  1 14 17 0.45864041365624986 0 1.0 0.45864041365624986 1
gene  1 1 18 0.26708627552728237 0 1.0 0.26708627552728237 1
gene  1 2 18 -2.6297252605552472 0 1.0 -2.6297252605552472 1
gene  1 3 18 -1.0346178547101998 0 1.0 -1.0346178547101998 1
gene  1 4 18 3.782389062305798 0 1.0 3.782389062305798 1
gene  1 5 18 -0.36569887507251897 0 1.0 -0.36569887507251897 1
gene  1 6 18 2.2267435862435914 0 1.0 2.2267435862435914 1
gene  1 7 18 1.0510931565485715 0 1.0 1.0510931565485715 1
gene  1 8 18 -0.3708351724950538 0 1.0 -0.3708351724950538 1
gene  1 9 18 -1.384516892506347 0 1.0 -1.384516892506347 1
gene  1 10 18 -3.3725777898308102 0 1.0 -3.3725777898308102 1
gene  1 11 18 2.675160024885694 0 1.0 2.675160024885694 1
gene  1 12 18 0.6211093098974253 0 1.0 0.6211093098974253 1
gene  1 13 18 0.8433094383029691 0 1.0 0.8433094383029691 1
gene  1 14 18 -1.4941984486550657 0 1.0 -1.4941984486550657 1
gene  1 1 19 -3.875898838501388 0 1.0 -3.875898838501388 1
gene  1 2 19 4.0790825139485385 0 1.0 4.0790825139485385 1
gene  1 3 19 -3.204917757998868 0 1.0 -3.204917757998868 1
gene  1 4 19 1.0929964089631197 0 1.0 1.0929964089631197 1
gene  1 5 19 1.099221174365837 0 1.0 1.099221174365837 1
gene  1 6 19 -0.07350103151524512 0 1.0 -0.07350103151524512 1
gene  1 7 19 -1.3797000037430032 0 1.0 -1.3797000037430032 1
gene  1 8 19 1.931078621453468 0 1.0 1.931078621453468 1
gene  1 9 19 0.3355157996620098 0 1.0 0.3355157996620098 1
gene  1 10 19 -2.3322897938113463 0 1.0 -2.3322897938113463 1
gene  1 11 19 3.2451458775160673 0 1.0 3.2451458775160673 1
gene  1 12 19 -0.3592154101431468 0 1.0 -0.3592154101431468 1
gene  1 13 19 1.5975097021319677 0 1.0 1.5975097021319677 1
gene  1 14 19 2.1643169211992457 0 1.0 2.1643169211992457 1
gene  1 1 20 1.313339850857764 0 1.0 1.313339850857764 1
gene  1 2 20 2.69297812205346 0 1.0 2.69297812205346 1
gene  1 3 20 0.5503198286547744 0 1.0 0.5503198286547744 1
gene  1 4 20 2.755669792729667 0 1.0 2.755669792729667 1
gene  1 5 20 -2.124171038125377 0 1.0 -2.124171038125377 1
gene  1 6 20 0.9816306635573899 0 1.0 0.9816306635573899 1
gene  1 7 20 0.4627535230836807 0 1.0 0.4627535230836807 1
gene  1 8 20 -0.9663671770305011 0 1.0 -0.9663671770305011 1
gene  1 9 20 -3.790036237666965 0 1.0 -3.790036237666965 1
gene  1 10 20 0.30120663114459334 0 1.0 0.30120663114459334 1
gene  1 11 20 -2.6982877176319535 0 1.0 -2.6982877176319535 1
gene  1 12 20 -0.5693146506486325 0 1.0 -0.5693146506486325 1
gene  1 13 20 -0.5362450957051121 0 1.0 -0.5362450957051121 1
gene  1 14 20 -1.524095544591181 0 1.0 -1.524095544591181 1
genomeend 7
/* Organism # 008 Fitness:  10,000 Error:  0,000                      */
genomestart  8
trait 1 0.1 0.0 0.0 0.0 0.0 0.0 0.0 0.0 
trait 2 0.2 0.0 0.0 0.0 0.0 0.0 0.0 0.0 
trait 3 0.28551138942246185 0.0 0.0 0.0 0.0 0.0 0.0 0.0 
node 1 1 1 3
node 2 1 1 1
node 3 1 1 1
node 4 1 1 1
node 5 1 1 1
node 6 1 1 1
node 7 1 1 1
node 8 1 1 1
node 9 1 1 1
node 10 1 1 1
node 11 1 1 1
node 12 1 1 1
node 13 1 1 1
node 14 1 1 1
node 15 1 0 2
node 16 1 0 2
node 17 1 0 2
node 18 1 0 2
node 19 1 0 2
node 20 1 0 2
gene  1 1 15 -2.8913764652206124 0 1.0 -2.8913764652206124 1
gene  1 2 15 -0.08687137100632292 0 1.0 -0.08687137100632292 1
gene  1 3 15 -4.258115753624858 0 1.0 -4.258115753624858 1
gene  1 4 15 1.4405778661814963 0 1.0 1.4405778661814963 1
gene  1 5 15 -0.94987470160308 0 1.0 -0.94987470160308 1
gene  1 6 15 -4.016481633662134 0 1.0 -4.016481633662134 1
gene  1 7 15 2.732429458854087 0 1.0 2.732429458854087 1
gene  1 8 15 -0.8490244759653949 0 1.0 -0.8490244759653949 1
gene  1 9 15 0.18302060622337424 0 1.0 0.18302060622337424 1
gene  1 10 15 -2.87591373852099 0 1.0 -2.87591373852099 1
gene  1 11 15 -4.923773091592762 0 1.0 -4.923773091592762 1
gene  1 12 15 -0.9956713653478095 0 1.0 -0.9956713653478095 1
gene  1 13 15 -0.8818669018911989 0 1.0 -0.8818669018911989 1
gene  1 14 15 -5.176329810367802 0 1.0 -5.176329810367802 1
gene  1 1 16 3.086920340852404 0 1.0 3.086920340852404 1
gene  1 2 16 -3.2116016009292276 0 1.0 -3.2116016009292276 1
gene  1 3 16 -0.7479621250137316 0 1.0 -0.7479621250137316 1
gene  1 4 16 -0.9203441201351907 0 1.0 -0.9203441201351907 1
gene  1 5 16 -3.565902371630055 0 1.0 -3.565902371630055 1
gene  1 6 16 -0.9492287209016006 0 1.0 -0.9492287209016006 1
gene  1 7 16 0.9120098704964716 0 1.0 0.9120098704964716 1
gene  1 8 16 -0.06521436899184696 0 1.0 -0.06521436899184696 1
gene  1 9 16 2.413204501170075 0 1.0 2.413204501170075 1
gene  1 10 16 0.7601276805253838 0 1.0 0.7601276805253838 1
gene  1 11 16 -0.539276366834875 0 1.0 -0.539276366834875 1
gene  1 12 16 -0.4208420280441697 0 1.0 -0.4208420280441697 1
gene  1 13 16 4.080928465064425 0 1.0 4.080928465064425 1
gene  1 14 16 -1.363608572781886 0 1.0 -1.363608572781886 1
gene  1 1 17 -2.360737418646271 0 1.0 -2.360737418646271 1
gene  1 2 17 1.2332171604951196 0 1.0 1.2332171604951196 1
gene  1 3 17 5.054952412106573 0 1.0 5.054952412106573 1
gene  1 4 17 -2.167278994116792 0 1.0 -2.167278994116792 1
gene  1 5 17 1.0476237209755639 0 1.0 1.0476237209755639 1
gene  1 6 17 0.29196245666067844 0 1.0 0.29196245666067844 1
gene  1 7 17 -1.009194841358788 0 1.0 -1.009194841358788 1
gene  1 8 17 -3.045066352605285 0 1.0 -3.045066352605285 1
gene  1 9 17 -1.6299240219892794 0 1.0 -1.6299240219892794 1
gene  1 10 17 -0.1850265379044953 0 1.0 -0.1850265379044953 1
gene  1 11 17 -1.5226900273017165 0 1.0 -1.5226900273017165 1
gene  1 12 17 1.3161836728313958 0 1.0 1.3161836728313958 1
gene  1 13 17 -1.2783509256188779 0 1.0 -1.2783509256188779 1
gene  1 14 17 -2.045641885686034 0 1.0 -2.045641885686034 1
gene  1 1 18 3.244424472097311 0 1.0 3.244424472097311 1
gene  1 2 18 -0.445353714284217 0 1.0 -0.445353714284217 1
gene  1 3 18 0.30162676619122913 0 1.0 0.30162676619122913 1
gene  1 4 18 2.0655395666681913 0 1.0 2.0655395666681913 1
gene  1 5 18 -0.0791666744153603 0 1.0 -0.0791666744153603 1
gene  1 6 18 0.270000277500762 0 1.0 0.270000277500762 1
gene  1 7 18 2.2893735790704985 0 1.0 2.2893735790704985 1
gene  1 8 18 1.3350383300569153 0 1.0 1.3350383300569153 1
gene  1 9 18 0.4431426833757637 0 1.0 0.4431426833757637 1
gene  1 10 18 -1.4646561506432607 0 1.0 -1.4646561506432607 1
gene  1 11 18 3.3736780636155004 0 1.0 3.3736780636155004 1
gene  1 12 18 -2.3933003644634088 0 1.0 -2.3933003644634088 1
gene  1 13 18 1.7736700307503246 0 1.0 1.7736700307503246 1
gene  1 14 18 0.745192428199257 0 1.0 0.745192428199257 1
gene  1 1 19 -1.9989754658049297 0 1.0 -1.9989754658049297 1
gene  1 2 19 1.0580452349295584 0 1.0 1.0580452349295584 1
gene  1 3 19 -0.27260671228842726 0 1.0 -0.27260671228842726 1
gene  1 4 19 0.1999742866722376 0 1.0 0.1999742866722376 1
gene  1 5 19 0.8504252358308348 0 1.0 0.8504252358308348 1
gene  1 6 19 -0.6502210030867179 0 1.0 -0.6502210030867179 1
gene  1 7 19 -2.928193527206208 0 1.0 -2.928193527206208 1
gene  1 8 19 -1.9014175901697552 0 1.0 -1.9014175901697552 1
gene  1 9 19 1.4756395333855943 0 1.0 1.4756395333855943 1
gene  1 10 19 -2.1620613334452856 0 1.0 -2.1620613334452856 1
gene  1 11 19 -0.23733392272480502 0 1.0 -0.23733392272480502 1
gene  1 12 19 1.0080049394311277 0 1.0 1.0080049394311277 1
gene  1 13 19 0.019608053898092503 0 1.0 0.019608053898092503 1
gene  1 14 19 0.7135938454511803 0 1.0 0.7135938454511803 1
gene  1 1 20 0.9747711397971854 0 1.0 0.9747711397971854 1
gene  1 2 20 0.3265987338053317 0 1.0 0.3265987338053317 1
gene  1 3 20 -0.455826190862654 0 1.0 -0.455826190862654 1
gene  1 4 20 0.1079778582233995 0 1.0 0.1079778582233995 1
gene  1 5 20 0.10721940814451425 0 1.0 0.10721940814451425 1
gene  1 6 20 0.554372465399916 0 1.0 0.554372465399916 1
gene  1 7 20 -0.1388894683023202 0 1.0 -0.1388894683023202 1
gene  1 8 20 0.3415745711577314 0 1.0 0.3415745711577314 1
gene  1 9 20 -1.9698885694339923 0 1.0 -1.9698885694339923 1
gene  1 10 20 0.4071273384583358 0 1.0 0.4071273384583358 1
gene  1 11 20 -0.0717657359258288 0 1.0 -0.0717657359258288 1
gene  1 12 20 0.25287389931933124 0 1.0 0.25287389931933124 1
gene  1 13 20 0.7148227838883925 0 1.0 0.7148227838883925 1
gene  1 14 20 1.4593437800553026 0 1.0 1.4593437800553026 1
genomeend 8
/* Organism # 009 Fitness:  10,000 Error:  0,000                      */
genomestart  9
trait 1 0.1 0.0 0.0 0.0 0.0 0.0 0.0 0.0 
trait 2 0.2 0.0 0.0 0.0 0.0 0.0 0.0 0.0 
trait 3 0.599422554146847 0.0 0.0 0.16117259926797567 0.0 0.0 0.0 0.0 
node 1 1 1 3
node 2 1 1 1
node 3 1 1 1
node 4 1 1 1
node 5 1 1 1
node 6 1 1 1
node 7 1 1 1
node 8 1 1 1
node 9 1 1 1
node 10 1 1 1
node 11 1 1 1
node 12 1 1 1
node 13 1 1 1
node 14 1 1 1
node 15 1 0 2
node 16 1 0 2
node 17 1 0 2
node 18 1 0 2
node 19 1 0 2
node 20 1 0 2
gene  1 1 15 -3.0083694395866445 0 1.0 -3.0083694395866445 1
gene  1 2 15 -0.4099135010654238 0 1.0 -0.4099135010654238 1
gene  1 3 15 -0.8655945497486275 0 1.0 -0.8655945497486275 1
gene  1 4 15 0.8255001880316866 0 1.0 0.8255001880316866 1
gene  1 5 15 -0.5669440883805832 0 1.0 -0.5669440883805832 1
gene  1 6 15 -0.21482539469107742 0 1.0 -0.21482539469107742 1
gene  1 7 15 4.211249588603087 0 1.0 4.211249588603087 1
gene  1 8 15 1.4761962886872528 0 1.0 1.4761962886872528 1
gene  1 9 15 -0.79247236262401 0 1.0 -0.79247236262401 1
gene  1 10 15 0.658612468502412 0 1.0 0.658612468502412 1
gene  1 11 15 -0.13471492193986645 0 1.0 -0.13471492193986645 1
gene  1 12 15 -1.0949489670547337 0 1.0 -1.0949489670547337 1
gene  1 13 15 0.4578419046820448 0 1.0 0.4578419046820448 1
gene  1 14 15 -1.9615417616270143 0 1.0 -1.9615417616270143 1
gene  1 1 16 -1.325178917471907 0 1.0 -1.325178917471907 1
gene  1 2 16 4.895967015065013 0 1.0 4.895967015065013 1
gene  1 3 16 0.4036411305933185 0 1.0 0.4036411305933185 1
gene  1 4 16 0.6230114134923075 0 1.0 0.6230114134923075 1
gene  1 5 16 -2.4641977064434335 0 1.0 -2.4641977064434335 1
gene  1 6 16 -0.31508128672130015 0 1.0 -0.31508128672130015 1
gene  1 7 16 -5.218764028621358 0 1.0 -5.218764028621358 1
gene  1 8 16 5.562514102095796 0 1.0 5.562514102095796 1
gene  1 9 16 -0.4551172231618166 0 1.0 -0.4551172231618166 1
gene  1 10 16 -1.7714336001031321 0 1.0 -1.7714336001031321 1
gene  1 11 16 4.028480450229063 0 1.0 4.028480450229063 1
gene  1 12 16 0.7759418885752256 0 1.0 0.7759418885752256 1
gene  1 13 16 -1.4266066147395207 0 1.0 -1.4266066147395207 1
gene  1 14 16 7.547678288508983 0 1.0 7.547678288508983 1
gene  1 1 17 1.317773340900519 0 1.0 1.317773340900519 1
gene  1 2 17 -2.8981560832971938 0 1.0 -2.8981560832971938 1
gene  1 3 17 3.421474158662381 0 1.0 3.421474158662381 1
gene  1 4 17 1.3232052815900028 0 1.0 1.3232052815900028 1
gene  1 5 17 0.6432679142063529 0 1.0 0.6432679142063529 1
gene  1 6 17 3.3123234714276784 0 1.0 3.3123234714276784 1
gene  1 7 17 2.465729647822982 0 1.0 2.465729647822982 1
gene  1 8 17 -0.13197336303869944 0 1.0 -0.13197336303869944 1
gene  1 9 17 0.4171492922946288 0 1.0 0.4171492922946288 1
gene  1 10 17 -4.569447324083912 0 1.0 -4.569447324083912 1
gene  1 11 17 -0.6031514087362447 0 1.0 -0.6031514087362447 1
gene  1 12 17 -1.7653757247900732 0 1.0 -1.7653757247900732 1
gene  1 13 17 -1.5462693176672961 0 1.0 -1.5462693176672961 1
gene  1 14 17 2.2401646032865212 0 1.0 2.2401646032865212 1
gene  1 1 18 1.4308926772662214 0 1.0 1.4308926772662214 1
gene  1 2 18 3.8839106057812107 0 1.0 3.8839106057812107 1
gene  1 3 18 -2.2715474330407557 0 1.0 -2.2715474330407557 1
gene  1 4 18 1.4741005847355266 0 1.0 1.4741005847355266 1
gene  1 5 18 6.574659413548092 0 1.0 6.574659413548092 1
gene  1 6 18 1.7824301968237253 0 1.0 1.7824301968237253 1
gene  1 7 18 0.8152306243163594 0 1.0 0.8152306243163594 1
gene  1 8 18 -1.6638235600001683 0 1.0 -1.6638235600001683 1
gene  1 9 18 -3.6864862395337257 0 1.0 -3.6864862395337257 1
gene  1 10 18 1.1902453882018542 0 1.0 1.1902453882018542 1
gene  1 11 18 1.2885340581105875 0 1.0 1.2885340581105875 1
gene  1 12 18 2.2485842855562574 0 1.0 2.2485842855562574 1
gene  1 13 18 -4.640642360580469 0 1.0 -4.640642360580469 1
gene  1 14 18 -0.47564496499191666 0 1.0 -0.47564496499191666 1
gene  1 1 19 0.3830745826600148 0 1.0 0.3830745826600148 1
gene  1 2 19 -1.9339841728733287 0 1.0 -1.9339841728733287 1
gene  1 3 19 0.7977373716268954 0 1.0 0.7977373716268954 1
gene  1 4 19 2.679468846085325 0 1.0 2.679468846085325 1
gene  1 5 19 -2.233995102151514 0 1.0 -2.233995102151514 1
gene  1 6 19 -0.5305424643681788 0 1.0 -0.5305424643681788 1
gene  1 7 19 3.9092462439288496 0 1.0 3.9092462439288496 1
gene  1 8 19 2.2934194155792254 0 1.0 2.2934194155792254 1
gene  1 9 19 -3.3739791454731582 0 1.0 -3.3739791454731582 1
gene  1 10 19 -1.262029303763975 0 1.0 -1.262029303763975 1
gene  1 11 19 4.672458487011937 0 1.0 4.672458487011937 1
gene  1 12 19 3.8499114330455164 0 1.0 3.8499114330455164 1
gene  1 13 19 -3.063604162940629 0 1.0 -3.063604162940629 1
gene  1 14 19 0.985306600549938 0 1.0 0.985306600549938 1
gene  1 1 20 2.2797999175868293 0 1.0 2.2797999175868293 1
gene  1 2 20 -2.3781932719177457 0 1.0 -2.3781932719177457 1
gene  1 3 20 -3.8399036245812717 0 1.0 -3.8399036245812717 1
gene  1 4 20 -3.899577644041389 0 1.0 -3.899577644041389 1
gene  1 5 20 3.524379910954263 0 1.0 3.524379910954263 1
gene  1 6 20 -2.2889293615886315 0 1.0 -2.2889293615886315 1
gene  1 7 20 -0.8460850889570024 0 1.0 -0.8460850889570024 1
gene  1 8 20 2.315796086511189 0 1.0 2.315796086511189 1
gene  1 9 20 0.5929725292949828 0 1.0 0.5929725292949828 1
gene  1 10 20 -0.2855458143392307 0 1.0 -0.2855458143392307 1
gene  1 11 20 -2.924392990605583 0 1.0 -2.924392990605583 1
gene  1 12 20 -2.4878688430150198 0 1.0 -2.4878688430150198 1
gene  1 13 20 0.027656842965176454 0 1.0 0.027656842965176454 1
gene  1 14 20 0.25340593151360197 0 1.0 0.25340593151360197 1
genomeend 9
/* Organism # 010 Fitness:  44,000 Error:  0,000                      */
genomestart  10
trait 1 0.1 0.0 0.0 0.0 0.0 0.0 0.0 0.0 
trait 2 0.2 0.0 0.0 0.0 0.0 0.0 0.0 0.0 
trait 3 0.2710227788449237 0.0 0.0 0.0 0.0 0.0 0.0 0.0 
node 1 1 1 3
node 2 1 1 1
node 3 1 1 1
node 4 1 1 1
node 5 1 1 1
node 6 1 1 1
node 7 1 1 1
node 8 1 1 1
node 9 1 1 1
node 10 1 1 1
node 11 1 1 1
node 12 1 1 1
node 13 1 1 1
node 14 1 1 1
node 15 1 0 2
node 16 1 0 2
node 17 1 0 2
node 18 1 0 2
node 19 1 0 2
node 20 1 0 2
gene  1 1 15 -3.934595416727852 0 1.0 -3.934595416727852 1
gene  1 2 15 3.479522849694427 0 1.0 3.479522849694427 1
gene  1 3 15 -0.8348008249357455 0 1.0 -0.8348008249357455 1
gene  1 4 15 2.2833444900425293 0 1.0 2.2833444900425293 1
gene  1 5 15 1.3509362783447607 0 1.0 1.3509362783447607 1
gene  1 6 15 -3.3673667821578968 0 1.0 -3.3673667821578968 1
gene  1 7 15 1.1594086059785498 0 1.0 1.1594086059785498 1
gene  1 8 15 1.280361383578268 0 1.0 1.280361383578268 1
gene  1 9 15 1.5594472512118869 0 1.0 1.5594472512118869 1
gene  1 10 15 2.7127385468777203 0 1.0 2.7127385468777203 1
gene  1 11 15 -0.4394060309555432 0 1.0 -0.4394060309555432 1
gene  1 12 15 -2.5589291867143853 0 1.0 -2.5589291867143853 1
gene  1 13 15 -0.9029334242842018 0 1.0 -0.9029334242842018 1
gene  1 14 15 -4.293739440620902 0 1.0 -4.293739440620902 1
gene  1 1 16 -0.5566549389945827 0 1.0 -0.5566549389945827 1
gene  1 2 16 -1.0869738915213936 0 1.0 -1.0869738915213936 1
gene  1 3 16 -0.8558841680475797 0 1.0 -0.8558841680475797 1
gene  1 4 16 2.5137514289445932 0 1.0 2.5137514289445932 1
gene  1 5 16 -0.559293507800612 0 1.0 -0.559293507800612 1
gene  1 6 16 0.9488503435016236 0 1.0 0.9488503435016236 1
gene  1 7 16 1.8036255989990384 0 1.0 1.8036255989990384 1
gene  1 8 16 1.951070055890179 0 1.0 1.951070055890179 1
gene  1 9 16 1.6843962796815393 0 1.0 1.6843962796815393 1
gene  1 10 16 -2.457113146764491 0 1.0 -2.457113146764491 1
gene  1 11 16 -0.048837494323903385 0 1.0 -0.048837494323903385 1
gene  1 12 16 -0.9063724668974584 0 1.0 -0.9063724668974584 1
gene  1 13 16 0.6747609452912631 0 1.0 0.6747609452912631 1
gene  1 14 16 0.8477155351063677 0 1.0 0.8477155351063677 1
gene  1 1 17 -2.752390175849057 0 1.0 -2.752390175849057 1
gene  1 2 17 -2.7391102893354944 0 1.0 -2.7391102893354944 1
gene  1 3 17 5.101490826060253 0 1.0 5.101490826060253 1
gene  1 4 17 0.2775573968614311 0 1.0 0.2775573968614311 1
gene  1 5 17 3.881102021409408 0 1.0 3.881102021409408 1
gene  1 6 17 2.1453978634226556 0 1.0 2.1453978634226556 1
gene  1 7 17 -1.2144234270447132 0 1.0 -1.2144234270447132 1
gene  1 8 17 -2.9607956357464134 0 1.0 -2.9607956357464134 1
gene  1 9 17 0.3090552233990762 0 1.0 0.3090552233990762 1
gene  1 10 17 -5.166247333091552 0 1.0 -5.166247333091552 1
gene  1 11 17 -0.19081954040514093 0 1.0 -0.19081954040514093 1
gene  1 12 17 -3.511628165508661 0 1.0 -3.511628165508661 1
gene  1 13 17 -2.473772156909975 0 1.0 -2.473772156909975 1
gene  1 14 17 -1.3754577205629066 0 1.0 -1.3754577205629066 1
gene  1 1 18 3.497471947335482 0 1.0 3.497471947335482 1
gene  1 2 18 -0.34252884722429433 0 1.0 -0.34252884722429433 1
gene  1 3 18 -0.0707675968098922 0 1.0 -0.0707675968098922 1
gene  1 4 18 2.3819012311540155 0 1.0 2.3819012311540155 1
gene  1 5 18 2.3356789729681418 0 1.0 2.3356789729681418 1
gene  1 6 18 2.76900405956094 0 1.0 2.76900405956094 1
gene  1 7 18 2.2845690697961194 0 1.0 2.2845690697961194 1
gene  1 8 18 -2.5259483636005475 0 1.0 -2.5259483636005475 1
gene  1 9 18 -0.768741785029567 0 1.0 -0.768741785029567 1
gene  1 10 18 2.052153293440197 0 1.0 2.052153293440197 1
gene  1 11 18 3.180278495866405 0 1.0 3.180278495866405 1
gene  1 12 18 -1.0465467727257913 0 1.0 -1.0465467727257913 1
gene  1 13 18 0.19787903386097672 0 1.0 0.19787903386097672 1
gene  1 14 18 -2.452619698225783 0 1.0 -2.452619698225783 1
gene  1 1 19 1.0154396271183723 0 1.0 1.0154396271183723 1
gene  1 2 19 1.5486574012450072 0 1.0 1.5486574012450072 1
gene  1 3 19 0.48608260703952366 0 1.0 0.48608260703952366 1
gene  1 4 19 1.006177008573811 0 1.0 1.006177008573811 1
gene  1 5 19 -3.2060107184526005 0 1.0 -3.2060107184526005 1
gene  1 6 19 -0.1401385957419523 0 1.0 -0.1401385957419523 1
gene  1 7 19 4.310823416827881 0 1.0 4.310823416827881 1
gene  1 8 19 -0.19347623584798557 0 1.0 -0.19347623584798557 1
gene  1 9 19 -1.9231828700502975 0 1.0 -1.9231828700502975 1
gene  1 10 19 0.5494217522230846 0 1.0 0.5494217522230846 1
gene  1 11 19 3.5220413463188525 0 1.0 3.5220413463188525 1
gene  1 12 19 1.5505225347653668 0 1.0 1.5505225347653668 1
gene  1 13 19 -2.704706763461761 0 1.0 -2.704706763461761 1
gene  1 14 19 0.5008678585782922 0 1.0 0.5008678585782922 1
gene  1 1 20 1.8009517023193804 0 1.0 1.8009517023193804 1
gene  1 2 20 0.31062385930335457 0 1.0 0.31062385930335457 1
gene  1 3 20 -2.3526870427305937 0 1.0 -2.3526870427305937 1
gene  1 4 20 -0.6685197926592021 0 1.0 -0.6685197926592021 1
gene  1 5 20 0.28800272423943163 0 1.0 0.28800272423943163 1
gene  1 6 20 -1.972583161477066 0 1.0 -1.972583161477066 1
gene  1 7 20 0.19506658462268772 0 1.0 0.19506658462268772 1
gene  1 8 20 1.0914975948191523 0 1.0 1.0914975948191523 1
gene  1 9 20 -0.8289289109458828 0 1.0 -0.8289289109458828 1
gene  1 10 20 2.0694798961904723 0 1.0 2.0694798961904723 1
gene  1 11 20 -1.6411109205250487 0 1.0 -1.6411109205250487 1
gene  1 12 20 -3.102979983148879 0 1.0 -3.102979983148879 1
gene  1 13 20 0.5429089379020358 0 1.0 0.5429089379020358 1
gene  1 14 20 0.06002511519501463 0 1.0 0.06002511519501463 1
genomeend 10
/* Organism # 011 Fitness:  9,000 Error:  0,000                      */
genomestart  11
trait 1 0.1 0.0 0.0 0.0 0.0 0.0 0.0 0.0 
trait 2 0.2 0.0 0.0 0.0 0.0 0.0 0.0 0.0 
trait 3 0.2420455576898474 0.0 0.0 0.0 0.0 0.0 0.0 0.0 
node 1 1 1 3
node 2 1 1 1
node 3 1 1 1
node 4 1 1 1
node 5 1 1 1
node 6 1 1 1
node 7 1 1 1
node 8 1 1 1
node 9 1 1 1
node 10 1 1 1
node 11 1 1 1
node 12 1 1 1
node 13 1 1 1
node 14 1 1 1
node 15 1 0 2
node 16 1 0 2
node 17 1 0 2
node 18 1 0 2
node 19 1 0 2
node 20 1 0 2
gene  1 1 15 -3.2625488112757717 0 1.0 -3.2625488112757717 1
gene  1 2 15 3.0072735859157187 0 1.0 3.0072735859157187 1
gene  1 3 15 1.5865689596822594 0 1.0 1.5865689596822594 1
gene  1 4 15 1.4465053243392667 0 1.0 1.4465053243392667 1
gene  1 5 15 -1.8861827166851435 0 1.0 -1.8861827166851435 1
gene  1 6 15 -3.5714041220240467 0 1.0 -3.5714041220240467 1
gene  1 7 15 2.346311978835223 0 1.0 2.346311978835223 1
gene  1 8 15 0.5724110644629792 0 1.0 0.5724110644629792 1
gene  1 9 15 0.353311413250863 0 1.0 0.353311413250863 1
gene  1 10 15 -2.5485971529408062 0 1.0 -2.5485971529408062 1
gene  1 11 15 -1.816031217755864 0 1.0 -1.816031217755864 1
gene  1 12 15 -0.5065726736106796 0 1.0 -0.5065726736106796 1
gene  1 13 15 -0.614230761466982 0 1.0 -0.614230761466982 1
gene  1 14 15 -3.5922729610349537 0 1.0 -3.5922729610349537 1
gene  1 1 16 -1.48417949751433 0 1.0 -1.48417949751433 1
gene  1 2 16 -1.819206698878122 0 1.0 -1.819206698878122 1
gene  1 3 16 -2.191065906391384 0 1.0 -2.191065906391384 1
gene  1 4 16 2.788233415698552 0 1.0 2.788233415698552 1
gene  1 5 16 -4.266266645362325 0 1.0 -4.266266645362325 1
gene  1 6 16 1.1119286847543675 0 1.0 1.1119286847543675 1
gene  1 7 16 -6.494359290813539 0 1.0 -6.494359290813539 1
gene  1 8 16 2.5571722219723734 0 1.0 2.5571722219723734 1
gene  1 9 16 2.2092413938592035 0 1.0 2.2092413938592035 1
gene  1 10 16 -1.760628908388803 0 1.0 -1.760628908388803 1
gene  1 11 16 2.3653199326763206 0 1.0 2.3653199326763206 1
gene  1 12 16 -2.2595347781416657 0 1.0 -2.2595347781416657 1
gene  1 13 16 0.42339811620036194 0 1.0 0.42339811620036194 1
gene  1 14 16 0.8985534351688328 0 1.0 0.8985534351688328 1
gene  1 1 17 1.2576055389967515 0 1.0 1.2576055389967515 1
gene  1 2 17 -0.8440021964609712 0 1.0 -0.8440021964609712 1
gene  1 3 17 -0.7628700989205837 0 1.0 -0.7628700989205837 1
gene  1 4 17 -0.7929539013485915 0 1.0 -0.7929539013485915 1
gene  1 5 17 0.6223878504432854 0 1.0 0.6223878504432854 1
gene  1 6 17 -1.6729010248067375 0 1.0 -1.6729010248067375 1
gene  1 7 17 1.2017426063819727 0 1.0 1.2017426063819727 1
gene  1 8 17 -2.348156158235658 0 1.0 -2.348156158235658 1
gene  1 9 17 -0.7783629786118438 0 1.0 -0.7783629786118438 1
gene  1 10 17 -3.230670241976604 0 1.0 -3.230670241976604 1
gene  1 11 17 -2.420791043844988 0 1.0 -2.420791043844988 1
gene  1 12 17 0.2541239870616301 0 1.0 0.2541239870616301 1
gene  1 13 17 -0.4669806139733983 0 1.0 -0.4669806139733983 1
gene  1 14 17 4.092641530930862 0 1.0 4.092641530930862 1
gene  1 1 18 0.06766100973707712 0 1.0 0.06766100973707712 1
gene  1 2 18 -2.6952955254285706 0 1.0 -2.6952955254285706 1
gene  1 3 18 -0.003440370723604147 0 1.0 -0.003440370723604147 1
gene  1 4 18 -0.5946069577690616 0 1.0 -0.5946069577690616 1
gene  1 5 18 -1.7462434157673754 0 1.0 -1.7462434157673754 1
gene  1 6 18 -0.8482196157767896 0 1.0 -0.8482196157767896 1
gene  1 7 18 0.8000558208053956 0 1.0 0.8000558208053956 1
gene  1 8 18 0.2653570975463704 0 1.0 0.2653570975463704 1
gene  1 9 18 -4.3247514904263955 0 1.0 -4.3247514904263955 1
gene  1 10 18 -4.368362016283984 0 1.0 -4.368362016283984 1
gene  1 11 18 0.2085720474913641 0 1.0 0.2085720474913641 1
gene  1 12 18 2.30085148831353 0 1.0 2.30085148831353 1
gene  1 13 18 -0.6142021552763015 0 1.0 -0.6142021552763015 1
gene  1 14 18 -0.8891380525164772 0 1.0 -0.8891380525164772 1
gene  1 1 19 -1.446315089693031 0 1.0 -1.446315089693031 1
gene  1 2 19 1.9794305956698077 0 1.0 1.9794305956698077 1
gene  1 3 19 1.6095161446323685 0 1.0 1.6095161446323685 1
gene  1 4 19 -1.866554942407914 0 1.0 -1.866554942407914 1
gene  1 5 19 1.2345183543108162 0 1.0 1.2345183543108162 1
gene  1 6 19 1.3681400313253804 0 1.0 1.3681400313253804 1
gene  1 7 19 -2.1033269056714685 0 1.0 -2.1033269056714685 1
gene  1 8 19 3.6704875482426647 0 1.0 3.6704875482426647 1
gene  1 9 19 -4.447658301890235 0 1.0 -4.447658301890235 1
gene  1 10 19 -2.82463611691712 0 1.0 -2.82463611691712 1
gene  1 11 19 1.0549209835944262 0 1.0 1.0549209835944262 1
gene  1 12 19 0.31621196400747037 0 1.0 0.31621196400747037 1
gene  1 13 19 1.761649795666874 0 1.0 1.761649795666874 1
gene  1 14 19 0.6609637216588653 0 1.0 0.6609637216588653 1
gene  1 1 20 3.29742342574972 0 1.0 3.29742342574972 1
gene  1 2 20 -0.27829244261218655 0 1.0 -0.27829244261218655 1
gene  1 3 20 -2.1575799941699025 0 1.0 -2.1575799941699025 1
gene  1 4 20 1.4978159478091932 0 1.0 1.4978159478091932 1
gene  1 5 20 -0.9701156841325445 0 1.0 -0.9701156841325445 1
gene  1 6 20 2.1297281221911346 0 1.0 2.1297281221911346 1
gene  1 7 20 -2.2704897500802654 0 1.0 -2.2704897500802654 1
gene  1 8 20 0.8286557190003587 0 1.0 0.8286557190003587 1
gene  1 9 20 -3.2028410965432474 0 1.0 -3.2028410965432474 1
gene  1 10 20 2.481806539502583 0 1.0 2.481806539502583 1
gene  1 11 20 -3.062415731754751 0 1.0 -3.062415731754751 1
gene  1 12 20 0.8055188757477696 0 1.0 0.8055188757477696 1
gene  1 13 20 -2.208613283191736 0 1.0 -2.208613283191736 1
gene  1 14 20 -1.59481875309704 0 1.0 -1.59481875309704 1
genomeend 11
/* Organism # 012 Fitness:  10,000 Error:  0,000                      */
genomestart  12
trait 1 0.1 0.0 0.0 0.0 0.0 0.0 0.0 0.0 
trait 2 0.2 0.0 0.0 0.0 0.0 0.0 0.0 0.0 
trait 3 0.28551138942246185 0.0 0.0 0.0 0.0 0.0 0.0 0.0 
node 1 1 1 3
node 2 1 1 1
node 3 1 1 1
node 4 1 1 1
node 5 1 1 1
node 6 1 1 1
node 7 1 1 1
node 8 1 1 1
node 9 1 1 1
node 10 1 1 1
node 11 1 1 1
node 12 1 1 1
node 13 1 1 1
node 14 1 1 1
node 15 1 0 2
node 16 1 0 2
node 17 1 0 2
node 18 1 0 2
node 19 1 0 2
node 20 1 0 2
gene  1 1 15 -3.0471088249904628 0 1.0 -3.0471088249904628 1
gene  1 2 15 2.3145845640458287 0 1.0 2.3145845640458287 1
gene  1 3 15 -2.833680916151451 0 1.0 -2.833680916151451 1
gene  1 4 15 -0.82326982982505 0 1.0 -0.82326982982505 1
gene  1 5 15 -0.570620318534116 0 1.0 -0.570620318534116 1
gene  1 6 15 -2.695917171054589 0 1.0 -2.695917171054589 1
gene  1 7 15 0.8505701943803974 0 1.0 0.8505701943803974 1
gene  1 8 15 0.325682027663813 0 1.0 0.325682027663813 1
gene  1 9 15 0.9396596451061182 0 1.0 0.9396596451061182 1
gene  1 10 15 -0.47372445537441155 0 1.0 -0.47372445537441155 1
gene  1 11 15 -2.5656258354970354 0 1.0 -2.5656258354970354 1
gene  1 12 15 -3.1461413416596153 0 1.0 -3.1461413416596153 1
gene  1 13 15 -2.23127583315354 0 1.0 -2.23127583315354 1
gene  1 14 15 -4.122201441976243 0 1.0 -4.122201441976243 1
gene  1 1 16 2.9206286034528572 0 1.0 2.9206286034528572 1
gene  1 2 16 -2.139123381240288 0 1.0 -2.139123381240288 1
gene  1 3 16 -2.897918887760358 0 1.0 -2.897918887760358 1
gene  1 4 16 -0.038523397103387036 0 1.0 -0.038523397103387036 1
gene  1 5 16 -3.2804970143706154 0 1.0 -3.2804970143706154 1
gene  1 6 16 -1.4135111849640905 0 1.0 -1.4135111849640905 1
gene  1 7 16 2.140716401431419 0 1.0 2.140716401431419 1
gene  1 8 16 0.8137607947052663 0 1.0 0.8137607947052663 1
gene  1 9 16 0.7522656670476889 0 1.0 0.7522656670476889 1
gene  1 10 16 -1.4343769833304063 0 1.0 -1.4343769833304063 1
gene  1 11 16 1.557790952022366 0 1.0 1.557790952022366 1
gene  1 12 16 0.3029038715695478 0 1.0 0.3029038715695478 1
gene  1 13 16 1.602375493206178 0 1.0 1.602375493206178 1
gene  1 14 16 -0.6460966126439981 0 1.0 -0.6460966126439981 1
gene  1 1 17 -1.1788373491107385 0 1.0 -1.1788373491107385 1
gene  1 2 17 0.2400189586119995 0 1.0 0.2400189586119995 1
gene  1 3 17 2.604218076914606 0 1.0 2.604218076914606 1
gene  1 4 17 -1.2196228916927034 0 1.0 -1.2196228916927034 1
gene  1 5 17 1.5565506303783974 0 1.0 1.5565506303783974 1
gene  1 6 17 -2.1705989696370738 0 1.0 -2.1705989696370738 1
gene  1 7 17 0.7658947730435566 0 1.0 0.7658947730435566 1
gene  1 8 17 -2.702647448503444 0 1.0 -2.702647448503444 1
gene  1 9 17 -2.2472580930570114 0 1.0 -2.2472580930570114 1
gene  1 10 17 -1.7241808936186458 0 1.0 -1.7241808936186458 1
gene  1 11 17 -1.2611176776594581 0 1.0 -1.2611176776594581 1
gene  1 12 17 -0.37715707987266395 0 1.0 -0.37715707987266395 1
gene  1 13 17 -1.1482013656086614 0 1.0 -1.1482013656086614 1
gene  1 14 17 -1.6047833035772991 0 1.0 -1.6047833035772991 1
gene  1 1 18 1.9518699008996427 0 1.0 1.9518699008996427 1
gene  1 2 18 -1.860747015066739 0 1.0 -1.860747015066739 1
gene  1 3 18 0.5830249453890026 0 1.0 0.5830249453890026 1
gene  1 4 18 2.389061991237379 0 1.0 2.389061991237379 1
gene  1 5 18 -2.518371391558288 0 1.0 -2.518371391558288 1
gene  1 6 18 0.7532585912640002 0 1.0 0.7532585912640002 1
gene  1 7 18 1.8740562659507005 0 1.0 1.8740562659507005 1
gene  1 8 18 -0.5495118497658587 0 1.0 -0.5495118497658587 1
gene  1 9 18 0.9974495822391305 0 1.0 0.9974495822391305 1
gene  1 10 18 -1.2816844437310744 0 1.0 -1.2816844437310744 1
gene  1 11 18 1.9926629282400534 0 1.0 1.9926629282400534 1
gene  1 12 18 -0.2173524811444203 0 1.0 -0.2173524811444203 1
gene  1 13 18 0.1292836130283742 0 1.0 0.1292836130283742 1
gene  1 14 18 0.5959721723917177 0 1.0 0.5959721723917177 1
gene  1 1 19 -1.677962690361665 0 1.0 -1.677962690361665 1
gene  1 2 19 0.8680583390323013 0 1.0 0.8680583390323013 1
gene  1 3 19 -0.6440096194187765 0 1.0 -0.6440096194187765 1
gene  1 4 19 -1.3103290319137915 0 1.0 -1.3103290319137915 1
gene  1 5 19 0.04095938304669061 0 1.0 0.04095938304669061 1
gene  1 6 19 -0.8362878531355654 0 1.0 -0.8362878531355654 1
gene  1 7 19 -0.6485592966578458 0 1.0 -0.6485592966578458 1
gene  1 8 19 -0.9955205459339338 0 1.0 -0.9955205459339338 1
gene  1 9 19 0.2576127839206015 0 1.0 0.2576127839206015 1
gene  1 10 19 -1.6661525364520453 0 1.0 -1.6661525364520453 1
gene  1 11 19 1.8623605068811062 0 1.0 1.8623605068811062 1
gene  1 12 19 0.8907811577744676 0 1.0 0.8907811577744676 1
gene  1 13 19 0.019608053898092503 0 1.0 0.019608053898092503 1
gene  1 14 19 -0.2875535476586373 0 1.0 -0.2875535476586373 1
gene  1 1 20 -1.226673264345008 0 1.0 -1.226673264345008 1
gene  1 2 20 0.3265987338053317 0 1.0 0.3265987338053317 1
gene  1 3 20 0.5913776855108467 0 1.0 0.5913776855108467 1
gene  1 4 20 -0.3928843018443394 0 1.0 -0.3928843018443394 1
gene  1 5 20 0.10721940814451425 0 1.0 0.10721940814451425 1
gene  1 6 20 -0.09779954930735607 0 1.0 -0.09779954930735607 1
gene  1 7 20 -0.1388894683023202 0 1.0 -0.1388894683023202 1
gene  1 8 20 -0.38431646294789545 0 1.0 -0.38431646294789545 1
gene  1 9 20 -1.1569844255998958 0 1.0 -1.1569844255998958 1
gene  1 10 20 0.4071273384583358 0 1.0 0.4071273384583358 1
gene  1 11 20 -0.0717657359258288 0 1.0 -0.0717657359258288 1
gene  1 12 20 0.08749058475586091 0 1.0 0.08749058475586091 1
gene  1 13 20 0.7148227838883925 0 1.0 0.7148227838883925 1
gene  1 14 20 -0.599938067881009 0 1.0 -0.599938067881009 1
gene  2 19 15 -9.733119180484614 0 36.0 -9.733119180484614 1
genomeend 12
/* Organism # 013 Fitness:  10,000 Error:  0,000                      */
genomestart  13
trait 1 0.1 0.0 0.0 0.0 0.0 0.0 0.0 0.0 
trait 2 0.2 0.0 0.0 0.0 0.0 0.0 0.0 0.0 
trait 3 0.2420455576898474 0.0 0.0 0.0 0.0 0.0 0.0 0.0 
node 1 1 1 3
node 2 1 1 1
node 3 1 1 1
node 4 1 1 1
node 5 1 1 1
node 6 1 1 1
node 7 1 1 1
node 8 1 1 1
node 9 1 1 1
node 10 1 1 1
node 11 1 1 1
node 12 1 1 1
node 13 1 1 1
node 14 1 1 1
node 15 1 0 2
node 16 1 0 2
node 17 1 0 2
node 18 1 0 2
node 19 1 0 2
node 20 1 0 2
gene  1 1 15 -3.2625488112757717 0 1.0 -3.2625488112757717 1
gene  1 2 15 0.5945287088050106 0 1.0 0.5945287088050106 1
gene  1 3 15 -1.1498483827638186 0 1.0 -1.1498483827638186 1
gene  1 4 15 3.7536152174068698 0 1.0 3.7536152174068698 1
gene  1 5 15 -0.6897161413312121 0 1.0 -0.6897161413312121 1
gene  1 6 15 -2.907671706427248 0 1.0 -2.907671706427248 1
gene  1 7 15 -0.17459449069255406 0 1.0 -0.17459449069255406 1
gene  1 8 15 -0.5544146647586001 0 1.0 -0.5544146647586001 1
gene  1 9 15 -1.2755922150582775 0 1.0 -1.2755922150582775 1
gene  1 10 15 -2.146972242994162 0 1.0 -2.146972242994162 1
gene  1 11 15 -1.1043054305969244 0 1.0 -1.1043054305969244 1
gene  1 12 15 -2.1566573777484805 0 1.0 -2.1566573777484805 1
gene  1 13 15 -0.614230761466982 0 1.0 -0.614230761466982 1
gene  1 14 15 -3.3933958713306756 0 1.0 -3.3933958713306756 1
gene  1 1 16 -2.194709923275181 0 1.0 -2.194709923275181 1
gene  1 2 16 1.7899724380929072 0 1.0 1.7899724380929072 1
gene  1 3 16 -2.8402038025554504 0 1.0 -2.8402038025554504 1
gene  1 4 16 3.4335748222960847 0 1.0 3.4335748222960847 1
gene  1 5 16 -1.950593309616696 0 1.0 -1.950593309616696 1
gene  1 6 16 0.7890067863494246 0 1.0 0.7890067863494246 1
gene  1 7 16 -4.119884450523873 0 1.0 -4.119884450523873 1
gene  1 8 16 1.3513969900965628 0 1.0 1.3513969900965628 1
gene  1 9 16 -3.8782309834218363 0 1.0 -3.8782309834218363 1
gene  1 10 16 -0.7081488409609757 0 1.0 -0.7081488409609757 1
gene  1 11 16 2.9467573729307923 0 1.0 2.9467573729307923 1
gene  1 12 16 0.40967612440516366 0 1.0 0.40967612440516366 1
gene  1 13 16 -1.7742149452453513 0 1.0 -1.7742149452453513 1
gene  1 14 16 4.605285618424183 0 1.0 4.605285618424183 1
gene  1 1 17 -0.5265052361066103 0 1.0 -0.5265052361066103 1
gene  1 2 17 0.9581610679694261 0 1.0 0.9581610679694261 1
gene  1 3 17 1.3089387187551074 0 1.0 1.3089387187551074 1
gene  1 4 17 0.2424667444524362 0 1.0 0.2424667444524362 1
gene  1 5 17 0.014709901640884204 0 1.0 0.014709901640884204 1
gene  1 6 17 -0.03269185188250834 0 1.0 -0.03269185188250834 1
gene  1 7 17 -0.9623703478009633 0 1.0 -0.9623703478009633 1
gene  1 8 17 0.7786982469545372 0 1.0 0.7786982469545372 1
gene  1 9 17 1.7397099526806645 0 1.0 1.7397099526806645 1
gene  1 10 17 -1.0418546975933338 0 1.0 -1.0418546975933338 1
gene  1 11 17 -0.1526203735020889 0 1.0 -0.1526203735020889 1
gene  1 12 17 -3.1361874921624486 0 1.0 -3.1361874921624486 1
gene  1 13 17 1.550735813801563 0 1.0 1.550735813801563 1
gene  1 14 17 3.073142812021957 0 1.0 3.073142812021957 1
gene  1 1 18 1.110496560845311 0 1.0 1.110496560845311 1
gene  1 2 18 -0.548635278504831 0 1.0 -0.548635278504831 1
gene  1 3 18 0.9475498196736896 0 1.0 0.9475498196736896 1
gene  1 4 18 0.2866058033990754 0 1.0 0.2866058033990754 1
gene  1 5 18 -0.46466899659101824 0 1.0 -0.46466899659101824 1
gene  1 6 18 -1.5683756650732144 0 1.0 -1.5683756650732144 1
gene  1 7 18 -0.19581976251341981 0 1.0 -0.19581976251341981 1
gene  1 8 18 0.2653570975463704 0 1.0 0.2653570975463704 1
gene  1 9 18 -1.8976763689236134 0 1.0 -1.8976763689236134 1
gene  1 10 18 1.5853619659804954 0 1.0 1.5853619659804954 1
gene  1 11 18 3.6153135603803737 0 1.0 3.6153135603803737 1
gene  1 12 18 -1.1558349677225443 0 1.0 -1.1558349677225443 1
gene  1 13 18 -0.006112066300588692 0 1.0 -0.006112066300588692 1
gene  1 14 18 0.7299766293980912 0 1.0 0.7299766293980912 1
gene  1 1 19 1.9138226906650528 0 1.0 1.9138226906650528 1
gene  1 2 19 0.24043304064689086 0 1.0 0.24043304064689086 1
gene  1 3 19 0.8945870982898421 0 1.0 0.8945870982898421 1
gene  1 4 19 -1.0179058802786196 0 1.0 -1.0179058802786196 1
gene  1 5 19 1.819880654706829 0 1.0 1.819880654706829 1
gene  1 6 19 0.9913645276391164 0 1.0 0.9913645276391164 1
gene  1 7 19 -0.37983905988886146 0 1.0 -0.37983905988886146 1
gene  1 8 19 0.8996985629260432 0 1.0 0.8996985629260432 1
gene  1 9 19 -1.3692649640849788 0 1.0 -1.3692649640849788 1
gene  1 10 19 -2.3445764380224063 0 1.0 -2.3445764380224063 1
gene  1 11 19 3.9083075879074167 0 1.0 3.9083075879074167 1
gene  1 12 19 2.250472061915434 0 1.0 2.250472061915434 1
gene  1 13 19 -0.2821374599951679 0 1.0 -0.2821374599951679 1
gene  1 14 19 0.6609637216588653 0 1.0 0.6609637216588653 1
gene  1 1 20 2.206130949621051 0 1.0 2.206130949621051 1
gene  1 2 20 0.6097719565025556 0 1.0 0.6097719565025556 1
gene  1 3 20 1.86494492013707 0 1.0 1.86494492013707 1
gene  1 4 20 -1.359737146924043 0 1.0 -1.359737146924043 1
gene  1 5 20 -1.428442585593353 0 1.0 -1.428442585593353 1
gene  1 6 20 1.099146827863898 0 1.0 1.099146827863898 1
gene  1 7 20 1.687853266652111 0 1.0 1.687853266652111 1
gene  1 8 20 -0.8890585771246536 0 1.0 -0.8890585771246536 1
gene  1 9 20 -2.0103606952958013 0 1.0 -2.0103606952958013 1
gene  1 10 20 0.677196741918726 0 1.0 0.677196741918726 1
gene  1 11 20 -1.4068365974595398 0 1.0 -1.4068365974595398 1
gene  1 12 20 0.042968017994806096 0 1.0 0.042968017994806096 1
gene  1 13 20 0.29343123247491265 0 1.0 0.29343123247491265 1
gene  1 14 20 -0.28420839381989604 0 1.0 -0.28420839381989604 1
gene  1 20 17 2.2034251852136233 0 26.0 2.2034251852136233 1
genomeend 13
/* Organism # 014 Fitness:  256,000 Error:  0,000                      */
/*  $  This organism is WINNER with genome_id  014 Species # 001 $   */
genomestart  14
trait 1 0.1 0.0 0.0 0.0 0.0 0.0 0.0 0.0 
trait 2 0.2 0.0 0.0 0.0 0.0 0.0 0.0 0.0 
trait 3 0.2420455576898474 0.0 0.0 0.0 0.0 0.0 0.0 0.0 
node 1 1 1 3
node 2 1 1 1
node 3 1 1 1
node 4 1 1 1
node 5 1 1 1
node 6 1 1 1
node 7 1 1 1
node 8 1 1 1
node 9 1 1 1
node 10 1 1 1
node 11 1 1 1
node 12 1 1 1
node 13 1 1 1
node 14 1 1 1
node 15 1 0 2
node 16 1 0 2
node 17 1 0 2
node 18 1 0 2
node 19 1 0 2
node 20 1 0 2
gene  1 1 15 -2.1513583402597525 0 1.0 -2.1513583402597525 1
gene  1 2 15 0.5945287088050106 0 1.0 0.5945287088050106 1
gene  1 3 15 -1.0093044158517956 0 1.0 -1.0093044158517956 1
gene  1 4 15 3.7536152174068698 0 1.0 3.7536152174068698 1
gene  1 5 15 -2.5722821958712654 0 1.0 -2.5722821958712654 1
gene  1 6 15 -2.610436888566759 0 1.0 -2.610436888566759 1
gene  1 7 15 2.2093935435330847 0 1.0 2.2093935435330847 1
gene  1 8 15 -0.5544146647586001 0 1.0 -0.5544146647586001 1
gene  1 9 15 -0.79247236262401 0 1.0 -0.79247236262401 1
gene  1 10 15 -2.146972242994162 0 1.0 -2.146972242994162 1
gene  1 11 15 1.0040003797829438 0 1.0 1.0040003797829438 1
gene  1 12 15 -1.0949489670547337 0 1.0 -1.0949489670547337 1
gene  1 13 15 1.8446613624989325 0 1.0 1.8446613624989325 1
gene  1 14 15 -2.2269255415856044 0 1.0 -2.2269255415856044 1
gene  1 1 16 -2.194709923275181 0 1.0 -2.194709923275181 1
gene  1 2 16 2.8175742618068496 0 1.0 2.8175742618068496 1
gene  1 3 16 -1.1504159348284184 0 1.0 -1.1504159348284184 1
gene  1 4 16 3.4335748222960847 0 1.0 3.4335748222960847 1
gene  1 5 16 -1.950593309616696 0 1.0 -1.950593309616696 1
gene  1 6 16 0.7890067863494246 0 1.0 0.7890067863494246 1
gene  1 7 16 -2.9791788105491097 0 1.0 -2.9791788105491097 1
gene  1 8 16 1.3513969900965628 0 1.0 1.3513969900965628 1
gene  1 9 16 -3.8782309834218363 0 1.0 -3.8782309834218363 1
gene  1 10 16 -0.7716524032148641 0 1.0 -0.7716524032148641 1
gene  1 11 16 2.9467573729307923 0 1.0 2.9467573729307923 1
gene  1 12 16 1.3003105646960225 0 1.0 1.3003105646960225 1
gene  1 13 16 -1.7742149452453513 0 1.0 -1.7742149452453513 1
gene  1 14 16 6.124325802190564 0 1.0 6.124325802190564 1
gene  1 1 17 1.2038829492058916 0 1.0 1.2038829492058916 1
gene  1 2 17 0.9581610679694261 0 1.0 0.9581610679694261 1
gene  1 3 17 1.3089387187551074 0 1.0 1.3089387187551074 1
gene  1 4 17 0.2424667444524362 0 1.0 0.2424667444524362 1
gene  1 5 17 0.6667483913417545 0 1.0 0.6667483913417545 1
gene  1 6 17 -0.03269185188250834 0 1.0 -0.03269185188250834 1
gene  1 7 17 -0.9623703478009633 0 1.0 -0.9623703478009633 1
gene  1 8 17 0.7786982469545372 0 1.0 0.7786982469545372 1
gene  1 9 17 -0.050333014816352994 0 1.0 -0.050333014816352994 1
gene  1 10 17 -5.409704795255889 0 1.0 -5.409704795255889 1
gene  1 11 17 -1.3440062520895144 0 1.0 -1.3440062520895144 1
gene  1 12 17 -2.0977603909373883 0 1.0 -2.0977603909373883 1
gene  1 13 17 -2.180058151193178 0 1.0 -2.180058151193178 1
gene  1 14 17 1.8238439923021406 0 1.0 1.8238439923021406 1
gene  1 1 18 1.110496560845311 0 1.0 1.110496560845311 1
gene  1 2 18 2.22202048832563 0 1.0 2.22202048832563 1
gene  1 3 18 -2.544043241769754 0 1.0 -2.544043241769754 1
gene  1 4 18 -0.2962999811656825 0 1.0 -0.2962999811656825 1
gene  1 5 18 4.883006496423532 0 1.0 4.883006496423532 1
gene  1 6 18 1.7824301968237253 0 1.0 1.7824301968237253 1
gene  1 7 18 0.2825534232916955 0 1.0 0.2825534232916955 1
gene  1 8 18 0.2653570975463704 0 1.0 0.2653570975463704 1
gene  1 9 18 -1.8976763689236134 0 1.0 -1.8976763689236134 1
gene  1 10 18 1.5853619659804954 0 1.0 1.5853619659804954 1
gene  1 11 18 3.6153135603803737 0 1.0 3.6153135603803737 1
gene  1 12 18 -1.1558349677225443 0 1.0 -1.1558349677225443 1
gene  1 13 18 -0.006112066300588692 0 1.0 -0.006112066300588692 1
gene  1 14 18 -0.47564496499191666 0 1.0 -0.47564496499191666 1
gene  1 1 19 -0.8080542517323885 0 1.0 -0.8080542517323885 1
gene  1 2 19 -1.9489797329248542 0 1.0 -1.9489797329248542 1
gene  1 3 19 0.8945870982898421 0 1.0 0.8945870982898421 1
gene  1 4 19 -1.0179058802786196 0 1.0 -1.0179058802786196 1
gene  1 5 19 -2.3235921792437617 0 1.0 -2.3235921792437617 1
gene  1 6 19 0.9913645276391164 0 1.0 0.9913645276391164 1
gene  1 7 19 -0.37983905988886146 0 1.0 -0.37983905988886146 1
gene  1 8 19 0.8996985629260432 0 1.0 0.8996985629260432 1
gene  1 9 19 -1.3692649640849788 0 1.0 -1.3692649640849788 1
gene  1 10 19 0.2373171843927282 0 1.0 0.2373171843927282 1
gene  1 11 19 4.03839787554805 0 1.0 4.03839787554805 1
gene  1 12 19 2.250472061915434 0 1.0 2.250472061915434 1
gene  1 13 19 -3.0309866079004535 0 1.0 -3.0309866079004535 1
gene  1 14 19 0.6609637216588653 0 1.0 0.6609637216588653 1
gene  1 1 20 1.1332514397101299 0 1.0 1.1332514397101299 1
gene  1 2 20 -2.9865411394900674 0 1.0 -2.9865411394900674 1
gene  1 3 20 1.86494492013707 0 1.0 1.86494492013707 1
gene  1 4 20 -1.720243592668039 0 1.0 -1.720243592668039 1
gene  1 5 20 1.4535305945306485 0 1.0 1.4535305945306485 1
gene  1 6 20 1.099146827863898 0 1.0 1.099146827863898 1
gene  1 7 20 1.687853266652111 0 1.0 1.687853266652111 1
gene  1 8 20 -0.8890585771246536 0 1.0 -0.8890585771246536 1
gene  1 9 20 -2.0103606952958013 0 1.0 -2.0103606952958013 1
gene  1 10 20 0.677196741918726 0 1.0 0.677196741918726 1
gene  1 11 20 -1.4068365974595398 0 1.0 -1.4068365974595398 1
gene  1 12 20 -1.492122838600077 0 1.0 -1.492122838600077 1
gene  1 13 20 -1.6748761142705193 0 1.0 -1.6748761142705193 1
gene  1 14 20 -1.2088409022343785 0 1.0 -1.2088409022343785 1
genomeend 14
/* Organism # 015 Fitness:  10,000 Error:  0,000                      */
genomestart  15
trait 1 0.1 0.0 0.0 0.0 0.0 0.0 0.0 0.0 
trait 2 0.2 0.0 0.0 0.0 0.0 0.0 0.0 0.0 
trait 3 0.35610420576772844 0.0 0.0 0.0 0.0 0.0 0.0 0.04526434675837661 
node 1 1 1 3
node 2 1 1 1
node 3 1 1 1
node 4 1 1 1
node 5 1 1 1
node 6 1 1 1
node 7 1 1 1
node 8 1 1 1
node 9 1 1 1
node 10 1 1 1
node 11 1 1 1
node 12 1 1 1
node 13 1 1 1
node 14 1 1 1
node 15 1 0 2
node 16 1 0 2
node 17 1 0 2
node 18 1 0 2
node 19 1 0 2
node 20 1 0 2
gene  1 1 15 -1.3148529139566318 0 1.0 -1.3148529139566318 1
gene  1 2 15 0.32094511967412886 0 1.0 0.32094511967412886 1
gene  1 3 15 1.757990497978472 0 1.0 1.757990497978472 1
gene  1 4 15 -0.9248437607547497 0 1.0 -0.9248437607547497 1
gene  1 5 15 -3.71507506187768 0 1.0 -3.71507506187768 1
gene  1 6 15 -2.1345296609705517 0 1.0 -2.1345296609705517 1
gene  3 7 15 0.31737536433103536 0 1.0 0.31737536433103536 1
gene  1 8 15 0.27758196481591013 0 1.0 0.27758196481591013 1
gene  1 9 15 -0.38216755896859445 0 1.0 -0.38216755896859445 1
gene  1 10 15 0.49245271244680494 0 1.0 0.49245271244680494 1
gene  1 11 15 -1.5937545076669646 0 1.0 -1.5937545076669646 1
gene  1 12 15 -2.2382619796195575 0 1.0 -2.2382619796195575 1
gene  1 13 15 0.16096680256294715 0 1.0 0.16096680256294715 1
gene  1 14 15 -1.7853063242928273 0 1.0 -1.7853063242928273 1
gene  1 1 16 1.2495341296309492 0 1.0 1.2495341296309492 1
gene  1 2 16 -1.942318094886091 0 1.0 -1.942318094886091 1
gene  1 3 16 0.32033431530557516 0 1.0 0.32033431530557516 1
gene  1 4 16 -1.0469976178180977 0 1.0 -1.0469976178180977 1
gene  1 5 16 0.9293315917151421 0 1.0 0.9293315917151421 1
gene  1 6 16 -1.059232831208798 0 1.0 -1.059232831208798 1
gene  1 7 16 1.153895210306537 0 1.0 1.153895210306537 1
gene  1 8 16 3.582377376343948 0 1.0 3.582377376343948 1
gene  1 9 16 1.6789038055244934 0 1.0 1.6789038055244934 1
gene  1 10 16 -0.793615329248194 0 1.0 -0.793615329248194 1
gene  1 11 16 6.515370348126131 0 1.0 6.515370348126131 1
gene  1 12 16 -3.7935267259547305 0 1.0 -3.7935267259547305 1
gene  1 13 16 0.07638910505687724 0 1.0 0.07638910505687724 1
gene  1 14 16 -2.4614409212930863 0 1.0 -2.4614409212930863 1
gene  1 1 17 -1.0663366118835742 0 1.0 -1.0663366118835742 1
gene  1 2 17 0.20015977021105424 0 1.0 0.20015977021105424 1
gene  1 3 17 6.415569912852671 0 1.0 6.415569912852671 1
gene  1 4 17 -3.619662116369317 0 1.0 -3.619662116369317 1
gene  1 5 17 4.12006930105783 0 1.0 4.12006930105783 1
gene  1 6 17 -1.2745930173181153 0 1.0 -1.2745930173181153 1
gene  1 7 17 1.1355384249688358 0 1.0 1.1355384249688358 1
gene  1 8 17 2.4103326545332324 0 1.0 2.4103326545332324 1
gene  1 9 17 1.2132297740485574 0 1.0 1.2132297740485574 1
gene  1 10 17 -1.9817763021037484 0 1.0 -1.9817763021037484 1
gene  1 11 17 -0.1347702827469065 0 1.0 -0.1347702827469065 1
gene  1 12 17 -2.5890214174948873 0 1.0 -2.5890214174948873 1
gene  1 13 17 1.8296037177197442 0 1.0 1.8296037177197442 1
gene  1 14 17 0.2201904101041603 0 1.0 0.2201904101041603 1
gene  1 1 18 3.2746181197408744 0 1.0 3.2746181197408744 1
gene  1 2 18 1.6673374454745167 0 1.0 1.6673374454745167 1
gene  1 3 18 -0.9491278592842711 0 1.0 -0.9491278592842711 1
gene  1 4 18 2.687624074039145 0 1.0 2.687624074039145 1
gene  1 5 18 0.13755634298451747 0 1.0 0.13755634298451747 1
gene  1 6 18 2.913603010718786 0 1.0 2.913603010718786 1
gene  1 7 18 -1.8538294703823328 0 1.0 -1.8538294703823328 1
gene  1 8 18 0.09493142692984746 0 1.0 0.09493142692984746 1
gene  1 9 18 -0.74523411576305 0 1.0 -0.74523411576305 1
gene  1 10 18 -1.1128630714984968 0 1.0 -1.1128630714984968 1
gene  1 11 18 0.6627923254369855 0 1.0 0.6627923254369855 1
gene  1 12 18 0.4495270484751717 0 1.0 0.4495270484751717 1
gene  1 13 18 -1.137271510412737 0 1.0 -1.137271510412737 1
gene  1 14 18 -2.3155784290956944 0 1.0 -2.3155784290956944 1
gene  1 1 19 1.6527688306543027 0 1.0 1.6527688306543027 1
gene  1 2 19 2.0585191488946784 0 1.0 2.0585191488946784 1
gene  1 3 19 -3.4105111335883107 0 1.0 -3.4105111335883107 1
gene  1 4 19 -0.9659944896247713 0 1.0 -0.9659944896247713 1
gene  1 5 19 -0.6969562078094678 0 1.0 -0.6969562078094678 1
gene  1 6 19 -0.34751663314010695 0 1.0 -0.34751663314010695 1
gene  1 7 19 -0.031501873294254024 0 1.0 -0.031501873294254024 1
gene  1 8 19 -0.21570367157376258 0 1.0 -0.21570367157376258 1
gene  1 9 19 -3.1718369247223723 0 1.0 -3.1718369247223723 1
gene  1 10 19 -2.3902543585565477 0 1.0 -2.3902543585565477 1
gene  1 11 19 2.3256498652436948 0 1.0 2.3256498652436948 1
gene  1 12 19 1.0177393952547602 0 1.0 1.0177393952547602 1
gene  1 13 19 2.007469119534936 0 1.0 2.007469119534936 1
gene  1 14 19 1.469663178775029 0 1.0 1.469663178775029 1
gene  1 1 20 1.5898951263816348 0 1.0 1.5898951263816348 1
gene  1 2 20 0.6585537152866048 0 1.0 0.6585537152866048 1
gene  1 3 20 0.2092799019822139 0 1.0 0.2092799019822139 1
gene  1 4 20 -1.3462311713711843 0 1.0 -1.3462311713711843 1
gene  1 5 20 -1.5306348386584645 0 1.0 -1.5306348386584645 1
gene  1 6 20 -2.344369497636313 0 1.0 -2.344369497636313 1
gene  1 7 20 -0.6176149264078221 0 1.0 -0.6176149264078221 1
gene  1 8 20 3.2185043794709465 0 1.0 3.2185043794709465 1
gene  1 9 20 -2.2259877608176755 0 1.0 -2.2259877608176755 1
gene  1 10 20 0.2744352524747242 0 1.0 0.2744352524747242 1
gene  1 11 20 1.2764505732989866 0 1.0 1.2764505732989866 1
gene  1 12 20 -1.848004428246284 0 1.0 -1.848004428246284 1
gene  1 13 20 1.6971643880797818 0 1.0 1.6971643880797818 1
gene  1 14 20 -1.5365876496964612 0 1.0 -1.5365876496964612 1
genomeend 15
/* Organism # 016 Fitness:  44,000 Error:  0,000                      */
genomestart  16
trait 1 0.1 0.0 0.0 0.0 0.0 0.0 0.0 0.0 
trait 2 0.2 0.0 0.0 0.0 0.0 0.0 0.0 0.0 
trait 3 0.2420455576898474 0.0 0.0 0.0 0.0 0.0 0.0 0.0 
node 1 1 1 3
node 2 1 1 1
node 3 1 1 1
node 4 1 1 1
node 5 1 1 1
node 6 1 1 1
node 7 1 1 1
node 8 1 1 1
node 9 1 1 1
node 10 1 1 1
node 11 1 1 1
node 12 1 1 1
node 13 1 1 1
node 14 1 1 1
node 15 1 0 2
node 16 1 0 2
node 17 1 0 2
node 18 1 0 2
node 19 1 0 2
node 20 1 0 2
gene  1 1 15 1.0996686334629167 0 1.0 1.0996686334629167 1
gene  1 2 15 0.3530780281043804 0 1.0 0.3530780281043804 1
gene  1 3 15 -0.8105267683768775 0 1.0 -0.8105267683768775 1
gene  1 4 15 -1.8854259513188123 0 1.0 -1.8854259513188123 1
gene  1 5 15 -1.0594957602402353 0 1.0 -1.0594957602402353 1
gene  1 6 15 -3.207505174597161 0 1.0 -3.207505174597161 1
gene  1 7 15 0.0619455764959399 0 1.0 0.0619455764959399 1
gene  1 8 15 2.104907223734805 0 1.0 2.104907223734805 1
gene  1 9 15 2.4277221284481434 0 1.0 2.4277221284481434 1
gene  1 10 15 -0.7447537023445905 0 1.0 -0.7447537023445905 1
gene  1 11 15 0.7843033436959699 0 1.0 0.7843033436959699 1
gene  1 12 15 -5.377210444987145 0 1.0 -5.377210444987145 1
gene  1 13 15 -0.5752696598318474 0 1.0 -0.5752696598318474 1
gene  1 14 15 -0.27827004400221544 0 1.0 -0.27827004400221544 1
gene  1 1 16 7.542475986529048 0 1.0 7.542475986529048 1
gene  1 2 16 1.779155653043998 0 1.0 1.779155653043998 1
gene  1 3 16 -2.666756171427066 0 1.0 -2.666756171427066 1
gene  1 4 16 1.683010896517126 0 1.0 1.683010896517126 1
gene  1 5 16 0.8049055063351298 0 1.0 0.8049055063351298 1
gene  1 6 16 -3.52019457395582 0 1.0 -3.52019457395582 1
gene  1 7 16 0.0522017754859716 0 1.0 0.0522017754859716 1
gene  1 8 16 0.09832061718126806 0 1.0 0.09832061718126806 1
gene  1 9 16 -3.392617450832434 0 1.0 -3.392617450832434 1
gene  1 10 16 -0.39921049002895725 0 1.0 -0.39921049002895725 1
gene  1 11 16 4.399982955788175 0 1.0 4.399982955788175 1
gene  1 12 16 -1.0350535003050536 0 1.0 -1.0350535003050536 1
gene  1 13 16 -0.08790919795869323 0 1.0 -0.08790919795869323 1
gene  1 14 16 1.3466195762035782 0 1.0 1.3466195762035782 1
gene  1 1 17 -0.6761477256134673 0 1.0 -0.6761477256134673 1
gene  1 2 17 5.659380533809216 0 1.0 5.659380533809216 1
gene  1 3 17 0.059719257101038536 0 1.0 0.059719257101038536 1
gene  1 4 17 -3.1243382565550855 0 1.0 -3.1243382565550855 1
gene  1 5 17 1.2480446106040008 0 1.0 1.2480446106040008 1
gene  1 6 17 1.0729860532059192 0 1.0 1.0729860532059192 1
gene  1 7 17 3.110723029173977 0 1.0 3.110723029173977 1
gene  1 8 17 -0.6682305729062998 0 1.0 -0.6682305729062998 1
gene  1 9 17 -0.3354768491307286 0 1.0 -0.3354768491307286 1
gene  1 10 17 -4.715246097977334 0 1.0 -4.715246097977334 1
gene  1 11 17 -0.3878521185960775 0 1.0 -0.3878521185960775 1
gene  1 12 17 0.21025513808633123 0 1.0 0.21025513808633123 1
gene  1 13 17 1.266204104287904 0 1.0 1.266204104287904 1
gene  1 14 17 1.049717039739163 0 1.0 1.049717039739163 1
gene  1 1 18 -0.18611019565166775 0 1.0 -0.18611019565166775 1
gene  1 2 18 1.4859356570071514 0 1.0 1.4859356570071514 1
gene  1 3 18 2.4011935041678925 0 1.0 2.4011935041678925 1
gene  1 4 18 2.1156476207180637 0 1.0 2.1156476207180637 1
gene  1 5 18 0.22937744413495942 0 1.0 0.22937744413495942 1
gene  1 6 18 -0.3317550707586564 0 1.0 -0.3317550707586564 1
gene  1 7 18 5.217657040238861 0 1.0 5.217657040238861 1
gene  1 8 18 -0.30101225457670444 0 1.0 -0.30101225457670444 1
gene  1 9 18 3.171249559402912 0 1.0 3.171249559402912 1
gene  1 10 18 -0.5175961326718257 0 1.0 -0.5175961326718257 1
gene  1 11 18 3.77145157405572 0 1.0 3.77145157405572 1
gene  1 12 18 0.5787999659504623 0 1.0 0.5787999659504623 1
gene  1 13 18 -1.4701423181453843 0 1.0 -1.4701423181453843 1
gene  1 14 18 -0.83293805961824 0 1.0 -0.83293805961824 1
gene  1 1 19 -4.212567523476523 0 1.0 -4.212567523476523 1
gene  1 2 19 -1.5011833834096366 0 1.0 -1.5011833834096366 1
gene  1 3 19 -1.2742461380139092 0 1.0 -1.2742461380139092 1
gene  1 4 19 3.467724936061411 0 1.0 3.467724936061411 1
gene  1 5 19 -1.180190260371789 0 1.0 -1.180190260371789 1
gene  1 6 19 2.67745872245563 0 1.0 2.67745872245563 1
gene  1 7 19 2.0969925750718956 0 1.0 2.0969925750718956 1
gene  1 8 19 4.650067369237059 0 1.0 4.650067369237059 1
gene  1 9 19 -3.527491813848356 0 1.0 -3.527491813848356 1
gene  1 10 19 1.3063864293790441 0 1.0 1.3063864293790441 1
gene  1 11 19 1.4737060018065575 0 1.0 1.4737060018065575 1
gene  1 12 19 -0.4171264800784691 0 1.0 -0.4171264800784691 1
gene  1 13 19 3.80363930999924 0 1.0 3.80363930999924 1
gene  1 14 19 -1.7554596423663285 0 1.0 -1.7554596423663285 1
gene  1 1 20 3.7657137179756326 0 1.0 3.7657137179756326 1
gene  1 2 20 -0.847261751100577 0 1.0 -0.847261751100577 1
gene  1 3 20 -2.355685609806525 0 1.0 -2.355685609806525 1
gene  1 4 20 1.0905317391025204 0 1.0 1.0905317391025204 1
gene  1 5 20 -1.0386367679226682 0 1.0 -1.0386367679226682 1
gene  1 6 20 -0.38322392370763225 0 1.0 -0.38322392370763225 1
gene  1 7 20 0.2666786976566602 0 1.0 0.2666786976566602 1
gene  1 8 20 -1.1013668717032123 0 1.0 -1.1013668717032123 1
gene  1 9 20 2.085633112717779 0 1.0 2.085633112717779 1
gene  1 10 20 -1.6346418957842723 0 1.0 -1.6346418957842723 1
gene  1 11 20 -1.752670707748409 0 1.0 -1.752670707748409 1
gene  1 12 20 1.8440707105969742 0 1.0 1.8440707105969742 1
gene  1 13 20 -2.4571586454067016 0 1.0 -2.4571586454067016 1
gene  1 14 20 0.3086017680362534 0 1.0 0.3086017680362534 1
genomeend 16
/* Organism # 017 Fitness:  10,000 Error:  0,000                      */
genomestart  17
trait 1 0.1 0.0 0.0 0.0 0.0 0.0 0.0 0.0 
trait 2 0.2 0.0 0.0 0.0 0.0 0.0 0.0 0.0 
trait 3 0.28551138942246185 0.0 0.0 0.0 0.0 0.0 0.0 0.0 
node 1 1 1 3
node 2 1 1 1
node 3 1 1 1
node 4 1 1 1
node 5 1 1 1
node 6 1 1 1
node 7 1 1 1
node 8 1 1 1
node 9 1 1 1
node 10 1 1 1
node 11 1 1 1
node 12 1 1 1
node 13 1 1 1
node 14 1 1 1
node 15 1 0 2
node 16 1 0 2
node 17 1 0 2
node 18 1 0 2
node 19 1 0 2
node 20 1 0 2
gene  1 1 15 -1.6843408363878383 0 1.0 -1.6843408363878383 1
gene  1 2 15 2.4832862454188986 0 1.0 2.4832862454188986 1
gene  1 3 15 -0.6007576725863881 0 1.0 -0.6007576725863881 1
gene  1 4 15 -0.82326982982505 0 1.0 -0.82326982982505 1
gene  1 5 15 -1.441041358546428 0 1.0 -1.441041358546428 1
gene  1 6 15 -2.696089966304106 0 1.0 -2.696089966304106 1
gene  1 7 15 0.8505701943803974 0 1.0 0.8505701943803974 1
gene  1 8 15 -0.336608005099431 0 1.0 -0.336608005099431 1
gene  1 9 15 0.9396596451061182 0 1.0 0.9396596451061182 1
gene  1 10 15 -0.47372445537441155 0 1.0 -0.47372445537441155 1
gene  1 11 15 -1.959712264290707 0 1.0 -1.959712264290707 1
gene  1 12 15 -2.9090537039590947 0 1.0 -2.9090537039590947 1
gene  1 13 15 -0.05600347351548379 0 1.0 -0.05600347351548379 1
gene  1 14 15 -4.122201441976243 0 1.0 -4.122201441976243 1
gene  1 1 16 2.9206286034528572 0 1.0 2.9206286034528572 1
gene  1 2 16 -2.139123381240288 0 1.0 -2.139123381240288 1
gene  1 3 16 -2.897918887760358 0 1.0 -2.897918887760358 1
gene  1 4 16 -0.038523397103387036 0 1.0 -0.038523397103387036 1
gene  1 5 16 -1.748590809899603 0 1.0 -1.748590809899603 1
gene  1 6 16 -1.4135111849640905 0 1.0 -1.4135111849640905 1
gene  1 7 16 0.8160400700717508 0 1.0 0.8160400700717508 1
gene  1 8 16 1.195858552596925 0 1.0 1.195858552596925 1
gene  1 9 16 0.7522656670476889 0 1.0 0.7522656670476889 1
gene  1 10 16 -1.892648748122858 0 1.0 -1.892648748122858 1
gene  1 11 16 1.557790952022366 0 1.0 1.557790952022366 1
gene  1 12 16 -0.8004377305373365 0 1.0 -0.8004377305373365 1
gene  1 13 16 1.602375493206178 0 1.0 1.602375493206178 1
gene  1 14 16 1.4372387399186226 0 1.0 1.4372387399186226 1
gene  1 1 17 -1.1003521322937155 0 1.0 -1.1003521322937155 1
gene  1 2 17 -0.775309087875331 0 1.0 -0.775309087875331 1
gene  1 3 17 0.7064292996650714 0 1.0 0.7064292996650714 1
gene  1 4 17 -2.2598573890248677 0 1.0 -2.2598573890248677 1
gene  1 5 17 1.5565506303783974 0 1.0 1.5565506303783974 1
gene  1 6 17 -2.1705989696370738 0 1.0 -2.1705989696370738 1
gene  1 7 17 1.3806007462182177 0 1.0 1.3806007462182177 1
gene  1 8 17 -2.702647448503444 0 1.0 -2.702647448503444 1
gene  1 9 17 -2.2472580930570114 0 1.0 -2.2472580930570114 1
gene  1 10 17 -3.189953897450268 0 1.0 -3.189953897450268 1
gene  1 11 17 -1.2611176776594581 0 1.0 -1.2611176776594581 1
gene  1 12 17 0.9442820471153454 0 1.0 0.9442820471153454 1
gene  1 13 17 -1.1482013656086614 0 1.0 -1.1482013656086614 1
gene  1 14 17 -1.3345189023901636 0 1.0 -1.3345189023901636 1
